~o
<STREAMINFO> 5 180 1 1 1 15
<MSDINFO> 5 0 1 1 1 0
<VECSIZE> 198<NULLD><USER><DIAGC>
~h "C"
<BEGINHMM>
<NUMSTATES> 7
<STATE> 2
<SWEIGHTS> 5
 1.000000e+00 0.000000e+00 0.000000e+00 0.000000e+00 0.000000e+00
<STREAM> 1
<MEAN> 180
 5.457110e+00 1.571605e+00 2.590904e-01 1.425420e+00 1.891122e-01 4.791681e-01 -2.218101e-01 4.442097e-01 -1.724766e-01 6.326072e-02 -2.595870e-01 1.777529e-01 -2.497384e-01 7.072335e-02 -1.224933e-01 6.233918e-02 -1.814831e-01 5.123818e-02 -1.578712e-01 9.054778e-02 -5.534877e-02 1.959614e-02 -6.631947e-02 9.268396e-02 -1.623235e-02 4.973986e-02 -5.880218e-02 6.361719e-02 -2.822726e-02 5.293034e-02 -7.293157e-02 8.281784e-02 -5.801157e-02 3.959034e-02 -2.916260e-02 3.825217e-02 -5.012669e-02 5.293160e-02 -5.368580e-02 4.639785e-02 -4.692762e-02 4.496991e-02 -4.431481e-02 3.763479e-02 -2.911906e-02 1.840982e-02 -1.365453e-02 1.087076e-02 -9.950512e-03 1.203077e-02 -1.600068e-02 1.308465e-02 -4.816351e-03 -3.564619e-03 6.321946e-03 -1.170112e-03 -1.019657e-02 2.040762e-02 -2.288489e-02 1.874467e-02 -1.837383e-02 -1.827377e-01 -4.027077e-02 2.437026e-02 -3.588942e-02 -1.163018e-02 2.048829e-02 1.728017e-02 -7.466786e-03 7.921668e-03 7.683371e-03 1.555354e-02 -2.817981e-03 -3.056566e-04 -2.228040e-02 -1.292494e-03 3.381189e-03 -1.535435e-02 1.699037e-03 1.077544e-02 -1.058303e-02 2.489117e-03 -7.728521e-03 9.972525e-03 -7.359676e-03 -1.263884e-03 6.868741e-03 6.521853e-04 -1.090191e-03 1.616023e-03 2.614252e-03 -9.815732e-04 1.164475e-03 -2.230621e-04 -1.374151e-03 2.198036e-03 -2.148301e-03 -2.722147e-04 1.379842e-03 -8.491910e-04 -1.177803e-04 7.892587e-04 -2.027644e-04 8.014875e-06 -8.141010e-04 1.079925e-03 -4.508277e-04 -1.607100e-04 -7.325902e-04 3.679549e-03 -6.141600e-03 5.430575e-03 -2.560257e-03 1.545856e-05 1.340767e-03 -1.399514e-03 5.152072e-04 5.045448e-04 -9.278855e-04 8.671751e-04 9.340445e-03 1.883628e-03 -9.081690e-03 -2.196836e-02 -1.628354e-02 -2.337336e-03 4.367266e-03 -3.077524e-03 -8.127443e-03 -3.214722e-03 3.889551e-03 3.707255e-04 1.654480e-03 5.521005e-03 -1.913067e-03 -3.351158e-03 -3.799535e-03 -1.440976e-03 4.790303e-03 -4.056899e-03 -3.008419e-03 1.065728e-03 -3.873779e-04 -3.078151e-04 -3.896901e-03 1.854690e-03 2.230085e-03 -1.150194e-03 -1.178239e-03 4.355883e-03 -4.072834e-04 5.746280e-04 -5.207339e-05 1.794525e-04 1.237962e-03 8.193607e-04 -7.578839e-04 5.775031e-04 -2.133746e-03 2.638590e-03 -6.026723e-04 -3.527753e-03 3.101532e-03 -1.988514e-04 -2.330259e-03 1.926533e-03 1.082349e-03 -2.128394e-03 7.618725e-04 -1.006464e-04 5.980100e-04 1.302756e-04 -7.405464e-04 1.537136e-03 -2.393016e-03 1.928327e-03 -4.775042e-04 -1.249096e-03 1.486543e-03 8.197880e-05
<VARIANCE> 180
 2.297361e-01 5.069702e-01 1.460620e-01 1.027943e-01 6.633989e-02 4.450658e-02 6.620259e-02 4.139180e-02 5.009644e-02 2.216968e-02 2.976082e-02 2.858687e-02 2.556041e-02 2.406749e-02 2.135629e-02 2.415700e-02 2.185553e-02 2.243534e-02 2.248627e-02 1.435503e-02 1.319424e-02 1.283622e-02 1.148375e-02 9.845204e-03 8.893901e-03 8.991458e-03 6.248093e-03 5.802958e-03 5.217366e-03 5.524080e-03 5.495601e-03 4.630820e-03 4.684161e-03 4.103231e-03 3.802323e-03 4.339738e-03 3.734048e-03 3.943035e-03 3.453311e-03 2.918473e-03 3.340433e-03 3.403140e-03 3.084715e-03 2.858337e-03 3.135804e-03 3.122365e-03 2.922649e-03 2.970711e-03 2.788607e-03 3.037721e-03 3.009846e-03 2.435673e-03 2.265523e-03 2.318795e-03 2.384514e-03 2.382465e-03 2.241596e-03 2.283909e-03 2.274399e-03 2.059203e-03 1.899959e-02 2.129046e-02 1.267101e-02 1.409294e-02 1.093895e-02 9.447604e-03 8.851634e-03 8.611893e-03 6.578223e-03 6.159518e-03 6.191430e-03 5.695248e-03 5.708547e-03 5.473405e-03 7.004085e-03 5.222740e-03 4.504635e-03 4.263042e-03 3.958710e-03 3.520906e-03 3.562306e-03 3.706671e-03 3.039793e-03 2.499716e-03 2.405324e-03 2.326051e-03 2.105214e-03 1.905840e-03 1.794834e-03 2.009495e-03 1.935698e-03 1.455738e-03 1.439424e-03 1.249492e-03 1.171549e-03 1.253418e-03 1.183911e-03 1.015699e-03 1.049491e-03 9.078915e-04 9.193661e-04 8.546269e-04 8.941115e-04 9.391445e-04 8.895517e-04 7.990675e-04 8.492940e-04 8.919692e-04 6.846485e-04 6.997266e-04 7.836205e-04 6.922209e-04 6.439717e-04 6.680911e-04 5.904139e-04 5.681406e-04 5.735311e-04 5.871262e-04 5.193012e-04 5.155739e-04 5.167680e-02 4.654006e-02 4.088901e-02 4.143480e-02 3.310009e-02 4.114012e-02 3.342691e-02 3.388080e-02 3.559062e-02 3.145872e-02 3.182539e-02 3.046592e-02 2.766254e-02 2.973512e-02 3.344587e-02 2.618089e-02 2.608168e-02 2.403797e-02 2.216348e-02 2.144231e-02 2.067676e-02 2.054560e-02 1.475808e-02 1.526017e-02 1.391608e-02 1.362686e-02 1.357611e-02 1.214384e-02 1.125686e-02 1.032294e-02 1.114950e-02 9.404544e-03 8.955875e-03 8.568878e-03 8.303777e-03 7.656281e-03 8.595294e-03 5.974470e-03 5.981657e-03 5.768429e-03 5.427664e-03 4.926754e-03 5.135214e-03 5.227363e-03 5.031392e-03 4.215183e-03 5.195417e-03 5.507281e-03 4.055853e-03 4.290536e-03 4.591881e-03 4.024966e-03 3.934152e-03 4.044275e-03 3.789481e-03 3.501915e-03 3.343228e-03 3.160646e-03 3.171211e-03 3.129649e-03
<GCONST> -5.921519e+02
<STREAM> 2
<NUMMIXES> 2
<MIXTURE> 1 9.216087e-01
<MEAN> 1
 5.254667e+00
<VARIANCE> 1
 2.111233e-02
<GCONST> -2.020021e+00
<MIXTURE> 2 7.839131e-02
<MEAN> 0
<VARIANCE> 0
<GCONST> 0.000000e+00
<STREAM> 3
<NUMMIXES> 2
<MIXTURE> 1 8.641847e-01
<MEAN> 1
 -5.658321e-03
<VARIANCE> 1
 8.406154e-04
<GCONST> -5.243500e+00
<MIXTURE> 2 1.358152e-01
<MEAN> 0
<VARIANCE> 0
<GCONST> 0.000000e+00
<STREAM> 4
<NUMMIXES> 2
<MIXTURE> 1 8.581080e-01
<MEAN> 1
 8.258497e-04
<VARIANCE> 1
 3.797032e-03
<GCONST> -3.735658e+00
<MIXTURE> 2 1.418919e-01
<MEAN> 0
<VARIANCE> 0
<GCONST> 0.000000e+00
<STREAM> 5
<MEAN> 15
 -2.479825e+00 -2.489604e+00 -2.506322e+00 -2.594696e+00 -2.496042e+00 9.533528e-02 1.137424e-01 9.385324e-02 1.284395e-01 8.712064e-02 3.025414e-02 1.144830e-02 4.664186e-02 5.937405e-02 1.232332e-02
<VARIANCE> 15
 1.748527e+00 1.751380e+00 1.651151e+00 1.829985e+00 1.752365e+00 7.288455e-01 6.812073e-01 6.999942e-01 7.315761e-01 6.881033e-01 6.705185e+00 5.734567e+00 6.434459e+00 6.214411e+00 6.675197e+00
<GCONST> 3.784718e+01
<STATE> 3
<SWEIGHTS> 5
 1.000000e+00 0.000000e+00 0.000000e+00 0.000000e+00 0.000000e+00
<STREAM> 1
<MEAN> 180
 5.271311e+00 3.395548e-01 -1.061907e-01 1.296442e+00 -2.933013e-01 3.955986e-01 -1.299039e-01 3.994144e-01 -2.818612e-01 1.544653e-01 -1.524721e-01 2.553433e-01 -1.895673e-01 1.921754e-01 -1.981568e-01 1.225068e-01 -1.420304e-01 -5.182127e-02 -1.263932e-01 1.226841e-01 -1.548313e-01 5.268672e-02 -8.517949e-02 9.241847e-02 -1.095397e-01 8.822060e-02 -4.743447e-02 5.872750e-02 -3.178342e-02 1.043106e-01 -7.441372e-02 7.918179e-02 -4.506981e-02 3.291516e-02 -3.012550e-02 4.410483e-02 -5.356738e-02 5.312048e-02 -5.902406e-02 5.127236e-02 -5.266412e-02 3.810243e-02 -3.398618e-02 2.974120e-02 -3.741569e-02 3.693438e-02 -3.214464e-02 1.818811e-02 -1.546217e-02 1.919979e-02 -2.784842e-02 2.440981e-02 -1.309194e-02 8.184094e-03 -7.263562e-03 6.503004e-03 -4.585390e-03 6.613092e-03 -1.235171e-02 1.899944e-02 -2.564074e-03 -8.537218e-03 -2.619348e-02 -2.092953e-02 -2.931940e-02 -1.908162e-02 -2.817000e-03 -1.079026e-03 -4.793546e-03 -1.588865e-03 5.564958e-03 -1.914159e-06 5.119460e-03 8.594976e-03 4.060962e-03 5.471449e-03 3.600436e-04 -2.936337e-03 -8.810714e-04 -5.712002e-04 -3.870597e-03 8.471531e-04 4.789276e-03 -9.922694e-04 -2.119501e-03 -2.690301e-03 2.348894e-03 -2.368584e-03 4.530935e-04 2.645791e-03 -3.844523e-04 -1.969671e-03 1.483356e-03 1.930998e-04 1.944270e-03 -2.509406e-03 -1.077030e-03 1.414943e-03 -2.429711e-04 -3.085572e-04 1.209723e-03 -8.686834e-04 5.370277e-04 -4.990620e-04 -4.330534e-04 1.853444e-03 -1.256418e-03 -1.027663e-04 -9.301672e-05 -2.992209e-04 1.810938e-03 -2.473637e-03 1.661416e-03 -1.967018e-04 -8.847191e-04 -9.812122e-05 1.495956e-03 -1.522753e-03 3.596662e-04 7.834303e-04 -1.075610e-02 3.896400e-02 1.010117e-02 7.733611e-03 1.421821e-02 -5.236080e-03 -1.098420e-02 -1.845915e-03 4.714603e-03 -6.885200e-03 -5.245980e-03 -7.979416e-03 -1.206144e-03 -2.050843e-03 9.189212e-03 2.222159e-03 3.543033e-04 3.052896e-03 -5.029803e-03 -2.052016e-03 4.938202e-03 -2.663993e-03 1.234239e-03 8.533527e-04 5.269737e-03 -4.372810e-03 -3.195534e-03 1.943375e-03 2.191578e-03 -2.990422e-03 1.567253e-03 1.173445e-03 -1.293947e-03 -7.087095e-04 6.764928e-04 -2.004612e-03 -1.601551e-04 9.151009e-04 8.443909e-04 -1.055963e-03 1.359555e-03 1.147240e-03 -1.258169e-03 -4.113156e-04 1.555559e-03 -1.148945e-03 4.299236e-04 -3.638233e-04 7.751948e-04 -7.883147e-04 1.597342e-03 -2.012535e-03 1.174530e-03 -5.300348e-04 5.753029e-04 -5.945931e-04 -3.418517e-04 1.457992e-03 -1.434561e-03 3.678693e-04
<VARIANCE> 180
 2.000041e-01 2.332482e-01 1.377673e-01 7.885371e-02 5.914613e-02 5.494769e-02 4.688844e-02 2.735155e-02 2.458458e-02 1.886312e-02 1.990706e-02 1.803546e-02 1.991654e-02 1.906549e-02 2.109621e-02 2.112925e-02 1.611500e-02 1.400571e-02 1.972460e-02 1.197870e-02 1.077344e-02 1.348851e-02 1.085128e-02 1.132879e-02 8.617716e-03 8.956693e-03 7.787452e-03 8.409489e-03 7.464440e-03 5.770175e-03 6.288406e-03 5.255708e-03 4.724632e-03 5.406085e-03 4.175668e-03 5.154559e-03 4.189035e-03 5.163056e-03 4.885335e-03 3.442810e-03 3.250854e-03 3.298193e-03 3.226379e-03 3.335226e-03 2.942403e-03 2.876467e-03 3.240953e-03 3.031823e-03 2.534900e-03 2.973847e-03 2.838643e-03 2.575879e-03 3.107210e-03 2.827719e-03 2.549291e-03 2.573655e-03 2.350184e-03 2.162922e-03 2.372429e-03 2.405588e-03 7.111607e-03 1.593352e-02 7.229889e-03 6.235800e-03 6.166653e-03 6.629972e-03 6.104776e-03 4.738525e-03 4.792786e-03 4.392708e-03 3.776615e-03 3.741420e-03 4.279141e-03 3.985008e-03 4.205587e-03 3.976484e-03 3.593341e-03 3.121760e-03 3.539371e-03 3.260872e-03 3.142587e-03 2.750123e-03 2.945755e-03 2.677172e-03 2.475582e-03 2.360116e-03 2.075824e-03 1.889059e-03 1.823771e-03 1.585379e-03 1.651697e-03 1.588469e-03 1.473234e-03 1.426394e-03 1.385363e-03 1.484329e-03 1.283475e-03 1.256732e-03 1.020148e-03 1.018608e-03 8.970432e-04 8.571690e-04 8.795600e-04 7.559180e-04 7.501139e-04 7.353132e-04 6.670984e-04 7.536446e-04 6.555675e-04 6.636341e-04 6.668027e-04 6.634657e-04 6.263127e-04 5.727024e-04 5.518868e-04 5.041669e-04 4.818020e-04 5.001559e-04 4.854231e-04 4.475282e-04 1.243311e-02 1.765117e-02 1.889696e-02 1.872340e-02 2.045129e-02 2.077685e-02 2.053469e-02 1.945589e-02 2.075579e-02 1.874812e-02 1.682180e-02 1.593947e-02 1.880311e-02 2.096468e-02 1.845722e-02 1.802486e-02 1.746076e-02 1.413183e-02 1.622770e-02 1.416613e-02 1.394845e-02 1.349341e-02 1.319937e-02 1.218239e-02 1.086190e-02 9.833696e-03 1.016617e-02 7.770498e-03 8.392949e-03 7.207402e-03 7.193021e-03 6.685321e-03 6.859255e-03 5.986649e-03 6.007724e-03 5.958646e-03 5.109417e-03 5.476643e-03 4.497151e-03 4.425744e-03 4.020195e-03 3.447180e-03 3.450320e-03 3.263480e-03 3.186325e-03 3.262235e-03 3.247044e-03 3.041287e-03 3.190055e-03 2.972512e-03 3.044858e-03 2.755664e-03 2.855714e-03 2.543039e-03 2.470154e-03 2.363383e-03 2.197393e-03 2.371662e-03 2.109936e-03 2.115948e-03
<GCONST> -6.301404e+02
<STREAM> 2
<NUMMIXES> 2
<MIXTURE> 1 5.260077e-01
<MEAN> 1
 5.144359e+00
<VARIANCE> 1
 4.303260e-02
<GCONST> -1.307920e+00
<MIXTURE> 2 4.739917e-01
<MEAN> 0
<VARIANCE> 0
<GCONST> 0.000000e+00
<STREAM> 3
<NUMMIXES> 2
<MIXTURE> 1 4.760731e-01
<MEAN> 1
 2.023389e-04
<VARIANCE> 1
 1.757475e-03
<GCONST> -4.506001e+00
<MIXTURE> 2 5.239263e-01
<MEAN> 0
<VARIANCE> 0
<GCONST> 0.000000e+00
<STREAM> 4
<NUMMIXES> 2
<MIXTURE> 1 4.657467e-01
<MEAN> 1
 7.766664e-04
<VARIANCE> 1
 8.635149e-03
<GCONST> -2.914037e+00
<MIXTURE> 2 5.342525e-01
<MEAN> 0
<VARIANCE> 0
<GCONST> 0.000000e+00
<STREAM> 5
<MEAN> 15
 -1.298441e+00 -1.325169e+00 -1.277889e+00 -1.317870e+00 -1.338600e+00 4.856603e-02 5.590075e-02 6.487804e-02 4.621406e-02 5.886030e-02 -1.952695e-02 -1.288720e-02 -2.380674e-02 -1.700892e-02 -2.899820e-03
<VARIANCE> 15
 1.868951e+00 1.976451e+00 1.848482e+00 1.961728e+00 2.068141e+00 3.147657e-01 3.601493e-01 3.393696e-01 3.646234e-01 4.004297e-01 2.727450e+00 3.001198e+00 2.841670e+00 3.399989e+00 3.335405e+00
<GCONST> 3.128288e+01
<STATE> 4
<SWEIGHTS> 5
 1.000000e+00 0.000000e+00 0.000000e+00 0.000000e+00 0.000000e+00
<STREAM> 1
<MEAN> 180
 5.204677e+00 1.095932e+00 -1.367677e-01 1.254795e+00 -1.177272e-01 2.333268e-01 -3.450683e-01 4.173495e-01 -2.363412e-01 2.044745e-02 -1.963832e-01 1.899277e-01 -1.908066e-01 1.240363e-01 -8.924273e-02 1.166068e-01 -1.518655e-01 -1.650641e-02 -2.052373e-01 1.086184e-01 -9.466810e-02 2.633748e-03 -3.828528e-02 9.543116e-02 -2.839457e-02 1.667315e-02 -2.841019e-02 5.815471e-02 -3.040902e-02 8.217192e-02 -7.239042e-02 7.937571e-02 -4.286346e-02 1.741929e-02 -5.467930e-03 2.278579e-02 -5.481171e-02 6.464288e-02 -5.775061e-02 4.067208e-02 -2.442382e-02 2.707831e-02 -3.126625e-02 3.895520e-02 -4.024163e-02 3.270792e-02 -1.580223e-02 -4.720979e-04 3.734064e-03 -8.584247e-04 4.523480e-05 6.524180e-04 -4.283720e-03 5.609237e-03 -7.213801e-04 -7.055508e-03 3.658571e-03 9.126925e-03 -2.181524e-02 2.796276e-02 1.261613e-01 3.260515e-01 1.337446e-01 5.523765e-02 1.310852e-01 1.199539e-02 -4.250687e-02 1.397252e-02 -1.277990e-03 -3.552191e-02 -2.495119e-02 -2.894184e-02 -1.280669e-02 -2.950945e-02 1.518414e-02 -1.012688e-02 -1.943854e-02 3.810645e-02 -2.410472e-02 5.141641e-03 2.926607e-02 -1.042018e-02 1.193255e-02 -5.624793e-03 2.303654e-02 -3.069204e-03 -8.216894e-03 1.907257e-03 -4.358919e-03 -5.625142e-03 -5.112750e-03 6.335361e-03 -5.657536e-03 -2.183644e-03 7.388690e-04 6.991351e-04 3.497533e-03 4.206106e-03 -7.816798e-03 6.484617e-03 -3.070047e-05 -1.732173e-03 -8.321065e-04 3.782843e-03 -1.998318e-03 -1.537028e-03 4.368784e-03 -4.836985e-03 8.113611e-03 -1.024057e-02 1.007780e-02 -7.647885e-03 4.513091e-03 -1.746781e-03 3.067213e-04 2.325071e-03 -4.517084e-03 4.385283e-03 -2.334742e-03 8.342104e-05 1.511584e-01 7.685468e-02 3.814664e-02 9.884465e-03 2.222478e-02 1.722866e-02 -5.227381e-03 2.339303e-03 -3.120765e-03 1.732149e-02 1.334207e-02 2.997773e-02 1.368425e-02 3.697170e-03 -1.262303e-02 -2.186330e-03 -3.911052e-03 2.246944e-02 3.023489e-03 9.035100e-03 1.106950e-02 1.452781e-03 -3.518215e-04 -2.766543e-03 -1.173038e-02 9.344809e-03 4.582421e-04 -1.209057e-03 -7.695205e-03 -9.324310e-04 -4.679284e-03 -2.603003e-03 5.820192e-04 2.211380e-03 -4.796350e-03 6.878660e-03 -1.603533e-03 -4.068443e-03 -1.663522e-03 3.647381e-03 -7.956980e-03 2.292356e-03 -2.241492e-03 3.664814e-03 -3.981016e-03 3.232791e-03 -2.991484e-03 1.614122e-03 6.800713e-04 -2.051188e-03 -1.259553e-03 2.782640e-03 6.650807e-05 -2.035988e-03 1.112689e-03 1.493252e-03 -1.698294e-03 -7.435391e-04 3.056801e-03 -4.027346e-03
<VARIANCE> 180
 1.626843e-01 2.588821e-01 1.489663e-01 8.699208e-02 6.197500e-02 3.027895e-02 3.529008e-02 2.808973e-02 3.701029e-02 1.823683e-02 2.138099e-02 2.350035e-02 2.304148e-02 1.618251e-02 2.089655e-02 1.700846e-02 1.472942e-02 1.574508e-02 1.922970e-02 1.290006e-02 1.428785e-02 1.274200e-02 1.278015e-02 1.338545e-02 1.154891e-02 1.085504e-02 9.658566e-03 7.636977e-03 8.367907e-03 6.354922e-03 6.688216e-03 4.922241e-03 5.781981e-03 5.498152e-03 4.033223e-03 5.131208e-03 4.366776e-03 4.328974e-03 4.257749e-03 4.370296e-03 4.855691e-03 3.689186e-03 3.435123e-03 3.003558e-03 3.174676e-03 3.149671e-03 3.104609e-03 3.042192e-03 2.019875e-03 2.461929e-03 2.567150e-03 2.615618e-03 2.322164e-03 2.427453e-03 2.199423e-03 2.368129e-03 2.947052e-03 2.441756e-03 2.160169e-03 2.026588e-03 3.751639e-02 3.185212e-02 2.038482e-02 1.279260e-02 8.506440e-03 7.211399e-03 8.383040e-03 7.772710e-03 6.692149e-03 6.186385e-03 5.378989e-03 7.207942e-03 5.613824e-03 4.975941e-03 5.255212e-03 4.541941e-03 4.375494e-03 4.928639e-03 4.419522e-03 4.227052e-03 3.328731e-03 3.692307e-03 3.357033e-03 3.318266e-03 2.650885e-03 2.428867e-03 2.377080e-03 2.442583e-03 2.485544e-03 2.007902e-03 1.885504e-03 1.817965e-03 1.471129e-03 1.733503e-03 1.615531e-03 1.376158e-03 1.460974e-03 1.204863e-03 1.127602e-03 1.132704e-03 1.325635e-03 1.049405e-03 1.090162e-03 8.861533e-04 7.451624e-04 7.139852e-04 7.527514e-04 9.314624e-04 7.586725e-04 6.881891e-04 7.880739e-04 7.622398e-04 6.249189e-04 6.105984e-04 6.601437e-04 5.996295e-04 5.438268e-04 5.868473e-04 4.880312e-04 4.160970e-04 3.483370e-02 4.450435e-02 5.133196e-02 3.214856e-02 3.612151e-02 3.187540e-02 2.833313e-02 3.219622e-02 3.356550e-02 2.786225e-02 2.823732e-02 3.548995e-02 2.938885e-02 2.748997e-02 2.778751e-02 2.381084e-02 2.760720e-02 2.323267e-02 2.254773e-02 2.128068e-02 1.641389e-02 1.519482e-02 1.733631e-02 1.486752e-02 1.559828e-02 1.311349e-02 1.148055e-02 1.231794e-02 1.140808e-02 9.939346e-03 8.716025e-03 7.233113e-03 7.845560e-03 8.484611e-03 7.413932e-03 5.445759e-03 7.633050e-03 5.429344e-03 6.242329e-03 5.506330e-03 5.543202e-03 4.760256e-03 5.007201e-03 4.283352e-03 4.739335e-03 3.293719e-03 4.027246e-03 3.967645e-03 3.513511e-03 3.245676e-03 3.421528e-03 3.329424e-03 2.906834e-03 3.438057e-03 3.636696e-03 2.761383e-03 2.724564e-03 3.020111e-03 2.155960e-03 2.266956e-03
<GCONST> -5.962580e+02
<STREAM> 2
<NUMMIXES> 2
<MIXTURE> 1 6.117982e-01
<MEAN> 1
 5.187755e+00
<VARIANCE> 1
 3.674121e-02
<GCONST> -1.465979e+00
<MIXTURE> 2 3.882022e-01
<MEAN> 0
<VARIANCE> 0
<GCONST> 0.000000e+00
<STREAM> 3
<NUMMIXES> 2
<MIXTURE> 1 4.751605e-01
<MEAN> 1
 4.161454e-02
<VARIANCE> 1
 3.923839e-03
<GCONST> -3.702808e+00
<MIXTURE> 2 5.248396e-01
<MEAN> 0
<VARIANCE> 0
<GCONST> 0.000000e+00
<STREAM> 4
<NUMMIXES> 2
<MIXTURE> 1 4.279255e-01
<MEAN> 1
 1.383010e-02
<VARIANCE> 1
 1.866168e-02
<GCONST> -2.143406e+00
<MIXTURE> 2 5.720748e-01
<MEAN> 0
<VARIANCE> 0
<GCONST> 0.000000e+00
<STREAM> 5
<MEAN> 15
 -1.508490e+00 -1.514774e+00 -1.539470e+00 -1.527459e+00 -1.513145e+00 -3.346805e-01 -3.247424e-01 -3.653137e-01 -3.277109e-01 -3.303690e-01 -3.078174e-01 -2.889155e-01 -2.836043e-01 -2.778725e-01 -3.553988e-01
<VARIANCE> 15
 1.940476e+00 1.884952e+00 2.081008e+00 2.050853e+00 1.923627e+00 7.727005e-01 8.364327e-01 7.830332e-01 7.307498e-01 8.757455e-01 5.664528e+00 5.854450e+00 6.669280e+00 6.752212e+00 5.133904e+00
<GCONST> 3.878757e+01
<STATE> 5
<SWEIGHTS> 5
 1.000000e+00 0.000000e+00 0.000000e+00 0.000000e+00 0.000000e+00
<STREAM> 1
<MEAN> 180
 6.072568e+00 2.136827e+00 2.487060e-01 1.356107e+00 1.732563e-01 3.207919e-01 -4.736327e-01 4.310836e-01 -1.966380e-01 3.449910e-02 -2.007084e-01 1.699107e-01 -1.730542e-01 9.962650e-02 -1.076818e-01 1.001033e-01 -2.139135e-01 1.432288e-01 -2.548884e-01 1.105795e-01 1.274986e-02 -1.324294e-02 -2.991425e-02 7.390144e-02 6.968710e-04 1.427864e-02 -5.199466e-02 5.675819e-02 -5.152127e-02 7.807318e-02 -9.661010e-02 9.589572e-02 -5.896283e-02 2.150803e-02 -1.159771e-02 3.438198e-02 -6.196916e-02 7.431278e-02 -7.520156e-02 6.126456e-02 -4.836099e-02 3.862700e-02 -4.845417e-02 5.718843e-02 -5.797432e-02 4.321846e-02 -2.121238e-02 -6.839613e-04 1.731222e-02 -2.402005e-02 2.396854e-02 -1.805054e-02 1.291094e-02 -6.824553e-03 3.759810e-03 -6.133358e-04 -5.255324e-03 1.221657e-02 -1.553628e-02 1.319558e-02 2.170509e-01 1.939638e-01 -1.256892e-02 -5.665108e-02 -1.729820e-02 1.817949e-02 -5.371016e-02 -4.169782e-02 1.626486e-02 2.673517e-02 2.476748e-02 1.125586e-02 1.657634e-02 1.123517e-02 -7.604940e-03 -2.685724e-03 -7.490605e-03 2.219781e-02 1.378195e-02 -1.268265e-02 1.675786e-02 -5.303310e-03 -1.917715e-03 -7.569418e-03 -4.102505e-03 1.367860e-03 -4.687335e-03 4.797422e-03 -6.524418e-03 5.372318e-03 -3.765868e-03 -5.719208e-04 9.422268e-04 1.360021e-04 -8.721292e-04 3.444987e-03 -5.951363e-03 3.244155e-03 1.599055e-04 -2.036003e-03 -7.013880e-04 2.061908e-03 -5.452844e-03 5.992458e-03 -4.846299e-03 3.204936e-03 -4.565998e-03 4.908246e-03 -2.309697e-03 -1.706265e-03 2.041055e-03 -6.007617e-04 1.997226e-04 -4.336526e-04 1.097438e-03 -1.168428e-03 2.142569e-03 -3.727091e-03 5.756513e-03 -7.615344e-03 -7.785378e-02 -8.510291e-02 -7.735105e-02 -5.806845e-02 -5.724018e-02 1.501741e-02 2.522128e-02 -1.611548e-02 1.127591e-03 5.167859e-03 1.254352e-02 -7.284900e-03 -2.019006e-02 -1.359887e-03 -1.059951e-03 -5.194329e-03 2.827052e-04 -1.794238e-02 1.387133e-02 -7.298691e-03 -1.895316e-02 -2.298541e-04 2.109947e-03 2.245555e-03 -1.167014e-03 -1.070894e-04 3.376408e-03 -3.538421e-04 -9.624660e-05 6.403786e-03 1.119921e-03 -4.208824e-03 4.251369e-03 -1.343339e-03 1.382062e-03 -9.461500e-04 3.409813e-03 -1.551619e-03 2.916108e-03 -1.503280e-03 4.175569e-03 -3.199577e-03 5.481604e-03 -5.811154e-03 5.400168e-03 -3.312305e-03 2.513519e-04 2.697538e-03 -4.425621e-03 3.606789e-03 -2.456306e-03 2.318574e-03 -3.660580e-03 3.923795e-03 -3.133019e-03 8.328952e-04 5.650609e-04 -1.246511e-03 2.025552e-03 -1.391476e-03
<VARIANCE> 180
 2.139124e-01 8.757112e-02 5.616661e-02 7.806919e-02 2.629644e-02 3.268951e-02 2.856193e-02 2.458035e-02 3.423327e-02 2.403560e-02 1.822936e-02 2.263957e-02 1.550405e-02 1.801161e-02 2.040086e-02 1.870256e-02 1.064667e-02 1.825914e-02 1.499351e-02 1.340092e-02 1.147419e-02 1.374973e-02 1.546277e-02 9.247202e-03 1.200196e-02 1.170282e-02 7.759872e-03 5.899718e-03 6.902942e-03 5.969107e-03 5.846530e-03 5.695433e-03 4.861137e-03 4.521285e-03 3.939344e-03 5.361873e-03 5.043114e-03 3.962002e-03 3.831196e-03 4.565188e-03 4.747083e-03 4.099327e-03 3.968338e-03 3.724396e-03 3.780819e-03 4.062110e-03 3.926534e-03 3.684223e-03 3.300849e-03 2.666403e-03 2.430410e-03 2.827684e-03 2.738685e-03 2.237277e-03 2.173363e-03 2.792704e-03 2.974130e-03 2.378323e-03 2.165729e-03 2.373578e-03 2.051741e-02 1.680849e-02 1.419684e-02 1.022270e-02 1.122005e-02 6.746307e-03 7.525541e-03 5.966914e-03 6.551227e-03 5.636158e-03 5.657239e-03 7.429642e-03 5.488373e-03 5.231867e-03 5.158467e-03 3.883285e-03 3.587891e-03 3.705721e-03 4.087349e-03 3.178796e-03 3.355500e-03 2.942614e-03 2.781303e-03 2.832658e-03 2.124259e-03 2.197973e-03 1.992271e-03 1.836721e-03 1.712044e-03 1.562079e-03 1.447304e-03 1.455433e-03 1.215858e-03 1.239507e-03 1.241278e-03 1.155734e-03 1.112603e-03 1.108571e-03 7.739734e-04 9.620535e-04 1.134777e-03 8.796089e-04 9.459312e-04 8.322105e-04 7.995816e-04 8.475270e-04 7.182151e-04 7.053497e-04 7.229131e-04 7.102518e-04 6.632718e-04 6.436902e-04 6.251597e-04 7.130575e-04 6.535444e-04 4.643664e-04 4.225218e-04 4.855444e-04 4.822921e-04 4.384347e-04 3.859286e-02 3.243712e-02 4.448649e-02 4.008678e-02 3.799191e-02 3.899909e-02 3.464586e-02 3.448047e-02 3.580386e-02 3.196860e-02 3.494699e-02 3.364944e-02 3.308478e-02 3.192846e-02 2.978416e-02 2.615068e-02 2.586508e-02 2.093542e-02 1.819579e-02 1.945752e-02 1.802795e-02 1.694716e-02 1.937543e-02 1.538937e-02 1.475540e-02 1.502456e-02 1.171421e-02 1.156325e-02 1.235277e-02 9.318586e-03 9.518771e-03 1.042704e-02 9.279029e-03 8.092742e-03 9.139336e-03 7.477249e-03 7.114986e-03 6.958497e-03 6.145269e-03 7.381911e-03 7.032814e-03 7.099893e-03 6.463010e-03 5.181256e-03 5.319849e-03 5.434072e-03 4.558592e-03 4.591565e-03 5.013020e-03 4.760200e-03 4.808242e-03 4.633571e-03 4.466732e-03 4.619090e-03 3.877606e-03 3.418914e-03 3.855796e-03 3.814566e-03 2.736414e-03 2.328361e-03
<GCONST> -5.998319e+02
<STREAM> 2
<NUMMIXES> 2
<MIXTURE> 1 9.949973e-01
<MEAN> 1
 5.329401e+00
<VARIANCE> 1
 2.241550e-02
<GCONST> -1.960125e+00
<MIXTURE> 2 5.002548e-03
<MEAN> 0
<VARIANCE> 0
<GCONST> 0.000000e+00
<STREAM> 3
<NUMMIXES> 2
<MIXTURE> 1 9.376396e-01
<MEAN> 1
 1.600394e-02
<VARIANCE> 1
 1.175710e-03
<GCONST> -4.908006e+00
<MIXTURE> 2 6.235999e-02
<MEAN> 0
<VARIANCE> 0
<GCONST> 0.000000e+00
<STREAM> 4
<NUMMIXES> 2
<MIXTURE> 1 9.375997e-01
<MEAN> 1
 -2.286118e-02
<VARIANCE> 1
 2.445781e-03
<GCONST> -4.175513e+00
<MIXTURE> 2 6.239992e-02
<MEAN> 0
<VARIANCE> 0
<GCONST> 0.000000e+00
<STREAM> 5
<MEAN> 15
 -3.435979e+00 -3.247566e+00 -3.199413e+00 -3.406448e+00 -3.011644e+00 -4.858748e-01 -3.835742e-01 -3.052575e-01 -3.362138e-01 -1.715902e-01 1.665287e-01 2.326259e-01 2.938944e-01 2.818911e-01 3.223169e-01
<VARIANCE> 15
 3.312462e+00 1.891679e+00 1.712125e+00 1.883484e+00 1.615634e+00 1.335259e+00 8.257977e-01 7.703331e-01 1.020538e+00 8.008536e-01 1.079441e+01 8.748766e+00 7.598578e+00 7.535089e+00 6.526914e+00
<GCONST> 4.116034e+01
<STATE> 6
<SWEIGHTS> 5
 1.000000e+00 0.000000e+00 0.000000e+00 0.000000e+00 0.000000e+00
<STREAM> 1
<MEAN> 180
 6.351157e+00 2.518443e+00 -3.917937e-02 8.883771e-01 -2.783347e-02 4.470423e-01 -5.077621e-01 2.747717e-01 -1.378140e-01 1.421616e-01 -7.989549e-02 1.814731e-01 -1.919736e-01 8.508932e-02 -9.457936e-02 6.823493e-02 -2.593608e-01 1.415772e-01 -1.676120e-01 7.207080e-02 -8.487493e-03 -1.733758e-02 -2.796301e-02 6.886450e-02 -3.303684e-02 4.469134e-02 -3.817435e-02 6.997839e-02 -5.036476e-02 1.108883e-01 -1.076225e-01 8.179576e-02 -4.527872e-02 -7.723274e-04 -1.034735e-02 4.361548e-02 -5.814615e-02 7.072102e-02 -7.047725e-02 4.637346e-02 -3.490184e-02 1.883018e-02 -2.591744e-02 4.577051e-02 -6.539124e-02 6.144502e-02 -4.474598e-02 2.261361e-02 2.912926e-03 -2.381754e-02 2.391285e-02 -1.507750e-02 4.550812e-03 3.491365e-03 -1.309668e-02 1.618676e-02 -1.557796e-02 9.410175e-03 1.786484e-03 -1.206544e-02 5.519218e-02 9.945156e-02 -7.034680e-02 -1.234272e-01 -5.835401e-02 3.783705e-02 2.364889e-02 -3.048862e-02 -1.290300e-02 4.510044e-03 3.978325e-02 1.988047e-02 -1.873107e-02 -1.176444e-02 1.433657e-02 6.308096e-03 -8.968179e-03 -9.812105e-03 1.840021e-02 -1.392426e-03 -3.180766e-04 -3.047063e-03 9.491682e-04 2.978543e-03 -1.514724e-02 6.128967e-03 -1.064010e-04 4.986158e-04 -2.665845e-03 2.512521e-03 3.238463e-03 -7.860960e-03 7.526026e-03 -5.448705e-03 1.092197e-03 -2.662838e-03 4.797712e-03 -3.194697e-03 2.850303e-03 -2.383092e-03 2.677539e-03 -3.086644e-03 5.025114e-03 -4.084147e-03 1.613120e-03 -1.238598e-05 1.866378e-04 5.131366e-05 -1.755974e-03 4.083978e-03 -3.731478e-03 2.403601e-03 -2.945752e-03 4.271270e-03 -5.763889e-03 5.401522e-03 -3.335756e-03 6.693862e-04 1.288102e-03 -1.041053e-03 -4.547579e-02 -1.459444e-02 1.662755e-02 1.833311e-02 1.823701e-03 -1.450703e-02 1.401127e-02 1.648687e-02 -3.379335e-03 -1.093999e-02 -1.194196e-02 3.318305e-03 6.768054e-03 -3.649485e-03 -2.082498e-03 4.875529e-03 1.245107e-02 -7.606020e-03 -1.047594e-02 -3.032163e-04 9.996708e-03 3.482702e-03 -7.207978e-03 1.164158e-03 5.788687e-03 -6.800169e-04 -1.602908e-03 -7.339750e-03 7.724168e-03 -8.338792e-03 3.590589e-03 7.187735e-04 -2.496106e-03 2.470672e-03 -1.644553e-04 -1.738388e-03 2.078587e-04 1.976781e-03 -1.597651e-03 -2.900739e-03 6.103078e-03 -4.605377e-04 -5.222755e-03 5.398932e-03 -2.390032e-03 -2.534267e-03 7.138823e-03 -6.283700e-03 6.137181e-04 3.137812e-03 -2.053730e-03 4.357961e-04 3.216949e-04 -1.219459e-03 1.953048e-03 -1.387318e-03 -4.484551e-05 1.530327e-03 -3.399797e-03 4.334168e-03
<VARIANCE> 180
 2.740023e-01 1.115107e-01 6.388237e-02 1.346332e-01 2.925246e-02 5.364546e-02 3.489606e-02 2.223705e-02 4.898284e-02 3.406377e-02 1.776882e-02 2.278677e-02 1.739423e-02 1.396513e-02 1.833845e-02 1.708745e-02 1.237762e-02 2.324395e-02 1.597024e-02 1.378655e-02 1.099297e-02 1.540110e-02 1.508866e-02 1.230515e-02 1.333537e-02 1.468941e-02 1.120457e-02 1.255460e-02 1.333237e-02 7.954982e-03 1.089680e-02 6.171717e-03 9.708401e-03 8.166387e-03 5.716276e-03 5.736116e-03 6.456929e-03 5.411516e-03 5.289524e-03 6.574081e-03 7.004541e-03 4.745690e-03 5.971069e-03 6.728864e-03 5.109779e-03 4.543499e-03 4.392046e-03 3.859611e-03 3.261866e-03 3.049301e-03 3.511911e-03 3.447068e-03 2.894910e-03 3.127208e-03 3.198625e-03 3.332687e-03 3.545758e-03 3.602744e-03 3.025586e-03 2.744017e-03 7.390517e-03 5.421419e-03 6.474948e-03 6.231098e-03 4.648617e-03 4.062116e-03 5.405814e-03 4.007200e-03 3.915485e-03 3.905408e-03 4.041392e-03 3.950706e-03 3.585499e-03 3.484244e-03 3.500884e-03 3.525103e-03 3.199048e-03 3.818976e-03 3.347202e-03 2.728958e-03 2.864592e-03 2.829418e-03 2.633741e-03 2.073654e-03 2.251352e-03 1.998742e-03 2.192501e-03 1.886175e-03 1.997122e-03 2.179798e-03 1.893103e-03 1.438237e-03 1.701543e-03 1.687794e-03 1.520132e-03 1.068838e-03 1.313012e-03 1.214022e-03 1.037953e-03 1.201726e-03 1.201008e-03 8.921562e-04 1.051306e-03 1.069306e-03 1.036183e-03 9.536239e-04 9.858240e-04 1.023919e-03 8.743433e-04 8.116785e-04 7.141944e-04 6.721346e-04 6.939156e-04 6.519816e-04 6.503238e-04 7.022725e-04 6.134795e-04 5.220736e-04 4.816330e-04 4.725534e-04 1.060833e-02 1.492180e-02 1.788152e-02 2.031033e-02 1.445495e-02 1.287186e-02 1.401673e-02 1.716643e-02 1.477250e-02 1.693540e-02 1.686248e-02 1.685796e-02 1.462194e-02 1.298677e-02 1.478417e-02 1.299229e-02 1.211095e-02 1.351553e-02 1.197831e-02 1.202656e-02 1.380717e-02 1.217784e-02 1.230005e-02 1.267201e-02 1.404289e-02 1.220375e-02 1.211940e-02 1.091051e-02 1.060814e-02 1.066276e-02 8.205070e-03 7.858485e-03 7.718380e-03 9.394791e-03 7.173622e-03 5.894403e-03 6.977268e-03 6.530364e-03 5.948514e-03 6.195993e-03 6.138661e-03 4.825403e-03 4.614228e-03 5.771309e-03 4.906176e-03 4.880788e-03 4.476384e-03 4.437733e-03 4.062810e-03 3.615206e-03 3.917263e-03 3.758349e-03 3.524439e-03 2.691491e-03 3.485013e-03 4.315706e-03 3.126331e-03 2.663941e-03 3.060237e-03 2.892829e-03
<GCONST> -6.114295e+02
<STREAM> 2
<NUMMIXES> 2
<MIXTURE> 1 9.961627e-01
<MEAN> 1
 5.249465e+00
<VARIANCE> 1
 5.948156e-02
<GCONST> -9.842119e-01
<MIXTURE> 2 3.837300e-03
<MEAN> 0
<VARIANCE> 0
<GCONST> 0.000000e+00
<STREAM> 3
<NUMMIXES> 2
<MIXTURE> 1 9.961627e-01
<MEAN> 1
 -1.002642e-02
<VARIANCE> 1
 1.675417e-03
<GCONST> -4.553816e+00
<MIXTURE> 2 3.837300e-03
<MEAN> 0
<VARIANCE> 0
<GCONST> 0.000000e+00
<STREAM> 4
<NUMMIXES> 2
<MIXTURE> 1 9.923253e-01
<MEAN> 1
 -2.627307e-03
<VARIANCE> 1
 1.086784e-03
<GCONST> -4.986656e+00
<MIXTURE> 2 7.674601e-03
<MEAN> 0
<VARIANCE> 0
<GCONST> 0.000000e+00
<STREAM> 5
<MEAN> 15
 -4.013904e+00 -3.397622e+00 -3.229580e+00 -3.204455e+00 -2.934230e+00 -3.062042e-01 4.911143e-02 -1.319645e-03 5.020329e-02 -4.906643e-03 -1.117730e-01 1.966224e-02 -6.824575e-02 -1.031471e-01 -1.244430e-01
<VARIANCE> 15
 4.033828e+00 1.536374e+00 1.796455e+00 1.986183e+00 1.797530e+00 1.520016e+00 9.109418e-01 8.794297e-01 9.303706e-01 8.997571e-01 1.010169e+01 8.179543e+00 8.809253e+00 7.291784e+00 7.734543e+00
<GCONST> 4.189249e+01
<TRANSP> 7
 0.000000e+00 1.000000e+00 0.000000e+00 0.000000e+00 0.000000e+00 0.000000e+00 0.000000e+00
 0.000000e+00 7.897170e-01 2.102830e-01 0.000000e+00 0.000000e+00 0.000000e+00 0.000000e+00
 0.000000e+00 0.000000e+00 8.693416e-01 1.306584e-01 0.000000e+00 0.000000e+00 0.000000e+00
 0.000000e+00 0.000000e+00 0.000000e+00 6.672345e-01 3.327655e-01 0.000000e+00 0.000000e+00
 0.000000e+00 0.000000e+00 0.000000e+00 0.000000e+00 6.746522e-01 3.253479e-01 0.000000e+00
 0.000000e+00 0.000000e+00 0.000000e+00 0.000000e+00 0.000000e+00 6.316092e-01 3.683908e-01
 0.000000e+00 0.000000e+00 0.000000e+00 0.000000e+00 0.000000e+00 0.000000e+00 0.000000e+00
<ENDHMM>
~h "D"
<BEGINHMM>
<NUMSTATES> 7
<STATE> 2
<SWEIGHTS> 5
 1.000000e+00 0.000000e+00 0.000000e+00 0.000000e+00 0.000000e+00
<STREAM> 1
<MEAN> 180
 6.123112e+00 2.778267e+00 1.412951e-01 7.019365e-01 -1.031501e-01 6.119636e-01 -5.058202e-01 2.145008e-01 -3.743743e-01 5.598212e-02 5.080174e-02 1.710212e-01 -2.192717e-01 2.374916e-01 -3.512003e-02 -6.047130e-03 -1.965614e-01 1.158163e-01 -1.430609e-01 1.039771e-02 8.958409e-02 -8.413532e-02 -7.692053e-03 9.544023e-02 -9.708336e-02 9.436239e-02 -1.072436e-01 9.355253e-02 -3.488338e-02 5.681247e-03 -1.355210e-02 5.482540e-02 -8.553158e-02 7.613686e-02 -3.646002e-02 1.514602e-02 -2.005787e-02 4.565945e-02 -6.280207e-02 5.809682e-02 -4.381599e-02 2.540396e-02 -9.543394e-03 3.394440e-04 1.827567e-03 4.660750e-03 -1.789721e-02 2.713916e-02 -2.543398e-02 1.562771e-02 -9.014132e-03 9.933617e-03 -1.391622e-02 1.134785e-02 -8.250821e-04 -1.510741e-02 2.465244e-02 -2.442972e-02 1.464613e-02 -8.297752e-04 -5.677234e-02 -5.779891e-03 2.713160e-02 4.625728e-03 1.900162e-02 1.121537e-02 -2.575967e-03 -4.630195e-03 -5.011606e-03 -7.973031e-03 1.959445e-03 -4.706541e-03 1.459406e-03 5.245995e-03 7.440578e-03 -1.595497e-03 3.159930e-04 -4.123602e-05 -4.584604e-03 -2.681672e-03 -8.412622e-05 -1.759493e-03 1.956582e-03 2.927953e-04 7.648020e-04 5.118777e-04 -2.286014e-03 1.105271e-03 1.432789e-03 -3.710224e-03 3.967007e-03 -2.371107e-04 -2.662326e-03 3.297898e-03 -1.168526e-03 -8.832182e-04 1.750044e-03 -1.446181e-03 8.575976e-04 -3.071568e-04 -1.049868e-03 1.611546e-03 -9.225738e-04 -8.223022e-04 2.162859e-03 -1.854044e-03 2.904539e-04 1.352596e-03 -1.820971e-03 1.330542e-03 -5.626263e-04 5.014580e-04 -8.563121e-04 7.556588e-04 5.134731e-05 -1.249006e-03 2.122452e-03 -2.489100e-03 2.061388e-03 -9.986446e-04 -2.019798e-02 -3.476837e-03 7.847774e-03 2.371570e-03 4.160153e-03 -1.309647e-03 7.082190e-03 1.271110e-03 1.712353e-03 3.802460e-04 -3.614524e-03 -1.333351e-03 5.851053e-04 -1.584908e-03 -4.079022e-04 2.595690e-03 1.172468e-03 -8.430286e-04 -5.250840e-04 -1.812835e-04 -1.867736e-03 1.783551e-03 -4.513885e-04 -1.288622e-03 1.960725e-03 -3.223461e-04 6.111793e-04 -7.278159e-04 -5.262102e-04 1.256998e-03 2.007808e-04 -1.266677e-03 6.601879e-04 -1.673120e-05 2.437451e-04 -3.948087e-04 -1.862088e-04 -9.700814e-04 1.989553e-03 -1.389464e-03 -2.173625e-04 1.229164e-03 -1.484959e-03 1.328077e-03 -1.012279e-03 1.507616e-04 6.477010e-04 -9.392571e-04 5.344422e-04 4.330298e-04 -1.054249e-03 5.711865e-04 4.004741e-04 -6.029974e-04 6.294630e-05 5.846386e-04 -7.480477e-04 4.229659e-04 9.761916e-05 -4.719062e-04
<VARIANCE> 180
 5.011488e-01 1.495021e-01 1.323169e-01 8.475788e-02 1.273670e-01 3.555179e-02 6.089466e-02 3.128294e-02 3.548778e-02 4.102155e-02 3.944899e-02 2.313988e-02 2.196512e-02 2.456873e-02 2.425518e-02 1.774008e-02 1.782276e-02 1.559940e-02 1.689635e-02 1.448334e-02 1.257226e-02 1.270489e-02 1.043073e-02 1.129961e-02 1.101297e-02 7.681394e-03 8.114702e-03 8.084133e-03 8.500716e-03 8.214155e-03 8.427714e-03 6.791924e-03 6.219810e-03 6.302812e-03 5.835732e-03 5.255869e-03 5.066131e-03 4.986619e-03 5.148671e-03 4.863054e-03 4.531974e-03 4.812961e-03 5.119702e-03 4.551039e-03 3.855674e-03 3.855839e-03 4.253931e-03 4.266717e-03 3.938330e-03 3.679718e-03 3.477698e-03 3.529982e-03 3.711044e-03 3.881735e-03 3.687653e-03 3.527915e-03 3.570291e-03 3.516980e-03 3.554783e-03 3.603984e-03 9.093743e-03 3.072562e-03 4.362627e-03 2.881924e-03 3.490198e-03 2.697947e-03 2.718145e-03 2.299329e-03 2.464314e-03 2.392544e-03 2.233858e-03 2.131019e-03 2.087541e-03 1.987638e-03 1.941369e-03 1.796665e-03 1.629082e-03 1.606112e-03 1.552380e-03 1.401300e-03 1.378666e-03 1.330421e-03 1.221776e-03 1.226416e-03 1.143552e-03 1.091200e-03 1.037182e-03 1.006634e-03 9.965650e-04 9.412645e-04 8.794171e-04 8.390817e-04 8.115410e-04 7.915222e-04 7.655602e-04 7.203711e-04 7.095918e-04 6.805980e-04 6.450404e-04 6.237386e-04 6.263329e-04 6.031262e-04 5.891902e-04 5.616419e-04 5.317358e-04 5.232272e-04 5.144408e-04 5.071741e-04 4.997353e-04 4.807858e-04 4.608816e-04 4.528018e-04 4.440413e-04 4.319547e-04 4.132365e-04 4.114392e-04 4.230179e-04 4.078279e-04 4.052309e-04 4.014263e-04 8.793571e-03 7.975626e-03 1.095563e-02 9.598006e-03 1.013980e-02 9.174389e-03 8.941700e-03 8.787286e-03 8.570241e-03 8.504692e-03 8.018460e-03 7.652419e-03 7.699115e-03 7.468848e-03 7.316340e-03 7.032718e-03 6.744452e-03 6.658360e-03 6.402151e-03 6.166371e-03 6.106062e-03 6.078540e-03 5.579157e-03 5.409752e-03 5.363565e-03 5.087866e-03 5.102376e-03 4.732465e-03 4.787563e-03 4.504784e-03 4.326717e-03 4.271229e-03 4.238298e-03 4.132932e-03 3.861329e-03 3.869684e-03 3.865553e-03 3.535605e-03 3.405457e-03 3.343499e-03 3.396465e-03 3.168700e-03 3.145669e-03 3.043735e-03 2.991002e-03 2.928289e-03 2.799486e-03 2.740850e-03 2.657709e-03 2.598139e-03 2.549369e-03 2.583316e-03 2.519873e-03 2.386164e-03 2.293067e-03 2.235018e-03 2.340560e-03 2.247309e-03 2.140924e-03 2.251535e-03
<GCONST> -6.785128e+02
<STREAM> 2
<NUMMIXES> 2
<MIXTURE> 1 9.697367e-01
<MEAN> 1
 5.246805e+00
<VARIANCE> 1
 3.266074e-02
<GCONST> -1.583704e+00
<MIXTURE> 2 3.026378e-02
<MEAN> 0
<VARIANCE> 0
<GCONST> 0.000000e+00
<STREAM> 3
<NUMMIXES> 2
<MIXTURE> 1 9.674522e-01
<MEAN> 1
 -4.822105e-03
<VARIANCE> 1
 1.618542e-04
<GCONST> -6.890938e+00
<MIXTURE> 2 3.254811e-02
<MEAN> 0
<VARIANCE> 0
<GCONST> 0.000000e+00
<STREAM> 4
<NUMMIXES> 2
<MIXTURE> 1 9.671063e-01
<MEAN> 1
 -7.946337e-04
<VARIANCE> 1
 5.229929e-04
<GCONST> -5.718065e+00
<MIXTURE> 2 3.289413e-02
<MEAN> 0
<VARIANCE> 0
<GCONST> 0.000000e+00
<STREAM> 5
<MEAN> 15
 -7.619715e+00 -4.232942e+00 -4.068478e+00 -3.520739e+00 -3.240618e+00 2.100305e-01 4.478210e-02 6.033894e-02 2.898220e-02 2.245177e-02 2.188910e-01 6.800255e-02 5.796523e-02 2.545620e-02 3.636234e-02
<VARIANCE> 15
 1.721821e+01 5.583281e+00 5.288803e+00 3.366454e+00 2.670058e+00 2.554790e+00 1.535826e+00 1.528083e+00 1.120237e+00 9.388220e-01 1.557724e+01 1.151690e+01 1.206838e+01 9.606492e+00 8.519869e+00
<GCONST> 4.992197e+01
<STATE> 3
<SWEIGHTS> 5
 1.000000e+00 0.000000e+00 0.000000e+00 0.000000e+00 0.000000e+00
<STREAM> 1
<MEAN> 180
 5.712318e+00 2.729250e+00 2.903351e-01 7.033990e-01 -4.597708e-02 6.511188e-01 -4.384991e-01 2.183575e-01 -3.848267e-01 2.413042e-02 5.826430e-02 1.457613e-01 -2.043445e-01 2.158030e-01 -9.460888e-03 9.803740e-03 -1.997126e-01 1.163372e-01 -1.694537e-01 2.317942e-03 8.274701e-02 -9.003110e-02 4.477689e-03 7.853965e-02 -7.701430e-02 8.695905e-02 -1.093115e-01 9.574353e-02 -3.421086e-02 2.596813e-03 -8.880028e-03 5.659488e-02 -8.941734e-02 7.945839e-02 -3.095238e-02 4.849177e-03 -9.549669e-03 3.738996e-02 -5.698228e-02 5.658293e-02 -4.975041e-02 3.505177e-02 -1.696440e-02 3.426714e-03 3.382302e-03 9.480163e-04 -1.478954e-02 2.575468e-02 -2.451624e-02 1.668436e-02 -1.406521e-02 1.946017e-02 -2.587383e-02 2.164432e-02 -5.948165e-03 -1.767171e-02 3.447892e-02 -3.815861e-02 2.701443e-02 -8.233670e-03 -1.120349e-01 -2.302922e-02 4.452719e-02 1.223551e-02 2.707280e-02 1.282455e-02 1.611640e-02 1.580678e-03 2.800875e-03 -5.041587e-03 -4.473395e-03 -1.110956e-02 1.793225e-04 -1.988419e-03 6.044902e-03 2.731810e-03 2.158044e-03 -2.120541e-03 -3.745151e-03 -1.835969e-03 -6.175002e-03 2.355995e-03 -9.764128e-04 -2.204192e-03 4.702028e-03 -1.682003e-03 1.459430e-03 -4.536830e-04 1.956340e-03 -3.841920e-03 3.721888e-03 -6.595003e-04 -1.206769e-03 2.014824e-03 -1.277456e-03 4.267483e-04 9.805827e-04 -3.049208e-03 4.076930e-03 -2.339320e-03 -8.504164e-04 2.581060e-03 -2.254495e-03 7.721495e-04 5.031895e-04 -9.609284e-04 4.450587e-04 5.466188e-05 -5.236316e-04 1.165594e-03 -1.593754e-03 1.128250e-03 -3.637257e-04 7.570896e-06 -3.358549e-04 3.353474e-04 3.589465e-04 -1.179557e-03 1.343536e-03 -7.717480e-04 -1.039011e-02 -1.590849e-02 4.442370e-03 4.040110e-03 -1.903256e-03 -9.682304e-04 8.588594e-03 3.951953e-03 6.146749e-03 7.596613e-03 -6.856499e-03 -1.959005e-03 -3.705587e-05 -6.003848e-03 -4.720424e-03 1.716075e-03 -3.389207e-04 -1.200386e-03 3.357337e-03 2.457075e-03 -4.875814e-03 4.669975e-03 -3.978948e-03 -8.778575e-04 1.682719e-03 -2.283403e-03 3.689176e-03 -2.218245e-04 -5.518934e-04 1.668895e-04 -1.643046e-03 2.440599e-04 2.487848e-03 -2.724389e-03 4.169831e-04 1.892373e-03 -1.653317e-03 1.157410e-04 7.955703e-04 -5.920443e-04 1.098240e-03 -8.360331e-04 -5.317111e-04 2.006760e-03 -2.095323e-03 5.635961e-04 1.112455e-03 -1.613941e-03 1.119804e-03 -5.388008e-04 9.439584e-05 -8.143137e-04 1.692235e-03 -1.808093e-03 2.067124e-04 2.100484e-03 -3.766628e-03 4.186618e-03 -3.080347e-03 1.094831e-03
<VARIANCE> 180
 5.772156e-01 1.892578e-01 1.125371e-01 7.111914e-02 1.049686e-01 4.021000e-02 6.169440e-02 3.059204e-02 3.896504e-02 3.714423e-02 3.363744e-02 2.424099e-02 2.329587e-02 2.634922e-02 2.390239e-02 1.790318e-02 1.650513e-02 1.577517e-02 1.775377e-02 1.425116e-02 1.359257e-02 1.412426e-02 1.103798e-02 1.094906e-02 1.095462e-02 7.865894e-03 8.558703e-03 8.425144e-03 8.948506e-03 8.890458e-03 8.833359e-03 6.758962e-03 6.473989e-03 6.569183e-03 5.686064e-03 5.552773e-03 5.406699e-03 4.949674e-03 4.618158e-03 4.517420e-03 4.449198e-03 4.623124e-03 4.770816e-03 4.328908e-03 3.846912e-03 3.776290e-03 3.897231e-03 3.776325e-03 3.597321e-03 3.441330e-03 3.385888e-03 3.606826e-03 3.795689e-03 3.762734e-03 3.430218e-03 3.306633e-03 3.700588e-03 4.003029e-03 3.972040e-03 3.683682e-03 1.655769e-02 4.897590e-03 6.159128e-03 3.975355e-03 4.828566e-03 3.562369e-03 3.898356e-03 3.165629e-03 3.252871e-03 3.525430e-03 3.284969e-03 3.044493e-03 3.039078e-03 2.916431e-03 2.924896e-03 2.592908e-03 2.411318e-03 2.378780e-03 2.222169e-03 2.112349e-03 2.070414e-03 2.004092e-03 1.759075e-03 1.694015e-03 1.656316e-03 1.548072e-03 1.447954e-03 1.449286e-03 1.412710e-03 1.307131e-03 1.267801e-03 1.143720e-03 1.139361e-03 1.082806e-03 9.855428e-04 9.960370e-04 9.779809e-04 8.893190e-04 8.945810e-04 8.335907e-04 8.469200e-04 7.971034e-04 7.725995e-04 7.416545e-04 7.101684e-04 6.917405e-04 6.763038e-04 6.687614e-04 6.374869e-04 6.187557e-04 5.933846e-04 5.803219e-04 5.714809e-04 5.607540e-04 5.429013e-04 5.313874e-04 5.194236e-04 4.983668e-04 4.901222e-04 4.807277e-04 1.253995e-02 1.076708e-02 1.454486e-02 1.195773e-02 1.260807e-02 1.191646e-02 1.192657e-02 1.117009e-02 1.111132e-02 1.173050e-02 1.067865e-02 1.064686e-02 1.088676e-02 1.066271e-02 1.058540e-02 9.784129e-03 9.378927e-03 9.209685e-03 9.067045e-03 9.153588e-03 8.697167e-03 8.914757e-03 7.785045e-03 7.978669e-03 7.276636e-03 6.973071e-03 6.794428e-03 6.738304e-03 6.650119e-03 6.010585e-03 5.831145e-03 5.452672e-03 5.271364e-03 5.218909e-03 4.825934e-03 4.851709e-03 4.616703e-03 4.422442e-03 4.241955e-03 4.015988e-03 4.164287e-03 3.861656e-03 3.764336e-03 3.666030e-03 3.466020e-03 3.520927e-03 3.244383e-03 3.233652e-03 3.118168e-03 3.005428e-03 2.899419e-03 2.796259e-03 2.714781e-03 2.738022e-03 2.665225e-03 2.608148e-03 2.644150e-03 2.526605e-03 2.421717e-03 2.434041e-03
<GCONST> -6.446097e+02
<STREAM> 2
<NUMMIXES> 2
<MIXTURE> 1 9.445585e-01
<MEAN> 1
 5.211787e+00
<VARIANCE> 1
 3.610205e-02
<GCONST> -1.483529e+00
<MIXTURE> 2 5.544396e-02
<MEAN> 0
<VARIANCE> 0
<GCONST> 0.000000e+00
<STREAM> 3
<NUMMIXES> 2
<MIXTURE> 1 9.372683e-01
<MEAN> 1
 -6.697269e-03
<VARIANCE> 1
 2.937105e-04
<GCONST> -6.295039e+00
<MIXTURE> 2 6.273447e-02
<MEAN> 0
<VARIANCE> 0
<GCONST> 0.000000e+00
<STREAM> 4
<NUMMIXES> 2
<MIXTURE> 1 9.368240e-01
<MEAN> 1
 8.672833e-04
<VARIANCE> 1
 1.086747e-03
<GCONST> -4.986690e+00
<MIXTURE> 2 6.317879e-02
<MEAN> 0
<VARIANCE> 0
<GCONST> 0.000000e+00
<STREAM> 5
<MEAN> 15
 -5.027146e+00 -3.393394e+00 -3.340499e+00 -3.061745e+00 -2.909969e+00 4.166775e-01 1.669237e-01 1.182072e-01 7.785434e-02 4.397850e-02 -7.722034e-02 2.502603e-02 -1.245028e-02 -8.757947e-03 -1.649137e-02
<VARIANCE> 15
 1.049263e+01 3.607490e+00 3.575268e+00 2.534318e+00 2.219638e+00 2.001993e+00 1.097759e+00 1.112965e+00 8.756556e-01 7.789611e-01 1.147840e+01 8.597448e+00 9.002711e+00 6.966503e+00 6.670564e+00
<GCONST> 4.534329e+01
<STATE> 4
<SWEIGHTS> 5
 1.000000e+00 0.000000e+00 0.000000e+00 0.000000e+00 0.000000e+00
<STREAM> 1
<MEAN> 180
 5.415110e+00 2.678260e+00 4.878510e-01 7.917497e-01 4.399488e-02 7.276550e-01 -3.829774e-01 2.430568e-01 -3.714036e-01 7.447073e-03 2.151923e-02 8.902765e-02 -2.222473e-01 1.816103e-01 -1.860946e-02 3.047819e-02 -1.963773e-01 1.086095e-01 -1.497705e-01 1.212859e-02 5.329360e-02 -5.835886e-02 -7.321260e-03 7.082542e-02 -5.878979e-02 7.402963e-02 -1.002168e-01 9.069086e-02 -2.287982e-02 -1.177038e-02 2.574741e-03 5.145477e-02 -8.555942e-02 7.861394e-02 -3.714062e-02 1.235062e-02 -1.147743e-02 2.540610e-02 -3.857870e-02 4.254652e-02 -4.679331e-02 3.933674e-02 -2.274706e-02 3.535966e-03 6.596826e-03 -2.312523e-03 -1.326337e-02 2.533590e-02 -2.598304e-02 1.939497e-02 -1.506078e-02 1.460662e-02 -1.607245e-02 1.315183e-02 -5.636814e-03 -7.840602e-03 1.957593e-02 -2.482842e-02 1.983381e-02 -6.247315e-03 -4.473745e-02 -3.104341e-02 1.197964e-02 8.220777e-03 1.836814e-02 3.120614e-03 4.657595e-03 2.284366e-03 6.415770e-03 4.994748e-03 -8.452272e-03 -7.294976e-03 -1.132595e-03 1.693286e-03 4.770287e-04 5.402637e-04 9.294612e-04 -8.331079e-04 -5.727521e-04 7.537337e-04 -6.498508e-03 3.172931e-03 -1.969737e-03 -5.804504e-04 1.633219e-03 -1.973251e-03 2.488074e-03 -4.378316e-04 3.638041e-04 -5.022962e-04 3.143175e-04 -3.337785e-04 4.887611e-04 -2.647159e-04 5.499905e-04 -1.579899e-04 2.467241e-04 -5.385531e-04 6.451918e-04 2.244848e-04 -8.371871e-04 1.202114e-03 -1.328926e-03 9.398712e-04 -1.816074e-04 -3.726611e-04 2.328689e-04 3.786648e-04 -7.848120e-04 5.489805e-04 2.339060e-05 -9.066929e-04 1.520259e-03 -1.314888e-03 2.168057e-04 1.001900e-03 -1.818691e-03 2.066206e-03 -1.737182e-03 9.851792e-04 3.753502e-02 -3.077525e-04 -2.230002e-02 -1.652528e-03 -3.210011e-03 -7.839321e-03 -1.061117e-02 -1.340229e-03 2.362839e-04 1.470874e-04 -1.235352e-03 4.573801e-03 1.791535e-03 3.805138e-03 -1.538261e-03 -2.619125e-03 1.115295e-03 1.518337e-03 -2.913806e-05 -1.676751e-03 1.797793e-03 1.880086e-04 3.400357e-04 -3.709589e-04 -2.638461e-03 1.391542e-03 -1.182125e-05 -6.982650e-04 -1.049997e-03 3.167956e-03 -1.774644e-03 -1.095570e-04 -1.599078e-04 -4.214672e-04 1.329264e-03 -9.601408e-04 -8.205138e-05 1.914859e-03 -2.694214e-03 2.512033e-03 -7.796293e-04 -8.585462e-04 1.569594e-03 -1.493549e-03 8.131430e-04 2.363237e-04 -8.744319e-04 1.068818e-03 -4.470433e-04 -6.972179e-04 1.620515e-03 -1.695439e-03 1.278141e-03 -4.561378e-04 2.561763e-06 1.076907e-04 -3.340548e-04 8.520709e-04 -1.292593e-03 1.170694e-03
<VARIANCE> 180
 4.743142e-01 1.743447e-01 1.104921e-01 5.870767e-02 8.151840e-02 4.173841e-02 5.390503e-02 2.921218e-02 3.369942e-02 3.443076e-02 2.880886e-02 2.655021e-02 2.368770e-02 2.527469e-02 2.176988e-02 1.920632e-02 1.545939e-02 1.561453e-02 1.745458e-02 1.337527e-02 1.334425e-02 1.311658e-02 1.043065e-02 9.396045e-03 9.459913e-03 7.086858e-03 7.589567e-03 7.492700e-03 7.862626e-03 7.940114e-03 7.596875e-03 5.912732e-03 5.403759e-03 5.584295e-03 4.671182e-03 4.680702e-03 4.665702e-03 4.496863e-03 4.264075e-03 4.018057e-03 3.842957e-03 4.116359e-03 4.188336e-03 3.857287e-03 3.488890e-03 3.408306e-03 3.329495e-03 3.084496e-03 3.056448e-03 3.039474e-03 2.822655e-03 2.746534e-03 2.836723e-03 2.814460e-03 2.637227e-03 2.577769e-03 2.626806e-03 2.770765e-03 2.945537e-03 2.849447e-03 2.702677e-02 8.999995e-03 8.846734e-03 5.365176e-03 6.458594e-03 4.512324e-03 5.649812e-03 4.255756e-03 4.338783e-03 4.466658e-03 4.446001e-03 4.186242e-03 3.965607e-03 3.860736e-03 3.862387e-03 3.348605e-03 3.094538e-03 3.007735e-03 2.780413e-03 2.618143e-03 2.564901e-03 2.275351e-03 2.153898e-03 1.952048e-03 1.942620e-03 1.807939e-03 1.649729e-03 1.562792e-03 1.505644e-03 1.412141e-03 1.323840e-03 1.279888e-03 1.220437e-03 1.124861e-03 1.064087e-03 1.027866e-03 9.538194e-04 9.468871e-04 9.109009e-04 8.597288e-04 8.488344e-04 8.448064e-04 8.068253e-04 7.705572e-04 7.164361e-04 6.948350e-04 6.608550e-04 6.455648e-04 6.460929e-04 6.423371e-04 6.193697e-04 5.717637e-04 5.688841e-04 5.672279e-04 5.418510e-04 5.318695e-04 5.296951e-04 5.056865e-04 4.868024e-04 4.821596e-04 1.812062e-02 1.821339e-02 2.107283e-02 2.038902e-02 1.902628e-02 1.872292e-02 1.921654e-02 1.827517e-02 1.725602e-02 1.913852e-02 1.781558e-02 1.736350e-02 1.770854e-02 1.657974e-02 1.701122e-02 1.643555e-02 1.546454e-02 1.521926e-02 1.402812e-02 1.370387e-02 1.305049e-02 1.211869e-02 1.166161e-02 1.116891e-02 1.059444e-02 1.022976e-02 9.466223e-03 8.935940e-03 8.284312e-03 8.393290e-03 8.090965e-03 7.540355e-03 7.105815e-03 6.890943e-03 6.401361e-03 6.196382e-03 5.934855e-03 5.683053e-03 5.493311e-03 5.318325e-03 5.289346e-03 5.252755e-03 5.070725e-03 4.738237e-03 4.533777e-03 4.214990e-03 4.133852e-03 4.069593e-03 3.967702e-03 3.947536e-03 3.805495e-03 3.576261e-03 3.449342e-03 3.387253e-03 3.260227e-03 3.165191e-03 3.090713e-03 3.040338e-03 3.020518e-03 2.943092e-03
<GCONST> -6.243483e+02
<STREAM> 2
<NUMMIXES> 2
<MIXTURE> 1 9.633559e-01
<MEAN> 1
 5.261295e+00
<VARIANCE> 1
 2.723015e-02
<GCONST> -1.765553e+00
<MIXTURE> 2 3.664475e-02
<MEAN> 0
<VARIANCE> 0
<GCONST> 0.000000e+00
<STREAM> 3
<NUMMIXES> 2
<MIXTURE> 1 9.567557e-01
<MEAN> 1
 -3.796408e-03
<VARIANCE> 1
 3.662387e-04
<GCONST> -6.074348e+00
<MIXTURE> 2 4.324471e-02
<MEAN> 0
<VARIANCE> 0
<GCONST> 0.000000e+00
<STREAM> 4
<NUMMIXES> 2
<MIXTURE> 1 9.554211e-01
<MEAN> 1
 9.435216e-04
<VARIANCE> 1
 1.155548e-03
<GCONST> -4.925303e+00
<MIXTURE> 2 4.457926e-02
<MEAN> 0
<VARIANCE> 0
<GCONST> 0.000000e+00
<STREAM> 5
<MEAN> 15
 -4.189775e+00 -3.088251e+00 -3.162832e+00 -3.111697e+00 -3.161350e+00 9.505680e-02 3.360235e-02 3.759658e-02 6.941711e-03 4.670056e-03 -1.525056e-01 -6.470768e-02 -2.864885e-02 -2.300570e-02 2.601290e-03
<VARIANCE> 15
 7.177542e+00 2.685665e+00 2.612492e+00 2.484120e+00 2.595331e+00 1.609706e+00 9.636785e-01 9.825671e-01 8.976876e-01 9.277794e-01 1.027693e+01 7.930015e+00 8.395311e+00 7.819723e+00 7.954207e+00
<GCONST> 4.424813e+01
<STATE> 5
<SWEIGHTS> 5
 1.000000e+00 0.000000e+00 0.000000e+00 0.000000e+00 0.000000e+00
<STREAM> 1
<MEAN> 180
 5.500541e+00 2.553554e+00 3.322557e-01 7.845662e-01 8.209394e-02 6.324953e-01 -4.555494e-01 2.278708e-01 -3.256300e-01 2.444376e-02 -1.565709e-02 1.171157e-01 -2.014225e-01 2.476645e-01 -1.721144e-02 2.559459e-03 -1.868608e-01 1.309643e-01 -1.714212e-01 -1.250197e-02 4.563645e-02 -4.799588e-02 -1.636129e-02 5.885252e-02 -5.168399e-02 7.280544e-02 -9.856860e-02 9.463210e-02 -3.736081e-02 8.856737e-03 -1.012580e-02 5.397973e-02 -8.335559e-02 7.256692e-02 -2.435963e-02 6.805344e-03 -1.621421e-02 3.831743e-02 -5.055393e-02 5.435329e-02 -5.653813e-02 4.695656e-02 -2.990625e-02 1.265711e-02 1.837745e-03 -2.948429e-03 -1.077728e-02 2.479267e-02 -2.541694e-02 1.688085e-02 -9.231071e-03 4.705524e-03 -2.691596e-03 -1.099845e-05 1.768708e-03 -6.503137e-03 8.338599e-03 -6.779780e-03 9.148513e-04 6.310718e-03 -1.888855e-02 -3.365364e-02 -2.795782e-03 7.521166e-03 6.127706e-03 -1.208080e-02 1.218931e-03 4.165445e-04 1.025381e-02 7.648865e-03 -1.193750e-02 1.376474e-03 4.215362e-03 1.152600e-04 -7.885883e-03 -8.735604e-04 3.624651e-03 1.944684e-04 1.307928e-04 -1.563851e-03 -5.465034e-03 7.820347e-03 -4.341577e-03 -8.011941e-04 -5.641081e-04 -1.599248e-03 4.413055e-03 -2.377345e-03 -5.872929e-04 4.944582e-03 -3.518097e-03 3.266165e-04 1.951201e-03 -2.402601e-03 2.303707e-03 -6.263719e-04 -8.358004e-04 1.883306e-03 -1.937929e-03 1.661912e-03 -5.986922e-04 -8.759920e-04 8.088608e-04 5.551995e-05 -6.262229e-04 7.602910e-04 -6.453804e-04 3.546329e-04 6.837068e-04 -1.953580e-03 2.215217e-03 -1.895125e-03 1.326292e-03 -2.886142e-04 -6.539598e-04 1.427827e-03 -2.071288e-03 2.879350e-03 -3.140328e-03 2.306826e-03 -1.235515e-02 -8.026338e-03 7.349716e-03 8.965867e-04 -6.722660e-03 -1.156889e-03 8.574329e-03 6.895767e-04 2.088526e-03 7.303285e-03 5.729778e-04 1.041730e-03 -1.357368e-04 -8.371224e-03 -6.319218e-03 3.688574e-03 4.837223e-04 -3.005878e-03 2.263181e-03 2.424754e-03 -2.026347e-03 4.086912e-03 -1.533111e-03 3.013252e-03 -3.102536e-04 -2.227766e-03 1.537782e-03 -1.269158e-03 6.671443e-04 4.530617e-04 -1.174995e-03 1.601204e-04 3.352620e-03 -1.692945e-03 -1.913806e-03 2.159551e-03 -6.435938e-04 -6.145071e-04 9.955394e-04 -3.266494e-03 2.852085e-03 -1.271330e-03 -5.604780e-04 2.007945e-03 -2.610541e-03 1.729041e-03 1.560209e-04 -2.003728e-03 2.710727e-03 -1.700314e-03 -8.492254e-04 3.177326e-03 -4.257728e-03 3.309671e-03 -8.479261e-04 -1.177028e-03 2.211984e-03 -2.240089e-03 1.602906e-03 -3.978336e-04
<VARIANCE> 180
 7.586013e-01 2.367040e-01 1.182659e-01 7.572731e-02 9.144546e-02 4.301190e-02 7.146940e-02 3.002424e-02 3.597251e-02 3.155523e-02 3.085130e-02 2.586646e-02 2.131182e-02 2.852017e-02 2.236563e-02 1.814492e-02 1.596841e-02 1.682197e-02 1.753575e-02 1.392505e-02 1.387705e-02 1.272128e-02 1.111087e-02 1.081454e-02 1.094683e-02 7.935185e-03 8.549579e-03 7.779784e-03 8.825234e-03 7.999972e-03 8.267703e-03 6.707503e-03 6.054140e-03 6.298997e-03 5.651120e-03 5.779905e-03 5.405349e-03 5.071484e-03 4.952789e-03 4.631203e-03 4.352504e-03 4.464529e-03 4.553677e-03 4.289620e-03 3.837954e-03 3.940636e-03 3.914216e-03 3.409615e-03 3.190055e-03 3.201625e-03 3.140592e-03 3.165310e-03 3.327684e-03 3.301696e-03 3.036902e-03 2.884530e-03 3.045842e-03 3.147053e-03 3.178768e-03 3.081002e-03 2.998213e-02 1.146342e-02 8.088888e-03 5.422513e-03 5.466544e-03 4.356043e-03 4.924045e-03 3.541792e-03 3.582560e-03 3.947397e-03 3.629233e-03 3.467802e-03 3.266902e-03 3.329668e-03 3.153836e-03 2.867409e-03 2.595243e-03 2.533982e-03 2.385708e-03 2.350613e-03 2.276498e-03 2.097938e-03 1.908607e-03 1.792314e-03 1.780465e-03 1.712371e-03 1.686865e-03 1.580870e-03 1.463423e-03 1.353275e-03 1.299467e-03 1.201203e-03 1.125647e-03 1.129135e-03 1.026292e-03 1.015293e-03 1.003201e-03 9.590249e-04 8.916063e-04 8.943303e-04 8.745847e-04 8.035582e-04 8.192721e-04 7.395153e-04 6.861542e-04 6.960883e-04 6.682274e-04 6.422663e-04 6.171651e-04 5.948278e-04 5.975691e-04 5.745192e-04 5.739695e-04 5.510050e-04 5.155407e-04 4.843729e-04 4.783745e-04 4.965771e-04 4.743249e-04 4.678602e-04 1.770908e-02 1.569422e-02 1.742893e-02 1.436477e-02 1.406454e-02 1.328805e-02 1.328106e-02 1.169543e-02 1.214524e-02 1.322755e-02 1.217221e-02 1.224207e-02 1.183361e-02 1.148833e-02 1.118890e-02 1.076993e-02 1.089418e-02 1.032935e-02 9.837195e-03 9.258042e-03 9.417091e-03 9.230955e-03 8.792068e-03 8.452684e-03 7.997428e-03 7.629261e-03 7.300404e-03 6.744895e-03 6.698960e-03 6.519191e-03 6.061186e-03 6.074017e-03 5.848950e-03 5.525268e-03 5.181436e-03 4.959388e-03 4.901482e-03 4.599398e-03 4.363029e-03 4.159948e-03 4.030929e-03 4.051079e-03 3.926497e-03 3.613863e-03 3.550703e-03 3.605193e-03 3.282956e-03 3.236416e-03 3.172070e-03 3.067600e-03 3.084454e-03 2.937858e-03 2.886521e-03 2.739388e-03 2.705742e-03 2.645147e-03 2.612357e-03 2.611138e-03 2.470900e-03 2.473317e-03
<GCONST> -6.377416e+02
<STREAM> 2
<NUMMIXES> 2
<MIXTURE> 1 9.041246e-01
<MEAN> 1
 5.205111e+00
<VARIANCE> 1
 3.441665e-02
<GCONST> -1.531338e+00
<MIXTURE> 2 9.587552e-02
<MEAN> 0
<VARIANCE> 0
<GCONST> 0.000000e+00
<STREAM> 3
<NUMMIXES> 2
<MIXTURE> 1 8.910237e-01
<MEAN> 1
 -4.337887e-03
<VARIANCE> 1
 4.249362e-04
<GCONST> -5.925694e+00
<MIXTURE> 2 1.089762e-01
<MEAN> 0
<VARIANCE> 0
<GCONST> 0.000000e+00
<STREAM> 4
<NUMMIXES> 2
<MIXTURE> 1 8.885598e-01
<MEAN> 1
 -1.685122e-03
<VARIANCE> 1
 1.681408e-03
<GCONST> -4.550246e+00
<MIXTURE> 2 1.114400e-01
<MEAN> 0
<VARIANCE> 0
<GCONST> 0.000000e+00
<STREAM> 5
<MEAN> 15
 -4.645432e+00 -3.154256e+00 -3.110335e+00 -2.994853e+00 -2.825112e+00 7.419644e-02 6.356256e-02 2.647374e-02 2.105558e-02 4.474253e-02 4.228812e-02 3.729889e-02 -2.005562e-02 3.772381e-02 -3.478020e-03
<VARIANCE> 15
 1.152976e+01 3.773629e+00 3.605850e+00 3.077446e+00 2.501747e+00 1.862883e+00 1.034554e+00 1.068676e+00 9.166515e-01 7.537948e-01 1.039440e+01 7.789850e+00 8.359353e+00 7.274678e+00 6.663563e+00
<GCONST> 4.541615e+01
<STATE> 6
<SWEIGHTS> 5
 1.000000e+00 0.000000e+00 0.000000e+00 0.000000e+00 0.000000e+00
<STREAM> 1
<MEAN> 180
 4.455942e+00 1.614077e+00 8.142219e-02 6.278754e-01 -7.588366e-03 5.075080e-01 -3.619748e-01 3.122559e-01 -1.694651e-01 1.264785e-01 -4.156131e-02 1.540027e-01 -7.735020e-02 2.035282e-01 -5.741102e-02 4.883606e-02 -1.336303e-01 7.622860e-02 -1.529844e-01 2.557309e-02 -1.113809e-02 -3.741660e-03 -3.425486e-02 4.894460e-02 -6.105360e-02 6.531058e-02 -7.084494e-02 5.164479e-02 -1.171664e-02 1.996689e-02 -8.839914e-03 3.938802e-02 -7.208026e-02 6.272979e-02 -3.723606e-02 1.626810e-02 -1.275174e-02 1.253179e-02 -3.608526e-02 4.082985e-02 -5.376475e-02 4.197101e-02 -3.478830e-02 2.164133e-02 -9.364920e-03 4.685731e-03 -1.408746e-02 2.281928e-02 -2.294767e-02 1.740649e-02 -1.446854e-02 1.322283e-02 -1.314127e-02 1.344080e-02 -1.002812e-02 -5.739100e-04 1.017575e-02 -1.234468e-02 6.432945e-03 2.003779e-03 -4.619802e-02 -3.095613e-02 -2.420414e-04 2.703337e-03 3.213106e-03 -6.958930e-03 8.481121e-03 -1.508095e-03 8.159628e-03 5.529123e-03 -6.265156e-03 -4.501501e-04 3.821995e-03 -4.210408e-03 -4.754262e-03 1.023945e-03 2.141113e-03 -4.368927e-03 3.422952e-03 2.859783e-03 -3.264777e-03 5.130295e-03 -1.116453e-03 1.093618e-03 -1.713450e-04 -9.028777e-05 2.740280e-03 -2.717731e-03 -7.306730e-04 2.999549e-03 -1.903735e-03 -7.627767e-04 2.242016e-03 -1.982905e-03 -8.617172e-04 1.271386e-03 -6.868096e-04 4.646252e-05 -5.766673e-04 -7.217267e-04 1.500529e-03 -1.068985e-03 -1.164234e-04 7.139802e-04 -1.358717e-03 9.703650e-04 -2.119673e-05 -1.034216e-03 1.075734e-03 -2.994284e-04 -4.490279e-04 4.554024e-04 -1.145184e-04 -2.146988e-04 2.462526e-04 4.926252e-04 -1.266583e-03 1.412790e-03 -9.228393e-04 3.782422e-04 4.638363e-03 7.766476e-04 -1.624734e-03 2.784783e-03 -6.418556e-04 -2.978767e-04 2.176067e-03 -1.486166e-04 -2.132341e-03 -1.427343e-03 -1.640107e-04 1.627553e-03 -2.080834e-03 -1.547506e-03 7.461557e-04 1.678494e-04 -5.532714e-04 -1.509079e-03 2.232028e-03 2.655072e-03 1.785850e-03 -2.963881e-03 -6.358339e-04 4.389846e-04 1.132848e-03 2.849857e-04 -5.594884e-04 8.357421e-05 -8.104268e-04 5.323928e-04 -1.217877e-03 2.645023e-04 4.101579e-04 -7.589168e-04 1.573906e-04 5.055747e-04 -1.110413e-03 1.401710e-03 -6.118631e-04 -7.452663e-04 1.318471e-03 -7.125629e-04 8.195537e-05 4.153283e-04 -6.477493e-04 6.179806e-04 -2.158219e-04 -3.886474e-04 4.097781e-04 3.006410e-04 -4.753540e-04 1.796249e-04 5.601292e-04 -1.328047e-03 1.204774e-03 7.264709e-06 -1.290227e-03 1.351578e-03 -3.163808e-04 -7.709236e-04
<VARIANCE> 180
 1.314444e+00 9.501533e-01 2.388265e-01 9.663146e-02 8.696827e-02 5.447631e-02 5.955230e-02 4.002118e-02 4.740534e-02 3.327041e-02 2.751621e-02 2.809862e-02 4.239821e-02 2.728309e-02 2.287151e-02 2.152618e-02 1.959096e-02 1.755944e-02 1.745152e-02 1.467465e-02 1.421712e-02 1.374130e-02 1.098947e-02 1.033144e-02 1.098224e-02 8.301120e-03 8.820859e-03 9.092480e-03 8.765893e-03 7.240901e-03 7.448109e-03 6.740281e-03 5.822337e-03 6.075481e-03 6.042504e-03 5.513513e-03 4.983609e-03 5.946430e-03 5.242938e-03 4.774865e-03 4.085310e-03 3.804984e-03 4.028462e-03 3.953210e-03 3.753935e-03 3.458617e-03 3.406350e-03 3.114886e-03 2.823476e-03 2.704503e-03 2.751223e-03 2.754701e-03 2.720020e-03 2.679523e-03 2.633719e-03 2.479028e-03 2.459503e-03 2.598644e-03 2.687643e-03 2.668866e-03 2.932012e-02 1.903818e-02 9.377761e-03 6.079157e-03 5.907510e-03 4.892490e-03 5.650976e-03 4.299540e-03 4.405245e-03 4.187784e-03 4.189970e-03 3.932405e-03 3.636229e-03 4.011769e-03 3.771868e-03 3.438451e-03 3.198687e-03 3.233567e-03 3.004033e-03 3.000310e-03 2.783766e-03 2.733118e-03 2.529029e-03 2.348476e-03 2.380256e-03 2.262132e-03 2.197944e-03 1.919905e-03 1.962031e-03 1.823722e-03 1.671800e-03 1.604610e-03 1.563744e-03 1.484654e-03 1.394136e-03 1.327206e-03 1.259541e-03 1.184857e-03 1.116098e-03 1.055848e-03 1.010998e-03 9.731941e-04 9.369280e-04 8.986825e-04 8.562019e-04 8.272183e-04 7.715580e-04 7.660510e-04 7.386578e-04 6.900487e-04 6.709177e-04 6.505075e-04 6.263658e-04 6.116310e-04 5.884704e-04 5.794796e-04 5.580605e-04 5.593257e-04 5.345239e-04 5.224565e-04 1.943938e-02 1.990826e-02 1.671844e-02 1.474613e-02 1.338424e-02 1.325093e-02 1.366793e-02 1.270449e-02 1.276400e-02 1.281378e-02 1.245244e-02 1.224335e-02 1.199361e-02 1.174498e-02 1.172417e-02 1.136158e-02 1.081385e-02 1.051748e-02 1.051218e-02 1.045880e-02 9.855184e-03 9.411324e-03 9.143028e-03 8.461401e-03 8.535610e-03 8.005532e-03 7.785240e-03 7.202698e-03 7.180096e-03 6.670762e-03 6.193826e-03 5.961590e-03 5.859268e-03 5.548565e-03 5.196212e-03 4.890047e-03 4.776125e-03 4.540400e-03 4.203593e-03 4.100180e-03 3.912336e-03 3.638904e-03 3.561864e-03 3.375036e-03 3.222511e-03 3.156080e-03 2.958677e-03 2.837495e-03 2.806612e-03 2.583290e-03 2.582579e-03 2.493005e-03 2.407809e-03 2.347244e-03 2.212164e-03 2.129315e-03 2.095002e-03 2.072052e-03 2.000772e-03 1.998981e-03
<GCONST> -6.261531e+02
<STREAM> 2
<NUMMIXES> 2
<MIXTURE> 1 4.500371e-01
<MEAN> 1
 5.154198e+00
<VARIANCE> 1
 4.462774e-02
<GCONST> -1.271523e+00
<MIXTURE> 2 5.499476e-01
<MEAN> 0
<VARIANCE> 0
<GCONST> 0.000000e+00
<STREAM> 3
<NUMMIXES> 2
<MIXTURE> 1 4.301481e-01
<MEAN> 1
 -3.138063e-03
<VARIANCE> 1
 8.986319e-04
<GCONST> -5.176760e+00
<MIXTURE> 2 5.698367e-01
<MEAN> 0
<VARIANCE> 0
<GCONST> 0.000000e+00
<STREAM> 4
<NUMMIXES> 2
<MIXTURE> 1 4.280831e-01
<MEAN> 1
 2.361637e-03
<VARIANCE> 1
 3.870215e-03
<GCONST> -3.716568e+00
<MIXTURE> 2 5.719017e-01
<MEAN> 0
<VARIANCE> 0
<GCONST> 0.000000e+00
<STREAM> 5
<MEAN> 15
 -1.964152e+00 -1.421816e+00 -1.455331e+00 -1.406354e+00 -1.364073e+00 7.194837e-02 5.294947e-02 3.987934e-02 5.706180e-02 3.616448e-02 -4.584902e-02 -3.179060e-02 -8.687591e-04 -6.978348e-03 -1.078533e-02
<VARIANCE> 15
 8.856253e+00 3.570055e+00 3.734064e+00 3.336310e+00 3.035950e+00 7.354779e-01 4.430856e-01 4.761997e-01 4.280917e-01 3.820242e-01 4.244840e+00 3.400118e+00 3.808034e+00 3.392750e+00 3.087104e+00
<GCONST> 3.733641e+01
<TRANSP> 7
 0.000000e+00 1.000000e+00 0.000000e+00 0.000000e+00 0.000000e+00 0.000000e+00 0.000000e+00
 0.000000e+00 5.882760e-01 4.117241e-01 0.000000e+00 0.000000e+00 0.000000e+00 0.000000e+00
 0.000000e+00 0.000000e+00 3.769590e-01 6.230410e-01 0.000000e+00 0.000000e+00 0.000000e+00
 0.000000e+00 0.000000e+00 0.000000e+00 5.920002e-01 4.079998e-01 0.000000e+00 0.000000e+00
 0.000000e+00 0.000000e+00 0.000000e+00 0.000000e+00 2.783848e-01 7.216152e-01 0.000000e+00
 0.000000e+00 0.000000e+00 0.000000e+00 0.000000e+00 0.000000e+00 6.218914e-01 3.781086e-01
 0.000000e+00 0.000000e+00 0.000000e+00 0.000000e+00 0.000000e+00 0.000000e+00 0.000000e+00
<ENDHMM>
~h "E"
<BEGINHMM>
<NUMSTATES> 7
<STATE> 2
<SWEIGHTS> 5
 1.000000e+00 0.000000e+00 0.000000e+00 0.000000e+00 0.000000e+00
<STREAM> 1
<MEAN> 180
 5.951932e+00 2.406264e+00 -1.558725e-01 7.641085e-01 -9.125981e-03 4.049689e-01 -4.557671e-01 2.359533e-01 -1.568808e-01 1.441963e-01 -7.865722e-02 1.569937e-01 -2.775882e-01 1.773503e-01 -1.144226e-01 -1.534138e-02 -1.949624e-01 1.251488e-01 -1.545632e-01 6.514315e-02 1.688601e-02 -5.453236e-03 -1.532936e-02 5.677084e-02 -4.137173e-02 6.445365e-02 -7.624506e-02 7.568718e-02 -4.266534e-02 4.027990e-02 -3.363229e-02 5.548798e-02 -6.270973e-02 4.905201e-02 -2.505396e-02 2.037138e-02 -2.802812e-02 4.098132e-02 -5.171495e-02 5.133866e-02 -4.752634e-02 3.861586e-02 -3.405974e-02 3.371796e-02 -3.149534e-02 2.797504e-02 -2.788285e-02 2.736430e-02 -2.102585e-02 1.083717e-02 -2.800648e-03 2.110073e-04 2.976041e-06 -1.057434e-03 5.387418e-03 -1.036285e-02 1.260039e-02 -1.159613e-02 8.497666e-03 -4.713046e-03 2.585425e-01 1.595150e-01 -3.604858e-02 -5.677552e-03 -1.364443e-02 -9.771205e-03 -3.463628e-02 2.867793e-03 2.023384e-02 1.112700e-02 1.634023e-02 1.403356e-02 -1.495425e-02 9.700008e-03 -4.060461e-03 -1.239847e-02 -8.991973e-03 1.733480e-02 -4.330732e-03 -2.721474e-04 9.663008e-03 -1.093976e-02 8.384768e-03 -5.268808e-03 -7.473799e-04 3.934344e-03 -8.617439e-03 5.878823e-03 -4.415502e-03 -1.893254e-03 1.689073e-03 2.948468e-04 -5.758998e-04 4.900967e-04 3.990929e-04 1.034114e-03 -2.792781e-03 3.697719e-03 -3.536925e-03 3.523243e-03 -2.955711e-03 2.224350e-03 -1.950681e-03 1.554603e-03 -1.651925e-03 2.247331e-03 -2.267312e-03 1.121228e-03 1.023455e-04 -1.121256e-03 1.971450e-03 -2.553575e-03 2.567786e-03 -2.362202e-03 2.633375e-03 -2.949761e-03 3.398100e-03 -4.053372e-03 4.455695e-03 -3.788666e-03 -6.860708e-02 -8.073092e-02 -1.846955e-02 4.687532e-03 -6.716904e-03 1.637496e-03 9.672936e-03 3.956021e-03 5.058579e-03 8.674898e-04 -1.658566e-03 -1.082884e-03 7.723929e-03 2.115352e-03 -5.983221e-03 1.043309e-03 4.242967e-03 -5.716324e-03 1.411607e-03 -1.756109e-03 -9.041672e-04 2.060202e-03 -3.646210e-03 2.470364e-03 7.043294e-04 -3.190039e-03 2.677969e-03 8.735743e-04 1.120680e-03 -5.373265e-04 -1.400149e-04 -8.492693e-04 3.731082e-04 -2.568233e-04 2.703955e-04 -4.867314e-04 -5.338478e-04 1.074725e-03 -4.992803e-04 -1.045538e-03 2.054316e-03 -1.297991e-03 9.642181e-05 4.315918e-04 1.864052e-04 -9.806849e-04 6.680271e-04 4.698600e-04 -1.665632e-03 6.123525e-04 1.889524e-04 -1.178645e-04 -7.575441e-04 1.152835e-03 -1.498293e-03 1.390499e-03 -1.026148e-03 1.250625e-03 -1.832127e-03 1.797944e-03
<VARIANCE> 180
 8.943752e-01 3.499814e-01 1.329718e-01 9.924198e-02 5.274045e-02 5.192683e-02 4.278990e-02 4.413262e-02 3.979286e-02 3.011817e-02 2.768529e-02 3.973412e-02 2.251356e-02 2.350340e-02 2.372626e-02 2.286742e-02 1.728380e-02 2.061202e-02 1.885857e-02 1.388719e-02 1.259886e-02 1.179904e-02 9.951892e-03 1.026320e-02 9.200418e-03 8.226312e-03 8.184868e-03 7.646650e-03 7.852724e-03 7.130811e-03 8.716442e-03 6.631539e-03 5.431154e-03 5.474628e-03 5.601473e-03 5.837519e-03 5.072288e-03 4.569003e-03 4.710088e-03 4.324176e-03 4.009336e-03 3.799408e-03 3.983113e-03 3.716177e-03 3.811381e-03 4.270635e-03 4.100040e-03 3.614436e-03 3.447775e-03 3.303213e-03 3.031053e-03 2.809880e-03 3.098937e-03 3.391356e-03 3.417484e-03 3.134115e-03 2.986742e-03 2.898856e-03 2.896222e-03 2.801512e-03 1.092123e-01 5.977060e-02 2.744044e-02 1.216239e-02 1.113672e-02 7.093907e-03 7.436577e-03 5.998538e-03 6.447413e-03 5.836931e-03 6.212733e-03 5.957302e-03 4.947308e-03 4.506418e-03 4.225176e-03 4.382093e-03 3.667441e-03 3.893638e-03 3.474992e-03 2.982561e-03 3.099031e-03 2.724326e-03 2.323347e-03 2.321390e-03 2.055045e-03 2.004381e-03 1.846208e-03 1.770451e-03 1.746636e-03 1.537925e-03 1.486795e-03 1.344655e-03 1.334114e-03 1.217286e-03 1.239871e-03 1.209635e-03 1.125087e-03 1.013532e-03 9.967702e-04 9.667445e-04 8.946306e-04 8.384524e-04 8.658522e-04 8.742177e-04 8.154595e-04 8.233618e-04 7.893865e-04 7.494560e-04 7.260475e-04 7.064007e-04 6.932979e-04 6.489797e-04 6.400383e-04 6.289532e-04 6.103083e-04 5.736587e-04 5.791194e-04 5.496832e-04 5.546700e-04 5.666360e-04 1.636664e-01 8.445710e-02 8.343410e-02 4.163177e-02 3.857395e-02 3.122548e-02 3.120768e-02 2.838624e-02 2.833665e-02 2.592331e-02 2.717553e-02 2.729605e-02 2.324127e-02 2.289416e-02 2.210244e-02 2.224624e-02 2.054522e-02 2.000082e-02 1.730428e-02 1.569083e-02 1.582649e-02 1.465748e-02 1.290885e-02 1.231147e-02 1.124645e-02 1.081316e-02 1.022379e-02 9.286364e-03 9.237682e-03 8.320205e-03 8.388552e-03 7.921605e-03 7.510767e-03 7.111995e-03 6.940118e-03 6.657390e-03 6.406022e-03 6.010133e-03 5.615674e-03 5.667369e-03 5.148080e-03 5.056358e-03 5.036346e-03 4.693585e-03 4.462178e-03 4.644548e-03 4.266027e-03 4.220610e-03 4.152774e-03 3.829238e-03 3.732580e-03 3.579027e-03 3.592916e-03 3.650785e-03 3.537733e-03 3.336409e-03 3.296730e-03 3.230692e-03 3.245596e-03 3.058917e-03
<GCONST> -5.907143e+02
<STREAM> 2
<NUMMIXES> 2
<MIXTURE> 1 8.096301e-01
<MEAN> 1
 5.319091e+00
<VARIANCE> 1
 2.784163e-02
<GCONST> -1.743346e+00
<MIXTURE> 2 1.903677e-01
<MEAN> 0
<VARIANCE> 0
<GCONST> 0.000000e+00
<STREAM> 3
<NUMMIXES> 2
<MIXTURE> 1 7.201250e-01
<MEAN> 1
 3.937338e-03
<VARIANCE> 1
 1.414080e-03
<GCONST> -4.723399e+00
<MIXTURE> 2 2.798729e-01
<MEAN> 0
<VARIANCE> 0
<GCONST> 0.000000e+00
<STREAM> 4
<NUMMIXES> 2
<MIXTURE> 1 7.161002e-01
<MEAN> 1
 -1.376909e-02
<VARIANCE> 1
 6.601444e-03
<GCONST> -3.182590e+00
<MIXTURE> 2 2.838976e-01
<MEAN> 0
<VARIANCE> 0
<GCONST> 0.000000e+00
<STREAM> 5
<MEAN> 15
 -3.553986e+00 -2.571639e+00 -2.585674e+00 -2.655373e+00 -2.416662e+00 -8.168169e-01 -3.726279e-01 -3.641011e-01 -3.564997e-01 -2.719684e-01 -2.873694e-01 -3.829668e-02 1.055705e-02 7.000102e-02 2.396198e-02
<VARIANCE> 15
 9.408571e+00 3.650754e+00 3.789807e+00 3.700654e+00 2.942071e+00 2.626738e+00 1.178735e+00 1.186240e+00 1.228713e+00 9.948995e-01 1.484010e+01 9.036011e+00 9.362373e+00 9.206399e+00 7.700888e+00
<GCONST> 4.772296e+01
<STATE> 3
<SWEIGHTS> 5
 1.000000e+00 0.000000e+00 0.000000e+00 0.000000e+00 0.000000e+00
<STREAM> 1
<MEAN> 180
 6.482870e+00 2.671686e+00 -2.720520e-01 8.068788e-01 -4.255976e-02 3.410568e-01 -5.409178e-01 2.330975e-01 -1.366718e-01 1.507943e-01 -5.675411e-02 2.376367e-01 -2.769156e-01 2.025018e-01 -1.113150e-01 -2.252685e-02 -2.150038e-01 1.332078e-01 -1.521495e-01 6.827806e-02 2.852998e-02 -2.779852e-02 2.868709e-03 4.716476e-02 -4.126723e-02 5.631142e-02 -8.954524e-02 9.241311e-02 -5.366056e-02 3.232601e-02 -2.580127e-02 5.341539e-02 -6.346142e-02 4.725983e-02 -2.624160e-02 3.135853e-02 -4.081196e-02 4.954813e-02 -5.475073e-02 5.405958e-02 -4.989592e-02 4.502791e-02 -4.219871e-02 3.920611e-02 -3.100192e-02 2.307446e-02 -2.187450e-02 2.023211e-02 -1.452652e-02 5.445878e-03 6.840389e-04 -4.007597e-03 5.901542e-03 -8.832196e-03 1.257524e-02 -1.439201e-02 1.286046e-02 -9.324948e-03 5.861971e-03 -3.209630e-03 8.253854e-02 1.458494e-02 -4.938721e-02 -1.438131e-02 -1.534270e-02 -4.995478e-03 -1.535754e-02 1.084163e-02 2.541570e-02 1.163978e-02 8.475234e-03 1.188540e-03 -1.977944e-03 6.215492e-03 -9.365642e-03 -1.125533e-02 -1.084018e-03 9.610166e-03 -3.560557e-03 1.476492e-03 4.530628e-03 -1.922717e-03 1.090537e-03 -2.348618e-03 2.307243e-04 1.080420e-03 -3.138351e-03 2.550238e-03 -4.920297e-04 -1.942978e-03 2.100373e-03 -1.481447e-03 -3.513090e-04 2.031883e-04 2.232270e-05 -3.880294e-04 -5.206611e-04 1.266146e-03 -1.679615e-03 2.155597e-03 -1.786755e-03 1.371349e-03 -1.242334e-03 1.029481e-03 -8.693248e-04 1.003307e-03 -1.297736e-03 1.195292e-03 -6.323257e-04 -7.406639e-04 1.049979e-03 -7.823490e-04 -4.000458e-05 3.620755e-04 8.578859e-05 -1.367674e-03 2.789289e-03 -3.119092e-03 2.567799e-03 -1.883697e-03 -5.154423e-02 -2.035897e-02 2.018623e-02 3.377037e-03 6.381494e-03 5.415231e-03 1.304479e-02 1.781463e-03 -5.414407e-03 -1.668575e-03 -7.338013e-03 -8.621411e-03 2.139279e-03 -4.238663e-03 -9.052868e-04 3.458093e-03 4.622858e-03 -2.950992e-03 7.177159e-04 2.233380e-03 -6.133810e-03 4.130809e-03 -1.945363e-03 -1.212942e-03 -4.465260e-04 1.773576e-03 2.276030e-03 -4.190441e-03 1.749405e-03 2.611518e-03 -5.629068e-04 -2.042073e-03 1.258226e-03 8.113619e-04 -7.913347e-04 -6.811997e-04 2.529200e-03 -3.582943e-03 2.129785e-03 -1.870928e-04 -1.013499e-03 5.666020e-04 5.179362e-04 -8.109659e-04 4.765680e-04 -1.246501e-04 3.254380e-04 -3.000282e-04 6.049129e-04 4.440770e-04 -1.825556e-03 2.081388e-03 -1.685022e-03 1.627617e-03 -1.483098e-03 9.067708e-04 -2.840732e-04 -2.621967e-04 5.341834e-04 -4.741980e-04
<VARIANCE> 180
 3.493827e-01 1.316383e-01 1.419520e-01 9.523044e-02 4.601138e-02 4.346078e-02 3.864083e-02 3.429840e-02 3.860999e-02 3.700341e-02 2.628287e-02 3.067759e-02 2.177922e-02 1.958567e-02 2.415168e-02 2.508794e-02 1.813498e-02 1.959774e-02 1.815561e-02 1.416536e-02 1.148230e-02 1.244411e-02 9.839220e-03 1.115135e-02 1.030933e-02 7.658062e-03 7.963706e-03 8.934389e-03 9.128918e-03 7.807565e-03 8.714381e-03 6.846985e-03 5.567890e-03 6.444691e-03 6.461857e-03 6.441305e-03 5.209264e-03 4.732794e-03 5.052862e-03 4.687217e-03 4.173602e-03 4.169475e-03 4.307911e-03 4.104162e-03 4.187400e-03 4.771893e-03 4.774152e-03 4.199453e-03 3.754461e-03 3.522561e-03 3.369905e-03 3.333457e-03 3.531782e-03 3.606977e-03 3.550811e-03 3.382419e-03 3.391789e-03 3.284176e-03 3.152345e-03 3.214810e-03 1.745840e-02 7.311880e-03 9.095927e-03 5.761644e-03 4.359548e-03 3.677230e-03 3.900996e-03 3.640681e-03 3.242508e-03 3.178668e-03 2.731518e-03 3.311291e-03 2.861359e-03 2.761426e-03 2.601328e-03 2.386143e-03 2.196271e-03 2.279424e-03 2.125787e-03 1.971067e-03 1.930630e-03 1.831267e-03 1.667710e-03 1.626564e-03 1.482598e-03 1.496564e-03 1.369234e-03 1.281051e-03 1.231912e-03 1.233508e-03 1.197584e-03 1.077899e-03 1.026403e-03 9.833601e-04 9.159288e-04 8.710784e-04 8.556520e-04 8.202474e-04 7.620584e-04 7.510230e-04 7.531364e-04 6.762554e-04 7.081915e-04 6.936277e-04 6.480467e-04 6.136416e-04 6.220881e-04 6.116065e-04 5.784305e-04 5.324790e-04 5.446785e-04 5.208989e-04 4.934890e-04 5.017715e-04 4.838918e-04 4.580059e-04 4.647039e-04 4.705748e-04 4.465635e-04 4.483296e-04 3.544053e-02 1.803346e-02 2.882964e-02 1.831582e-02 1.648072e-02 1.384485e-02 1.343104e-02 1.368315e-02 1.273219e-02 1.281560e-02 1.183434e-02 1.164445e-02 1.126227e-02 1.098288e-02 1.070494e-02 1.108270e-02 9.994912e-03 1.066598e-02 9.505639e-03 9.243609e-03 9.165415e-03 8.649243e-03 8.038739e-03 8.020605e-03 7.604435e-03 7.229303e-03 6.895539e-03 6.632815e-03 6.314612e-03 6.005382e-03 5.884053e-03 5.495545e-03 5.493280e-03 5.177978e-03 5.240467e-03 4.783681e-03 4.736590e-03 4.339878e-03 4.280746e-03 4.228400e-03 4.018554e-03 3.772185e-03 3.707042e-03 3.720210e-03 3.454743e-03 3.275902e-03 3.321161e-03 3.246444e-03 3.054956e-03 2.957738e-03 3.034502e-03 2.962515e-03 2.752737e-03 2.790607e-03 2.750450e-03 2.574153e-03 2.583820e-03 2.583099e-03 2.441025e-03 2.455342e-03
<GCONST> -6.454293e+02
<STREAM> 2
<NUMMIXES> 2
<MIXTURE> 1 9.103047e-01
<MEAN> 1
 5.291140e+00
<VARIANCE> 1
 2.983205e-02
<GCONST> -1.674295e+00
<MIXTURE> 2 8.969399e-02
<MEAN> 0
<VARIANCE> 0
<GCONST> 0.000000e+00
<STREAM> 3
<NUMMIXES> 2
<MIXTURE> 1 8.839101e-01
<MEAN> 1
 -6.618802e-03
<VARIANCE> 1
 5.387840e-04
<GCONST> -5.688319e+00
<MIXTURE> 2 1.160886e-01
<MEAN> 0
<VARIANCE> 0
<GCONST> 0.000000e+00
<STREAM> 4
<NUMMIXES> 2
<MIXTURE> 1 8.828487e-01
<MEAN> 1
 2.680189e-03
<VARIANCE> 1
 2.374999e-03
<GCONST> -4.204881e+00
<MIXTURE> 2 1.171499e-01
<MEAN> 0
<VARIANCE> 0
<GCONST> 0.000000e+00
<STREAM> 5
<MEAN> 15
 -5.953558e+00 -3.411066e+00 -3.362498e+00 -3.357737e+00 -3.023422e+00 -6.847503e-01 -2.113306e-01 -1.533747e-01 -1.238180e-01 -1.279289e-01 2.759313e-01 8.554983e-02 7.318904e-02 7.562527e-02 7.083377e-02
<VARIANCE> 15
 1.421402e+01 4.466729e+00 4.336118e+00 3.915278e+00 3.143878e+00 3.476053e+00 1.376407e+00 1.499347e+00 1.339449e+00 1.083459e+00 2.014922e+01 1.139575e+01 1.185985e+01 1.057484e+01 9.360143e+00
<GCONST> 5.054369e+01
<STATE> 4
<SWEIGHTS> 5
 1.000000e+00 0.000000e+00 0.000000e+00 0.000000e+00 0.000000e+00
<STREAM> 1
<MEAN> 180
 6.832500e+00 2.789125e+00 -4.524660e-01 7.075371e-01 -9.950168e-02 3.846161e-01 -5.455237e-01 2.532928e-01 -6.913003e-02 2.106174e-01 -1.919510e-02 1.939928e-01 -2.831999e-01 2.388707e-01 -1.570092e-01 -6.963684e-02 -2.127774e-01 1.661218e-01 -1.474892e-01 7.404990e-02 3.094634e-02 -3.090348e-02 5.909292e-03 4.981833e-02 -6.541005e-02 8.295308e-02 -9.201524e-02 8.767986e-02 -5.534751e-02 2.947224e-02 -1.576770e-02 3.529797e-02 -5.813023e-02 5.254428e-02 -2.967277e-02 2.589878e-02 -3.571940e-02 5.079081e-02 -6.334225e-02 6.755569e-02 -6.242398e-02 5.092302e-02 -4.290163e-02 3.911365e-02 -3.579953e-02 3.091280e-02 -2.957672e-02 2.559786e-02 -1.942371e-02 8.424800e-03 -3.187321e-03 1.705705e-03 -2.363680e-03 -8.097749e-04 9.620599e-03 -2.016801e-02 2.818078e-02 -2.927170e-02 2.469696e-02 -1.675308e-02 -1.877160e-02 2.186568e-03 1.557214e-02 -7.806153e-04 8.430412e-03 4.536755e-03 8.514844e-05 4.386968e-03 1.858754e-03 -3.651516e-04 -5.552995e-04 -6.505029e-03 3.195632e-03 1.346035e-03 -2.606033e-03 -2.959234e-03 -8.985199e-04 2.683349e-03 -3.601578e-03 2.232952e-03 -4.625260e-04 -2.157446e-03 3.198509e-03 -1.812979e-03 7.276455e-04 1.905653e-03 -1.523867e-03 1.193236e-03 -1.447727e-03 9.896347e-04 9.245996e-04 -1.992760e-03 8.577402e-04 7.202094e-04 -7.563243e-04 -1.444400e-04 1.061451e-03 -1.509353e-03 1.100100e-03 -5.801090e-04 -3.129108e-04 6.798691e-04 -1.046277e-03 8.268208e-04 -2.428851e-05 -9.330345e-04 1.449480e-03 -1.264339e-03 9.365091e-04 -3.846107e-04 -1.389713e-04 4.394314e-04 -6.565228e-04 1.058535e-03 -1.528142e-03 1.705618e-03 -1.462266e-03 8.703872e-04 -2.080219e-04 -3.313914e-04 -3.012896e-02 -8.329159e-04 2.064372e-02 3.407940e-03 6.816064e-03 2.909974e-03 4.905934e-03 -2.162141e-03 -4.014857e-03 -3.009909e-03 -1.576112e-03 -1.430935e-03 -9.480879e-04 -1.024992e-03 3.900192e-03 2.589589e-03 -3.780349e-04 -1.532493e-03 -5.426336e-04 -8.717289e-04 -4.456312e-04 3.880244e-04 1.866702e-04 6.590863e-04 7.080249e-04 -1.374292e-03 6.098269e-04 1.330655e-04 -6.803548e-04 4.123470e-04 -4.737681e-04 9.171352e-04 -2.147390e-04 -1.214232e-04 2.340960e-05 2.826798e-04 -2.845261e-04 9.149669e-05 2.769349e-04 -9.951314e-04 1.048422e-03 -4.713343e-04 -2.629079e-04 3.889787e-04 -8.254698e-05 -2.029066e-04 3.538906e-04 -5.058845e-04 4.518463e-04 -2.861620e-04 4.134001e-04 -5.927648e-04 8.017475e-04 -6.495906e-04 -1.464016e-04 1.301438e-03 -2.139195e-03 2.161672e-03 -1.491520e-03 6.462227e-04
<VARIANCE> 180
 2.989331e-01 7.802728e-02 1.154101e-01 4.889197e-02 3.784794e-02 3.109591e-02 3.301966e-02 2.527160e-02 2.544172e-02 2.042317e-02 2.027387e-02 2.367765e-02 1.849852e-02 1.691558e-02 2.039672e-02 1.612031e-02 1.679437e-02 1.839962e-02 1.712370e-02 1.239042e-02 1.054520e-02 9.942064e-03 9.604840e-03 1.026823e-02 9.492840e-03 6.916282e-03 7.164992e-03 7.598166e-03 7.109608e-03 6.875987e-03 8.234683e-03 7.272960e-03 5.211053e-03 5.259809e-03 5.529101e-03 6.203501e-03 5.486039e-03 4.691453e-03 4.964976e-03 4.671628e-03 4.020558e-03 3.942814e-03 4.090298e-03 4.011316e-03 4.119928e-03 4.419953e-03 4.191034e-03 3.842389e-03 3.683862e-03 3.476955e-03 3.246529e-03 3.220539e-03 3.550311e-03 3.657712e-03 3.491999e-03 3.297467e-03 3.311894e-03 3.213414e-03 3.032925e-03 3.004142e-03 6.954125e-03 3.178613e-03 5.448843e-03 2.937156e-03 3.086345e-03 2.360485e-03 2.419326e-03 2.556135e-03 2.426444e-03 2.080411e-03 1.911409e-03 2.107915e-03 1.931001e-03 1.838595e-03 1.854569e-03 1.715554e-03 1.665430e-03 1.669558e-03 1.571376e-03 1.426809e-03 1.343114e-03 1.308692e-03 1.242297e-03 1.174202e-03 1.144457e-03 1.059109e-03 1.041365e-03 9.956084e-04 9.426079e-04 8.984193e-04 8.539212e-04 8.425309e-04 7.970346e-04 7.771898e-04 7.638881e-04 7.523360e-04 7.072149e-04 6.742364e-04 6.871627e-04 6.611164e-04 6.280103e-04 6.147079e-04 6.158178e-04 6.025030e-04 5.771851e-04 5.659157e-04 5.592335e-04 5.400204e-04 5.108158e-04 4.858645e-04 4.774243e-04 4.779332e-04 4.601367e-04 4.431603e-04 4.426174e-04 4.388475e-04 4.385618e-04 4.259190e-04 4.114158e-04 4.064401e-04 8.492594e-03 8.304588e-03 1.129642e-02 9.511694e-03 9.511232e-03 8.337291e-03 8.254887e-03 8.239211e-03 7.708898e-03 7.733864e-03 7.416599e-03 7.004809e-03 7.189756e-03 6.906562e-03 6.678681e-03 6.716022e-03 6.390327e-03 6.328424e-03 6.090070e-03 5.722681e-03 5.677656e-03 5.537891e-03 5.374089e-03 5.217355e-03 5.179370e-03 5.002179e-03 4.690585e-03 4.552033e-03 4.398202e-03 4.331277e-03 4.143360e-03 4.042456e-03 3.881653e-03 3.877219e-03 3.716946e-03 3.742946e-03 3.594109e-03 3.454983e-03 3.309953e-03 3.268452e-03 3.213816e-03 3.079981e-03 3.149089e-03 3.086474e-03 2.941415e-03 2.883198e-03 2.768109e-03 2.741193e-03 2.685738e-03 2.552560e-03 2.500661e-03 2.528739e-03 2.505832e-03 2.383340e-03 2.336593e-03 2.337314e-03 2.382556e-03 2.353257e-03 2.270992e-03 2.213344e-03
<GCONST> -6.904750e+02
<STREAM> 2
<NUMMIXES> 2
<MIXTURE> 1 9.831722e-01
<MEAN> 1
 5.278629e+00
<VARIANCE> 1
 2.447959e-02
<GCONST> -1.872039e+00
<MIXTURE> 2 1.682751e-02
<MEAN> 0
<VARIANCE> 0
<GCONST> 0.000000e+00
<STREAM> 3
<NUMMIXES> 2
<MIXTURE> 1 9.799555e-01
<MEAN> 1
 -6.776613e-04
<VARIANCE> 1
 1.856740e-04
<GCONST> -6.753641e+00
<MIXTURE> 2 2.004422e-02
<MEAN> 0
<VARIANCE> 0
<GCONST> 0.000000e+00
<STREAM> 4
<NUMMIXES> 2
<MIXTURE> 1 9.795620e-01
<MEAN> 1
 2.935696e-04
<VARIANCE> 1
 4.841253e-04
<GCONST> -5.795290e+00
<MIXTURE> 2 2.043773e-02
<MEAN> 0
<VARIANCE> 0
<GCONST> 0.000000e+00
<STREAM> 5
<MEAN> 15
 -8.922277e+00 -4.315560e+00 -4.166366e+00 -3.954982e+00 -3.491269e+00 1.828958e-01 5.020569e-02 3.391982e-02 3.026024e-02 1.034366e-02 3.182293e-01 8.131970e-02 7.503390e-02 2.147464e-02 1.487209e-02
<VARIANCE> 15
 1.915829e+01 5.274860e+00 5.171167e+00 4.170303e+00 3.019951e+00 3.516962e+00 1.732101e+00 1.728242e+00 1.535163e+00 1.156579e+00 2.202502e+01 1.342094e+01 1.418878e+01 1.198007e+01 9.900942e+00
<GCONST> 5.240563e+01
<STATE> 5
<SWEIGHTS> 5
 1.000000e+00 0.000000e+00 0.000000e+00 0.000000e+00 0.000000e+00
<STREAM> 1
<MEAN> 180
 6.481340e+00 2.674971e+00 -1.381078e-01 8.034554e-01 -2.598443e-02 4.337155e-01 -4.973632e-01 3.114959e-01 -4.271126e-02 1.591769e-01 -6.718829e-02 1.013933e-01 -2.863891e-01 2.064599e-01 -1.396838e-01 -3.438403e-02 -2.117644e-01 2.115811e-01 -2.115870e-01 9.297226e-02 2.320665e-02 -2.076199e-02 6.939148e-03 3.698223e-02 -3.641071e-02 6.760138e-02 -9.267582e-02 8.825252e-02 -5.815059e-02 4.204066e-02 -3.310274e-02 5.149615e-02 -6.530849e-02 5.282436e-02 -2.461355e-02 1.602181e-02 -2.694227e-02 4.232234e-02 -5.687650e-02 5.720147e-02 -5.306588e-02 4.493288e-02 -4.722217e-02 5.136861e-02 -4.979684e-02 4.334251e-02 -3.711865e-02 2.933213e-02 -1.727153e-02 3.059377e-03 5.949316e-03 -6.920230e-03 1.897147e-03 2.814831e-03 -3.032783e-03 -1.008847e-03 5.550316e-03 -8.380218e-03 9.935016e-03 -1.137859e-02 -1.192407e-01 -2.976125e-02 5.299705e-02 2.856857e-02 3.958901e-02 1.706070e-02 2.368017e-02 4.148026e-03 -3.603179e-03 -6.267993e-03 -1.459404e-02 -2.116254e-02 -2.119757e-03 -1.124936e-03 1.347813e-02 2.584008e-03 1.504694e-03 -3.596740e-03 -6.061870e-03 -2.485244e-03 -2.397622e-03 4.937825e-03 -2.050068e-03 3.789736e-04 3.587061e-03 -3.206949e-03 1.135800e-03 9.725568e-04 -1.115043e-03 8.151233e-04 1.972074e-03 -2.702047e-03 1.599283e-03 2.851996e-05 -4.872790e-04 6.499182e-04 -5.706443e-04 -1.002544e-03 2.267536e-03 -3.501969e-03 3.164621e-03 -1.714722e-03 1.356866e-04 8.781635e-04 -2.148156e-04 -1.018536e-03 2.171600e-03 -2.306668e-03 1.504090e-03 -4.312933e-04 -2.945744e-07 3.418030e-05 -3.015393e-04 9.925188e-04 -2.192647e-03 3.206233e-03 -3.896278e-03 3.986994e-03 -3.365150e-03 2.239763e-03 -3.252839e-02 -7.713548e-03 -3.047547e-04 1.027864e-02 8.969880e-03 3.393456e-03 1.018090e-02 -3.732091e-03 -4.406167e-03 -5.270301e-04 -3.701088e-03 -9.212098e-04 2.661546e-03 -3.479424e-03 3.563202e-03 7.106132e-04 -1.697810e-04 -5.059494e-03 5.746868e-03 -2.551924e-03 -1.423101e-03 3.900829e-03 -5.019167e-03 5.899688e-04 2.489809e-03 -1.835721e-03 1.431911e-03 -7.475907e-04 6.537894e-04 -7.274033e-04 5.530538e-04 -1.079105e-03 6.825099e-04 9.961394e-05 -4.993741e-04 5.427659e-04 -2.652436e-04 -4.954602e-04 1.530897e-03 -1.702840e-03 1.627204e-03 -6.650476e-04 2.218331e-04 -5.279628e-04 8.952298e-04 -1.348570e-03 1.245241e-03 -4.397106e-04 -3.727580e-04 7.390340e-04 -8.319962e-04 1.110387e-03 -1.675483e-03 1.630648e-03 -6.510692e-04 -7.193138e-04 1.347966e-03 -5.995606e-04 -6.359287e-04 1.216877e-03
<VARIANCE> 180
 2.919264e-01 1.001685e-01 7.090254e-02 4.819142e-02 4.486547e-02 3.657342e-02 3.640807e-02 3.604641e-02 3.248611e-02 2.533587e-02 2.561328e-02 3.275971e-02 2.078250e-02 2.140980e-02 2.419890e-02 1.987727e-02 1.814848e-02 1.869708e-02 1.723948e-02 1.559763e-02 1.221992e-02 1.127747e-02 1.073500e-02 9.951551e-03 9.961213e-03 7.857661e-03 8.046382e-03 8.027765e-03 7.437416e-03 6.609224e-03 7.184255e-03 6.926013e-03 5.882633e-03 5.861597e-03 5.682889e-03 5.614825e-03 5.503988e-03 5.350095e-03 5.124527e-03 4.772068e-03 4.616228e-03 4.685673e-03 4.569162e-03 4.313907e-03 4.494498e-03 4.667171e-03 4.596009e-03 4.278746e-03 3.955534e-03 3.627445e-03 3.429112e-03 3.434169e-03 3.718573e-03 3.781191e-03 3.462383e-03 3.104701e-03 2.942228e-03 2.867923e-03 2.873274e-03 2.896766e-03 1.147316e-02 5.529433e-03 7.619093e-03 5.848252e-03 5.438460e-03 4.594876e-03 4.605674e-03 4.732341e-03 4.314369e-03 4.549854e-03 4.292197e-03 4.218048e-03 3.891864e-03 3.785892e-03 3.713001e-03 3.605684e-03 3.067672e-03 3.083241e-03 3.026913e-03 2.538034e-03 2.518426e-03 2.310101e-03 2.261743e-03 2.078641e-03 2.046452e-03 1.877852e-03 1.796996e-03 1.703325e-03 1.512470e-03 1.462983e-03 1.470518e-03 1.378253e-03 1.297269e-03 1.226961e-03 1.151665e-03 1.114362e-03 1.101173e-03 1.045057e-03 9.682759e-04 9.413685e-04 8.973684e-04 8.632793e-04 8.550684e-04 8.094272e-04 8.110797e-04 7.998574e-04 7.532664e-04 7.218109e-04 7.089024e-04 6.641625e-04 6.452940e-04 6.279899e-04 6.018173e-04 5.807364e-04 5.772213e-04 5.593140e-04 5.503286e-04 5.411490e-04 5.422573e-04 5.209017e-04 1.545322e-02 1.520060e-02 2.299843e-02 2.194379e-02 2.045362e-02 1.976661e-02 2.001527e-02 1.943123e-02 1.908245e-02 2.066255e-02 1.891382e-02 1.893627e-02 1.814912e-02 1.773360e-02 1.752756e-02 1.647397e-02 1.559210e-02 1.536630e-02 1.475299e-02 1.328116e-02 1.355135e-02 1.282247e-02 1.282690e-02 1.167422e-02 1.149287e-02 1.092460e-02 1.035630e-02 9.661206e-03 9.411937e-03 8.745294e-03 8.341832e-03 8.356063e-03 7.745901e-03 7.304732e-03 6.671640e-03 6.620254e-03 6.551806e-03 6.182200e-03 5.985374e-03 5.837487e-03 5.383939e-03 5.211766e-03 5.194949e-03 4.850020e-03 4.814674e-03 4.796499e-03 4.529216e-03 4.302121e-03 4.296609e-03 4.194863e-03 4.089147e-03 3.909206e-03 3.758812e-03 3.672360e-03 3.564530e-03 3.455683e-03 3.417361e-03 3.343338e-03 3.246754e-03 3.126400e-03
<GCONST> -6.174352e+02
<STREAM> 2
<NUMMIXES> 2
<MIXTURE> 1 9.871035e-01
<MEAN> 1
 5.327098e+00
<VARIANCE> 1
 2.843354e-02
<GCONST> -1.722309e+00
<MIXTURE> 2 1.289656e-02
<MEAN> 0
<VARIANCE> 0
<GCONST> 0.000000e+00
<STREAM> 3
<NUMMIXES> 2
<MIXTURE> 1 9.836426e-01
<MEAN> 1
 -3.516423e-03
<VARIANCE> 1
 1.933086e-04
<GCONST> -6.713346e+00
<MIXTURE> 2 1.635726e-02
<MEAN> 0
<VARIANCE> 0
<GCONST> 0.000000e+00
<STREAM> 4
<NUMMIXES> 2
<MIXTURE> 1 9.833385e-01
<MEAN> 1
 -2.017397e-03
<VARIANCE> 1
 4.551124e-04
<GCONST> -5.857089e+00
<MIXTURE> 2 1.666127e-02
<MEAN> 0
<VARIANCE> 0
<GCONST> 0.000000e+00
<STREAM> 5
<MEAN> 15
 -4.639643e+00 -3.469488e+00 -3.247284e+00 -3.474317e+00 -3.226104e+00 5.594953e-01 1.101815e-01 1.257050e-01 8.194236e-02 5.523216e-02 -1.132184e-01 1.459470e-02 1.691933e-02 4.543842e-02 4.311728e-02
<VARIANCE> 15
 6.505472e+00 2.724161e+00 2.567808e+00 2.658961e+00 2.234631e+00 1.935251e+00 1.124461e+00 1.107164e+00 1.108497e+00 9.656024e-01 1.308499e+01 9.966917e+00 9.913445e+00 1.032528e+01 8.999593e+00
<GCONST> 4.581177e+01
<STATE> 6
<SWEIGHTS> 5
 1.000000e+00 0.000000e+00 0.000000e+00 0.000000e+00 0.000000e+00
<STREAM> 1
<MEAN> 180
 5.810412e+00 2.297889e+00 -7.251774e-02 8.846600e-01 1.206919e-01 4.822371e-01 -3.923406e-01 3.492140e-01 -6.011167e-02 1.297247e-01 -1.401685e-01 6.049800e-02 -2.795211e-01 1.761749e-01 -9.973606e-02 -4.789594e-02 -1.946634e-01 1.514800e-01 -2.021428e-01 7.821772e-02 1.196638e-02 1.395405e-02 -2.198476e-02 4.576543e-02 -2.543917e-02 6.817637e-02 -9.708862e-02 9.650429e-02 -5.586680e-02 4.613184e-02 -2.400235e-02 3.584627e-02 -4.574755e-02 4.199458e-02 -2.161657e-02 1.701271e-02 -2.640442e-02 3.211326e-02 -4.257088e-02 4.107305e-02 -3.959600e-02 3.680012e-02 -4.378945e-02 5.167858e-02 -4.567330e-02 3.323561e-02 -2.503691e-02 2.316603e-02 -2.024905e-02 1.476391e-02 -1.006530e-02 5.971097e-03 -5.351701e-03 5.473610e-03 -4.057612e-03 5.212422e-04 8.919259e-04 1.893391e-03 -4.693346e-03 3.969358e-03 -1.815930e-01 -7.808727e-02 4.051381e-02 2.201424e-02 1.193872e-02 5.855317e-03 3.120476e-02 -6.875424e-03 -5.218361e-03 4.474941e-03 -9.159902e-03 -1.084012e-02 8.159730e-03 -1.030593e-02 1.972291e-03 1.167982e-04 1.215958e-03 -1.708462e-02 1.448328e-02 -8.565822e-03 -1.027338e-02 9.986965e-03 -8.731503e-03 4.258590e-03 2.219416e-03 -2.872184e-03 7.242092e-03 -4.509140e-03 2.860677e-03 2.593991e-03 -1.072380e-03 6.866727e-04 5.413599e-04 1.582132e-04 -1.235716e-04 4.116539e-04 3.342445e-04 -1.820524e-03 2.605357e-03 -3.293590e-03 2.956127e-03 -2.372255e-03 1.760091e-03 -1.967479e-03 2.815147e-03 -2.908939e-03 2.180717e-03 -5.731940e-04 -3.738004e-04 1.088878e-03 -1.770578e-03 2.034568e-03 -2.035941e-03 1.802447e-03 -1.307720e-03 6.801898e-04 -5.449714e-04 1.335760e-03 -2.149068e-03 2.409370e-03 1.154943e-02 -2.331608e-02 -4.693502e-03 1.353719e-02 -2.307760e-02 -4.527069e-03 1.989895e-03 -5.304398e-03 5.732983e-04 5.503955e-03 1.825267e-03 7.564860e-04 8.009691e-03 -1.153854e-03 -9.647239e-03 3.778823e-03 -7.163781e-04 -5.544506e-03 7.416115e-03 -3.729534e-05 -4.616164e-03 8.839139e-04 5.271908e-04 2.247184e-03 -2.579922e-03 2.357060e-04 2.951342e-03 -2.948413e-03 3.347421e-03 7.760727e-04 -3.290374e-03 3.309838e-03 -1.629757e-03 -2.245192e-05 3.529123e-04 -7.234423e-04 3.203549e-04 6.305928e-04 -2.094130e-03 2.631615e-03 -2.133653e-03 -3.704914e-04 2.530194e-03 -3.368948e-03 2.117841e-03 2.621197e-04 -1.281062e-03 1.180106e-03 -7.782013e-04 5.781101e-04 -8.062573e-04 1.060852e-03 -3.846118e-04 -8.100191e-04 1.633645e-03 -1.627012e-03 1.328533e-03 -9.658308e-04 4.721562e-04 3.174225e-04
<VARIANCE> 180
 5.530945e-01 3.494507e-01 2.059389e-01 7.712065e-02 5.296617e-02 4.385532e-02 4.240990e-02 6.749713e-02 3.947631e-02 2.910046e-02 3.056722e-02 3.726266e-02 2.426698e-02 2.305723e-02 2.350681e-02 2.290771e-02 1.908932e-02 2.031178e-02 1.861682e-02 1.791842e-02 1.404627e-02 1.256428e-02 1.141349e-02 1.130882e-02 1.011015e-02 8.654712e-03 8.937441e-03 8.195047e-03 7.461686e-03 6.659828e-03 7.592062e-03 6.299132e-03 5.369503e-03 5.880737e-03 6.159472e-03 5.869009e-03 4.932233e-03 4.806811e-03 4.764941e-03 4.184133e-03 3.840511e-03 3.846201e-03 3.581760e-03 3.563402e-03 3.735184e-03 3.700495e-03 3.516606e-03 3.253946e-03 3.216953e-03 3.261811e-03 3.219798e-03 2.893891e-03 2.799673e-03 2.946574e-03 3.001013e-03 2.900966e-03 2.687205e-03 2.499708e-03 2.456410e-03 2.544142e-03 2.674454e-02 2.038543e-02 1.412384e-02 1.093521e-02 8.425777e-03 7.410462e-03 7.208777e-03 7.398230e-03 6.370584e-03 6.957735e-03 6.455122e-03 6.549729e-03 5.252570e-03 4.802535e-03 4.992101e-03 4.519905e-03 3.987852e-03 3.926228e-03 3.689568e-03 3.372390e-03 3.285743e-03 3.020835e-03 2.685047e-03 2.505152e-03 2.441679e-03 2.223020e-03 2.161646e-03 1.956120e-03 1.808838e-03 1.664510e-03 1.637713e-03 1.553152e-03 1.446311e-03 1.407365e-03 1.356894e-03 1.298580e-03 1.219637e-03 1.147574e-03 1.102194e-03 1.056484e-03 1.025100e-03 9.523567e-04 8.965386e-04 8.861655e-04 8.674107e-04 8.332169e-04 8.099742e-04 7.910606e-04 7.497569e-04 7.150159e-04 6.995614e-04 6.796661e-04 6.661011e-04 6.423756e-04 6.402498e-04 6.200366e-04 6.003632e-04 5.965970e-04 5.784181e-04 5.620603e-04 3.451057e-02 4.677047e-02 3.632813e-02 3.705749e-02 3.574104e-02 3.318635e-02 3.442213e-02 3.338307e-02 3.129021e-02 3.221235e-02 3.285357e-02 3.127641e-02 2.960458e-02 2.701542e-02 2.776704e-02 2.581352e-02 2.298761e-02 2.339946e-02 2.086408e-02 1.956380e-02 1.859706e-02 1.704378e-02 1.518009e-02 1.503119e-02 1.287276e-02 1.335776e-02 1.235149e-02 1.177200e-02 1.105635e-02 9.871746e-03 1.009658e-02 8.962806e-03 8.669888e-03 8.396991e-03 7.912588e-03 7.759192e-03 7.092270e-03 6.928567e-03 6.424016e-03 6.201467e-03 6.023732e-03 5.605265e-03 5.429395e-03 5.233722e-03 5.177123e-03 4.921036e-03 4.735324e-03 4.781290e-03 4.632460e-03 4.258712e-03 4.155000e-03 4.047156e-03 3.971803e-03 3.871028e-03 3.806945e-03 3.802436e-03 3.602547e-03 3.425734e-03 3.382619e-03 3.248390e-03
<GCONST> -5.864919e+02
<STREAM> 2
<NUMMIXES> 2
<MIXTURE> 1 9.213151e-01
<MEAN> 1
 5.305928e+00
<VARIANCE> 1
 3.028707e-02
<GCONST> -1.659158e+00
<MIXTURE> 2 7.868367e-02
<MEAN> 0
<VARIANCE> 0
<GCONST> 0.000000e+00
<STREAM> 3
<NUMMIXES> 2
<MIXTURE> 1 8.836520e-01
<MEAN> 1
 -5.796520e-03
<VARIANCE> 1
 8.897152e-04
<GCONST> -5.186732e+00
<MIXTURE> 2 1.163460e-01
<MEAN> 0
<VARIANCE> 0
<GCONST> 0.000000e+00
<STREAM> 4
<NUMMIXES> 2
<MIXTURE> 1 8.756174e-01
<MEAN> 1
 1.000459e-03
<VARIANCE> 1
 3.250623e-03
<GCONST> -3.891032e+00
<MIXTURE> 2 1.243805e-01
<MEAN> 0
<VARIANCE> 0
<GCONST> 0.000000e+00
<STREAM> 5
<MEAN> 15
 -3.075425e+00 -2.707973e+00 -2.622583e+00 -2.704834e+00 -2.619228e+00 3.274831e-01 2.047534e-01 1.731913e-01 2.165351e-01 1.694721e-01 -1.589277e-01 -1.591587e-02 -6.452423e-02 2.591985e-02 -4.936550e-04
<VARIANCE> 15
 4.482568e+00 2.327358e+00 2.165856e+00 2.306884e+00 2.174176e+00 1.192816e+00 8.320906e-01 8.325993e-01 8.301877e-01 7.888300e-01 8.539534e+00 7.506413e+00 7.466506e+00 7.664894e+00 7.496782e+00
<GCONST> 4.190646e+01
<TRANSP> 7
 0.000000e+00 1.000000e+00 0.000000e+00 0.000000e+00 0.000000e+00 0.000000e+00 0.000000e+00
 0.000000e+00 4.653533e-01 5.346467e-01 0.000000e+00 0.000000e+00 0.000000e+00 0.000000e+00
 0.000000e+00 0.000000e+00 5.265694e-01 4.734306e-01 0.000000e+00 0.000000e+00 0.000000e+00
 0.000000e+00 0.000000e+00 0.000000e+00 8.035013e-01 1.964986e-01 0.000000e+00 0.000000e+00
 0.000000e+00 0.000000e+00 0.000000e+00 0.000000e+00 6.597745e-01 3.402255e-01 0.000000e+00
 0.000000e+00 0.000000e+00 0.000000e+00 0.000000e+00 0.000000e+00 6.101398e-01 3.898602e-01
 0.000000e+00 0.000000e+00 0.000000e+00 0.000000e+00 0.000000e+00 0.000000e+00 0.000000e+00
<ENDHMM>
~h "G"
<BEGINHMM>
<NUMSTATES> 7
<STATE> 2
<SWEIGHTS> 5
 1.000000e+00 0.000000e+00 0.000000e+00 0.000000e+00 0.000000e+00
<STREAM> 1
<MEAN> 180
 5.859581e+00 2.839917e+00 2.605404e-01 6.483417e-01 -1.983257e-01 4.582640e-01 -4.308821e-01 2.995138e-01 -2.879490e-01 -1.234845e-02 -6.605492e-02 2.630968e-01 -2.159281e-01 1.818483e-01 5.658380e-02 -1.890795e-02 -1.917223e-01 7.890247e-02 -1.153336e-01 -1.357600e-02 2.742429e-02 -2.112557e-02 4.832736e-03 1.017138e-02 -8.190917e-03 6.722894e-02 -1.342855e-01 1.440343e-01 -9.643715e-02 8.232996e-02 -7.267477e-02 5.703057e-02 -3.075875e-02 1.185232e-02 -3.257345e-03 2.636617e-02 -5.135836e-02 6.330685e-02 -5.387268e-02 3.633592e-02 -2.303400e-02 1.601635e-02 -1.802989e-02 2.906678e-02 -3.457791e-02 2.950997e-02 -2.142601e-02 1.374984e-02 -5.011217e-03 -7.236190e-05 -2.184139e-03 7.488342e-03 -9.148117e-03 5.735569e-03 -2.839679e-03 -2.829070e-03 5.042161e-03 -3.257673e-03 -2.659427e-03 7.321220e-03 -4.594662e-02 1.463790e-03 2.098904e-02 -1.097747e-02 6.748436e-03 1.640262e-02 1.020610e-02 -2.559536e-04 -7.315030e-03 -4.902999e-03 8.147851e-03 2.474221e-05 -5.194276e-03 -2.679664e-03 7.108523e-03 -5.158479e-04 -7.016211e-04 -4.749664e-03 -1.204825e-03 8.112276e-04 -5.489090e-03 -4.241011e-04 3.073255e-03 -5.264684e-03 4.250037e-03 -8.431444e-05 -1.330221e-03 2.850955e-03 -1.405179e-03 8.164630e-04 -6.813246e-04 9.511432e-04 -6.987407e-04 8.110132e-04 -1.455833e-04 8.815546e-04 6.151879e-04 -2.511795e-03 2.107618e-03 -6.339194e-04 -2.359075e-05 -3.320930e-04 1.090130e-03 -9.010372e-04 3.635016e-04 9.975454e-06 -4.185256e-04 7.031350e-04 -7.911213e-04 8.692779e-04 -1.064592e-03 1.128841e-03 -6.473777e-04 -6.669747e-05 5.978495e-04 -1.312122e-03 1.527602e-03 -1.207994e-03 8.713887e-04 -7.172319e-04 -1.891186e-02 1.519145e-03 6.350025e-03 -3.072734e-03 3.989870e-03 1.149888e-04 6.215588e-03 2.404741e-03 -5.256166e-04 1.616942e-04 1.374778e-03 2.584213e-03 -1.013104e-04 -2.249298e-03 -2.604945e-04 4.032536e-03 6.167754e-05 -1.334430e-03 -9.207992e-04 4.905538e-05 7.317865e-04 -8.908962e-05 -1.902319e-03 1.323382e-03 1.082261e-03 -2.261383e-03 1.215296e-03 -5.629129e-04 9.729473e-04 -2.992193e-03 3.363591e-03 1.350891e-03 -4.311340e-03 2.259453e-03 -5.273387e-04 6.181474e-04 4.283426e-04 -1.419635e-03 1.332873e-03 -2.194667e-03 6.543009e-04 1.333006e-03 -3.985614e-04 -1.393588e-03 1.144493e-04 1.072557e-03 2.138857e-04 -1.461303e-03 -2.563322e-04 2.995649e-03 -3.141902e-03 9.481886e-04 8.550136e-04 -1.730753e-03 2.355345e-03 -1.952018e-03 2.344601e-04 1.733397e-03 -2.376445e-03 1.615890e-03
<VARIANCE> 180
 5.304546e-01 1.933273e-01 2.360892e-01 9.486442e-02 1.730432e-01 7.859048e-02 8.578326e-02 5.115638e-02 4.383229e-02 3.312850e-02 4.285592e-02 3.312502e-02 3.500213e-02 3.020709e-02 2.456296e-02 1.944730e-02 1.786284e-02 1.810099e-02 1.821975e-02 1.622040e-02 1.379267e-02 1.298120e-02 1.313503e-02 1.220285e-02 1.027607e-02 9.010389e-03 9.116761e-03 9.212911e-03 9.339243e-03 7.723436e-03 8.576170e-03 6.089668e-03 5.715016e-03 6.093317e-03 5.378311e-03 4.870297e-03 4.914481e-03 5.902136e-03 5.727072e-03 4.996848e-03 4.863664e-03 4.611060e-03 4.207088e-03 3.943586e-03 3.841271e-03 4.225049e-03 4.278811e-03 3.799494e-03 3.335607e-03 3.458951e-03 3.470393e-03 3.281760e-03 3.311388e-03 3.455659e-03 3.301324e-03 3.265857e-03 3.290821e-03 3.365886e-03 3.418736e-03 3.296529e-03 1.044178e-02 4.116029e-03 6.567462e-03 3.777206e-03 4.242181e-03 3.313973e-03 3.293846e-03 2.743181e-03 2.728811e-03 2.960213e-03 2.549604e-03 2.575391e-03 2.535327e-03 2.419061e-03 2.383597e-03 2.167751e-03 2.077683e-03 2.058542e-03 1.905325e-03 1.865073e-03 1.674635e-03 1.555254e-03 1.511132e-03 1.516784e-03 1.428353e-03 1.274252e-03 1.237075e-03 1.213322e-03 1.140009e-03 1.054446e-03 1.000204e-03 9.774738e-04 9.217083e-04 8.787906e-04 8.976392e-04 8.495046e-04 7.783161e-04 7.782670e-04 7.734827e-04 7.301642e-04 7.116580e-04 6.761195e-04 6.527311e-04 6.021134e-04 5.787186e-04 5.918579e-04 5.707542e-04 5.598711e-04 5.550000e-04 5.207374e-04 5.096187e-04 5.279026e-04 5.109314e-04 4.703868e-04 4.560726e-04 4.348194e-04 4.321606e-04 4.459295e-04 4.271613e-04 3.916177e-04 1.184771e-02 9.072997e-03 1.357824e-02 1.159719e-02 1.157179e-02 9.715310e-03 1.023323e-02 9.798169e-03 8.360730e-03 8.986929e-03 8.192444e-03 7.950203e-03 8.228537e-03 8.122887e-03 8.495728e-03 7.663798e-03 7.207511e-03 7.254126e-03 7.106886e-03 7.071112e-03 6.536444e-03 6.677791e-03 6.600774e-03 6.480156e-03 6.183397e-03 5.602029e-03 5.598248e-03 5.304403e-03 5.190481e-03 4.740115e-03 4.662659e-03 4.467885e-03 4.265222e-03 4.313912e-03 4.157980e-03 3.811547e-03 3.737864e-03 3.789918e-03 3.651968e-03 3.370028e-03 3.427335e-03 3.453651e-03 3.128167e-03 3.059407e-03 2.920350e-03 2.863810e-03 2.853630e-03 2.799653e-03 2.769689e-03 2.614090e-03 2.521688e-03 2.491419e-03 2.478930e-03 2.541144e-03 2.494920e-03 2.393404e-03 2.475765e-03 2.490861e-03 2.360146e-03 2.248552e-03
<GCONST> -6.612938e+02
<STREAM> 2
<NUMMIXES> 2
<MIXTURE> 1 9.471495e-01
<MEAN> 1
 5.189226e+00
<VARIANCE> 1
 3.126524e-02
<GCONST> -1.627371e+00
<MIXTURE> 2 5.284945e-02
<MEAN> 0
<VARIANCE> 0
<GCONST> 0.000000e+00
<STREAM> 3
<NUMMIXES> 2
<MIXTURE> 1 9.404818e-01
<MEAN> 1
 -5.059360e-03
<VARIANCE> 1
 2.408638e-04
<GCONST> -6.493402e+00
<MIXTURE> 2 5.951707e-02
<MEAN> 0
<VARIANCE> 0
<GCONST> 0.000000e+00
<STREAM> 4
<NUMMIXES> 2
<MIXTURE> 1 9.397018e-01
<MEAN> 1
 -1.364655e-03
<VARIANCE> 1
 1.046994e-03
<GCONST> -5.023955e+00
<MIXTURE> 2 6.029725e-02
<MEAN> 0
<VARIANCE> 0
<GCONST> 0.000000e+00
<STREAM> 5
<MEAN> 15
 -6.246138e+00 -3.768316e+00 -3.781913e+00 -3.304972e+00 -2.897496e+00 1.649288e-01 1.933914e-02 4.255021e-02 4.450434e-02 1.440436e-02 1.236425e-01 1.204343e-01 -2.563148e-02 3.074278e-02 -2.627103e-02
<VARIANCE> 15
 1.452497e+01 4.423034e+00 4.533128e+00 2.939753e+00 2.135001e+00 2.223371e+00 1.207440e+00 1.424785e+00 9.545184e-01 7.163409e-01 1.347173e+01 9.338042e+00 1.031616e+01 7.951217e+00 6.404202e+00
<GCONST> 4.713914e+01
<STATE> 3
<SWEIGHTS> 5
 1.000000e+00 0.000000e+00 0.000000e+00 0.000000e+00 0.000000e+00
<STREAM> 1
<MEAN> 180
 5.613460e+00 2.915235e+00 3.916530e-01 5.980841e-01 -2.189182e-01 4.825933e-01 -3.602572e-01 3.322382e-01 -3.341763e-01 -5.544561e-02 -8.153657e-02 2.730042e-01 -2.073582e-01 1.426926e-01 9.967988e-02 -3.774988e-04 -1.733020e-01 5.732155e-02 -1.133069e-01 -7.330198e-03 3.676941e-03 -1.407777e-02 1.564738e-02 -9.298579e-03 2.094117e-03 6.254489e-02 -1.286931e-01 1.327548e-01 -8.254990e-02 7.083809e-02 -6.922322e-02 6.302878e-02 -4.218987e-02 2.266368e-02 -1.370728e-02 3.442912e-02 -4.565556e-02 3.985221e-02 -2.446802e-02 1.515883e-02 -1.643425e-02 1.967217e-02 -2.193052e-02 2.907898e-02 -3.510153e-02 3.284881e-02 -2.427250e-02 1.524025e-02 -6.715622e-03 4.588665e-03 -7.703240e-03 1.015956e-02 -6.700215e-03 -1.779326e-03 7.743273e-03 -1.189685e-02 9.087943e-03 -1.185733e-03 -8.338346e-03 1.329089e-02 -6.283750e-02 -1.976503e-03 2.623657e-02 -1.051351e-02 8.579158e-03 1.169371e-02 1.784978e-02 6.971402e-03 -1.065777e-03 -3.415263e-03 1.051094e-03 -2.071209e-03 4.076376e-03 -2.112055e-03 -2.694956e-03 -1.200684e-04 2.161144e-03 -2.540315e-03 -8.979531e-04 2.399411e-05 -5.711648e-03 6.701631e-04 -1.100407e-03 -2.722404e-03 4.503718e-03 -2.811537e-03 1.952841e-03 -1.607904e-04 8.059597e-04 -1.131387e-03 6.115052e-04 1.241066e-03 -2.307970e-03 2.212720e-03 -9.156888e-04 2.620801e-04 1.531922e-03 -2.325477e-03 2.348493e-03 -2.095549e-03 2.434284e-04 2.089105e-03 -1.811925e-03 -4.844455e-04 1.214339e-03 -6.192340e-04 5.019610e-04 1.250494e-04 -1.825601e-03 2.759314e-03 -2.077590e-03 6.190364e-04 4.837012e-04 -1.190220e-03 1.166149e-03 -7.312737e-04 -4.602553e-07 1.758321e-04 2.239201e-04 -6.491693e-04 -1.413517e-02 -6.162767e-03 3.854517e-03 2.958351e-03 4.270501e-03 -2.548202e-04 4.239598e-03 -4.784029e-06 3.524690e-03 4.842420e-03 -3.090192e-03 -2.943765e-03 7.326811e-03 2.725890e-03 -8.391263e-03 -3.771614e-03 2.161111e-03 2.448540e-03 -2.123677e-05 7.066492e-04 -5.885955e-04 -1.020361e-04 -1.836415e-03 1.696946e-03 9.125094e-04 -1.116684e-03 -3.241433e-05 -1.841601e-03 1.582717e-03 3.936968e-04 -1.132582e-03 -5.180319e-04 1.818204e-03 -1.006961e-03 -8.519583e-04 -1.293236e-03 1.059338e-03 1.364254e-03 -4.921883e-04 1.790167e-04 -7.400246e-06 8.993369e-04 -2.270669e-03 1.429513e-03 8.955791e-04 -2.039648e-03 9.772754e-04 9.395275e-04 -1.356286e-03 -3.890994e-04 1.567168e-03 -1.487623e-03 6.387389e-04 6.966108e-04 -2.651264e-03 3.941128e-03 -2.980541e-03 6.603762e-05 2.223902e-03 -2.234033e-03
