~o
<STREAMINFO> 5 180 1 1 1 15
<MSDINFO> 5 0 1 1 1 0
<VECSIZE> 198<NULLD><USER><DIAGC>
~h "proto"
<BEGINHMM>
<NUMSTATES> 7
<STATE> 2
<SWEIGHTS> 5
 1.000000e+00 0.000000e+00 0.000000e+00 0.000000e+00 0.000000e+00
<STREAM> 1
<MEAN> 180
 2.912471e+00 1.255891e+00 4.840025e-02 3.486939e-01 9.977052e-02 6.426389e-02 2.356640e-02 5.053351e-02 -8.027367e-02 5.408817e-02 -5.780378e-02 4.334351e-02 -9.892020e-02 7.330250e-02 -9.901185e-02 4.987520e-02 2.243350e-03 -2.933491e-02 7.933687e-03 2.467344e-02 -5.337960e-02 2.140141e-02 -4.934764e-03 -1.213247e-02 7.424992e-03 1.548856e-02 -3.443632e-02 4.833964e-02 -2.304322e-02 3.524080e-02 -2.265022e-02 3.715248e-02 -2.618158e-02 2.716292e-02 -2.646979e-02 2.073420e-02 -2.958307e-02 2.310233e-02 -3.141076e-02 2.507504e-02 -3.222766e-02 3.644503e-02 -3.719250e-02 3.149899e-02 -2.878321e-02 2.438749e-02 -2.721564e-02 2.535507e-02 -2.108942e-02 2.135106e-02 -2.335751e-02 2.259029e-02 -1.717041e-02 1.342273e-02 -1.451443e-02 2.213588e-02 -2.801521e-02 3.083206e-02 -3.065278e-02 2.538984e-02 1.210863e-04 6.418848e-05 -5.493202e-05 -1.755953e-05 -1.776740e-05 2.012943e-05 1.837698e-05 2.966362e-05 -1.288949e-05 -4.991856e-05 -1.456526e-05 -1.837144e-05 -2.234889e-05 -1.408620e-05 5.668528e-06 -2.160543e-05 -1.520293e-05 1.848079e-06 -2.354531e-06 -1.361812e-05 -1.899155e-06 3.780509e-06 2.213928e-06 -5.512780e-06 1.348111e-05 -1.337782e-06 5.775890e-06 -5.077718e-06 4.374946e-06 -2.681418e-06 -4.591954e-07 -1.484075e-06 1.717813e-05 -2.521733e-06 -3.254017e-06 6.126566e-06 5.427619e-06 -2.302166e-07 2.172588e-07 -3.102447e-06 3.034822e-06 -8.956213e-06 8.422172e-06 -2.727552e-06 2.060801e-06 4.504074e-06 -5.291113e-06 -5.757476e-07 3.198545e-06 -5.197924e-07 3.694487e-06 -5.541221e-06 -3.147955e-07 2.712274e-06 1.635324e-06 -4.794060e-06 4.623887e-06 -4.286267e-06 4.044808e-06 -3.085612e-06 4.999938e-12 -3.785097e-12 -3.258722e-13 9.297731e-12 3.735118e-12 -2.780379e-12 3.070337e-13 5.624839e-12 -1.392320e-12 1.902234e-12 -7.982289e-13 3.038756e-13 -7.191717e-12 -2.732980e-12 5.835293e-12 -5.019474e-12 -5.393893e-12 -4.644450e-12 -1.300551e-12 3.293296e-12 -5.139060e-12 4.861019e-12 -8.870598e-13 -4.665914e-12 2.424395e-13 5.034374e-12 1.901050e-12 -2.156580e-12 2.177274e-12 -1.184022e-12 2.333710e-12 -7.262168e-13 1.490717e-12 4.216894e-12 1.873435e-12 -7.359446e-12 -8.951111e-13 2.988080e-13 5.445961e-13 1.712950e-13 -1.193818e-12 6.299773e-13 2.545211e-13 -2.156580e-12 3.033762e-12 -2.001677e-12 -8.289837e-13 2.117306e-12 -2.813971e-12 1.291260e-12 3.116442e-12 3.723927e-12 3.086656e-13 3.235660e-12 -2.407549e-12 1.024176e-12 -9.614221e-13 -3.407814e-13 3.959711e-12 5.548714e-13
<VARIANCE> 180
 5.832779e+00 1.664912e+00 2.501022e-01 1.938250e-01 1.244032e-01 6.718419e-02 4.893313e-02 6.785002e-02 4.999011e-02 4.632509e-02 2.872637e-02 2.459667e-02 2.867751e-02 3.284725e-02 2.576161e-02 3.236134e-02 2.096523e-02 1.735994e-02 1.619291e-02 1.493226e-02 1.761563e-02 1.382008e-02 1.104617e-02 1.073505e-02 9.933476e-03 9.386414e-03 9.966079e-03 8.831114e-03 8.161441e-03 7.422885e-03 7.512763e-03 6.797879e-03 6.890713e-03 6.357278e-03 5.317848e-03 5.066087e-03 5.565467e-03 5.405104e-03 4.647628e-03 3.702563e-03 3.717202e-03 3.839611e-03 3.651240e-03 3.307607e-03 3.080164e-03 2.931250e-03 2.887069e-03 2.649701e-03 2.758100e-03 2.794756e-03 2.633109e-03 2.581379e-03 2.338506e-03 2.055789e-03 2.101824e-03 2.211487e-03 2.323100e-03 2.306684e-03 2.187026e-03 2.055698e-03 4.764247e-02 2.424277e-02 1.187494e-02 7.722445e-03 6.202561e-03 5.146296e-03 4.327120e-03 4.061869e-03 4.121381e-03 3.993283e-03 3.534169e-03 3.443768e-03 3.312169e-03 3.294385e-03 3.201007e-03 3.189311e-03 2.993611e-03 2.761113e-03 2.694193e-03 2.549527e-03 2.527094e-03 2.421318e-03 2.281919e-03 2.173388e-03 2.067720e-03 1.959586e-03 1.893861e-03 1.805294e-03 1.718258e-03 1.633452e-03 1.569204e-03 1.462545e-03 1.384367e-03 1.317552e-03 1.244852e-03 1.190031e-03 1.126576e-03 1.073379e-03 1.003943e-03 9.421778e-04 9.071805e-04 8.770413e-04 8.447846e-04 8.065666e-04 7.655189e-04 7.258395e-04 6.980845e-04 6.662244e-04 6.574689e-04 6.377660e-04 6.167194e-04 5.906115e-04 5.650486e-04 5.376816e-04 5.263397e-04 5.184553e-04 5.109294e-04 4.947372e-04 4.762353e-04 4.531381e-04 4.666447e-02 2.433095e-02 2.239185e-02 1.593510e-02 1.412495e-02 1.333246e-02 1.257095e-02 1.222575e-02 1.227349e-02 1.198211e-02 1.141846e-02 1.124190e-02 1.105228e-02 1.088216e-02 1.068653e-02 1.042051e-02 1.000266e-02 9.495030e-03 9.207350e-03 8.831852e-03 8.646598e-03 8.313509e-03 7.923902e-03 7.613450e-03 7.190330e-03 6.892613e-03 6.633291e-03 6.351292e-03 6.106585e-03 5.808017e-03 5.512927e-03 5.232724e-03 4.931975e-03 4.728666e-03 4.510877e-03 4.309976e-03 4.108051e-03 3.894364e-03 3.663660e-03 3.464155e-03 3.333277e-03 3.240271e-03 3.116467e-03 2.983912e-03 2.832433e-03 2.690181e-03 2.569017e-03 2.488360e-03 2.443611e-03 2.374774e-03 2.305794e-03 2.205341e-03 2.093536e-03 2.013473e-03 1.979779e-03 1.954804e-03 1.918968e-03 1.866791e-03 1.796764e-03 1.707427e-03
<GCONST> -6.343445e+02
<STREAM> 2
<NUMMIXES> 2
<MIXTURE> 1 5.000000e-01
<MEAN> 1
 5.007988e+00
<VARIANCE> 1
 1.262191e-01
<GCONST> -2.318592e-01
<MIXTURE> 2 5.000000e-01
<MEAN> 0
<VARIANCE> 0
<GCONST> 0.000000e+00
<STREAM> 3
<NUMMIXES> 2
<MIXTURE> 1 5.000000e-01
<MEAN> 1
 -2.768782e-03
<VARIANCE> 1
 9.266037e-04
<GCONST> -5.146108e+00
<MIXTURE> 2 5.000000e-01
<MEAN> 0
<VARIANCE> 0
<GCONST> 0.000000e+00
<STREAM> 4
<NUMMIXES> 2
<MIXTURE> 1 5.000000e-01
<MEAN> 1
 -4.961206e-04
<VARIANCE> 1
 3.575549e-03
<GCONST> -3.795759e+00
<MIXTURE> 2 5.000000e-01
<MEAN> 0
<VARIANCE> 0
<GCONST> 0.000000e+00
<STREAM> 5
<MEAN> 15
 -1.965115e+00 -1.244225e+00 -1.234073e+00 -1.216230e+00 -1.238809e+00 3.435076e-11 3.132339e-11 2.288876e-11 -2.252447e-11 1.276167e-11 -8.611192e-12 1.353666e-11 4.012289e-11 1.408250e-11 -4.643087e-11
<VARIANCE> 15
 9.616116e+00 2.987993e+00 2.772469e+00 2.674342e+00 2.750392e+00 7.191374e-01 3.069239e-01 3.024516e-01 2.965401e-01 2.960900e-01 4.249543e+00 2.242621e+00 2.404440e+00 2.362903e+00 2.363094e+00
<GCONST> 3.365366e+01
<STATE> 3
<SWEIGHTS> 5
 1.000000e+00 0.000000e+00 0.000000e+00 0.000000e+00 0.000000e+00
<STREAM> 1
<MEAN> 180
 2.912471e+00 1.255891e+00 4.840025e-02 3.486939e-01 9.977052e-02 6.426389e-02 2.356640e-02 5.053351e-02 -8.027367e-02 5.408817e-02 -5.780378e-02 4.334351e-02 -9.892020e-02 7.330250e-02 -9.901185e-02 4.987520e-02 2.243350e-03 -2.933491e-02 7.933687e-03 2.467344e-02 -5.337960e-02 2.140141e-02 -4.934764e-03 -1.213247e-02 7.424992e-03 1.548856e-02 -3.443632e-02 4.833964e-02 -2.304322e-02 3.524080e-02 -2.265022e-02 3.715248e-02 -2.618158e-02 2.716292e-02 -2.646979e-02 2.073420e-02 -2.958307e-02 2.310233e-02 -3.141076e-02 2.507504e-02 -3.222766e-02 3.644503e-02 -3.719250e-02 3.149899e-02 -2.878321e-02 2.438749e-02 -2.721564e-02 2.535507e-02 -2.108942e-02 2.135106e-02 -2.335751e-02 2.259029e-02 -1.717041e-02 1.342273e-02 -1.451443e-02 2.213588e-02 -2.801521e-02 3.083206e-02 -3.065278e-02 2.538984e-02 1.210863e-04 6.418848e-05 -5.493202e-05 -1.755953e-05 -1.776740e-05 2.012943e-05 1.837698e-05 2.966362e-05 -1.288949e-05 -4.991856e-05 -1.456526e-05 -1.837144e-05 -2.234889e-05 -1.408620e-05 5.668528e-06 -2.160543e-05 -1.520293e-05 1.848079e-06 -2.354531e-06 -1.361812e-05 -1.899155e-06 3.780509e-06 2.213928e-06 -5.512780e-06 1.348111e-05 -1.337782e-06 5.775890e-06 -5.077718e-06 4.374946e-06 -2.681418e-06 -4.591954e-07 -1.484075e-06 1.717813e-05 -2.521733e-06 -3.254017e-06 6.126566e-06 5.427619e-06 -2.302166e-07 2.172588e-07 -3.102447e-06 3.034822e-06 -8.956213e-06 8.422172e-06 -2.727552e-06 2.060801e-06 4.504074e-06 -5.291113e-06 -5.757476e-07 3.198545e-06 -5.197924e-07 3.694487e-06 -5.541221e-06 -3.147955e-07 2.712274e-06 1.635324e-06 -4.794060e-06 4.623887e-06 -4.286267e-06 4.044808e-06 -3.085612e-06 4.999938e-12 -3.785097e-12 -3.258722e-13 9.297731e-12 3.735118e-12 -2.780379e-12 3.070337e-13 5.624839e-12 -1.392320e-12 1.902234e-12 -7.982289e-13 3.038756e-13 -7.191717e-12 -2.732980e-12 5.835293e-12 -5.019474e-12 -5.393893e-12 -4.644450e-12 -1.300551e-12 3.293296e-12 -5.139060e-12 4.861019e-12 -8.870598e-13 -4.665914e-12 2.424395e-13 5.034374e-12 1.901050e-12 -2.156580e-12 2.177274e-12 -1.184022e-12 2.333710e-12 -7.262168e-13 1.490717e-12 4.216894e-12 1.873435e-12 -7.359446e-12 -8.951111e-13 2.988080e-13 5.445961e-13 1.712950e-13 -1.193818e-12 6.299773e-13 2.545211e-13 -2.156580e-12 3.033762e-12 -2.001677e-12 -8.289837e-13 2.117306e-12 -2.813971e-12 1.291260e-12 3.116442e-12 3.723927e-12 3.086656e-13 3.235660e-12 -2.407549e-12 1.024176e-12 -9.614221e-13 -3.407814e-13 3.959711e-12 5.548714e-13
<VARIANCE> 180
 5.832779e+00 1.664912e+00 2.501022e-01 1.938250e-01 1.244032e-01 6.718419e-02 4.893313e-02 6.785002e-02 4.999011e-02 4.632509e-02 2.872637e-02 2.459667e-02 2.867751e-02 3.284725e-02 2.576161e-02 3.236134e-02 2.096523e-02 1.735994e-02 1.619291e-02 1.493226e-02 1.761563e-02 1.382008e-02 1.104617e-02 1.073505e-02 9.933476e-03 9.386414e-03 9.966079e-03 8.831114e-03 8.161441e-03 7.422885e-03 7.512763e-03 6.797879e-03 6.890713e-03 6.357278e-03 5.317848e-03 5.066087e-03 5.565467e-03 5.405104e-03 4.647628e-03 3.702563e-03 3.717202e-03 3.839611e-03 3.651240e-03 3.307607e-03 3.080164e-03 2.931250e-03 2.887069e-03 2.649701e-03 2.758100e-03 2.794756e-03 2.633109e-03 2.581379e-03 2.338506e-03 2.055789e-03 2.101824e-03 2.211487e-03 2.323100e-03 2.306684e-03 2.187026e-03 2.055698e-03 4.764247e-02 2.424277e-02 1.187494e-02 7.722445e-03 6.202561e-03 5.146296e-03 4.327120e-03 4.061869e-03 4.121381e-03 3.993283e-03 3.534169e-03 3.443768e-03 3.312169e-03 3.294385e-03 3.201007e-03 3.189311e-03 2.993611e-03 2.761113e-03 2.694193e-03 2.549527e-03 2.527094e-03 2.421318e-03 2.281919e-03 2.173388e-03 2.067720e-03 1.959586e-03 1.893861e-03 1.805294e-03 1.718258e-03 1.633452e-03 1.569204e-03 1.462545e-03 1.384367e-03 1.317552e-03 1.244852e-03 1.190031e-03 1.126576e-03 1.073379e-03 1.003943e-03 9.421778e-04 9.071805e-04 8.770413e-04 8.447846e-04 8.065666e-04 7.655189e-04 7.258395e-04 6.980845e-04 6.662244e-04 6.574689e-04 6.377660e-04 6.167194e-04 5.906115e-04 5.650486e-04 5.376816e-04 5.263397e-04 5.184553e-04 5.109294e-04 4.947372e-04 4.762353e-04 4.531381e-04 4.666447e-02 2.433095e-02 2.239185e-02 1.593510e-02 1.412495e-02 1.333246e-02 1.257095e-02 1.222575e-02 1.227349e-02 1.198211e-02 1.141846e-02 1.124190e-02 1.105228e-02 1.088216e-02 1.068653e-02 1.042051e-02 1.000266e-02 9.495030e-03 9.207350e-03 8.831852e-03 8.646598e-03 8.313509e-03 7.923902e-03 7.613450e-03 7.190330e-03 6.892613e-03 6.633291e-03 6.351292e-03 6.106585e-03 5.808017e-03 5.512927e-03 5.232724e-03 4.931975e-03 4.728666e-03 4.510877e-03 4.309976e-03 4.108051e-03 3.894364e-03 3.663660e-03 3.464155e-03 3.333277e-03 3.240271e-03 3.116467e-03 2.983912e-03 2.832433e-03 2.690181e-03 2.569017e-03 2.488360e-03 2.443611e-03 2.374774e-03 2.305794e-03 2.205341e-03 2.093536e-03 2.013473e-03 1.979779e-03 1.954804e-03 1.918968e-03 1.866791e-03 1.796764e-03 1.707427e-03
<GCONST> -6.343445e+02
<STREAM> 2
<NUMMIXES> 2
<MIXTURE> 1 5.000000e-01
<MEAN> 1
 5.007988e+00
<VARIANCE> 1
 1.262191e-01
<GCONST> -2.318592e-01
<MIXTURE> 2 5.000000e-01
<MEAN> 0
<VARIANCE> 0
<GCONST> 0.000000e+00
<STREAM> 3
<NUMMIXES> 2
<MIXTURE> 1 5.000000e-01
<MEAN> 1
 -2.768782e-03
<VARIANCE> 1
 9.266037e-04
<GCONST> -5.146108e+00
<MIXTURE> 2 5.000000e-01
<MEAN> 0
<VARIANCE> 0
<GCONST> 0.000000e+00
<STREAM> 4
<NUMMIXES> 2
<MIXTURE> 1 5.000000e-01
<MEAN> 1
 -4.961206e-04
<VARIANCE> 1
 3.575549e-03
<GCONST> -3.795759e+00
<MIXTURE> 2 5.000000e-01
<MEAN> 0
<VARIANCE> 0
<GCONST> 0.000000e+00
<STREAM> 5
<MEAN> 15
 -1.965115e+00 -1.244225e+00 -1.234073e+00 -1.216230e+00 -1.238809e+00 3.435076e-11 3.132339e-11 2.288876e-11 -2.252447e-11 1.276167e-11 -8.611192e-12 1.353666e-11 4.012289e-11 1.408250e-11 -4.643087e-11
<VARIANCE> 15
 9.616116e+00 2.987993e+00 2.772469e+00 2.674342e+00 2.750392e+00 7.191374e-01 3.069239e-01 3.024516e-01 2.965401e-01 2.960900e-01 4.249543e+00 2.242621e+00 2.404440e+00 2.362903e+00 2.363094e+00
<GCONST> 3.365366e+01
<STATE> 4
<SWEIGHTS> 5
 1.000000e+00 0.000000e+00 0.000000e+00 0.000000e+00 0.000000e+00
<STREAM> 1
<MEAN> 180
 2.912471e+00 1.255891e+00 4.840025e-02 3.486939e-01 9.977052e-02 6.426389e-02 2.356640e-02 5.053351e-02 -8.027367e-02 5.408817e-02 -5.780378e-02 4.334351e-02 -9.892020e-02 7.330250e-02 -9.901185e-02 4.987520e-02 2.243350e-03 -2.933491e-02 7.933687e-03 2.467344e-02 -5.337960e-02 2.140141e-02 -4.934764e-03 -1.213247e-02 7.424992e-03 1.548856e-02 -3.443632e-02 4.833964e-02 -2.304322e-02 3.524080e-02 -2.265022e-02 3.715248e-02 -2.618158e-02 2.716292e-02 -2.646979e-02 2.073420e-02 -2.958307e-02 2.310233e-02 -3.141076e-02 2.507504e-02 -3.222766e-02 3.644503e-02 -3.719250e-02 3.149899e-02 -2.878321e-02 2.438749e-02 -2.721564e-02 2.535507e-02 -2.108942e-02 2.135106e-02 -2.335751e-02 2.259029e-02 -1.717041e-02 1.342273e-02 -1.451443e-02 2.213588e-02 -2.801521e-02 3.083206e-02 -3.065278e-02 2.538984e-02 1.210863e-04 6.418848e-05 -5.493202e-05 -1.755953e-05 -1.776740e-05 2.012943e-05 1.837698e-05 2.966362e-05 -1.288949e-05 -4.991856e-05 -1.456526e-05 -1.837144e-05 -2.234889e-05 -1.408620e-05 5.668528e-06 -2.160543e-05 -1.520293e-05 1.848079e-06 -2.354531e-06 -1.361812e-05 -1.899155e-06 3.780509e-06 2.213928e-06 -5.512780e-06 1.348111e-05 -1.337782e-06 5.775890e-06 -5.077718e-06 4.374946e-06 -2.681418e-06 -4.591954e-07 -1.484075e-06 1.717813e-05 -2.521733e-06 -3.254017e-06 6.126566e-06 5.427619e-06 -2.302166e-07 2.172588e-07 -3.102447e-06 3.034822e-06 -8.956213e-06 8.422172e-06 -2.727552e-06 2.060801e-06 4.504074e-06 -5.291113e-06 -5.757476e-07 3.198545e-06 -5.197924e-07 3.694487e-06 -5.541221e-06 -3.147955e-07 2.712274e-06 1.635324e-06 -4.794060e-06 4.623887e-06 -4.286267e-06 4.044808e-06 -3.085612e-06 4.999938e-12 -3.785097e-12 -3.258722e-13 9.297731e-12 3.735118e-12 -2.780379e-12 3.070337e-13 5.624839e-12 -1.392320e-12 1.902234e-12 -7.982289e-13 3.038756e-13 -7.191717e-12 -2.732980e-12 5.835293e-12 -5.019474e-12 -5.393893e-12 -4.644450e-12 -1.300551e-12 3.293296e-12 -5.139060e-12 4.861019e-12 -8.870598e-13 -4.665914e-12 2.424395e-13 5.034374e-12 1.901050e-12 -2.156580e-12 2.177274e-12 -1.184022e-12 2.333710e-12 -7.262168e-13 1.490717e-12 4.216894e-12 1.873435e-12 -7.359446e-12 -8.951111e-13 2.988080e-13 5.445961e-13 1.712950e-13 -1.193818e-12 6.299773e-13 2.545211e-13 -2.156580e-12 3.033762e-12 -2.001677e-12 -8.289837e-13 2.117306e-12 -2.813971e-12 1.291260e-12 3.116442e-12 3.723927e-12 3.086656e-13 3.235660e-12 -2.407549e-12 1.024176e-12 -9.614221e-13 -3.407814e-13 3.959711e-12 5.548714e-13
<VARIANCE> 180
 5.832779e+00 1.664912e+00 2.501022e-01 1.938250e-01 1.244032e-01 6.718419e-02 4.893313e-02 6.785002e-02 4.999011e-02 4.632509e-02 2.872637e-02 2.459667e-02 2.867751e-02 3.284725e-02 2.576161e-02 3.236134e-02 2.096523e-02 1.735994e-02 1.619291e-02 1.493226e-02 1.761563e-02 1.382008e-02 1.104617e-02 1.073505e-02 9.933476e-03 9.386414e-03 9.966079e-03 8.831114e-03 8.161441e-03 7.422885e-03 7.512763e-03 6.797879e-03 6.890713e-03 6.357278e-03 5.317848e-03 5.066087e-03 5.565467e-03 5.405104e-03 4.647628e-03 3.702563e-03 3.717202e-03 3.839611e-03 3.651240e-03 3.307607e-03 3.080164e-03 2.931250e-03 2.887069e-03 2.649701e-03 2.758100e-03 2.794756e-03 2.633109e-03 2.581379e-03 2.338506e-03 2.055789e-03 2.101824e-03 2.211487e-03 2.323100e-03 2.306684e-03 2.187026e-03 2.055698e-03 4.764247e-02 2.424277e-02 1.187494e-02 7.722445e-03 6.202561e-03 5.146296e-03 4.327120e-03 4.061869e-03 4.121381e-03 3.993283e-03 3.534169e-03 3.443768e-03 3.312169e-03 3.294385e-03 3.201007e-03 3.189311e-03 2.993611e-03 2.761113e-03 2.694193e-03 2.549527e-03 2.527094e-03 2.421318e-03 2.281919e-03 2.173388e-03 2.067720e-03 1.959586e-03 1.893861e-03 1.805294e-03 1.718258e-03 1.633452e-03 1.569204e-03 1.462545e-03 1.384367e-03 1.317552e-03 1.244852e-03 1.190031e-03 1.126576e-03 1.073379e-03 1.003943e-03 9.421778e-04 9.071805e-04 8.770413e-04 8.447846e-04 8.065666e-04 7.655189e-04 7.258395e-04 6.980845e-04 6.662244e-04 6.574689e-04 6.377660e-04 6.167194e-04 5.906115e-04 5.650486e-04 5.376816e-04 5.263397e-04 5.184553e-04 5.109294e-04 4.947372e-04 4.762353e-04 4.531381e-04 4.666447e-02 2.433095e-02 2.239185e-02 1.593510e-02 1.412495e-02 1.333246e-02 1.257095e-02 1.222575e-02 1.227349e-02 1.198211e-02 1.141846e-02 1.124190e-02 1.105228e-02 1.088216e-02 1.068653e-02 1.042051e-02 1.000266e-02 9.495030e-03 9.207350e-03 8.831852e-03 8.646598e-03 8.313509e-03 7.923902e-03 7.613450e-03 7.190330e-03 6.892613e-03 6.633291e-03 6.351292e-03 6.106585e-03 5.808017e-03 5.512927e-03 5.232724e-03 4.931975e-03 4.728666e-03 4.510877e-03 4.309976e-03 4.108051e-03 3.894364e-03 3.663660e-03 3.464155e-03 3.333277e-03 3.240271e-03 3.116467e-03 2.983912e-03 2.832433e-03 2.690181e-03 2.569017e-03 2.488360e-03 2.443611e-03 2.374774e-03 2.305794e-03 2.205341e-03 2.093536e-03 2.013473e-03 1.979779e-03 1.954804e-03 1.918968e-03 1.866791e-03 1.796764e-03 1.707427e-03
<GCONST> -6.343445e+02
<STREAM> 2
<NUMMIXES> 2
<MIXTURE> 1 5.000000e-01
<MEAN> 1
 5.007988e+00
<VARIANCE> 1
 1.262191e-01
<GCONST> -2.318592e-01
<MIXTURE> 2 5.000000e-01
<MEAN> 0
<VARIANCE> 0
<GCONST> 0.000000e+00
<STREAM> 3
<NUMMIXES> 2
<MIXTURE> 1 5.000000e-01
<MEAN> 1
 -2.768782e-03
<VARIANCE> 1
 9.266037e-04
<GCONST> -5.146108e+00
<MIXTURE> 2 5.000000e-01
<MEAN> 0
<VARIANCE> 0
<GCONST> 0.000000e+00
<STREAM> 4
<NUMMIXES> 2
<MIXTURE> 1 5.000000e-01
<MEAN> 1
 -4.961206e-04
<VARIANCE> 1
 3.575549e-03
<GCONST> -3.795759e+00
<MIXTURE> 2 5.000000e-01
<MEAN> 0
<VARIANCE> 0
<GCONST> 0.000000e+00
<STREAM> 5
<MEAN> 15
 -1.965115e+00 -1.244225e+00 -1.234073e+00 -1.216230e+00 -1.238809e+00 3.435076e-11 3.132339e-11 2.288876e-11 -2.252447e-11 1.276167e-11 -8.611192e-12 1.353666e-11 4.012289e-11 1.408250e-11 -4.643087e-11
<VARIANCE> 15
 9.616116e+00 2.987993e+00 2.772469e+00 2.674342e+00 2.750392e+00 7.191374e-01 3.069239e-01 3.024516e-01 2.965401e-01 2.960900e-01 4.249543e+00 2.242621e+00 2.404440e+00 2.362903e+00 2.363094e+00
<GCONST> 3.365366e+01
<STATE> 5
<SWEIGHTS> 5
 1.000000e+00 0.000000e+00 0.000000e+00 0.000000e+00 0.000000e+00
<STREAM> 1
<MEAN> 180
 2.912471e+00 1.255891e+00 4.840025e-02 3.486939e-01 9.977052e-02 6.426389e-02 2.356640e-02 5.053351e-02 -8.027367e-02 5.408817e-02 -5.780378e-02 4.334351e-02 -9.892020e-02 7.330250e-02 -9.901185e-02 4.987520e-02 2.243350e-03 -2.933491e-02 7.933687e-03 2.467344e-02 -5.337960e-02 2.140141e-02 -4.934764e-03 -1.213247e-02 7.424992e-03 1.548856e-02 -3.443632e-02 4.833964e-02 -2.304322e-02 3.524080e-02 -2.265022e-02 3.715248e-02 -2.618158e-02 2.716292e-02 -2.646979e-02 2.073420e-02 -2.958307e-02 2.310233e-02 -3.141076e-02 2.507504e-02 -3.222766e-02 3.644503e-02 -3.719250e-02 3.149899e-02 -2.878321e-02 2.438749e-02 -2.721564e-02 2.535507e-02 -2.108942e-02 2.135106e-02 -2.335751e-02 2.259029e-02 -1.717041e-02 1.342273e-02 -1.451443e-02 2.213588e-02 -2.801521e-02 3.083206e-02 -3.065278e-02 2.538984e-02 1.210863e-04 6.418848e-05 -5.493202e-05 -1.755953e-05 -1.776740e-05 2.012943e-05 1.837698e-05 2.966362e-05 -1.288949e-05 -4.991856e-05 -1.456526e-05 -1.837144e-05 -2.234889e-05 -1.408620e-05 5.668528e-06 -2.160543e-05 -1.520293e-05 1.848079e-06 -2.354531e-06 -1.361812e-05 -1.899155e-06 3.780509e-06 2.213928e-06 -5.512780e-06 1.348111e-05 -1.337782e-06 5.775890e-06 -5.077718e-06 4.374946e-06 -2.681418e-06 -4.591954e-07 -1.484075e-06 1.717813e-05 -2.521733e-06 -3.254017e-06 6.126566e-06 5.427619e-06 -2.302166e-07 2.172588e-07 -3.102447e-06 3.034822e-06 -8.956213e-06 8.422172e-06 -2.727552e-06 2.060801e-06 4.504074e-06 -5.291113e-06 -5.757476e-07 3.198545e-06 -5.197924e-07 3.694487e-06 -5.541221e-06 -3.147955e-07 2.712274e-06 1.635324e-06 -4.794060e-06 4.623887e-06 -4.286267e-06 4.044808e-06 -3.085612e-06 4.999938e-12 -3.785097e-12 -3.258722e-13 9.297731e-12 3.735118e-12 -2.780379e-12 3.070337e-13 5.624839e-12 -1.392320e-12 1.902234e-12 -7.982289e-13 3.038756e-13 -7.191717e-12 -2.732980e-12 5.835293e-12 -5.019474e-12 -5.393893e-12 -4.644450e-12 -1.300551e-12 3.293296e-12 -5.139060e-12 4.861019e-12 -8.870598e-13 -4.665914e-12 2.424395e-13 5.034374e-12 1.901050e-12 -2.156580e-12 2.177274e-12 -1.184022e-12 2.333710e-12 -7.262168e-13 1.490717e-12 4.216894e-12 1.873435e-12 -7.359446e-12 -8.951111e-13 2.988080e-13 5.445961e-13 1.712950e-13 -1.193818e-12 6.299773e-13 2.545211e-13 -2.156580e-12 3.033762e-12 -2.001677e-12 -8.289837e-13 2.117306e-12 -2.813971e-12 1.291260e-12 3.116442e-12 3.723927e-12 3.086656e-13 3.235660e-12 -2.407549e-12 1.024176e-12 -9.614221e-13 -3.407814e-13 3.959711e-12 5.548714e-13
<VARIANCE> 180
 5.832779e+00 1.664912e+00 2.501022e-01 1.938250e-01 1.244032e-01 6.718419e-02 4.893313e-02 6.785002e-02 4.999011e-02 4.632509e-02 2.872637e-02 2.459667e-02 2.867751e-02 3.284725e-02 2.576161e-02 3.236134e-02 2.096523e-02 1.735994e-02 1.619291e-02 1.493226e-02 1.761563e-02 1.382008e-02 1.104617e-02 1.073505e-02 9.933476e-03 9.386414e-03 9.966079e-03 8.831114e-03 8.161441e-03 7.422885e-03 7.512763e-03 6.797879e-03 6.890713e-03 6.357278e-03 5.317848e-03 5.066087e-03 5.565467e-03 5.405104e-03 4.647628e-03 3.702563e-03 3.717202e-03 3.839611e-03 3.651240e-03 3.307607e-03 3.080164e-03 2.931250e-03 2.887069e-03 2.649701e-03 2.758100e-03 2.794756e-03 2.633109e-03 2.581379e-03 2.338506e-03 2.055789e-03 2.101824e-03 2.211487e-03 2.323100e-03 2.306684e-03 2.187026e-03 2.055698e-03 4.764247e-02 2.424277e-02 1.187494e-02 7.722445e-03 6.202561e-03 5.146296e-03 4.327120e-03 4.061869e-03 4.121381e-03 3.993283e-03 3.534169e-03 3.443768e-03 3.312169e-03 3.294385e-03 3.201007e-03 3.189311e-03 2.993611e-03 2.761113e-03 2.694193e-03 2.549527e-03 2.527094e-03 2.421318e-03 2.281919e-03 2.173388e-03 2.067720e-03 1.959586e-03 1.893861e-03 1.805294e-03 1.718258e-03 1.633452e-03 1.569204e-03 1.462545e-03 1.384367e-03 1.317552e-03 1.244852e-03 1.190031e-03 1.126576e-03 1.073379e-03 1.003943e-03 9.421778e-04 9.071805e-04 8.770413e-04 8.447846e-04 8.065666e-04 7.655189e-04 7.258395e-04 6.980845e-04 6.662244e-04 6.574689e-04 6.377660e-04 6.167194e-04 5.906115e-04 5.650486e-04 5.376816e-04 5.263397e-04 5.184553e-04 5.109294e-04 4.947372e-04 4.762353e-04 4.531381e-04 4.666447e-02 2.433095e-02 2.239185e-02 1.593510e-02 1.412495e-02 1.333246e-02 1.257095e-02 1.222575e-02 1.227349e-02 1.198211e-02 1.141846e-02 1.124190e-02 1.105228e-02 1.088216e-02 1.068653e-02 1.042051e-02 1.000266e-02 9.495030e-03 9.207350e-03 8.831852e-03 8.646598e-03 8.313509e-03 7.923902e-03 7.613450e-03 7.190330e-03 6.892613e-03 6.633291e-03 6.351292e-03 6.106585e-03 5.808017e-03 5.512927e-03 5.232724e-03 4.931975e-03 4.728666e-03 4.510877e-03 4.309976e-03 4.108051e-03 3.894364e-03 3.663660e-03 3.464155e-03 3.333277e-03 3.240271e-03 3.116467e-03 2.983912e-03 2.832433e-03 2.690181e-03 2.569017e-03 2.488360e-03 2.443611e-03 2.374774e-03 2.305794e-03 2.205341e-03 2.093536e-03 2.013473e-03 1.979779e-03 1.954804e-03 1.918968e-03 1.866791e-03 1.796764e-03 1.707427e-03
<GCONST> -6.343445e+02
<STREAM> 2
<NUMMIXES> 2
<MIXTURE> 1 5.000000e-01
<MEAN> 1
 5.007988e+00
<VARIANCE> 1
 1.262191e-01
<GCONST> -2.318592e-01
<MIXTURE> 2 5.000000e-01
<MEAN> 0
<VARIANCE> 0
<GCONST> 0.000000e+00
<STREAM> 3
<NUMMIXES> 2
<MIXTURE> 1 5.000000e-01
<MEAN> 1
 -2.768782e-03
<VARIANCE> 1
 9.266037e-04
<GCONST> -5.146108e+00
<MIXTURE> 2 5.000000e-01
<MEAN> 0
<VARIANCE> 0
<GCONST> 0.000000e+00
<STREAM> 4
<NUMMIXES> 2
<MIXTURE> 1 5.000000e-01
<MEAN> 1
 -4.961206e-04
<VARIANCE> 1
 3.575549e-03
<GCONST> -3.795759e+00
<MIXTURE> 2 5.000000e-01
<MEAN> 0
<VARIANCE> 0
<GCONST> 0.000000e+00
<STREAM> 5
<MEAN> 15
 -1.965115e+00 -1.244225e+00 -1.234073e+00 -1.216230e+00 -1.238809e+00 3.435076e-11 3.132339e-11 2.288876e-11 -2.252447e-11 1.276167e-11 -8.611192e-12 1.353666e-11 4.012289e-11 1.408250e-11 -4.643087e-11
<VARIANCE> 15
 9.616116e+00 2.987993e+00 2.772469e+00 2.674342e+00 2.750392e+00 7.191374e-01 3.069239e-01 3.024516e-01 2.965401e-01 2.960900e-01 4.249543e+00 2.242621e+00 2.404440e+00 2.362903e+00 2.363094e+00
<GCONST> 3.365366e+01
<STATE> 6
<SWEIGHTS> 5
 1.000000e+00 0.000000e+00 0.000000e+00 0.000000e+00 0.000000e+00
<STREAM> 1
<MEAN> 180
 2.912471e+00 1.255891e+00 4.840025e-02 3.486939e-01 9.977052e-02 6.426389e-02 2.356640e-02 5.053351e-02 -8.027367e-02 5.408817e-02 -5.780378e-02 4.334351e-02 -9.892020e-02 7.330250e-02 -9.901185e-02 4.987520e-02 2.243350e-03 -2.933491e-02 7.933687e-03 2.467344e-02 -5.337960e-02 2.140141e-02 -4.934764e-03 -1.213247e-02 7.424992e-03 1.548856e-02 -3.443632e-02 4.833964e-02 -2.304322e-02 3.524080e-02 -2.265022e-02 3.715248e-02 -2.618158e-02 2.716292e-02 -2.646979e-02 2.073420e-02 -2.958307e-02 2.310233e-02 -3.141076e-02 2.507504e-02 -3.222766e-02 3.644503e-02 -3.719250e-02 3.149899e-02 -2.878321e-02 2.438749e-02 -2.721564e-02 2.535507e-02 -2.108942e-02 2.135106e-02 -2.335751e-02 2.259029e-02 -1.717041e-02 1.342273e-02 -1.451443e-02 2.213588e-02 -2.801521e-02 3.083206e-02 -3.065278e-02 2.538984e-02 1.210863e-04 6.418848e-05 -5.493202e-05 -1.755953e-05 -1.776740e-05 2.012943e-05 1.837698e-05 2.966362e-05 -1.288949e-05 -4.991856e-05 -1.456526e-05 -1.837144e-05 -2.234889e-05 -1.408620e-05 5.668528e-06 -2.160543e-05 -1.520293e-05 1.848079e-06 -2.354531e-06 -1.361812e-05 -1.899155e-06 3.780509e-06 2.213928e-06 -5.512780e-06 1.348111e-05 -1.337782e-06 5.775890e-06 -5.077718e-06 4.374946e-06 -2.681418e-06 -4.591954e-07 -1.484075e-06 1.717813e-05 -2.521733e-06 -3.254017e-06 6.126566e-06 5.427619e-06 -2.302166e-07 2.172588e-07 -3.102447e-06 3.034822e-06 -8.956213e-06 8.422172e-06 -2.727552e-06 2.060801e-06 4.504074e-06 -5.291113e-06 -5.757476e-07 3.198545e-06 -5.197924e-07 3.694487e-06 -5.541221e-06 -3.147955e-07 2.712274e-06 1.635324e-06 -4.794060e-06 4.623887e-06 -4.286267e-06 4.044808e-06 -3.085612e-06 4.999938e-12 -3.785097e-12 -3.258722e-13 9.297731e-12 3.735118e-12 -2.780379e-12 3.070337e-13 5.624839e-12 -1.392320e-12 1.902234e-12 -7.982289e-13 3.038756e-13 -7.191717e-12 -2.732980e-12 5.835293e-12 -5.019474e-12 -5.393893e-12 -4.644450e-12 -1.300551e-12 3.293296e-12 -5.139060e-12 4.861019e-12 -8.870598e-13 -4.665914e-12 2.424395e-13 5.034374e-12 1.901050e-12 -2.156580e-12 2.177274e-12 -1.184022e-12 2.333710e-12 -7.262168e-13 1.490717e-12 4.216894e-12 1.873435e-12 -7.359446e-12 -8.951111e-13 2.988080e-13 5.445961e-13 1.712950e-13 -1.193818e-12 6.299773e-13 2.545211e-13 -2.156580e-12 3.033762e-12 -2.001677e-12 -8.289837e-13 2.117306e-12 -2.813971e-12 1.291260e-12 3.116442e-12 3.723927e-12 3.086656e-13 3.235660e-12 -2.407549e-12 1.024176e-12 -9.614221e-13 -3.407814e-13 3.959711e-12 5.548714e-13
<VARIANCE> 180
 5.832779e+00 1.664912e+00 2.501022e-01 1.938250e-01 1.244032e-01 6.718419e-02 4.893313e-02 6.785002e-02 4.999011e-02 4.632509e-02 2.872637e-02 2.459667e-02 2.867751e-02 3.284725e-02 2.576161e-02 3.236134e-02 2.096523e-02 1.735994e-02 1.619291e-02 1.493226e-02 1.761563e-02 1.382008e-02 1.104617e-02 1.073505e-02 9.933476e-03 9.386414e-03 9.966079e-03 8.831114e-03 8.161441e-03 7.422885e-03 7.512763e-03 6.797879e-03 6.890713e-03 6.357278e-03 5.317848e-03 5.066087e-03 5.565467e-03 5.405104e-03 4.647628e-03 3.702563e-03 3.717202e-03 3.839611e-03 3.651240e-03 3.307607e-03 3.080164e-03 2.931250e-03 2.887069e-03 2.649701e-03 2.758100e-03 2.794756e-03 2.633109e-03 2.581379e-03 2.338506e-03 2.055789e-03 2.101824e-03 2.211487e-03 2.323100e-03 2.306684e-03 2.187026e-03 2.055698e-03 4.764247e-02 2.424277e-02 1.187494e-02 7.722445e-03 6.202561e-03 5.146296e-03 4.327120e-03 4.061869e-03 4.121381e-03 3.993283e-03 3.534169e-03 3.443768e-03 3.312169e-03 3.294385e-03 3.201007e-03 3.189311e-03 2.993611e-03 2.761113e-03 2.694193e-03 2.549527e-03 2.527094e-03 2.421318e-03 2.281919e-03 2.173388e-03 2.067720e-03 1.959586e-03 1.893861e-03 1.805294e-03 1.718258e-03 1.633452e-03 1.569204e-03 1.462545e-03 1.384367e-03 1.317552e-03 1.244852e-03 1.190031e-03 1.126576e-03 1.073379e-03 1.003943e-03 9.421778e-04 9.071805e-04 8.770413e-04 8.447846e-04 8.065666e-04 7.655189e-04 7.258395e-04 6.980845e-04 6.662244e-04 6.574689e-04 6.377660e-04 6.167194e-04 5.906115e-04 5.650486e-04 5.376816e-04 5.263397e-04 5.184553e-04 5.109294e-04 4.947372e-04 4.762353e-04 4.531381e-04 4.666447e-02 2.433095e-02 2.239185e-02 1.593510e-02 1.412495e-02 1.333246e-02 1.257095e-02 1.222575e-02 1.227349e-02 1.198211e-02 1.141846e-02 1.124190e-02 1.105228e-02 1.088216e-02 1.068653e-02 1.042051e-02 1.000266e-02 9.495030e-03 9.207350e-03 8.831852e-03 8.646598e-03 8.313509e-03 7.923902e-03 7.613450e-03 7.190330e-03 6.892613e-03 6.633291e-03 6.351292e-03 6.106585e-03 5.808017e-03 5.512927e-03 5.232724e-03 4.931975e-03 4.728666e-03 4.510877e-03 4.309976e-03 4.108051e-03 3.894364e-03 3.663660e-03 3.464155e-03 3.333277e-03 3.240271e-03 3.116467e-03 2.983912e-03 2.832433e-03 2.690181e-03 2.569017e-03 2.488360e-03 2.443611e-03 2.374774e-03 2.305794e-03 2.205341e-03 2.093536e-03 2.013473e-03 1.979779e-03 1.954804e-03 1.918968e-03 1.866791e-03 1.796764e-03 1.707427e-03
<GCONST> -6.343445e+02
<STREAM> 2
<NUMMIXES> 2
<MIXTURE> 1 5.000000e-01
<MEAN> 1
 5.007988e+00
<VARIANCE> 1
 1.262191e-01
<GCONST> -2.318592e-01
<MIXTURE> 2 5.000000e-01
<MEAN> 0
<VARIANCE> 0
<GCONST> 0.000000e+00
<STREAM> 3
<NUMMIXES> 2
<MIXTURE> 1 5.000000e-01
<MEAN> 1
 -2.768782e-03
<VARIANCE> 1
 9.266037e-04
<GCONST> -5.146108e+00
<MIXTURE> 2 5.000000e-01
<MEAN> 0
<VARIANCE> 0
<GCONST> 0.000000e+00
<STREAM> 4
<NUMMIXES> 2
<MIXTURE> 1 5.000000e-01
<MEAN> 1
 -4.961206e-04
<VARIANCE> 1
 3.575549e-03
<GCONST> -3.795759e+00
<MIXTURE> 2 5.000000e-01
<MEAN> 0
<VARIANCE> 0
<GCONST> 0.000000e+00
<STREAM> 5
<MEAN> 15
 -1.965115e+00 -1.244225e+00 -1.234073e+00 -1.216230e+00 -1.238809e+00 3.435076e-11 3.132339e-11 2.288876e-11 -2.252447e-11 1.276167e-11 -8.611192e-12 1.353666e-11 4.012289e-11 1.408250e-11 -4.643087e-11
<VARIANCE> 15
 9.616116e+00 2.987993e+00 2.772469e+00 2.674342e+00 2.750392e+00 7.191374e-01 3.069239e-01 3.024516e-01 2.965401e-01 2.960900e-01 4.249543e+00 2.242621e+00 2.404440e+00 2.362903e+00 2.363094e+00
<GCONST> 3.365366e+01
<TRANSP> 7
 0.000000e+00 1.000000e+00 0.000000e+00 0.000000e+00 0.000000e+00 0.000000e+00 0.000000e+00
 0.000000e+00 6.000000e-01 4.000000e-01 0.000000e+00 0.000000e+00 0.000000e+00 0.000000e+00
 0.000000e+00 0.000000e+00 6.000000e-01 4.000000e-01 0.000000e+00 0.000000e+00 0.000000e+00
 0.000000e+00 0.000000e+00 0.000000e+00 6.000000e-01 4.000000e-01 0.000000e+00 0.000000e+00
 0.000000e+00 0.000000e+00 0.000000e+00 0.000000e+00 6.000000e-01 4.000000e-01 0.000000e+00
 0.000000e+00 0.000000e+00 0.000000e+00 0.000000e+00 0.000000e+00 6.000000e-01 4.000000e-01
 0.000000e+00 0.000000e+00 0.000000e+00 0.000000e+00 0.000000e+00 0.000000e+00 0.000000e+00
<ENDHMM>
