~o
<STREAMINFO> 5 180 1 1 1 15
<MSDINFO> 5 0 1 1 1 0
<VECSIZE> 198<NULLD><USER><DIAGC>
~h "C"
<BEGINHMM>
<NUMSTATES> 7
<STATE> 2
<SWEIGHTS> 5
 1.000000e+00 0.000000e+00 0.000000e+00 0.000000e+00 0.000000e+00
<STREAM> 1
<MEAN> 180
 3.581722e+00 9.450610e-01 -3.140169e-01 3.598286e-01 5.805171e-02 1.690664e-01 -2.960158e-02 -6.895883e-02 8.577574e-04 1.118373e-01 -3.175345e-02 4.358952e-02 -1.099092e-01 1.253597e-01 -1.053467e-01 4.397123e-02 -1.237227e-01 -4.088009e-02 2.377616e-02 8.210910e-03 -2.861523e-02 -2.477873e-03 -7.009026e-02 2.047357e-03 4.024548e-02 4.918193e-03 -5.006760e-02 5.890157e-02 -3.054503e-02 5.982861e-02 -4.346162e-02 7.303065e-02 -1.610474e-02 -1.283897e-02 1.457905e-02 3.097887e-02 -6.556082e-02 5.487033e-02 -3.629661e-02 2.936399e-02 -6.392016e-02 5.695692e-02 -2.135780e-02 3.407330e-02 -5.261108e-02 3.334834e-02 -1.969480e-02 2.095241e-02 -3.298804e-02 4.432862e-02 -3.451376e-02 2.872373e-02 -3.373727e-02 2.210246e-02 -6.174437e-03 1.177015e-02 -3.419309e-02 4.908720e-02 -4.084850e-02 2.163586e-02 -2.684261e-01 -6.632990e-02 8.933388e-02 -4.176454e-02 -2.421863e-02 -9.683024e-03 -9.833826e-03 6.512686e-03 2.473903e-02 8.141585e-03 1.163806e-02 1.304159e-02 1.061416e-02 -1.899935e-02 -8.568673e-03 -2.883958e-02 -6.414856e-03 -1.197965e-02 -2.266993e-02 1.428307e-02 1.128439e-02 5.888307e-03 5.803313e-03 8.501858e-05 1.413164e-03 6.869728e-03 -9.618296e-03 7.071423e-03 1.426956e-02 -1.183093e-03 -1.140442e-02 -1.892755e-02 2.657104e-03 -8.638436e-04 -5.280971e-03 1.002397e-02 1.223103e-02 -1.376888e-02 2.075919e-03 7.449566e-03 1.586787e-03 -1.514788e-03 -5.950448e-04 -8.514673e-03 4.932791e-03 7.211901e-04 1.811428e-03 3.867880e-03 3.402374e-03 -1.316141e-02 8.729270e-04 1.323142e-02 -8.242086e-03 -1.032127e-03 3.555517e-03 -2.697697e-03 -6.609343e-04 3.858471e-03 -3.018264e-03 2.726140e-03 -4.883780e-02 1.318646e-03 4.320498e-02 6.759115e-03 -1.473210e-02 -1.898124e-02 2.020908e-02 3.908081e-02 -2.002979e-03 6.553084e-04 6.691794e-03 1.096264e-02 2.647218e-02 -2.366064e-03 7.351983e-03 2.100848e-02 1.492888e-02 -2.344518e-03 -1.202754e-02 -9.133052e-04 7.826093e-03 -5.380092e-04 4.463429e-03 7.277285e-03 -3.194812e-02 -1.249201e-02 2.779085e-02 -1.006597e-02 -1.102472e-02 1.273370e-02 2.075579e-02 -2.620567e-02 -8.594089e-03 2.072294e-02 -3.611497e-03 9.385606e-03 1.723251e-03 -8.374442e-03 -2.127336e-02 -1.946418e-03 1.140950e-02 8.520460e-03 -1.569358e-02 -6.898428e-03 2.056561e-02 -6.197714e-03 -6.376032e-03 6.908834e-03 -5.075517e-03 2.688126e-03 1.282535e-03 -8.621544e-03 1.490538e-02 -1.026502e-03 -1.285920e-02 1.089422e-02 -6.512318e-03 1.334370e-03 5.751453e-03 -1.091014e-02
<VARIANCE> 180
 2.123248e+00 8.354214e-01 1.893510e-01 1.029918e-01 1.844446e-01 7.466881e-02 4.397047e-02 4.750558e-02 2.483593e-02 3.885665e-02 2.518577e-02 1.202773e-02 1.195398e-02 1.341420e-02 5.133360e-03 3.592187e-02 2.670321e-02 2.112994e-02 8.965817e-03 1.216301e-02 2.049461e-02 1.090689e-02 1.031584e-02 8.383119e-03 3.859540e-03 6.820364e-03 7.514969e-03 8.724369e-03 1.121375e-02 5.246469e-03 3.145808e-03 4.059062e-03 2.635820e-03 2.782829e-03 4.722632e-03 3.947990e-03 3.214518e-03 3.403267e-03 3.873869e-03 2.814956e-03 2.065934e-03 2.298762e-03 1.963322e-03 2.786080e-03 1.478298e-03 1.948892e-03 1.547515e-03 1.464254e-03 1.399924e-03 2.613234e-03 2.231222e-03 2.186250e-03 1.664339e-03 1.798457e-03 1.416048e-03 1.584219e-03 1.755442e-03 1.796967e-03 1.915879e-03 1.669675e-03 1.134085e-01 1.606335e-02 2.712105e-02 8.517145e-03 6.184604e-03 6.301937e-03 7.141856e-03 5.106871e-03 3.603668e-03 5.200393e-03 4.436473e-03 6.157925e-03 2.183714e-03 4.219771e-03 3.127517e-03 3.898059e-03 4.217105e-03 3.271203e-03 2.009203e-03 2.795894e-03 2.692560e-03 2.442390e-03 2.093709e-03 3.324950e-03 1.979245e-03 1.230791e-03 1.379858e-03 2.088797e-03 1.775152e-03 1.805336e-03 1.750733e-03 2.833758e-03 7.405156e-04 9.763017e-04 1.785323e-03 1.566507e-03 1.400412e-03 1.176018e-03 9.009214e-04 1.213799e-03 7.003096e-04 8.012296e-04 8.240785e-04 8.472654e-04 4.845919e-04 7.834823e-04 8.393586e-04 8.320532e-04 6.701050e-04 5.460821e-04 7.158739e-04 6.762841e-04 5.016983e-04 4.190883e-04 3.771897e-04 3.959609e-04 5.662450e-04 5.365349e-04 8.439238e-04 6.704069e-04 2.214029e-02 1.970921e-02 2.667871e-02 1.688405e-02 2.293447e-02 2.493733e-02 1.547642e-02 1.524265e-02 1.223194e-02 1.487965e-02 1.252244e-02 8.277802e-03 7.076168e-03 5.560821e-03 6.997955e-03 5.868258e-03 1.520474e-02 1.227032e-02 6.356375e-03 9.337342e-03 1.170765e-02 8.426774e-03 3.516398e-03 8.351881e-03 5.340951e-03 9.103590e-03 1.047134e-02 7.956969e-03 6.660470e-03 3.838613e-03 8.427974e-03 6.022076e-03 2.974792e-03 2.012414e-03 3.976564e-03 4.541187e-03 2.662320e-03 3.840545e-03 1.971479e-03 5.095957e-03 2.567804e-03 3.625374e-03 2.438586e-03 2.506664e-03 1.638865e-03 1.998606e-03 1.410616e-03 2.233746e-03 1.625290e-03 2.510272e-03 1.251172e-03 1.972991e-03 1.330259e-03 1.255680e-03 1.120657e-03 1.545178e-03 1.183158e-03 1.539637e-03 1.266918e-03 1.485631e-03
<GCONST> -6.609319e+02
<STREAM> 2
<NUMMIXES> 2
<MIXTURE> 1 2.076198e-01
<MEAN> 1
 4.976429e+00
<VARIANCE> 1
 3.473527e-02
<GCONST> -1.522123e+00
<MIXTURE> 2 7.923803e-01
<MEAN> 0
<VARIANCE> 0
<GCONST> 0.000000e+00
<STREAM> 3
<NUMMIXES> 2
<MIXTURE> 1 1.660942e-01
<MEAN> 1
 1.614659e-02
<VARIANCE> 1
 3.443970e-03
<GCONST> -3.833254e+00
<MIXTURE> 2 8.339059e-01
<MEAN> 0
<VARIANCE> 0
<GCONST> 0.000000e+00
<STREAM> 4
<NUMMIXES> 2
<MIXTURE> 1 1.660942e-01
<MEAN> 1
 6.381459e-02
<VARIANCE> 1
 8.596228e-03
<GCONST> -2.918555e+00
<MIXTURE> 2 8.339059e-01
<MEAN> 0
<VARIANCE> 0
<GCONST> 0.000000e+00
<STREAM> 5
<MEAN> 15
 -7.109002e-01 -9.091785e-01 -5.294821e-01 -7.435902e-01 -5.148451e-01 8.923905e-02 1.842029e-01 1.082609e-01 8.094820e-02 1.122207e-01 -4.412307e-02 2.130229e-01 -2.496013e-01 2.375418e-01 -5.830683e-02
<VARIANCE> 15
 3.346032e+00 3.943243e+00 1.343692e+00 3.108904e+00 1.245136e+00 2.504517e-01 2.370218e-01 2.811831e-01 1.236461e-01 1.347091e-01 4.054363e-01 1.481229e+00 5.372782e-01 1.983653e+00 7.313166e-01
<GCONST> 2.284993e+01
<STATE> 3
<SWEIGHTS> 5
 1.000000e+00 0.000000e+00 0.000000e+00 0.000000e+00 0.000000e+00
<STREAM> 1
<MEAN> 180
 3.389331e+00 7.092766e-01 -1.237813e-01 3.848814e-01 -7.666397e-02 1.427578e-01 -6.681100e-02 -6.939525e-02 -2.283666e-02 8.418903e-02 -4.857574e-02 6.545644e-02 -8.418579e-02 9.673162e-02 -1.152498e-01 7.058209e-02 -9.720854e-02 -5.115619e-02 4.963566e-03 4.096353e-02 -4.559910e-02 1.608873e-02 -3.030497e-02 1.093828e-02 1.388905e-02 1.419253e-02 -4.792935e-02 4.777783e-02 -1.494096e-02 6.403716e-02 -3.456682e-02 3.716050e-02 -1.042857e-02 5.440325e-03 -1.872620e-02 5.251246e-02 -3.225058e-02 3.605963e-02 -7.613919e-02 4.568524e-02 -4.288004e-02 4.896102e-02 -3.667854e-02 2.839977e-02 -3.347568e-02 2.421252e-02 -2.474155e-02 3.541611e-02 -2.934953e-02 2.332880e-02 -3.696160e-02 4.658742e-02 -3.615855e-02 2.727517e-02 -1.836210e-02 9.888855e-03 -2.445777e-02 4.527289e-02 -4.397199e-02 2.863231e-02 -1.944844e-01 -5.280316e-02 6.874359e-02 -3.147373e-02 -2.086827e-02 -2.363551e-02 2.711248e-04 1.347729e-02 2.827590e-03 2.850327e-03 1.816741e-02 2.277936e-02 1.762074e-02 -1.525580e-02 7.812511e-03 6.286346e-03 -2.726324e-03 -7.340608e-03 -1.568653e-02 -5.965778e-03 7.465658e-03 -7.591533e-03 8.381961e-03 1.271110e-02 -1.875413e-02 -2.601182e-03 1.265521e-02 4.073164e-03 2.746564e-03 -6.092627e-03 1.000192e-02 -5.789646e-03 -3.749106e-03 2.684797e-03 -3.916774e-03 1.490722e-02 3.927261e-03 -9.685162e-03 -9.438343e-03 1.658546e-04 1.017023e-02 9.229570e-04 -1.171733e-02 -1.116022e-03 9.170701e-03 -4.994248e-03 -5.699506e-03 1.096235e-02 3.517731e-04 -1.358863e-02 5.044973e-03 7.837908e-03 3.381248e-03 -1.178342e-02 2.484394e-03 6.150541e-03 -8.663917e-03 6.665318e-03 -1.600021e-03 -3.137815e-03 6.659743e-02 5.514493e-02 -7.403007e-02 -3.036211e-02 3.722849e-02 3.048163e-02 2.008689e-02 -6.801941e-03 -4.941441e-02 -3.163062e-02 -4.063196e-03 -3.169460e-02 -1.182100e-02 1.874119e-02 3.301258e-02 1.835091e-02 1.144572e-02 2.940978e-02 3.560475e-02 -1.831007e-02 -1.614490e-02 -8.908579e-03 -9.468232e-03 1.019493e-02 1.174265e-02 -1.351250e-03 -1.244023e-02 -3.086120e-03 -1.528092e-02 -4.432552e-02 2.005785e-03 4.596698e-02 -2.291735e-03 -3.601058e-03 2.314976e-02 -1.199564e-02 -3.181085e-02 1.007085e-02 2.126191e-02 8.594372e-03 3.593826e-03 -1.360411e-02 9.990660e-04 1.720618e-02 -1.300599e-02 -7.875995e-03 3.962082e-03 -2.523948e-03 -4.065896e-03 -7.183596e-03 1.107661e-02 7.587535e-03 -1.493727e-03 -2.457484e-02 1.620680e-02 5.333807e-03 3.429186e-03 -1.406676e-02 2.254425e-03 1.208560e-02
<VARIANCE> 180
 3.510051e+00 1.016092e+00 1.750650e-01 1.248299e-01 2.096293e-01 5.581162e-02 3.783500e-02 4.068075e-02 3.470205e-02 2.966475e-02 2.150013e-02 1.940338e-02 7.304086e-03 2.202981e-02 1.006176e-02 3.142300e-02 1.170287e-02 2.486958e-02 6.226600e-03 1.345723e-02 1.568906e-02 1.006558e-02 1.829375e-02 5.261524e-03 4.175754e-03 5.787016e-03 1.142821e-02 5.220890e-03 8.506342e-03 5.512625e-03 4.814979e-03 4.981334e-03 3.701678e-03 3.904782e-03 3.704223e-03 5.036382e-03 4.281369e-03 3.593794e-03 1.669335e-03 1.979986e-03 2.153929e-03 1.060321e-03 1.589889e-03 1.518221e-03 2.060153e-03 2.957225e-03 1.613898e-03 1.967930e-03 1.937800e-03 1.623580e-03 2.417855e-03 1.209293e-03 1.707500e-03 1.394678e-03 6.635788e-04 1.169448e-03 1.744299e-03 8.076772e-04 1.508273e-03 1.163802e-03 5.272883e-02 1.425416e-02 1.700098e-02 4.575152e-03 4.544567e-03 5.689299e-03 5.761215e-03 3.811934e-03 2.323651e-03 4.754660e-03 3.107418e-03 2.690008e-03 1.801545e-03 2.116110e-03 2.775596e-03 1.591200e-03 5.885002e-03 2.789924e-03 2.954406e-03 1.751267e-03 2.892409e-03 1.242322e-03 1.749536e-03 3.664857e-03 1.771210e-03 1.761959e-03 2.245989e-03 3.002775e-03 1.549398e-03 1.313037e-03 1.268821e-03 1.350796e-03 9.694436e-04 8.200876e-04 8.675585e-04 1.981502e-03 7.322695e-04 1.438411e-03 9.894688e-04 1.093859e-03 6.797920e-04 9.122640e-04 3.694776e-04 5.711919e-04 3.366902e-04 3.762056e-04 3.733177e-04 8.495888e-04 4.503594e-04 7.806504e-04 5.368929e-04 5.213443e-04 8.126672e-04 3.016624e-04 4.247768e-04 4.075655e-04 2.067759e-04 3.055652e-04 4.735534e-04 5.190577e-04 7.077482e-02 1.924751e-02 4.796036e-02 1.953041e-02 2.041676e-02 1.144697e-02 5.508386e-03 7.652758e-03 1.155437e-02 8.817664e-03 8.419391e-03 1.342545e-02 1.234913e-02 1.520057e-02 1.436336e-02 8.030442e-03 7.016269e-03 1.098677e-02 6.608004e-03 5.702171e-03 4.142955e-03 2.976131e-03 7.018473e-03 6.942022e-03 1.029804e-02 7.100038e-03 9.811279e-03 4.854541e-03 5.340290e-03 6.848748e-03 8.023921e-03 6.143920e-03 3.521508e-03 3.219464e-03 2.563833e-03 5.690828e-03 2.685313e-03 3.158374e-03 4.472499e-03 4.953440e-03 2.211695e-03 1.883189e-03 4.880672e-03 4.136770e-03 2.528134e-03 3.326994e-03 1.566337e-03 9.292932e-04 2.924922e-03 1.132177e-03 4.116913e-03 2.361826e-03 2.215761e-03 2.968100e-03 1.473517e-03 2.719736e-03 1.817366e-03 1.792022e-03 1.626313e-03 2.014910e-03
<GCONST> -6.739200e+02
<STREAM> 2
<NUMMIXES> 2
<MIXTURE> 1 1.874469e-01
<MEAN> 1
 4.945499e+00
<VARIANCE> 1
 1.447435e-02
<GCONST> -2.397500e+00
<MIXTURE> 2 8.125530e-01
<MEAN> 0
<VARIANCE> 0
<GCONST> 0.000000e+00
<STREAM> 3
<NUMMIXES> 2
<MIXTURE> 1 1.874469e-01
<MEAN> 1
 2.443847e-02
<VARIANCE> 1
 2.477556e-03
<GCONST> -4.162605e+00
<MIXTURE> 2 8.125530e-01
<MEAN> 0
<VARIANCE> 0
<GCONST> 0.000000e+00
<STREAM> 4
<NUMMIXES> 2
<MIXTURE> 1 1.874469e-01
<MEAN> 1
 -6.852407e-02
<VARIANCE> 1
 1.362796e-02
<GCONST> -2.457755e+00
<MIXTURE> 2 8.125530e-01
<MEAN> 0
<VARIANCE> 0
<GCONST> 0.000000e+00
<STREAM> 5
<MEAN> 15
 -8.422569e-01 -7.918976e-01 -6.766818e-01 -6.782461e-01 -4.926921e-01 -7.097697e-02 2.832726e-01 -1.310246e-02 2.218899e-01 -1.034594e-01 -3.026769e-01 -1.102736e-01 1.754948e-02 -1.704589e-01 -5.287342e-01
<VARIANCE> 15
 5.344910e+00 2.957830e+00 2.188083e+00 2.423242e+00 1.106908e+00 1.491926e-01 5.283392e-01 7.149394e-02 3.855189e-01 1.378499e-01 2.909711e-01 7.645909e-01 6.101651e-01 4.060495e-01 1.114181e+00
<GCONST> 2.119490e+01
<STATE> 4
<SWEIGHTS> 5
 1.000000e+00 0.000000e+00 0.000000e+00 0.000000e+00 0.000000e+00
<STREAM> 1
<MEAN> 180
 2.962442e+00 7.539668e-01 -5.717634e-02 2.602284e-01 -3.671651e-02 9.729276e-02 -6.604338e-02 -4.343832e-02 -1.852537e-02 7.198590e-02 -2.869329e-02 7.602996e-02 -6.947326e-02 7.072662e-02 -1.019931e-01 5.209837e-02 -9.898399e-02 -5.509172e-02 6.437225e-03 3.048672e-02 -1.041918e-02 2.003457e-02 -5.257016e-02 1.632651e-02 -8.791829e-03 5.635074e-03 -2.907420e-02 6.783739e-02 -1.242281e-03 3.352432e-02 -3.797723e-02 4.243922e-02 -3.276615e-03 1.554862e-02 -2.610328e-02 5.500914e-02 -3.412570e-02 3.295692e-02 -7.474104e-02 5.320874e-02 -2.409928e-02 3.720410e-02 -5.572397e-02 3.666864e-02 -1.723103e-02 1.022853e-02 -3.150675e-02 4.211194e-02 -2.826362e-02 7.418646e-03 -3.011759e-02 5.829488e-02 -2.522639e-02 -6.491196e-03 -7.821244e-03 2.826477e-02 -3.467245e-02 3.169138e-02 -2.816130e-02 2.780613e-02 -1.726616e-01 -5.447046e-02 1.873035e-02 -2.473255e-02 5.301503e-03 -2.318683e-02 4.748284e-03 2.065627e-02 -3.319760e-03 2.212006e-03 5.939997e-03 -2.909253e-03 2.984487e-03 -2.370127e-02 5.104557e-03 1.489908e-02 -6.879055e-03 -7.655862e-03 2.905671e-03 -1.120837e-02 7.309581e-03 -1.066850e-02 -1.011566e-02 -2.342032e-03 -7.276060e-03 1.026925e-02 -7.520719e-04 -8.739798e-03 -2.124310e-04 -1.531769e-02 -2.293590e-04 8.514725e-03 -5.194395e-03 -2.400106e-03 1.712631e-02 4.127881e-03 -1.099891e-02 2.880013e-03 5.795737e-03 2.079204e-03 5.568570e-03 -3.921969e-03 -2.379125e-03 6.111818e-03 -3.823331e-03 -1.453449e-03 5.636614e-03 1.412270e-03 -1.006306e-02 -1.539057e-04 8.086816e-03 -2.295277e-03 7.794993e-04 -7.181687e-03 8.053742e-03 -3.424763e-03 2.133905e-03 -2.119185e-03 3.154048e-04 2.492335e-03 -1.204937e-02 -2.769762e-02 -4.054804e-02 9.594171e-03 -2.000987e-03 -2.768536e-02 -1.240289e-02 1.162751e-02 2.892187e-02 2.378394e-02 6.762449e-03 4.036156e-03 -1.097165e-02 -3.700040e-02 -3.658695e-02 -2.008449e-03 -1.317581e-02 -2.010691e-02 1.965144e-03 3.314454e-03 2.454122e-02 2.045560e-02 -1.174370e-02 -2.962272e-02 4.857047e-03 1.559935e-02 -1.211144e-02 -1.886124e-02 8.930383e-03 2.700904e-02 -2.242182e-02 -1.127580e-02 3.117396e-03 -5.925109e-03 1.840073e-02 -1.145654e-02 -4.349874e-03 4.278386e-03 1.104697e-02 1.227994e-03 -8.308182e-03 -6.403290e-04 9.804825e-03 4.554559e-03 -1.455944e-02 6.299362e-03 1.827319e-02 -1.091962e-02 -1.941780e-02 2.408487e-02 4.335582e-03 -2.261654e-02 -6.193314e-03 2.539438e-02 9.874026e-04 -2.266501e-02 1.322281e-02 3.107613e-03 -7.415893e-03 3.327054e-03
<VARIANCE> 180
 3.215145e+00 8.913724e-01 1.237616e-01 1.268847e-01 1.546373e-01 4.174382e-02 2.853716e-02 3.029379e-02 3.425457e-02 2.175166e-02 1.125466e-02 1.669075e-02 6.902721e-03 1.377690e-02 9.070975e-03 3.286232e-02 1.287342e-02 1.863954e-02 3.893588e-03 8.189519e-03 1.923033e-02 1.119393e-02 1.758523e-02 5.458849e-03 5.717793e-03 7.379048e-03 7.330413e-03 9.262029e-03 7.031455e-03 8.077062e-03 5.518877e-03 6.160389e-03 4.028054e-03 3.789522e-03 3.393931e-03 5.842864e-03 4.309010e-03 3.175454e-03 3.215029e-03 1.486958e-03 2.166278e-03 1.842829e-03 2.988348e-03 3.169531e-03 2.168163e-03 2.890949e-03 2.120250e-03 2.802571e-03 1.736414e-03 9.707866e-04 1.275984e-03 1.206385e-03 1.365435e-03 1.620055e-03 7.852518e-04 1.752461e-03 1.706050e-03 2.067458e-03 2.545783e-03 1.047234e-03 1.144382e-02 1.749220e-02 4.939758e-03 6.789941e-03 3.191188e-03 2.425393e-03 2.224263e-03 4.156132e-03 3.454631e-03 3.794344e-03 4.530689e-03 2.769223e-03 3.573506e-03 3.866269e-03 1.952444e-03 2.704225e-03 2.189123e-03 1.738206e-03 2.042290e-03 2.388232e-03 1.916887e-03 2.375318e-03 1.276177e-03 1.723310e-03 3.072336e-03 1.819969e-03 1.999884e-03 1.868940e-03 1.277305e-03 1.201892e-03 1.820793e-03 5.689135e-04 7.868006e-04 7.404122e-04 1.155341e-03 1.162561e-03 9.333349e-04 8.882654e-04 8.491158e-04 1.291742e-03 6.572534e-04 1.026398e-03 1.547604e-03 9.799195e-04 8.397463e-04 6.125417e-04 6.308473e-04 4.796226e-04 4.228320e-04 5.003750e-04 9.123395e-04 3.342800e-04 7.594927e-04 6.947546e-04 4.058968e-04 5.745001e-04 4.594892e-04 4.939492e-04 4.896313e-04 4.047744e-04 1.329215e-02 1.696100e-02 1.403815e-02 7.009277e-03 9.668931e-03 7.292874e-03 5.945732e-03 6.197922e-03 8.776658e-03 8.929670e-03 9.649131e-03 8.377921e-03 9.663746e-03 7.304346e-03 6.581005e-03 4.294479e-03 3.987219e-03 3.986281e-03 3.134891e-03 6.448140e-03 9.783093e-03 7.358517e-03 6.167485e-03 1.177985e-02 5.572514e-03 7.883154e-03 8.000720e-03 6.331789e-03 5.456593e-03 4.078183e-03 4.102586e-03 4.785612e-03 5.052981e-03 3.484896e-03 4.474506e-03 5.444551e-03 3.932675e-03 5.087173e-03 4.372677e-03 4.399628e-03 1.939879e-03 4.293995e-03 2.381451e-03 2.342355e-03 1.688776e-03 1.355544e-03 1.317909e-03 2.380448e-03 2.201659e-03 1.246826e-03 2.089128e-03 1.303611e-03 1.834676e-03 2.199013e-03 1.531051e-03 1.364395e-03 1.379115e-03 1.255329e-03 1.518721e-03 9.113228e-04
<GCONST> -6.882819e+02
<STREAM> 2
<NUMMIXES> 2
<MIXTURE> 1 1.500014e-01
<MEAN> 1
 4.935676e+00
<VARIANCE> 1
 1.324214e-02
<GCONST> -2.486474e+00
<MIXTURE> 2 8.499985e-01
<MEAN> 0
<VARIANCE> 0
<GCONST> 0.000000e+00
<STREAM> 3
<NUMMIXES> 2
<MIXTURE> 1 1.000013e-01
<MEAN> 1
 -6.611726e-03
<VARIANCE> 1
 5.441175e-05
<GCONST> -7.981053e+00
<MIXTURE> 2 8.999987e-01
<MEAN> 0
<VARIANCE> 0
<GCONST> 0.000000e+00
<STREAM> 4
<NUMMIXES> 2
<MIXTURE> 1 1.000013e-01
<MEAN> 1
 -9.391152e-03
<VARIANCE> 1
 4.981739e-05
<GCONST> -8.069269e+00
<MIXTURE> 2 8.999987e-01
<MEAN> 0
<VARIANCE> 0
<GCONST> 0.000000e+00
<STREAM> 5
<MEAN> 15
 -8.519072e-01 -4.511415e-01 -5.449671e-01 -4.333954e-01 -6.886164e-01 -7.880810e-02 1.112613e-01 -8.082590e-02 1.294114e-01 8.509208e-02 1.981926e-01 -1.426016e-01 -1.547255e-01 4.010210e-02 7.588789e-01
<VARIANCE> 15
 6.370558e+00 1.274152e+00 2.247040e+00 1.144574e+00 2.877346e+00 1.516125e-01 1.507893e-01 4.988942e-01 1.154398e-01 6.079346e-02 3.233989e-01 1.543512e+00 4.161967e-01 3.842484e-01 3.629329e+00
<GCONST> 2.099187e+01
<STATE> 5
<SWEIGHTS> 5
 1.000000e+00 0.000000e+00 0.000000e+00 0.000000e+00 0.000000e+00
<STREAM> 1
<MEAN> 180
 1.953746e+00 5.973637e-01 1.934340e-01 2.110529e-01 1.184672e-01 1.213259e-01 -3.481773e-02 -7.665426e-02 -1.184222e-01 -9.502160e-03 -5.425181e-02 2.788562e-02 -1.104865e-01 -2.713009e-02 -1.114444e-01 6.020951e-02 -6.219894e-02 -6.612393e-02 -1.843951e-02 5.003013e-02 2.045411e-02 -1.145316e-02 -1.267337e-02 4.624807e-02 2.595555e-02 8.600766e-02 -3.428655e-02 -1.540972e-02 -3.263193e-02 8.347595e-02 -7.375986e-03 7.135632e-03 -4.356647e-02 1.544271e-02 1.510662e-02 4.037661e-02 -4.547044e-02 4.633982e-05 -1.330705e-02 5.724468e-02 -6.004032e-02 4.880873e-02 -3.537473e-02 2.819366e-02 -3.328922e-02 1.888535e-02 -2.242050e-02 3.263275e-02 -3.436651e-02 1.485462e-02 -1.267732e-02 3.164312e-02 -3.912011e-02 3.004379e-02 -1.468344e-02 6.537881e-03 -1.031180e-02 1.979050e-02 -2.796343e-02 2.940349e-02 -6.988751e-02 -2.508078e-02 -3.287066e-03 -6.307632e-03 -1.859775e-03 -1.416984e-02 1.670375e-03 4.503285e-03 -8.533225e-03 -1.030469e-02 -4.178461e-03 4.265704e-04 -1.212296e-03 -1.506959e-02 -1.218687e-02 4.282620e-03 5.412354e-03 1.085091e-04 3.182400e-03 -1.043542e-02 4.130157e-03 1.350621e-02 2.812700e-04 -1.146747e-02 -7.061115e-03 4.957851e-03 4.439260e-03 -3.390323e-03 -2.535730e-03 1.883164e-03 9.395512e-04 -3.330258e-05 2.511488e-03 1.975326e-03 3.255572e-03 -4.736219e-03 -4.298237e-03 -3.337833e-04 4.079836e-03 3.039601e-04 3.728392e-04 -9.537756e-05 6.432033e-04 3.111022e-03 -4.369881e-03 -4.722783e-04 4.665105e-03 -1.871295e-03 -4.500268e-03 5.521391e-03 -1.345363e-04 -2.454318e-03 1.037833e-03 -5.051524e-04 1.556081e-03 -4.108598e-03 4.383176e-03 3.869174e-04 -3.525082e-03 2.339209e-03 1.274582e-02 1.196144e-02 6.097119e-03 9.692688e-03 -4.019910e-03 -1.990085e-03 -3.394047e-04 -6.490737e-03 -1.036956e-02 -8.604704e-03 -2.961922e-03 7.313768e-03 2.939256e-03 4.932242e-03 -1.412357e-02 -6.243588e-03 9.137616e-03 3.748881e-04 3.615331e-03 5.222447e-04 -3.582560e-03 1.000500e-02 3.142970e-03 -2.726847e-03 -6.244143e-03 -8.751300e-03 1.035149e-02 1.205100e-02 -4.651974e-03 -2.859076e-03 9.744520e-03 -4.131902e-03 7.489130e-03 9.735280e-03 -1.526124e-02 -5.095520e-03 8.359000e-03 1.636866e-03 -8.110421e-03 -6.764119e-03 3.835419e-06 5.768748e-03 -1.438712e-03 -4.760182e-03 5.246109e-03 1.932481e-03 -5.914884e-03 -4.105907e-03 1.042968e-02 4.905658e-03 -1.211647e-02 3.413667e-03 7.103742e-03 -4.656913e-03 -8.658947e-03 8.876217e-03 2.223194e-03 -6.652492e-03 4.817300e-03 -1.600073e-04
<VARIANCE> 180
 2.131129e+00 4.502958e-01 1.152189e-01 5.987093e-02 1.023471e-01 1.696953e-02 1.855107e-02 2.523255e-02 2.373649e-02 2.219037e-02 1.436503e-02 1.247994e-02 8.267789e-03 1.405450e-02 1.208398e-02 1.836596e-02 1.497773e-02 1.782792e-02 7.827714e-03 9.249267e-03 1.144830e-02 7.904736e-03 7.092913e-03 1.164355e-02 8.817604e-03 7.887912e-03 5.986488e-03 1.055021e-02 3.820216e-03 7.027770e-03 6.800773e-03 5.404280e-03 4.592056e-03 3.803570e-03 6.049322e-03 4.164843e-03 4.274992e-03 3.943440e-03 4.749017e-03 1.891879e-03 2.134359e-03 1.475112e-03 3.343776e-03 3.535745e-03 1.588832e-03 2.392981e-03 2.637367e-03 2.576032e-03 1.587911e-03 1.500131e-03 1.792789e-03 1.984154e-03 1.130603e-03 2.275590e-03 1.615839e-03 1.421517e-03 1.396878e-03 1.829040e-03 1.471295e-03 1.209173e-03 1.422518e-02 1.089954e-02 4.154521e-03 2.978233e-03 2.600245e-03 2.861354e-03 3.625060e-03 2.062531e-03 3.091783e-03 4.129751e-03 2.182795e-03 2.819984e-03 2.630740e-03 3.179961e-03 3.807510e-03 2.001073e-03 2.557175e-03 3.063030e-03 2.118044e-03 2.912170e-03 3.302345e-03 3.279628e-03 2.101379e-03 3.074778e-03 1.773921e-03 1.534628e-03 1.657502e-03 1.968017e-03 1.060649e-03 9.855885e-04 1.530528e-03 1.465130e-03 1.406005e-03 1.202532e-03 1.627975e-03 1.379103e-03 1.045829e-03 1.140373e-03 9.270310e-04 5.610040e-04 7.636067e-04 6.691905e-04 8.560569e-04 7.118816e-04 5.000372e-04 6.525715e-04 8.719849e-04 6.834225e-04 6.829244e-04 7.374957e-04 1.090615e-03 5.388138e-04 6.233932e-04 6.577872e-04 5.551014e-04 4.253550e-04 4.223459e-04 3.444632e-04 4.747525e-04 4.631903e-04 5.805702e-03 9.919805e-03 9.681151e-03 6.476714e-03 8.972963e-03 7.361583e-03 6.264197e-03 5.654477e-03 8.309674e-03 6.886171e-03 7.489524e-03 8.256530e-03 8.086073e-03 9.312091e-03 1.011802e-02 6.815708e-03 6.821659e-03 8.119681e-03 5.638733e-03 9.181812e-03 1.351219e-02 8.364536e-03 4.439977e-03 7.057014e-03 6.315297e-03 6.400103e-03 6.592155e-03 5.275335e-03 3.244336e-03 4.192987e-03 5.342962e-03 4.329461e-03 2.724388e-03 4.555934e-03 5.482451e-03 3.934822e-03 3.386860e-03 4.717127e-03 4.180554e-03 2.818261e-03 3.768089e-03 3.439254e-03 3.792971e-03 3.989764e-03 2.798209e-03 2.112118e-03 2.597929e-03 2.403640e-03 1.853621e-03 2.484147e-03 2.812721e-03 1.508043e-03 1.733763e-03 1.421169e-03 1.909926e-03 1.855875e-03 1.746487e-03 1.310549e-03 1.551936e-03 1.350789e-03
<GCONST> -6.867211e+02
<STREAM> 2
<NUMMIXES> 2
<MIXTURE> 1 4.761969e-02
<MEAN> 1
 4.856333e+00
<VARIANCE> 1
 6.586066e-03
<GCONST> -3.184922e+00
<MIXTURE> 2 9.523803e-01
<MEAN> 0
<VARIANCE> 0
<GCONST> 0.000000e+00
<STREAM> 3
<NUMMIXES> 2
<MIXTURE> 1 4.761969e-02
<MEAN> 1
 -6.247408e-03
<VARIANCE> 1
 6.122200e-06
<GCONST> -1.016571e+01
<MIXTURE> 2 9.523803e-01
<MEAN> 0
<VARIANCE> 0
<GCONST> 0.000000e+00
<STREAM> 4
<NUMMIXES> 2
<MIXTURE> 1 4.761969e-02
<MEAN> 1
 1.011979e-02
<VARIANCE> 1
 7.541094e-06
<GCONST> -9.957266e+00
<MIXTURE> 2 9.523803e-01
<MEAN> 0
<VARIANCE> 0
<GCONST> 0.000000e+00
<STREAM> 5
<MEAN> 15
 -3.960091e-01 -1.958005e-01 -3.348362e-01 -1.352062e-01 -1.067071e-01 -1.458098e-01 -1.020407e-03 -1.357521e-02 -7.323524e-03 6.103818e-02 -3.109417e-01 -4.009842e-02 1.235056e-01 -1.569923e-01 -3.203347e-01
<VARIANCE> 15
 3.610129e+00 7.911960e-01 2.556037e+00 3.683344e-01 2.548922e-01 4.980128e-01 9.194873e-02 7.875530e-02 5.044394e-02 1.825934e-01 1.265390e+00 4.702215e-01 1.623738e+00 2.425356e-01 1.010450e+00
<GCONST> 1.543737e+01
<STATE> 6
<SWEIGHTS> 5
 1.000000e+00 0.000000e+00 0.000000e+00 0.000000e+00 0.000000e+00
<STREAM> 1
<MEAN> 180
 9.216821e-01 3.014894e-01 7.804786e-02 1.294061e-01 2.277627e-02 1.002315e-01 4.172705e-02 2.961744e-02 3.125425e-02 4.204029e-02 -3.688274e-02 3.684406e-02 -6.355239e-03 5.159701e-02 -6.331111e-02 4.483434e-02 -2.646777e-02 -3.041478e-02 -1.436419e-03 4.596842e-03 -1.260250e-02 2.942005e-02 -2.114437e-02 -3.275482e-02 -7.384618e-03 3.330739e-02 -2.108896e-02 1.408157e-02 -2.584217e-02 4.793904e-02 -1.955191e-02 -4.848676e-03 -9.274183e-03 4.364021e-02 -3.835200e-03 -3.459686e-03 -2.023311e-02 2.390075e-02 -3.472928e-02 2.575915e-02 -1.740759e-02 2.745374e-02 -3.221435e-02 2.522670e-02 -3.069973e-02 2.393822e-02 -1.586434e-02 1.481813e-02 -1.682029e-02 1.300794e-02 -1.186745e-02 1.380960e-02 -1.565256e-02 1.646544e-02 -1.803630e-02 1.599812e-02 -9.659758e-03 7.454697e-03 -1.428150e-02 2.114481e-02 -2.261800e-02 -4.685913e-03 2.661393e-03 -4.087504e-03 -5.502048e-03 -8.290855e-03 -9.458904e-04 -2.194383e-03 -5.783853e-03 -3.801743e-03 -3.226629e-04 3.467369e-03 1.811960e-03 -1.113122e-03 -7.105331e-03 -7.417083e-04 6.912509e-03 1.177694e-03 -9.380592e-05 -3.552734e-03 -2.573738e-04 4.066408e-03 -4.320205e-04 -2.466022e-03 -3.230641e-04 1.970522e-03 2.069226e-03 4.540157e-04 -3.696996e-05 -2.465543e-05 1.416104e-03 -2.150720e-03 2.955418e-03 5.708528e-03 -1.850804e-03 -4.644119e-03 1.254014e-04 -5.782723e-04 6.058336e-04 -7.330196e-05 -1.682085e-03 2.213120e-03 -1.103882e-03 -1.631808e-03 1.378322e-03 1.206729e-03 1.438640e-04 -3.526919e-03 2.623069e-03 2.967181e-03 -4.003404e-03 -1.025023e-03 2.120758e-03 5.982703e-04 -9.891394e-04 4.045199e-04 7.914575e-04 -2.273230e-03 1.346641e-03 5.197316e-04 1.217937e-02 6.853587e-03 8.592487e-03 -1.678583e-03 -4.973663e-03 2.329687e-03 1.327386e-04 -3.806986e-03 -1.300578e-03 -3.470623e-04 -4.343646e-03 -5.768658e-03 -1.654766e-03 8.443044e-03 4.655852e-03 -3.238290e-03 2.977658e-03 3.558257e-03 -4.209077e-03 -1.890483e-04 -6.792551e-03 -9.007356e-03 2.814847e-03 7.616744e-03 7.226244e-03 3.312023e-03 -2.181895e-03 -2.896570e-03 -1.010529e-05 1.718653e-03 8.433064e-04 -1.747508e-03 -1.981854e-03 9.676524e-04 -5.095511e-04 2.309028e-03 -2.020448e-03 -2.428257e-03 3.965474e-03 2.007795e-04 -5.436445e-04 2.298753e-03 -1.249462e-03 -4.110595e-03 3.769380e-03 1.039694e-03 -2.213380e-03 -8.947281e-04 4.183733e-03 -3.097309e-03 -1.482633e-03 2.483168e-03 -9.689492e-04 -5.130135e-04 1.601465e-03 1.477473e-03 -3.506789e-03 3.722430e-04 1.120470e-03 -2.697558e-04
<VARIANCE> 180
 1.578756e+00 2.509973e-01 4.223605e-02 3.311994e-02 5.466247e-02 1.619106e-02 1.852550e-02 1.795165e-02 1.482892e-02 7.571737e-03 7.983623e-03 1.369952e-02 1.097599e-02 1.409993e-02 1.240107e-02 1.572053e-02 1.421210e-02 1.057401e-02 9.005337e-03 7.602536e-03 7.901467e-03 5.922427e-03 6.351595e-03 7.475011e-03 4.717734e-03 6.554135e-03 5.522616e-03 5.053748e-03 4.710419e-03 6.801031e-03 4.200544e-03 6.504411e-03 5.253833e-03 4.644260e-03 3.852489e-03 3.892499e-03 4.107798e-03 3.506953e-03 2.030100e-03 3.133696e-03 1.999555e-03 2.577212e-03 3.092378e-03 3.399763e-03 3.378482e-03 2.962390e-03 3.046925e-03 2.296243e-03 1.672588e-03 2.226588e-03 1.772380e-03 1.642491e-03 1.449427e-03 1.526519e-03 1.469735e-03 1.820014e-03 1.315963e-03 1.753446e-03 1.631222e-03 1.596121e-03 7.443912e-03 7.132684e-03 4.590311e-03 2.522169e-03 4.073548e-03 3.717080e-03 2.904819e-03 2.633195e-03 2.451448e-03 2.815313e-03 2.544811e-03 3.648093e-03 2.386459e-03 3.371261e-03 4.233315e-03 3.883972e-03 4.178787e-03 3.190428e-03 3.827326e-03 2.626747e-03 3.130248e-03 2.239446e-03 2.544564e-03 2.243502e-03 1.597350e-03 1.861912e-03 1.871382e-03 1.926543e-03 1.496625e-03 2.058166e-03 1.651324e-03 1.871071e-03 1.578738e-03 1.549090e-03 1.370965e-03 1.377759e-03 1.382653e-03 1.813546e-03 9.281268e-04 9.756240e-04 9.203305e-04 1.190067e-03 1.380398e-03 9.703856e-04 1.177423e-03 9.416367e-04 7.106403e-04 8.946625e-04 6.551880e-04 8.048533e-04 9.024897e-04 6.689320e-04 5.668024e-04 7.450853e-04 5.710421e-04 5.656177e-04 4.861512e-04 3.757362e-04 4.829006e-04 4.999412e-04 1.046290e-02 1.701758e-02 1.684449e-02 9.431993e-03 1.100358e-02 9.666833e-03 8.104580e-03 8.234229e-03 8.941286e-03 1.019128e-02 8.707757e-03 1.143173e-02 8.484478e-03 9.840588e-03 1.133899e-02 8.327994e-03 1.036537e-02 8.878481e-03 1.086071e-02 8.691054e-03 8.771297e-03 6.157456e-03 7.479935e-03 6.042805e-03 5.755150e-03 4.075657e-03 6.033716e-03 6.358447e-03 4.910827e-03 5.982624e-03 5.477006e-03 5.049459e-03 4.760878e-03 4.530435e-03 4.803304e-03 4.229115e-03 5.615695e-03 4.159375e-03 3.124293e-03 2.817797e-03 3.735372e-03 3.589917e-03 4.389817e-03 2.841322e-03 3.345157e-03 3.059975e-03 2.015438e-03 2.635903e-03 2.097714e-03 2.176699e-03 2.547287e-03 1.826080e-03 1.720491e-03 2.285312e-03 1.848874e-03 1.434541e-03 1.552466e-03 1.444981e-03 1.528759e-03 1.660271e-03
<GCONST> -6.802302e+02
<STREAM> 2
<NUMMIXES> 2
<MIXTURE> 1 4.597648e-02
<MEAN> 1
 4.839196e+00
<VARIANCE> 1
 9.435917e-02
<GCONST> -5.227697e-01
<MIXTURE> 2 9.540235e-01
<MEAN> 0
<VARIANCE> 0
<GCONST> 0.000000e+00
<STREAM> 3
<NUMMIXES> 2
<MIXTURE> 1 2.298825e-02
<MEAN> 1
 -5.956218e-04
<VARIANCE> 1
 2.139845e-06
<GCONST> -1.121690e+01
<MIXTURE> 2 9.770117e-01
<MEAN> 0
<VARIANCE> 0
<GCONST> 0.000000e+00
<STREAM> 4
<NUMMIXES> 2
<MIXTURE> 1 2.298825e-02
<MEAN> 1
 1.183781e-03
<VARIANCE> 1
 5.229077e-07
<GCONST> -1.262598e+01
<MIXTURE> 2 9.770117e-01
<MEAN> 0
<VARIANCE> 0
<GCONST> 0.000000e+00
<STREAM> 5
<MEAN> 15
 -3.785799e-01 -1.253990e-01 -1.671176e-01 -1.371002e-01 -1.198398e-01 7.553855e-04 2.357221e-02 5.921270e-02 -1.663228e-02 4.640272e-03 1.843350e-01 1.128184e-02 9.662285e-03 5.415758e-03 4.252137e-02
<VARIANCE> 15
 3.744504e+00 3.457942e-01 6.827267e-01 4.283490e-01 3.235697e-01 1.783188e-01 3.968818e-02 1.536230e-01 8.706345e-02 4.540223e-02 1.685931e+00 1.934040e-01 2.524206e-01 2.410654e-01 2.063442e-01
<GCONST> 7.613054e+00
<TRANSP> 7
 0.000000e+00 1.000000e+00 0.000000e+00 0.000000e+00 0.000000e+00 0.000000e+00 0.000000e+00
 0.000000e+00 3.356156e-01 6.643845e-01 0.000000e+00 0.000000e+00 0.000000e+00 0.000000e+00
 0.000000e+00 0.000000e+00 2.735904e-04 9.997264e-01 0.000000e+00 0.000000e+00 0.000000e+00
 0.000000e+00 0.000000e+00 0.000000e+00 1.999805e-01 8.000195e-01 0.000000e+00 0.000000e+00
 0.000000e+00 0.000000e+00 0.000000e+00 0.000000e+00 6.190371e-01 3.809629e-01 0.000000e+00
 0.000000e+00 0.000000e+00 0.000000e+00 0.000000e+00 0.000000e+00 8.160931e-01 1.839070e-01
 0.000000e+00 0.000000e+00 0.000000e+00 0.000000e+00 0.000000e+00 0.000000e+00 0.000000e+00
<ENDHMM>
~h "D"
<BEGINHMM>
<NUMSTATES> 7
<STATE> 2
<SWEIGHTS> 5
 1.000000e+00 0.000000e+00 0.000000e+00 0.000000e+00 0.000000e+00
<STREAM> 1
<MEAN> 180
 4.960987e+00 2.278485e+00 3.280964e-01 4.553916e-01 1.433731e-01 1.686225e-01 -2.250532e-02 7.137172e-04 -1.186115e-01 1.558599e-01 -1.090161e-01 9.203423e-03 -1.086354e-01 9.463730e-02 -1.641014e-01 7.710652e-02 5.898552e-03 -7.385830e-02 3.272409e-02 7.749142e-02 -1.659597e-01 6.484007e-02 2.194520e-02 -8.219241e-02 6.689331e-02 3.435561e-03 -8.030820e-02 1.046568e-01 -5.771871e-02 5.101338e-02 -2.254909e-02 4.614466e-02 -3.355759e-02 3.858117e-02 -3.772689e-02 3.802367e-02 -6.017222e-02 6.185966e-02 -5.843859e-02 3.878249e-02 -4.172933e-02 4.310746e-02 -4.275142e-02 3.370282e-02 -2.051399e-02 1.250977e-02 -1.900642e-02 2.913846e-02 -4.096419e-02 5.217683e-02 -5.489830e-02 4.774206e-02 -2.944206e-02 1.289477e-02 -9.330710e-03 2.668545e-02 -4.664543e-02 5.802961e-02 -5.579999e-02 4.177630e-02 -1.843461e-02 -7.394291e-03 4.901069e-03 5.042166e-04 1.175756e-02 1.571305e-03 -4.165718e-03 2.661217e-03 -4.723138e-03 1.118324e-03 2.898352e-03 -4.662017e-05 6.090859e-03 3.657155e-04 -2.298994e-03 3.683460e-04 1.773395e-03 -1.574368e-03 -2.391818e-03 1.138934e-04 5.418195e-04 -7.662218e-04 1.830871e-03 -4.898164e-04 1.637651e-03 -1.757428e-03 -7.825402e-04 2.160116e-03 -5.265566e-04 -1.407988e-03 -8.328023e-04 5.245872e-04 -6.861879e-04 -1.348401e-03 1.861597e-03 7.314608e-06 -1.261370e-03 8.550282e-04 5.149415e-04 -5.299991e-04 -2.993668e-04 7.365885e-04 1.173670e-04 -3.111684e-04 5.494154e-04 2.998280e-04 -1.161205e-03 1.188399e-03 -4.787776e-04 2.376945e-04 6.035649e-04 -7.313008e-04 -1.561578e-04 5.024223e-04 -7.324883e-04 6.572552e-04 -8.681667e-04 8.461050e-04 -4.177509e-04 -5.145380e-05 1.735362e-02 5.413425e-03 -1.175239e-02 -1.063403e-03 8.972432e-04 -5.874381e-03 -3.947502e-03 -4.022341e-05 -9.364517e-04 6.461637e-04 3.361730e-04 -2.431542e-03 -1.659248e-03 -3.478222e-04 7.793560e-04 4.310265e-03 5.879671e-04 -3.274863e-04 1.574008e-03 3.012805e-04 -2.621284e-03 -6.667860e-04 6.020777e-04 5.143680e-03 1.683540e-04 -6.076614e-04 8.704400e-04 6.306798e-04 9.188614e-04 -1.985393e-05 -2.127781e-03 -1.957348e-04 2.142146e-03 -7.180878e-04 -1.094348e-04 -3.939803e-04 3.906464e-04 -2.735998e-03 3.916115e-04 1.506190e-03 -1.159426e-03 4.206560e-04 7.346006e-04 3.122948e-04 -1.527901e-03 5.459877e-04 -5.387535e-05 -3.745737e-04 7.211596e-04 -7.666001e-04 3.934114e-04 -6.702599e-04 3.118378e-04 1.476036e-04 -3.538223e-04 1.709933e-04 4.117551e-04 -8.262547e-04 2.514728e-05 8.092000e-04
<VARIANCE> 180
 1.303653e+00 9.933901e-01 2.552881e-01 1.565598e-01 1.396504e-01 9.668550e-02 6.149595e-02 1.150359e-01 4.221984e-02 1.040469e-01 3.331940e-02 4.367378e-02 2.840260e-02 4.060346e-02 2.850259e-02 3.775359e-02 2.539737e-02 2.241712e-02 1.844650e-02 2.137344e-02 1.745053e-02 1.423757e-02 1.372366e-02 1.506776e-02 1.425118e-02 1.434922e-02 1.082920e-02 1.242155e-02 1.234436e-02 9.426007e-03 8.937106e-03 6.804329e-03 7.270494e-03 7.180050e-03 5.679418e-03 5.485135e-03 6.146133e-03 6.038186e-03 4.935631e-03 4.960525e-03 4.410025e-03 4.072528e-03 4.349044e-03 3.744184e-03 3.684232e-03 4.479230e-03 4.204546e-03 3.211392e-03 3.568653e-03 3.891231e-03 3.631254e-03 3.769506e-03 2.939547e-03 2.786859e-03 3.067263e-03 3.100874e-03 2.804013e-03 2.802648e-03 2.479936e-03 2.359285e-03 4.870429e-02 3.022177e-02 1.412686e-02 7.192841e-03 6.945676e-03 6.141164e-03 4.274177e-03 4.351305e-03 4.446301e-03 4.285624e-03 3.674348e-03 3.325595e-03 2.936154e-03 3.009623e-03 2.942888e-03 3.385155e-03 2.736119e-03 2.647073e-03 2.659857e-03 2.167142e-03 2.374691e-03 2.176106e-03 2.007415e-03 1.940272e-03 1.887007e-03 1.782731e-03 1.656538e-03 1.592515e-03 1.504308e-03 1.524185e-03 1.525404e-03 1.213927e-03 1.241600e-03 1.161653e-03 1.097671e-03 1.086993e-03 1.071425e-03 9.976460e-04 9.881376e-04 9.247388e-04 8.146716e-04 8.400133e-04 8.077492e-04 7.849559e-04 7.753839e-04 7.126622e-04 6.840578e-04 6.654703e-04 6.354189e-04 6.198559e-04 6.492516e-04 6.088687e-04 5.159935e-04 5.657007e-04 6.037632e-04 5.934470e-04 5.405863e-04 5.297201e-04 5.249566e-04 4.724435e-04 3.045551e-02 1.756839e-02 2.349295e-02 1.491033e-02 1.352609e-02 1.433577e-02 1.273259e-02 1.218967e-02 1.291958e-02 1.066383e-02 1.219415e-02 1.209315e-02 1.080313e-02 1.171503e-02 1.118623e-02 1.148602e-02 1.086698e-02 1.098645e-02 9.329290e-03 8.997522e-03 9.725855e-03 9.131130e-03 8.527385e-03 8.322491e-03 7.737929e-03 7.514143e-03 6.941496e-03 6.688779e-03 6.787677e-03 6.005391e-03 6.063828e-03 5.400637e-03 5.205422e-03 5.453430e-03 5.465664e-03 4.875623e-03 4.504320e-03 4.294605e-03 4.457781e-03 4.050826e-03 3.974786e-03 4.087577e-03 3.852814e-03 3.584379e-03 3.602024e-03 3.098838e-03 3.027530e-03 2.952736e-03 2.923737e-03 2.816861e-03 2.960250e-03 2.939319e-03 2.465617e-03 2.676381e-03 2.606290e-03 2.571375e-03 2.444776e-03 2.376433e-03 2.446680e-03 2.110637e-03
<GCONST> -6.193387e+02
<STREAM> 2
<NUMMIXES> 2
<MIXTURE> 1 8.601276e-01
<MEAN> 1
 5.041133e+00
<VARIANCE> 1
 9.322698e-02
<GCONST> -5.348411e-01
<MIXTURE> 2 1.398717e-01
<MEAN> 0
<VARIANCE> 0
<GCONST> 0.000000e+00
<STREAM> 3
<NUMMIXES> 2
<MIXTURE> 1 8.337702e-01
<MEAN> 1
 -1.077504e-03
<VARIANCE> 1
 9.194075e-04
<GCONST> -5.153904e+00
<MIXTURE> 2 1.662287e-01
<MEAN> 0
<VARIANCE> 0
<GCONST> 0.000000e+00
<STREAM> 4
<NUMMIXES> 2
<MIXTURE> 1 8.324574e-01
<MEAN> 1
 8.336818e-05
<VARIANCE> 1
 3.721087e-03
<GCONST> -3.755862e+00
<MIXTURE> 2 1.675414e-01
<MEAN> 0
<VARIANCE> 0
<GCONST> 0.000000e+00
<STREAM> 5
<MEAN> 15
 -3.622625e+00 -2.492938e+00 -2.569562e+00 -2.579782e+00 -2.647463e+00 -3.377435e-02 -1.939815e-02 3.785808e-03 -1.387917e-02 1.890348e-02 -7.344209e-02 -4.741261e-02 5.945563e-06 -3.011042e-02 -2.403714e-03
<VARIANCE> 15
 7.327566e+00 2.140582e+00 2.192990e+00 2.246237e+00 2.378082e+00 1.198540e+00 5.778933e-01 5.756114e-01 6.264191e-01 6.293818e-01 7.141334e+00 4.506743e+00 4.746987e+00 5.275322e+00 4.752434e+00
<GCONST> 3.918204e+01
<STATE> 3
<SWEIGHTS> 5
 1.000000e+00 0.000000e+00 0.000000e+00 0.000000e+00 0.000000e+00
<STREAM> 1
<MEAN> 180
 4.662163e+00 1.869186e+00 1.654602e-01 4.150685e-01 1.491118e-01 9.990381e-02 -2.882134e-02 7.009325e-02 -1.535519e-01 1.009010e-01 -5.238541e-02 6.369650e-02 -6.534392e-02 9.764960e-02 -1.809487e-01 1.220868e-01 -7.516034e-03 -7.961621e-02 3.531305e-02 5.621458e-02 -1.406607e-01 4.147905e-02 2.366674e-02 -4.256015e-02 5.137950e-02 7.174949e-03 -8.620745e-02 1.014111e-01 -5.031372e-02 3.792017e-02 -2.441485e-02 4.863758e-02 -2.043209e-02 1.910163e-02 -3.463327e-02 4.255554e-02 -7.302032e-02 5.909812e-02 -4.807380e-02 2.828070e-02 -3.891950e-02 4.672636e-02 -4.323016e-02 3.890714e-02 -3.652750e-02 3.136024e-02 -4.160648e-02 4.569286e-02 -3.605110e-02 3.615809e-02 -3.859717e-02 3.732314e-02 -2.616496e-02 1.350462e-02 -1.306943e-02 2.841011e-02 -4.492364e-02 5.467245e-02 -5.335550e-02 3.950045e-02 1.980818e-02 3.966653e-03 -2.271342e-02 -8.090328e-03 -8.864549e-04 -1.358729e-02 -6.703166e-03 3.459619e-03 -5.589941e-03 5.383575e-04 3.011890e-03 -3.027787e-03 -1.920548e-03 -2.282712e-03 8.495925e-04 7.940506e-03 2.798670e-03 -3.077830e-03 4.733245e-03 -5.845716e-04 -5.438005e-03 2.546228e-03 2.451226e-03 6.528057e-03 -2.011782e-04 -1.241725e-03 4.930806e-04 -3.330590e-04 -2.642014e-04 -1.725668e-03 -2.903793e-04 -1.652415e-04 1.517595e-03 1.619715e-03 6.730133e-05 -2.273242e-03 8.498435e-06 -3.155386e-03 -1.026873e-03 1.519794e-03 -1.186200e-03 4.114083e-04 1.437093e-03 -7.095220e-04 -1.182805e-03 -1.005013e-04 1.364717e-03 -1.322199e-05 -1.744712e-03 2.125008e-03 -5.933542e-04 -1.645905e-03 2.016676e-03 -1.849864e-04 -2.583189e-04 -3.298682e-04 9.217797e-04 -3.670019e-04 -8.868314e-04 1.928963e-03 -1.314865e-02 -1.406268e-02 -1.566287e-03 5.164196e-03 -3.874541e-03 3.696201e-03 5.035805e-03 4.134327e-05 3.589585e-03 -1.098008e-04 -1.443401e-03 -3.388850e-05 -2.802113e-03 -3.269791e-03 -1.392713e-03 -4.125041e-03 -2.489207e-03 2.218450e-03 3.524531e-04 -2.463772e-03 3.368153e-03 2.070339e-04 -2.040749e-03 -9.344844e-04 -3.742465e-03 1.776576e-03 -1.771031e-03 -5.067300e-03 4.913391e-04 4.338907e-03 3.016827e-03 -3.605657e-03 9.279087e-04 5.947994e-03 -3.654631e-04 -3.763571e-03 2.150546e-03 3.111865e-03 -4.781933e-03 -1.963713e-04 4.085906e-03 -3.951211e-03 -1.093336e-03 3.075711e-04 1.310363e-03 -1.594004e-03 1.307327e-03 6.318733e-05 -2.419534e-03 2.996253e-03 -3.316724e-03 8.634659e-04 2.386832e-03 -2.096538e-03 2.014234e-03 -2.226321e-03 2.727802e-03 -9.419972e-04 3.507616e-04 3.830643e-04
<VARIANCE> 180
 2.068286e+00 1.659860e+00 2.834000e-01 2.171075e-01 1.501070e-01 8.308065e-02 5.968445e-02 9.148105e-02 5.772923e-02 7.259940e-02 3.812595e-02 3.526350e-02 3.476733e-02 3.741833e-02 2.557751e-02 4.232715e-02 2.764027e-02 2.279273e-02 2.153963e-02 2.141522e-02 1.712742e-02 1.857536e-02 1.321742e-02 1.337970e-02 1.217884e-02 1.156503e-02 1.254607e-02 1.076857e-02 1.344781e-02 9.443399e-03 9.761476e-03 7.959311e-03 9.453279e-03 7.481749e-03 6.299896e-03 5.736513e-03 6.906672e-03 6.079006e-03 5.584311e-03 4.412003e-03 4.273118e-03 4.262834e-03 4.534936e-03 3.971141e-03 3.746595e-03 3.941051e-03 4.506257e-03 3.620217e-03 3.540316e-03 3.374143e-03 3.124436e-03 3.183199e-03 2.729634e-03 2.943702e-03 2.950013e-03 2.759720e-03 2.374605e-03 2.525410e-03 2.377830e-03 2.169140e-03 2.660788e-02 1.987915e-02 8.262523e-03 5.339357e-03 5.132312e-03 4.891532e-03 3.588163e-03 3.083842e-03 3.311346e-03 3.426599e-03 3.300829e-03 3.023739e-03 2.849907e-03 2.840968e-03 2.847214e-03 3.003044e-03 2.562498e-03 2.712695e-03 2.417211e-03 2.162818e-03 2.095318e-03 2.363262e-03 2.098767e-03 2.043052e-03 1.807088e-03 1.904647e-03 1.707159e-03 1.527269e-03 1.681475e-03 1.623139e-03 1.525398e-03 1.278565e-03 1.312760e-03 1.154847e-03 1.186823e-03 1.063948e-03 1.019068e-03 1.040635e-03 9.988463e-04 8.523026e-04 1.060859e-03 7.387432e-04 8.289956e-04 7.548272e-04 7.236751e-04 5.941750e-04 6.116378e-04 5.504414e-04 5.968977e-04 5.929865e-04 5.620948e-04 6.177021e-04 5.065050e-04 5.484372e-04 4.740394e-04 5.121775e-04 5.313394e-04 4.474112e-04 4.902683e-04 4.551587e-04 1.358278e-02 1.407421e-02 1.305588e-02 9.576921e-03 9.073439e-03 8.878555e-03 7.068175e-03 9.394183e-03 7.694100e-03 7.887820e-03 7.637686e-03 7.126660e-03 7.474630e-03 6.945593e-03 6.238034e-03 7.445365e-03 7.995951e-03 7.823933e-03 6.714400e-03 5.851080e-03 5.818464e-03 6.246496e-03 6.772435e-03 5.900736e-03 5.648385e-03 4.833312e-03 5.013328e-03 4.658547e-03 5.193558e-03 4.762110e-03 4.411739e-03 4.846908e-03 4.253895e-03 3.734329e-03 4.267137e-03 3.354633e-03 3.546964e-03 3.344234e-03 3.505638e-03 3.462855e-03 3.175053e-03 2.795377e-03 2.786946e-03 2.730122e-03 2.543611e-03 2.306883e-03 2.561991e-03 2.163658e-03 2.400190e-03 2.038921e-03 2.083050e-03 2.107466e-03 1.980636e-03 1.924814e-03 1.805450e-03 1.908854e-03 1.900349e-03 1.744617e-03 1.739556e-03 1.419369e-03
<GCONST> -6.441909e+02
<STREAM> 2
<NUMMIXES> 2
<MIXTURE> 1 6.977269e-01
<MEAN> 1
 4.944119e+00
<VARIANCE> 1
 1.016439e-01
<GCONST> -4.484024e-01
<MIXTURE> 2 3.022735e-01
<MEAN> 0
<VARIANCE> 0
<GCONST> 0.000000e+00
<STREAM> 3
<NUMMIXES> 2
<MIXTURE> 1 6.805078e-01
<MEAN> 1
 -2.943029e-03
<VARIANCE> 1
 6.785594e-04
<GCONST> -5.457662e+00
<MIXTURE> 2 3.194925e-01
<MEAN> 0
<VARIANCE> 0
<GCONST> 0.000000e+00
<STREAM> 4
<NUMMIXES> 2
<MIXTURE> 1 6.805078e-01
<MEAN> 1
 -2.578535e-03
<VARIANCE> 1
 2.004087e-03
<GCONST> -4.374690e+00
<MIXTURE> 2 3.194925e-01
<MEAN> 0
<VARIANCE> 0
<GCONST> 0.000000e+00
<STREAM> 5
<MEAN> 15
 -3.673397e+00 -2.294969e+00 -2.188138e+00 -2.212363e+00 -2.204652e+00 -2.314829e-01 -1.068150e-01 -6.664793e-03 7.315721e-03 -3.443374e-02 -6.586632e-02 -1.766882e-02 5.474854e-03 3.788441e-02 -4.837172e-02
<VARIANCE> 15
 1.246336e+01 3.584527e+00 2.933100e+00 3.113148e+00 3.129395e+00 1.583869e+00 5.474164e-01 4.302431e-01 4.492932e-01 4.300032e-01 6.599568e+00 3.797432e+00 3.029463e+00 3.572011e+00 3.747771e+00
<GCONST> 3.901398e+01
<STATE> 4
<SWEIGHTS> 5
 1.000000e+00 0.000000e+00 0.000000e+00 0.000000e+00 0.000000e+00
<STREAM> 1
<MEAN> 180
 5.002824e+00 2.505439e+00 2.955203e-01 4.725346e-01 1.941932e-01 1.139149e-01 7.338493e-03 2.337086e-01 -2.152451e-01 -2.299870e-02 -9.638628e-02 1.991260e-02 -1.088689e-01 1.704982e-02 -1.607995e-01 1.717875e-01 -2.084175e-02 -9.383686e-02 9.016339e-02 3.284874e-02 -1.643943e-01 7.704046e-02 2.997396e-02 -6.241592e-02 2.717862e-02 5.149975e-02 -9.748487e-02 8.118103e-02 -1.022594e-02 2.544663e-02 -3.801340e-03 5.808495e-02 -2.358815e-02 2.540476e-02 -3.510343e-02 3.116132e-02 -7.300207e-02 6.243306e-02 -6.039033e-02 3.232365e-02 -3.615885e-02 3.018764e-02 -2.905138e-02 2.680510e-02 -2.412548e-02 2.530485e-02 -3.672933e-02 3.604075e-02 -3.424475e-02 4.182352e-02 -4.512703e-02 4.087694e-02 -2.542391e-02 1.090576e-02 -2.344553e-03 1.580762e-02 -3.611694e-02 5.494722e-02 -6.306816e-02 5.198453e-02 1.452313e-02 -5.375050e-03 -1.873482e-02 -6.915577e-03 -4.311471e-03 -1.775349e-03 -8.918933e-04 2.056030e-03 -7.525587e-03 -1.122232e-03 6.963657e-03 -4.442995e-04 -9.238529e-04 -9.483878e-04 -1.450213e-03 5.919678e-03 -9.429062e-04 -2.090819e-03 5.200811e-03 -6.575453e-04 -2.015520e-03 9.024430e-04 -1.096646e-03 1.957312e-03 -2.373353e-04 -4.975201e-04 -1.869949e-03 -1.417802e-03 -1.936764e-04 -7.088820e-06 2.827123e-03 -7.984058e-04 -3.166136e-05 1.315120e-03 6.030569e-04 -3.972209e-04 -4.602648e-04 6.658849e-04 -2.198350e-03 -4.726324e-04 2.571860e-04 3.752449e-04 -9.410767e-04 -1.602827e-04 5.757029e-05 9.606822e-04 3.244028e-04 -1.984161e-03 8.109299e-04 -3.490491e-04 4.260420e-05 -1.286901e-04 7.144754e-04 -1.886415e-04 -9.164584e-05 -1.905326e-04 1.446903e-03 -1.510309e-03 4.665297e-04 1.101546e-03 -8.873825e-03 -7.781148e-03 2.469342e-03 5.977487e-04 2.746024e-03 5.061710e-03 -7.188382e-04 -2.276963e-03 1.885613e-03 -4.215027e-05 3.065890e-03 2.619474e-03 -7.405125e-04 3.999401e-03 -7.543850e-04 -2.090255e-03 -2.445907e-03 1.101187e-03 -1.541367e-03 -1.347726e-03 1.932068e-03 -2.390063e-04 -1.815300e-03 -3.558075e-03 -1.691633e-04 1.347356e-04 -7.485761e-05 2.221037e-03 6.898680e-04 -1.422057e-04 9.618019e-05 6.335307e-04 -1.255003e-03 -3.143222e-03 1.528870e-03 3.603152e-03 -2.031736e-03 1.814297e-03 6.663722e-04 -1.187855e-03 1.516700e-04 2.265795e-03 -8.068660e-04 4.367412e-04 -6.318563e-04 9.838999e-04 -9.107609e-04 -1.624524e-03 3.317093e-03 -4.536819e-03 1.733745e-03 1.952549e-03 -2.882843e-03 7.417531e-04 -2.264494e-04 1.022449e-03 -9.495728e-04 -3.972954e-04 1.019078e-03 -1.264219e-03
<VARIANCE> 180
 1.588855e+00 8.027856e-01 2.986977e-01 1.255619e-01 1.690277e-01 1.040065e-01 5.693876e-02 9.912268e-02 5.657782e-02 7.914881e-02 3.715413e-02 3.307344e-02 3.075347e-02 3.235379e-02 2.726185e-02 3.606880e-02 3.058935e-02 2.275882e-02 2.459334e-02 2.713187e-02 1.839729e-02 1.830833e-02 1.290968e-02 1.566458e-02 1.240821e-02 1.559052e-02 1.301216e-02 1.015086e-02 1.120810e-02 1.059328e-02 1.216090e-02 7.296309e-03 8.795120e-03 7.002539e-03 7.037214e-03 6.336018e-03 6.169917e-03 6.441644e-03 5.241527e-03 3.949082e-03 4.718617e-03 4.076692e-03 5.206374e-03 4.530712e-03 4.309580e-03 4.200868e-03 4.286800e-03 3.838683e-03 3.564164e-03 4.060969e-03 3.526454e-03 3.271561e-03 2.999928e-03 2.644746e-03 2.939663e-03 2.982925e-03 2.912406e-03 2.531608e-03 2.931657e-03 3.055141e-03 1.850209e-02 1.336387e-02 7.858689e-03 5.402195e-03 4.799620e-03 4.192541e-03 3.016843e-03 2.945959e-03 3.322198e-03 2.788271e-03 2.862559e-03 2.404686e-03 2.493115e-03 2.219521e-03 2.301077e-03 2.451510e-03 2.411863e-03 2.088678e-03 1.935082e-03 1.954763e-03 1.777826e-03 1.796108e-03 1.543951e-03 1.562792e-03 1.560793e-03 1.370822e-03 1.360667e-03 1.206913e-03 1.379966e-03 1.219157e-03 1.166154e-03 1.110221e-03 1.175718e-03 9.912943e-04 1.020194e-03 9.168786e-04 8.175691e-04 9.113007e-04 7.519269e-04 7.258899e-04 8.126097e-04 7.064245e-04 7.232481e-04 7.047026e-04 6.649467e-04 6.274797e-04 6.096517e-04 5.715108e-04 5.550376e-04 5.729918e-04 5.185544e-04 5.050048e-04 4.749243e-04 4.594890e-04 4.784788e-04 4.636919e-04 4.655768e-04 4.354981e-04 4.322261e-04 4.187334e-04 9.681485e-03 8.963272e-03 8.349186e-03 6.894528e-03 6.453983e-03 7.007511e-03 5.326087e-03 5.638201e-03 6.265804e-03 6.162527e-03 6.223080e-03 5.466494e-03 6.021707e-03 5.491289e-03 5.952482e-03 5.646963e-03 5.392101e-03 5.451887e-03 4.835320e-03 5.111685e-03 4.714344e-03 4.782298e-03 4.069335e-03 4.467096e-03 4.331572e-03 3.961251e-03 3.959636e-03 3.985669e-03 3.739244e-03 3.686185e-03 3.399577e-03 3.069537e-03 3.444604e-03 3.051508e-03 3.073213e-03 3.112743e-03 2.727372e-03 2.832035e-03 2.498619e-03 2.583390e-03 2.408390e-03 2.225163e-03 2.274810e-03 2.258889e-03 2.148910e-03 1.961442e-03 1.786506e-03 1.834344e-03 1.698936e-03 1.780419e-03 1.548041e-03 1.646477e-03 1.457384e-03 1.402177e-03 1.469718e-03 1.445268e-03 1.442398e-03 1.359207e-03 1.333438e-03 1.249393e-03
<GCONST> -6.681462e+02
<STREAM> 2
<NUMMIXES> 2
<MIXTURE> 1 8.633088e-01
<MEAN> 1
 4.847504e+00
<VARIANCE> 1
 7.168854e-02
<GCONST> -7.975473e-01
<MIXTURE> 2 1.366909e-01
<MEAN> 0
<VARIANCE> 0
<GCONST> 0.000000e+00
<STREAM> 3
<NUMMIXES> 2
<MIXTURE> 1 8.587301e-01
<MEAN> 1
 -6.085985e-03
<VARIANCE> 1
 6.562861e-04
<GCONST> -5.491036e+00
<MIXTURE> 2 1.412696e-01
<MEAN> 0
<VARIANCE> 0
<GCONST> 0.000000e+00
<STREAM> 4
<NUMMIXES> 2
<MIXTURE> 1 8.575906e-01
<MEAN> 1
 -3.842807e-04
<VARIANCE> 1
 1.449459e-03
<GCONST> -4.698688e+00
<MIXTURE> 2 1.424090e-01
<MEAN> 0
<VARIANCE> 0
<GCONST> 0.000000e+00
<STREAM> 5
<MEAN> 15
 -4.604526e+00 -3.072360e+00 -2.842171e+00 -2.715167e+00 -2.815441e+00 -2.239801e-01 -4.784337e-02 -1.959663e-02 -1.435191e-02 -1.881393e-02 -6.039890e-02 4.409430e-02 -3.952213e-02 -4.710137e-02 5.124094e-02
<VARIANCE> 15
 1.144977e+01 3.444611e+00 2.568586e+00 2.246062e+00 2.365254e+00 1.315571e+00 5.361922e-01 4.608779e-01 4.673485e-01 4.215744e-01 8.058922e+00 3.474584e+00 3.421155e+00 3.078033e+00 3.155744e+00
<GCONST> 3.794405e+01
<STATE> 5
<SWEIGHTS> 5
 1.000000e+00 0.000000e+00 0.000000e+00 0.000000e+00 0.000000e+00
<STREAM> 1
<MEAN> 180
 5.325171e+00 2.681652e+00 3.164634e-02 4.707176e-01 3.800960e-01 1.831314e-01 -2.184903e-02 3.167585e-01 -2.981192e-01 -1.173068e-01 -4.053839e-02 1.281602e-02 -1.219398e-01 -4.549259e-02 -1.885220e-01 3.240901e-01 -4.660834e-02 -1.269756e-01 1.579804e-01 -3.711000e-02 -1.812681e-01 1.122006e-01 -3.150987e-03 -7.156643e-02 2.540123e-02 5.245911e-02 -1.166211e-01 8.680452e-02 1.017632e-02 4.466040e-03 5.056861e-02 4.428440e-02 -1.935506e-02 4.370896e-02 -3.656656e-02 3.318537e-02 -9.048814e-02 8.599941e-02 -7.238987e-02 2.174196e-02 -2.493876e-02 2.064379e-02 -1.811585e-02 2.360927e-02 -3.971911e-02 3.677969e-02 -4.718224e-02 3.074726e-02 -2.191822e-02 2.647732e-02 -3.936417e-02 4.805661e-02 -3.232663e-02 1.106370e-02 -1.804809e-03 1.920425e-02 -3.763582e-02 4.770098e-02 -5.322416e-02 4.679964e-02 -2.076822e-02 -9.050184e-03 5.224625e-03 -7.281570e-04 2.641008e-03 5.290148e-03 -7.998856e-04 -1.257546e-03 4.100434e-03 -1.891328e-03 3.018230e-04 5.668397e-04 -2.548423e-03 -1.207910e-03 6.222853e-04 1.565924e-03 2.341367e-03 4.595749e-04 7.080528e-04 6.373560e-04 -2.135220e-04 -6.642215e-04 -6.435986e-04 -9.425084e-04 -1.642762e-03 2.615212e-06 4.189665e-04 2.246318e-04 1.716467e-04 2.219823e-04 -6.442865e-06 2.071427e-04 1.826509e-04 -2.981949e-04 1.228112e-05 -3.621168e-04 2.827721e-04 1.264360e-04 -4.094789e-04 -4.641472e-04 4.303318e-04 -3.716447e-04 -1.414671e-04 2.337754e-04 -5.462780e-05 3.090026e-06 -3.058859e-04 1.459359e-04 -1.611560e-04 -1.171755e-05 -1.204155e-04 1.460567e-04 1.267178e-04 -4.573336e-04 5.636205e-04 1.183121e-04 -1.858911e-05 -3.009931e-04 4.291199e-04 -4.828103e-04 -1.036978e-02 -2.622745e-03 5.136654e-03 5.724858e-04 -4.231697e-07 1.000139e-03 1.360209e-03 -2.326929e-04 1.294718e-03 -5.506372e-04 -9.813333e-04 1.024148e-03 3.887985e-04 -2.453837e-04 9.038377e-04 -1.031070e-03 4.256068e-04 1.146681e-03 -7.399754e-04 6.250283e-04 4.672899e-04 -9.610103e-04 3.618481e-04 4.024546e-05 3.505433e-05 3.757201e-04 3.168251e-04 3.572438e-05 -2.603447e-04 -5.354420e-05 -4.847471e-04 3.825946e-04 -2.827095e-04 5.102818e-06 -1.475112e-04 -4.133331e-04 4.114683e-04 -3.555738e-04 2.272929e-04 -1.973222e-04 1.038761e-04 -2.388979e-04 -2.951794e-04 2.475811e-04 2.116301e-04 -4.542863e-05 -2.442046e-05 8.505007e-05 -2.229181e-04 2.277857e-04 7.730108e-05 -2.205317e-04 7.626089e-05 6.259244e-05 1.070601e-04 -6.029080e-05 -1.644851e-04 2.343034e-04 3.910573e-05 -3.286003e-04
<VARIANCE> 180
 8.324804e-01 2.293779e-01 2.196673e-01 1.010132e-01 1.686005e-01 1.158189e-01 6.757622e-02 5.672499e-02 4.508204e-02 5.492689e-02 3.936725e-02 3.346176e-02 2.285697e-02 2.670767e-02 2.323938e-02 3.026279e-02 3.491485e-02 2.122021e-02 2.145052e-02 2.058912e-02 1.711629e-02 1.547205e-02 1.421761e-02 1.169250e-02 1.357878e-02 1.047852e-02 1.078244e-02 1.056480e-02 9.097748e-03 8.507668e-03 9.490057e-03 8.978396e-03 8.140490e-03 7.708574e-03 7.469223e-03 7.405995e-03 6.418289e-03 6.019569e-03 5.969116e-03 5.304053e-03 5.439724e-03 4.995119e-03 4.657271e-03 4.667474e-03 4.516262e-03 3.933849e-03 3.610723e-03 3.217622e-03 3.664206e-03 4.214081e-03 4.211647e-03 4.018172e-03 3.575147e-03 3.016397e-03 3.213743e-03 3.215020e-03 3.075331e-03 3.038143e-03 3.054594e-03 3.098001e-03 1.099837e-02 4.748729e-03 4.868369e-03 2.908071e-03 2.532826e-03 2.144908e-03 2.074194e-03 1.700647e-03 1.718213e-03 1.694445e-03 1.623726e-03 1.351343e-03 1.238833e-03 1.360975e-03 1.315207e-03 1.261216e-03 1.181930e-03 1.163830e-03 1.306795e-03 1.145793e-03 1.139563e-03 1.095091e-03 1.045375e-03 9.378636e-04 9.427881e-04 8.742056e-04 9.078763e-04 8.732081e-04 8.324815e-04 7.943130e-04 7.276495e-04 6.994046e-04 7.230139e-04 6.794226e-04 6.845650e-04 6.458653e-04 6.100279e-04 5.889895e-04 5.567305e-04 5.289079e-04 5.054858e-04 5.146925e-04 5.327747e-04 4.897316e-04 4.856234e-04 4.320168e-04 4.297393e-04 4.299302e-04 4.308703e-04 4.295609e-04 3.994760e-04 3.974019e-04 3.770534e-04 3.665905e-04 3.469457e-04 3.427657e-04 3.562766e-04 3.579485e-04 3.259603e-04 3.090848e-04 4.142788e-03 3.148374e-03 3.127351e-03 2.560623e-03 2.320033e-03 2.101585e-03 2.024848e-03 2.117652e-03 2.110623e-03 2.134770e-03 2.049022e-03 1.948145e-03 1.890620e-03 1.943942e-03 1.942404e-03 1.867366e-03 1.754078e-03 1.860344e-03 1.865770e-03 1.818099e-03 1.904857e-03 1.771438e-03 1.685585e-03 1.685200e-03 1.573045e-03 1.489674e-03 1.601696e-03 1.556858e-03 1.588369e-03 1.503742e-03 1.417627e-03 1.337409e-03 1.356737e-03 1.227693e-03 1.306256e-03 1.258695e-03 1.179233e-03 1.166902e-03 1.106979e-03 1.082510e-03 1.035225e-03 1.071082e-03 1.076429e-03 1.022691e-03 1.022591e-03 9.138878e-04 9.138196e-04 8.922955e-04 9.118773e-04 8.641768e-04 8.171136e-04 8.107842e-04 7.686362e-04 7.321392e-04 7.091800e-04 7.638943e-04 7.651239e-04 7.268472e-04 6.761993e-04 6.574808e-04
<GCONST> -7.512439e+02
<STREAM> 2
<NUMMIXES> 2
<MIXTURE> 1 9.779049e-01
<MEAN> 1
 4.645923e+00
<VARIANCE> 1
 4.172835e-02
<GCONST> -1.338697e+00
<MIXTURE> 2 2.209470e-02
<MEAN> 0
<VARIANCE> 0
<GCONST> 0.000000e+00
<STREAM> 3
<NUMMIXES> 2
<MIXTURE> 1 9.763231e-01
<MEAN> 1
 -3.385506e-03
<VARIANCE> 1
 2.714067e-04
<GCONST> -6.374015e+00
<MIXTURE> 2 2.367643e-02
<MEAN> 0
<VARIANCE> 0
<GCONST> 0.000000e+00
<STREAM> 4
<NUMMIXES> 2
<MIXTURE> 1 9.763231e-01
<MEAN> 1
 -9.837623e-05
<VARIANCE> 1
 4.879978e-04
<GCONST> -5.787323e+00
<MIXTURE> 2 2.367643e-02
<MEAN> 0
<VARIANCE> 0
<GCONST> 0.000000e+00
<STREAM> 5
<MEAN> 15
 -6.098295e+00 -3.534404e+00 -3.133277e+00 -2.924783e+00 -2.967998e+00 9.612671e-02 2.789670e-02 1.318909e-02 1.447593e-02 1.432684e-02 9.138410e-02 2.277078e-02 1.800098e-02 1.613477e-02 6.942294e-03
<VARIANCE> 15
 1.364750e+01 3.256090e+00 1.338699e+00 1.053114e+00 1.121855e+00 1.374888e+00 5.683705e-01 3.629279e-01 3.059884e-01 3.061160e-01 9.143911e+00 3.203612e+00 2.437865e+00 2.227369e+00 1.987654e+00
<GCONST> 3.394877e+01
<STATE> 6
<SWEIGHTS> 5
 1.000000e+00 0.000000e+00 0.000000e+00 0.000000e+00 0.000000e+00
<STREAM> 1
<MEAN> 180
 4.436374e+00 1.131695e+00 -1.570673e-01 2.032443e-01 3.274976e-02 2.673511e-01 -1.233528e-01 1.136412e-01 -2.654772e-01 -8.033031e-02 -1.529265e-02 7.626504e-02 -1.882400e-01 -3.140775e-02 -8.045853e-02 2.125133e-01 7.102828e-03 3.178143e-02 5.679470e-02 -1.124599e-02 -1.376158e-01 6.638921e-02 5.232132e-03 -4.203875e-02 2.709108e-02 5.005617e-02 -1.169217e-01 6.321124e-02 -1.160702e-02 3.883676e-02 -8.833725e-03 4.323593e-02 -3.045615e-02 4.645126e-02 -4.443460e-02 4.296655e-02 -7.569617e-02 5.862395e-02 -6.133359e-02 2.549879e-02 -2.477593e-02 2.316311e-02 -3.967378e-02 5.255184e-02 -5.239966e-02 4.429333e-02 -4.077103e-02 1.878881e-02 -1.175812e-02 2.242574e-02 -3.684654e-02 5.574658e-02 -5.118967e-02 3.180413e-02 -1.318014e-02 2.037738e-02 -2.794514e-02 3.876070e-02 -4.784025e-02 4.528710e-02 -5.188053e-02 -6.652395e-02 -7.564628e-03 -3.271854e-03 -9.217293e-03 -1.503663e-03 1.201947e-03 -4.237961e-03 1.315769e-03 2.472731e-03 -1.405188e-03 1.565049e-03 3.830066e-04 7.688756e-04 2.481586e-03 -7.154586e-03 -2.455889e-04 3.903753e-03 -5.803522e-03 9.657125e-04 2.909631e-03 -1.800379e-03 9.282953e-04 2.880272e-03 2.099101e-04 6.675989e-04 1.617702e-03 -1.829842e-03 -1.292602e-03 1.685014e-03 -1.466794e-03 -1.009891e-03 -1.113930e-03 9.816103e-04 -8.790116e-05 7.861234e-04 1.319886e-03 -1.533423e-03 1.736259e-03 1.598323e-04 -4.433744e-04 2.657400e-04 -8.048760e-04 5.763452e-04 4.259731e-06 1.709305e-04 -2.177645e-05 -5.919157e-04 5.679059e-04 -1.995609e-04 2.067975e-04 -2.004250e-04 -3.125645e-04 6.417762e-04 -5.588979e-04 -2.571090e-04 1.302150e-05 2.396259e-04 4.704955e-04 -8.094650e-04 3.803361e-03 -2.524396e-05 -4.932390e-03 1.002633e-03 -3.408545e-05 -1.651790e-03 -1.280951e-03 2.921071e-04 -4.234448e-04 1.705001e-03 -7.232973e-04 -2.727212e-03 8.604357e-04 1.451919e-03 -4.930849e-04 -8.889236e-04 -2.247996e-04 -9.937371e-04 2.046346e-04 2.017822e-04 1.522015e-03 1.026329e-03 -8.765694e-04 -5.105586e-04 -4.363055e-04 -4.523360e-04 2.596886e-04 -9.950581e-04 1.700173e-04 7.629310e-04 -2.950805e-05 -9.997960e-04 1.721519e-04 8.934556e-05 -1.411064e-04 1.163224e-04 6.480853e-05 1.235458e-05 4.188039e-04 6.530817e-04 -2.754003e-04 4.880303e-05 8.612921e-04 -4.489282e-04 -8.249006e-05 4.010006e-04 -3.237273e-04 2.563444e-04 2.112043e-04 3.792442e-04 -3.269164e-04 -2.308179e-04 2.758399e-04 3.126330e-04 -7.855516e-04 -2.579841e-04 1.572762e-04 -7.538975e-05 2.850615e-05 1.934744e-04
<VARIANCE> 180
 1.298575e+00 1.329050e+00 4.558208e-01 1.879575e-01 1.689135e-01 8.326901e-02 8.337955e-02 6.117663e-02 6.132725e-02 5.493599e-02 2.769987e-02 3.025676e-02 2.505386e-02 2.731396e-02 2.201512e-02 2.989180e-02 2.111707e-02 2.489346e-02 2.058099e-02 1.626968e-02 1.487537e-02 1.448383e-02 1.127701e-02 1.360695e-02 1.348231e-02 1.047469e-02 1.146502e-02 9.910254e-03 8.699565e-03 8.222588e-03 8.145999e-03 6.979532e-03 6.648335e-03 6.854506e-03 6.646320e-03 6.612156e-03 5.775108e-03 6.065690e-03 5.276034e-03 5.227087e-03 4.841962e-03 4.714540e-03 4.080971e-03 4.163973e-03 4.030042e-03 3.743800e-03 3.424210e-03 3.302013e-03 3.694673e-03 3.684772e-03 3.219700e-03 3.462095e-03 3.302542e-03 2.982947e-03 2.852388e-03 2.761164e-03 2.654296e-03 2.440334e-03 2.404890e-03 2.251124e-03 2.000942e-02 2.398561e-02 1.031872e-02 6.256997e-03 5.267566e-03 4.032074e-03 4.363216e-03 3.769363e-03 3.896140e-03 3.683227e-03 2.971192e-03 2.965552e-03 2.918567e-03 2.863658e-03 2.942220e-03 2.995448e-03 2.885976e-03 2.836894e-03 2.827197e-03 2.532379e-03 2.391463e-03 2.360612e-03 2.211324e-03 2.090555e-03 2.184328e-03 2.038285e-03 1.872602e-03 1.807900e-03 1.762443e-03 1.730938e-03 1.661705e-03 1.481826e-03 1.470457e-03 1.400029e-03 1.368365e-03 1.332834e-03 1.253155e-03 1.176675e-03 1.110347e-03 9.935902e-04 9.788951e-04 9.282001e-04 8.599050e-04 8.875895e-04 8.154717e-04 7.995506e-04 8.206951e-04 7.231698e-04 7.355502e-04 6.788150e-04 7.085409e-04 6.316544e-04 6.561520e-04 6.042251e-04 6.097444e-04 5.728366e-04 5.559749e-04 4.848888e-04 4.781324e-04 4.971023e-04 1.187225e-02 1.457162e-02 1.123315e-02 8.900292e-03 8.198342e-03 7.995241e-03 7.881398e-03 7.601921e-03 8.023092e-03 7.973127e-03 7.005504e-03 7.128608e-03 6.850904e-03 7.075490e-03 7.504322e-03 6.973567e-03 7.042617e-03 7.367343e-03 7.004193e-03 6.499640e-03 6.703495e-03 6.308771e-03 6.357369e-03 6.173922e-03 5.876882e-03 5.851023e-03 5.310043e-03 5.076639e-03 5.147744e-03 4.880580e-03 4.625386e-03 4.340409e-03 4.292051e-03 4.187864e-03 3.702258e-03 3.888991e-03 3.572785e-03 3.378274e-03 3.252278e-03 2.875199e-03 2.823761e-03 2.685035e-03 2.585515e-03 2.496798e-03 2.465002e-03 2.308564e-03 2.342612e-03 2.121846e-03 2.152985e-03 2.117726e-03 2.011566e-03 1.842293e-03 1.909327e-03 1.775234e-03 1.737832e-03 1.705738e-03 1.632528e-03 1.501322e-03 1.446863e-03 1.488238e-03
<GCONST> -6.437521e+02
<STREAM> 2
<NUMMIXES> 2
<MIXTURE> 1 5.085847e-01
<MEAN> 1
 4.675418e+00
<VARIANCE> 1
 8.181930e-02
<GCONST> -6.653650e-01
<MIXTURE> 2 4.914130e-01
<MEAN> 0
<VARIANCE> 0
<GCONST> 0.000000e+00
<STREAM> 3
<NUMMIXES> 2
<MIXTURE> 1 4.771152e-01
<MEAN> 1
 -5.759240e-03
<VARIANCE> 1
 1.673303e-03
<GCONST> -4.555079e+00
<MIXTURE> 2 5.228831e-01
<MEAN> 0
<VARIANCE> 0
<GCONST> 0.000000e+00
<STREAM> 4
<NUMMIXES> 2
<MIXTURE> 1 4.771152e-01
<MEAN> 1
 3.256033e-04
<VARIANCE> 1
 4.845817e-03
<GCONST> -3.491762e+00
<MIXTURE> 2 5.228831e-01
<MEAN> 0
<VARIANCE> 0
<GCONST> 0.000000e+00
<STREAM> 5
<MEAN> 15
 -1.651569e+00 -1.426008e+00 -1.425559e+00 -1.392805e+00 -1.420900e+00 1.407792e-01 8.018392e-02 7.951664e-02 7.174068e-02 8.003777e-02 -5.229950e-02 -1.609888e-02 6.747810e-03 -9.014777e-03 2.228606e-03
<VARIANCE> 15
 4.388488e+00 2.415361e+00 2.326358e+00 2.227881e+00 2.349497e+00 4.098960e-01 2.612607e-01 2.688538e-01 2.268769e-01 2.337058e-01 2.260209e+00 1.715691e+00 1.633548e+00 1.503673e+00 1.648705e+00
<GCONST> 2.869776e+01
<TRANSP> 7
 0.000000e+00 1.000000e+00 0.000000e+00 0.000000e+00 0.000000e+00 0.000000e+00 0.000000e+00
 0.000000e+00 6.709037e-01 3.290963e-01 0.000000e+00 0.000000e+00 0.000000e+00 0.000000e+00
 0.000000e+00 0.000000e+00 2.381742e-01 7.618259e-01 0.000000e+00 0.000000e+00 0.000000e+00
 0.000000e+00 0.000000e+00 0.000000e+00 4.404936e-01 5.595064e-01 0.000000e+00 0.000000e+00
 0.000000e+00 0.000000e+00 0.000000e+00 0.000000e+00 9.031626e-01 9.683741e-02 0.000000e+00
 0.000000e+00 0.000000e+00 0.000000e+00 0.000000e+00 0.000000e+00 8.099593e-01 1.900406e-01
 0.000000e+00 0.000000e+00 0.000000e+00 0.000000e+00 0.000000e+00 0.000000e+00 0.000000e+00
<ENDHMM>
~h "E"
<BEGINHMM>
<NUMSTATES> 7
<STATE> 2
<SWEIGHTS> 5
 1.000000e+00 0.000000e+00 0.000000e+00 0.000000e+00 0.000000e+00
<STREAM> 1
<MEAN> 180
 4.827863e+00 1.698188e+00 -2.288924e-01 4.279094e-01 3.279687e-02 2.373146e-02 -4.229509e-02 -7.711994e-03 -3.653695e-02 1.599099e-01 -6.473059e-02 7.641363e-02 -1.645622e-01 1.069790e-01 -1.942658e-01 5.267838e-02 -9.022187e-04 -7.239246e-02 5.594131e-03 4.740025e-02 -1.081380e-01 4.459034e-02 4.440637e-03 -1.570189e-02 2.701069e-02 8.715112e-03 -5.334078e-02 6.244676e-02 -3.447918e-02 5.111719e-02 -4.770152e-02 6.381733e-02 -4.951668e-02 5.951378e-02 -4.812565e-02 4.211792e-02 -4.536866e-02 3.793493e-02 -3.473132e-02 3.185210e-02 -4.096835e-02 5.572775e-02 -5.866951e-02 4.779073e-02 -3.147368e-02 1.535733e-02 -1.330029e-02 1.988890e-02 -2.932485e-02 4.087368e-02 -4.529512e-02 3.893863e-02 -2.325883e-02 1.283482e-02 -1.406698e-02 2.746161e-02 -3.918260e-02 4.412539e-02 -4.355895e-02 3.974448e-02 8.337840e-02 -6.780468e-03 -4.088790e-02 -2.834851e-02 -2.033688e-02 -3.347650e-03 -1.071877e-02 -3.185298e-03 7.988009e-03 1.390158e-02 5.238639e-03 5.544298e-03 2.676095e-03 1.427902e-03 -6.022071e-03 8.456707e-04 -3.807806e-03 -8.562019e-03 -6.622372e-04 1.197160e-03 6.197103e-04 5.720882e-04 -2.132135e-03 2.948729e-03 -3.039723e-03 -4.173464e-03 4.259960e-04 3.366055e-04 2.657810e-03 3.449147e-03 -2.540101e-03 2.998198e-03 -7.185170e-04 3.990601e-06 -1.442384e-03 2.744541e-03 -8.735433e-04 1.380516e-03 8.056841e-04 3.215487e-04 -2.269746e-03 2.621606e-03 -1.667826e-03 8.311274e-05 4.222911e-04 -1.828445e-03 -3.117353e-04 2.063710e-03 4.672373e-04 -1.714503e-03 6.812185e-04 1.707877e-04 -9.993869e-04 1.422352e-03 -9.928679e-04 3.958314e-04 -1.368564e-04 -1.102301e-04 -5.222532e-04 1.276659e-03 -2.320398e-02 -9.408845e-04 8.551260e-03 1.012840e-02 5.818949e-03 2.482816e-03 5.475877e-03 2.245956e-03 8.009100e-03 3.559981e-03 -1.446265e-03 -3.259684e-03 1.543569e-03 -5.179748e-03 2.045661e-03 5.095325e-03 4.548486e-03 5.950835e-04 -1.871879e-03 -4.057240e-03 -1.395422e-03 2.956874e-03 2.350169e-03 9.956844e-03 2.236373e-03 -3.334593e-03 -1.276665e-03 -4.396844e-04 -8.931576e-04 3.338367e-03 2.268376e-03 2.807791e-04 1.192611e-03 -2.161975e-03 -2.089314e-03 -2.140223e-03 4.553745e-03 -3.941563e-03 -2.408341e-03 4.033171e-03 -3.321502e-03 -2.116457e-03 7.260928e-04 1.941805e-03 -1.657402e-03 1.144959e-03 7.254188e-05 -1.642850e-03 1.737915e-03 -1.652430e-03 1.998765e-04 2.399194e-03 -3.618627e-03 3.099901e-03 -1.821059e-03 -1.329965e-03 3.325981e-03 -2.559253e-03 6.881169e-04 -2.744469e-06
<VARIANCE> 180
 2.798778e+00 1.493696e+00 2.537710e-01 1.910562e-01 1.034934e-01 9.037875e-02 4.310820e-02 6.345649e-02 6.353073e-02 5.200791e-02 4.496127e-02 2.668153e-02 3.025360e-02 3.779111e-02 3.334022e-02 4.117048e-02 2.432784e-02 1.860540e-02 1.542526e-02 1.945799e-02 1.466159e-02 1.524371e-02 1.291052e-02 1.009941e-02 1.088167e-02 1.059059e-02 9.983363e-03 8.894039e-03 8.827410e-03 6.710844e-03 7.409618e-03 7.316812e-03 7.564855e-03 6.460133e-03 6.782375e-03 5.022470e-03 4.864329e-03 5.338965e-03 4.185818e-03 3.670224e-03 3.953529e-03 3.784263e-03 3.428194e-03 3.344061e-03 3.133555e-03 3.766215e-03 3.549805e-03 2.767193e-03 2.454670e-03 2.632064e-03 2.848613e-03 2.878199e-03 2.215987e-03 1.851863e-03 2.273875e-03 2.475294e-03 2.427641e-03 2.139953e-03 2.438529e-03 2.033029e-03 7.495397e-02 4.422308e-02 1.609199e-02 1.283223e-02 8.056108e-03 6.343136e-03 4.972929e-03 4.619225e-03 6.303299e-03 5.095356e-03 4.980470e-03 4.191381e-03 3.732357e-03 3.654072e-03 4.291301e-03 4.380998e-03 3.503079e-03 2.931385e-03 2.738846e-03 3.133977e-03 2.722034e-03 2.529015e-03 2.523699e-03 2.165547e-03 2.435862e-03 1.940515e-03 1.875972e-03 1.747331e-03 1.693843e-03 1.540592e-03 1.516084e-03 1.527646e-03 1.502165e-03 1.301355e-03 1.230074e-03 1.096471e-03 1.210898e-03 1.097256e-03 9.375770e-04 9.009669e-04 1.041050e-03 9.594843e-04 7.271061e-04 7.934155e-04 7.656690e-04 8.160596e-04 6.630868e-04 6.950204e-04 6.185978e-04 6.612646e-04 6.223482e-04 6.149559e-04 5.087172e-04 5.478876e-04 5.362669e-04 5.277778e-04 5.863420e-04 5.525115e-04 4.983309e-04 4.755652e-04 6.178341e-02 3.682935e-02 2.863948e-02 1.926980e-02 1.970404e-02 1.911774e-02 1.523152e-02 1.433534e-02 1.624637e-02 1.635303e-02 1.516128e-02 1.449974e-02 1.286200e-02 1.503184e-02 1.355642e-02 1.486321e-02 1.194516e-02 1.170921e-02 9.884671e-03 1.051580e-02 9.670372e-03 9.400922e-03 8.988189e-03 7.699795e-03 8.708718e-03 8.378518e-03 8.495929e-03 7.876531e-03 6.185502e-03 5.844473e-03 5.694698e-03 5.482081e-03 5.516998e-03 4.818225e-03 5.749795e-03 5.802881e-03 5.182364e-03 4.941813e-03 4.221392e-03 3.953202e-03 4.740529e-03 4.500359e-03 3.453852e-03 3.856299e-03 3.551399e-03 3.012774e-03 3.012835e-03 2.759744e-03 2.745276e-03 2.783187e-03 2.835880e-03 2.834673e-03 2.501442e-03 2.447668e-03 2.317565e-03 2.246306e-03 2.394951e-03 2.196513e-03 2.204791e-03 1.895449e-03
<GCONST> -6.150117e+02
<STREAM> 2
<NUMMIXES> 2
<MIXTURE> 1 5.897395e-01
<MEAN> 1
 5.116562e+00
<VARIANCE> 1
 8.929511e-02
<GCONST> -5.779314e-01
<MIXTURE> 2 4.102601e-01
<MEAN> 0
<VARIANCE> 0
<GCONST> 0.000000e+00
<STREAM> 3
<NUMMIXES> 2
<MIXTURE> 1 5.554876e-01
<MEAN> 1
 -6.345287e-03
<VARIANCE> 1
 1.329041e-03
<GCONST> -4.785420e+00
<MIXTURE> 2 4.445121e-01
<MEAN> 0
<VARIANCE> 0
<GCONST> 0.000000e+00
<STREAM> 4
<NUMMIXES> 2
<MIXTURE> 1 5.554876e-01
<MEAN> 1
 2.924352e-03
<VARIANCE> 1
 5.959044e-03
<GCONST> -3.284968e+00
<MIXTURE> 2 4.445121e-01
<MEAN> 0
<VARIANCE> 0
<GCONST> 0.000000e+00
<STREAM> 5
<MEAN> 15
 -2.675181e+00 -1.818568e+00 -1.715878e+00 -1.808481e+00 -1.802932e+00 -1.810997e-01 -1.230649e-02 4.107330e-03 5.380298e-02 -7.109120e-04 -4.838116e-02 -2.464975e-02 -1.164983e-01 -6.756194e-02 2.450048e-02
<VARIANCE> 15
 9.814539e+00 3.528401e+00 2.685295e+00 3.182849e+00 3.245615e+00 1.446585e+00 6.749277e-01 5.044008e-01 5.345399e-01 5.408760e-01 7.926536e+00 3.983146e+00 3.446064e+00 3.541072e+00 4.393878e+00
<GCONST> 3.992065e+01
<STATE> 3
<SWEIGHTS> 5
 1.000000e+00 0.000000e+00 0.000000e+00 0.000000e+00 0.000000e+00
<STREAM> 1
<MEAN> 180
 5.187903e+00 1.501810e+00 -5.642292e-01 3.420346e-01 -3.596102e-02 6.372669e-02 -1.094810e-01 1.932341e-02 -2.840106e-02 2.109203e-01 2.694808e-02 1.026981e-01 -1.537219e-01 7.696038e-02 -1.815717e-01 1.155847e-01 -6.841760e-02 -6.678663e-02 1.375951e-02 8.175232e-03 -7.794922e-02 3.593400e-02 7.937188e-04 1.079348e-02 2.418635e-02 4.139409e-03 -6.158934e-02 6.248252e-02 -4.045632e-02 6.140442e-02 -5.654661e-02 5.251365e-02 -1.782400e-02 4.371563e-02 -3.960638e-02 3.257381e-02 -5.374277e-02 5.048602e-02 -5.055705e-02 4.236327e-02 -4.962906e-02 5.060289e-02 -5.418179e-02 5.340493e-02 -3.865182e-02 1.841535e-02 -1.118170e-02 1.667619e-02 -2.895610e-02 4.547484e-02 -5.144519e-02 4.298684e-02 -2.819762e-02 1.803515e-02 -1.405736e-02 1.892686e-02 -2.731974e-02 4.151665e-02 -5.305598e-02 5.273069e-02 -1.619720e-02 -1.184452e-02 -5.280018e-03 -9.960292e-03 -3.543391e-03 2.594411e-03 2.203526e-03 -5.156347e-04 5.544689e-03 4.881441e-03 -1.709662e-03 -8.861569e-05 1.055947e-03 -5.604953e-04 4.220571e-03 4.982387e-04 1.383316e-03 4.801899e-06 7.613320e-04 1.026411e-04 -9.873288e-04 -1.697657e-04 -9.171254e-04 3.529472e-03 -4.750479e-04 -1.224617e-03 1.870825e-03 -2.487658e-03 1.782341e-03 1.961827e-03 -2.509361e-03 5.584073e-04 -7.911309e-04 9.301580e-04 -1.004189e-03 -7.014513e-04 7.287231e-04 -1.329240e-03 8.717959e-05 4.670743e-04 -1.730394e-03 7.025519e-04 -5.449698e-05 -9.920739e-06 -2.553075e-04 5.009294e-04 9.789073e-05 -4.569534e-04 8.739867e-04 -1.169200e-03 7.047783e-04 3.357828e-04 -1.506673e-03 1.777310e-03 -1.000789e-03 -3.481864e-04 8.483562e-04 -9.205680e-05 4.184703e-05 -9.970183e-04 -2.864796e-02 -2.151687e-03 1.000021e-02 6.221829e-03 7.679836e-03 2.509210e-03 7.391577e-03 2.819843e-03 -3.290051e-03 -5.397299e-03 -4.840476e-03 -3.806729e-03 -1.702927e-03 1.033070e-03 2.249975e-03 -1.124011e-03 4.257336e-03 3.578729e-03 -2.001550e-04 -8.525555e-04 -1.353511e-04 -5.996131e-04 -8.036050e-04 -2.596823e-03 -1.790455e-03 4.316616e-03 2.133741e-03 -2.101238e-03 -4.224101e-05 -1.485295e-03 7.351069e-05 -8.042874e-04 -1.475516e-03 8.585915e-04 4.021518e-04 5.951788e-04 -1.419622e-03 1.415802e-04 -2.132542e-04 -1.827151e-03 1.502371e-03 6.106742e-05 7.493295e-04 -8.407182e-04 -8.426140e-04 2.703435e-03 -8.747671e-04 -8.087206e-04 6.821654e-04 -8.416688e-05 6.647632e-04 -5.188904e-04 -2.291172e-04 -1.271947e-04 1.057637e-03 -5.998122e-04 -8.846080e-05 5.203829e-05 1.001172e-03 -1.280500e-03
<VARIANCE> 180
 2.314480e+00 1.789599e+00 2.575161e-01 1.273203e-01 1.425774e-01 6.472345e-02 5.520327e-02 7.178175e-02 7.664135e-02 4.786887e-02 5.038946e-02 2.918748e-02 4.033044e-02 3.509458e-02 3.125086e-02 3.515184e-02 2.839223e-02 1.440037e-02 1.766243e-02 2.485795e-02 1.588081e-02 2.061248e-02 1.200919e-02 1.119883e-02 1.151092e-02 8.995466e-03 1.021844e-02 9.599018e-03 9.723001e-03 7.641454e-03 8.102916e-03 7.138734e-03 7.828714e-03 5.974691e-03 5.195559e-03 5.658683e-03 5.176941e-03 5.192025e-03 5.450346e-03 3.978904e-03 4.038787e-03 4.173379e-03 3.659411e-03 2.819151e-03 3.301266e-03 3.212628e-03 3.070397e-03 3.112068e-03 2.933786e-03 3.095293e-03 2.770175e-03 2.751447e-03 2.401899e-03 1.952298e-03 2.201034e-03 2.364015e-03 2.515375e-03 2.307659e-03 2.641396e-03 2.535405e-03 2.038956e-02 1.220249e-02 7.428487e-03 5.204063e-03 4.466254e-03 3.490490e-03 3.397467e-03 3.387404e-03 3.551848e-03 3.012560e-03 3.131408e-03 2.783190e-03 2.801199e-03 2.702525e-03 2.860262e-03 2.983237e-03 2.499862e-03 2.325484e-03 2.261578e-03 2.443057e-03 2.231168e-03 1.985315e-03 2.273630e-03 1.998639e-03 1.913788e-03 1.846244e-03 1.824674e-03 1.752053e-03 1.714908e-03 1.309114e-03 1.298074e-03 1.307457e-03 1.278948e-03 1.377864e-03 1.130259e-03 1.103663e-03 1.016043e-03 9.791136e-04 8.337714e-04 8.296074e-04 8.705409e-04 8.493054e-04 7.777531e-04 7.293897e-04 7.352651e-04 7.017003e-04 6.559228e-04 6.349184e-04 6.715961e-04 5.968320e-04 5.474786e-04 5.674134e-04 5.221115e-04 4.862010e-04 4.946046e-04 4.916853e-04 4.886134e-04 4.495498e-04 4.923387e-04 4.556029e-04 1.281615e-02 1.148018e-02 1.037967e-02 8.722527e-03 7.427042e-03 8.083623e-03 7.557563e-03 7.641342e-03 7.849944e-03 7.116899e-03 8.061842e-03 7.384352e-03 7.515193e-03 7.162774e-03 7.313835e-03 7.738756e-03 6.958171e-03 6.254704e-03 6.360743e-03 6.990991e-03 6.983528e-03 5.901751e-03 6.482266e-03 5.543913e-03 5.259781e-03 5.223001e-03 4.591689e-03 4.884219e-03 4.599218e-03 4.108113e-03 4.705046e-03 4.209135e-03 3.781220e-03 3.742357e-03 3.202418e-03 3.494911e-03 3.094689e-03 3.111752e-03 2.625063e-03 2.708375e-03 2.744642e-03 2.468810e-03 2.308241e-03 2.522899e-03 2.477130e-03 2.356434e-03 2.093743e-03 2.089395e-03 2.181462e-03 1.830311e-03 1.756169e-03 1.677970e-03 1.575360e-03 1.459791e-03 1.618702e-03 1.530273e-03 1.564423e-03 1.482344e-03 1.507345e-03 1.440771e-03
<GCONST> -6.584739e+02
<STREAM> 2
<NUMMIXES> 2
<MIXTURE> 1 5.606524e-01
<MEAN> 1
 4.911469e+00
<VARIANCE> 1
 9.262604e-02
<GCONST> -5.413079e-01
<MIXTURE> 2 4.393465e-01
<MEAN> 0
<VARIANCE> 0
<GCONST> 0.000000e+00
<STREAM> 3
<NUMMIXES> 2
<MIXTURE> 1 5.440497e-01
<MEAN> 1
 -6.656214e-03
<VARIANCE> 1
 6.811628e-04
<GCONST> -5.453833e+00
<MIXTURE> 2 4.559493e-01
<MEAN> 0
<VARIANCE> 0
<GCONST> 0.000000e+00
<STREAM> 4
<NUMMIXES> 2
<MIXTURE> 1 5.430643e-01
<MEAN> 1
 1.570271e-03
<VARIANCE> 1
 2.602865e-03
<GCONST> -4.113266e+00
<MIXTURE> 2 4.569347e-01
<MEAN> 0
<VARIANCE> 0
<GCONST> 0.000000e+00
<STREAM> 5
<MEAN> 15
 -3.417214e+00 -2.005127e+00 -1.845296e+00 -1.730725e+00 -1.719759e+00 -4.789503e-02 8.765039e-03 -1.160244e-02 -1.058190e-02 1.492303e-02 1.210033e-01 3.214508e-02 5.126845e-02 -2.462823e-02 -1.233122e-02
<VARIANCE> 15
 1.712009e+01 5.065950e+00 3.498178e+00 2.954472e+00 2.941023e+00 1.444397e+00 5.133749e-01 3.764101e-01 3.923952e-01 3.394561e-01 7.410447e+00 3.275579e+00 2.666015e+00 2.169806e+00 2.283482e+00
<GCONST> 3.792355e+01
<STATE> 4
<SWEIGHTS> 5
 1.000000e+00 0.000000e+00 0.000000e+00 0.000000e+00 0.000000e+00
<STREAM> 1
<MEAN> 180
 5.918682e+00 2.406244e+00 -2.661029e-01 3.587208e-01 -5.370925e-02 -5.454629e-02 -3.256373e-02 -1.028225e-01 1.067311e-01 3.002943e-01 -1.712718e-01 7.911036e-02 -2.041241e-01 1.781055e-01 -2.179216e-01 -1.477011e-02 1.144813e-01 -1.031404e-01 1.780766e-02 8.277136e-02 -1.495834e-01 9.365272e-02 -5.056814e-02 3.616245e-02 8.759565e-03 -2.376051e-02 8.468276e-03 3.998416e-03 -1.311961e-02 5.684920e-02 -8.120510e-02 1.163317e-01 -1.254048e-01 1.282593e-01 -1.028502e-01 6.289839e-02 -3.237789e-02 1.099428e-02 -1.009590e-02 2.379785e-02 -5.229262e-02 7.056630e-02 -7.141577e-02 5.326501e-02 -3.216594e-02 8.865719e-03 -2.427837e-04 2.963825e-03 -1.271201e-02 2.761325e-02 -3.562851e-02 3.750049e-02 -3.387313e-02 2.972973e-02 -2.735336e-02 3.053243e-02 -3.494225e-02 3.874266e-02 -3.856190e-02 3.572394e-02 -2.502003e-02 -7.687919e-03 1.259424e-02 5.627080e-03 1.278041e-02 4.022137e-03 6.057091e-03 6.940354e-03 2.521932e-03 -1.979727e-03 -7.820302e-03 -4.959940e-03 3.321160e-03 -3.451864e-03 2.380691e-03 3.250330e-03 1.833505e-03 1.748680e-03 -7.181910e-04 -2.325395e-03 3.122406e-04 4.687178e-04 -2.651989e-03 2.565041e-03 5.155091e-04 -5.699184e-04 1.790922e-03 -5.532242e-04 1.210573e-04 -3.078647e-04 -5.878471e-04 3.957050e-04 1.381405e-04 -9.956491e-04 5.634344e-05 5.412912e-04 -8.728317e-04 6.877930e-04 -1.456618e-03 -1.386710e-04 3.233012e-04 3.086512e-04 -1.875011e-03 1.776071e-03 -2.107857e-03 2.942142e-03 -1.762208e-03 3.076694e-04 6.495747e-04 -8.425831e-04 4.857459e-04 4.408211e-04 -5.705963e-04 -4.617708e-04 9.099044e-04 -5.309925e-04 5.468270e-04 -9.883656e-04 1.507166e-03 -1.277381e-03 -3.243934e-02 3.487007e-03 1.384258e-02 7.868683e-03 9.631201e-03 6.488716e-05 -7.925743e-04 -1.781997e-04 4.940387e-05 -3.022918e-03 1.941112e-03 1.697977e-04 8.505885e-04 -2.946370e-03 1.886422e-04 -1.968665e-05 -4.620210e-03 -9.768116e-04 -3.733387e-04 1.149171e-03 1.135425e-03 -1.963820e-03 1.943146e-03 -1.760493e-03 4.120611e-03 -2.255198e-05 -2.638795e-03 4.372461e-03 -1.954371e-03 -2.976648e-03 9.649422e-04 -3.501675e-04 3.397849e-03 -3.529644e-03 2.534515e-03 -5.835181e-04 -1.179643e-03 9.374787e-04 4.373473e-04 5.886871e-04 1.546063e-03 -1.067615e-03 -2.170586e-03 6.701858e-04 2.723298e-03 -2.395390e-03 9.463273e-05 1.583865e-03 -2.613937e-03 1.503905e-03 -9.641891e-04 -2.222092e-04 3.619371e-03 -4.651504e-03 8.232237e-04 3.083754e-03 -3.336769e-03 9.311694e-04 5.623546e-04 -5.907939e-04
<VARIANCE> 180
 2.248728e+00 1.003314e+00 2.200631e-01 1.033712e-01 7.161680e-02 7.338278e-02 4.221540e-02 4.690267e-02 5.787266e-02 4.658215e-02 5.612881e-02 2.334151e-02 2.023611e-02 2.961205e-02 2.970774e-02 3.337827e-02 2.503320e-02 1.715003e-02 1.397191e-02 1.865410e-02 1.179295e-02 1.221822e-02 1.076282e-02 1.053787e-02 8.528074e-03 7.516745e-03 1.064981e-02 1.035577e-02 8.913020e-03 7.156150e-03 8.319240e-03 8.203166e-03 9.956408e-03 9.807702e-03 8.321942e-03 6.065673e-03 5.117214e-03 4.544541e-03 4.746808e-03 3.615349e-03 3.328276e-03 3.381328e-03 3.078077e-03 2.587777e-03 2.789577e-03 3.263224e-03 3.108214e-03 2.966319e-03 2.587074e-03 2.615837e-03 2.547271e-03 2.282052e-03 2.001003e-03 1.884924e-03 2.053259e-03 2.023153e-03 2.047153e-03 2.160408e-03 2.209710e-03 2.099486e-03 1.915276e-02 1.201650e-02 8.459465e-03 5.380232e-03 4.419402e-03 3.514724e-03 3.425574e-03 2.965809e-03 3.034638e-03 2.629488e-03 2.556469e-03 2.250612e-03 2.058149e-03 2.177438e-03 2.164141e-03 2.197394e-03 2.094820e-03 1.826596e-03 1.650168e-03 1.709300e-03 1.934471e-03 1.550632e-03 1.585734e-03 1.447586e-03 1.391250e-03 1.390977e-03 1.219616e-03 1.206830e-03 1.234868e-03 1.149354e-03 1.044764e-03 9.764803e-04 9.264802e-04 9.048542e-04 9.439914e-04 8.581351e-04 8.304335e-04 8.068967e-04 7.325425e-04 6.366659e-04 7.482243e-04 7.530186e-04 6.480037e-04 6.524716e-04 6.110315e-04 5.777703e-04 5.190211e-04 5.741721e-04 6.143447e-04 5.047627e-04 4.546461e-04 4.417221e-04 4.256421e-04 4.026528e-04 3.699338e-04 3.967416e-04 3.922653e-04 3.603377e-04 4.009186e-04 4.089008e-04 1.663138e-02 1.199904e-02 1.475888e-02 1.243156e-02 1.162639e-02 1.082370e-02 1.129651e-02 9.460645e-03 9.416576e-03 9.463387e-03 8.890598e-03 9.556351e-03 8.658965e-03 8.132002e-03 9.355628e-03 8.743973e-03 8.485442e-03 7.247577e-03 7.399695e-03 7.285595e-03 7.743483e-03 7.104352e-03 7.842236e-03 6.553571e-03 6.132573e-03 5.810545e-03 5.984379e-03 6.025140e-03 6.085661e-03 5.185640e-03 5.035282e-03 5.477674e-03 4.993990e-03 4.574282e-03 4.664202e-03 4.465944e-03 4.335250e-03 3.736174e-03 3.570593e-03 3.695761e-03 3.976620e-03 3.841265e-03 3.700898e-03 3.784728e-03 3.484055e-03 3.119676e-03 3.059661e-03 3.198666e-03 3.199982e-03 3.005616e-03 2.843821e-03 2.636054e-03 2.550253e-03 2.350502e-03 2.364685e-03 2.538922e-03 2.547862e-03 2.352683e-03 2.250022e-03 2.273666e-03
<GCONST> -6.600517e+02
<STREAM> 2
<NUMMIXES> 2
<MIXTURE> 1 8.187280e-01
<MEAN> 1
 5.255414e+00
<VARIANCE> 1
 6.197547e-02
<GCONST> -9.431396e-01
<MIXTURE> 2 1.812721e-01
<MEAN> 0
<VARIANCE> 0
<GCONST> 0.000000e+00
<STREAM> 3
<NUMMIXES> 2
<MIXTURE> 1 8.011355e-01
<MEAN> 1
 -2.736302e-03
<VARIANCE> 1
 4.323045e-04
<GCONST> -5.908504e+00
<MIXTURE> 2 1.988643e-01
<MEAN> 0
<VARIANCE> 0
<GCONST> 0.000000e+00
<STREAM> 4
<NUMMIXES> 2
<MIXTURE> 1 8.011353e-01
<MEAN> 1
 1.814697e-03
<VARIANCE> 1
 1.252373e-03
<GCONST> -4.844838e+00
<MIXTURE> 2 1.988645e-01
<MEAN> 0
<VARIANCE> 0
<GCONST> 0.000000e+00
<STREAM> 5
<MEAN> 15
 -6.060337e+00 -2.877971e+00 -2.727351e+00 -2.889098e+00 -2.634873e+00 2.349324e-01 4.765071e-02 3.513692e-02 3.548614e-02 -9.492734e-03 1.697794e-01 4.594453e-02 2.236190e-02 9.754078e-02 2.769784e-02
<VARIANCE> 15
 2.295038e+01 4.806740e+00 3.875407e+00 3.869337e+00 3.080571e+00 2.889145e+00 1.053228e+00 1.026503e+00 9.111254e-01 7.799758e-01 1.687453e+01 7.280708e+00 8.647561e+00 8.999693e+00 7.948992e+00
<GCONST> 4.814032e+01
<STATE> 5
<SWEIGHTS> 5
 1.000000e+00 0.000000e+00 0.000000e+00 0.000000e+00 0.000000e+00
<STREAM> 1
<MEAN> 180
 4.193858e+00 1.394286e+00 -1.491236e-01 3.579109e-01 8.159025e-02 1.128633e-01 -2.874832e-03 1.671636e-02 -4.054808e-02 1.400938e-01 -5.222271e-02 8.720646e-02 -1.450893e-01 8.167192e-02 -1.157433e-01 7.762150e-02 -3.522216e-03 -4.149391e-02 1.077523e-03 1.454292e-02 -9.174471e-02 4.076086e-02 -8.214803e-03 6.242333e-03 1.746675e-02 1.073942e-02 -4.542449e-02 4.610874e-02 -2.661717e-02 4.916104e-02 -5.161174e-02 6.368043e-02 -4.285894e-02 5.101775e-02 -3.954748e-02 3.459496e-02 -5.469317e-02 4.047498e-02 -3.968235e-02 2.324096e-02 -3.782456e-02 5.446724e-02 -6.170061e-02 4.906008e-02 -3.378081e-02 2.294321e-02 -2.245683e-02 2.156761e-02 -2.167515e-02 3.040451e-02 -3.856467e-02 4.238795e-02 -2.996374e-02 1.586897e-02 -1.522623e-02 2.587469e-02 -3.457294e-02 4.093710e-02 -4.185072e-02 3.514163e-02 -1.504237e-01 5.159627e-03 6.221177e-02 3.141680e-02 4.317029e-02 6.916263e-03 1.563239e-02 1.169979e-02 6.460917e-03 -5.891741e-03 -1.359623e-03 -7.391308e-03 2.731675e-03 -3.761326e-03 4.752496e-03 -9.181439e-04 8.265893e-04 -2.005697e-03 -2.043580e-03 2.151978e-03 6.599087e-03 -1.758113e-03 3.375392e-03 2.045983e-03 -2.564365e-04 1.334015e-03 -1.476037e-03 5.985700e-04 8.058996e-05 -5.810031e-03 1.180631e-03 -3.500727e-03 -2.406383e-05 -7.025262e-04 2.279924e-03 -3.262062e-04 -1.778899e-03 -4.948264e-04 1.203588e-03 -1.031699e-03 3.270499e-03 -1.524520e-03 -1.575225e-03 2.431923e-04 5.165027e-04 -7.644627e-04 1.024639e-03 8.487492e-04 -3.132083e-03 8.018598e-04 1.718521e-03 -2.932323e-03 4.354195e-03 -3.534789e-03 -1.033872e-03 3.836704e-03 -2.052325e-03 -1.470163e-03 2.514092e-03 -1.736042e-03 -2.191326e-03 1.557897e-02 7.740173e-03 9.518556e-03 2.889726e-03 7.452415e-03 -5.134221e-04 -4.228487e-03 -2.143900e-03 -2.009908e-03 1.891216e-03 -3.467365e-03 3.108956e-03 2.207505e-03 -4.746244e-03 5.069068e-04 2.582238e-03 -2.731878e-03 -1.853080e-03 4.560157e-03 6.193217e-03 -2.743332e-03 -1.368164e-03 1.538528e-03 -7.037827e-03 -2.066615e-03 1.241043e-03 -3.681374e-03 3.949878e-03 -1.551202e-03 3.117968e-03 -1.408023e-03 -3.020576e-03 3.464054e-03 -3.510284e-03 2.071179e-03 3.167296e-03 -3.559231e-04 6.247626e-05 9.937605e-04 -2.404375e-05 1.231219e-03 2.776298e-03 -1.882851e-03 -3.224899e-03 5.908141e-04 2.301301e-03 -7.550943e-04 -4.093015e-03 3.460383e-03 1.127793e-03 -4.579045e-03 1.828184e-03 3.772569e-03 -4.465570e-03 -8.459856e-04 4.339705e-03 -3.377162e-03 3.820023e-04 1.203571e-03
<VARIANCE> 180
 3.664348e+00 1.376107e+00 2.579576e-01 1.343146e-01 9.266435e-02 8.071818e-02 4.821241e-02 5.485663e-02 6.053967e-02 4.850439e-02 4.446562e-02 2.353554e-02 2.772420e-02 3.350132e-02 3.731563e-02 3.140328e-02 2.439891e-02 1.633860e-02 1.415350e-02 1.829324e-02 1.468642e-02 1.571406e-02 1.274505e-02 1.036883e-02 1.094301e-02 1.002753e-02 1.089763e-02 8.070153e-03 8.278435e-03 6.947274e-03 7.826486e-03 7.349047e-03 7.581157e-03 7.402795e-03 6.751099e-03 5.613285e-03 5.711227e-03 5.189263e-03 4.946512e-03 3.876405e-03 3.571219e-03 4.024356e-03 3.973171e-03 3.007710e-03 3.014765e-03 3.040003e-03 2.552299e-03 3.017837e-03 2.382321e-03 2.544050e-03 2.563616e-03 2.455303e-03 2.224367e-03 1.985421e-03 1.903047e-03 1.986915e-03 2.414278e-03 2.436648e-03 2.290183e-03 1.890437e-03 7.362491e-02 3.836385e-02 1.755907e-02 1.240420e-02 9.019937e-03 6.182352e-03 6.259988e-03 4.949546e-03 6.087740e-03 5.643995e-03 5.270304e-03 3.938710e-03 3.718907e-03 3.533473e-03 4.211488e-03 4.507982e-03 3.498074e-03 3.031844e-03 2.833833e-03 3.044178e-03 2.832409e-03 3.092861e-03 3.054656e-03 2.431733e-03 2.319804e-03 2.289836e-03 2.375484e-03 2.135813e-03 2.001394e-03 1.804174e-03 1.766629e-03 1.760806e-03 1.602503e-03 1.500194e-03 1.265045e-03 1.349752e-03 1.296585e-03 1.133833e-03 1.266704e-03 1.243934e-03 9.394886e-04 8.967203e-04 9.789838e-04 9.099342e-04 9.974152e-04 9.917978e-04 7.821250e-04 8.657845e-04 7.693353e-04 6.791503e-04 7.345423e-04 6.144968e-04 5.959866e-04 5.591789e-04 5.447267e-04 5.447632e-04 6.059353e-04 5.338495e-04 5.696780e-04 5.048537e-04 4.937240e-02 3.088351e-02 2.064457e-02 1.878600e-02 1.704719e-02 1.473896e-02 1.357364e-02 1.263017e-02 1.546071e-02 1.362322e-02 1.268311e-02 1.250375e-02 1.323201e-02 1.252128e-02 1.234543e-02 1.265980e-02 1.109712e-02 1.005040e-02 1.055079e-02 1.025666e-02 1.100127e-02 9.397623e-03 9.106620e-03 8.381694e-03 8.835211e-03 7.762323e-03 7.677876e-03 6.503895e-03 6.844269e-03 7.204648e-03 5.925066e-03 6.806008e-03 5.602621e-03 5.216454e-03 5.410501e-03 5.249305e-03 5.159223e-03 4.290815e-03 4.148984e-03 3.653809e-03 3.749991e-03 3.614789e-03 3.582076e-03 3.481098e-03 3.452171e-03 3.307714e-03 2.725134e-03 2.759000e-03 2.622973e-03 2.498445e-03 2.458722e-03 2.411055e-03 2.019108e-03 2.071465e-03 1.734080e-03 1.930819e-03 2.075860e-03 1.863542e-03 1.990709e-03 1.729885e-03
<GCONST> -6.164390e+02
<STREAM> 2
<NUMMIXES> 2
<MIXTURE> 1 4.529398e-01
<MEAN> 1
 5.034442e+00
<VARIANCE> 1
 1.124907e-01
<GCONST> -3.470078e-01
<MIXTURE> 2 5.470604e-01
<MEAN> 0
<VARIANCE> 0
<GCONST> 0.000000e+00
<STREAM> 3
<NUMMIXES> 2
<MIXTURE> 1 4.254767e-01
<MEAN> 1
 -4.383274e-03
<VARIANCE> 1
 1.199735e-03
<GCONST> -4.887778e+00
<MIXTURE> 2 5.745235e-01
<MEAN> 0
<VARIANCE> 0
<GCONST> 0.000000e+00
<STREAM> 4
<NUMMIXES> 2
<MIXTURE> 1 4.254767e-01
<MEAN> 1
 -2.564162e-04
<VARIANCE> 1
 5.726012e-03
<GCONST> -3.324859e+00
<MIXTURE> 2 5.745235e-01
<MEAN> 0
<VARIANCE> 0
<GCONST> 0.000000e+00
<STREAM> 5
<MEAN> 15
 -1.839852e+00 -1.315516e+00 -1.330917e+00 -1.317299e+00 -1.399903e+00 2.002293e-01 3.487334e-02 3.562573e-03 2.543328e-02 -1.599622e-02 -2.320555e-01 -1.677192e-01 -8.088510e-02 -1.576652e-01 -3.569419e-02
<VARIANCE> 15
 6.324307e+00 2.646601e+00 2.691006e+00 2.618574e+00 2.939124e+00 1.296711e+00 6.080261e-01 4.669148e-01 4.050949e-01 4.441203e-01 5.131744e+00 3.169971e+00 2.553923e+00 2.841129e+00 3.204513e+00
<GCONST> 3.663744e+01
<STATE> 6
<SWEIGHTS> 5
 1.000000e+00 0.000000e+00 0.000000e+00 0.000000e+00 0.000000e+00
<STREAM> 1
<MEAN> 180
 5.340065e+00 1.963485e+00 -3.525748e-01 5.738178e-01 5.842709e-02 1.663128e-03 8.331848e-03 -3.788613e-02 1.076631e-01 2.609679e-01 -1.443650e-01 1.359104e-02 -1.708740e-01 1.422659e-01 -2.822402e-01 3.600481e-02 5.028200e-02 -1.316350e-01 1.429632e-02 1.058955e-01 -9.184003e-02 1.755759e-02 -2.109197e-02 4.845029e-02 3.138052e-03 -1.500491e-02 -1.802416e-02 4.561045e-02 -2.630428e-02 4.120073e-02 -5.431147e-02 7.668746e-02 -7.118894e-02 7.916252e-02 -7.136671e-02 5.465247e-02 -3.931856e-02 2.558925e-02 -2.378460e-02 2.957170e-02 -5.208797e-02 7.583817e-02 -8.594244e-02 6.901068e-02 -4.601063e-02 2.334788e-02 -1.083902e-02 1.116886e-02 -2.050650e-02 2.717515e-02 -2.623831e-02 2.080636e-02 -1.310943e-02 1.227182e-02 -1.948421e-02 3.032065e-02 -3.583479e-02 3.437677e-02 -2.892485e-02 2.441206e-02 -4.522628e-02 -1.634976e-02 1.540687e-02 1.547405e-02 7.732921e-03 8.817863e-03 1.720908e-03 -1.768507e-03 -5.958241e-03 -7.349457e-03 5.504150e-03 2.958218e-03 4.974316e-03 5.494418e-04 3.201789e-03 8.093261e-04 -3.801880e-03 1.522582e-03 -1.522312e-03 -2.550927e-03 3.797473e-03 -2.875768e-03 7.245668e-04 -7.152194e-04 -9.148838e-04 8.577622e-04 -9.372318e-04 1.756502e-03 -1.831119e-03 -2.234313e-04 1.617601e-03 -8.902305e-04 1.404096e-03 -2.688274e-03 2.325067e-03 -2.309675e-03 1.682284e-03 3.285513e-04 -1.802790e-03 6.672788e-04 1.275049e-04 -5.103189e-04 1.910109e-03 -1.632253e-03 7.950235e-05 1.089427e-03 -1.589072e-03 1.660102e-03 -1.666708e-03 3.023184e-04 7.773669e-04 -1.013042e-03 6.722521e-04 3.473156e-04 -9.798522e-04 4.144409e-04 4.387293e-04 -8.121233e-04 4.700710e-04 -1.442555e-04 3.319329e-03 -7.432286e-03 -4.589150e-03 1.627849e-03 -5.698424e-03 -3.628978e-04 -6.684836e-04 -3.589038e-04 -2.309490e-03 -2.973311e-03 1.304964e-03 4.434405e-05 1.807188e-04 -2.442136e-04 9.012780e-04 -4.649662e-04 -1.354127e-03 1.759986e-03 1.828788e-04 -2.771680e-03 1.848738e-04 1.465250e-03 -2.491643e-04 -1.534537e-03 4.755220e-04 1.170960e-03 3.208236e-04 -1.866106e-04 -1.801419e-03 2.304110e-03 -3.183034e-05 1.596948e-04 6.090074e-04 -8.752033e-04 1.430561e-03 -1.049511e-03 -1.582655e-04 -7.982588e-05 -2.390216e-04 -3.383686e-04 -5.518665e-04 -6.540597e-05 1.160241e-03 -3.167359e-04 -1.039564e-04 5.429049e-04 -1.650772e-03 1.001437e-03 1.095386e-03 -1.007567e-03 1.726640e-05 8.928750e-04 -1.333055e-03 6.628360e-04 8.801251e-04 -1.084468e-03 2.747069e-04 3.747723e-04 -6.958985e-04 5.677835e-04
<VARIANCE> 180
 1.744196e+00 8.573797e-01 3.860050e-01 1.343342e-01 8.260698e-02 7.223042e-02 4.450215e-02 4.895055e-02 4.551475e-02 3.843741e-02 4.439413e-02 2.684613e-02 2.413537e-02 2.527431e-02 2.581893e-02 2.656113e-02 2.557830e-02 2.213943e-02 1.381367e-02 1.729587e-02 1.338031e-02 1.306746e-02 1.082496e-02 1.126767e-02 8.491377e-03 8.416726e-03 8.137277e-03 9.819101e-03 8.081190e-03 7.293863e-03 8.079041e-03 7.372702e-03 8.093921e-03 7.853390e-03 6.551623e-03 5.760159e-03 4.674120e-03 4.238667e-03 3.544244e-03 3.509261e-03 3.578876e-03 3.467416e-03 3.377664e-03 3.287793e-03 3.143030e-03 3.344526e-03 3.255523e-03 3.214388e-03 2.898224e-03 2.812784e-03 2.592646e-03 2.614143e-03 2.242758e-03 1.916544e-03 1.922591e-03 2.078794e-03 2.023702e-03 1.969344e-03 1.888228e-03 1.702039e-03 9.952786e-02 4.849942e-02 2.614497e-02 1.415205e-02 1.097118e-02 8.898913e-03 6.894777e-03 5.973087e-03 6.184172e-03 6.406718e-03 5.344540e-03 4.658839e-03 4.503749e-03 4.119483e-03 4.404516e-03 4.029859e-03 4.113401e-03 3.368229e-03 3.018617e-03 2.882512e-03 2.844990e-03 2.750972e-03 2.431096e-03 2.222169e-03 2.000720e-03 2.051997e-03 1.853887e-03 1.898225e-03 1.573822e-03 1.650373e-03 1.408575e-03 1.491219e-03 1.351908e-03 1.302869e-03 1.258092e-03 1.155061e-03 1.129800e-03 1.091882e-03 9.987098e-04 9.589677e-04 8.374735e-04 8.747174e-04 8.217426e-04 7.792132e-04 7.198676e-04 7.190223e-04 7.126316e-04 7.549925e-04 6.274020e-04 5.976082e-04 6.260132e-04 5.998015e-04 5.525799e-04 5.328985e-04 4.811956e-04 5.218358e-04 5.348258e-04 5.100018e-04 4.888375e-04 4.492514e-04 8.555780e-02 5.073838e-02 4.886234e-02 3.326869e-02 3.273927e-02 2.794915e-02 2.738255e-02 2.403711e-02 2.762813e-02 2.733526e-02 2.378117e-02 2.341802e-02 2.333464e-02 2.086712e-02 2.143990e-02 2.062036e-02 2.134353e-02 1.722324e-02 1.553897e-02 1.537813e-02 1.529670e-02 1.404063e-02 1.365307e-02 1.271233e-02 1.159480e-02 1.154482e-02 1.066277e-02 9.693826e-03 9.721292e-03 9.129466e-03 8.321126e-03 8.418369e-03 7.321948e-03 7.394657e-03 7.455586e-03 6.890084e-03 6.691251e-03 6.363751e-03 5.529378e-03 5.505919e-03 5.044181e-03 5.187365e-03 4.884347e-03 4.552720e-03 4.749717e-03 4.341737e-03 4.149491e-03 4.208131e-03 4.113961e-03 3.726884e-03 3.725960e-03 3.769546e-03 3.409696e-03 3.249057e-03 3.147626e-03 3.185106e-03 3.345984e-03 3.188745e-03 2.996996e-03 2.806870e-03
<GCONST> -5.963135e+02
<STREAM> 2
<NUMMIXES> 2
<MIXTURE> 1 7.839538e-01
<MEAN> 1
 5.279970e+00
<VARIANCE> 1
 3.561864e-02
<GCONST> -1.497009e+00
<MIXTURE> 2 2.160438e-01
<MEAN> 0
<VARIANCE> 0
<GCONST> 0.000000e+00
<STREAM> 3
<NUMMIXES> 2
<MIXTURE> 1 7.300587e-01
<MEAN> 1
 -2.138386e-03
<VARIANCE> 1
 1.291357e-03
<GCONST> -4.814184e+00
<MIXTURE> 2 2.699393e-01
<MEAN> 0
<VARIANCE> 0
<GCONST> 0.000000e+00
<STREAM> 4
<NUMMIXES> 2
<MIXTURE> 1 7.288406e-01
<MEAN> 1
 4.092955e-04
<VARIANCE> 1
 5.299367e-03
<GCONST> -3.402291e+00
<MIXTURE> 2 2.711575e-01
<MEAN> 0
<VARIANCE> 0
<GCONST> 0.000000e+00
<STREAM> 5
<MEAN> 15
 -2.835407e+00 -2.186792e+00 -2.203933e+00 -2.358645e+00 -2.267894e+00 3.275116e-02 2.454519e-02 1.823915e-02 2.419438e-02 3.917806e-02 -3.218738e-02 1.529162e-02 6.875051e-03 2.723773e-02 1.512006e-02
<VARIANCE> 15
 6.493298e+00 2.480407e+00 2.580099e+00 2.896688e+00 2.567758e+00 1.374716e+00 6.581444e-01 7.054310e-01 8.066297e-01 6.800162e-01 8.064334e+00 5.307233e+00 6.470290e+00 6.457901e+00 5.814260e+00
<GCONST> 4.150158e+01
<TRANSP> 7
 0.000000e+00 1.000000e+00 0.000000e+00 0.000000e+00 0.000000e+00 0.000000e+00 0.000000e+00
 0.000000e+00 3.352934e-01 6.647066e-01 0.000000e+00 0.000000e+00 0.000000e+00 0.000000e+00
 0.000000e+00 0.000000e+00 6.757516e-01 3.242484e-01 0.000000e+00 0.000000e+00 0.000000e+00
 0.000000e+00 0.000000e+00 0.000000e+00 5.973216e-01 4.026784e-01 0.000000e+00 0.000000e+00
 0.000000e+00 0.000000e+00 0.000000e+00 0.000000e+00 3.420728e-01 6.579272e-01 0.000000e+00
 0.000000e+00 0.000000e+00 0.000000e+00 0.000000e+00 0.000000e+00 7.996135e-01 2.003864e-01
 0.000000e+00 0.000000e+00 0.000000e+00 0.000000e+00 0.000000e+00 0.000000e+00 0.000000e+00
<ENDHMM>
~h "G"
<BEGINHMM>
<NUMSTATES> 7
<STATE> 2
<SWEIGHTS> 5
 1.000000e+00 0.000000e+00 0.000000e+00 0.000000e+00 0.000000e+00
<STREAM> 1
<MEAN> 180
 5.443698e+00 2.775020e+00 -5.642399e-04 6.146078e-01 3.788897e-01 -1.064387e-01 -2.179654e-02 3.616724e-01 -3.019183e-01 -2.899201e-02 -5.156430e-02 -4.042868e-02 -1.405243e-01 6.227089e-02 -2.214858e-01 2.584086e-01 -1.955408e-02 -1.305793e-01 1.331146e-01 -5.836107e-02 -1.837978e-01 1.221622e-01 -4.046677e-02 -6.851363e-02 5.548464e-02 5.110908e-02 -1.003653e-01 9.868503e-02 -1.959481e-03 3.760867e-02 2.302012e-02 3.763517e-02 2.426695e-02 -2.467912e-04 -1.690244e-02 4.953543e-02 -1.029451e-01 9.082205e-02 -7.894652e-02 2.492574e-02 -1.973892e-02 1.588592e-02 -2.143913e-02 3.107605e-02 -4.736375e-02 4.547178e-02 -6.115806e-02 4.130790e-02 -2.200514e-02 1.793729e-02 -1.914749e-02 2.477739e-02 -1.641073e-02 -2.707714e-04 6.719370e-03 1.497474e-02 -4.307077e-02 6.738678e-02 -7.902040e-02 6.676610e-02 1.750357e-03 3.401358e-03 -4.236380e-03 -1.055269e-02 5.338714e-04 4.842138e-03 -5.401299e-04 5.377135e-04 2.003286e-03 -1.216293e-03 5.805246e-04 8.077718e-04 -7.895718e-04 -6.176936e-05 1.997429e-04 3.031552e-03 1.358461e-03 -2.165791e-03 2.817384e-04 3.035337e-04 -1.630972e-04 -9.110225e-04 1.926138e-04 1.179054e-03 -1.732225e-03 -2.544834e-04 1.257358e-03 -5.337687e-04 -1.324414e-04 6.391128e-04 7.229302e-04 2.487792e-04 2.331209e-04 -1.323200e-04 -6.586312e-04 2.661805e-04 -1.364635e-03 6.609020e-04 1.037552e-04 -9.227351e-04 1.293605e-04 -1.144251e-04 -3.596438e-04 5.053023e-04 -1.209689e-04 -8.883339e-04 5.656467e-04 -1.672980e-04 -2.609779e-04 2.490078e-04 1.223435e-04 8.029496e-05 -1.747505e-04 4.192999e-05 2.031695e-04 1.182396e-04 -2.775066e-04 2.885924e-04 -1.064114e-04 6.051295e-05 -1.319341e-02 -1.435949e-03 6.687992e-03 -1.276183e-03 1.425334e-04 2.686085e-03 7.078334e-04 -1.133626e-03 3.526710e-03 -5.311527e-04 -1.377468e-03 1.350126e-03 -6.776945e-04 -1.144144e-03 1.712968e-03 -7.614341e-05 1.711853e-04 2.247290e-04 -1.274960e-03 6.307804e-04 3.523478e-04 -5.748431e-04 8.576393e-04 -4.599393e-04 -6.699359e-04 1.056222e-04 6.426021e-05 -6.051384e-04 1.890385e-05 -4.181633e-04 -1.867689e-04 2.488344e-04 -5.948673e-04 -1.789683e-05 2.104340e-04 -2.419383e-04 4.702737e-04 1.184802e-06 -1.275336e-04 5.918419e-04 -7.684709e-05 -3.472962e-04 -1.073752e-04 4.160165e-04 8.551551e-05 -2.229870e-04 3.626002e-04 -4.195399e-05 -3.933682e-05 1.649233e-05 5.607783e-05 2.090195e-05 -9.313469e-05 -1.183461e-04 1.495177e-05 2.584756e-05 3.400887e-05 -3.316292e-04 5.091816e-04 -4.101198e-04
<VARIANCE> 180
 6.586809e-01 2.509017e-01 2.969953e-01 1.983488e-01 2.657303e-01 1.474774e-01 5.648227e-02 6.960330e-02 3.866593e-02 4.082347e-02 5.592612e-02 4.592222e-02 2.757351e-02 2.550478e-02 2.509666e-02 2.720499e-02 4.153179e-02 2.468797e-02 1.953639e-02 2.006893e-02 1.737723e-02 2.280192e-02 1.435238e-02 1.227407e-02 1.327880e-02 1.179814e-02 9.675874e-03 1.004566e-02 8.584044e-03 7.636564e-03 7.881044e-03 9.365816e-03 7.656009e-03 6.867964e-03 6.208461e-03 5.854168e-03 6.547723e-03 6.004135e-03 6.027375e-03 5.145206e-03 5.104800e-03 5.436121e-03 4.172776e-03 4.640328e-03 4.776468e-03 4.246761e-03 3.673219e-03 3.145563e-03 3.406710e-03 3.887068e-03 3.490081e-03 3.043944e-03 2.722796e-03 2.959612e-03 2.863401e-03 2.771688e-03 2.666767e-03 3.025169e-03 3.062556e-03 2.664945e-03 9.934000e-03 3.390228e-03 5.117296e-03 3.196913e-03 2.668733e-03 2.296078e-03 1.871683e-03 1.731541e-03 1.693263e-03 1.584774e-03 1.567107e-03 1.458522e-03 1.292599e-03 1.276383e-03 1.404966e-03 1.323771e-03 1.312584e-03 1.231912e-03 1.158068e-03 1.085622e-03 1.038759e-03 1.063755e-03 8.976996e-04 9.074836e-04 8.813633e-04 8.665367e-04 8.468548e-04 8.069387e-04 7.714396e-04 7.656895e-04 7.132639e-04 7.056269e-04 6.949934e-04 6.081750e-04 6.334353e-04 5.784921e-04 5.926706e-04 5.600621e-04 5.365229e-04 5.089159e-04 4.811858e-04 4.937234e-04 4.754790e-04 4.617751e-04 4.467466e-04 4.344442e-04 3.990327e-04 3.802193e-04 3.810351e-04 3.780785e-04 3.658036e-04 3.445242e-04 3.166356e-04 3.335957e-04 3.115112e-04 3.316035e-04 3.085229e-04 3.310104e-04 3.084968e-04 2.884154e-04 4.209396e-03 2.808461e-03 3.759728e-03 2.607404e-03 2.297083e-03 2.285121e-03 2.025538e-03 2.101734e-03 2.046484e-03 1.898848e-03 1.994509e-03 1.933362e-03 1.971396e-03 1.921853e-03 1.997752e-03 1.999018e-03 2.046397e-03 1.989032e-03 1.778610e-03 1.747998e-03 1.664689e-03 1.757335e-03 1.616078e-03 1.665391e-03 1.457999e-03 1.504754e-03 1.533235e-03 1.429871e-03 1.456473e-03 1.380484e-03 1.401861e-03 1.309019e-03 1.283908e-03 1.143297e-03 1.211118e-03 1.143918e-03 1.146261e-03 1.063034e-03 1.013650e-03 9.849822e-04 9.291158e-04 1.037957e-03 9.456273e-04 9.522248e-04 9.011650e-04 8.522164e-04 8.116046e-04 8.174978e-04 7.838275e-04 7.858539e-04 7.642460e-04 6.729955e-04 6.577322e-04 6.704612e-04 6.291143e-04 7.296864e-04 6.712502e-04 6.447842e-04 6.138209e-04 6.365990e-04
<GCONST> -7.572282e+02
<STREAM> 2
<NUMMIXES> 2
<MIXTURE> 1 9.811467e-01
<MEAN> 1
 4.657508e+00
<VARIANCE> 1
 3.418373e-02
<GCONST> -1.538128e+00
<MIXTURE> 2 1.885361e-02
<MEAN> 0
<VARIANCE> 0
<GCONST> 0.000000e+00
<STREAM> 3
<NUMMIXES> 2
<MIXTURE> 1 9.787921e-01
<MEAN> 1
 -3.255588e-03
<VARIANCE> 1
 2.446758e-04
<GCONST> -6.477699e+00
<MIXTURE> 2 2.120821e-02
<MEAN> 0
<VARIANCE> 0
<GCONST> 0.000000e+00
<STREAM> 4
<NUMMIXES> 2
<MIXTURE> 1 9.787921e-01
<MEAN> 1
 1.157591e-03
<VARIANCE> 1
 5.050746e-04
<GCONST> -5.752928e+00
<MIXTURE> 2 2.120821e-02
<MEAN> 0
<VARIANCE> 0
<GCONST> 0.000000e+00
<STREAM> 5
<MEAN> 15
 -7.018094e+00 -3.532734e+00 -3.263224e+00 -2.994093e+00 -3.054446e+00 1.821546e-02 -3.133245e-03 -7.019560e-03 5.698353e-04 3.497602e-03 1.110656e-01 1.318571e-02 2.153311e-02 8.466426e-03 2.572285e-02
<VARIANCE> 15
 1.353774e+01 3.032694e+00 1.552469e+00 1.036077e+00 1.099615e+00 1.611945e+00 5.985424e-01 4.358680e-01 3.295703e-01 3.175926e-01 1.113891e+01 3.277647e+00 3.000840e+00 2.224901e+00 2.340373e+00
<GCONST> 3.507664e+01
<STATE> 3
<SWEIGHTS> 5
 1.000000e+00 0.000000e+00 0.000000e+00 0.000000e+00 0.000000e+00
<STREAM> 1
<MEAN> 180
 5.155834e+00 2.880752e+00 2.583142e-01 4.786917e-01 3.666205e-01 7.494019e-02 -5.066617e-02 3.024912e-01 -1.811916e-01 -8.299071e-02 -1.142291e-01 1.238605e-02 -1.784562e-01 5.844185e-03 -1.346277e-01 2.365977e-01 6.136952e-03 -1.192131e-01 8.412261e-02 1.211578e-02 -1.796820e-01 5.553672e-02 5.764132e-04 -4.986861e-02 6.593201e-03 6.996672e-02 -6.296705e-02 7.729135e-02 1.637950e-02 2.826998e-02 6.204604e-03 5.343444e-02 -1.566625e-02 2.211251e-03 -2.214196e-02 3.656204e-02 -8.672778e-02 7.836894e-02 -7.362637e-02 2.879762e-02 -2.476018e-02 2.024001e-02 -2.126340e-02 2.076456e-02 -2.469419e-02 2.433018e-02 -4.696203e-02 5.191765e-02 -4.653027e-02 4.283008e-02 -3.422177e-02 2.783735e-02 -1.285118e-02 -3.488993e-04 2.128496e-03 2.183945e-02 -4.187211e-02 5.157693e-02 -5.166760e-02 4.409636e-02 -4.165743e-02 -1.183327e-02 1.035826e-02 -6.222825e-03 4.387529e-03 1.752439e-02 4.791868e-03 3.638531e-04 1.165820e-02 -4.992067e-03 -6.573089e-03 2.615395e-03 -1.521643e-03 -5.176500e-03 6.202540e-03 -2.485373e-03 3.097273e-03 4.222126e-03 -1.394598e-03 4.444109e-03 1.038118e-03 -1.656257e-03 2.591546e-03 -2.587642e-03 -3.673309e-03 -1.627861e-03 6.821218e-04 -2.487616e-03 1.055280e-03 7.202609e-04 -2.064283e-03 1.203179e-03 -1.156401e-03 -3.915148e-04 -8.751710e-05 -5.897761e-04 1.752963e-03 -1.012305e-03 -1.603978e-04 3.138285e-04 3.090071e-04 -1.398448e-03 4.575716e-04 1.337517e-03 -9.746460e-05 -5.054206e-04 6.266952e-04 -3.540071e-04 1.926080e-04 -1.390927e-04 -6.619141e-04 1.264343e-03 -6.734278e-04 6.979535e-06 8.354528e-05 1.010719e-04 -4.937759e-05 -1.296574e-03 2.321337e-03 -1.824242e-03 -1.055959e-02 -8.255200e-03 2.285844e-03 1.738490e-04 2.317229e-04 4.834958e-03 8.235851e-04 -2.136851e-03 6.400751e-04 1.881644e-03 3.356721e-05 9.428721e-04 3.186605e-03 4.151204e-05 3.234174e-04 -2.758633e-03 9.603188e-04 1.021465e-03 1.052849e-03 2.386135e-03 -1.366833e-04 -1.727823e-03 -5.372174e-04 -4.364978e-04 1.321361e-03 -9.697934e-04 -7.173060e-04 -1.388409e-04 -3.777720e-04 4.369651e-04 -1.326772e-03 3.808600e-04 1.330000e-03 3.299477e-04 -9.612646e-04 2.615285e-04 1.326745e-04 -5.063337e-04 1.143620e-03 -6.150425e-04 -4.972078e-04 4.186109e-04 -3.358909e-04 6.770722e-06 7.379032e-04 -8.463403e-05 -6.633842e-04 1.260485e-04 5.509054e-04 -6.511306e-04 -4.565699e-04 9.330369e-04 -8.327588e-04 5.694192e-04 -1.170930e-04 -2.670822e-04 -5.023644e-05 5.101593e-04 -6.665965e-04 9.267138e-05
<VARIANCE> 180
