~o
<STREAMINFO> 5 180 1 1 1 15
<MSDINFO> 5 0 1 1 1 0
<VECSIZE> 198<NULLD><USER><DIAGC>
~h "C"
<BEGINHMM>
<NUMSTATES> 7
<STATE> 2
<SWEIGHTS> 5
 1.000000e+00 0.000000e+00 0.000000e+00 0.000000e+00 0.000000e+00
<STREAM> 1
<MEAN> 180
 5.377743e+00 1.485795e+00 1.669177e-01 1.296291e+00 4.522752e-02 4.238653e-01 -2.045507e-01 4.173903e-01 -2.260846e-01 6.837664e-02 -1.967915e-01 2.067919e-01 -2.113296e-01 1.015914e-01 -1.314963e-01 8.541828e-02 -1.835292e-01 1.877817e-02 -1.457968e-01 8.738239e-02 -7.846478e-02 1.649124e-03 -4.178076e-02 8.068936e-02 -3.893289e-02 5.794191e-02 -6.218530e-02 6.455718e-02 -2.469900e-02 7.488650e-02 -8.601192e-02 8.208984e-02 -4.856189e-02 3.189962e-02 -2.649359e-02 4.045771e-02 -4.569786e-02 4.658398e-02 -5.225002e-02 4.775852e-02 -4.562136e-02 3.815493e-02 -3.403975e-02 3.079438e-02 -3.135990e-02 2.664070e-02 -1.899685e-02 6.721886e-03 -6.555761e-04 1.720566e-03 -1.004531e-02 1.173987e-02 -7.147547e-03 3.514089e-03 -4.426240e-03 7.817218e-03 -1.395526e-02 1.985533e-02 -2.109071e-02 1.932969e-02 3.075762e-03 -7.925196e-02 -1.727677e-02 1.821218e-02 -1.560664e-02 -7.273853e-03 7.511178e-03 9.997767e-03 -5.882119e-03 4.593980e-03 5.566861e-03 3.585741e-03 -3.082850e-03 -2.394784e-04 -7.657463e-03 1.166815e-03 8.098233e-04 -5.781647e-03 -1.874607e-03 5.387644e-03 -4.091674e-03 2.148693e-03 -8.511629e-04 3.357947e-03 -4.100760e-03 9.417475e-04 2.670415e-03 -1.637711e-03 -4.316644e-04 2.010204e-03 -8.458589e-04 3.985206e-05 1.256499e-03 -1.237448e-03 9.337231e-05 1.026383e-03 -1.238721e-03 1.156060e-03 -6.065509e-04 6.356568e-06 -2.405987e-04 2.419766e-04 -4.117349e-05 -2.250877e-05 -7.160367e-04 1.517048e-03 -1.349193e-03 2.842440e-04 1.415208e-05 7.619656e-04 -1.235302e-03 7.864243e-04 8.670404e-05 -7.866486e-04 1.081715e-03 -6.604254e-04 1.205485e-04 3.147423e-04 -4.109312e-04 4.369291e-04 4.657554e-03 1.139269e-02 1.544335e-03 -4.435335e-03 -7.812034e-04 1.151180e-03 -9.770318e-04 -1.491397e-03 -1.447661e-03 -5.556601e-04 -4.928514e-04 -1.580962e-03 1.666611e-04 6.187477e-04 8.897322e-04 -7.240925e-04 -9.291022e-04 1.499334e-03 1.254093e-03 -8.498630e-04 1.365726e-03 4.303075e-04 6.719001e-04 -7.857532e-05 -1.026527e-03 2.935042e-04 5.127687e-04 -4.544223e-04 -1.065095e-03 4.955128e-04 1.662249e-03 -2.945926e-04 -2.388116e-04 -2.761579e-04 -4.218243e-04 1.449863e-04 -1.407916e-04 -6.799822e-05 1.559703e-04 -1.161940e-04 3.623459e-04 6.178919e-05 -6.648483e-04 2.169209e-04 5.473956e-04 -6.881651e-04 5.901890e-04 1.330018e-04 -6.676082e-04 3.090327e-04 2.400251e-04 -2.744920e-04 4.444868e-06 4.948891e-05 -8.909138e-05 4.834181e-05 3.001948e-04 -6.165334e-04 3.955726e-04 -6.050503e-05
<VARIANCE> 180
 4.998991e-01 9.857312e-01 1.683283e-01 1.411760e-01 1.124449e-01 5.595563e-02 6.726767e-02 4.100277e-02 4.790845e-02 3.118245e-02 3.682898e-02 3.310183e-02 2.321000e-02 2.435998e-02 2.576388e-02 2.411608e-02 1.975637e-02 2.505909e-02 2.177929e-02 1.489201e-02 1.604089e-02 1.690307e-02 1.247507e-02 1.175507e-02 1.189888e-02 9.791180e-03 7.223371e-03 7.315324e-03 6.897401e-03 6.843802e-03 5.839440e-03 4.986264e-03 4.999074e-03 4.339748e-03 4.153643e-03 5.460781e-03 4.597974e-03 4.389708e-03 4.631875e-03 4.353914e-03 4.520482e-03 4.188058e-03 3.625369e-03 3.076960e-03 3.927464e-03 3.686315e-03 3.641749e-03 3.484839e-03 3.477306e-03 3.917924e-03 4.084482e-03 3.234814e-03 2.766519e-03 2.864108e-03 3.060518e-03 2.850850e-03 2.616621e-03 2.375877e-03 2.433180e-03 2.490685e-03 2.287572e-02 3.295804e-02 1.519778e-02 1.285693e-02 1.074765e-02 7.898025e-03 8.496410e-03 7.048832e-03 6.737276e-03 5.925708e-03 5.625295e-03 5.073152e-03 5.316377e-03 4.702485e-03 5.646425e-03 4.286520e-03 3.949960e-03 4.240273e-03 3.770674e-03 3.291151e-03 3.637657e-03 3.590592e-03 3.035091e-03 2.657478e-03 2.381742e-03 2.177946e-03 2.133876e-03 1.903762e-03 1.781994e-03 1.720396e-03 1.678666e-03 1.493673e-03 1.350143e-03 1.287135e-03 1.236317e-03 1.330924e-03 1.149588e-03 1.095823e-03 1.075782e-03 1.009246e-03 9.906365e-04 8.944838e-04 9.641164e-04 8.517141e-04 8.560250e-04 7.942143e-04 7.972661e-04 8.154091e-04 7.776486e-04 7.149154e-04 7.987769e-04 7.390965e-04 6.537536e-04 6.909487e-04 6.348013e-04 5.540315e-04 5.759585e-04 5.698727e-04 5.146728e-04 4.937244e-04 3.882650e-02 3.582517e-02 3.473040e-02 3.209918e-02 2.824647e-02 2.881858e-02 2.725192e-02 2.655509e-02 2.847007e-02 2.477221e-02 2.422029e-02 2.482320e-02 2.251584e-02 2.332758e-02 2.500978e-02 2.137778e-02 2.092858e-02 2.015990e-02 1.923694e-02 1.725418e-02 1.836642e-02 1.863683e-02 1.519142e-02 1.467932e-02 1.245350e-02 1.191236e-02 1.209934e-02 1.055428e-02 9.851317e-03 8.874274e-03 8.751551e-03 7.914725e-03 7.946765e-03 7.196303e-03 7.085592e-03 6.931762e-03 6.721131e-03 5.815919e-03 5.764879e-03 5.456859e-03 5.260765e-03 4.742734e-03 4.672925e-03 4.730953e-03 4.587610e-03 4.171247e-03 4.769829e-03 4.241543e-03 3.876924e-03 3.748023e-03 4.129418e-03 3.927725e-03 3.623051e-03 3.597649e-03 3.749602e-03 3.182126e-03 2.908102e-03 2.899884e-03 2.722665e-03 2.749342e-03
<GCONST> -5.907546e+02
<STREAM> 2
<NUMMIXES> 2
<MIXTURE> 1 8.188958e-01
<MEAN> 1
 5.225279e+00
<VARIANCE> 1
 2.647588e-02
<GCONST> -1.793644e+00
<MIXTURE> 2 1.811046e-01
<MEAN> 0
<VARIANCE> 0
<GCONST> 0.000000e+00
<STREAM> 3
<NUMMIXES> 2
<MIXTURE> 1 7.745202e-01
<MEAN> 1
 -1.743483e-03
<VARIANCE> 1
 1.074612e-03
<GCONST> -4.997919e+00
<MIXTURE> 2 2.254799e-01
<MEAN> 0
<VARIANCE> 0
<GCONST> 0.000000e+00
<STREAM> 4
<NUMMIXES> 2
<MIXTURE> 1 7.621253e-01
<MEAN> 1
 -3.302018e-04
<VARIANCE> 1
 3.881932e-03
<GCONST> -3.713545e+00
<MIXTURE> 2 2.378747e-01
<MEAN> 0
<VARIANCE> 0
<GCONST> 0.000000e+00
<STREAM> 5
<MEAN> 15
 -2.597666e+00 -2.355004e+00 -2.292953e+00 -2.373023e+00 -2.244339e+00 1.006520e-01 4.730508e-02 3.725360e-02 3.506842e-02 2.798883e-02 -2.270368e-02 -3.907004e-03 -1.128996e-02 -2.337703e-02 -3.629728e-03
<VARIANCE> 15
 5.491597e+00 2.494781e+00 2.444427e+00 2.542025e+00 2.265677e+00 8.523935e-01 6.587541e-01 6.621828e-01 6.792144e-01 6.181545e-01 6.210707e+00 5.962270e+00 5.679389e+00 5.936511e+00 5.509058e+00
<GCONST> 3.980915e+01
<STATE> 3
<SWEIGHTS> 5
 1.000000e+00 0.000000e+00 0.000000e+00 0.000000e+00 0.000000e+00
<STREAM> 1
<MEAN> 180
 5.385673e+00 1.206217e+00 5.521065e-02 1.312442e+00 -3.849977e-02 3.737993e-01 -2.115643e-01 4.315744e-01 -2.340617e-01 8.546571e-02 -1.809005e-01 2.167937e-01 -2.122819e-01 1.143544e-01 -1.403237e-01 9.105682e-02 -1.769120e-01 3.043208e-03 -1.581924e-01 1.027372e-01 -9.442144e-02 8.240811e-03 -3.872561e-02 8.601006e-02 -5.076692e-02 5.536319e-02 -5.109692e-02 5.958448e-02 -2.946106e-02 8.531219e-02 -8.257667e-02 7.827876e-02 -4.566073e-02 2.731492e-02 -2.386664e-02 4.295464e-02 -5.258528e-02 5.376048e-02 -5.613787e-02 4.753768e-02 -4.551450e-02 3.994326e-02 -3.682811e-02 3.350187e-02 -3.624899e-02 3.269276e-02 -2.388585e-02 9.838442e-03 -2.623979e-03 2.731303e-03 -8.517995e-03 9.325176e-03 -5.742143e-03 4.111079e-03 -4.635485e-03 6.972048e-03 -1.127343e-02 1.760636e-02 -2.144539e-02 2.168873e-02 3.105322e-02 1.763092e-02 -4.103272e-03 5.637266e-05 -7.376416e-03 -7.143416e-03 -8.416452e-03 1.391429e-03 -4.269826e-03 -1.966639e-03 1.722848e-03 -1.849964e-03 1.632129e-03 1.032043e-03 2.434442e-03 1.786757e-03 -1.443484e-03 3.318533e-03 -2.263158e-03 1.357519e-03 2.488602e-03 -7.175308e-04 2.232713e-03 -5.189838e-04 2.127108e-04 -1.341966e-03 8.248535e-04 -9.655778e-04 -1.678527e-03 1.305997e-03 5.110509e-05 -1.581996e-04 -1.990504e-04 -1.308211e-03 1.561649e-03 -5.556213e-04 -1.075153e-03 1.824403e-03 -1.220505e-03 2.654612e-04 3.914144e-04 -1.555993e-04 -2.661943e-04 4.893889e-04 -5.773477e-04 4.345990e-04 2.975962e-04 -8.883959e-04 1.329820e-03 -1.354398e-03 1.565015e-03 -1.493393e-03 8.446084e-04 -1.970451e-04 -7.789297e-05 2.425040e-05 2.867308e-04 -2.990708e-04 -7.616761e-05 2.711334e-04 8.433856e-03 2.167105e-02 2.440404e-03 -5.414280e-03 4.227906e-03 1.943039e-03 -3.951393e-03 -2.529086e-03 1.308387e-03 -6.259572e-04 -1.038046e-03 -5.750478e-04 1.154738e-03 4.269558e-06 1.038200e-03 1.468053e-04 -3.110335e-04 2.096249e-03 -4.161832e-04 -8.434115e-04 1.693276e-03 -6.374754e-04 1.847774e-04 -7.679377e-04 9.823829e-04 -3.042444e-04 -4.781985e-04 4.187421e-04 -3.445923e-04 -1.843681e-04 -1.023864e-04 -2.025926e-04 -2.734725e-04 3.775688e-04 -2.583932e-05 -6.470591e-06 -2.124568e-04 2.477034e-04 -1.130166e-04 1.713578e-04 -2.503780e-05 -5.251634e-06 -7.757411e-05 1.042374e-04 -1.424689e-05 -2.074254e-04 1.411628e-04 8.206060e-05 4.854294e-05 -3.331724e-04 4.551602e-04 -3.831281e-04 2.891518e-04 -1.870745e-04 5.993632e-05 -4.874023e-06 3.164796e-05 -1.660488e-04 3.423837e-04 -4.088360e-04
<VARIANCE> 180
 4.309421e-01 8.294154e-01 1.608633e-01 1.267283e-01 1.014727e-01 5.026437e-02 6.524972e-02 3.921291e-02 3.576294e-02 2.807754e-02 2.854431e-02 2.433282e-02 2.213795e-02 2.400965e-02 2.501735e-02 2.377022e-02 1.914349e-02 2.326585e-02 2.177527e-02 1.311416e-02 1.481765e-02 1.575884e-02 1.308236e-02 1.129091e-02 1.291907e-02 1.060573e-02 7.522269e-03 7.596914e-03 7.007374e-03 6.587752e-03 6.010072e-03 5.301085e-03 5.243577e-03 5.149614e-03 4.563644e-03 5.451039e-03 4.368079e-03 4.923721e-03 4.615104e-03 3.716413e-03 3.987496e-03 3.697103e-03 3.248158e-03 3.188070e-03 3.806317e-03 3.718382e-03 3.716668e-03 3.409716e-03 3.068056e-03 3.438293e-03 3.731418e-03 3.304892e-03 2.990516e-03 2.886306e-03 2.885733e-03 3.043736e-03 2.997526e-03 2.515261e-03 2.480748e-03 2.447857e-03 2.286685e-02 3.926963e-02 1.446106e-02 1.095689e-02 1.092714e-02 7.041490e-03 8.042954e-03 6.388349e-03 6.013335e-03 5.687443e-03 5.090964e-03 4.819605e-03 5.111047e-03 4.596659e-03 5.130494e-03 3.971466e-03 3.968216e-03 4.056813e-03 3.996287e-03 3.374435e-03 3.404903e-03 3.282917e-03 2.966795e-03 2.664484e-03 2.456536e-03 2.226792e-03 2.059245e-03 1.942799e-03 1.845606e-03 1.754311e-03 1.640655e-03 1.529728e-03 1.408133e-03 1.369145e-03 1.311405e-03 1.371804e-03 1.169484e-03 1.118302e-03 1.077711e-03 1.013163e-03 1.002057e-03 8.621562e-04 9.164477e-04 8.100952e-04 7.535666e-04 7.712662e-04 7.244915e-04 8.127982e-04 7.231958e-04 6.742777e-04 7.613454e-04 7.323445e-04 6.392158e-04 6.648509e-04 6.103556e-04 5.440775e-04 5.689244e-04 5.431903e-04 4.910890e-04 4.598771e-04 3.110223e-02 2.870246e-02 3.208650e-02 2.862339e-02 2.790184e-02 2.721608e-02 2.587339e-02 2.451565e-02 2.640975e-02 2.340213e-02 2.255975e-02 2.292562e-02 2.270253e-02 2.412961e-02 2.460806e-02 2.038498e-02 2.207233e-02 1.842896e-02 1.873040e-02 1.729848e-02 1.613064e-02 1.559933e-02 1.501861e-02 1.363724e-02 1.207078e-02 1.139461e-02 1.083073e-02 9.993826e-03 9.770110e-03 8.780139e-03 8.384566e-03 7.542217e-03 7.715502e-03 7.153857e-03 7.026154e-03 6.399072e-03 6.292709e-03 5.464380e-03 5.429214e-03 5.233599e-03 5.040541e-03 4.427929e-03 4.481662e-03 4.129957e-03 3.911799e-03 3.852418e-03 3.910612e-03 3.823440e-03 3.601169e-03 3.441901e-03 3.778308e-03 3.492051e-03 3.345683e-03 3.363827e-03 3.295586e-03 2.767883e-03 2.870934e-03 2.814499e-03 2.448331e-03 2.441484e-03
<GCONST> -5.984959e+02
<STREAM> 2
<NUMMIXES> 2
<MIXTURE> 1 7.434002e-01
<MEAN> 1
 5.199034e+00
<VARIANCE> 1
 3.813576e-02
<GCONST> -1.428726e+00
<MIXTURE> 2 2.566004e-01
<MEAN> 0
<VARIANCE> 0
<GCONST> 0.000000e+00
<STREAM> 3
<NUMMIXES> 2
<MIXTURE> 1 6.856936e-01
<MEAN> 1
 2.469344e-03
<VARIANCE> 1
 1.619565e-03
<GCONST> -4.587721e+00
<MIXTURE> 2 3.143066e-01
<MEAN> 0
<VARIANCE> 0
<GCONST> 0.000000e+00
<STREAM> 4
<NUMMIXES> 2
<MIXTURE> 1 6.695283e-01
<MEAN> 1
 -6.253216e-04
<VARIANCE> 1
 5.916267e-03
<GCONST> -3.292173e+00
<MIXTURE> 2 3.304721e-01
<MEAN> 0
<VARIANCE> 0
<GCONST> 0.000000e+00
<STREAM> 5
<MEAN> 15
 -2.259863e+00 -2.068091e+00 -2.054529e+00 -2.144278e+00 -2.039819e+00 -4.031492e-02 -2.842659e-02 -2.024848e-02 -2.763607e-02 -2.120267e-02 -3.330654e-02 -2.134780e-02 -1.420357e-02 -1.009613e-02 -1.384328e-02
<VARIANCE> 15
 4.711721e+00 2.459623e+00 2.491063e+00 2.719394e+00 2.393644e+00 7.773166e-01 6.279830e-01 6.259649e-01 6.685163e-01 6.179752e-01 5.731410e+00 5.510922e+00 5.291358e+00 5.866937e+00 5.031293e+00
<GCONST> 3.923832e+01
<STATE> 4
<SWEIGHTS> 5
 1.000000e+00 0.000000e+00 0.000000e+00 0.000000e+00 0.000000e+00
<STREAM> 1
<MEAN> 180
 5.535697e+00 1.373344e+00 2.013244e-02 1.273283e+00 -5.269290e-02 3.361892e-01 -2.831502e-01 4.139529e-01 -2.324490e-01 7.101852e-02 -1.731668e-01 2.175485e-01 -1.972004e-01 1.209688e-01 -1.188046e-01 1.052884e-01 -1.809604e-01 2.795964e-02 -1.721580e-01 1.053659e-01 -8.011191e-02 -2.160920e-04 -3.298255e-02 7.792913e-02 -4.427138e-02 4.438326e-02 -4.816013e-02 5.808961e-02 -3.504393e-02 8.608278e-02 -8.238096e-02 8.023535e-02 -4.908219e-02 2.313222e-02 -1.487791e-02 3.898478e-02 -5.696177e-02 6.241444e-02 -6.287853e-02 4.993688e-02 -4.436547e-02 3.807534e-02 -3.659661e-02 3.651502e-02 -4.127642e-02 3.731516e-02 -2.560927e-02 7.892557e-03 3.695238e-03 -5.990061e-03 1.868804e-03 5.867248e-04 -7.470697e-04 2.810537e-03 -4.583945e-03 5.613601e-03 -8.342020e-03 1.354810e-02 -1.813037e-02 1.957886e-02 6.892361e-02 9.506712e-02 2.879765e-03 -1.802042e-02 6.301539e-03 -1.240579e-03 -2.168257e-02 -6.514030e-03 1.035629e-03 -2.925694e-03 2.452264e-03 -1.209848e-03 3.672907e-03 -6.473812e-04 3.547677e-03 1.331152e-03 -4.437519e-03 1.125558e-02 -2.330225e-03 -7.589918e-04 7.999945e-03 -2.609837e-03 2.076893e-03 -2.423268e-03 2.502505e-03 -1.742962e-03 -6.241876e-04 6.391513e-04 -2.386243e-03 2.881186e-04 -1.027731e-03 -3.127033e-05 -4.976367e-04 -4.467015e-04 1.029734e-03 -7.144240e-04 -1.042222e-03 2.042685e-03 -1.652988e-03 8.860490e-04 3.526236e-04 -5.805368e-04 -3.331971e-04 1.289875e-03 -1.182417e-03 6.515899e-04 -1.143325e-04 -4.167711e-04 1.645181e-03 -2.667241e-03 3.063721e-03 -2.581570e-03 1.755054e-03 -9.070666e-04 2.309595e-04 5.789913e-05 3.390288e-05 -6.613763e-04 1.343380e-03 -1.664532e-03 8.269558e-03 1.031781e-02 -1.732513e-03 -6.209911e-03 -3.665255e-04 2.688186e-03 -8.262598e-04 -1.931413e-03 1.294203e-03 1.012920e-03 1.825275e-03 1.205119e-03 -1.481854e-04 -1.064929e-04 -9.062111e-04 -7.244847e-04 -8.579742e-04 7.262799e-04 1.017510e-03 -5.708562e-04 6.698887e-04 4.335765e-04 -6.093735e-04 -9.149212e-05 -7.915629e-04 6.773950e-04 -2.353913e-04 4.721259e-04 -1.163183e-05 -2.238457e-05 -2.083443e-04 -5.131081e-05 1.581195e-04 1.513543e-04 -4.992530e-04 1.380754e-04 2.230771e-04 -3.911279e-04 3.586509e-04 -1.387041e-04 8.632250e-05 -2.434356e-04 1.278564e-04 1.154533e-04 -2.039252e-04 1.077259e-04 -2.005889e-04 2.357965e-04 -1.332953e-04 -2.431623e-05 3.763270e-06 1.460263e-04 -2.105720e-04 1.955819e-04 -1.102473e-04 -9.603216e-06 9.548148e-05 -2.191752e-04 4.371022e-04 -5.571153e-04
<VARIANCE> 180
 4.652355e-01 8.913218e-01 1.525178e-01 1.337985e-01 9.377069e-02 4.570297e-02 6.670678e-02 3.557758e-02 3.574874e-02 2.922978e-02 2.197781e-02 2.259377e-02 2.083612e-02 2.081501e-02 2.314618e-02 2.125596e-02 1.812634e-02 2.412197e-02 2.270693e-02 1.254859e-02 1.624086e-02 1.589160e-02 1.439863e-02 1.185911e-02 1.387514e-02 1.191720e-02 8.797389e-03 7.965548e-03 7.750091e-03 6.670740e-03 6.486516e-03 5.671610e-03 5.441709e-03 5.833582e-03 4.762828e-03 5.485574e-03 4.334600e-03 5.378789e-03 4.860041e-03 4.152446e-03 4.399079e-03 3.873300e-03 3.461489e-03 3.887999e-03 3.790632e-03 3.965157e-03 4.068062e-03 3.811533e-03 3.001498e-03 3.057514e-03 3.405934e-03 3.387708e-03 2.982039e-03 2.823973e-03 2.725291e-03 2.922904e-03 3.162407e-03 2.757155e-03 2.520464e-03 2.495011e-03 2.600484e-02 3.442217e-02 1.499220e-02 1.053352e-02 1.076185e-02 6.712763e-03 7.362192e-03 5.836469e-03 5.371795e-03 5.247468e-03 4.778948e-03 5.082827e-03 4.674830e-03 4.445518e-03 4.771869e-03 3.815069e-03 3.773658e-03 3.931720e-03 3.906199e-03 3.220599e-03 3.100326e-03 2.944955e-03 2.841901e-03 2.668113e-03 2.467657e-03 2.242886e-03 2.084030e-03 1.935535e-03 1.851304e-03 1.766068e-03 1.625071e-03 1.545115e-03 1.389474e-03 1.436546e-03 1.355520e-03 1.341002e-03 1.208594e-03 1.183855e-03 9.729926e-04 1.006162e-03 1.077393e-03 8.888178e-04 8.853604e-04 8.793810e-04 7.626074e-04 7.772786e-04 7.255660e-04 8.116635e-04 7.089277e-04 7.124093e-04 7.292287e-04 6.991392e-04 6.053742e-04 6.154196e-04 5.914287e-04 5.365397e-04 5.440576e-04 5.248681e-04 4.831027e-04 4.686035e-04 3.117880e-02 2.788249e-02 3.139227e-02 2.752157e-02 2.745554e-02 2.639773e-02 2.496301e-02 2.355254e-02 2.508197e-02 2.163217e-02 2.258919e-02 2.261600e-02 2.196612e-02 2.331673e-02 2.361702e-02 1.968424e-02 2.063179e-02 1.717686e-02 1.674910e-02 1.580272e-02 1.459346e-02 1.348094e-02 1.480306e-02 1.213381e-02 1.278569e-02 1.092571e-02 1.066987e-02 9.530444e-03 9.638218e-03 8.792769e-03 7.972574e-03 7.552948e-03 7.344257e-03 7.208609e-03 6.963714e-03 6.101612e-03 6.262138e-03 5.572633e-03 5.064879e-03 5.248540e-03 5.264254e-03 4.696310e-03 4.670951e-03 4.285493e-03 4.043384e-03 3.988397e-03 3.609424e-03 3.679998e-03 3.648737e-03 3.558342e-03 3.696494e-03 3.515534e-03 3.213408e-03 3.159697e-03 3.088054e-03 2.774813e-03 2.908808e-03 2.833165e-03 2.359538e-03 2.362792e-03
<GCONST> -6.001257e+02
<STREAM> 2
<NUMMIXES> 2
<MIXTURE> 1 7.485638e-01
<MEAN> 1
 5.207845e+00
<VARIANCE> 1
 4.841162e-02
<GCONST> -1.190139e+00
<MIXTURE> 2 2.514356e-01
<MEAN> 0
<VARIANCE> 0
<GCONST> 0.000000e+00
<STREAM> 3
<NUMMIXES> 2
<MIXTURE> 1 6.921323e-01
<MEAN> 1
 7.106431e-03
<VARIANCE> 1
 1.776695e-03
<GCONST> -4.495124e+00
<MIXTURE> 2 3.078673e-01
<MEAN> 0
<VARIANCE> 0
<GCONST> 0.000000e+00
<STREAM> 4
<NUMMIXES> 2
<MIXTURE> 1 6.787761e-01
<MEAN> 1
 -2.701233e-03
<VARIANCE> 1
 6.372141e-03
<GCONST> -3.217943e+00
<MIXTURE> 2 3.212232e-01
<MEAN> 0
<VARIANCE> 0
<GCONST> 0.000000e+00
<STREAM> 5
<MEAN> 15
 -2.528047e+00 -2.233743e+00 -2.162237e+00 -2.267049e+00 -2.135222e+00 -1.543996e-01 -1.107038e-01 -8.923843e-02 -9.282171e-02 -7.608721e-02 -2.164072e-02 -1.427798e-02 -1.640324e-02 -5.397335e-03 -8.622044e-03
<VARIANCE> 15
 5.633140e+00 2.905807e+00 2.661210e+00 2.995564e+00 2.583163e+00 9.651657e-01 7.088615e-01 6.688145e-01 7.258040e-01 6.576118e-01 6.581262e+00 6.348403e+00 5.801344e+00 6.480602e+00 5.299377e+00
<GCONST> 4.089397e+01
<STATE> 5
<SWEIGHTS> 5
 1.000000e+00 0.000000e+00 0.000000e+00 0.000000e+00 0.000000e+00
<STREAM> 1
<MEAN> 180
 5.834435e+00 1.775657e+00 -3.675178e-03 1.162645e+00 -4.241254e-02 3.316692e-01 -3.752449e-01 3.768807e-01 -2.134050e-01 6.844386e-02 -1.527475e-01 2.240340e-01 -1.850679e-01 1.182596e-01 -1.095824e-01 1.060102e-01 -1.975855e-01 7.153375e-02 -1.799864e-01 1.035479e-01 -4.958311e-02 -1.357531e-02 -2.799193e-02 7.336821e-02 -3.959553e-02 4.058053e-02 -4.581486e-02 5.931275e-02 -3.942301e-02 8.598954e-02 -8.635318e-02 7.833873e-02 -4.991063e-02 2.086139e-02 -1.280581e-02 3.624403e-02 -5.852750e-02 6.925302e-02 -7.066070e-02 5.380523e-02 -4.291036e-02 3.311212e-02 -3.587375e-02 4.174490e-02 -4.793695e-02 4.339872e-02 -2.972778e-02 1.006133e-02 6.689083e-03 -1.538127e-02 1.508342e-02 -1.132565e-02 6.336740e-03 1.406637e-04 -5.121290e-03 6.530595e-03 -7.996657e-03 9.206712e-03 -9.288724e-03 8.571152e-03 8.396219e-02 1.157919e-01 -7.455667e-03 -4.144740e-02 -2.597126e-03 8.698272e-03 -1.788681e-02 -1.150894e-02 5.748267e-03 3.622063e-03 8.671300e-03 1.239220e-03 2.024815e-03 -4.919907e-04 -3.200338e-04 -3.515225e-03 -6.193529e-03 1.097747e-02 2.359568e-03 -2.569614e-03 9.368094e-03 -1.721358e-03 4.991750e-04 -1.470929e-03 -5.826852e-04 1.028558e-03 -1.660835e-03 1.548233e-03 -2.011141e-03 6.740848e-04 -5.220138e-04 -1.111322e-03 4.151558e-04 -1.086855e-03 -3.192845e-04 -2.504985e-04 7.524724e-06 8.462917e-04 -1.372301e-04 -8.417755e-04 1.136547e-03 -1.074212e-03 -3.278200e-04 1.786744e-03 -1.646221e-03 5.357690e-04 -2.535153e-04 6.931791e-04 2.411957e-04 -1.836102e-03 2.456957e-03 -1.846915e-03 7.930103e-04 -6.676673e-05 -4.170097e-04 5.202164e-04 6.337270e-05 -1.230803e-03 2.464097e-03 -3.148829e-03 -5.440522e-03 -4.403201e-03 -5.381789e-03 -6.611573e-03 -6.270063e-03 2.210717e-03 3.617288e-03 -1.134294e-03 5.166275e-04 1.821931e-03 2.428494e-03 3.362774e-04 -9.034015e-04 6.206588e-05 -8.250276e-04 -1.357058e-03 4.358337e-04 -1.953698e-03 1.982345e-03 -4.458032e-04 -9.059301e-04 5.021351e-04 -3.330977e-04 2.432123e-04 -1.224915e-03 8.402787e-04 -1.404570e-04 -7.688618e-05 -3.012583e-04 -1.751575e-04 9.712943e-04 -2.147744e-04 2.051531e-04 -3.276958e-04 2.224088e-04 -1.411831e-04 5.381038e-04 -6.745005e-04 8.528108e-04 -6.721191e-04 3.708911e-04 -1.209040e-04 9.434671e-05 -7.636022e-05 1.959653e-04 -4.476015e-04 4.528449e-04 -9.023395e-05 -4.460112e-04 5.953017e-04 -6.004954e-04 6.037703e-04 -6.316828e-04 5.103486e-04 -3.825111e-04 3.085107e-04 -1.230787e-04 1.645607e-05 -5.957672e-05 1.100795e-04
<VARIANCE> 180
 5.845573e-01 9.264228e-01 1.315615e-01 1.643233e-01 8.205894e-02 4.777493e-02 6.752755e-02 2.934241e-02 4.101413e-02 3.045722e-02 1.932079e-02 2.412149e-02 1.961674e-02 1.900172e-02 2.106747e-02 1.996508e-02 1.691989e-02 2.638927e-02 2.134072e-02 1.331908e-02 1.745811e-02 1.576096e-02 1.471648e-02 1.317194e-02 1.409527e-02 1.294267e-02 1.034616e-02 8.662022e-03 8.828676e-03 6.608517e-03 7.070996e-03 6.221259e-03 6.138458e-03 6.330910e-03 4.886240e-03 5.623799e-03 4.905584e-03 5.348488e-03 5.212247e-03 5.199486e-03 5.144020e-03 4.310540e-03 4.174504e-03 4.981699e-03 4.403522e-03 4.459788e-03 4.469687e-03 4.178656e-03 3.145149e-03 2.899900e-03 3.341182e-03 3.455458e-03 2.804335e-03 2.745909e-03 2.842837e-03 2.860271e-03 3.102849e-03 3.068090e-03 2.784778e-03 2.781289e-03 2.470648e-02 2.548273e-02 1.451907e-02 9.984602e-03 1.002838e-02 6.144572e-03 6.990702e-03 5.102383e-03 4.895071e-03 4.725314e-03 4.663798e-03 5.044990e-03 4.305810e-03 4.101144e-03 4.357423e-03 3.622130e-03 3.416138e-03 3.685694e-03 3.630046e-03 2.971272e-03 3.005784e-03 2.772634e-03 2.641825e-03 2.545237e-03 2.397982e-03 2.236326e-03 2.080857e-03 1.851765e-03 1.829171e-03 1.737104e-03 1.670132e-03 1.520935e-03 1.377583e-03 1.428133e-03 1.384385e-03 1.221831e-03 1.289042e-03 1.179311e-03 9.135776e-04 1.055020e-03 1.100570e-03 9.280582e-04 9.207951e-04 9.650419e-04 8.113139e-04 8.257322e-04 7.802634e-04 8.123862e-04 7.294616e-04 7.547158e-04 7.124468e-04 6.858328e-04 5.819355e-04 5.822041e-04 5.912477e-04 5.447459e-04 5.211136e-04 5.220681e-04 4.940558e-04 4.966647e-04 2.713956e-02 2.493104e-02 2.853226e-02 2.470360e-02 2.445003e-02 2.399832e-02 2.252165e-02 2.117296e-02 2.138383e-02 1.906440e-02 2.197255e-02 2.143909e-02 1.995512e-02 2.101145e-02 2.022697e-02 1.765432e-02 1.777503e-02 1.579721e-02 1.410476e-02 1.467892e-02 1.387327e-02 1.276785e-02 1.353022e-02 1.120669e-02 1.286252e-02 1.122298e-02 1.033646e-02 9.230451e-03 9.618292e-03 8.674825e-03 7.762302e-03 7.540234e-03 7.053070e-03 7.440497e-03 7.031058e-03 5.867215e-03 6.350885e-03 5.741762e-03 4.978006e-03 5.397423e-03 5.523094e-03 5.024259e-03 4.805453e-03 4.604968e-03 4.277695e-03 4.296301e-03 3.781083e-03 3.828895e-03 3.891699e-03 3.734698e-03 3.695524e-03 3.573518e-03 3.087405e-03 2.951172e-03 3.026365e-03 2.999777e-03 2.897086e-03 2.822368e-03 2.506470e-03 2.515433e-03
<GCONST> -6.008565e+02
<STREAM> 2
<NUMMIXES> 2
<MIXTURE> 1 8.125036e-01
<MEAN> 1
 5.236234e+00
<VARIANCE> 1
 5.250126e-02
<GCONST> -1.109041e+00
<MIXTURE> 2 1.874965e-01
<MEAN> 0
<VARIANCE> 0
<GCONST> 0.000000e+00
<STREAM> 3
<NUMMIXES> 2
<MIXTURE> 1 7.696728e-01
<MEAN> 1
 4.246240e-03
<VARIANCE> 1
 1.455643e-03
<GCONST> -4.694430e+00
<MIXTURE> 2 2.303272e-01
<MEAN> 0
<VARIANCE> 0
<GCONST> 0.000000e+00
<STREAM> 4
<NUMMIXES> 2
<MIXTURE> 1 7.616673e-01
<MEAN> 1
 -4.360593e-03
<VARIANCE> 1
 4.168199e-03
<GCONST> -3.642394e+00
<MIXTURE> 2 2.383327e-01
<MEAN> 0
<VARIANCE> 0
<GCONST> 0.000000e+00
<STREAM> 5
<MEAN> 15
 -3.297156e+00 -2.696486e+00 -2.545576e+00 -2.643976e+00 -2.419395e+00 -2.456755e-01 -1.328858e-01 -1.212054e-01 -9.543247e-02 -7.720072e-02 -2.847737e-02 7.158696e-03 -6.514411e-03 2.052546e-02 1.742445e-02
<VARIANCE> 15
 8.112170e+00 3.524852e+00 3.067629e+00 3.324882e+00 2.747198e+00 1.226876e+00 8.557355e-01 7.973871e-01 8.796561e-01 7.567816e-01 8.142750e+00 7.644847e+00 7.519674e+00 7.160450e+00 6.223474e+00
<GCONST> 4.361522e+01
<STATE> 6
<SWEIGHTS> 5
 1.000000e+00 0.000000e+00 0.000000e+00 0.000000e+00 0.000000e+00
<STREAM> 1
<MEAN> 180
 6.204335e+00 2.255190e+00 -1.058802e-01 9.404850e-01 -9.364221e-02 3.817942e-01 -4.089860e-01 3.234524e-01 -1.733771e-01 9.882815e-02 -1.146726e-01 2.323555e-01 -1.832441e-01 1.170821e-01 -1.224139e-01 8.261780e-02 -2.100647e-01 1.010767e-01 -1.721121e-01 9.392298e-02 -1.693122e-02 -2.138635e-02 -2.697575e-02 7.671744e-02 -5.298979e-02 5.242757e-02 -4.682361e-02 5.591530e-02 -3.843832e-02 8.629081e-02 -8.138892e-02 6.609394e-02 -4.216224e-02 1.531499e-02 -1.986528e-02 3.747184e-02 -5.705816e-02 7.324503e-02 -7.389271e-02 5.425655e-02 -4.321693e-02 2.818511e-02 -3.031366e-02 4.318731e-02 -5.359920e-02 4.832434e-02 -3.497829e-02 1.882257e-02 7.055635e-04 -1.814464e-02 2.326481e-02 -2.069463e-02 1.112367e-02 -7.703807e-05 -9.335807e-03 1.286388e-02 -1.161722e-02 6.874154e-03 -1.296853e-03 -3.348206e-03 3.742547e-02 8.507585e-02 -1.390482e-02 -5.202765e-02 -2.010426e-02 1.752233e-02 3.586356e-03 -1.152873e-02 4.255323e-03 6.578320e-03 1.087752e-02 -2.184735e-03 -3.336034e-04 3.300515e-04 -1.446024e-06 -7.377996e-03 -3.829192e-03 4.213484e-03 7.441925e-03 -6.318434e-03 6.601302e-03 1.066924e-03 -5.244400e-05 -8.451310e-04 -3.296944e-03 1.796799e-03 -3.210121e-03 1.066825e-03 -2.764995e-03 -1.370089e-03 2.881003e-03 -2.511978e-03 1.901646e-03 -4.961477e-04 2.976551e-04 -5.634037e-04 1.042484e-03 -1.698443e-03 2.841635e-03 -2.254853e-03 2.548087e-03 -1.533422e-03 -9.791552e-05 8.119165e-04 2.238711e-04 -1.011390e-03 8.684894e-04 -2.423748e-04 -4.684535e-04 5.331971e-04 -3.724564e-04 7.094778e-04 -1.334007e-03 1.827930e-03 -1.915543e-03 1.671978e-03 -5.648874e-04 -5.056180e-04 1.206122e-03 -1.627628e-03 -1.671820e-02 -8.439540e-03 1.664353e-03 7.192896e-04 -1.684264e-03 7.478725e-05 5.426313e-03 1.190846e-03 -2.640596e-03 -8.256166e-04 -7.040167e-04 -8.404654e-04 -1.114762e-03 -8.854312e-04 1.151623e-03 -4.992146e-05 5.074387e-04 -1.283624e-03 1.417122e-03 -7.843779e-04 -1.281334e-03 5.497061e-04 3.332765e-04 7.966399e-05 6.385123e-04 -9.822258e-04 4.198981e-04 1.029001e-03 -6.101885e-04 -1.469119e-03 1.382644e-03 -1.597457e-03 1.875604e-04 1.251345e-03 -4.024139e-06 -1.847275e-04 8.126169e-04 -1.100365e-03 6.172601e-05 2.912912e-04 3.810648e-04 1.321261e-04 -3.604164e-04 -3.856010e-04 8.205672e-04 -5.565443e-04 1.022607e-03 -1.170133e-03 -5.863854e-05 1.260104e-03 -1.486722e-03 1.415777e-03 -1.488817e-03 1.114431e-03 -2.115004e-04 -6.055174e-04 5.167173e-04 -2.155672e-05 -4.704086e-04 7.246701e-04
<VARIANCE> 180
 7.140317e-01 7.606378e-01 1.331525e-01 1.905623e-01 7.325339e-02 5.242453e-02 7.750547e-02 2.729632e-02 4.201377e-02 3.025761e-02 2.024467e-02 2.622413e-02 2.051020e-02 1.990912e-02 2.074021e-02 2.047091e-02 1.626426e-02 2.525901e-02 1.942612e-02 1.342857e-02 1.514534e-02 1.573954e-02 1.254928e-02 1.370779e-02 1.272884e-02 1.198669e-02 1.034013e-02 9.868262e-03 1.059953e-02 6.695733e-03 8.815873e-03 6.504194e-03 7.144877e-03 7.376954e-03 5.569104e-03 5.382713e-03 5.353898e-03 4.905513e-03 5.347269e-03 6.416422e-03 6.087949e-03 4.190959e-03 4.926973e-03 5.356299e-03 4.741505e-03 5.212951e-03 4.611057e-03 4.225717e-03 3.329329e-03 3.095195e-03 3.393476e-03 3.348762e-03 2.689463e-03 3.063420e-03 3.268903e-03 3.142243e-03 3.161640e-03 3.259876e-03 3.223986e-03 3.508655e-03 2.111942e-02 1.750358e-02 1.185007e-02 8.604022e-03 7.861693e-03 5.189637e-03 5.997133e-03 4.499189e-03 4.146765e-03 4.135627e-03 4.216368e-03 4.491531e-03 3.911932e-03 3.313954e-03 3.691960e-03 3.344238e-03 3.030132e-03 3.189522e-03 3.219992e-03 2.449652e-03 2.669435e-03 2.502294e-03 2.305630e-03 2.213745e-03 2.125472e-03 1.989466e-03 1.973732e-03 1.820381e-03 1.933945e-03 1.826228e-03 1.689120e-03 1.424670e-03 1.357241e-03 1.472731e-03 1.341867e-03 1.089336e-03 1.245403e-03 1.054322e-03 9.237678e-04 1.158129e-03 1.128005e-03 8.499401e-04 9.368273e-04 9.838052e-04 8.446862e-04 8.496704e-04 7.715191e-04 8.168539e-04 7.261445e-04 7.693553e-04 6.824001e-04 6.469968e-04 5.872415e-04 5.865954e-04 5.861834e-04 5.435979e-04 5.206009e-04 5.455621e-04 5.165755e-04 5.064419e-04 1.963985e-02 1.855801e-02 2.196816e-02 1.966846e-02 1.808414e-02 1.794468e-02 1.654667e-02 1.722761e-02 1.603110e-02 1.645414e-02 1.753289e-02 1.679030e-02 1.625603e-02 1.575340e-02 1.436233e-02 1.352513e-02 1.323690e-02 1.327353e-02 1.124557e-02 1.250368e-02 1.196055e-02 1.220592e-02 1.112776e-02 1.055309e-02 1.075408e-02 1.076376e-02 9.129303e-03 8.547919e-03 8.646534e-03 8.316945e-03 7.062577e-03 6.909688e-03 7.097295e-03 7.337858e-03 6.407816e-03 5.427280e-03 5.746074e-03 5.391083e-03 4.938825e-03 5.689801e-03 5.693257e-03 4.780344e-03 4.686163e-03 4.679591e-03 4.098661e-03 4.076760e-03 3.820205e-03 3.884370e-03 3.713049e-03 3.452238e-03 3.455659e-03 3.216120e-03 2.997476e-03 2.859465e-03 2.966662e-03 3.137796e-03 2.897498e-03 2.753422e-03 2.699421e-03 2.688053e-03
<GCONST> -6.092544e+02
<STREAM> 2
<NUMMIXES> 2
<MIXTURE> 1 8.825127e-01
<MEAN> 1
 5.251793e+00
<VARIANCE> 1
 4.741430e-02
<GCONST> -1.210954e+00
<MIXTURE> 2 1.174870e-01
<MEAN> 0
<VARIANCE> 0
<GCONST> 0.000000e+00
<STREAM> 3
<NUMMIXES> 2
<MIXTURE> 1 8.587906e-01
<MEAN> 1
 -6.823753e-04
<VARIANCE> 1
 1.673215e-03
<GCONST> -4.555131e+00
<MIXTURE> 2 1.412090e-01
<MEAN> 0
<VARIANCE> 0
<GCONST> 0.000000e+00
<STREAM> 4
<NUMMIXES> 2
<MIXTURE> 1 8.537665e-01
<MEAN> 1
 -2.573635e-03
<VARIANCE> 1
 1.649156e-03
<GCONST> -4.569614e+00
<MIXTURE> 2 1.462331e-01
<MEAN> 0
<VARIANCE> 0
<GCONST> 0.000000e+00
<STREAM> 5
<MEAN> 15
 -4.682709e+00 -3.278701e+00 -3.059499e+00 -3.078871e+00 -2.707513e+00 -2.237896e-01 -6.322651e-02 -6.580900e-02 -5.033808e-04 -1.727091e-02 -8.269952e-03 2.826837e-02 2.542196e-02 1.583986e-02 1.938005e-02
<VARIANCE> 15
 1.327252e+01 4.175055e+00 3.851243e+00 3.597126e+00 2.651191e+00 1.915770e+00 1.131004e+00 1.108708e+00 1.046242e+00 8.606318e-01 1.256854e+01 9.280706e+00 9.933106e+00 7.425042e+00 6.944900e+00
<GCONST> 4.695593e+01
<TRANSP> 7
 0.000000e+00 1.000000e+00 0.000000e+00 0.000000e+00 0.000000e+00 0.000000e+00 0.000000e+00
 0.000000e+00 8.374707e-01 1.625293e-01 0.000000e+00 0.000000e+00 0.000000e+00 0.000000e+00
 0.000000e+00 0.000000e+00 7.808893e-01 2.191107e-01 0.000000e+00 0.000000e+00 0.000000e+00
 0.000000e+00 0.000000e+00 0.000000e+00 7.475764e-01 2.524236e-01 0.000000e+00 0.000000e+00
 0.000000e+00 0.000000e+00 0.000000e+00 0.000000e+00 7.310903e-01 2.689098e-01 0.000000e+00
 0.000000e+00 0.000000e+00 0.000000e+00 0.000000e+00 0.000000e+00 7.493200e-01 2.506799e-01
 0.000000e+00 0.000000e+00 0.000000e+00 0.000000e+00 0.000000e+00 0.000000e+00 0.000000e+00
<ENDHMM>
~h "D"
<BEGINHMM>
<NUMSTATES> 7
<STATE> 2
<SWEIGHTS> 5
 1.000000e+00 0.000000e+00 0.000000e+00 0.000000e+00 0.000000e+00
<STREAM> 1
<MEAN> 180
 5.893332e+00 2.690495e+00 1.712999e-01 7.198852e-01 -1.222885e-01 5.618756e-01 -4.169161e-01 2.592947e-01 -3.337585e-01 4.774765e-02 1.409687e-02 1.670044e-01 -2.122170e-01 1.971739e-01 -5.366812e-02 1.781612e-02 -1.829061e-01 1.073269e-01 -1.391333e-01 1.494070e-02 7.499391e-02 -7.170080e-02 -1.265332e-02 8.613367e-02 -8.254942e-02 8.425078e-02 -9.785606e-02 8.702882e-02 -3.849923e-02 2.088780e-02 -2.351686e-02 5.431914e-02 -7.387687e-02 6.422502e-02 -3.174650e-02 1.632246e-02 -2.462494e-02 4.483489e-02 -5.717089e-02 5.132070e-02 -4.005660e-02 2.478050e-02 -1.410804e-02 8.717954e-03 -7.872478e-03 1.117219e-02 -1.811231e-02 2.074042e-02 -1.602276e-02 8.038661e-03 -5.598869e-03 8.871418e-03 -1.354368e-02 1.236214e-02 -4.255694e-03 -8.771029e-03 1.752694e-02 -1.779558e-02 9.835890e-03 1.107797e-03 -3.857175e-02 -5.696881e-03 1.869451e-02 -4.541773e-04 8.618596e-03 9.370969e-03 -2.497717e-03 -9.926175e-04 -1.791348e-03 -3.644912e-03 3.468686e-03 -5.253812e-03 9.975244e-04 2.645626e-03 3.374449e-03 -1.427596e-03 -3.795479e-04 -6.965228e-05 -2.329460e-03 -8.720289e-04 5.282523e-04 -1.421232e-03 8.215568e-04 3.349234e-04 -5.633714e-04 6.902013e-04 -6.307062e-04 1.405046e-05 1.932518e-03 -2.850565e-03 2.589444e-03 -2.819259e-04 -1.921403e-03 2.451004e-03 -1.143879e-03 -3.842499e-04 1.160399e-03 -1.001023e-03 2.148669e-04 4.768712e-04 -7.182704e-04 4.133784e-04 3.021094e-04 -1.129164e-03 1.633901e-03 -1.264679e-03 1.265762e-04 9.084059e-04 -1.224630e-03 9.548588e-04 -5.904749e-04 4.955317e-04 -6.421189e-04 6.204386e-04 -1.408696e-04 -8.467374e-04 1.684597e-03 -1.954132e-03 1.537624e-03 -6.534811e-04 -7.089730e-03 -4.395957e-03 1.119626e-03 2.399125e-03 2.818555e-03 -1.077281e-03 2.724663e-03 1.966590e-04 7.137062e-04 7.464847e-04 -2.275057e-03 -1.241596e-04 6.904992e-04 -1.020779e-03 -5.950350e-04 5.916805e-04 4.303260e-04 -7.761102e-04 1.741591e-04 5.472177e-04 -1.875539e-03 1.839980e-03 -3.683230e-04 -7.808937e-04 1.035613e-03 -6.777073e-04 7.408186e-04 -1.518335e-04 -4.832897e-04 6.789921e-04 -3.903766e-04 -2.645174e-04 7.629169e-04 -7.247790e-04 1.332434e-04 2.340296e-04 -1.412998e-04 -1.795197e-04 4.070135e-04 -4.859186e-04 9.961580e-05 3.297699e-04 -5.527142e-04 6.531879e-04 -6.135422e-04 2.999928e-04 1.102044e-04 -3.038368e-04 2.635315e-04 -1.618376e-05 -1.790739e-04 6.600149e-05 2.445849e-04 -3.964767e-04 1.477970e-04 3.726370e-04 -7.972044e-04 8.202065e-04 -4.517182e-04 7.368171e-06
<VARIANCE> 180
 8.602357e-01 3.916247e-01 2.106967e-01 1.040742e-01 1.634305e-01 5.450242e-02 7.643790e-02 3.801399e-02 3.918729e-02 4.121443e-02 4.050236e-02 2.791083e-02 2.750622e-02 2.542446e-02 2.681578e-02 1.995571e-02 1.888158e-02 1.699536e-02 1.818076e-02 1.529982e-02 1.587499e-02 1.386427e-02 1.088420e-02 1.121988e-02 1.130362e-02 7.981312e-03 8.875985e-03 8.888261e-03 8.893775e-03 8.943071e-03 8.588756e-03 6.608956e-03 6.372363e-03 6.556404e-03 5.706979e-03 5.413141e-03 5.311653e-03 5.451833e-03 5.281663e-03 4.884968e-03 4.757231e-03 4.963432e-03 4.997224e-03 4.562572e-03 4.169065e-03 4.178643e-03 4.296070e-03 4.140577e-03 3.854548e-03 3.694124e-03 3.542783e-03 3.431900e-03 3.607370e-03 3.772309e-03 3.600997e-03 3.408425e-03 3.444919e-03 3.486163e-03 3.468581e-03 3.282405e-03 1.806312e-02 8.551883e-03 7.201514e-03 4.205159e-03 5.026720e-03 3.628129e-03 4.040095e-03 3.154048e-03 3.239058e-03 3.347107e-03 3.217551e-03 2.983961e-03 2.813957e-03 2.721592e-03 2.691976e-03 2.390610e-03 2.240561e-03 2.186412e-03 2.051987e-03 1.976834e-03 1.945841e-03 1.795624e-03 1.627080e-03 1.594349e-03 1.513456e-03 1.438846e-03 1.364806e-03 1.293523e-03 1.264770e-03 1.205573e-03 1.115953e-03 1.059203e-03 1.039627e-03 9.854189e-04 9.372222e-04 8.984328e-04 8.818057e-04 8.265427e-04 7.881008e-04 7.664828e-04 7.412346e-04 7.352625e-04 7.134782e-04 6.775118e-04 6.615125e-04 6.395015e-04 6.081667e-04 6.011839e-04 5.812817e-04 5.646816e-04 5.472054e-04 5.278863e-04 5.177557e-04 5.075323e-04 4.878591e-04 4.766960e-04 4.793316e-04 4.699165e-04 4.566111e-04 4.458072e-04 1.677440e-02 1.460654e-02 1.655404e-02 1.377028e-02 1.376804e-02 1.267066e-02 1.292638e-02 1.216019e-02 1.174965e-02 1.232364e-02 1.157723e-02 1.136528e-02 1.102623e-02 1.087977e-02 1.071301e-02 1.015411e-02 9.724289e-03 9.640393e-03 9.154872e-03 9.006051e-03 8.696053e-03 8.399785e-03 7.770697e-03 7.615572e-03 7.205311e-03 6.893649e-03 6.695392e-03 6.412168e-03 6.253115e-03 6.064047e-03 5.694707e-03 5.488675e-03 5.380259e-03 5.221952e-03 4.923566e-03 4.726117e-03 4.577795e-03 4.376873e-03 4.204751e-03 4.077367e-03 4.012047e-03 3.912499e-03 3.801617e-03 3.620901e-03 3.526482e-03 3.472494e-03 3.313502e-03 3.254479e-03 3.168193e-03 3.075892e-03 3.005832e-03 2.916446e-03 2.841711e-03 2.780403e-03 2.658754e-03 2.575327e-03 2.632051e-03 2.605503e-03 2.499678e-03 2.479452e-03
<GCONST> -6.411714e+02
<STREAM> 2
<NUMMIXES> 2
<MIXTURE> 1 9.188516e-01
<MEAN> 1
 5.262836e+00
<VARIANCE> 1
 3.074513e-02
<GCONST> -1.644146e+00
<MIXTURE> 2 8.115862e-02
<MEAN> 0
<VARIANCE> 0
<GCONST> 0.000000e+00
<STREAM> 3
<NUMMIXES> 2
<MIXTURE> 1 9.098622e-01
<MEAN> 1
 -3.874765e-03
<VARIANCE> 1
 2.988598e-04
<GCONST> -6.277658e+00
<MIXTURE> 2 9.014965e-02
<MEAN> 0
<VARIANCE> 0
<GCONST> 0.000000e+00
<STREAM> 4
<NUMMIXES> 2
<MIXTURE> 1 9.086305e-01
<MEAN> 1
 -1.712848e-04
<VARIANCE> 1
 1.070389e-03
<GCONST> -5.001857e+00
<MIXTURE> 2 9.138124e-02
<MEAN> 0
<VARIANCE> 0
<GCONST> 0.000000e+00
<STREAM> 5
<MEAN> 15
 -6.279859e+00 -3.672944e+00 -3.580452e+00 -3.213887e+00 -2.991238e+00 9.018129e-02 2.395893e-02 3.072451e-02 1.694440e-02 1.431069e-02 3.176894e-02 1.888766e-02 9.485880e-03 5.428731e-03 -4.276807e-04
<VARIANCE> 15
 1.800018e+01 5.341153e+00 5.071151e+00 3.605551e+00 2.907535e+00 2.276356e+00 1.360701e+00 1.388800e+00 1.081101e+00 9.012628e-01 1.425004e+01 1.066738e+01 1.109015e+01 9.013645e+00 7.887395e+00
<GCONST> 4.923438e+01
<STATE> 3
<SWEIGHTS> 5
 1.000000e+00 0.000000e+00 0.000000e+00 0.000000e+00 0.000000e+00
<STREAM> 1
<MEAN> 180
 5.740533e+00 2.633530e+00 2.265849e-01 7.275454e-01 -7.845221e-02 5.892964e-01 -4.197140e-01 2.563947e-01 -3.352050e-01 4.092759e-02 1.378239e-02 1.493060e-01 -2.037669e-01 2.034071e-01 -4.710220e-02 1.601180e-02 -1.814189e-01 1.072161e-01 -1.470290e-01 1.539809e-02 6.828693e-02 -6.849051e-02 -1.155992e-02 8.304816e-02 -7.994031e-02 8.400434e-02 -9.763499e-02 8.638439e-02 -3.463644e-02 1.477984e-02 -1.663963e-02 5.204944e-02 -7.718600e-02 6.947035e-02 -3.464139e-02 1.540652e-02 -2.067863e-02 4.036038e-02 -5.547124e-02 5.253819e-02 -4.365093e-02 2.838062e-02 -1.557785e-02 7.018246e-03 -4.119221e-03 7.762404e-03 -1.719466e-02 2.268303e-02 -1.934532e-02 1.131552e-02 -7.946534e-03 1.027998e-02 -1.449487e-02 1.309142e-02 -4.688213e-03 -9.449191e-03 1.954723e-02 -2.096382e-02 1.302012e-02 -7.135547e-04 -3.962997e-02 -1.241255e-02 1.467215e-02 2.944968e-03 1.145485e-02 5.519514e-03 8.619339e-04 -8.820931e-04 5.510512e-04 -1.101829e-03 -9.441812e-04 -4.512285e-03 1.305377e-03 1.029524e-03 1.527129e-03 -7.313773e-04 3.355592e-04 -4.211545e-04 -1.669767e-03 5.036261e-05 -1.792339e-03 7.644027e-04 2.182626e-05 -3.391311e-04 6.952109e-04 -3.262266e-04 5.061180e-04 -2.293057e-04 7.190652e-04 -1.206383e-03 1.582795e-03 -5.582546e-04 -6.923555e-04 1.118733e-03 -5.767320e-04 -1.601373e-04 7.923472e-04 -9.047673e-04 3.614298e-04 1.821160e-04 -6.318095e-04 7.635633e-04 -4.103534e-04 -2.676478e-04 7.897803e-04 -8.061189e-04 2.557215e-04 3.807533e-04 -6.374795e-04 6.085994e-04 -4.305868e-04 2.063662e-04 -8.119239e-05 6.761493e-05 -1.111543e-04 4.157257e-06 1.971519e-04 -4.300786e-04 5.278969e-04 -3.825441e-04 1.504673e-03 -1.680665e-03 -1.501311e-03 8.550838e-04 -3.631632e-05 -1.307004e-03 8.216694e-04 1.257666e-04 7.021049e-04 7.606745e-04 -1.228565e-03 5.351166e-04 8.283032e-05 -4.538214e-04 -7.661796e-04 1.920684e-04 5.218637e-05 3.505902e-05 3.746040e-04 2.071005e-04 -4.208006e-04 4.710894e-04 -2.109116e-04 -1.070629e-04 1.852891e-04 -1.764437e-04 3.782450e-04 -1.132359e-04 -3.849958e-04 5.040487e-04 -3.617298e-04 -7.357613e-05 3.120505e-04 -3.479312e-04 1.707129e-04 5.177104e-05 -1.260893e-04 5.142423e-05 -3.382192e-05 3.799455e-05 -2.380355e-05 3.929728e-05 -1.045204e-04 1.903957e-04 -1.759700e-04 9.763019e-05 2.605359e-07 -1.113136e-04 1.496786e-04 -1.055020e-04 6.884815e-05 -1.346015e-04 2.237909e-04 -1.716339e-04 -2.199107e-05 2.690253e-04 -3.981186e-04 3.927457e-04 -2.821850e-04 9.990683e-05
<VARIANCE> 180
 9.226234e-01 4.256950e-01 2.022855e-01 9.647349e-02 1.471241e-01 5.373514e-02 7.281858e-02 3.673815e-02 4.043732e-02 4.052974e-02 3.847549e-02 2.788885e-02 2.759171e-02 2.572222e-02 2.591464e-02 1.961569e-02 1.827862e-02 1.671198e-02 1.763145e-02 1.494490e-02 1.569739e-02 1.417537e-02 1.094021e-02 1.099602e-02 1.111598e-02 7.889765e-03 8.680603e-03 8.649196e-03 8.837927e-03 8.859348e-03 8.471197e-03 6.579689e-03 6.275467e-03 6.414013e-03 5.619904e-03 5.431298e-03 5.309058e-03 5.396674e-03 5.221488e-03 4.759484e-03 4.558084e-03 4.842051e-03 4.932703e-03 4.489608e-03 4.021684e-03 4.011008e-03 4.116928e-03 3.967660e-03 3.764306e-03 3.600174e-03 3.432252e-03 3.356664e-03 3.505373e-03 3.604173e-03 3.404707e-03 3.288102e-03 3.406797e-03 3.492164e-03 3.467529e-03 3.277184e-03 1.942432e-02 8.598169e-03 7.456983e-03 4.382163e-03 5.113691e-03 3.774273e-03 4.230957e-03 3.277259e-03 3.429149e-03 3.482709e-03 3.342242e-03 3.093205e-03 2.933076e-03 2.902229e-03 2.843882e-03 2.535103e-03 2.360194e-03 2.296425e-03 2.148491e-03 2.072410e-03 2.024735e-03 1.868766e-03 1.708443e-03 1.641708e-03 1.587620e-03 1.516496e-03 1.418154e-03 1.354322e-03 1.317794e-03 1.247647e-03 1.163411e-03 1.099244e-03 1.083639e-03 1.023730e-03 9.644537e-04 9.362079e-04 9.071596e-04 8.517533e-04 8.247659e-04 7.900393e-04 7.710839e-04 7.596934e-04 7.373249e-04 7.000900e-04 6.700263e-04 6.527636e-04 6.243146e-04 6.231527e-04 5.979416e-04 5.739694e-04 5.628515e-04 5.406182e-04 5.210940e-04 5.154270e-04 4.991321e-04 4.895850e-04 4.891229e-04 4.766025e-04 4.599845e-04 4.531470e-04 1.678169e-02 1.481297e-02 1.704082e-02 1.434204e-02 1.416552e-02 1.329422e-02 1.348663e-02 1.265478e-02 1.237253e-02 1.292420e-02 1.216712e-02 1.188612e-02 1.170832e-02 1.145578e-02 1.130041e-02 1.071812e-02 1.029386e-02 1.007240e-02 9.603061e-03 9.387068e-03 9.188856e-03 8.761441e-03 8.157251e-03 7.866582e-03 7.499567e-03 7.189590e-03 6.986422e-03 6.548930e-03 6.443681e-03 6.243104e-03 5.864150e-03 5.617287e-03 5.476645e-03 5.334804e-03 4.979814e-03 4.872092e-03 4.698545e-03 4.472021e-03 4.326962e-03 4.187416e-03 4.113289e-03 3.981647e-03 3.875465e-03 3.714564e-03 3.558105e-03 3.498425e-03 3.357767e-03 3.293406e-03 3.191374e-03 3.098211e-03 3.037679e-03 2.923238e-03 2.820481e-03 2.770172e-03 2.656732e-03 2.602703e-03 2.636041e-03 2.567020e-03 2.464343e-03 2.468850e-03
<GCONST> -6.385602e+02
<STREAM> 2
<NUMMIXES> 2
<MIXTURE> 1 9.055837e-01
<MEAN> 1
 5.252913e+00
<VARIANCE> 1
 3.119612e-02
<GCONST> -1.629585e+00
<MIXTURE> 2 9.443384e-02
<MEAN> 0
<VARIANCE> 0
<GCONST> 0.000000e+00
<STREAM> 3
<NUMMIXES> 2
<MIXTURE> 1 8.970668e-01
<MEAN> 1
 -3.418967e-03
<VARIANCE> 1
 3.196120e-04
<GCONST> -6.210526e+00
<MIXTURE> 2 1.029517e-01
<MEAN> 0
<VARIANCE> 0
<GCONST> 0.000000e+00
<STREAM> 4
<NUMMIXES> 2
<MIXTURE> 1 8.957282e-01
<MEAN> 1
 2.125461e-04
<VARIANCE> 1
 1.072596e-03
<GCONST> -4.999796e+00
<MIXTURE> 2 1.042903e-01
<MEAN> 0
<VARIANCE> 0
<GCONST> 0.000000e+00
<STREAM> 5
<MEAN> 15
 -5.799822e+00 -3.502860e+00 -3.426870e+00 -3.109451e+00 -2.925668e+00 1.126441e-01 3.703609e-02 3.397903e-02 2.259170e-02 1.348872e-02 -2.513641e-03 3.307211e-04 -3.899860e-03 2.707212e-04 -4.198912e-04
<VARIANCE> 15
 1.707903e+01 5.130333e+00 4.871305e+00 3.506069e+00 2.932928e+00 2.106882e+00 1.248997e+00 1.274436e+00 9.964467e-01 8.620118e-01 1.290160e+01 9.829355e+00 1.030762e+01 8.316814e+00 7.536330e+00
<GCONST> 4.832666e+01
<STATE> 4
<SWEIGHTS> 5
 1.000000e+00 0.000000e+00 0.000000e+00 0.000000e+00 0.000000e+00
<STREAM> 1
<MEAN> 180
 5.632206e+00 2.571438e+00 2.486829e-01 7.364194e-01 -4.184287e-02 5.985708e-01 -4.209553e-01 2.527474e-01 -3.284746e-01 4.301789e-02 4.765913e-03 1.387320e-01 -1.984347e-01 2.076845e-01 -4.521353e-02 1.553929e-02 -1.786582e-01 1.076141e-01 -1.520712e-01 1.778085e-02 6.028479e-02 -6.317821e-02 -1.177349e-02 7.962137e-02 -7.667170e-02 8.249947e-02 -9.579732e-02 8.549724e-02 -3.439922e-02 1.351176e-02 -1.316784e-02 5.000013e-02 -7.802740e-02 7.079600e-02 -3.505290e-02 1.459635e-02 -1.851837e-02 3.778493e-02 -5.491528e-02 5.404766e-02 -4.678224e-02 3.174813e-02 -1.796644e-02 7.058380e-03 -2.117729e-03 5.241073e-03 -1.594810e-02 2.323963e-02 -2.075005e-02 1.262754e-02 -8.406590e-03 9.700901e-03 -1.345747e-02 1.254259e-02 -5.286784e-03 -7.971280e-03 1.786758e-02 -1.981214e-02 1.265490e-02 -8.572284e-04 -2.607363e-02 -1.242674e-02 6.734341e-03 3.202182e-03 8.918613e-03 3.675447e-04 1.087999e-03 -1.014780e-03 2.547153e-03 7.088432e-04 -3.401707e-03 -2.322270e-03 7.235907e-04 6.239393e-04 6.362226e-06 -4.079523e-04 5.941735e-04 -5.432500e-05 -1.000688e-03 2.474858e-04 -1.872986e-03 1.260459e-03 -2.553796e-04 -3.641345e-04 6.908096e-04 -4.293936e-04 9.556028e-04 -3.108462e-04 -2.581107e-04 2.004884e-04 4.125055e-04 -3.580845e-04 -2.823872e-05 2.889222e-06 2.713352e-04 -2.677913e-04 2.383990e-04 -1.070976e-04 -2.306651e-04 4.318445e-04 -5.455058e-04 6.032077e-04 -4.756441e-04 1.240791e-04 2.619222e-04 -4.586365e-04 2.783739e-04 4.420881e-07 -1.288630e-04 1.303857e-04 2.564020e-05 -2.780599e-04 4.033180e-04 -2.369097e-04 -1.224865e-04 4.672818e-04 -6.524262e-04 6.410125e-04 -4.265233e-04 1.292762e-04 2.909043e-03 -5.776139e-04 -2.161018e-03 1.802609e-04 -7.071175e-04 -1.567506e-03 7.388003e-04 1.343686e-04 6.493783e-04 5.422361e-04 -9.021711e-04 6.823320e-04 -4.494907e-05 -3.143504e-04 -5.018506e-04 2.625580e-04 1.549141e-04 1.282716e-05 1.583606e-04 2.407963e-05 -1.930778e-04 1.442222e-04 2.543153e-05 8.243004e-05 -3.140068e-05 -7.912294e-05 4.806376e-05 5.293297e-05 -2.183487e-04 4.074888e-04 -3.731451e-04 4.866849e-05 2.386446e-04 -3.508318e-04 2.551681e-04 3.696586e-05 -2.458049e-04 2.993930e-04 -1.476468e-04 -2.558988e-05 9.900940e-05 -7.938244e-05 -2.890525e-06 9.623776e-05 -2.238128e-04 1.935375e-04 -3.212958e-05 -1.016890e-04 1.132123e-04 -1.100059e-04 1.490950e-04 -1.454827e-04 7.413248e-05 2.784872e-06 -3.085184e-05 9.715479e-05 -1.827329e-04 2.621521e-04 -2.745651e-04 1.912283e-04
<VARIANCE> 180
 9.968126e-01 4.574253e-01 1.973151e-01 9.377148e-02 1.339297e-01 5.425747e-02 7.204112e-02 3.577273e-02 4.277962e-02 3.989786e-02 3.736041e-02 2.771904e-02 2.814159e-02 2.661945e-02 2.534857e-02 1.931578e-02 1.810949e-02 1.682365e-02 1.754848e-02 1.499512e-02 1.555103e-02 1.449240e-02 1.101489e-02 1.088106e-02 1.102486e-02 7.932015e-03 8.662418e-03 8.481110e-03 8.714642e-03 8.687681e-03 8.346377e-03 6.611309e-03 6.133463e-03 6.332464e-03 5.653331e-03 5.428284e-03 5.319605e-03 5.355896e-03 5.150807e-03 4.673772e-03 4.447714e-03 4.703721e-03 4.837710e-03 4.401535e-03 3.930639e-03 3.914780e-03 3.990421e-03 3.835866e-03 3.687450e-03 3.506082e-03 3.327457e-03 3.281483e-03 3.413196e-03 3.453821e-03 3.233005e-03 3.153921e-03 3.312072e-03 3.419328e-03 3.409163e-03 3.220788e-03 2.153089e-02 9.511155e-03 7.836931e-03 4.680662e-03 5.311674e-03 3.933282e-03 4.488859e-03 3.424861e-03 3.592937e-03 3.604678e-03 3.502797e-03 3.225030e-03 3.050575e-03 3.047311e-03 2.986120e-03 2.652886e-03 2.485446e-03 2.408300e-03 2.245914e-03 2.153512e-03 2.111319e-03 1.948717e-03 1.795637e-03 1.695332e-03 1.662467e-03 1.593155e-03 1.492899e-03 1.410800e-03 1.367834e-03 1.289079e-03 1.205717e-03 1.134392e-03 1.119306e-03 1.052735e-03 9.978883e-04 9.672994e-04 9.296065e-04 8.726940e-04 8.521798e-04 8.065349e-04 7.942896e-04 7.768385e-04 7.524515e-04 7.146430e-04 6.774358e-04 6.628461e-04 6.364780e-04 6.323817e-04 6.083455e-04 5.827189e-04 5.720113e-04 5.507785e-04 5.293536e-04 5.258670e-04 5.049456e-04 4.968273e-04 4.955356e-04 4.806061e-04 4.647384e-04 4.615277e-04 1.804944e-02 1.565112e-02 1.780215e-02 1.493755e-02 1.477648e-02 1.371456e-02 1.392328e-02 1.304718e-02 1.283201e-02 1.341376e-02 1.285860e-02 1.239037e-02 1.225554e-02 1.183793e-02 1.172075e-02 1.115092e-02 1.073328e-02 1.037311e-02 9.844092e-03 9.612841e-03 9.522897e-03 8.923417e-03 8.476892e-03 8.051230e-03 7.707696e-03 7.475039e-03 7.203122e-03 6.690989e-03 6.661341e-03 6.324698e-03 6.001058e-03 5.731931e-03 5.576360e-03 5.430614e-03 5.036715e-03 4.974538e-03 4.787877e-03 4.511547e-03 4.383799e-03 4.232859e-03 4.156098e-03 4.003795e-03 3.910257e-03 3.751586e-03 3.566965e-03 3.504297e-03 3.381517e-03 3.315669e-03 3.208275e-03 3.116953e-03 3.060906e-03 2.923643e-03 2.816308e-03 2.780691e-03 2.658856e-03 2.614003e-03 2.637632e-03 2.550941e-03 2.454788e-03 2.474894e-03
<GCONST> -6.358513e+02
<STREAM> 2
<NUMMIXES> 2
<MIXTURE> 1 8.895094e-01
<MEAN> 1
 5.245390e+00
<VARIANCE> 1
 3.152557e-02
<GCONST> -1.619079e+00
<MIXTURE> 2 1.105041e-01
<MEAN> 0
<VARIANCE> 0
<GCONST> 0.000000e+00
<STREAM> 3
<NUMMIXES> 2
<MIXTURE> 1 8.801382e-01
<MEAN> 1
 -2.645126e-03
<VARIANCE> 1
 3.490196e-04
<GCONST> -6.122505e+00
<MIXTURE> 2 1.198766e-01
<MEAN> 0
<VARIANCE> 0
<GCONST> 0.000000e+00
<STREAM> 4
<NUMMIXES> 2
<MIXTURE> 1 8.787604e-01
<MEAN> 1
 1.669812e-04
<VARIANCE> 1
 1.176551e-03
<GCONST> -4.907291e+00
<MIXTURE> 2 1.212550e-01
<MEAN> 0
<VARIANCE> 0
<GCONST> 0.000000e+00
<STREAM> 5
<MEAN> 15
 -5.450697e+00 -3.368329e+00 -3.306672e+00 -3.020182e+00 -2.867668e+00 7.668976e-02 2.865924e-02 2.301641e-02 1.737042e-02 1.326653e-02 -6.858829e-03 -7.469934e-04 -6.998417e-04 -3.348812e-04 2.201645e-03
<VARIANCE> 15
 1.655713e+01 5.080319e+00 4.806460e+00 3.497874e+00 3.007330e+00 2.007199e+00 1.180204e+00 1.194498e+00 9.460435e-01 8.447015e-01 1.214110e+01 9.153062e+00 9.742431e+00 7.969548e+00 7.296123e+00
<GCONST> 4.778957e+01
<STATE> 5
<SWEIGHTS> 5
 1.000000e+00 0.000000e+00 0.000000e+00 0.000000e+00 0.000000e+00
<STREAM> 1
<MEAN> 180
 5.572062e+00 2.524180e+00 2.456864e-01 7.424968e-01 -1.860696e-02 5.881397e-01 -4.230063e-01 2.476931e-01 -3.154203e-01 4.788994e-02 -7.922862e-03 1.366423e-01 -1.954195e-01 2.118659e-01 -4.631171e-02 1.518016e-02 -1.756445e-01 1.086964e-01 -1.553230e-01 1.978181e-02 5.423857e-02 -5.780536e-02 -1.247694e-02 7.730726e-02 -7.379192e-02 8.097126e-02 -9.328002e-02 8.462044e-02 -3.674848e-02 1.654002e-02 -1.403677e-02 4.907662e-02 -7.697393e-02 6.857334e-02 -3.262350e-02 1.295825e-02 -1.821028e-02 3.852846e-02 -5.696400e-02 5.649552e-02 -4.922697e-02 3.391606e-02 -2.005976e-02 8.359397e-03 -2.195658e-03 4.283542e-03 -1.476770e-02 2.243900e-02 -2.014338e-02 1.184103e-02 -6.883049e-03 7.379245e-03 -1.108239e-02 1.135534e-02 -6.009401e-03 -5.409138e-03 1.409422e-02 -1.575667e-02 9.488509e-03 6.167968e-04 -2.047820e-02 -1.115788e-02 2.190855e-03 3.475392e-03 7.183487e-03 -4.805872e-03 3.586016e-03 -7.751586e-04 4.499517e-03 1.996479e-03 -5.279696e-03 -6.470380e-04 5.327224e-04 -3.203996e-04 -1.157893e-03 -1.838518e-04 4.925265e-04 -2.253749e-04 -3.541138e-04 3.073202e-05 -2.172523e-03 1.891222e-03 -4.614173e-04 -9.597671e-05 8.437947e-04 -8.068639e-04 1.364774e-03 -2.649676e-04 -8.461088e-04 1.595836e-03 -9.928036e-04 -1.228751e-04 8.135761e-04 -1.247568e-03 1.093866e-03 -3.099866e-04 -4.356567e-04 8.265862e-04 -7.325069e-04 3.854759e-04 -1.912529e-04 2.283202e-04 -4.269458e-04 5.835592e-04 -5.800638e-04 2.111497e-04 1.872587e-04 -4.009229e-04 4.702215e-04 -4.590777e-04 4.722374e-04 -5.656845e-04 5.598282e-04 -2.483083e-04 -2.559745e-04 8.262207e-04 -1.254806e-03 1.427024e-03 -1.171346e-03 5.529063e-04 -2.269661e-03 -1.837963e-03 -9.974216e-04 8.064336e-04 2.371360e-04 -1.467224e-03 2.103990e-03 4.226384e-04 6.697188e-04 9.414211e-04 -7.618711e-04 3.981955e-04 3.350497e-04 -7.438120e-04 -4.080816e-04 2.959017e-04 1.505097e-04 -3.908987e-04 4.976679e-04 -1.816360e-04 -6.127141e-04 6.987112e-04 -2.185121e-04 4.074231e-06 1.990806e-04 -4.422030e-04 3.726428e-04 -7.513152e-05 -9.784760e-05 4.911247e-04 -5.197870e-04 -1.970416e-05 4.372562e-04 -6.045610e-04 1.429214e-04 2.728951e-04 -3.423073e-04 2.073239e-04 1.242836e-04 -3.374798e-04 2.429025e-04 -1.164711e-04 -5.903921e-05 2.707681e-04 -4.354355e-04 2.735890e-04 2.308151e-05 -1.696697e-04 1.434669e-04 -1.127259e-04 5.611170e-05 1.155174e-05 -1.479939e-05 -4.606023e-05 4.086737e-05 1.040897e-04 -2.583361e-04 3.269702e-04 -2.532793e-04 1.002041e-04
<VARIANCE> 180
 1.131198e+00 4.691580e-01 1.984507e-01 9.512936e-02 1.269676e-01 5.517977e-02 7.445198e-02 3.573271e-02 4.598641e-02 3.920165e-02 3.711819e-02 2.789658e-02 2.871494e-02 2.801595e-02 2.544930e-02 1.916365e-02 1.815635e-02 1.721001e-02 1.798099e-02 1.530517e-02 1.552903e-02 1.474479e-02 1.120812e-02 1.088290e-02 1.115974e-02 8.157086e-03 8.858889e-03 8.527920e-03 8.657885e-03 8.500895e-03 8.321248e-03 6.704609e-03 6.004537e-03 6.386599e-03 5.838610e-03 5.463619e-03 5.285089e-03 5.385188e-03 5.132868e-03 4.711988e-03 4.476913e-03 4.654862e-03 4.791505e-03 4.376569e-03 3.919743e-03 3.898093e-03 3.988636e-03 3.817797e-03 3.641133e-03 3.442378e-03 3.284615e-03 3.273964e-03 3.414449e-03 3.413178e-03 3.173206e-03 3.076852e-03 3.231433e-03 3.347784e-03 3.368927e-03 3.197151e-03 2.342989e-02 1.045823e-02 8.139522e-03 4.944915e-03 5.453798e-03 4.048629e-03 4.722843e-03 3.529237e-03 3.701648e-03 3.673044e-03 3.584252e-03 3.301495e-03 3.120181e-03 3.112081e-03 3.063050e-03 2.730127e-03 2.560223e-03 2.486155e-03 2.297946e-03 2.211496e-03 2.167470e-03 2.015224e-03 1.864935e-03 1.747897e-03 1.718171e-03 1.650634e-03 1.557649e-03 1.440182e-03 1.400756e-03 1.312699e-03 1.239393e-03 1.174044e-03 1.136336e-03 1.086444e-03 1.028321e-03 9.898010e-04 9.473214e-04 8.994847e-04 8.808343e-04 8.254902e-04 8.162059e-04 7.884437e-04 7.635317e-04 7.341226e-04 6.989996e-04 6.762268e-04 6.536080e-04 6.394035e-04 6.211745e-04 5.949017e-04 5.803074e-04 5.608645e-04 5.443593e-04 5.362653e-04 5.102543e-04 5.005765e-04 5.014251e-04 4.881037e-04 4.727555e-04 4.714270e-04 1.930284e-02 1.625721e-02 1.814529e-02 1.517475e-02 1.514006e-02 1.372587e-02 1.404127e-02 1.307232e-02 1.296003e-02 1.338520e-02 1.305465e-02 1.248149e-02 1.231726e-02 1.177167e-02 1.173483e-02 1.125331e-02 1.082297e-02 1.048603e-02 9.856000e-03 9.662767e-03 9.583773e-03 8.949743e-03 8.618249e-03 8.168181e-03 7.832000e-03 7.632754e-03 7.271301e-03 6.765307e-03 6.780159e-03 6.309654e-03 6.053570e-03 5.819110e-03 5.625315e-03 5.459655e-03 5.074829e-03 4.994589e-03 4.801877e-03 4.548523e-03 4.381382e-03 4.215880e-03 4.153165e-03 4.016689e-03 3.909576e-03 3.777768e-03 3.598580e-03 3.510801e-03 3.388661e-03 3.328762e-03 3.223422e-03 3.112892e-03 3.044777e-03 2.905314e-03 2.833801e-03 2.795780e-03 2.658328e-03 2.613940e-03 2.638743e-03 2.551724e-03 2.478217e-03 2.503108e-03
<GCONST> -6.334565e+02
<STREAM> 2
<NUMMIXES> 2
<MIXTURE> 1 8.740305e-01
<MEAN> 1
 5.239672e+00
<VARIANCE> 1
 3.203602e-02
<GCONST> -1.603017e+00
<MIXTURE> 2 1.259913e-01
<MEAN> 0
<VARIANCE> 0
<GCONST> 0.000000e+00
<STREAM> 3
<NUMMIXES> 2
<MIXTURE> 1 8.634677e-01
<MEAN> 1
 -2.518173e-03
<VARIANCE> 1
 3.653370e-04
<GCONST> -6.076814e+00
<MIXTURE> 2 1.365529e-01
<MEAN> 0
<VARIANCE> 0
<GCONST> 0.000000e+00
<STREAM> 4
<NUMMIXES> 2
<MIXTURE> 1 8.619788e-01
<MEAN> 1
 -1.817045e-04
<VARIANCE> 1
 1.298923e-03
<GCONST> -4.808343e+00
<MIXTURE> 2 1.380425e-01
<MEAN> 0
<VARIANCE> 0
<GCONST> 0.000000e+00
<STREAM> 5
<MEAN> 15
 -5.258030e+00 -3.271085e+00 -3.223606e+00 -2.959738e+00 -2.810285e+00 7.020664e-02 3.384558e-02 2.493750e-02 1.737549e-02 1.737655e-02 1.104108e-02 8.013026e-03 5.079845e-03 3.542708e-03 1.879552e-03
<VARIANCE> 15
 1.638071e+01 5.061040e+00 4.825425e+00 3.550456e+00 3.051806e+00 1.964737e+00 1.141695e+00 1.166342e+00 9.251463e-01 8.224040e-01 1.180396e+01 8.729835e+00 9.452523e+00 7.744562e+00 7.085055e+00
<GCONST> 4.751740e+01
<STATE> 6
<SWEIGHTS> 5
 1.000000e+00 0.000000e+00 0.000000e+00 0.000000e+00 0.000000e+00
<STREAM> 1
<MEAN> 180
 5.502855e+00 2.490587e+00 2.400778e-01 7.502325e-01 3.670371e-03 5.625499e-01 -4.123663e-01 2.431280e-01 -2.958487e-01 5.495492e-02 -2.465932e-02 1.372414e-01 -1.927994e-01 2.104385e-01 -4.929436e-02 1.379593e-02 -1.747502e-01 1.075226e-01 -1.550358e-01 2.083180e-02 4.686385e-02 -5.019413e-02 -1.402620e-02 7.633617e-02 -6.902900e-02 7.711305e-02 -8.857150e-02 8.377424e-02 -4.034830e-02 2.355610e-02 -1.952805e-02 4.913383e-02 -7.304358e-02 6.214576e-02 -2.788287e-02 1.175716e-02 -2.002256e-02 4.180843e-02 -6.007155e-02 5.804227e-02 -4.990569e-02 3.463338e-02 -2.204509e-02 1.133902e-02 -5.154040e-03 5.537582e-03 -1.383255e-02 2.030841e-02 -1.751461e-02 9.165790e-03 -4.349074e-03 4.727787e-03 -8.702541e-03 1.049383e-02 -7.408757e-03 -1.802953e-03 8.857289e-03 -9.891463e-03 4.716124e-03 2.748727e-03 -3.685199e-02 -1.677818e-02 3.153305e-03 7.103248e-03 9.021545e-03 -8.271396e-03 1.258159e-02 4.082460e-04 6.705955e-03 5.220843e-03 -7.520921e-03 -1.180771e-04 1.506951e-03 -4.562624e-03 -2.416512e-03 1.053450e-03 3.912901e-04 -2.378515e-03 2.068898e-03 6.933290e-05 -4.710968e-03 4.746446e-03 -1.617954e-03 -5.130986e-04 2.193886e-03 -2.404015e-03 3.033127e-03 -1.026514e-03 -1.149759e-03 3.329813e-03 -2.777487e-03 -2.353740e-04 2.445898e-03 -3.091277e-03 1.461732e-03 7.678173e-04 -1.595111e-03 1.143366e-03 1.646783e-05 -1.053183e-03 9.265693e-04 -2.449041e-04 -7.627264e-04 1.625626e-03 -1.964783e-03 1.061192e-03 2.823314e-04 -1.065368e-03 1.077533e-03 -6.727214e-04 1.854961e-04 -1.533916e-04 3.762073e-04 -3.454509e-04 -1.803173e-04 1.151811e-03 -2.066565e-03 2.428445e-03 -1.882271e-03 7.318837e-04 -5.353700e-03 -7.875033e-03 -9.809084e-04 4.025754e-03 -3.480880e-04 -6.403602e-04 3.839337e-03 4.299551e-04 7.344933e-04 2.456143e-03 -1.478657e-03 6.421222e-04 1.071858e-03 -2.606770e-03 -8.424224e-04 1.652526e-03 5.629259e-04 -1.866762e-03 1.930273e-03 7.560803e-04 -2.051336e-03 2.299050e-03 -1.481127e-03 -6.218187e-04 7.478413e-04 -7.117824e-04 1.217811e-03 -1.177231e-03 1.811044e-05 8.183542e-04 -1.056865e-03 -1.661245e-04 1.011137e-03 -8.467108e-04 -3.493555e-05 8.697982e-04 -8.197284e-04 8.220582e-06 7.110378e-04 -9.720830e-04 7.078531e-04 -2.917532e-04 -2.703627e-04 7.181148e-04 -7.477697e-04 3.953323e-04 1.317203e-04 -4.101941e-04 1.870835e-04 2.390863e-04 -5.544070e-04 4.075831e-04 7.452568e-05 -4.778234e-04 4.194435e-04 9.387646e-05 -6.614582e-04 7.920351e-04 -4.879432e-04 1.351331e-04
<VARIANCE> 180
 1.368441e+00 4.641205e-01 2.031390e-01 1.001552e-01 1.259670e-01 5.470504e-02 7.881495e-02 3.662948e-02 5.070728e-02 3.925210e-02 3.812204e-02 2.869025e-02 2.927914e-02 2.953523e-02 2.651547e-02 1.943009e-02 1.822976e-02 1.798674e-02 1.875631e-02 1.572821e-02 1.559955e-02 1.495026e-02 1.151467e-02 1.097323e-02 1.155371e-02 8.486616e-03 9.262825e-03 8.854700e-03 8.603393e-03 8.324260e-03 8.269502e-03 6.757092e-03 5.916917e-03 6.526368e-03 6.023447e-03 5.493876e-03 5.228979e-03 5.436632e-03 5.105501e-03 4.813605e-03 4.551825e-03 4.621908e-03 4.738053e-03 4.382943e-03 3.958552e-03 3.866754e-03 3.993693e-03 3.798149e-03 3.579997e-03 3.384380e-03 3.276201e-03 3.272992e-03 3.371195e-03 3.340334e-03 3.129169e-03 3.017451e-03 3.145296e-03 3.238627e-03 3.290504e-03 3.160469e-03 2.610166e-02 1.229340e-02 8.605868e-03 5.495235e-03 5.757441e-03 4.354004e-03 5.080857e-03 3.783160e-03 3.946648e-03 3.870614e-03 3.766245e-03 3.466351e-03 3.243745e-03 3.224671e-03 3.114367e-03 2.846688e-03 2.671546e-03 2.596532e-03 2.411145e-03 2.299401e-03 2.251343e-03 2.128011e-03 1.963914e-03 1.843170e-03 1.790822e-03 1.701107e-03 1.633643e-03 1.478717e-03 1.434753e-03 1.342554e-03 1.279680e-03 1.223235e-03 1.163859e-03 1.144447e-03 1.068581e-03 1.021197e-03 9.762855e-04 9.335094e-04 9.218007e-04 8.660728e-04 8.431214e-04 8.081631e-04 7.858868e-04 7.633492e-04 7.336283e-04 7.042870e-04 6.824593e-04 6.549503e-04 6.394872e-04 6.059986e-04 5.885767e-04 5.687593e-04 5.557359e-04 5.442000e-04 5.184464e-04 5.054834e-04 5.088709e-04 5.028275e-04 4.889499e-04 4.850330e-04 2.182796e-02 1.838471e-02 1.883498e-02 1.598420e-02 1.579583e-02 1.419916e-02 1.448280e-02 1.339803e-02 1.348258e-02 1.370164e-02 1.345903e-02 1.268943e-02 1.251332e-02 1.193363e-02 1.204157e-02 1.171148e-02 1.111499e-02 1.077349e-02 1.016263e-02 9.840443e-03 9.757981e-03 9.232400e-03 8.879581e-03 8.489317e-03 8.154073e-03 7.788208e-03 7.448559e-03 6.912154e-03 6.930513e-03 6.495336e-03 6.307709e-03 6.034228e-03 5.771257e-03 5.604750e-03 5.261462e-03 5.109947e-03 4.906285e-03 4.688790e-03 4.501963e-03 4.305038e-03 4.246471e-03 4.145560e-03 4.020932e-03 3.879689e-03 3.743347e-03 3.622727e-03 3.472531e-03 3.392510e-03 3.340816e-03 3.205398e-03 3.103726e-03 3.008386e-03 2.949114e-03 2.880365e-03 2.738070e-03 2.676481e-03 2.718723e-03 2.629794e-03 2.569952e-03 2.562082e-03
<GCONST> -6.282624e+02
<STREAM> 2
<NUMMIXES> 2
<MIXTURE> 1 8.572472e-01
<MEAN> 1
 5.233357e+00
<VARIANCE> 1
 3.249290e-02
<GCONST> -1.588857e+00
<MIXTURE> 2 1.427785e-01
<MEAN> 0
<VARIANCE> 0
<GCONST> 0.000000e+00
<STREAM> 3
<NUMMIXES> 2
<MIXTURE> 1 8.459894e-01
<MEAN> 1
 -3.569657e-03
<VARIANCE> 1
 3.923909e-04
<GCONST> -6.005375e+00
<MIXTURE> 2 1.540369e-01
<MEAN> 0
<VARIANCE> 0
<GCONST> 0.000000e+00
<STREAM> 4
<NUMMIXES> 2
<MIXTURE> 1 8.441262e-01
<MEAN> 1
 -3.627244e-04
<VARIANCE> 1
 1.456161e-03
<GCONST> -4.694075e+00
<MIXTURE> 2 1.559003e-01
<MEAN> 0
<VARIANCE> 0
<GCONST> 0.000000e+00
<STREAM> 5
<MEAN> 15
 -5.016675e+00 -3.137217e+00 -3.121696e+00 -2.884603e+00 -2.733550e+00 1.311529e-01 6.839545e-02 4.683170e-02 3.756911e-02 2.639501e-02 1.083512e-02 1.247522e-02 6.278198e-03 1.239162e-02 2.953357e-03
<VARIANCE> 15
 1.594753e+01 4.880415e+00 4.795420e+00 3.568897e+00 3.092074e+00 1.898405e+00 1.076916e+00 1.123437e+00 8.923287e-01 7.929223e-01 1.125777e+01 8.255113e+00 8.971711e+00 7.387856e+00 6.848438e+00
<GCONST> 4.702682e+01
<TRANSP> 7
 0.000000e+00 1.000000e+00 0.000000e+00 0.000000e+00 0.000000e+00 0.000000e+00 0.000000e+00
 0.000000e+00 7.014366e-01 2.985635e-01 0.000000e+00 0.000000e+00 0.000000e+00 0.000000e+00
 0.000000e+00 0.000000e+00 6.870366e-01 3.129634e-01 0.000000e+00 0.000000e+00 0.000000e+00
 0.000000e+00 0.000000e+00 0.000000e+00 6.748498e-01 3.251501e-01 0.000000e+00 0.000000e+00
 0.000000e+00 0.000000e+00 0.000000e+00 0.000000e+00 6.643741e-01 3.356259e-01 0.000000e+00
 0.000000e+00 0.000000e+00 0.000000e+00 0.000000e+00 0.000000e+00 6.555467e-01 3.444534e-01
 0.000000e+00 0.000000e+00 0.000000e+00 0.000000e+00 0.000000e+00 0.000000e+00 0.000000e+00
<ENDHMM>
~h "E"
<BEGINHMM>
<NUMSTATES> 7
<STATE> 2
<SWEIGHTS> 5
 1.000000e+00 0.000000e+00 0.000000e+00 0.000000e+00 0.000000e+00
<STREAM> 1
<MEAN> 180
 5.872200e+00 2.338525e+00 -1.834456e-01 7.590077e-01 -1.182937e-02 4.052950e-01 -4.303417e-01 2.524197e-01 -1.193959e-01 1.551153e-01 -6.720984e-02 1.656141e-01 -2.442762e-01 1.907007e-01 -1.133698e-01 -1.681218e-02 -1.949812e-01 1.293726e-01 -1.518351e-01 7.633127e-02 9.285233e-03 -6.640071e-03 -1.379339e-02 5.348419e-02 -4.608565e-02 6.081418e-02 -7.574259e-02 7.577860e-02 -4.472677e-02 3.883109e-02 -3.019748e-02 4.975399e-02 -6.478839e-02 5.075420e-02 -2.690276e-02 1.990119e-02 -2.796470e-02 3.919189e-02 -5.311506e-02 5.194630e-02 -4.776832e-02 4.003585e-02 -3.892120e-02 3.878827e-02 -3.548264e-02 2.938027e-02 -2.803775e-02 2.618511e-02 -1.966662e-02 9.401092e-03 -3.626246e-03 2.666805e-03 -3.898405e-03 3.323397e-03 9.467597e-04 -7.269314e-03 1.170951e-02 -1.212963e-02 9.930111e-03 -7.220283e-03 1.107506e-01 5.198500e-02 -2.073637e-02 -4.004982e-03 -4.891913e-03 -1.583157e-03 -1.704367e-02 4.383092e-03 1.381434e-02 8.001267e-03 5.800236e-04 -4.572690e-03 -9.768748e-03 2.780896e-03 -9.116741e-03 -8.544702e-03 -3.913492e-03 8.877084e-03 -6.435378e-03 2.057390e-03 4.577387e-03 -1.084855e-03 2.305843e-03 -1.907004e-03 4.792176e-04 2.548045e-03 -1.718262e-03 1.417520e-03 -9.617007e-04 -1.036805e-03 1.922115e-03 -8.632048e-04 -3.866750e-04 4.882838e-04 6.862114e-04 -3.134270e-04 1.820549e-04 4.182242e-04 -4.621737e-04 1.290007e-03 -1.145904e-03 1.286759e-03 -1.168142e-03 1.056966e-03 -1.016178e-03 1.413236e-03 -1.509805e-03 1.270272e-03 -7.941830e-04 3.652167e-05 6.909593e-04 -9.230361e-04 6.750816e-04 -5.236471e-04 6.285915e-04 -9.696865e-04 1.653058e-03 -2.136491e-03 2.041315e-03 -1.572487e-03 -8.710676e-03 -9.559315e-03 1.210552e-03 3.441800e-03 -4.379860e-03 1.343211e-03 4.730947e-03 -4.054487e-04 -1.595547e-03 -9.138715e-04 -1.168312e-03 -3.303257e-04 1.077328e-03 -1.119886e-03 -8.123423e-05 1.207204e-03 9.120277e-04 -1.456333e-03 7.673484e-04 -2.173493e-03 -6.692119e-04 5.709838e-04 -6.705058e-04 5.205914e-04 -5.710257e-04 2.488730e-04 3.539488e-04 -9.613399e-04 1.024007e-04 1.478671e-03 -9.390627e-04 -2.479868e-04 1.067197e-03 -5.453171e-04 3.175669e-04 4.947931e-04 -4.038918e-04 1.180111e-04 5.632103e-05 -5.020009e-04 1.955882e-04 -3.160958e-04 7.437065e-04 -6.141468e-04 2.882562e-04 7.113469e-05 2.261040e-04 -2.430506e-04 -2.216564e-05 8.203026e-05 -1.720660e-04 2.577980e-04 -3.204765e-04 2.569866e-04 -1.541786e-04 4.266035e-04 -8.574969e-04 9.575299e-04 -8.058296e-04 5.838668e-04
<VARIANCE> 180
 1.852684e+00 5.761154e-01 1.841828e-01 1.077475e-01 6.631815e-02 4.994764e-02 6.255438e-02 4.015470e-02 4.741758e-02 3.274482e-02 2.864245e-02 3.647798e-02 2.571407e-02 2.216246e-02 2.294839e-02 2.277105e-02 1.874427e-02 2.180139e-02 1.954074e-02 1.420987e-02 1.352096e-02 1.223736e-02 1.052240e-02 1.075092e-02 9.803544e-03 7.770290e-03 8.032226e-03 8.413658e-03 7.726104e-03 6.792580e-03 7.769177e-03 6.798753e-03 5.462402e-03 5.681905e-03 5.409878e-03 5.310691e-03 4.788498e-03 4.819844e-03 4.587698e-03 4.304516e-03 3.886768e-03 3.811522e-03 3.689710e-03 3.620987e-03 3.869436e-03 4.094295e-03 3.958572e-03 3.472316e-03 3.193496e-03 3.126909e-03 3.002109e-03 2.982487e-03 3.205495e-03 3.275498e-03 3.188597e-03 2.927765e-03 2.945894e-03 2.896603e-03 2.837428e-03 2.800616e-03 9.722491e-02 4.435662e-02 2.171283e-02 1.028091e-02 9.293820e-03 6.398415e-03 7.511288e-03 5.171204e-03 5.922921e-03 5.549614e-03 5.188642e-03 5.138388e-03 4.386127e-03 3.828367e-03 3.948433e-03 3.776747e-03 3.180613e-03 3.298588e-03 2.999931e-03 2.727605e-03 2.639374e-03 2.427631e-03 2.182629e-03 2.116988e-03 1.976837e-03 1.883747e-03 1.772676e-03 1.711417e-03 1.596555e-03 1.502487e-03 1.453752e-03 1.339845e-03 1.297949e-03 1.196950e-03 1.158118e-03 1.131063e-03 1.056771e-03 1.019563e-03 9.303129e-04 9.041462e-04 8.743844e-04 8.434612e-04 8.320022e-04 7.781853e-04 7.703068e-04 7.513844e-04 7.320215e-04 7.028401e-04 6.646745e-04 6.450962e-04 6.321623e-04 6.216714e-04 5.984590e-04 5.829026e-04 5.862083e-04 5.640736e-04 5.630244e-04 5.429260e-04 5.290210e-04 5.178493e-04 1.212058e-01 5.370896e-02 5.233266e-02 2.914704e-02 2.810892e-02 2.281955e-02 2.290291e-02 2.030793e-02 2.065742e-02 2.080986e-02 2.015642e-02 1.940810e-02 1.784997e-02 1.741211e-02 1.687365e-02 1.658655e-02 1.476755e-02 1.433605e-02 1.336254e-02 1.292421e-02 1.222551e-02 1.139111e-02 1.047442e-02 1.019458e-02 9.323686e-03 9.254565e-03 8.678871e-03 8.111462e-03 7.861080e-03 7.367997e-03 7.061273e-03 6.844500e-03 6.518207e-03 6.206261e-03 5.827016e-03 5.704615e-03 5.412886e-03 5.196889e-03 4.881997e-03 4.762344e-03 4.447032e-03 4.418902e-03 4.251983e-03 4.045091e-03 3.936561e-03 3.816540e-03 3.665656e-03 3.625809e-03 3.537122e-03 3.363726e-03 3.290715e-03 3.235962e-03 3.149905e-03 3.113814e-03 3.086577e-03 2.856180e-03 2.906755e-03 2.827048e-03 2.722970e-03 2.656432e-03
<GCONST> -6.061836e+02
<STREAM> 2
<NUMMIXES> 2
<MIXTURE> 1 7.921261e-01
<MEAN> 1
 5.290958e+00
<VARIANCE> 1
 2.985220e-02
<GCONST> -1.673620e+00
<MIXTURE> 2 2.078803e-01
<MEAN> 0
<VARIANCE> 0
<GCONST> 0.000000e+00
<STREAM> 3
<NUMMIXES> 2
<MIXTURE> 1 7.491824e-01
<MEAN> 1
 -7.285387e-05
<VARIANCE> 1
 7.751271e-04
<GCONST> -5.324607e+00
<MIXTURE> 2 2.508242e-01
<MEAN> 0
<VARIANCE> 0
<GCONST> 0.000000e+00
<STREAM> 4
<NUMMIXES> 2
<MIXTURE> 1 7.458283e-01
<MEAN> 1
 -1.577045e-03
<VARIANCE> 1
 2.945780e-03
<GCONST> -3.989505e+00
<MIXTURE> 2 2.541780e-01
<MEAN> 0
<VARIANCE> 0
<GCONST> 0.000000e+00
<STREAM> 5
<MEAN> 15
 -4.521782e+00 -2.807564e+00 -2.698188e+00 -2.747127e+00 -2.495036e+00 -1.823389e-01 -1.182335e-01 -9.701554e-02 -1.128111e-01 -1.059264e-01 -2.048657e-02 -1.204096e-03 4.098477e-03 1.520987e-02 2.261994e-02
<VARIANCE> 15
 1.683692e+01 4.893557e+00 4.483089e+00 4.411689e+00 3.435912e+00 2.628164e+00 1.169084e+00 1.163207e+00 1.128410e+00 9.052321e-01 1.479101e+01 9.132693e+00 9.057623e+00 8.715305e+00 7.306924e+00
<GCONST> 4.875682e+01
<STATE> 3
<SWEIGHTS> 5
 1.000000e+00 0.000000e+00 0.000000e+00 0.000000e+00 0.000000e+00
<STREAM> 1
<MEAN> 180
 6.100952e+00 2.431635e+00 -2.249271e-01 7.618259e-01 -2.680981e-02 4.122889e-01 -4.517336e-01 2.716619e-01 -8.613759e-02 1.668870e-01 -6.883451e-02 1.494320e-01 -2.630540e-01 1.966419e-01 -1.330287e-01 -3.208315e-02 -1.978022e-01 1.471292e-01 -1.654448e-01 7.871215e-02 1.537782e-02 -8.774638e-03 -1.082693e-02 5.090727e-02 -4.626727e-02 6.705249e-02 -8.004599e-02 7.735156e-02 -4.659572e-02 3.787641e-02 -2.712857e-02 4.760832e-02 -6.386046e-02 5.149492e-02 -2.581416e-02 1.941718e-02 -2.766230e-02 4.053260e-02 -5.446886e-02 5.416717e-02 -4.987355e-02 4.178612e-02 -4.010247e-02 4.033155e-02 -3.794535e-02 3.317755e-02 -3.197297e-02 2.959490e-02 -2.204930e-02 1.016988e-02 -3.060590e-03 1.600016e-03 -3.175981e-03 2.794141e-03 1.904340e-03 -8.818612e-03 1.394131e-02 -1.477228e-02 1.257604e-02 -9.321298e-03 4.847908e-02 2.649869e-02 -3.095902e-03 3.394181e-03 -1.635353e-04 4.247010e-03 -5.111679e-03 5.158866e-03 1.170255e-02 3.590210e-03 -3.877188e-04 -6.539494e-03 -4.370152e-03 2.470610e-03 -4.714422e-03 -4.935727e-03 -8.549694e-04 5.400585e-03 -3.989134e-03 -2.810154e-04 1.425066e-03 -2.232984e-04 1.276063e-03 -9.912698e-04 2.951263e-04 1.719873e-03 -1.494196e-03 6.028570e-04 -9.509765e-04 -2.727452e-04 1.262215e-03 -1.247018e-03 3.331059e-04 1.906495e-04 4.554740e-04 -2.652367e-04 1.126575e-04 1.014121e-04 -2.652188e-05 3.644998e-04 -5.303447e-04 4.580820e-04 -3.331082e-04 3.978090e-04 -5.578588e-04 7.613009e-04 -6.392885e-04 5.485088e-04 -3.848414e-04 4.358366e-05 1.296430e-04 -1.012954e-04 -1.006902e-04 1.644068e-04 -1.051259e-04 -1.275905e-06 2.360263e-04 -4.906546e-04 6.634493e-04 -7.105712e-04 -2.687255e-02 -9.842780e-03 6.729868e-03 2.943193e-03 3.050072e-03 2.154097e-03 4.154069e-03 -1.770582e-05 -1.121277e-03 -2.160923e-03 -1.814354e-04 -7.215064e-04 1.966474e-03 -1.033439e-04 2.047590e-03 1.084887e-03 1.244610e-03 -1.607898e-03 1.224570e-03 -7.499775e-04 -1.181445e-03 2.715593e-04 -4.587125e-04 3.441407e-04 3.405989e-04 -4.895478e-04 -8.200856e-05 -1.215032e-04 7.921543e-05 8.423827e-05 -9.601399e-05 -2.260017e-04 1.813035e-04 4.774797e-05 -1.566894e-04 -2.055423e-06 -1.303887e-04 -9.777520e-05 2.109044e-04 -2.996262e-04 3.196324e-04 -4.047452e-04 1.707528e-04 -5.903432e-05 2.624287e-04 -4.840658e-04 3.623343e-04 -2.194836e-04 1.970446e-04 -4.626023e-05 -2.233284e-04 3.171780e-04 -3.103895e-04 3.422916e-04 -4.048241e-04 3.976591e-04 -4.285076e-04 5.016893e-04 -4.412928e-04 2.713779e-04
<VARIANCE> 180
 1.349426e+00 4.569204e-01 1.791420e-01 8.658835e-02 5.951051e-02 4.530492e-02 5.349667e-02 3.926430e-02 4.204947e-02 2.811460e-02 2.762885e-02 3.469476e-02 2.437775e-02 2.158174e-02 2.239670e-02 2.133183e-02 1.806408e-02 2.200210e-02 1.850012e-02 1.424637e-02 1.321559e-02 1.165647e-02 1.033965e-02 1.048769e-02 9.624276e-03 7.568593e-03 7.840263e-03 8.089000e-03 7.554283e-03 6.604024e-03 7.762063e-03 6.746885e-03 5.433946e-03 5.614041e-03 5.421534e-03 5.529500e-03 5.015653e-03 4.756263e-03 4.648871e-03 4.362529e-03 4.025923e-03 3.884388e-03 3.739540e-03 3.680077e-03 3.940717e-03 4.164141e-03 4.039085e-03 3.646743e-03 3.341655e-03 3.223990e-03 3.103258e-03 3.107516e-03 3.315170e-03 3.396962e-03 3.250765e-03 3.023968e-03 3.057782e-03 2.949915e-03 2.853685e-03 2.829524e-03 7.191427e-02 3.208990e-02 1.697628e-02 8.868294e-03 7.770166e-03 5.518157e-03 6.194784e-03 4.887639e-03 4.952150e-03 4.752574e-03 4.523342e-03 4.625926e-03 3.969383e-03 3.614021e-03 3.578424e-03 3.509487e-03 3.007185e-03 3.134268e-03 2.886603e-03 2.570879e-03 2.494954e-03 2.262230e-03 2.069399e-03 1.990998e-03 1.884605e-03 1.786892e-03 1.684022e-03 1.635921e-03 1.508825e-03 1.435519e-03 1.380565e-03 1.278670e-03 1.224341e-03 1.140072e-03 1.102704e-03 1.084151e-03 1.021628e-03 9.685453e-04 9.004372e-04 8.758839e-04 8.299458e-04 7.899699e-04 7.879203e-04 7.602121e-04 7.384548e-04 7.183045e-04 7.086915e-04 6.824293e-04 6.450689e-04 6.281887e-04 6.106981e-04 5.921840e-04 5.741745e-04 5.688362e-04 5.636828e-04 5.411140e-04 5.422701e-04 5.188889e-04 5.039577e-04 4.966414e-04 7.345967e-02 3.880115e-02 4.057927e-02 2.576618e-02 2.458814e-02 2.086270e-02 2.106955e-02 1.952314e-02 1.945724e-02 1.907006e-02 1.864037e-02 1.834568e-02 1.688557e-02 1.694353e-02 1.610216e-02 1.582533e-02 1.444118e-02 1.419824e-02 1.311872e-02 1.230800e-02 1.193312e-02 1.112468e-02 1.030143e-02 1.001705e-02 9.301183e-03 9.058645e-03 8.524490e-03 8.058964e-03 7.697432e-03 7.285322e-03 6.932665e-03 6.744310e-03 6.429456e-03 6.069430e-03 5.796690e-03 5.678978e-03 5.442955e-03 5.097820e-03 4.790659e-03 4.708131e-03 4.446299e-03 4.362168e-03 4.223916e-03 4.068842e-03 3.935247e-03 3.790814e-03 3.687257e-03 3.652629e-03 3.511744e-03 3.403360e-03 3.335908e-03 3.228565e-03 3.102827e-03 3.092228e-03 3.041202e-03 2.900645e-03 2.930947e-03 2.849876e-03 2.720444e-03 2.686063e-03
<GCONST> -6.145132e+02
<STREAM> 2
<NUMMIXES> 2
<MIXTURE> 1 8.489066e-01
<MEAN> 1
 5.297576e+00
<VARIANCE> 1
 2.815443e-02
<GCONST> -1.732174e+00
<MIXTURE> 2 1.511052e-01
<MEAN> 0
<VARIANCE> 0
<GCONST> 0.000000e+00
<STREAM> 3
<NUMMIXES> 2
<MIXTURE> 1 8.152156e-01
<MEAN> 1
 -9.177168e-04
<VARIANCE> 1
 6.529970e-04
<GCONST> -5.496061e+00
<MIXTURE> 2 1.847957e-01
<MEAN> 0
<VARIANCE> 0
<GCONST> 0.000000e+00
<STREAM> 4
<NUMMIXES> 2
<MIXTURE> 1 8.123217e-01
<MEAN> 1
 -7.100567e-04
<VARIANCE> 1
 2.495199e-03
<GCONST> -4.155510e+00
<MIXTURE> 2 1.876894e-01
<MEAN> 0
<VARIANCE> 0
<GCONST> 0.000000e+00
<STREAM> 5
<MEAN> 15
 -5.039633e+00 -3.095300e+00 -2.946554e+00 -3.001247e+00 -2.729038e+00 -1.117149e-01 -7.368127e-02 -6.595130e-02 -6.536696e-02 -6.334666e-02 2.486490e-02 2.415420e-02 1.355421e-02 2.156887e-02 1.481260e-02
<VARIANCE> 15
 1.822354e+01 4.830712e+00 4.424124e+00 4.274266e+00 3.337126e+00 2.682280e+00 1.249991e+00 1.228004e+00 1.190778e+00 9.597961e-01 1.522548e+01 9.823536e+00 9.783077e+00 9.367684e+00 7.947821e+00
<GCONST> 4.933800e+01
<STATE> 4
<SWEIGHTS> 5
 1.000000e+00 0.000000e+00 0.000000e+00 0.000000e+00 0.000000e+00
<STREAM> 1
<MEAN> 180
 6.175151e+00 2.457775e+00 -2.226635e-01 7.772654e-01 -2.100777e-02 4.306062e-01 -4.492370e-01 2.933097e-01 -6.231940e-02 1.694320e-01 -7.582597e-02 1.258858e-01 -2.703139e-01 2.014151e-01 -1.416473e-01 -3.996372e-02 -1.962003e-01 1.564139e-01 -1.752149e-01 7.999256e-02 1.463356e-02 -7.102191e-03 -9.443066e-03 5.083628e-02 -4.635464e-02 7.094684e-02 -8.367430e-02 7.880685e-02 -4.834773e-02 3.815406e-02 -2.506921e-02 4.433323e-02 -6.225921e-02 5.212370e-02 -2.566715e-02 1.886263e-02 -2.744772e-02 4.040438e-02 -5.412921e-02 5.439899e-02 -5.051750e-02 4.208032e-02 -4.080207e-02 4.184753e-02 -3.982625e-02 3.498459e-02 -3.334559e-02 3.083823e-02 -2.336650e-02 1.121101e-02 -3.772526e-03 1.911874e-03 -3.238537e-03 2.965091e-03 1.543788e-03 -8.426238e-03 1.380356e-02 -1.468424e-02 1.252549e-02 -9.442820e-03 -8.227371e-03 2.577638e-03 1.107852e-02 7.840484e-03 7.825270e-03 6.105833e-03 2.603109e-03 3.503518e-03 6.251469e-03 1.038079e-03 -2.473398e-03 -7.187247e-03 -7.881299e-04 1.468474e-03 -8.048597e-04 -3.058931e-03 1.631165e-04 1.438480e-03 -2.052080e-03 -7.205586e-04 -7.247269e-04 7.462177e-04 4.118478e-04 -1.878000e-04 6.459493e-04 7.103156e-04 -7.998164e-04 5.455669e-04 -6.798335e-04 2.192719e-04 9.316474e-04 -1.453043e-03 5.564651e-04 3.817210e-04 -6.088877e-06 -6.258315e-05 -1.102802e-04 -2.852239e-04 5.238201e-04 -3.873865e-04 8.439552e-05 -7.745052e-05 -1.658284e-04 3.526210e-04 -7.401359e-05 -2.306677e-04 4.692444e-04 -3.784377e-04 1.341134e-04 4.586560e-05 -1.694104e-04 1.350726e-04 -2.361303e-04 4.467065e-04 -6.396953e-04 6.617284e-04 -4.813348e-04 3.400462e-04 -2.086767e-04 3.157356e-05 -2.091554e-02 -8.392902e-03 4.196714e-03 2.190790e-03 3.239454e-03 -9.743716e-05 2.957592e-03 -9.068050e-04 -2.289285e-03 -6.531889e-04 -9.189724e-04 8.789655e-05 1.230477e-03 -7.321958e-04 1.442291e-03 1.701373e-04 1.036427e-04 -1.682630e-03 9.172611e-04 -1.758159e-04 -5.102087e-04 1.941353e-04 -5.056847e-04 3.767162e-04 1.451545e-04 -3.970349e-04 3.854055e-04 -4.612512e-05 3.455173e-04 6.737791e-05 -3.865036e-05 7.211109e-05 -2.222814e-05 1.652449e-04 -1.918085e-04 2.216803e-05 3.041563e-05 -1.057621e-04 5.552555e-05 -2.709702e-04 2.824001e-04 -2.753194e-04 8.658456e-05 -1.050909e-05 1.901349e-04 -3.653605e-04 4.486915e-04 -4.122569e-04 2.253833e-04 5.411901e-05 -1.480144e-04 5.189973e-05 -2.167317e-05 1.163650e-04 -1.760804e-04 1.622405e-04 -1.645601e-04 2.316297e-04 -2.951834e-04 3.414194e-04
<VARIANCE> 180
 1.134094e+00 4.090737e-01 1.826025e-01 7.535595e-02 5.859834e-02 4.208963e-02 5.095339e-02 4.052636e-02 3.857632e-02 2.628609e-02 2.740426e-02 3.440746e-02 2.376947e-02 2.125274e-02 2.223069e-02 2.050335e-02 1.777034e-02 2.178876e-02 1.836826e-02 1.466977e-02 1.293753e-02 1.135982e-02 1.049986e-02 1.019313e-02 9.642303e-03 7.652981e-03 7.841364e-03 7.930560e-03 7.348354e-03 6.513513e-03 7.581482e-03 6.764429e-03 5.451273e-03 5.581364e-03 5.528375e-03 5.592423e-03 5.160536e-03 4.783005e-03 4.683542e-03 4.424328e-03 4.115612e-03 3.991197e-03 3.791580e-03 3.679293e-03 3.931855e-03 4.110659e-03 4.015994e-03 3.681257e-03 3.419783e-03 3.265238e-03 3.133941e-03 3.117766e-03 3.306192e-03 3.444382e-03 3.317137e-03 3.129356e-03 3.134724e-03 2.947180e-03 2.791844e-03 2.767634e-03 5.126724e-02 2.489346e-02 1.392452e-02 7.955389e-03 7.085028e-03 5.231733e-03 5.585675e-03 4.835947e-03 4.571460e-03 4.533455e-03 4.341877e-03 4.506127e-03 3.825503e-03 3.603980e-03 3.538784e-03 3.431277e-03 2.963309e-03 3.069094e-03 2.824908e-03 2.497345e-03 2.441229e-03 2.216466e-03 2.072698e-03 1.976633e-03 1.864690e-03 1.767534e-03 1.672491e-03 1.603719e-03 1.468096e-03 1.409452e-03 1.336669e-03 1.256447e-03 1.189170e-03 1.134218e-03 1.101943e-03 1.065909e-03 1.014057e-03 9.527352e-04 8.963749e-04 8.724474e-04 8.306431e-04 7.869980e-04 7.769768e-04 7.637498e-04 7.411007e-04 7.095092e-04 7.017317e-04 6.814881e-04 6.469608e-04 6.245626e-04 6.049530e-04 5.903830e-04 5.679968e-04 5.641480e-04 5.522977e-04 5.346531e-04 5.321616e-04 5.124383e-04 5.027034e-04 4.927979e-04 5.363087e-02 3.318464e-02 3.468207e-02 2.491999e-02 2.378551e-02 2.094266e-02 2.091661e-02 1.991080e-02 1.940363e-02 1.928167e-02 1.893470e-02 1.893787e-02 1.757616e-02 1.722431e-02 1.682093e-02 1.616974e-02 1.490067e-02 1.481403e-02 1.363091e-02 1.262123e-02 1.224185e-02 1.155567e-02 1.087528e-02 1.050182e-02 9.688947e-03 9.448843e-03 8.835158e-03 8.352341e-03 7.911979e-03 7.521485e-03 7.185349e-03 6.977748e-03 6.613421e-03 6.233132e-03 6.052277e-03 5.832743e-03 5.628566e-03 5.292730e-03 4.964503e-03 4.883646e-03 4.638162e-03 4.448167e-03 4.345688e-03 4.246574e-03 4.066950e-03 3.912189e-03 3.816959e-03 3.770636e-03 3.626614e-03 3.520987e-03 3.460275e-03 3.331272e-03 3.200419e-03 3.159723e-03 3.088958e-03 3.005196e-03 2.985173e-03 2.886376e-03 2.797351e-03 2.754611e-03
<GCONST> -6.161760e+02
<STREAM> 2
<NUMMIXES> 2
<MIXTURE> 1 8.831384e-01
<MEAN> 1
 5.302175e+00
<VARIANCE> 1
 2.767224e-02
<GCONST> -1.749449e+00
<MIXTURE> 2 1.168698e-01
<MEAN> 0
<VARIANCE> 0
<GCONST> 0.000000e+00
<STREAM> 3
<NUMMIXES> 2
<MIXTURE> 1 8.556480e-01
<MEAN> 1
 -1.533419e-03
<VARIANCE> 1
 5.988119e-04
<GCONST> -5.582686e+00
<MIXTURE> 2 1.443640e-01
<MEAN> 0
<VARIANCE> 0
<GCONST> 0.000000e+00
<STREAM> 4
<NUMMIXES> 2
<MIXTURE> 1 8.527603e-01
<MEAN> 1
 -6.674734e-04
<VARIANCE> 1
 2.168477e-03
<GCONST> -4.295854e+00
<MIXTURE> 2 1.472524e-01
<MEAN> 0
<VARIANCE> 0
<GCONST> 0.000000e+00
<STREAM> 5
<MEAN> 15
 -5.128769e+00 -3.196192e+00 -3.058672e+00 -3.091898e+00 -2.841420e+00 2.631454e-02 -4.062317e-03 -1.179382e-02 -4.338890e-03 -1.614543e-02 3.616982e-02 2.035267e-02 1.834036e-02 1.938509e-02 1.522500e-02
<VARIANCE> 15
 1.755714e+01 4.467672e+00 4.217772e+00 3.889894e+00 3.146690e+00 2.550276e+00 1.237313e+00 1.224014e+00 1.163627e+00 9.594426e-01 1.455147e+01 9.860379e+00 1.004566e+01 9.500648e+00 8.243037e+00
<GCONST> 4.897004e+01
<STATE> 5
<SWEIGHTS> 5
 1.000000e+00 0.000000e+00 0.000000e+00 0.000000e+00 0.000000e+00
<STREAM> 1
<MEAN> 180
 6.098982e+00 2.404193e+00 -1.863044e-01 7.976920e-01 2.880037e-03 4.483599e-01 -4.315494e-01 3.079927e-01 -5.435879e-02 1.687516e-01 -9.050868e-02 1.035599e-01 -2.702535e-01 2.019180e-01 -1.418576e-01 -4.417679e-02 -1.944322e-01 1.532182e-01 -1.814792e-01 8.103681e-02 1.023435e-02 -1.350405e-03 -1.123394e-02 5.281442e-02 -4.506907e-02 7.290742e-02 -8.507644e-02 8.080121e-02 -4.970952e-02 4.144100e-02 -2.473533e-02 4.150330e-02 -5.992830e-02 5.259770e-02 -2.693393e-02 1.975077e-02 -2.782507e-02 3.897892e-02 -5.275355e-02 5.287057e-02 -4.966830e-02 4.135006e-02 -4.153906e-02 4.385062e-02 -4.074412e-02 3.400936e-02 -3.112936e-02 2.918384e-02 -2.316695e-02 1.221539e-02 -4.895399e-03 2.206523e-03 -3.042725e-03 3.357507e-03 2.869372e-04 -6.674414e-03 1.201900e-02 -1.271767e-02 1.042912e-02 -7.536988e-03 -5.714976e-02 -1.811166e-02 2.229661e-02 1.115546e-02 1.311736e-02 4.682139e-03 8.234699e-03 -1.109439e-03 4.005959e-04 7.277413e-04 -4.155375e-03 -5.223521e-03 2.132786e-03 -3.659895e-04 2.041910e-03 -1.589794e-03 -1.510358e-06 -2.925561e-03 7.469197e-04 -1.987716e-03 -2.314975e-03 1.827115e-03 -7.870375e-04 2.838185e-04 1.396342e-03 -3.999022e-04 5.702128e-04 2.812044e-04 -3.069225e-04 1.019259e-03 4.917805e-04 -1.177883e-03 8.355291e-04 3.498830e-04 -6.542899e-04 6.193310e-04 -3.561633e-04 -5.663112e-04 7.548718e-04 -9.972299e-04 6.584561e-04 -4.673945e-04 -8.376330e-05 2.581989e-04 4.652903e-04 -1.228035e-03 1.521568e-03 -1.200653e-03 6.284972e-04 -6.271563e-05 -2.226525e-04 1.705223e-04 -2.700214e-04 6.091562e-04 -9.208667e-04 1.014190e-03 -9.563588e-04 9.216904e-04 -8.221974e-04 7.028366e-04 -1.489753e-02 -7.112599e-03 2.443051e-03 2.945975e-03 2.352314e-04 -2.254956e-04 2.779204e-03 -1.457674e-03 -1.807178e-03 -4.154774e-05 -3.752444e-04 2.915873e-04 1.460200e-03 -1.470406e-03 1.077507e-03 1.206105e-03 -1.070915e-04 -1.434793e-03 1.798634e-03 -1.017655e-03 -8.703239e-04 4.048636e-04 -4.245305e-04 1.602593e-04 3.902819e-04 -4.756863e-04 5.374153e-04 -2.542474e-04 1.629017e-04 4.227629e-04 -3.654688e-04 1.338351e-04 3.018678e-04 -2.047975e-04 -2.688131e-04 3.386880e-04 -8.979368e-05 -1.183520e-04 1.309527e-04 -2.566418e-04 1.839430e-04 -8.501473e-05 6.179741e-05 -1.778358e-04 2.403628e-04 -2.986073e-04 2.394685e-04 -1.882027e-04 1.134030e-04 -1.093959e-05 -6.132453e-05 1.491857e-04 -1.403354e-04 8.511532e-05 -3.951527e-05 6.093545e-05 -1.754611e-04 2.574877e-04 -2.810216e-04 3.563710e-04
<VARIANCE> 180
 1.075663e+00 4.517680e-01 1.927734e-01 7.354755e-02 6.186251e-02 4.130770e-02 5.082785e-02 4.403195e-02 3.731479e-02 2.652248e-02 2.794032e-02 3.520989e-02 2.358503e-02 2.165779e-02 2.268131e-02 2.080918e-02 1.772454e-02 2.192777e-02 1.846105e-02 1.512933e-02 1.317878e-02 1.169497e-02 1.069755e-02 1.030855e-02 9.671450e-03 7.839043e-03 7.884047e-03 7.786141e-03 7.266214e-03 6.495254e-03 7.315097e-03 6.650074e-03 5.391056e-03 5.554652e-03 5.661360e-03 5.545520e-03 5.129189e-03 4.743894e-03 4.610640e-03 4.345820e-03 4.082964e-03 3.998623e-03 3.773813e-03 3.625325e-03 3.870884e-03 3.956994e-03 3.807776e-03 3.524319e-03 3.364645e-03 3.194645e-03 3.101775e-03 3.042488e-03 3.188527e-03 3.387368e-03 3.316611e-03 3.140300e-03 3.098968e-03 2.900657e-03 2.753209e-03 2.726961e-03 4.513370e-02 2.408133e-02 1.342907e-02 8.262374e-03 7.474064e-03 5.577701e-03 5.805513e-03 5.161704e-03 4.770468e-03 4.804979e-03 4.734593e-03 4.884390e-03 4.034481e-03 3.849524e-03 3.878648e-03 3.642901e-03 3.146087e-03 3.202387e-03 2.995539e-03 2.611468e-03 2.581598e-03 2.363654e-03 2.180743e-03 2.079604e-03 1.973258e-03 1.838925e-03 1.764079e-03 1.660008e-03 1.529220e-03 1.452381e-03 1.374033e-03 1.315668e-03 1.230077e-03 1.182547e-03 1.149222e-03 1.101071e-03 1.048654e-03 9.871585e-04 9.324861e-04 9.128127e-04 8.729457e-04 8.159545e-04 7.941289e-04 7.831436e-04 7.721473e-04 7.330017e-04 7.268130e-04 7.060221e-04 6.760965e-04 6.454466e-04 6.268058e-04 6.109292e-04 5.836815e-04 5.779103e-04 5.665799e-04 5.478164e-04 5.443246e-04 5.262336e-04 5.200525e-04 5.072677e-04 4.752780e-02 3.626130e-02 3.358717e-02 2.639965e-02 2.521448e-02 2.315159e-02 2.315823e-02 2.209749e-02 2.126498e-02 2.126095e-02 2.107657e-02 2.103081e-02 1.981155e-02 1.851880e-02 1.870990e-02 1.770617e-02 1.624858e-02 1.624775e-02 1.484228e-02 1.372981e-02 1.332140e-02 1.253782e-02 1.176189e-02 1.131747e-02 1.031384e-02 1.007785e-02 9.429194e-03 8.878237e-03 8.490677e-03 7.880192e-03 7.623734e-03 7.344827e-03 6.973271e-03 6.627358e-03 6.408820e-03 6.145778e-03 5.889695e-03 5.572272e-03 5.238310e-03 5.148780e-03 4.942129e-03 4.668296e-03 4.520606e-03 4.461941e-03 4.324577e-03 4.133679e-03 4.066058e-03 4.019898e-03 3.866686e-03 3.674942e-03 3.603771e-03 3.489716e-03 3.374062e-03 3.306452e-03 3.248334e-03 3.156741e-03 3.075561e-03 2.977237e-03 2.930050e-03 2.831552e-03
<GCONST> -6.102661e+02
<STREAM> 2
<NUMMIXES> 2
<MIXTURE> 1 8.846885e-01
<MEAN> 1
 5.305707e+00
<VARIANCE> 1
 2.789916e-02
<GCONST> -1.741282e+00
<MIXTURE> 2 1.153188e-01
<MEAN> 0
<VARIANCE> 0
<GCONST> 0.000000e+00
<STREAM> 3
<NUMMIXES> 2
<MIXTURE> 1 8.559445e-01
<MEAN> 1
 -2.266997e-03
<VARIANCE> 1
 6.047070e-04
<GCONST> -5.572889e+00
<MIXTURE> 2 1.440630e-01
<MEAN> 0
<VARIANCE> 0
<GCONST> 0.000000e+00
<STREAM> 4
<NUMMIXES> 2
<MIXTURE> 1 8.522601e-01
<MEAN> 1
 -6.877506e-04
<VARIANCE> 1
 2.245659e-03
<GCONST> -4.260880e+00
<MIXTURE> 2 1.477466e-01
<MEAN> 0
<VARIANCE> 0
<GCONST> 0.000000e+00
<STREAM> 5
<MEAN> 15
 -4.752924e+00 -3.078142e+00 -2.970382e+00 -2.996028e+00 -2.783485e+00 1.247482e-01 5.108360e-02 4.323576e-02 4.609182e-02 3.124873e-02 1.247523e-02 1.064472e-02 1.411346e-02 1.450578e-02 1.171066e-02
<VARIANCE> 15
 1.580003e+01 4.113265e+00 3.952949e+00 3.627368e+00 2.974891e+00 2.255667e+00 1.134100e+00 1.135052e+00 1.083380e+00 9.113130e-01 1.328407e+01 9.293454e+00 9.608209e+00 9.180305e+00 8.017226e+00
<GCONST> 4.792588e+01
<STATE> 6
<SWEIGHTS> 5
 1.000000e+00 0.000000e+00 0.000000e+00 0.000000e+00 0.000000e+00
<STREAM> 1
<MEAN> 180
 5.829695e+00 2.259777e+00 -1.015108e-01 8.248944e-01 3.714184e-02 4.563737e-01 -3.942218e-01 3.059042e-01 -6.348069e-02 1.702095e-01 -1.089039e-01 9.153214e-02 -2.599042e-01 1.969840e-01 -1.367864e-01 -4.156939e-02 -1.921598e-01 1.326284e-01 -1.767544e-01 7.659816e-02 -3.586626e-04 9.501854e-03 -1.700738e-02 5.838555e-02 -4.110511e-02 7.199719e-02 -8.010237e-02 8.088737e-02 -4.923307e-02 4.843822e-02 -2.566579e-02 4.015578e-02 -5.824495e-02 5.223555e-02 -2.966890e-02 2.292144e-02 -2.963982e-02 3.594203e-02 -5.065233e-02 4.957323e-02 -4.778488e-02 3.934627e-02 -4.109764e-02 4.407752e-02 -3.920235e-02 2.997316e-02 -2.620908e-02 2.563349e-02 -2.160890e-02 1.298239e-02 -6.973526e-03 3.649204e-03 -3.651857e-03 4.542134e-03 -1.976435e-03 -3.789229e-03 8.840865e-03 -9.012811e-03 6.438718e-03 -3.639784e-03 -1.034095e-01 -3.480970e-02 3.459749e-02 2.073411e-02 1.172352e-02 3.444047e-03 1.560859e-02 -6.383109e-03 -2.267882e-03 1.376664e-03 -3.497850e-03 -3.807022e-03 6.447703e-03 -4.579221e-03 3.156234e-03 1.511934e-03 -2.064337e-04 -6.967534e-03 6.217545e-03 -5.208226e-03 -3.928927e-03 3.195834e-03 -1.934100e-03 1.011773e-03 2.189693e-03 -1.826722e-03 2.945102e-03 -5.673865e-04 2.693910e-04 1.999507e-03 -3.293249e-04 -5.137520e-04 9.827040e-04 -4.375418e-04 -7.421218e-04 1.207079e-03 -1.213684e-03 -4.777238e-04 1.038876e-03 -1.911116e-03 1.163111e-03 -8.017679e-04 4.719241e-04 -8.816716e-04 1.466601e-03 -1.817925e-03 1.850570e-03 -1.593983e-03 1.061526e-03 -1.526038e-04 -7.041533e-04 9.419287e-04 -8.926917e-04 9.097145e-04 -9.772622e-04 1.031426e-03 -1.258928e-03 1.550793e-03 -1.510833e-03 1.326653e-03 -5.338461e-03 -1.352049e-02 1.988879e-04 5.874945e-03 -6.151539e-03 1.127561e-03 2.819064e-03 -5.047973e-04 -9.156222e-04 2.055263e-04 -3.023788e-04 3.637835e-04 2.016041e-03 -3.383149e-03 -6.391873e-04 2.975420e-03 -6.780707e-04 -1.727852e-03 2.050264e-03 -8.805981e-04 -7.770595e-04 6.719886e-04 -4.041842e-04 2.395825e-04 -8.098154e-05 -3.397967e-04 8.494596e-04 -1.896168e-04 5.774161e-05 5.354630e-04 -1.192513e-03 9.798435e-04 1.827537e-04 -6.308142e-04 1.363560e-04 3.758175e-04 -5.572013e-04 2.146046e-04 1.328662e-04 -2.328126e-04 9.708995e-05 -5.309823e-05 3.983576e-04 -7.312511e-04 5.247595e-04 -7.215871e-05 -1.353220e-05 -1.997766e-04 3.050611e-04 -1.301438e-04 -2.562570e-04 4.569512e-04 -2.954383e-04 -6.859343e-06 1.450775e-04 -8.825301e-05 -1.508982e-04 4.143211e-04 -5.161366e-04 4.366451e-04
<VARIANCE> 180
 1.190959e+00 6.005402e-01 2.107570e-01 8.474300e-02 7.191506e-02 4.349470e-02 5.204606e-02 4.775754e-02 3.932213e-02 2.859608e-02 2.881116e-02 3.711992e-02 2.448336e-02 2.281035e-02 2.336511e-02 2.209249e-02 1.820434e-02 2.311068e-02 1.841873e-02 1.588942e-02 1.386681e-02 1.255317e-02 1.078589e-02 1.072780e-02 9.869576e-03 8.073382e-03 8.087883e-03 7.707914e-03 7.461936e-03 6.663452e-03 7.160669e-03 6.511888e-03 5.384407e-03 5.442447e-03 5.663685e-03 5.387901e-03 4.893275e-03 4.584711e-03 4.416962e-03 4.155990e-03 3.941505e-03 3.844970e-03 3.743056e-03 3.557939e-03 3.685760e-03 3.666843e-03 3.477669e-03 3.256504e-03 3.130610e-03 3.023198e-03 3.042905e-03 2.932311e-03 2.952751e-03 3.187898e-03 3.189805e-03 2.951997e-03 2.863502e-03 2.723915e-03 2.632927e-03 2.629671e-03 4.900886e-02 3.193202e-02 1.411851e-02 9.891983e-03 8.798281e-03 6.198679e-03 6.431056e-03 5.632543e-03 5.571454e-03 5.416661e-03 5.435350e-03 5.531763e-03 4.440844e-03 4.276628e-03 4.340984e-03 4.216283e-03 3.488399e-03 3.473142e-03 3.314372e-03 2.894545e-03 2.901017e-03 2.639792e-03 2.364272e-03 2.251903e-03 2.205121e-03 2.005582e-03 1.942136e-03 1.783801e-03 1.673793e-03 1.550098e-03 1.477177e-03 1.402616e-03 1.319921e-03 1.252902e-03 1.227890e-03 1.167685e-03 1.114822e-03 1.045919e-03 9.988312e-04 9.722630e-04 9.312255e-04 8.691953e-04 8.424281e-04 8.143911e-04 8.030331e-04 7.533384e-04 7.545067e-04 7.430025e-04 7.122512e-04 6.727417e-04 6.553530e-04 6.422268e-04 6.052454e-04 6.027560e-04 5.964496e-04 5.659948e-04 5.634046e-04 5.429424e-04 5.334161e-04 5.256095e-04 5.169465e-02 4.858259e-02 3.555482e-02 2.980882e-02 2.868512e-02 2.597932e-02 2.615269e-02 2.464278e-02 2.406967e-02 2.396428e-02 2.373272e-02 2.327978e-02 2.233611e-02 2.044202e-02 2.064710e-02 1.998479e-02 1.822780e-02 1.776712e-02 1.648457e-02 1.535372e-02 1.471080e-02 1.356770e-02 1.264178e-02 1.208943e-02 1.138748e-02 1.085156e-02 1.011595e-02 9.580893e-03 9.195345e-03 8.350970e-03 8.189877e-03 7.718494e-03 7.396504e-03 6.997784e-03 6.801209e-03 6.476832e-03 6.249607e-03 5.841926e-03 5.575052e-03 5.463250e-03 5.188050e-03 4.885225e-03 4.799101e-03 4.696649e-03 4.528900e-03 4.325822e-03 4.315083e-03 4.231439e-03 4.053109e-03 3.841169e-03 3.739502e-03 3.643069e-03 3.538580e-03 3.484800e-03 3.395523e-03 3.277118e-03 3.164602e-03 3.043858e-03 3.033472e-03 2.951566e-03
<GCONST> -6.004054e+02
<STREAM> 2
<NUMMIXES> 2
<MIXTURE> 1 8.348011e-01
<MEAN> 1
 5.308157e+00
<VARIANCE> 1
 2.898032e-02
<GCONST> -1.703261e+00
<MIXTURE> 2 1.652080e-01
<MEAN> 0
<VARIANCE> 0
<GCONST> 0.000000e+00
<STREAM> 3
<NUMMIXES> 2
<MIXTURE> 1 7.967352e-01
<MEAN> 1
 -2.901827e-03
<VARIANCE> 1
 6.769446e-04
<GCONST> -5.460044e+00
<MIXTURE> 2 2.032758e-01
<MEAN> 0
<VARIANCE> 0
<GCONST> 0.000000e+00
<STREAM> 4
<NUMMIXES> 2
<MIXTURE> 1 7.917341e-01
<MEAN> 1
 -1.129725e-03
<VARIANCE> 1
 2.691644e-03
<GCONST> -4.079726e+00
<MIXTURE> 2 2.082770e-01
<MEAN> 0
<VARIANCE> 0
<GCONST> 0.000000e+00
<STREAM> 5
<MEAN> 15
 -4.011249e+00 -2.731419e+00 -2.651150e+00 -2.682472e+00 -2.522554e+00 1.448590e-01 8.125576e-02 8.052692e-02 9.001130e-02 7.369414e-02 -2.015594e-02 -3.199907e-04 4.007810e-03 6.615074e-03 1.537422e-02
<VARIANCE> 15
 1.347223e+01 3.891915e+00 3.724080e+00 3.567452e+00 2.972102e+00 1.870786e+00 9.868528e-01 9.864537e-01 9.680333e-01 8.282803e-01 1.132320e+01 8.169876e+00 8.466781e+00 8.285573e+00 7.431556e+00
<GCONST> 4.636593e+01
<TRANSP> 7
 0.000000e+00 1.000000e+00 0.000000e+00 0.000000e+00 0.000000e+00 0.000000e+00 0.000000e+00
 0.000000e+00 5.455857e-01 4.544143e-01 0.000000e+00 0.000000e+00 0.000000e+00 0.000000e+00
 0.000000e+00 0.000000e+00 5.672578e-01 4.327422e-01 0.000000e+00 0.000000e+00 0.000000e+00
 0.000000e+00 0.000000e+00 0.000000e+00 5.919526e-01 4.080473e-01 0.000000e+00 0.000000e+00
 0.000000e+00 0.000000e+00 0.000000e+00 0.000000e+00 6.230749e-01 3.769251e-01 0.000000e+00
 0.000000e+00 0.000000e+00 0.000000e+00 0.000000e+00 0.000000e+00 6.648729e-01 3.351271e-01
 0.000000e+00 0.000000e+00 0.000000e+00 0.000000e+00 0.000000e+00 0.000000e+00 0.000000e+00
<ENDHMM>
~h "G"
<BEGINHMM>
<NUMSTATES> 7
<STATE> 2
<SWEIGHTS> 5
 1.000000e+00 0.000000e+00 0.000000e+00 0.000000e+00 0.000000e+00
<STREAM> 1
<MEAN> 180
 5.613399e+00 2.672188e+00 2.412636e-01 6.951190e-01 -1.409368e-01 4.425315e-01 -3.546163e-01 3.025545e-01 -2.840578e-01 2.671920e-03 -9.494156e-02 2.651886e-01 -2.107394e-01 1.493254e-01 4.423496e-02 3.243469e-03 -1.735300e-01 6.952938e-02 -1.134442e-01 3.164150e-04 6.279956e-03 -2.088507e-02 3.807919e-03 1.380855e-02 -1.223348e-02 6.793120e-02 -1.211842e-01 1.225253e-01 -7.965035e-02 7.342637e-02 -6.871271e-02 5.936523e-02 -3.727896e-02 1.946979e-02 -1.231991e-02 3.142397e-02 -4.644073e-02 5.001931e-02 -4.039224e-02 2.625030e-02 -2.154125e-02 2.158461e-02 -2.541797e-02 3.278740e-02 -3.673854e-02 3.180251e-02 -2.232058e-02 1.294134e-02 -4.450369e-03 1.833551e-04 -2.125218e-03 4.850877e-03 -4.470823e-03 1.824297e-03 -7.238169e-04 -9.679939e-04 -7.688266e-04 6.104802e-03 -1.262700e-02 1.503229e-02 -2.676501e-02 -9.244427e-03 9.278257e-03 -5.349135e-03 2.244189e-03 7.368327e-03 2.123023e-03 4.736772e-04 -6.781821e-04 -4.133673e-03 2.298660e-03 2.846911e-03 -1.586202e-03 2.899699e-04 4.202049e-03 -7.091165e-04 1.310277e-03 -2.624513e-03 -8.378788e-04 6.763346e-04 -3.281745e-03 1.504713e-04 2.081724e-03 -2.877577e-03 2.438211e-03 -6.781228e-04 -1.219125e-03 1.673520e-03 -5.765862e-04 8.532165e-04 -4.649892e-04 3.170511e-05 -3.312498e-04 5.587764e-04 -8.099997e-04 3.428397e-04 6.999479e-04 -1.184102e-03 1.068724e-03 -5.264791e-04 -2.705791e-04 5.156189e-04 -3.575215e-04 1.579795e-04 -4.040455e-05 5.763333e-05 -3.042190e-04 6.938381e-04 -9.262604e-04 8.713347e-04 -3.669770e-04 -3.200892e-04 7.064865e-04 -6.777325e-04 3.272200e-04 -3.032558e-04 3.302234e-04 -2.552703e-04 1.276185e-04 7.501221e-05 -7.393396e-03 -1.069644e-03 2.961160e-03 7.899252e-04 1.767115e-03 7.345456e-04 2.845562e-03 -1.709498e-04 1.149489e-04 4.181651e-04 -4.523796e-04 -1.145523e-03 6.509913e-04 -8.538028e-05 -1.680646e-03 1.606833e-04 5.676567e-04 4.777661e-04 -3.077746e-04 -2.315657e-04 6.192635e-05 4.430202e-04 -8.989155e-04 8.363307e-04 -3.828672e-04 -8.298696e-04 1.558739e-03 -8.246860e-04 2.029835e-04 -2.136817e-04 6.041599e-04 6.370004e-05 -4.485162e-04 2.332705e-04 -1.807646e-04 1.184580e-04 -4.635485e-05 8.600504e-06 1.454719e-05 -2.132253e-04 1.899059e-04 9.681973e-05 -3.266042e-04 1.521967e-05 2.108238e-04 -2.106875e-04 1.246988e-04 -1.814309e-05 -3.032597e-05 2.880312e-05 -9.197735e-05 1.481338e-04 -1.474860e-04 1.191690e-04 -8.131963e-05 8.312349e-05 -1.056247e-04 -9.360318e-06 1.405962e-04 -1.868473e-04
<VARIANCE> 180
 1.034129e+00 4.559962e-01 3.153102e-01 1.710690e-01 1.467794e-01 8.387890e-02 7.685869e-02 4.633262e-02 5.673174e-02 4.186938e-02 4.763223e-02 3.278027e-02 3.411476e-02 2.826154e-02 2.925939e-02 2.139288e-02 1.980542e-02 2.066914e-02 1.770473e-02 1.607371e-02 1.575840e-02 1.355002e-02 1.319339e-02 1.314975e-02 1.191081e-02 9.888919e-03 9.759065e-03 9.967288e-03 9.872358e-03 8.248932e-03 8.459348e-03 6.503269e-03 6.089277e-03 6.354516e-03 5.747652e-03 5.151134e-03 5.415529e-03 6.223302e-03 5.527478e-03 4.839782e-03 4.823197e-03 4.521590e-03 4.118332e-03 3.882231e-03 4.142697e-03 4.289604e-03 3.968361e-03 3.653197e-03 3.681075e-03 3.798860e-03 3.750141e-03 3.403786e-03 3.286824e-03 3.364328e-03 3.329210e-03 3.274400e-03 3.229300e-03 3.192960e-03 3.265823e-03 3.225522e-03 1.611053e-02 8.827814e-03 7.806844e-03 4.876894e-03 4.888459e-03 3.804922e-03 4.002444e-03 3.409547e-03 3.336036e-03 3.274360e-03 3.074949e-03 3.118221e-03 2.869295e-03 2.706350e-03 2.764079e-03 2.522242e-03 2.335039e-03 2.311714e-03 2.186839e-03 2.036224e-03 1.989324e-03 1.841908e-03 1.745863e-03 1.715976e-03 1.638692e-03 1.531820e-03 1.474423e-03 1.360336e-03 1.297946e-03 1.197684e-03 1.180888e-03 1.084179e-03 1.055384e-03 9.927681e-04 9.840199e-04 9.168581e-04 8.997565e-04 8.785106e-04 8.041526e-04 8.052838e-04 7.800407e-04 7.340643e-04 6.976101e-04 6.615673e-04 6.631848e-04 6.573140e-04 6.333616e-04 5.958270e-04 5.962306e-04 5.765689e-04 5.617602e-04 5.380376e-04 5.371037e-04 5.182581e-04 4.995944e-04 4.819346e-04 4.785652e-04 4.616723e-04 4.507964e-04 4.491926e-04 1.574194e-02 1.251453e-02 1.526065e-02 1.330752e-02 1.269114e-02 1.160440e-02 1.195668e-02 1.111903e-02 1.099254e-02 1.084270e-02 1.072922e-02 1.032672e-02 1.028230e-02 9.732198e-03 9.867081e-03 9.568141e-03 9.057077e-03 8.904279e-03 8.249202e-03 8.390542e-03 7.868761e-03 7.632320e-03 7.572297e-03 7.142873e-03 6.980403e-03 6.463377e-03 6.355744e-03 5.955731e-03 5.868398e-03 5.543998e-03 5.335344e-03 5.148953e-03 4.831770e-03 4.733575e-03 4.529853e-03 4.423806e-03 4.263701e-03 4.155864e-03 3.854746e-03 3.748922e-03 3.636957e-03 3.480305e-03 3.379511e-03 3.248891e-03 3.222896e-03 3.182549e-03 3.026139e-03 2.903045e-03 2.895851e-03 2.754885e-03 2.691599e-03 2.641567e-03 2.622744e-03 2.568948e-03 2.429187e-03 2.374383e-03 2.393575e-03 2.323577e-03 2.264147e-03 2.268157e-03
<GCONST> -6.417766e+02
<STREAM> 2
<NUMMIXES> 2
<MIXTURE> 1 8.804535e-01
<MEAN> 1
 5.190328e+00
<VARIANCE> 1
 3.328055e-02
<GCONST> -1.564905e+00
<MIXTURE> 2 1.195519e-01
<MEAN> 0
<VARIANCE> 0
<GCONST> 0.000000e+00
<STREAM> 3
<NUMMIXES> 2
<MIXTURE> 1 8.657730e-01
<MEAN> 1
 -4.295601e-03
<VARIANCE> 1
 3.566980e-04
<GCONST> -6.100744e+00
<MIXTURE> 2 1.342332e-01
<MEAN> 0
<VARIANCE> 0
<GCONST> 0.000000e+00
<STREAM> 4
<NUMMIXES> 2
<MIXTURE> 1 8.642173e-01
<MEAN> 1
 3.822467e-04
<VARIANCE> 1
 1.374740e-03
<GCONST> -4.751614e+00
<MIXTURE> 2 1.357888e-01
<MEAN> 0
<VARIANCE> 0
<GCONST> 0.000000e+00
<STREAM> 5
<MEAN> 15
 -5.674120e+00 -3.358558e+00 -3.442544e+00 -3.012233e+00 -2.695786e+00 -2.617510e-02 -8.535715e-03 2.370286e-03 3.048520e-03 1.686056e-02 5.208073e-02 1.583960e-02 1.797109e-02 1.979549e-02 -6.014701e-03
<VARIANCE> 15
 1.745735e+01 4.960277e+00 5.405662e+00 3.618076e+00 2.570042e+00 2.152872e+00 1.167698e+00 1.300227e+00 9.328855e-01 6.996309e-01 1.242173e+01 8.767204e+00 9.894129e+00 7.581704e+00 6.078153e+00
<GCONST> 4.751723e+01
<STATE> 3
<SWEIGHTS> 5
 1.000000e+00 0.000000e+00 0.000000e+00 0.000000e+00 0.000000e+00
<STREAM> 1
<MEAN> 180
 5.497647e+00 2.640533e+00 2.755060e-01 6.799141e-01 -1.356235e-01 4.574939e-01 -3.413161e-01 3.026150e-01 -2.854528e-01 -8.634672e-03 -9.323831e-02 2.723405e-01 -2.104133e-01 1.530396e-01 5.353108e-02 1.588576e-03 -1.648466e-01 5.954609e-02 -1.142676e-01 2.720404e-03 -4.061474e-03 -1.872500e-02 9.348223e-03 7.484671e-03 -7.528432e-03 6.459706e-02 -1.203864e-01 1.215461e-01 -7.823858e-02 7.406291e-02 -6.846756e-02 5.993550e-02 -4.088424e-02 2.344487e-02 -1.641302e-02 3.243138e-02 -4.334956e-02 4.493782e-02 -3.594359e-02 2.361607e-02 -2.126415e-02 2.234698e-02 -2.635390e-02 3.300520e-02 -3.686859e-02 3.253708e-02 -2.411168e-02 1.579582e-02 -7.359417e-03 1.973004e-03 -1.905778e-03 2.900437e-03 -2.255062e-03 3.335243e-04 -1.662034e-04 -1.695545e-03 1.363975e-04 5.201727e-03 -1.190156e-02 1.469532e-02 -3.115397e-02 -8.986097e-03 9.274620e-03 -4.545346e-03 3.684995e-03 6.795204e-03 6.027559e-03 7.400617e-04 -3.136905e-04 -2.737933e-03 1.656099e-03 5.436181e-04 1.682575e-04 1.026620e-04 3.161472e-04 -2.657453e-04 1.354248e-03 -2.157094e-03 -9.178401e-04 3.287577e-04 -2.811579e-03 7.225202e-04 3.460698e-04 -1.045714e-03 1.646484e-03 -1.661672e-03 7.286294e-04 1.760131e-04 3.152709e-04 -4.810427e-06 3.682312e-04 2.123065e-04 -7.096221e-04 9.702644e-04 -8.468828e-04 3.213467e-04 5.409774e-04 -9.067827e-04 7.527820e-04 -5.360338e-04 -6.851363e-05 3.682910e-04 -3.519005e-04 1.807914e-05 2.873217e-04 -2.178598e-04 -2.211404e-04 6.456522e-04 -9.164960e-04 8.602212e-04 -3.829995e-04 -1.716004e-04 4.156433e-04 -4.378357e-04 2.769921e-04 -2.216157e-04 1.236131e-04 -1.041819e-04 1.080017e-04 -1.055487e-04 -2.763880e-03 1.776375e-05 1.497687e-04 2.109616e-04 1.227287e-03 1.561724e-04 1.783628e-03 1.231502e-04 9.977331e-05 5.654542e-04 1.707823e-05 -6.876727e-04 5.655240e-04 -2.465735e-04 -1.666757e-03 -3.302013e-05 7.857573e-05 1.441322e-04 -4.228772e-05 -2.899006e-04 -1.192271e-04 2.201089e-04 -6.356527e-04 4.130182e-04 -2.404354e-04 -2.520827e-04 6.084812e-04 -5.930233e-04 4.827588e-04 -2.654837e-04 1.306839e-04 1.489004e-04 -7.812367e-05 8.844456e-05 1.184886e-04 5.192493e-05 -9.899214e-05 1.976187e-04 -1.942863e-04 3.442526e-05 1.376466e-04 -1.979032e-04 1.558632e-04 -2.365871e-05 6.491419e-05 -1.176831e-04 3.153930e-05 -4.274850e-05 -2.649450e-05 -2.892873e-05 8.863458e-05 -7.168958e-06 -1.178802e-04 1.358173e-04 -8.211054e-05 5.855680e-05 -2.867101e-05 6.588342e-05 -1.243780e-04 5.116468e-05
<VARIANCE> 180
