~o
<STREAMINFO> 5 180 1 1 1 15
<MSDINFO> 5 0 1 1 1 0
<VECSIZE> 198<NULLD><USER><DIAGC>
~h "C"
<BEGINHMM>
<NUMSTATES> 7
<STATE> 2
<SWEIGHTS> 5
 1.000000e+00 0.000000e+00 0.000000e+00 0.000000e+00 0.000000e+00
<STREAM> 1
<MEAN> 180
 2.407400e+00 1.096749e+00 1.268061e-01 2.913984e-01 4.721031e-02 7.967808e-02 4.837684e-02 6.132239e-02 -6.277748e-02 3.734650e-02 -3.350211e-02 4.179445e-02 -9.146231e-02 7.868080e-02 -8.281893e-02 4.503968e-02 -2.657630e-03 -2.230979e-02 2.110665e-02 5.534207e-03 -3.958973e-02 2.612830e-02 -7.486668e-03 -1.418590e-02 -8.624353e-03 1.966267e-02 -3.399728e-02 3.746906e-02 -1.876527e-02 3.209179e-02 -1.877285e-02 3.101818e-02 -1.946114e-02 2.129088e-02 -3.011687e-02 2.763612e-02 -2.705895e-02 1.533959e-02 -2.921217e-02 2.511114e-02 -2.831744e-02 3.023750e-02 -3.120234e-02 2.629027e-02 -2.482223e-02 1.961094e-02 -2.388829e-02 2.627982e-02 -2.503863e-02 2.582629e-02 -2.737564e-02 2.379473e-02 -1.520955e-02 1.071638e-02 -9.223074e-03 1.648132e-02 -2.428060e-02 2.815690e-02 -2.664562e-02 1.974986e-02 -2.993040e-03 1.738761e-03 -2.707343e-04 -7.390752e-04 3.286777e-04 1.053704e-04 8.274987e-05 2.132391e-04 2.099966e-04 -1.138678e-04 1.060400e-04 2.180576e-04 3.188823e-04 1.693948e-04 3.587376e-04 -1.168637e-04 2.026258e-04 1.094320e-04 9.067727e-05 1.158808e-04 1.448205e-05 -1.114645e-04 4.662591e-05 -1.883439e-05 -7.637870e-05 -1.651684e-04 5.874771e-05 -2.313829e-04 1.157214e-04 -4.301695e-05 1.437847e-04 -1.091725e-04 -7.672757e-05 -1.605918e-04 6.348062e-05 -5.192152e-05 1.243174e-04 8.879352e-05 -1.037597e-04 -3.123305e-05 6.656598e-05 -1.323437e-04 9.361446e-05 -8.483951e-05 -3.450715e-05 3.876533e-05 -6.888262e-06 -7.408328e-07 2.193042e-07 -2.726860e-05 1.002768e-04 -1.328012e-04 9.717442e-05 -2.596127e-05 9.321846e-06 1.221707e-05 -1.801141e-05 -1.844914e-05 2.976651e-05 -1.825193e-05 -1.117875e-05 2.787250e-05 -7.479925e-06 2.295607e-05 1.727038e-05 -2.113352e-05 -5.870737e-06 -9.243280e-07 1.853086e-05 3.328576e-06 1.324601e-06 -1.040353e-05 -1.949150e-05 1.655610e-06 8.137792e-06 4.316199e-06 -8.160127e-06 -1.141758e-05 -9.300011e-06 -3.386901e-06 7.794230e-07 -8.537278e-07 4.233513e-06 2.113535e-06 2.687262e-06 4.367318e-06 3.654088e-06 8.935697e-07 4.182721e-07 7.492845e-09 2.083458e-06 4.869768e-06 -3.172965e-06 -4.291855e-06 5.627112e-06 -6.268167e-06 6.199732e-07 5.882289e-06 -1.622655e-06 -2.454390e-06 1.846076e-06 -2.174548e-06 -2.416253e-06 4.038770e-06 -5.034241e-06 1.093843e-06 -6.906625e-08 -5.283656e-08 3.644137e-06 -4.932445e-06 3.643620e-06 -8.984352e-07 -3.099407e-07 1.250243e-06 -1.146011e-06 -1.092443e-06 3.202210e-06 -2.149212e-06 -2.470497e-07 1.850879e-06
<VARIANCE> 180
 5.697061e+00 1.628582e+00 2.344860e-01 1.509491e-01 1.003585e-01 6.488196e-02 3.554108e-02 6.356569e-02 4.487145e-02 3.862434e-02 2.086119e-02 1.868857e-02 2.567462e-02 2.628946e-02 1.947530e-02 2.825336e-02 1.945024e-02 1.646387e-02 1.376314e-02 1.293397e-02 1.628411e-02 1.081875e-02 9.620639e-03 1.223129e-02 9.546134e-03 9.050472e-03 9.893398e-03 8.516669e-03 7.453939e-03 7.206407e-03 6.193171e-03 5.979207e-03 6.200972e-03 6.757972e-03 5.848864e-03 5.114299e-03 5.328490e-03 4.842190e-03 4.809387e-03 3.435470e-03 3.425644e-03 3.236728e-03 3.136618e-03 3.132460e-03 3.076112e-03 2.535210e-03 2.600983e-03 2.686237e-03 2.845625e-03 2.672884e-03 2.416728e-03 2.223718e-03 2.034266e-03 1.886165e-03 1.859570e-03 1.937462e-03 2.327459e-03 2.167232e-03 1.948570e-03 1.767628e-03 3.161630e-02 1.967397e-02 9.829247e-03 6.695662e-03 5.152706e-03 5.089063e-03 4.370403e-03 3.829891e-03 3.865889e-03 3.860912e-03 3.281935e-03 3.563056e-03 3.251337e-03 3.074718e-03 3.108457e-03 3.192811e-03 2.941570e-03 2.744847e-03 2.691582e-03 2.704382e-03 2.365921e-03 2.410440e-03 2.295975e-03 2.285081e-03 2.192231e-03 1.882497e-03 1.858749e-03 1.830134e-03 1.737430e-03 1.792021e-03 1.559650e-03 1.474422e-03 1.408941e-03 1.357777e-03 1.335913e-03 1.279459e-03 1.094804e-03 1.127388e-03 9.904404e-04 9.104354e-04 9.432985e-04 8.883624e-04 8.436470e-04 8.330370e-04 7.815751e-04 6.855159e-04 6.854231e-04 6.947507e-04 6.855388e-04 6.484424e-04 6.123763e-04 5.431104e-04 5.389465e-04 5.320038e-04 5.053395e-04 5.012683e-04 5.292401e-04 5.235248e-04 4.722528e-04 4.290804e-04 3.155573e-02 1.979430e-02 1.823564e-02 1.467251e-02 1.299918e-02 1.393539e-02 1.251796e-02 1.128661e-02 1.200034e-02 1.235607e-02 1.088990e-02 1.222887e-02 1.130115e-02 1.003416e-02 1.042422e-02 1.082961e-02 9.694534e-03 9.752502e-03 9.161925e-03 9.587173e-03 8.063158e-03 8.181857e-03 8.047629e-03 7.953529e-03 7.443570e-03 7.057135e-03 6.577784e-03 6.758478e-03 6.124688e-03 5.917977e-03 5.512452e-03 4.983095e-03 4.838896e-03 4.691362e-03 4.301223e-03 4.388312e-03 4.123803e-03 3.947359e-03 3.607932e-03 3.440667e-03 3.270449e-03 2.997665e-03 3.072005e-03 3.047488e-03 2.820561e-03 2.630692e-03 2.504345e-03 2.465112e-03 2.411145e-03 2.345219e-03 2.244805e-03 1.999679e-03 1.951451e-03 2.031796e-03 1.920327e-03 1.937242e-03 1.982596e-03 1.908141e-03 1.859048e-03 1.589781e-03
<GCONST> -6.427222e+02
<STREAM> 2
<NUMMIXES> 2
<MIXTURE> 1 3.610747e-01
<MEAN> 1
 4.989141e+00
<VARIANCE> 1
 1.373046e-01
<GCONST> -1.476766e-01
<MIXTURE> 2 6.389253e-01
<MEAN> 0
<VARIANCE> 0
<GCONST> 0.000000e+00
<STREAM> 3
<NUMMIXES> 2
<MIXTURE> 1 3.426375e-01
<MEAN> 1
 -3.934584e-03
<VARIANCE> 1
 7.232123e-04
<GCONST> -5.393930e+00
<MIXTURE> 2 6.573625e-01
<MEAN> 0
<VARIANCE> 0
<GCONST> 0.000000e+00
<STREAM> 4
<NUMMIXES> 2
<MIXTURE> 1 3.416511e-01
<MEAN> 1
 4.664453e-05
<VARIANCE> 1
 3.598930e-03
<GCONST> -3.789242e+00
<MIXTURE> 2 6.583488e-01
<MEAN> 0
<VARIANCE> 0
<GCONST> 0.000000e+00
<STREAM> 5
<MEAN> 15
 -1.577266e+00 -1.083781e+00 -1.069521e+00 -1.042791e+00 -1.093809e+00 3.085229e-03 -1.023747e-03 -5.485789e-04 -8.429621e-04 -7.381437e-04 1.737780e-06 2.632226e-06 2.104688e-06 -9.777835e-06 -3.211812e-05
<VARIANCE> 15
 7.069334e+00 2.641389e+00 2.544686e+00 2.354228e+00 2.588508e+00 5.736111e-01 2.383209e-01 2.669228e-01 2.588263e-01 2.786422e-01 3.473701e+00 1.840012e+00 2.359729e+00 2.005014e+00 2.218966e+00
<GCONST> 3.150260e+01
<STATE> 3
<SWEIGHTS> 5
 1.000000e+00 0.000000e+00 0.000000e+00 0.000000e+00 0.000000e+00
<STREAM> 1
<MEAN> 180
 2.386479e+00 1.105366e+00 1.255340e-01 2.873794e-01 4.831457e-02 7.995808e-02 4.864081e-02 6.279597e-02 -6.081131e-02 3.673838e-02 -3.277105e-02 4.294912e-02 -8.928748e-02 7.970067e-02 -8.045049e-02 4.473215e-02 -1.567579e-03 -2.149853e-02 2.192922e-02 6.292582e-03 -3.952695e-02 2.546441e-02 -7.201053e-03 -1.454194e-02 -8.908460e-03 1.886588e-02 -3.392830e-02 3.601611e-02 -1.817906e-02 3.178787e-02 -1.789691e-02 3.036948e-02 -1.985199e-02 2.006417e-02 -2.995041e-02 2.724140e-02 -2.612119e-02 1.597653e-02 -2.977061e-02 2.495995e-02 -2.792570e-02 2.935066e-02 -3.059683e-02 2.572683e-02 -2.506968e-02 1.989235e-02 -2.383157e-02 2.625922e-02 -2.505404e-02 2.564498e-02 -2.681187e-02 2.310225e-02 -1.466887e-02 1.052021e-02 -9.067575e-03 1.638655e-02 -2.426645e-02 2.807049e-02 -2.652336e-02 1.965184e-02 -2.880839e-03 1.889225e-03 -3.006349e-04 -5.685015e-04 4.053084e-04 -1.017384e-05 5.235566e-05 2.112514e-04 2.984605e-04 -1.078758e-04 1.214323e-04 1.516637e-04 1.883016e-04 1.627184e-04 3.824075e-04 -8.774181e-05 1.612541e-04 3.883526e-05 4.556234e-05 9.722212e-05 9.106496e-06 -1.095547e-04 7.698211e-05 -6.017166e-06 -5.247237e-05 -1.316254e-04 7.031647e-05 -2.187512e-04 1.119596e-04 -4.105312e-05 1.652182e-04 -8.071534e-05 -1.009790e-04 -1.766997e-04 9.579964e-05 -8.896989e-05 1.232139e-04 1.229902e-04 -1.081594e-04 -4.899473e-05 7.217647e-05 -1.409585e-04 8.013003e-05 -6.064527e-05 -6.424335e-05 4.451974e-05 -9.891144e-06 5.004705e-06 1.785966e-05 -5.907456e-05 1.208747e-04 -1.337782e-04 9.495564e-05 -2.149274e-05 3.606404e-06 5.811491e-06 1.793460e-06 -3.018974e-05 2.454445e-05 -3.900916e-06 1.272265e-06 6.596289e-06 -9.733421e-06 2.828049e-05 1.298965e-05 -1.997848e-05 -2.312059e-06 -2.102865e-06 1.596038e-05 2.572344e-06 1.168711e-06 -9.772533e-06 -2.120260e-05 1.896739e-07 5.605456e-06 5.161035e-06 -7.927763e-06 -1.269800e-05 -1.018530e-05 -2.967439e-06 3.015987e-08 -2.182142e-06 3.927740e-06 3.830456e-06 3.746464e-06 5.233227e-06 2.840483e-06 2.147554e-06 -1.207743e-06 -8.670768e-07 6.630905e-07 6.850989e-06 -1.954987e-06 -3.051247e-06 5.402673e-06 -5.420117e-06 -5.872170e-07 4.689910e-06 -7.385966e-07 -3.091608e-06 1.985757e-06 -6.568618e-07 -2.863295e-06 3.655714e-06 -4.779401e-06 1.370740e-06 -1.827727e-07 4.489938e-07 3.603540e-06 -5.728186e-06 3.680271e-06 -1.651180e-07 -9.507604e-07 1.478024e-06 -1.267240e-06 -1.653943e-06 4.014310e-06 -2.245278e-06 -4.691047e-07 1.724969e-06
<VARIANCE> 180
 5.694272e+00 1.647903e+00 2.378148e-01 1.505025e-01 1.026079e-01 6.245604e-02 3.598256e-02 6.265263e-02 4.498593e-02 3.835154e-02 2.132103e-02 1.820481e-02 2.573817e-02 2.634181e-02 1.932487e-02 2.880496e-02 1.959656e-02 1.648512e-02 1.362777e-02 1.313803e-02 1.634705e-02 1.068642e-02 9.714896e-03 1.219230e-02 9.363390e-03 8.902339e-03 9.811465e-03 8.468013e-03 7.411405e-03 7.107975e-03 6.171848e-03 5.924497e-03 6.165632e-03 6.692374e-03 5.661295e-03 5.091095e-03 5.355010e-03 4.863589e-03 4.802710e-03 3.411078e-03 3.371930e-03 3.265659e-03 3.126582e-03 3.060982e-03 3.028554e-03 2.496821e-03 2.596259e-03 2.693299e-03 2.856014e-03 2.683135e-03 2.392197e-03 2.220465e-03 2.021613e-03 1.866386e-03 1.841452e-03 1.947977e-03 2.371183e-03 2.175134e-03 1.948061e-03 1.775683e-03 3.165547e-02 1.956159e-02 9.771599e-03 6.584423e-03 5.135265e-03 5.009050e-03 4.394200e-03 3.857619e-03 3.876280e-03 3.844808e-03 3.297086e-03 3.510765e-03 3.246960e-03 3.101861e-03 3.097766e-03 3.159976e-03 2.970407e-03 2.759988e-03 2.673408e-03 2.692596e-03 2.352721e-03 2.406401e-03 2.265256e-03 2.279646e-03 2.186289e-03 1.871729e-03 1.856027e-03 1.853923e-03 1.736334e-03 1.800394e-03 1.543809e-03 1.462439e-03 1.402208e-03 1.348270e-03 1.313107e-03 1.272530e-03 1.095782e-03 1.134082e-03 9.915741e-04 9.116174e-04 9.380032e-04 8.865242e-04 8.361918e-04 8.281443e-04 7.694702e-04 6.742464e-04 6.813117e-04 6.968217e-04 6.928156e-04 6.554134e-04 6.120015e-04 5.411272e-04 5.356486e-04 5.309308e-04 5.028830e-04 5.054282e-04 5.335019e-04 5.241819e-04 4.738154e-04 4.303963e-04 3.187188e-02 1.960266e-02 1.810972e-02 1.442346e-02 1.293817e-02 1.376149e-02 1.255912e-02 1.139395e-02 1.207412e-02 1.228499e-02 1.092689e-02 1.207335e-02 1.122459e-02 1.010255e-02 1.045002e-02 1.070371e-02 9.769263e-03 9.745428e-03 9.070399e-03 9.512663e-03 8.009175e-03 8.210615e-03 8.072904e-03 7.882259e-03 7.432712e-03 6.989682e-03 6.591137e-03 6.764354e-03 6.133570e-03 5.892408e-03 5.497385e-03 4.945878e-03 4.806822e-03 4.666474e-03 4.279952e-03 4.367183e-03 4.106502e-03 3.966447e-03 3.607571e-03 3.420850e-03 3.246824e-03 2.972838e-03 3.018985e-03 3.023662e-03 2.795046e-03 2.599393e-03 2.489469e-03 2.457903e-03 2.400370e-03 2.338919e-03 2.244268e-03 1.978324e-03 1.945406e-03 2.046228e-03 1.915002e-03 1.947013e-03 1.983360e-03 1.917106e-03 1.874657e-03 1.590685e-03
<GCONST> -6.432146e+02
<STREAM> 2
<NUMMIXES> 2
<MIXTURE> 1 3.649956e-01
<MEAN> 1
 4.980548e+00
<VARIANCE> 1
 1.404822e-01
<GCONST> -1.247976e-01
<MIXTURE> 2 6.350038e-01
<MEAN> 0
<VARIANCE> 0
<GCONST> 0.000000e+00
<STREAM> 3
<NUMMIXES> 2
<MIXTURE> 1 3.465262e-01
<MEAN> 1
 -3.767726e-03
<VARIANCE> 1
 7.507728e-04
<GCONST> -5.356530e+00
<MIXTURE> 2 6.534733e-01
<MEAN> 0
<VARIANCE> 0
<GCONST> 0.000000e+00
<STREAM> 4
<NUMMIXES> 2
<MIXTURE> 1 3.454972e-01
<MEAN> 1
 -9.472927e-05
<VARIANCE> 1
 3.783226e-03
<GCONST> -3.739301e+00
<MIXTURE> 2 6.545022e-01
<MEAN> 0
<VARIANCE> 0
<GCONST> 0.000000e+00
<STREAM> 5
<MEAN> 15
 -1.562677e+00 -1.091130e+00 -1.073699e+00 -1.048281e+00 -1.099640e+00 2.887653e-03 -1.067419e-03 -6.282518e-04 -9.616862e-04 -9.614344e-04 -2.532878e-05 1.153225e-05 4.184360e-06 3.236903e-06 -1.355502e-05
<VARIANCE> 15
 6.852225e+00 2.627024e+00 2.521082e+00 2.339735e+00 2.574390e+00 5.597157e-01 2.395224e-01 2.635452e-01 2.561828e-01 2.791336e-01 3.384070e+00 1.844457e+00 2.304173e+00 2.024760e+00 2.220657e+00
<GCONST> 3.136727e+01
<STATE> 4
<SWEIGHTS> 5
 1.000000e+00 0.000000e+00 0.000000e+00 0.000000e+00 0.000000e+00
<STREAM> 1
<MEAN> 180
 2.367241e+00 1.114812e+00 1.241174e-01 2.845768e-01 4.980771e-02 7.952801e-02 4.874657e-02 6.430473e-02 -5.851218e-02 3.605226e-02 -3.189607e-02 4.366947e-02 -8.801721e-02 8.050454e-02 -7.813419e-02 4.458945e-02 -7.155125e-04 -2.114494e-02 2.254113e-02 6.949557e-03 -3.954945e-02 2.487395e-02 -6.650398e-03 -1.477065e-02 -8.979997e-03 1.833373e-02 -3.382041e-02 3.468375e-02 -1.765465e-02 3.153607e-02 -1.681311e-02 2.984837e-02 -2.043844e-02 1.881556e-02 -2.957798e-02 2.660559e-02 -2.523681e-02 1.683202e-02 -3.032676e-02 2.468618e-02 -2.754328e-02 2.842497e-02 -3.006306e-02 2.531593e-02 -2.549731e-02 2.019310e-02 -2.381915e-02 2.632814e-02 -2.499218e-02 2.524724e-02 -2.611289e-02 2.242065e-02 -1.414279e-02 1.033078e-02 -8.946007e-03 1.626109e-02 -2.412672e-02 2.791063e-02 -2.645567e-02 1.967457e-02 -2.707457e-03 1.911456e-03 -3.505092e-04 -3.730638e-04 4.668347e-04 -1.205638e-04 3.938061e-05 2.045883e-04 3.645891e-04 -1.095121e-04 1.337095e-04 9.232479e-05 5.259358e-05 1.463030e-04 3.909405e-04 -5.924013e-05 1.207730e-04 -3.782245e-05 -6.476675e-06 8.326196e-05 1.622597e-06 -1.195477e-04 1.036606e-04 2.074675e-05 -2.527538e-05 -9.591187e-05 7.964407e-05 -2.008122e-04 9.845501e-05 -4.398010e-05 1.818894e-04 -3.981093e-05 -1.187657e-04 -1.857884e-04 1.284982e-04 -1.184940e-04 1.141782e-04 1.457564e-04 -1.067270e-04 -6.815008e-05 7.710644e-05 -1.403735e-04 6.468354e-05 -3.923734e-05 -9.145361e-05 5.113886e-05 -1.352950e-05 1.307659e-05 3.567020e-05 -9.477911e-05 1.408154e-04 -1.307294e-04 8.968706e-05 -1.575016e-05 -3.967061e-06 -2.222096e-06 2.493495e-05 -4.317463e-05 1.961894e-05 8.989024e-06 1.133526e-05 -1.392933e-05 -1.051826e-05 3.199963e-05 9.654877e-06 -1.859799e-05 6.058467e-07 -2.907776e-06 1.198734e-05 1.855975e-06 5.644017e-07 -7.289090e-06 -2.045834e-05 -8.969877e-07 4.032050e-06 4.942994e-06 -8.142100e-06 -1.247444e-05 -1.029404e-05 -2.183581e-06 1.566661e-07 -3.634955e-06 2.593748e-06 5.111745e-06 3.662711e-06 5.410883e-06 1.995510e-06 2.601243e-06 -2.682282e-06 -1.191151e-06 -5.175369e-07 8.326067e-06 -1.176476e-07 -1.690328e-06 4.757633e-06 -4.362169e-06 -1.854488e-06 2.679420e-06 2.975173e-07 -2.987018e-06 1.560216e-06 9.179847e-07 -3.011304e-06 3.100129e-06 -3.932263e-06 1.326731e-06 -1.741979e-07 5.551220e-07 3.468720e-06 -5.793690e-06 3.217572e-06 5.728539e-07 -1.605577e-06 1.744749e-06 -1.498011e-06 -1.744171e-06 4.259809e-06 -2.483505e-06 -1.361777e-07 1.336651e-06
<VARIANCE> 180
 5.685575e+00 1.664124e+00 2.408103e-01 1.503046e-01 1.050561e-01 6.002510e-02 3.649719e-02 6.175914e-02 4.491796e-02 3.803717e-02 2.180612e-02 1.776519e-02 2.591787e-02 2.650308e-02 1.925309e-02 2.941623e-02 1.970060e-02 1.656641e-02 1.353340e-02 1.333107e-02 1.637658e-02 1.057939e-02 9.795489e-03 1.213483e-02 9.174902e-03 8.777238e-03 9.715332e-03 8.403095e-03 7.371804e-03 6.989805e-03 6.154601e-03 5.874006e-03 6.149691e-03 6.620175e-03 5.459537e-03 5.049589e-03 5.390111e-03 4.880689e-03 4.795000e-03 3.390325e-03 3.322699e-03 3.290131e-03 3.125682e-03 2.995767e-03 2.982809e-03 2.468434e-03 2.595432e-03 2.695956e-03 2.865248e-03 2.694007e-03 2.367352e-03 2.212364e-03 2.007805e-03 1.845787e-03 1.822790e-03 1.957216e-03 2.409542e-03 2.174574e-03 1.944964e-03 1.785594e-03 3.169144e-02 1.942773e-02 9.728981e-03 6.497317e-03 5.135135e-03 4.933255e-03 4.418213e-03 3.882782e-03 3.879858e-03 3.830105e-03 3.311658e-03 3.458941e-03 3.248399e-03 3.128569e-03 3.089387e-03 3.126343e-03 2.995712e-03 2.792233e-03 2.662663e-03 2.673847e-03 2.337911e-03 2.405814e-03 2.234061e-03 2.272675e-03 2.185623e-03 1.865463e-03 1.857168e-03 1.872564e-03 1.742655e-03 1.802823e-03 1.529968e-03 1.452663e-03 1.397832e-03 1.336853e-03 1.285215e-03 1.258646e-03 1.097225e-03 1.140761e-03 9.942583e-04 9.125933e-04 9.316438e-04 8.827616e-04 8.286500e-04 8.238889e-04 7.589323e-04 6.643602e-04 6.798287e-04 6.992260e-04 7.005347e-04 6.606297e-04 6.115095e-04 5.400028e-04 5.328903e-04 5.294966e-04 4.991271e-04 5.096201e-04 5.381169e-04 5.241664e-04 4.752169e-04 4.331401e-04 3.218206e-02 1.939851e-02 1.800429e-02 1.419535e-02 1.288242e-02 1.357545e-02 1.259541e-02 1.150290e-02 1.213245e-02 1.221546e-02 1.095499e-02 1.189321e-02 1.114817e-02 1.016836e-02 1.046765e-02 1.057096e-02 9.851544e-03 9.772754e-03 8.986650e-03 9.423325e-03 7.949825e-03 8.233895e-03 8.095798e-03 7.823590e-03 7.443056e-03 6.939851e-03 6.615956e-03 6.761891e-03 6.161107e-03 5.851548e-03 5.487302e-03 4.915056e-03 4.773328e-03 4.642114e-03 4.263223e-03 4.344413e-03 4.088178e-03 3.991374e-03 3.611353e-03 3.409926e-03 3.222710e-03 2.946094e-03 2.966101e-03 3.001302e-03 2.768372e-03 2.570518e-03 2.477838e-03 2.451821e-03 2.390815e-03 2.328751e-03 2.243295e-03 1.959999e-03 1.942186e-03 2.062537e-03 1.909858e-03 1.959536e-03 1.987661e-03 1.925671e-03 1.887772e-03 1.597439e-03
<GCONST> -6.436716e+02
<STREAM> 2
<NUMMIXES> 2
<MIXTURE> 1 3.692546e-01
<MEAN> 1
 4.972316e+00
<VARIANCE> 1
 1.436622e-01
<GCONST> -1.024137e-01
<MIXTURE> 2 6.307449e-01
<MEAN> 0
<VARIANCE> 0
<GCONST> 0.000000e+00
<STREAM> 3
<NUMMIXES> 2
<MIXTURE> 1 3.507346e-01
<MEAN> 1
 -3.583195e-03
<VARIANCE> 1
 7.799987e-04
<GCONST> -5.318341e+00
<MIXTURE> 2 6.492653e-01
<MEAN> 0
<VARIANCE> 0
<GCONST> 0.000000e+00
<STREAM> 4
<NUMMIXES> 2
<MIXTURE> 1 3.496778e-01
<MEAN> 1
 -2.199467e-04
<VARIANCE> 1
 3.967562e-03
<GCONST> -3.691726e+00
<MIXTURE> 2 6.503223e-01
<MEAN> 0
<VARIANCE> 0
<GCONST> 0.000000e+00
<STREAM> 5
<MEAN> 15
 -1.549849e+00 -1.098703e+00 -1.078521e+00 -1.054487e+00 -1.106728e+00 2.650786e-03 -9.773552e-04 -6.195429e-04 -9.618500e-04 -1.039200e-03 -4.056062e-05 3.150724e-05 1.667819e-05 1.722204e-05 2.291567e-06
<VARIANCE> 15
 6.649800e+00 2.609442e+00 2.497042e+00 2.324974e+00 2.562938e+00 5.463728e-01 2.406919e-01 2.607504e-01 2.533233e-01 2.797259e-01 3.297479e+00 1.852405e+00 2.251159e+00 2.042070e+00 2.220385e+00
<GCONST> 3.123466e+01
<STATE> 5
<SWEIGHTS> 5
 1.000000e+00 0.000000e+00 0.000000e+00 0.000000e+00 0.000000e+00
<STREAM> 1
<MEAN> 180
 2.350029e+00 1.124360e+00 1.224337e-01 2.831084e-01 5.167237e-02 7.843809e-02 4.882204e-02 6.581632e-02 -5.607319e-02 3.522595e-02 -3.089893e-02 4.401496e-02 -8.768498e-02 8.103199e-02 -7.596263e-02 4.458536e-02 -7.504039e-05 -2.127409e-02 2.288838e-02 7.551406e-03 -3.966042e-02 2.425602e-02 -5.853402e-03 -1.473624e-02 -8.828394e-03 1.802273e-02 -3.367858e-02 3.352465e-02 -1.723298e-02 3.128763e-02 -1.554436e-02 2.953848e-02 -2.119277e-02 1.759430e-02 -2.899224e-02 2.579702e-02 -2.445270e-02 1.780005e-02 -3.084496e-02 2.428863e-02 -2.718394e-02 2.753844e-02 -2.962576e-02 2.503319e-02 -2.607950e-02 2.051801e-02 -2.385587e-02 2.649107e-02 -2.484529e-02 2.460932e-02 -2.528500e-02 2.177180e-02 -1.364521e-02 1.015786e-02 -8.884585e-03 1.610963e-02 -2.384295e-02 2.766241e-02 -2.643516e-02 1.980840e-02 -2.478850e-03 1.816444e-03 -4.130881e-04 -1.676373e-04 5.198519e-04 -2.167902e-04 4.436631e-05 1.924920e-04 4.022396e-04 -1.146142e-04 1.431340e-04 4.992787e-05 -7.258983e-05 1.249097e-04 3.864430e-04 -3.353414e-05 8.289725e-05 -1.102500e-04 -6.071373e-05 7.661299e-05 -4.262042e-06 -1.418272e-04 1.214071e-04 6.216004e-05 2.486850e-06 -6.555757e-05 8.323740e-05 -1.796785e-04 7.968783e-05 -5.104376e-05 1.878996e-04 9.610704e-06 -1.243388e-04 -1.858802e-04 1.570126e-04 -1.378432e-04 9.801654e-05 1.529933e-04 -1.007524e-04 -8.535772e-05 7.994715e-05 -1.297168e-04 4.741483e-05 -2.177154e-05 -1.141320e-04 5.771114e-05 -1.530751e-05 1.971948e-05 5.214212e-05 -1.286339e-04 1.578342e-04 -1.252680e-04 8.217151e-05 -8.453055e-06 -1.440257e-05 -8.959107e-06 4.853561e-05 -5.760394e-05 1.720430e-05 1.898092e-05 1.959178e-05 -3.216262e-05 -1.049047e-05 3.222703e-05 6.976190e-06 -1.527270e-05 2.706817e-06 -4.106135e-06 7.319602e-06 1.404308e-06 -1.422264e-07 -4.281948e-06 -1.813620e-05 -2.525063e-06 1.638414e-06 4.518751e-06 -7.909615e-06 -1.063957e-05 -9.462920e-06 -6.082173e-07 1.178037e-06 -4.632132e-06 8.358936e-07 6.719280e-06 3.368498e-06 4.404408e-06 7.887890e-07 3.043222e-06 -3.283998e-06 -1.643375e-06 -2.710278e-06 8.499497e-06 2.560289e-06 3.099508e-07 3.564023e-06 -2.858418e-06 -3.115250e-06 3.623410e-07 1.088790e-06 -2.152841e-06 1.044402e-06 1.763101e-06 -2.500754e-06 2.562979e-06 -3.356432e-06 1.090859e-06 4.316277e-07 1.429123e-07 2.813377e-06 -4.644957e-06 2.408243e-06 7.645792e-07 -1.725379e-06 1.784573e-06 -1.821906e-06 -1.453585e-06 4.156628e-06 -2.651467e-06 2.296337e-07 9.567154e-07
<VARIANCE> 180
 5.672965e+00 1.676260e+00 2.429532e-01 1.503468e-01 1.075599e-01 5.765116e-02 3.704836e-02 6.088152e-02 4.466229e-02 3.770760e-02 2.228562e-02 1.738459e-02 2.621194e-02 2.673246e-02 1.924847e-02 3.005521e-02 1.974354e-02 1.668634e-02 1.348105e-02 1.350122e-02 1.636765e-02 1.050195e-02 9.868660e-03 1.206589e-02 8.981211e-03 8.682719e-03 9.600619e-03 8.326515e-03 7.334441e-03 6.858076e-03 6.140419e-03 5.825177e-03 6.158187e-03 6.548930e-03 5.256142e-03 4.991203e-03 5.433952e-03 4.898347e-03 4.790619e-03 3.375018e-03 3.281524e-03 3.307806e-03 3.134897e-03 2.940000e-03 2.942731e-03 2.452343e-03 2.600389e-03 2.692813e-03 2.870883e-03 2.702445e-03 2.341457e-03 2.198850e-03 1.994708e-03 1.825656e-03 1.803753e-03 1.964554e-03 2.439514e-03 2.165125e-03 1.938482e-03 1.796140e-03 3.173383e-02 1.928761e-02 9.705867e-03 6.436994e-03 5.153564e-03 4.865997e-03 4.436732e-03 3.901805e-03 3.876261e-03 3.821391e-03 3.324057e-03 3.410722e-03 3.254325e-03 3.152540e-03 3.081599e-03 3.094287e-03 3.016606e-03 2.836774e-03 2.660546e-03 2.650256e-03 2.319784e-03 2.408155e-03 2.205568e-03 2.264699e-03 2.187650e-03 1.864344e-03 1.861093e-03 1.883609e-03 1.754996e-03 1.799547e-03 1.518366e-03 1.445838e-03 1.396396e-03 1.324813e-03 1.254354e-03 1.238145e-03 1.099621e-03 1.147568e-03 9.996340e-04 9.138493e-04 9.255096e-04 8.775802e-04 8.219005e-04 8.209820e-04 7.518422e-04 6.569508e-04 6.815732e-04 7.013427e-04 7.075375e-04 6.632101e-04 6.109222e-04 5.398541e-04 5.312389e-04 5.279726e-04 4.938436e-04 5.134381e-04 5.423929e-04 5.229757e-04 4.761593e-04 4.370156e-04 3.251246e-02 1.920624e-02 1.793166e-02 1.399475e-02 1.283348e-02 1.339341e-02 1.261688e-02 1.161122e-02 1.217402e-02 1.215077e-02 1.097292e-02 1.169309e-02 1.106778e-02 1.022084e-02 1.047153e-02 1.044024e-02 9.936672e-03 9.824368e-03 8.913171e-03 9.326074e-03 7.882929e-03 8.251594e-03 8.116570e-03 7.781589e-03 7.472835e-03 6.916221e-03 6.653019e-03 6.748405e-03 6.206385e-03 5.797539e-03 5.484429e-03 4.892185e-03 4.738003e-03 4.624253e-03 4.251219e-03 4.321224e-03 4.070986e-03 4.021280e-03 3.621122e-03 3.410090e-03 3.201362e-03 2.918619e-03 2.916666e-03 2.982636e-03 2.743680e-03 2.547069e-03 2.470432e-03 2.446170e-03 2.381956e-03 2.315653e-03 2.242458e-03 1.945441e-03 1.943708e-03 2.080349e-03 1.905109e-03 1.974208e-03 1.995120e-03 1.931230e-03 1.896719e-03 1.609089e-03
<GCONST> -6.440753e+02
<STREAM> 2
<NUMMIXES> 2
<MIXTURE> 1 3.733379e-01
<MEAN> 1
 4.964871e+00
<VARIANCE> 1
 1.467039e-01
<GCONST> -8.146203e-02
<MIXTURE> 2 6.266627e-01
<MEAN> 0
<VARIANCE> 0
<GCONST> 0.000000e+00
<STREAM> 3
<NUMMIXES> 2
<MIXTURE> 1 3.547885e-01
<MEAN> 1
 -3.388556e-03
<VARIANCE> 1
 8.095317e-04
<GCONST> -5.281178e+00
<MIXTURE> 2 6.452116e-01
<MEAN> 0
<VARIANCE> 0
<GCONST> 0.000000e+00
<STREAM> 4
<NUMMIXES> 2
<MIXTURE> 1 3.537207e-01
<MEAN> 1
 -3.184979e-04
<VARIANCE> 1
 4.138486e-03
<GCONST> -3.649548e+00
<MIXTURE> 2 6.462794e-01
<MEAN> 0
<VARIANCE> 0
<GCONST> 0.000000e+00
<STREAM> 5
<MEAN> 15
 -1.538386e+00 -1.105173e+00 -1.082969e+00 -1.060269e+00 -1.113678e+00 2.369755e-03 -7.609222e-04 -5.218217e-04 -8.495306e-04 -9.765130e-04 -5.455456e-05 4.293604e-05 2.329958e-05 2.509981e-05 1.682837e-05
<VARIANCE> 15
 6.471202e+00 2.588188e+00 2.473120e+00 2.309719e+00 2.552894e+00 5.338146e-01 2.414859e-01 2.584545e-01 2.501536e-01 2.801059e-01 3.215281e+00 1.861416e+00 2.200830e+00 2.054451e+00 2.216203e+00
<GCONST> 3.110025e+01
<STATE> 6
<SWEIGHTS> 5
 1.000000e+00 0.000000e+00 0.000000e+00 0.000000e+00 0.000000e+00
<STREAM> 1
<MEAN> 180
 2.335164e+00 1.133449e+00 1.204337e-01 2.829915e-01 5.394290e-02 7.682213e-02 4.899640e-02 6.728344e-02 -5.368861e-02 3.422825e-02 -2.980173e-02 4.412461e-02 -8.820429e-02 8.128878e-02 -7.399366e-02 4.467963e-02 3.896367e-04 -2.185538e-02 2.293331e-02 8.169852e-03 -3.983060e-02 2.348988e-02 -4.867689e-03 -1.429376e-02 -8.463848e-03 1.782834e-02 -3.354129e-02 3.257320e-02 -1.692207e-02 3.099704e-02 -1.416757e-02 2.950479e-02 -2.204015e-02 1.645472e-02 -2.821477e-02 2.491109e-02 -2.381540e-02 1.874633e-02 -3.129438e-02 2.378292e-02 -2.686555e-02 2.676633e-02 -2.930819e-02 2.485012e-02 -2.678236e-02 2.087438e-02 -2.392620e-02 2.671490e-02 -2.460966e-02 2.375102e-02 -2.435268e-02 2.116809e-02 -1.318852e-02 1.001380e-02 -8.911318e-03 1.595495e-02 -2.341722e-02 2.730944e-02 -2.644155e-02 2.003612e-02 -2.211895e-03 1.630931e-03 -4.769754e-04 3.183742e-05 5.689575e-04 -2.874316e-04 6.343699e-05 1.719959e-04 4.135591e-04 -1.187256e-04 1.485594e-04 3.390600e-05 -1.745971e-04 1.005084e-04 3.723316e-04 -1.317888e-05 4.713571e-05 -1.707716e-04 -1.124760e-04 7.937638e-05 -4.064996e-06 -1.731126e-04 1.292965e-04 1.173963e-04 2.698853e-05 -4.923818e-05 7.906131e-05 -1.560291e-04 6.110730e-05 -6.129312e-05 1.780072e-04 6.104090e-05 -1.131559e-04 -1.744642e-04 1.774155e-04 -1.470877e-04 7.419928e-05 1.435520e-04 -9.011388e-05 -9.742728e-05 8.001211e-05 -1.122893e-04 2.936802e-05 -6.704902e-06 -1.304615e-04 6.246589e-05 -1.363064e-05 2.046641e-05 6.725008e-05 -1.540090e-04 1.683475e-04 -1.192347e-04 7.412705e-05 -4.192316e-09 -2.832434e-05 -1.132665e-05 6.972504e-05 -7.361583e-05 1.851175e-05 2.583638e-05 2.324595e-05 -4.704567e-05 -1.055509e-05 2.995400e-05 4.655675e-06 -1.125411e-05 3.767118e-06 -5.194399e-06 3.483104e-06 2.046329e-06 -5.340771e-07 -1.540852e-07 -1.411353e-05 -4.209483e-06 -3.060222e-07 3.772155e-06 -7.261720e-06 -7.903836e-06 -7.428284e-06 8.814831e-07 1.425385e-06 -4.642007e-06 -1.105434e-07 7.732159e-06 2.254498e-06 2.169192e-06 -2.965407e-07 3.713776e-06 -2.838568e-06 -1.722271e-06 -4.963168e-06 7.408083e-06 4.869969e-06 2.683700e-06 1.772433e-06 -1.916742e-06 -4.040833e-06 -2.102670e-06 1.769097e-06 -6.363591e-07 4.516652e-07 2.255466e-06 -2.259112e-06 2.593712e-06 -2.080398e-06 4.226434e-07 7.725372e-07 -8.398583e-07 2.549521e-06 -2.809956e-06 9.879801e-07 8.066480e-07 -1.752165e-06 1.971962e-06 -2.326705e-06 -7.818942e-07 3.655354e-06 -2.682287e-06 7.181382e-07 4.702377e-07
<VARIANCE> 180
 5.657735e+00 1.683359e+00 2.438167e-01 1.506036e-01 1.099850e-01 5.539411e-02 3.760289e-02 6.001811e-02 4.423634e-02 3.740098e-02 2.273455e-02 1.707030e-02 2.661328e-02 2.697861e-02 1.929753e-02 3.069388e-02 1.971379e-02 1.681218e-02 1.346229e-02 1.363947e-02 1.632180e-02 1.045882e-02 9.944292e-03 1.199066e-02 8.784316e-03 8.622437e-03 9.462123e-03 8.245786e-03 7.295408e-03 6.722488e-03 6.128137e-03 5.775311e-03 6.195486e-03 6.485674e-03 5.062824e-03 4.920861e-03 5.485850e-03 4.923500e-03 4.793200e-03 3.366510e-03 3.251096e-03 3.318346e-03 3.152861e-03 2.896179e-03 2.912044e-03 2.451492e-03 2.612290e-03 2.683863e-03 2.871137e-03 2.705156e-03 2.314203e-03 2.180983e-03 1.984570e-03 1.806864e-03 1.785347e-03 1.968918e-03 2.457952e-03 2.148074e-03 1.928219e-03 1.806327e-03 3.181135e-02 1.916520e-02 9.708439e-03 6.404043e-03 5.192238e-03 4.811890e-03 4.445095e-03 3.912861e-03 3.868535e-03 3.824823e-03 3.333590e-03 3.368822e-03 3.263171e-03 3.172532e-03 3.072634e-03 3.067008e-03 3.034486e-03 2.885308e-03 2.666167e-03 2.625065e-03 2.297794e-03 2.413161e-03 2.182936e-03 2.255486e-03 2.188417e-03 1.868837e-03 1.865599e-03 1.884919e-03 1.769954e-03 1.791728e-03 1.509685e-03 1.442291e-03 1.397506e-03 1.313572e-03 1.222886e-03 1.212651e-03 1.103643e-03 1.154198e-03 1.008633e-03 9.156262e-04 9.207400e-04 8.718686e-04 8.164850e-04 8.200421e-04 7.495561e-04 6.531928e-04 6.867828e-04 7.026618e-04 7.128989e-04 6.628733e-04 6.104373e-04 5.409515e-04 5.311701e-04 5.266459e-04 4.872038e-04 5.165215e-04 5.457252e-04 5.205217e-04 4.764604e-04 4.415852e-04 3.289752e-02 1.905645e-02 1.790912e-02 1.382571e-02 1.279774e-02 1.323407e-02 1.261702e-02 1.171779e-02 1.220511e-02 1.209739e-02 1.098179e-02 1.147995e-02 1.097946e-02 1.025378e-02 1.045765e-02 1.032061e-02 1.002489e-02 9.884446e-03 8.849714e-03 9.231475e-03 7.810688e-03 8.266899e-03 8.134819e-03 7.754429e-03 7.514530e-03 6.922950e-03 6.699007e-03 6.719667e-03 6.264447e-03 5.734144e-03 5.492656e-03 4.878123e-03 4.699538e-03 4.617698e-03 4.243060e-03 4.298041e-03 4.057358e-03 4.053436e-03 3.637335e-03 3.420839e-03 3.184764e-03 2.892848e-03 2.873153e-03 2.969802e-03 2.723300e-03 2.531739e-03 2.467343e-03 2.440693e-03 2.372648e-03 2.301140e-03 2.242359e-03 1.935898e-03 1.951308e-03 2.098976e-03 1.901093e-03 1.989985e-03 2.005076e-03 1.931639e-03 1.900269e-03 1.623961e-03
<GCONST> -6.444037e+02
<STREAM> 2
<NUMMIXES> 2
<MIXTURE> 1 3.768009e-01
<MEAN> 1
 4.958452e+00
<VARIANCE> 1
 1.495131e-01
<GCONST> -6.249440e-02
<MIXTURE> 2 6.231992e-01
<MEAN> 0
<VARIANCE> 0
<GCONST> 0.000000e+00
<STREAM> 3
<NUMMIXES> 2
<MIXTURE> 1 3.582656e-01
<MEAN> 1
 -3.189108e-03
<VARIANCE> 1
 8.384900e-04
<GCONST> -5.246031e+00
<MIXTURE> 2 6.417348e-01
<MEAN> 0
<VARIANCE> 0
<GCONST> 0.000000e+00
<STREAM> 4
<NUMMIXES> 2
<MIXTURE> 1 3.572054e-01
<MEAN> 1
 -3.814683e-04
<VARIANCE> 1
 4.287410e-03
<GCONST> -3.614196e+00
<MIXTURE> 2 6.427951e-01
<MEAN> 0
<VARIANCE> 0
<GCONST> 0.000000e+00
<STREAM> 5
<MEAN> 15
 -1.527937e+00 -1.109474e+00 -1.086164e+00 -1.064648e+00 -1.119227e+00 2.052696e-03 -4.596654e-04 -3.533736e-04 -6.497656e-04 -7.929091e-04 -7.475811e-05 5.165121e-05 3.018227e-05 3.559121e-05 2.983366e-05
<VARIANCE> 15
 6.323938e+00 2.563292e+00 2.449759e+00 2.293907e+00 2.542948e+00 5.222372e-01 2.416769e-01 2.565560e-01 2.466435e-01 2.800252e-01 3.138484e+00 1.869404e+00 2.153253e+00 2.060348e+00 2.206599e+00
<GCONST> 3.096114e+01
<TRANSP> 7
 0.000000e+00 1.000000e+00 0.000000e+00 0.000000e+00 0.000000e+00 0.000000e+00 0.000000e+00
 0.000000e+00 8.469959e-01 1.530041e-01 0.000000e+00 0.000000e+00 0.000000e+00 0.000000e+00
 0.000000e+00 0.000000e+00 8.469958e-01 1.530042e-01 0.000000e+00 0.000000e+00 0.000000e+00
 0.000000e+00 0.000000e+00 0.000000e+00 8.469961e-01 1.530038e-01 0.000000e+00 0.000000e+00
 0.000000e+00 0.000000e+00 0.000000e+00 0.000000e+00 8.469971e-01 1.530030e-01 0.000000e+00
 0.000000e+00 0.000000e+00 0.000000e+00 0.000000e+00 0.000000e+00 8.469991e-01 1.530010e-01
 0.000000e+00 0.000000e+00 0.000000e+00 0.000000e+00 0.000000e+00 0.000000e+00 0.000000e+00
<ENDHMM>
~h "D"
<BEGINHMM>
<NUMSTATES> 7
<STATE> 2
<SWEIGHTS> 5
 1.000000e+00 0.000000e+00 0.000000e+00 0.000000e+00 0.000000e+00
<STREAM> 1
<MEAN> 180
 3.397317e+00 1.482224e+00 8.234693e-02 3.785378e-01 1.124320e-01 8.465420e-02 2.065799e-02 5.854090e-02 -1.075291e-01 5.254659e-02 -6.127099e-02 4.182774e-02 -1.098146e-01 7.503760e-02 -1.125732e-01 6.745851e-02 4.662081e-04 -3.999869e-02 1.690795e-02 2.446525e-02 -7.107613e-02 2.989835e-02 -4.899133e-03 -1.552348e-02 1.276047e-02 1.934600e-02 -4.395652e-02 5.251039e-02 -2.344741e-02 3.589746e-02 -2.024346e-02 3.982676e-02 -3.039518e-02 3.332020e-02 -2.885816e-02 2.312976e-02 -3.389168e-02 2.762772e-02 -3.470244e-02 2.712602e-02 -3.440125e-02 3.786426e-02 -3.793634e-02 3.277742e-02 -3.027147e-02 2.553954e-02 -2.848769e-02 2.696645e-02 -2.366589e-02 2.477330e-02 -2.739708e-02 2.656059e-02 -1.958390e-02 1.421946e-02 -1.479729e-02 2.364450e-02 -3.109857e-02 3.499607e-02 -3.518845e-02 2.981144e-02 -5.259426e-04 -3.678157e-04 1.199314e-04 2.184764e-04 9.748036e-05 1.703101e-04 -4.213517e-05 1.607054e-04 5.871795e-05 -1.137285e-04 2.245032e-05 8.285292e-05 -2.835137e-05 3.571700e-05 1.185083e-04 5.373319e-05 -7.093531e-05 -1.010787e-05 6.493807e-05 3.880035e-05 -1.798555e-05 -2.380096e-06 -1.791639e-05 -7.509723e-05 2.886120e-06 -5.553052e-06 -2.601680e-05 -5.327447e-05 6.787789e-05 -1.619929e-05 4.022056e-05 -1.692261e-05 1.087638e-05 -1.958859e-05 -1.909516e-05 -4.770904e-06 -1.500813e-05 -1.353100e-05 4.296484e-05 -4.382867e-05 2.915549e-05 -4.339512e-06 1.661597e-05 4.041818e-06 -2.546210e-05 9.901146e-06 8.146635e-06 -1.280213e-05 6.692694e-06 -9.618647e-06 -1.100631e-05 1.339013e-05 4.363883e-07 1.902964e-06 -1.141520e-05 1.171961e-05 -1.151442e-06 -1.029186e-06 -3.564819e-06 2.982268e-06 -4.700098e-05 -2.515482e-05 1.618950e-08 -2.220690e-06 -7.637572e-06 -6.216886e-06 3.400112e-06 -1.938158e-06 6.852516e-07 1.563984e-06 4.102855e-07 -5.201496e-08 -6.627034e-07 2.693564e-06 2.843115e-06 -8.400840e-06 7.585654e-07 3.175552e-06 -5.311376e-06 4.124667e-07 3.416837e-06 2.099426e-06 1.851866e-06 6.947657e-07 -1.287963e-07 -9.984565e-07 1.260446e-06 -1.255289e-06 1.275418e-09 -1.748339e-07 -1.080946e-06 4.329168e-07 1.120046e-06 -1.375819e-06 -1.012681e-06 -1.078216e-06 5.480211e-08 5.738154e-07 -4.664873e-07 -7.483282e-08 1.580441e-06 -9.612461e-07 -7.692841e-07 3.901220e-07 5.433397e-07 6.979263e-07 -5.122348e-07 2.798877e-08 3.909795e-07 -1.070994e-06 1.369661e-06 -7.045974e-07 -4.639992e-08 3.431511e-07 1.424850e-07 -9.070992e-07 1.070868e-06 -7.211731e-07 -5.325179e-08 4.947640e-07
<VARIANCE> 180
 5.660954e+00 1.722392e+00 2.616057e-01 2.010292e-01 1.356965e-01 7.556825e-02 5.218749e-02 7.816252e-02 5.244016e-02 5.450230e-02 2.939617e-02 2.659334e-02 2.841984e-02 3.485557e-02 2.591966e-02 3.817866e-02 2.366234e-02 1.838838e-02 1.884845e-02 1.689591e-02 1.904603e-02 1.468497e-02 1.149806e-02 1.149086e-02 1.052045e-02 1.018798e-02 1.102019e-02 9.226029e-03 8.562479e-03 7.829911e-03 8.281578e-03 6.963765e-03 7.323408e-03 6.718437e-03 5.591494e-03 5.166036e-03 5.980990e-03 5.952245e-03 4.989961e-03 3.773184e-03 3.847033e-03 3.996258e-03 3.860423e-03 3.460341e-03 3.212065e-03 3.210871e-03 3.142458e-03 2.832550e-03 3.030862e-03 3.103519e-03 2.887117e-03 2.893915e-03 2.530537e-03 2.187746e-03 2.283857e-03 2.377826e-03 2.427601e-03 2.424397e-03 2.317324e-03 2.237879e-03 4.810913e-02 2.498534e-02 1.181234e-02 7.672384e-03 6.232206e-03 5.140703e-03 4.217122e-03 3.940593e-03 4.031906e-03 3.908559e-03 3.445517e-03 3.370864e-03 3.205082e-03 3.188662e-03 3.078207e-03 3.074927e-03 2.849884e-03 2.653256e-03 2.621868e-03 2.428571e-03 2.446417e-03 2.295226e-03 2.193598e-03 2.092024e-03 1.970392e-03 1.869222e-03 1.837881e-03 1.713963e-03 1.642486e-03 1.573756e-03 1.502168e-03 1.403615e-03 1.321420e-03 1.268445e-03 1.235797e-03 1.131599e-03 1.093614e-03 1.035206e-03 9.750794e-04 9.073713e-04 8.880823e-04 8.531259e-04 8.371013e-04 7.923085e-04 7.435175e-04 7.067766e-04 6.808839e-04 6.550697e-04 6.553538e-04 6.264845e-04 6.057750e-04 5.829913e-04 5.496648e-04 5.266712e-04 5.162294e-04 5.116403e-04 5.014012e-04 4.901943e-04 4.665534e-04 4.457927e-04 4.599802e-02 2.421781e-02 2.184479e-02 1.587384e-02 1.433690e-02 1.340450e-02 1.257238e-02 1.210680e-02 1.216864e-02 1.207488e-02 1.131584e-02 1.120574e-02 1.083540e-02 1.068372e-02 1.032431e-02 1.039308e-02 9.666143e-03 9.430412e-03 9.078089e-03 8.636417e-03 8.433338e-03 8.033647e-03 7.827884e-03 7.488851e-03 7.082529e-03 6.720967e-03 6.610189e-03 6.194396e-03 5.939049e-03 5.697093e-03 5.339571e-03 5.151685e-03 4.860015e-03 4.656025e-03 4.484165e-03 4.198194e-03 4.055379e-03 3.849501e-03 3.620214e-03 3.458825e-03 3.361921e-03 3.267692e-03 3.187478e-03 2.983040e-03 2.839230e-03 2.690493e-03 2.552054e-03 2.488273e-03 2.486203e-03 2.368602e-03 2.317818e-03 2.197484e-03 2.093225e-03 2.034244e-03 1.990041e-03 1.976383e-03 1.931719e-03 1.890864e-03 1.823833e-03 1.724394e-03
<GCONST> -6.322728e+02
<STREAM> 2
<NUMMIXES> 2
<MIXTURE> 1 5.035787e-01
<MEAN> 1
 5.001188e+00
<VARIANCE> 1
 1.222007e-01
<GCONST> -2.642131e-01
<MIXTURE> 2 4.964281e-01
<MEAN> 0
<VARIANCE> 0
<GCONST> 0.000000e+00
<STREAM> 3
<NUMMIXES> 2
<MIXTURE> 1 4.836346e-01
<MEAN> 1
 -2.404611e-03
<VARIANCE> 1
 7.615212e-04
<GCONST> -5.342316e+00
<MIXTURE> 2 5.163718e-01
<MEAN> 0
<VARIANCE> 0
<GCONST> 0.000000e+00
<STREAM> 4
<NUMMIXES> 2
<MIXTURE> 1 4.829943e-01
<MEAN> 1
 -7.036225e-04
<VARIANCE> 1
 2.996939e-03
<GCONST> -3.972287e+00
<MIXTURE> 2 5.170118e-01
<MEAN> 0
<VARIANCE> 0
<GCONST> 0.000000e+00
<STREAM> 5
<MEAN> 15
 -2.525511e+00 -1.577073e+00 -1.539167e+00 -1.506332e+00 -1.534272e+00 3.490601e-04 -2.541200e-04 -2.583724e-04 -4.711222e-04 -4.203092e-04 4.809550e-05 4.481727e-05 3.613739e-05 3.127716e-05 3.111049e-05
<VARIANCE> 15
 1.162374e+01 3.492423e+00 3.085530e+00 2.922575e+00 3.019792e+00 8.900530e-01 3.759269e-01 3.609287e-01 3.510441e-01 3.497519e-01 5.240191e+00 2.739880e+00 2.869852e+00 2.810812e+00 2.769925e+00
<GCONST> 3.613572e+01
<STATE> 3
<SWEIGHTS> 5
 1.000000e+00 0.000000e+00 0.000000e+00 0.000000e+00 0.000000e+00
<STREAM> 1
<MEAN> 180
 3.393443e+00 1.479118e+00 8.321761e-02 3.795570e-01 1.127304e-01 8.566555e-02 2.057439e-02 5.942192e-02 -1.074326e-01 5.188933e-02 -6.106608e-02 4.216946e-02 -1.100102e-01 7.537316e-02 -1.118331e-01 6.764315e-02 -4.304131e-05 -4.001970e-02 1.712586e-02 2.471157e-02 -7.114260e-02 2.996407e-02 -4.945846e-03 -1.583957e-02 1.279957e-02 1.928973e-02 -4.406785e-02 5.218998e-02 -2.309311e-02 3.578284e-02 -2.001293e-02 3.969010e-02 -3.027640e-02 3.317298e-02 -2.897507e-02 2.308562e-02 -3.397359e-02 2.758717e-02 -3.453989e-02 2.688843e-02 -3.420284e-02 3.783998e-02 -3.786356e-02 3.279443e-02 -3.039842e-02 2.563207e-02 -2.849835e-02 2.690189e-02 -2.359443e-02 2.470431e-02 -2.745668e-02 2.664024e-02 -1.958737e-02 1.424026e-02 -1.485044e-02 2.367170e-02 -3.106528e-02 3.498046e-02 -3.523663e-02 2.985791e-02 -7.098445e-04 -4.960402e-04 1.062980e-04 2.119902e-04 5.560242e-05 1.364765e-04 -3.199760e-05 1.499415e-04 5.964648e-05 -1.018372e-04 2.565072e-05 7.992455e-05 -2.834074e-05 4.804107e-05 1.272549e-04 1.916600e-05 -6.101649e-05 4.625726e-06 3.650272e-05 4.048297e-05 -3.996458e-06 1.084744e-05 -4.659300e-06 -6.990403e-05 1.500975e-06 -1.071942e-05 -2.103274e-05 -5.833663e-05 6.710783e-05 -2.091523e-05 3.456009e-05 -1.417680e-05 1.690987e-05 -2.578975e-05 -2.267348e-05 -1.035683e-05 -1.733626e-05 -7.616212e-06 3.906111e-05 -4.371402e-05 3.621534e-05 -1.090585e-05 1.395560e-05 6.575307e-06 -2.415656e-05 1.529022e-05 4.157910e-06 -1.156791e-05 8.385465e-06 -1.552963e-05 -3.157943e-06 9.982398e-06 -5.274233e-07 2.606880e-06 -8.456833e-06 5.264592e-06 4.603373e-06 -4.032838e-06 -4.289311e-06 5.710148e-06 -4.400466e-05 -2.757793e-05 -3.778314e-06 -2.151784e-06 -8.246562e-06 -5.737447e-06 2.655630e-06 -4.971062e-06 -1.017669e-06 1.868092e-06 1.004727e-06 -1.040695e-06 2.106569e-07 2.048827e-06 1.454676e-06 -7.424254e-06 1.116346e-06 3.555495e-06 -5.542397e-06 -5.170144e-07 2.869878e-06 2.473965e-06 3.058896e-06 9.949738e-07 -5.414838e-07 -8.446382e-07 1.667592e-06 -9.687031e-07 -9.588425e-07 -6.734714e-07 -1.359591e-06 3.794228e-07 8.564862e-07 -1.065122e-06 2.087732e-08 -1.024174e-06 1.022275e-07 1.133796e-06 -1.051907e-06 4.949465e-07 1.397442e-06 -1.502201e-06 -5.621557e-07 2.531948e-07 4.107846e-07 9.590351e-07 -5.898220e-07 1.292032e-07 3.788193e-07 -1.195351e-06 1.764951e-06 -7.743516e-07 -3.669465e-07 4.072017e-07 3.998271e-07 -1.274063e-06 1.251687e-06 -7.219320e-07 -5.224543e-08 5.206875e-07
<VARIANCE> 180
 5.680528e+00 1.726807e+00 2.588931e-01 2.016710e-01 1.361532e-01 7.549820e-02 5.231343e-02 7.781731e-02 5.237854e-02 5.424733e-02 2.937870e-02 2.657087e-02 2.839126e-02 3.475790e-02 2.590926e-02 3.826218e-02 2.356999e-02 1.842301e-02 1.889646e-02 1.685857e-02 1.908981e-02 1.471179e-02 1.155657e-02 1.147403e-02 1.048516e-02 1.018165e-02 1.101285e-02 9.215908e-03 8.554002e-03 7.827594e-03 8.292229e-03 6.961608e-03 7.318354e-03 6.716804e-03 5.592771e-03 5.175530e-03 5.987609e-03 5.961960e-03 4.995761e-03 3.773087e-03 3.863134e-03 3.991829e-03 3.852505e-03 3.468169e-03 3.228995e-03 3.214825e-03 3.148986e-03 2.827658e-03 3.020528e-03 3.091467e-03 2.880798e-03 2.889727e-03 2.530713e-03 2.182265e-03 2.277974e-03 2.371590e-03 2.423702e-03 2.422224e-03 2.324799e-03 2.242934e-03 4.785842e-02 2.495158e-02 1.177211e-02 7.649607e-03 6.212056e-03 5.147396e-03 4.213257e-03 3.932575e-03 4.027334e-03 3.909270e-03 3.440728e-03 3.363511e-03 3.195588e-03 3.184819e-03 3.073837e-03 3.074310e-03 2.849567e-03 2.646365e-03 2.621015e-03 2.425355e-03 2.445710e-03 2.300226e-03 2.195812e-03 2.092835e-03 1.969341e-03 1.868652e-03 1.834714e-03 1.715067e-03 1.641108e-03 1.575760e-03 1.502292e-03 1.402901e-03 1.318359e-03 1.267469e-03 1.236230e-03 1.131860e-03 1.094783e-03 1.036742e-03 9.740182e-04 9.091375e-04 8.886741e-04 8.529633e-04 8.351120e-04 7.933248e-04 7.444021e-04 7.076431e-04 6.832776e-04 6.555910e-04 6.562454e-04 6.258540e-04 6.050759e-04 5.824175e-04 5.496721e-04 5.264263e-04 5.167477e-04 5.115268e-04 5.013592e-04 4.902679e-04 4.674988e-04 4.469805e-04 4.575006e-02 2.412401e-02 2.177040e-02 1.581162e-02 1.429739e-02 1.339611e-02 1.255111e-02 1.205268e-02 1.215462e-02 1.206200e-02 1.127676e-02 1.117144e-02 1.082735e-02 1.066456e-02 1.031258e-02 1.036731e-02 9.660812e-03 9.413007e-03 9.076550e-03 8.609588e-03 8.424559e-03 8.024008e-03 7.809168e-03 7.484165e-03 7.068765e-03 6.703788e-03 6.603186e-03 6.186313e-03 5.932605e-03 5.699547e-03 5.337270e-03 5.149667e-03 4.855199e-03 4.645744e-03 4.478126e-03 4.191031e-03 4.044655e-03 3.847580e-03 3.615676e-03 3.458735e-03 3.357144e-03 3.265622e-03 3.179747e-03 2.982032e-03 2.838565e-03 2.688209e-03 2.551350e-03 2.488536e-03 2.483605e-03 2.363338e-03 2.314541e-03 2.196017e-03 2.094407e-03 2.036361e-03 1.992974e-03 1.977690e-03 1.929987e-03 1.889500e-03 1.824246e-03 1.726245e-03
<GCONST> -6.323832e+02
<STREAM> 2
<NUMMIXES> 2
<MIXTURE> 1 5.040400e-01
<MEAN> 1
 4.999635e+00
<VARIANCE> 1
 1.224851e-01
<GCONST> -2.618885e-01
<MIXTURE> 2 4.959737e-01
<MEAN> 0
<VARIANCE> 0
<GCONST> 0.000000e+00
<STREAM> 3
<NUMMIXES> 2
<MIXTURE> 1 4.841219e-01
<MEAN> 1
 -2.390729e-03
<VARIANCE> 1
 7.617412e-04
<GCONST> -5.342027e+00
<MIXTURE> 2 5.158912e-01
<MEAN> 0
<VARIANCE> 0
<GCONST> 0.000000e+00
<STREAM> 4
<NUMMIXES> 2
<MIXTURE> 1 4.834951e-01
<MEAN> 1
 -7.004006e-04
<VARIANCE> 1
 3.003357e-03
<GCONST> -3.970148e+00
<MIXTURE> 2 5.165181e-01
<MEAN> 0
<VARIANCE> 0
<GCONST> 0.000000e+00
<STREAM> 5
<MEAN> 15
 -2.523394e+00 -1.577746e+00 -1.539632e+00 -1.508271e+00 -1.535948e+00 5.666000e-04 -1.297840e-05 -7.062378e-05 -2.942976e-04 -2.408042e-04 3.915267e-05 4.800601e-05 4.100504e-05 3.810955e-05 3.823602e-05
<VARIANCE> 15
 1.157305e+01 3.485307e+00 3.081551e+00 2.925766e+00 3.020619e+00 8.890737e-01 3.763641e-01 3.598059e-01 3.508160e-01 3.489769e-01 5.235517e+00 2.744614e+00 2.863803e+00 2.809291e+00 2.758865e+00
<GCONST> 3.611764e+01
<STATE> 4
<SWEIGHTS> 5
 1.000000e+00 0.000000e+00 0.000000e+00 0.000000e+00 0.000000e+00
<STREAM> 1
<MEAN> 180
 3.388865e+00 1.475330e+00 8.392842e-02 3.805873e-01 1.128064e-01 8.648612e-02 2.047977e-02 6.028151e-02 -1.072989e-01 5.131549e-02 -6.083788e-02 4.250965e-02 -1.101533e-01 7.576114e-02 -1.110819e-01 6.770444e-02 -4.562093e-04 -3.996528e-02 1.720813e-02 2.495735e-02 -7.115268e-02 3.011183e-02 -4.913006e-03 -1.613424e-02 1.282175e-02 1.920683e-02 -4.417019e-02 5.185073e-02 -2.274281e-02 3.562287e-02 -1.980130e-02 3.956333e-02 -3.012913e-02 3.299578e-02 -2.910156e-02 2.301597e-02 -3.408834e-02 2.759727e-02 -3.440211e-02 2.665363e-02 -3.397807e-02 3.777101e-02 -3.779637e-02 3.283240e-02 -3.053193e-02 2.576038e-02 -2.853424e-02 2.685045e-02 -2.352246e-02 2.460821e-02 -2.747111e-02 2.670033e-02 -1.959702e-02 1.425507e-02 -1.487151e-02 2.365456e-02 -3.100609e-02 3.495826e-02 -3.528967e-02 2.991400e-02 -8.838545e-04 -6.366702e-04 7.396130e-05 2.093645e-04 1.430100e-05 1.057679e-04 -2.749766e-05 1.259687e-04 5.480574e-05 -9.057898e-05 2.993568e-05 7.489957e-05 -2.037802e-05 5.692697e-05 1.296564e-04 -8.491667e-06 -4.791719e-05 2.344044e-05 9.242049e-06 3.530940e-05 7.642281e-06 2.566458e-05 1.222463e-05 -6.444043e-05 -2.258551e-06 -1.585034e-05 -1.515973e-05 -6.145117e-05 6.212031e-05 -2.787708e-05 2.815869e-05 -1.167677e-05 2.023526e-05 -2.988162e-05 -2.072815e-05 -1.519423e-05 -1.894577e-05 5.632958e-07 3.232568e-05 -4.002729e-05 4.141620e-05 -2.060616e-05 1.264347e-05 9.297473e-06 -2.414094e-05 2.099174e-05 9.552664e-07 -1.023201e-05 9.334553e-06 -2.113862e-05 6.219365e-06 5.955962e-06 -2.357639e-06 2.975637e-06 -4.166190e-06 -2.261778e-06 1.018027e-05 -7.034851e-06 -3.835163e-06 7.617305e-06 -4.090658e-05 -2.878390e-05 -5.801304e-06 -1.690711e-06 -7.724505e-06 -4.494214e-06 2.134593e-06 -7.514075e-06 -2.838388e-06 1.534089e-06 1.020409e-06 -1.561082e-06 1.288537e-06 1.665652e-06 3.793911e-07 -5.823991e-06 1.816701e-06 4.238529e-06 -5.133476e-06 -1.505774e-06 2.176399e-06 2.566154e-06 3.609126e-06 1.166871e-06 -9.155349e-07 -9.928956e-07 1.489522e-06 -6.556991e-07 -1.683930e-06 -1.223384e-06 -1.575503e-06 4.908144e-07 6.043870e-07 -7.696797e-07 1.020508e-06 -7.686379e-07 2.047004e-07 1.376814e-06 -1.551973e-06 1.044527e-06 1.134255e-06 -1.821980e-06 -3.417390e-07 3.191544e-07 6.930852e-08 8.116899e-07 -3.273637e-07 2.886302e-07 1.517450e-07 -1.116793e-06 1.983196e-06 -8.730217e-07 -5.224363e-07 4.549401e-07 5.361521e-07 -1.443747e-06 1.219742e-06 -6.679177e-07 1.111430e-07 3.222900e-07
<VARIANCE> 180
 5.701291e+00 1.730819e+00 2.562505e-01 2.024483e-01 1.367514e-01 7.543402e-02 5.250956e-02 7.746499e-02 5.232760e-02 5.394056e-02 2.937480e-02 2.654277e-02 2.834440e-02 3.466320e-02 2.593501e-02 3.829906e-02 2.350776e-02 1.845657e-02 1.892916e-02 1.681988e-02 1.912744e-02 1.475280e-02 1.161088e-02 1.145985e-02 1.045428e-02 1.016470e-02 1.101036e-02 9.198870e-03 8.545540e-03 7.820710e-03 8.296844e-03 6.961518e-03 7.312473e-03 6.714263e-03 5.597176e-03 5.186862e-03 5.991348e-03 5.967670e-03 5.003381e-03 3.776548e-03 3.879627e-03 3.986279e-03 3.843318e-03 3.474119e-03 3.246836e-03 3.218112e-03 3.156482e-03 2.822023e-03 3.010009e-03 3.082021e-03 2.877294e-03 2.885799e-03 2.532053e-03 2.177880e-03 2.272116e-03 2.366658e-03 2.418993e-03 2.417563e-03 2.331729e-03 2.247607e-03 4.763651e-02 2.493384e-02 1.174608e-02 7.634421e-03 6.194818e-03 5.156464e-03 4.213055e-03 3.927932e-03 4.024371e-03 3.910434e-03 3.437662e-03 3.356417e-03 3.189719e-03 3.181623e-03 3.071115e-03 3.076171e-03 2.851055e-03 2.641554e-03 2.620966e-03 2.421785e-03 2.444947e-03 2.306342e-03 2.197627e-03 2.094246e-03 1.969778e-03 1.866760e-03 1.832022e-03 1.717537e-03 1.640492e-03 1.578010e-03 1.502173e-03 1.402533e-03 1.316021e-03 1.266665e-03 1.235871e-03 1.132133e-03 1.096473e-03 1.038333e-03 9.733774e-04 9.116384e-04 8.893490e-04 8.525574e-04 8.333320e-04 7.940275e-04 7.457746e-04 7.085960e-04 6.857550e-04 6.559358e-04 6.569430e-04 6.251518e-04 6.046553e-04 5.817709e-04 5.497614e-04 5.259792e-04 5.171988e-04 5.114922e-04 5.011845e-04 4.902203e-04 4.685064e-04 4.481701e-04 4.554798e-02 2.405684e-02 2.171414e-02 1.575816e-02 1.425877e-02 1.339104e-02 1.253374e-02 1.200231e-02 1.214921e-02 1.205138e-02 1.124687e-02 1.113443e-02 1.082689e-02 1.065192e-02 1.030884e-02 1.034372e-02 9.657144e-03 9.397602e-03 9.078569e-03 8.586119e-03 8.419961e-03 8.019586e-03 7.788185e-03 7.480122e-03 7.055571e-03 6.686333e-03 6.596571e-03 6.183970e-03 5.933016e-03 5.703126e-03 5.337182e-03 5.146368e-03 4.850569e-03 4.636355e-03 4.473737e-03 4.185030e-03 4.033672e-03 3.846529e-03 3.612111e-03 3.458803e-03 3.350247e-03 3.262332e-03 3.169947e-03 2.980602e-03 2.838932e-03 2.685175e-03 2.550615e-03 2.488917e-03 2.480386e-03 2.358615e-03 2.311970e-03 2.194948e-03 2.095646e-03 2.037172e-03 1.995070e-03 1.978935e-03 1.928140e-03 1.888334e-03 1.824599e-03 1.727794e-03
<GCONST> -6.324649e+02
<STREAM> 2
<NUMMIXES> 2
<MIXTURE> 1 5.040705e-01
<MEAN> 1
 4.998311e+00
<VARIANCE> 1
 1.226793e-01
<GCONST> -2.603047e-01
<MIXTURE> 2 4.959451e-01
<MEAN> 0
<VARIANCE> 0
<GCONST> 0.000000e+00
<STREAM> 3
<NUMMIXES> 2
<MIXTURE> 1 4.841877e-01
<MEAN> 1
 -2.374080e-03
<VARIANCE> 1
 7.621876e-04
<GCONST> -5.341441e+00
<MIXTURE> 2 5.158290e-01
<MEAN> 0
<VARIANCE> 0
<GCONST> 0.000000e+00
<STREAM> 4
<NUMMIXES> 2
<MIXTURE> 1 4.835800e-01
<MEAN> 1
 -6.928617e-04
<VARIANCE> 1
 3.011711e-03
<GCONST> -3.967370e+00
<MIXTURE> 2 5.164368e-01
<MEAN> 0
<VARIANCE> 0
<GCONST> 0.000000e+00
<STREAM> 5
<MEAN> 15
 -2.520223e+00 -1.577029e+00 -1.539069e+00 -1.509113e+00 -1.536470e+00 7.565651e-04 2.490299e-04 1.423046e-04 -8.101430e-05 -1.635559e-05 3.014571e-05 4.732028e-05 4.169875e-05 4.003047e-05 4.232089e-05
<VARIANCE> 15
 1.153152e+01 3.477831e+00 3.077850e+00 2.929346e+00 3.020880e+00 8.875068e-01 3.764196e-01 3.584351e-01 3.504470e-01 3.478434e-01 5.226795e+00 2.746393e+00 2.857216e+00 2.807121e+00 2.745697e+00
<GCONST> 3.609339e+01
<STATE> 5
<SWEIGHTS> 5
 1.000000e+00 0.000000e+00 0.000000e+00 0.000000e+00 0.000000e+00
<STREAM> 1
<MEAN> 180
 3.383473e+00 1.470757e+00 8.439030e-02 3.816646e-01 1.127015e-01 8.714426e-02 2.033656e-02 6.105081e-02 -1.071256e-01 5.081229e-02 -6.059897e-02 4.284650e-02 -1.101858e-01 7.617772e-02 -1.103485e-01 6.768363e-02 -7.469961e-04 -3.980764e-02 1.717583e-02 2.516529e-02 -7.111484e-02 3.034119e-02 -4.796859e-03 -1.641242e-02 1.280805e-02 1.909149e-02 -4.426281e-02 5.150149e-02 -2.240818e-02 3.540933e-02 -1.961455e-02 3.944871e-02 -2.998012e-02 3.280613e-02 -2.920790e-02 2.292421e-02 -3.422451e-02 2.766319e-02 -3.429781e-02 2.644098e-02 -3.374011e-02 3.764185e-02 -3.772763e-02 3.289467e-02 -3.067854e-02 2.591849e-02 -2.858279e-02 2.680756e-02 -2.345623e-02 2.449151e-02 -2.743413e-02 2.673636e-02 -1.961665e-02 1.426225e-02 -1.485578e-02 2.359134e-02 -3.092379e-02 3.492542e-02 -3.533387e-02 2.997075e-02 -1.056570e-03 -7.847244e-04 3.194589e-05 2.090612e-04 -2.030364e-05 8.335262e-05 -2.635677e-05 9.106729e-05 4.465841e-05 -8.332181e-05 3.151515e-05 6.825163e-05 -5.814354e-06 6.301638e-05 1.276379e-04 -2.802340e-05 -3.088292e-05 4.699094e-05 -1.357223e-05 2.465435e-05 1.647510e-05 3.986209e-05 2.920911e-05 -5.896934e-05 -8.701841e-06 -2.226840e-05 -1.135263e-05 -6.301097e-05 5.460550e-05 -3.684749e-05 2.071144e-05 -8.274210e-06 2.128916e-05 -3.199019e-05 -1.350398e-05 -1.859916e-05 -1.959775e-05 9.456988e-06 2.412241e-05 -3.329433e-05 4.489582e-05 -3.181669e-05 1.251225e-05 1.211244e-05 -2.560378e-05 2.506632e-05 -2.510706e-08 -8.409233e-06 8.295992e-06 -2.509574e-05 1.623443e-05 7.806157e-07 -4.289812e-06 3.598934e-06 7.766039e-08 -9.994054e-06 1.552820e-05 -9.960573e-06 -2.250115e-06 8.284074e-06 -3.700611e-05 -2.861314e-05 -6.821975e-06 -1.890146e-06 -6.510495e-06 -2.567654e-06 2.056230e-06 -8.850426e-06 -4.273602e-06 5.847772e-07 2.012327e-07 -1.736779e-06 2.106186e-06 1.316345e-06 -3.686835e-07 -3.960742e-06 2.464083e-06 4.952834e-06 -4.056183e-06 -2.263184e-06 1.584046e-06 2.305987e-06 3.235834e-06 1.218739e-06 -1.246936e-06 -1.361950e-06 6.988932e-07 -1.260176e-07 -2.028296e-06 -1.683726e-06 -1.832045e-06 6.093809e-07 6.163105e-07 -5.294157e-07 1.798036e-06 -3.677600e-07 2.192085e-07 1.362393e-06 -1.572115e-06 1.366951e-06 8.027006e-07 -1.837851e-06 -1.779643e-07 4.441623e-07 -1.831713e-07 2.816044e-07 4.707510e-08 6.406120e-07 -2.098578e-07 -9.231060e-07 2.016331e-06 -1.016708e-06 -5.627017e-07 6.694760e-07 2.900870e-07 -1.364153e-06 1.185179e-06 -5.975046e-07 2.753874e-07 3.966089e-09
<VARIANCE> 180
 5.722753e+00 1.734193e+00 2.538455e-01 2.032994e-01 1.374678e-01 7.536587e-02 5.275961e-02 7.708167e-02 5.230173e-02 5.359805e-02 2.937820e-02 2.651748e-02 2.828733e-02 3.456428e-02 2.598987e-02 3.828549e-02 2.347104e-02 1.848796e-02 1.894522e-02 1.678001e-02 1.915805e-02 1.480481e-02 1.165910e-02 1.145137e-02 1.042849e-02 1.013816e-02 1.101423e-02 9.176230e-03 8.538007e-03 7.808719e-03 8.295244e-03 6.961724e-03 7.304840e-03 6.709633e-03 5.604243e-03 5.198844e-03 5.991857e-03 5.969019e-03 5.012427e-03 3.783609e-03 3.895163e-03 3.980223e-03 3.833440e-03 3.477900e-03 3.263808e-03 3.220449e-03 3.164368e-03 2.816877e-03 2.999871e-03 3.075558e-03 2.876420e-03 2.882453e-03 2.534671e-03 2.174470e-03 2.266965e-03 2.363263e-03 2.413566e-03 2.411027e-03 2.337548e-03 2.250936e-03 4.745183e-02 2.492845e-02 1.173569e-02 7.626445e-03 6.181522e-03 5.166746e-03 4.216185e-03 3.926289e-03 4.022808e-03 3.911234e-03 3.436844e-03 3.350521e-03 3.188123e-03 3.179010e-03 3.069746e-03 3.079636e-03 2.854074e-03 2.639680e-03 2.621578e-03 2.417869e-03 2.444922e-03 2.312805e-03 2.199457e-03 2.096947e-03 1.971653e-03 1.863753e-03 1.829875e-03 1.721469e-03 1.640539e-03 1.579895e-03 1.501930e-03 1.402588e-03 1.314413e-03 1.266233e-03 1.234500e-03 1.132558e-03 1.098651e-03 1.039763e-03 9.731323e-04 9.144296e-04 8.898589e-04 8.515652e-04 8.316551e-04 7.943878e-04 7.473768e-04 7.096988e-04 6.880710e-04 6.562679e-04 6.573024e-04 6.247067e-04 6.046130e-04 5.812411e-04 5.500969e-04 5.253729e-04 5.175740e-04 5.115691e-04 5.009032e-04 4.901171e-04 4.695060e-04 4.492424e-04 4.539691e-02 2.401754e-02 2.167961e-02 1.571515e-02 1.422454e-02 1.338541e-02 1.252049e-02 1.195557e-02 1.215039e-02 1.204109e-02 1.122959e-02 1.109613e-02 1.083329e-02 1.064608e-02 1.031115e-02 1.032087e-02 9.653401e-03 9.386008e-03 9.085114e-03 8.567755e-03 8.422418e-03 8.020667e-03 7.766977e-03 7.478250e-03 7.043796e-03 6.669025e-03 6.590271e-03 6.187739e-03 5.939218e-03 5.706931e-03 5.339632e-03 5.142422e-03 4.846123e-03 4.627971e-03 4.469915e-03 4.180970e-03 4.023486e-03 3.847583e-03 3.609588e-03 3.458636e-03 3.341340e-03 3.257177e-03 3.158191e-03 2.978722e-03 2.839593e-03 2.681304e-03 2.549249e-03 2.489373e-03 2.476383e-03 2.355241e-03 2.310346e-03 2.194521e-03 2.097000e-03 2.036674e-03 1.996093e-03 1.979902e-03 1.926207e-03 1.887170e-03 1.824693e-03 1.728886e-03
<GCONST> -6.325181e+02
<STREAM> 2
<NUMMIXES> 2
<MIXTURE> 1 5.035968e-01
<MEAN> 1
 4.997291e+00
<VARIANCE> 1
 1.227402e-01
<GCONST> -2.598085e-01
<MIXTURE> 2 4.964164e-01
<MEAN> 0
<VARIANCE> 0
<GCONST> 0.000000e+00
<STREAM> 3
<NUMMIXES> 2
<MIXTURE> 1 4.837579e-01
<MEAN> 1
 -2.355950e-03
<VARIANCE> 1
 7.623652e-04
<GCONST> -5.341208e+00
<MIXTURE> 2 5.162545e-01
<MEAN> 0
<VARIANCE> 0
<GCONST> 0.000000e+00
<STREAM> 4
<NUMMIXES> 2
<MIXTURE> 1 4.831747e-01
<MEAN> 1
 -6.815310e-04
<VARIANCE> 1
 3.020709e-03
<GCONST> -3.964387e+00
<MIXTURE> 2 5.168379e-01
<MEAN> 0
<VARIANCE> 0
<GCONST> 0.000000e+00
<STREAM> 5
<MEAN> 15
 -2.515889e+00 -1.574759e+00 -1.537279e+00 -1.508620e+00 -1.535578e+00 9.234424e-04 5.080831e-04 3.576575e-04 1.458964e-04 2.237716e-04 2.052533e-05 4.227860e-05 3.742840e-05 3.824195e-05 4.056299e-05
<VARIANCE> 15
 1.150105e+01 3.470352e+00 3.074797e+00 2.933245e+00 3.020693e+00 8.853129e-01 3.759864e-01 3.568242e-01 3.498903e-01 3.463312e-01 5.213547e+00 2.744195e+00 2.849933e+00 2.803935e+00 2.730409e+00
<GCONST> 3.606218e+01
<STATE> 6
<SWEIGHTS> 5
 1.000000e+00 0.000000e+00 0.000000e+00 0.000000e+00 0.000000e+00
<STREAM> 1
<MEAN> 180
 3.377080e+00 1.465314e+00 8.457044e-02 3.827970e-01 1.124896e-01 8.769663e-02 2.012645e-02 6.166306e-02 -1.069271e-01 5.034797e-02 -6.038569e-02 4.316415e-02 -1.100745e-01 7.659914e-02 -1.096467e-01 6.761914e-02 -8.925830e-04 -3.951767e-02 1.706152e-02 2.531042e-02 -7.103887e-02 3.064034e-02 -4.608073e-03 -1.667156e-02 1.274152e-02 1.893179e-02 -4.435870e-02 5.114646e-02 -2.209212e-02 3.513641e-02 -1.946309e-02 3.935912e-02 -2.984999e-02 3.261534e-02 -2.926620e-02 2.281751e-02 -3.436983e-02 2.778252e-02 -3.422906e-02 2.626614e-02 -3.349793e-02 3.744798e-02 -3.765391e-02 3.297876e-02 -3.084104e-02 2.609207e-02 -2.862607e-02 2.677214e-02 -2.340862e-02 2.436736e-02 -2.734296e-02 2.673809e-02 -1.964430e-02 1.426567e-02 -1.480898e-02 2.348512e-02 -3.081962e-02 3.487957e-02 -3.535952e-02 3.001957e-02 -1.231367e-03 -9.340369e-04 -1.271294e-05 2.061908e-04 -4.343072e-05 7.254179e-05 -2.480669e-05 4.954060e-05 2.799711e-05 -8.204621e-05 2.651797e-05 5.846299e-05 1.108058e-05 6.634875e-05 1.239750e-04 -3.884238e-05 -1.018599e-05 7.463601e-05 -2.983329e-05 1.079454e-05 2.324244e-05 5.161026e-05 4.272150e-05 -5.297187e-05 -1.653846e-05 -3.099124e-05 -1.272833e-05 -6.261550e-05 4.691898e-05 -4.638797e-05 1.177439e-05 -4.231581e-06 2.190139e-05 -3.278782e-05 -2.697169e-06 -2.007558e-05 -1.934873e-05 1.723501e-05 1.637005e-05 -2.519084e-05 4.653595e-05 -4.182559e-05 1.280300e-05 1.466047e-05 -2.757745e-05 2.579038e-05 1.288963e-06 -4.792164e-06 5.130259e-06 -2.759567e-05 2.615485e-05 -5.783290e-06 -5.778802e-06 5.664674e-06 2.303665e-06 -1.672209e-05 2.052216e-05 -1.255310e-05 2.330323e-07 7.078027e-06 -3.273247e-05 -2.693579e-05 -6.814171e-06 -2.500692e-06 -4.229005e-06 -5.529552e-07 2.613064e-06 -8.910801e-06 -5.653940e-06 -8.054079e-07 -1.545302e-06 -2.210568e-06 2.230051e-06 8.435512e-07 -3.621475e-07 -1.668053e-06 3.000257e-06 5.007146e-06 -2.681141e-06 -2.700299e-06 1.074833e-06 2.002985e-06 2.128396e-06 1.179419e-06 -1.425432e-06 -1.739582e-06 -2.679312e-07 7.898939e-07 -1.797019e-06 -1.497663e-06 -2.083898e-06 1.625043e-07 9.096905e-07 -2.506103e-09 1.969603e-06 -1.519072e-07 3.516607e-07 9.369391e-07 -1.411519e-06 1.414111e-06 2.396617e-07 -1.366530e-06 2.982690e-08 5.449588e-07 -1.853503e-07 -4.765471e-07 5.015852e-08 1.276239e-06 -2.343998e-07 -1.030999e-06 1.875613e-06 -9.563364e-07 -6.832378e-07 1.003828e-06 -8.387958e-08 -1.071848e-06 1.011140e-06 -5.155649e-07 5.004701e-07 -4.966663e-07
<VARIANCE> 180
 5.744661e+00 1.736913e+00 2.517768e-01 2.041711e-01 1.382833e-01 7.528453e-02 5.305227e-02 7.664648e-02 5.230811e-02 5.324185e-02 2.938353e-02 2.650131e-02 2.822604e-02 3.445508e-02 2.606549e-02 3.822209e-02 2.345311e-02 1.851766e-02 1.894347e-02 1.674074e-02 1.918486e-02 1.486259e-02 1.169856e-02 1.145041e-02 1.040781e-02 1.010332e-02 1.102294e-02 9.151239e-03 8.531613e-03 7.793005e-03 8.288025e-03 6.959693e-03 7.294944e-03 6.702118e-03 5.612939e-03 5.210313e-03 5.989380e-03 5.965481e-03 5.022419e-03 3.793536e-03 3.908867e-03 3.974402e-03 3.823235e-03 3.479312e-03 3.278014e-03 3.221599e-03 3.171627e-03 2.813075e-03 2.989983e-03 3.072011e-03 2.877830e-03 2.879702e-03 2.538530e-03 2.172202e-03 2.262784e-03 2.361601e-03 2.407860e-03 2.403360e-03 2.341512e-03 2.252089e-03 4.731690e-02 2.493311e-02 1.174280e-02 7.624428e-03 6.172578e-03 5.176965e-03 4.222015e-03 3.926885e-03 4.022589e-03 3.911547e-03 3.438554e-03 3.346939e-03 3.190816e-03 3.176567e-03 3.069714e-03 3.083696e-03 2.858494e-03 2.641123e-03 2.622256e-03 2.414244e-03 2.446221e-03 2.318692e-03 2.201427e-03 2.101482e-03 1.975208e-03 1.860349e-03 1.828430e-03 1.726902e-03 1.641246e-03 1.581256e-03 1.502157e-03 1.402923e-03 1.313614e-03 1.266369e-03 1.231898e-03 1.133273e-03 1.101031e-03 1.040752e-03 9.733762e-04 9.170084e-04 8.900925e-04 8.497877e-04 8.299139e-04 7.944279e-04 7.488608e-04 7.109467e-04 6.898600e-04 6.566758e-04 6.572501e-04 6.247725e-04 6.050012e-04 5.810173e-04 5.507897e-04 5.247729e-04 5.178386e-04 5.118331e-04 5.005718e-04 4.899717e-04 4.703314e-04 4.500333e-04 4.530172e-02 2.400467e-02 2.167229e-02 1.568206e-02 1.419633e-02 1.337434e-02 1.251047e-02 1.191094e-02 1.215359e-02 1.202997e-02 1.122542e-02 1.105841e-02 1.084408e-02 1.064690e-02 1.031837e-02 1.029703e-02 9.649980e-03 9.379573e-03 9.095215e-03 8.555770e-03 8.432638e-03 8.026447e-03 7.747429e-03 7.480132e-03 7.034810e-03 6.652824e-03 6.584062e-03 6.196219e-03 5.949210e-03 5.710644e-03 5.344977e-03 5.138526e-03 4.841650e-03 4.621187e-03 4.465262e-03 4.179350e-03 4.014563e-03 3.851249e-03 3.608386e-03 3.457836e-03 3.331167e-03 3.249840e-03 3.144773e-03 2.976532e-03 2.839520e-03 2.676559e-03 2.546791e-03 2.489650e-03 2.471459e-03 2.353645e-03 2.309771e-03 2.195038e-03 2.098552e-03 2.035269e-03 1.995954e-03 1.980465e-03 1.924427e-03 1.885891e-03 1.824400e-03 1.729184e-03
<GCONST> -6.325471e+02
<STREAM> 2
<NUMMIXES> 2
<MIXTURE> 1 5.026140e-01
<MEAN> 1
 4.996580e+00
<VARIANCE> 1
 1.226485e-01
<GCONST> -2.605555e-01
<MIXTURE> 2 4.974121e-01
<MEAN> 0
<VARIANCE> 0
<GCONST> 0.000000e+00
<STREAM> 3
<NUMMIXES> 2
<MIXTURE> 1 4.828297e-01
<MEAN> 1
 -2.336608e-03
<VARIANCE> 1
 7.621854e-04
<GCONST> -5.341444e+00
<MIXTURE> 2 5.171958e-01
<MEAN> 0
<VARIANCE> 0
<GCONST> 0.000000e+00
<STREAM> 4
<NUMMIXES> 2
<MIXTURE> 1 4.822750e-01
<MEAN> 1
 -6.675482e-04
<VARIANCE> 1
 3.030489e-03
<GCONST> -3.961154e+00
<MIXTURE> 2 5.177506e-01
<MEAN> 0
<VARIANCE> 0
<GCONST> 0.000000e+00
<STREAM> 5
<MEAN> 15
 -2.510329e+00 -1.570935e+00 -1.534242e+00 -1.506702e+00 -1.533205e+00 1.059222e-03 7.357598e-04 5.485620e-04 3.585258e-04 4.476328e-04 1.256841e-05 3.236212e-05 2.946510e-05 3.267080e-05 3.278509e-05
<VARIANCE> 15
 1.148125e+01 3.462817e+00 3.072536e+00 2.937154e+00 3.019961e+00 8.825244e-01 3.750118e-01 3.550378e-01 3.491315e-01 3.444937e-01 5.195395e+00 2.737506e+00 2.841993e+00 2.799462e+00 2.713298e+00
<GCONST> 3.602378e+01
<TRANSP> 7
 0.000000e+00 1.000000e+00 0.000000e+00 0.000000e+00 0.000000e+00 0.000000e+00 0.000000e+00
 0.000000e+00 8.238265e-01 1.761736e-01 0.000000e+00 0.000000e+00 0.000000e+00 0.000000e+00
 0.000000e+00 0.000000e+00 8.238255e-01 1.761745e-01 0.000000e+00 0.000000e+00 0.000000e+00
 0.000000e+00 0.000000e+00 0.000000e+00 8.238256e-01 1.761745e-01 0.000000e+00 0.000000e+00
 0.000000e+00 0.000000e+00 0.000000e+00 0.000000e+00 8.238285e-01 1.761715e-01 0.000000e+00
 0.000000e+00 0.000000e+00 0.000000e+00 0.000000e+00 0.000000e+00 8.238257e-01 1.761742e-01
 0.000000e+00 0.000000e+00 0.000000e+00 0.000000e+00 0.000000e+00 0.000000e+00 0.000000e+00
<ENDHMM>
~h "E"
<BEGINHMM>
<NUMSTATES> 7
<STATE> 2
<SWEIGHTS> 5
 1.000000e+00 0.000000e+00 0.000000e+00 0.000000e+00 0.000000e+00
<STREAM> 1
<MEAN> 180
 3.065078e+00 1.231536e+00 -2.606183e-03 3.539186e-01 9.371631e-02 6.402815e-02 8.417653e-03 2.580852e-02 -6.783541e-02 7.322046e-02 -5.887803e-02 4.863159e-02 -1.061053e-01 7.471304e-02 -1.095858e-01 5.418850e-02 1.096386e-03 -3.481049e-02 7.621332e-03 2.580143e-02 -5.687757e-02 2.332471e-02 -8.736278e-03 -6.056167e-03 8.240245e-03 1.095564e-02 -3.122855e-02 5.156039e-02 -2.673780e-02 4.028916e-02 -2.674895e-02 3.845831e-02 -2.598504e-02 3.077216e-02 -3.253963e-02 2.466728e-02 -3.257072e-02 2.457260e-02 -3.121171e-02 2.433218e-02 -3.092780e-02 3.704904e-02 -4.108575e-02 3.662656e-02 -3.078827e-02 2.397785e-02 -2.595990e-02 2.426231e-02 -2.122238e-02 2.256854e-02 -2.356843e-02 2.193494e-02 -1.777274e-02 1.631764e-02 -1.728046e-02 2.293672e-02 -2.760546e-02 3.019172e-02 -2.997939e-02 2.489085e-02 2.211345e-03 6.228858e-04 -1.689180e-04 1.230708e-04 -2.659544e-04 5.912752e-05 1.211930e-04 -6.120230e-06 3.370917e-05 1.228702e-04 -6.346703e-05 1.359250e-04 -2.381768e-05 6.969370e-05 -1.214987e-04 -1.771968e-05 1.261679e-04 -4.169798e-06 1.051769e-05 1.503577e-05 -3.564705e-05 4.874028e-05 -1.014668e-05 6.328853e-06 -1.905571e-06 -6.182756e-05 -4.459652e-05 -2.350558e-06 -2.607845e-05 -3.831671e-05 1.112104e-05 9.735188e-07 -8.697873e-06 5.279660e-05 -6.186756e-06 2.994233e-05 -4.465473e-05 1.685113e-05 3.621048e-05 -2.906306e-05 1.536132e-05 -2.242980e-05 -1.316892e-05 2.574033e-05 -1.924044e-05 -1.153257e-05 2.391231e-05 1.891717e-05 -5.095084e-05 3.851020e-05 -2.079144e-05 7.455104e-06 -7.636095e-06 8.539420e-06 -5.296941e-06 1.384984e-05 -1.382314e-05 1.343240e-05 -2.145601e-05 3.107080e-05 -2.453561e-05 -7.425746e-06 -2.752988e-06 1.190032e-05 5.030094e-06 -6.089222e-06 5.096693e-06 5.620068e-06 -3.896079e-07 2.670766e-06 2.960719e-06 1.091098e-07 2.756143e-06 -1.549545e-06 -1.186248e-05 -4.901711e-06 -2.194432e-06 -6.761084e-06 3.978195e-06 2.807332e-06 3.865509e-06 2.924715e-06 1.568918e-06 7.274185e-07 -1.705141e-06 -2.089446e-06 -6.388945e-08 -3.523130e-06 8.649413e-07 2.506891e-06 8.926778e-07 -7.893613e-07 -1.319233e-06 1.467370e-06 1.048339e-06 -7.530575e-07 3.808902e-06 -2.324828e-07 -2.112613e-06 -2.827542e-06 2.526597e-06 3.107253e-06 -2.451143e-06 -1.700878e-06 2.075698e-06 7.825533e-07 3.103202e-08 -1.095805e-06 -1.147647e-06 2.090676e-06 -2.071725e-06 1.162589e-06 1.091373e-06 -3.561007e-06 2.647755e-06 -6.026053e-07 -1.004433e-06 1.984660e-06 -1.692654e-06 2.424704e-07
<VARIANCE> 180
 5.989839e+00 1.626696e+00 2.415507e-01 1.942333e-01 1.173078e-01 6.281503e-02 4.848458e-02 6.177451e-02 5.007133e-02 4.698843e-02 3.080866e-02 2.410322e-02 3.008149e-02 3.399875e-02 2.772557e-02 3.009616e-02 2.133935e-02 1.773308e-02 1.552541e-02 1.486854e-02 1.723670e-02 1.443961e-02 1.124583e-02 1.059596e-02 9.828246e-03 9.035137e-03 9.414448e-03 8.609701e-03 8.241333e-03 7.319468e-03 7.422059e-03 7.001684e-03 7.136489e-03 6.629867e-03 5.562516e-03 5.164755e-03 5.541612e-03 5.229549e-03 4.713150e-03 3.767423e-03 3.758698e-03 3.885106e-03 3.689452e-03 3.318949e-03 3.047774e-03 2.947877e-03 2.842785e-03 2.650070e-03 2.706086e-03 2.751509e-03 2.556819e-03 2.505214e-03 2.259218e-03 1.968239e-03 2.071938e-03 2.168539e-03 2.175080e-03 2.201610e-03 2.111615e-03 1.941512e-03 5.249741e-02 2.649165e-02 1.287709e-02 7.967336e-03 6.346600e-03 5.262234e-03 4.416669e-03 4.161005e-03 4.214684e-03 4.050963e-03 3.646870e-03 3.494357e-03 3.348534e-03 3.363082e-03 3.327769e-03 3.243719e-03 3.049230e-03 2.790829e-03 2.704678e-03 2.571761e-03 2.520706e-03 2.457413e-03 2.328970e-03 2.190959e-03 2.039342e-03 1.962087e-03 1.883235e-03 1.794578e-03 1.718571e-03 1.617025e-03 1.597303e-03 1.459825e-03 1.396254e-03 1.312781e-03 1.242904e-03 1.188276e-03 1.130114e-03 1.063827e-03 1.013938e-03 9.516506e-04 9.102480e-04 8.770807e-04 8.486871e-04 8.047031e-04 7.678594e-04 7.300152e-04 6.921772e-04 6.755702e-04 6.557176e-04 6.372972e-04 6.146300e-04 5.868983e-04 5.637309e-04 5.338389e-04 5.191696e-04 5.181496e-04 5.104470e-04 4.980586e-04 4.812801e-04 4.532739e-04 4.918387e-02 2.581371e-02 2.420213e-02 1.661480e-02 1.460328e-02 1.377607e-02 1.297550e-02 1.223424e-02 1.262863e-02 1.230628e-02 1.174332e-02 1.170098e-02 1.140933e-02 1.152812e-02 1.122655e-02 1.080252e-02 1.017941e-02 9.701546e-03 9.342473e-03 9.064008e-03 8.748693e-03 8.482743e-03 8.095615e-03 7.735352e-03 7.265241e-03 7.042299e-03 6.694309e-03 6.410360e-03 6.166443e-03 5.839679e-03 5.759782e-03 5.317314e-03 5.052647e-03 4.790110e-03 4.564537e-03 4.332604e-03 4.110097e-03 3.983193e-03 3.729508e-03 3.488338e-03 3.403055e-03 3.302241e-03 3.203586e-03 3.048447e-03 2.909642e-03 2.739783e-03 2.619825e-03 2.535069e-03 2.470227e-03 2.424612e-03 2.319920e-03 2.225637e-03 2.126322e-03 2.037191e-03 1.985439e-03 2.016164e-03 1.990353e-03 1.935045e-03 1.864349e-03 1.765134e-03
<GCONST> -6.327474e+02
<STREAM> 2
<NUMMIXES> 2
<MIXTURE> 1 4.098808e-01
<MEAN> 1
 5.034135e+00
<VARIANCE> 1
 1.274847e-01
<GCONST> -2.218821e-01
<MIXTURE> 2 5.901184e-01
<MEAN> 0
<VARIANCE> 0
<GCONST> 0.000000e+00
<STREAM> 3
<NUMMIXES> 2
<MIXTURE> 1 3.885617e-01
<MEAN> 1
 -2.809628e-03
<VARIANCE> 1
 9.914287e-04
<GCONST> -5.078486e+00
<MIXTURE> 2 6.114377e-01
<MEAN> 0
<VARIANCE> 0
<GCONST> 0.000000e+00
<STREAM> 4
<NUMMIXES> 2
<MIXTURE> 1 3.880824e-01
<MEAN> 1
 -3.527388e-04
<VARIANCE> 1
 3.657983e-03
<GCONST> -3.772966e+00
<MIXTURE> 2 6.119171e-01
<MEAN> 0
<VARIANCE> 0
<GCONST> 0.000000e+00
<STREAM> 5
<MEAN> 15
 -1.997694e+00 -1.237697e+00 -1.228257e+00 -1.228923e+00 -1.238949e+00 -1.347690e-03 -1.078806e-03 -6.852592e-04 -7.071339e-04 -6.716111e-04 -3.832722e-06 1.905477e-05 1.190953e-05 2.100286e-05 1.717544e-05
<VARIANCE> 15
 1.003318e+01 3.004066e+00 2.765636e+00 2.767287e+00 2.791379e+00 7.830093e-01 3.287633e-01 3.144609e-01 3.214042e-01 3.147331e-01 4.605268e+00 2.421478e+00 2.476258e+00 2.559823e+00 2.443725e+00
<GCONST> 3.438247e+01
<STATE> 3
<SWEIGHTS> 5
 1.000000e+00 0.000000e+00 0.000000e+00 0.000000e+00 0.000000e+00
<STREAM> 1
<MEAN> 180
 3.075940e+00 1.234750e+00 -3.877722e-03 3.544571e-01 9.223454e-02 6.416292e-02 9.185305e-03 2.564869e-02 -6.732876e-02 7.412125e-02 -5.921324e-02 4.928096e-02 -1.062963e-01 7.513138e-02 -1.103755e-01 5.385809e-02 1.818642e-03 -3.491533e-02 7.655211e-03 2.582215e-02 -5.694558e-02 2.364277e-02 -8.757116e-03 -5.882225e-03 8.170042e-03 1.057523e-02 -3.134578e-02 5.151875e-02 -2.695507e-02 4.016127e-02 -2.671842e-02 3.842368e-02 -2.609480e-02 3.104657e-02 -3.254276e-02 2.484241e-02 -3.269348e-02 2.459177e-02 -3.103467e-02 2.412762e-02 -3.080143e-02 3.701639e-02 -4.120369e-02 3.671829e-02 -3.084909e-02 2.392504e-02 -2.582625e-02 2.434492e-02 -2.151122e-02 2.281135e-02 -2.374511e-02 2.201035e-02 -1.777202e-02 1.629756e-02 -1.726781e-02 2.297293e-02 -2.765096e-02 3.026448e-02 -3.011893e-02 2.508857e-02 2.081627e-03 5.912562e-04 -1.392801e-04 2.234334e-04 -2.239808e-04 2.632627e-05 1.288050e-04 1.606826e-05 2.627045e-05 1.154195e-04 -6.911864e-05 1.225397e-04 -7.434911e-06 7.204928e-05 -1.636010e-04 -3.867026e-05 1.144224e-04 -3.407942e-05 2.274245e-05 1.867204e-05 -2.677567e-05 5.751838e-05 -5.405269e-06 1.298571e-05 -7.993167e-07 -6.693706e-05 -3.389932e-05 -1.728447e-05 -2.566918e-05 -1.961709e-05 1.549023e-05 -2.075234e-06 -2.313754e-05 4.808058e-05 -7.115596e-07 2.794044e-05 -2.024208e-05 1.524382e-05 2.272180e-05 -3.371937e-05 2.155464e-05 -8.087272e-06 -1.870915e-05 1.315463e-05 -7.364946e-06 -6.443887e-06 1.946346e-05 1.597223e-05 -5.059726e-05 4.288866e-05 -3.332500e-05 1.554816e-05 2.854877e-06 -1.187365e-05 3.999020e-06 1.295782e-05 -1.648848e-05 1.894008e-05 -2.452728e-05 2.960730e-05 -1.962924e-05 -4.388027e-06 3.566404e-06 1.602411e-05 7.213887e-06 -5.004233e-06 2.337092e-07 1.437714e-06 -2.098921e-06 -1.232700e-06 -2.945137e-06 -2.637005e-06 3.414674e-06 -9.632722e-07 -8.632229e-06 -3.447859e-06 -2.829179e-06 -5.472269e-06 2.461685e-06 9.750654e-07 7.650513e-07 7.035039e-07 1.447271e-06 1.287069e-06 3.415427e-07 -5.923733e-07 2.549589e-06 -3.103247e-06 -3.488796e-07 3.751287e-06 1.293481e-06 6.102887e-08 -2.787995e-06 -9.742947e-07 9.159490e-07 -5.028921e-07 4.414968e-06 -3.811108e-07 -2.453655e-06 -4.528320e-07 8.407765e-07 2.705835e-06 -7.740519e-07 -2.298425e-06 2.246332e-06 6.673552e-07 -9.989770e-07 -1.672351e-07 1.798515e-07 6.777452e-07 -2.296745e-06 1.492647e-06 2.001709e-06 -3.695385e-06 1.501203e-06 -1.167608e-07 -4.529979e-07 9.298806e-07 -4.362965e-07 -4.014840e-07
<VARIANCE> 180
 6.004446e+00 1.628182e+00 2.426747e-01 1.936831e-01 1.167831e-01 6.249756e-02 4.841093e-02 6.183115e-02 5.013265e-02 4.718753e-02 3.080950e-02 2.405607e-02 3.010674e-02 3.396826e-02 2.792131e-02 2.996572e-02 2.147204e-02 1.775483e-02 1.551023e-02 1.494544e-02 1.717373e-02 1.443521e-02 1.123648e-02 1.059947e-02 9.831816e-03 9.025161e-03 9.423001e-03 8.616939e-03 8.223874e-03 7.299511e-03 7.396867e-03 6.997826e-03 7.150830e-03 6.599343e-03 5.559597e-03 5.168247e-03 5.510771e-03 5.224530e-03 4.707451e-03 3.746846e-03 3.765969e-03 3.884668e-03 3.679711e-03 3.329470e-03 3.051976e-03 2.959109e-03 2.835056e-03 2.648239e-03 2.707617e-03 2.745126e-03 2.562160e-03 2.506245e-03 2.257961e-03 1.967486e-03 2.058754e-03 2.152020e-03 2.165808e-03 2.196889e-03 2.102857e-03 1.936755e-03 5.278188e-02 2.651206e-02 1.295138e-02 7.990671e-03 6.377138e-03 5.261457e-03 4.413534e-03 4.155573e-03 4.211694e-03 4.062024e-03 3.645616e-03 3.495519e-03 3.357186e-03 3.361251e-03 3.327196e-03 3.245861e-03 3.053659e-03 2.798829e-03 2.712428e-03 2.577502e-03 2.534363e-03 2.462136e-03 2.323573e-03 2.189580e-03 2.043094e-03 1.964039e-03 1.883660e-03 1.797255e-03 1.714076e-03 1.616263e-03 1.588594e-03 1.461177e-03 1.397146e-03 1.310438e-03 1.241230e-03 1.185989e-03 1.131978e-03 1.062656e-03 1.011471e-03 9.471824e-04 9.103309e-04 8.753856e-04 8.492088e-04 8.034180e-04 7.670762e-04 7.313564e-04 6.915435e-04 6.753666e-04 6.565701e-04 6.366883e-04 6.148732e-04 5.862430e-04 5.642884e-04 5.349084e-04 5.179998e-04 5.197194e-04 5.086455e-04 4.984103e-04 4.815418e-04 4.523315e-04 4.960119e-02 2.585447e-02 2.425746e-02 1.666923e-02 1.469269e-02 1.379490e-02 1.301781e-02 1.226429e-02 1.266546e-02 1.234691e-02 1.177302e-02 1.175167e-02 1.144112e-02 1.155986e-02 1.127120e-02 1.083860e-02 1.022813e-02 9.747734e-03 9.379878e-03 9.101222e-03 8.806223e-03 8.530615e-03 8.126453e-03 7.741210e-03 7.280873e-03 7.057873e-03 6.714286e-03 6.429872e-03 6.176719e-03 5.858089e-03 5.736448e-03 5.335034e-03 5.070958e-03 4.802116e-03 4.563230e-03 4.347119e-03 4.121229e-03 3.991348e-03 3.726683e-03 3.486624e-03 3.408396e-03 3.304564e-03 3.208087e-03 3.048883e-03 2.911553e-03 2.750331e-03 2.622539e-03 2.541094e-03 2.475207e-03 2.434767e-03 2.321620e-03 2.226738e-03 2.132152e-03 2.041048e-03 1.986115e-03 2.025150e-03 1.989150e-03 1.938749e-03 1.869173e-03 1.768254e-03
<GCONST> -6.326176e+02
<STREAM> 2
<NUMMIXES> 2
<MIXTURE> 1 4.106085e-01
<MEAN> 1
 5.037385e+00
<VARIANCE> 1
 1.269679e-01
<GCONST> -2.259438e-01
<MIXTURE> 2 5.893915e-01
<MEAN> 0
<VARIANCE> 0
<GCONST> 0.000000e+00
<STREAM> 3
<NUMMIXES> 2
<MIXTURE> 1 3.891520e-01
<MEAN> 1
 -2.763013e-03
<VARIANCE> 1
 9.935944e-04
<GCONST> -5.076304e+00
<MIXTURE> 2 6.108471e-01
<MEAN> 0
<VARIANCE> 0
<GCONST> 0.000000e+00
<STREAM> 4
<NUMMIXES> 2
<MIXTURE> 1 3.886611e-01
<MEAN> 1
 -3.569517e-04
<VARIANCE> 1
 3.678460e-03
<GCONST> -3.767384e+00
<MIXTURE> 2 6.113379e-01
<MEAN> 0
<VARIANCE> 0
<GCONST> 0.000000e+00
<STREAM> 5
<MEAN> 15
 -2.002879e+00 -1.241874e+00 -1.230694e+00 -1.231255e+00 -1.241312e+00 -1.420477e-03 -1.019315e-03 -6.831905e-04 -6.543489e-04 -6.524174e-04 -8.911714e-06 1.088131e-05 -3.522915e-06 7.534656e-06 1.848887e-06
<VARIANCE> 15
 1.005205e+01 3.019397e+00 2.768156e+00 2.769879e+00 2.795259e+00 7.893084e-01 3.318278e-01 3.155839e-01 3.228839e-01 3.154948e-01 4.643182e+00 2.434614e+00 2.492661e+00 2.582113e+00 2.455416e+00
<GCONST> 3.445420e+01
<STATE> 4
<SWEIGHTS> 5
 1.000000e+00 0.000000e+00 0.000000e+00 0.000000e+00 0.000000e+00
<STREAM> 1
<MEAN> 180
 3.086248e+00 1.237831e+00 -4.695680e-03 3.557214e-01 9.101143e-02 6.410314e-02 9.927751e-03 2.560383e-02 -6.691942e-02 7.487740e-02 -5.960830e-02 4.985774e-02 -1.063829e-01 7.567576e-02 -1.112386e-01 5.343864e-02 2.482013e-03 -3.515803e-02 7.731728e-03 2.581820e-02 -5.705664e-02 2.398460e-02 -8.768881e-03 -5.702070e-03 8.150366e-03 1.021365e-02 -3.139591e-02 5.141977e-02 -2.717374e-02 4.009298e-02 -2.670139e-02 3.843297e-02 -2.630102e-02 3.124010e-02 -3.251197e-02 2.502008e-02 -3.268357e-02 2.460148e-02 -3.093311e-02 2.395612e-02 -3.068298e-02 3.703815e-02 -4.130872e-02 3.672485e-02 -3.085102e-02 2.390946e-02 -2.574446e-02 2.442365e-02 -2.175421e-02 2.303824e-02 -2.398482e-02 2.213274e-02 -1.771185e-02 1.617654e-02 -1.722366e-02 2.301411e-02 -2.770851e-02 3.035082e-02 -3.025285e-02 2.526788e-02 1.992266e-03 5.725129e-04 -7.799934e-05 3.246482e-04 -1.829271e-04 -2.179109e-06 1.152511e-04 1.842959e-05 6.211456e-06 9.002480e-05 -9.155861e-05 1.094837e-04 1.321145e-05 8.102475e-05 -1.817935e-04 -5.158062e-05 1.006168e-04 -5.581476e-05 3.126837e-05 1.467652e-05 -3.777608e-05 5.758899e-05 6.738729e-07 1.473311e-05 7.625934e-06 -6.264066e-05 -1.726873e-05 -2.718154e-05 -2.709165e-05 -6.826706e-06 1.537103e-05 9.130928e-06 -3.982066e-05 3.168387e-05 3.520112e-06 2.796342e-05 2.364058e-06 1.218007e-05 1.054021e-05 -2.689803e-05 1.793607e-05 3.808088e-06 -1.568272e-05 -2.404163e-06 3.815289e-06 -2.061169e-06 1.022702e-05 1.742199e-05 -4.300792e-05 4.005401e-05 -4.369381e-05 2.316305e-05 1.288467e-05 -2.848488e-05 8.809269e-06 1.380405e-05 -1.844885e-05 2.114817e-05 -2.337119e-05 2.552356e-05 -1.403045e-05 -4.341167e-06 6.924646e-06 1.399517e-05 6.295974e-06 -4.128096e-06 -3.872272e-06 -2.702655e-06 -3.504573e-06 -3.435403e-06 -5.592045e-06 -2.866283e-06 3.673623e-06 2.467785e-07 -3.907531e-06 -2.025247e-06 -2.876240e-06 -3.733485e-06 1.256111e-06 -9.119969e-07 -2.597341e-06 -5.091317e-07 1.837397e-06 7.344712e-07 1.922689e-06 1.070937e-06 3.608624e-06 -1.794432e-06 -6.613794e-07 2.516765e-06 2.072742e-07 2.480893e-06 -3.030161e-06 -3.150493e-06 5.811121e-07 -2.098377e-08 3.890405e-06 -8.410370e-07 -2.003334e-06 1.457923e-06 -9.304270e-07 2.370689e-06 7.682328e-07 -2.751164e-06 1.882897e-06 5.089035e-07 -1.596766e-06 5.115580e-07 1.269250e-06 -4.335265e-07 -1.754554e-06 1.218254e-06 1.745261e-06 -2.814408e-06 8.407312e-07 5.941675e-08 -4.103555e-07 4.787055e-07 2.043590e-07 -7.906885e-07
<VARIANCE> 180
 6.018989e+00 1.629393e+00 2.438258e-01 1.932806e-01 1.164028e-01 6.228702e-02 4.833201e-02 6.194601e-02 5.022454e-02 4.737316e-02 3.080514e-02 2.400007e-02 3.011903e-02 3.386731e-02 2.805880e-02 2.984251e-02 2.157003e-02 1.776927e-02 1.549736e-02 1.501883e-02 1.711992e-02 1.445170e-02 1.123022e-02 1.058975e-02 9.843774e-03 9.016739e-03 9.424574e-03 8.631542e-03 8.208271e-03 7.275573e-03 7.370076e-03 6.991973e-03 7.164317e-03 6.575885e-03 5.549643e-03 5.167134e-03 5.482123e-03 5.219898e-03 4.690752e-03 3.723958e-03 3.769181e-03 3.877388e-03 3.667793e-03 3.342028e-03 3.054459e-03 2.966078e-03 2.826228e-03 2.646927e-03 2.710168e-03 2.740680e-03 2.565353e-03 2.505335e-03 2.255162e-03 1.966782e-03 2.046127e-03 2.136408e-03 2.161046e-03 2.194406e-03 2.094004e-03 1.933374e-03 5.317369e-02 2.652230e-02 1.302297e-02 8.017867e-03 6.409214e-03 5.267499e-03 4.415302e-03 4.156759e-03 4.211389e-03 4.074941e-03 3.644683e-03 3.498064e-03 3.364810e-03 3.356770e-03 3.323855e-03 3.250727e-03 3.055431e-03 2.805909e-03 2.720460e-03 2.583405e-03 2.545797e-03 2.465723e-03 2.320377e-03 2.190145e-03 2.047256e-03 1.965521e-03 1.885586e-03 1.800337e-03 1.712732e-03 1.614320e-03 1.577211e-03 1.463809e-03 1.396872e-03 1.309744e-03 1.239446e-03 1.184181e-03 1.133625e-03 1.061827e-03 1.008148e-03 9.426220e-04 9.097049e-04 8.724655e-04 8.491491e-04 8.023523e-04 7.665157e-04 7.323812e-04 6.919638e-04 6.750235e-04 6.577202e-04 6.366191e-04 6.147592e-04 5.855061e-04 5.645708e-04 5.355872e-04 5.171846e-04 5.206937e-04 5.074372e-04 4.986640e-04 4.814347e-04 4.515668e-04 5.018168e-02 2.591905e-02 2.432017e-02 1.673476e-02 1.478093e-02 1.382129e-02 1.306717e-02 1.231756e-02 1.271318e-02 1.239565e-02 1.180976e-02 1.180443e-02 1.147908e-02 1.157991e-02 1.131074e-02 1.087655e-02 1.028174e-02 9.799323e-03 9.414743e-03 9.135457e-03 8.859849e-03 8.571236e-03 8.158209e-03 7.752401e-03 7.295711e-03 7.071087e-03 6.736394e-03 6.452098e-03 6.193094e-03 5.875558e-03 5.711042e-03 5.359585e-03 5.088815e-03 4.814919e-03 4.562822e-03 4.362026e-03 4.132945e-03 4.001301e-03 3.724277e-03 3.486191e-03 3.413857e-03 3.305261e-03 3.210642e-03 3.049975e-03 2.914428e-03 2.762146e-03 2.627342e-03 2.548798e-03 2.483982e-03 2.446981e-03 2.324589e-03 2.228876e-03 2.137968e-03 2.044152e-03 1.986573e-03 2.031336e-03 1.987866e-03 1.942006e-03 1.873434e-03 1.772269e-03
<GCONST> -6.324746e+02
<STREAM> 2
<NUMMIXES> 2
<MIXTURE> 1 4.113946e-01
<MEAN> 1
 5.040917e+00
<VARIANCE> 1
 1.261872e-01
<GCONST> -2.321119e-01
<MIXTURE> 2 5.886019e-01
<MEAN> 0
<VARIANCE> 0
<GCONST> 0.000000e+00
<STREAM> 3
<NUMMIXES> 2
<MIXTURE> 1 3.898174e-01
<MEAN> 1
 -2.711257e-03
<VARIANCE> 1
 9.963834e-04
<GCONST> -5.073502e+00
<MIXTURE> 2 6.101789e-01
<MEAN> 0
<VARIANCE> 0
<GCONST> 0.000000e+00
<STREAM> 4
<NUMMIXES> 2
<MIXTURE> 1 3.893179e-01
<MEAN> 1
 -3.796180e-04
<VARIANCE> 1
 3.688823e-03
<GCONST> -3.764571e+00
<MIXTURE> 2 6.106785e-01
<MEAN> 0
<VARIANCE> 0
<GCONST> 0.000000e+00
<STREAM> 5
<MEAN> 15
 -2.009241e+00 -1.246319e+00 -1.233714e+00 -1.233919e+00 -1.244165e+00 -1.550345e-03 -1.039785e-03 -7.771138e-04 -7.067940e-04 -7.269090e-04 -1.089030e-05 2.205930e-06 -1.373293e-05 -6.627776e-06 -9.107534e-06
<VARIANCE> 15
 1.008104e+01 3.035794e+00 2.773502e+00 2.773868e+00 2.800950e+00 7.963528e-01 3.349641e-01 3.170413e-01 3.246155e-01 3.164871e-01 4.682549e+00 2.451245e+00 2.512301e+00 2.604341e+00 2.470795e+00
<GCONST> 3.453720e+01
<STATE> 5
<SWEIGHTS> 5
 1.000000e+00 0.000000e+00 0.000000e+00 0.000000e+00 0.000000e+00
<STREAM> 1
<MEAN> 180
 3.096237e+00 1.240841e+00 -4.932739e-03 3.576661e-01 9.004809e-02 6.391231e-02 1.058902e-02 2.559136e-02 -6.668819e-02 7.543227e-02 -6.008475e-02 5.040352e-02 -1.063558e-01 7.635683e-02 -1.120702e-01 5.297520e-02 3.080886e-03 -3.548085e-02 7.864721e-03 2.578481e-02 -5.729055e-02 2.431539e-02 -8.760243e-03 -5.559335e-03 8.187762e-03 9.901362e-03 -3.137710e-02 5.127948e-02 -2.738377e-02 4.004018e-02 -2.672180e-02 3.856508e-02 -2.659765e-02 3.132571e-02 -3.245587e-02 2.519013e-02 -3.256696e-02 2.459556e-02 -3.089305e-02 2.385987e-02 -3.062062e-02 3.710376e-02 -4.136715e-02 3.663847e-02 -3.080346e-02 2.392610e-02 -2.572913e-02 2.451536e-02 -2.192563e-02 2.322182e-02 -2.426272e-02 2.229240e-02 -1.760944e-02 1.597837e-02 -1.716061e-02 2.306913e-02 -2.778400e-02 3.044488e-02 -3.036786e-02 2.541206e-02 1.925117e-03 5.495614e-04 -8.067476e-06 4.040762e-04 -1.435655e-04 -1.733287e-05 9.356925e-05 6.392662e-06 -2.213344e-05 6.169057e-05 -1.131470e-04 1.012196e-04 3.195409e-05 9.232423e-05 -1.801277e-04 -5.719706e-05 8.883998e-05 -6.546872e-05 3.893995e-05 6.567737e-06 -6.027013e-05 5.384999e-05 7.811908e-06 9.881413e-06 1.847852e-05 -5.309380e-05 -1.184714e-06 -3.236713e-05 -2.675138e-05 -3.232379e-06 9.586595e-06 3.238022e-05 -5.497305e-05 1.129306e-05 7.259343e-06 2.668395e-05 1.865328e-05 7.316570e-06 1.716303e-06 -1.351369e-05 6.782271e-06 1.418289e-05 -7.698916e-06 -1.836914e-05 1.254577e-05 1.503402e-06 -1.227131e-07 2.055404e-05 -3.216329e-05 3.369569e-05 -4.952967e-05 2.854592e-05 1.908646e-05 -4.010705e-05 1.250003e-05 1.506010e-05 -2.157003e-05 2.294197e-05 -2.030841e-05 1.876116e-05 -1.227803e-05 -7.315092e-06 6.508094e-06 8.628427e-06 6.053262e-06 -1.407091e-06 -5.067892e-06 -5.102415e-06 -3.922777e-06 -2.848984e-06 -4.647532e-06 -2.196520e-06 2.866141e-06 7.020822e-07 -1.058156e-07 -6.582293e-07 -2.017588e-06 -1.175816e-06 7.224544e-07 -1.967962e-06 -4.201785e-06 -9.519210e-07 1.851617e-06 -4.499252e-07 2.279497e-06 1.863751e-06 3.397671e-06 -5.858826e-07 -3.291152e-07 6.608628e-07 -1.009118e-06 4.337815e-06 -2.735166e-06 -3.765839e-06 6.465661e-07 -1.331436e-07 2.657392e-06 -1.279843e-06 -1.277992e-06 2.471412e-06 -2.278094e-06 2.144788e-06 1.534464e-06 -2.688578e-06 1.327256e-06 4.232101e-07 -1.584568e-06 6.016221e-07 1.641116e-06 -8.834521e-07 -8.962008e-07 7.862977e-07 8.660633e-07 -1.806177e-06 8.765870e-07 -4.501144e-08 -7.169393e-07 5.696348e-07 4.594829e-07 -1.229342e-06
<VARIANCE> 180
 6.032479e+00 1.630851e+00 2.449467e-01 1.930915e-01 1.162017e-01 6.222456e-02 4.825230e-02 6.211345e-02 5.033687e-02 4.756485e-02 3.080652e-02 2.394262e-02 3.012248e-02 3.372565e-02 2.815567e-02 2.972681e-02 2.163922e-02 1.778706e-02 1.548842e-02 1.508729e-02 1.706902e-02 1.448713e-02 1.122741e-02 1.056642e-02 9.859602e-03 9.012589e-03 9.420014e-03 8.652249e-03 8.197302e-03 7.251562e-03 7.346507e-03 6.983481e-03 7.177328e-03 6.562902e-03 5.534966e-03 5.160625e-03 5.457600e-03 5.217095e-03 4.668518e-03 3.701029e-03 3.768980e-03 3.867057e-03 3.656861e-03 3.355945e-03 3.056957e-03 2.968374e-03 2.817961e-03 2.646823e-03 2.714400e-03 2.739657e-03 2.566507e-03 2.503428e-03 2.252023e-03 1.966344e-03 2.035929e-03 2.122695e-03 2.161305e-03 2.194660e-03 2.085931e-03 1.931972e-03 5.368679e-02 2.654667e-02 1.309125e-02 8.048354e-03 6.442960e-03 5.281395e-03 4.422408e-03 4.163355e-03 4.214684e-03 4.088998e-03 3.645971e-03 3.500277e-03 3.373410e-03 3.352368e-03 3.317935e-03 3.255871e-03 3.055252e-03 2.812420e-03 2.728330e-03 2.590483e-03 2.554901e-03 2.468036e-03 2.320016e-03 2.191826e-03 2.050173e-03 1.966567e-03 1.887370e-03 1.803756e-03 1.713749e-03 1.612309e-03 1.566253e-03 1.467168e-03 1.395292e-03 1.310347e-03 1.237925e-03 1.182585e-03 1.135036e-03 1.061074e-03 1.004959e-03 9.381523e-04 9.088183e-04 8.693311e-04 8.487080e-04 8.017236e-04 7.661167e-04 7.331677e-04 6.929442e-04 6.746047e-04 6.584816e-04 6.370092e-04 6.141703e-04 5.845993e-04 5.646584e-04 5.360038e-04 5.167049e-04 5.210740e-04 5.069622e-04 4.989458e-04 4.808824e-04 4.509682e-04 5.093328e-02 2.602290e-02 2.440077e-02 1.681045e-02 1.486800e-02 1.385913e-02 1.312545e-02 1.238925e-02 1.277283e-02 1.245334e-02 1.186042e-02 1.185557e-02 1.152680e-02 1.158954e-02 1.134756e-02 1.091220e-02 1.033864e-02 9.856005e-03 9.450052e-03 9.168409e-03 8.908571e-03 8.603985e-03 8.191145e-03 7.769046e-03 7.306638e-03 7.082675e-03 6.755692e-03 6.475733e-03 6.215020e-03 5.894538e-03 5.689594e-03 5.387881e-03 5.104597e-03 4.827112e-03 4.564318e-03 4.374953e-03 4.144950e-03 4.010993e-03 3.723147e-03 3.486299e-03 3.419761e-03 3.305572e-03 3.211938e-03 3.051159e-03 2.917946e-03 2.774573e-03 2.633806e-03 2.557759e-03 2.494623e-03 2.460517e-03 2.328361e-03 2.232316e-03 2.143983e-03 2.047412e-03 1.987332e-03 2.034820e-03 1.987194e-03 1.945417e-03 1.877274e-03 1.776871e-03
<GCONST> -6.322985e+02
<STREAM> 2
<NUMMIXES> 2
<MIXTURE> 1 4.124855e-01
<MEAN> 1
 5.044450e+00
<VARIANCE> 1
 1.252405e-01
<GCONST> -2.396424e-01
<MIXTURE> 2 5.875133e-01
<MEAN> 0
<VARIANCE> 0
<GCONST> 0.000000e+00
<STREAM> 3
<NUMMIXES> 2
<MIXTURE> 1 3.908044e-01
<MEAN> 1
 -2.662663e-03
<VARIANCE> 1
 1.001091e-03
<GCONST> -5.068789e+00
<MIXTURE> 2 6.091921e-01
<MEAN> 0
<VARIANCE> 0
<GCONST> 0.000000e+00
<STREAM> 4
<NUMMIXES> 2
<MIXTURE> 1 3.902986e-01
<MEAN> 1
 -4.174814e-04
<VARIANCE> 1
 3.696167e-03
<GCONST> -3.762582e+00
<MIXTURE> 2 6.096979e-01
<MEAN> 0
<VARIANCE> 0
<GCONST> 0.000000e+00
<STREAM> 5
<MEAN> 15
 -2.017155e+00 -1.251579e+00 -1.237905e+00 -1.237581e+00 -1.248078e+00 -1.704852e-03 -1.128359e-03 -9.406741e-04 -8.436696e-04 -8.689435e-04 -8.234529e-06 -5.587741e-06 -2.033289e-05 -1.527007e-05 -1.694336e-05
<VARIANCE> 15
 1.011800e+01 3.053278e+00 2.781834e+00 2.779848e+00 2.808529e+00 8.041142e-01 3.382756e-01 3.189187e-01 3.267483e-01 3.178233e-01 4.722836e+00 2.472203e+00 2.535302e+00 2.627303e+00 2.490162e+00
<GCONST> 3.463344e+01
<STATE> 6
<SWEIGHTS> 5
 1.000000e+00 0.000000e+00 0.000000e+00 0.000000e+00 0.000000e+00
<STREAM> 1
<MEAN> 180
 3.105956e+00 1.243774e+00 -4.570413e-03 3.601630e-01 8.937898e-02 6.370370e-02 1.116478e-02 2.556407e-02 -6.667207e-02 7.580362e-02 -6.061224e-02 5.093453e-02 -1.062442e-01 7.713443e-02 -1.128050e-01 5.252432e-02 3.621845e-03 -3.582093e-02 8.067473e-03 2.573773e-02 -5.766761e-02 2.460483e-02 -8.732338e-03 -5.484829e-03 8.272605e-03 9.648688e-03 -3.130471e-02 5.110192e-02 -2.756044e-02 3.997321e-02 -2.679369e-02 3.886016e-02 -2.696834e-02 3.131192e-02 -3.237719e-02 2.532507e-02 -3.238554e-02 2.456774e-02 -3.089965e-02 2.386194e-02 -3.064150e-02 3.720256e-02 -4.136439e-02 3.646830e-02 -3.072102e-02 2.397010e-02 -2.577486e-02 2.462339e-02 -2.202750e-02 2.335796e-02 -2.454823e-02 2.247182e-02 -1.748696e-02 1.572719e-02 -1.707957e-02 2.313851e-02 -2.788480e-02 3.055133e-02 -3.045974e-02 2.550442e-02 1.856136e-03 5.149555e-04 5.455120e-05 4.530844e-04 -9.927399e-05 -1.228256e-05 7.383443e-05 -1.141439e-05 -5.112303e-05 4.212162e-05 -1.250331e-04 9.429382e-05 4.181526e-05 9.781491e-05 -1.659958e-04 -5.330214e-05 8.116867e-05 -6.366887e-05 4.683095e-05 -6.004166e-07 -8.410099e-05 4.644072e-05 1.356840e-05 5.930979e-07 2.832353e-05 -4.119686e-05 1.114442e-05 -3.587559e-05 -2.258416e-05 -6.212669e-06 -2.241802e-07 6.072499e-05 -6.736490e-05 -6.565912e-06 1.218921e-05 2.118936e-05 2.670214e-05 1.210513e-06 -4.256574e-06 3.418977e-06 -8.024485e-06 2.187233e-05 1.808659e-06 -3.124731e-05 1.810062e-05 4.595155e-06 -8.933874e-06 2.306344e-05 -2.211039e-05 2.751391e-05 -5.045469e-05 3.099572e-05 2.105457e-05 -4.728295e-05 1.672711e-05 1.578638e-05 -2.609904e-05 2.586470e-05 -1.658991e-05 9.286889e-06 -1.382005e-05 -1.076628e-05 3.791035e-06 2.373469e-06 6.954785e-06 2.076309e-06 -4.270777e-06 -5.463780e-06 -3.195137e-06 -6.906401e-07 -2.243363e-06 -2.029136e-06 7.524428e-07 -3.136144e-07 2.378298e-06 1.134596e-06 -6.974838e-07 9.691572e-07 7.254545e-07 -1.768280e-06 -4.136335e-06 -1.442483e-06 1.348074e-06 -1.147654e-06 2.031296e-06 2.291553e-06 2.568799e-06 -5.755965e-08 3.536755e-07 -6.960068e-07 -1.878655e-06 4.968338e-06 -2.258008e-06 -3.210316e-06 1.058838e-06 -8.878353e-07 1.060405e-06 -1.410713e-06 -7.576003e-07 3.015678e-06 -2.758278e-06 1.473028e-06 1.579204e-06 -1.900955e-06 6.971446e-07 3.416984e-07 -1.216911e-06 3.571171e-07 1.426523e-06 -7.707265e-07 -6.258490e-08 3.208551e-07 4.686135e-08 -1.012625e-06 1.051355e-06 -1.753681e-07 -9.694540e-07 7.717347e-07 5.676445e-07 -1.670448e-06
<VARIANCE> 180
 6.043822e+00 1.633048e+00 2.459703e-01 1.931690e-01 1.161810e-01 6.233193e-02 4.817471e-02 6.231890e-02 5.046736e-02 4.776720e-02 3.082123e-02 2.389622e-02 3.012118e-02 3.357933e-02 2.823083e-02 2.962314e-02 2.168761e-02 1.781336e-02 1.548229e-02 1.514671e-02 1.701938e-02 1.453544e-02 1.122765e-02 1.053164e-02 9.876344e-03 9.014064e-03 9.409993e-03 8.676644e-03 8.191185e-03 7.230140e-03 7.328331e-03 6.972170e-03 7.190781e-03 6.558736e-03 5.517201e-03 5.149918e-03 5.439651e-03 5.217129e-03 4.645827e-03 3.679810e-03 3.766816e-03 3.857388e-03 3.649157e-03 3.370121e-03 3.060497e-03 2.966312e-03 2.810261e-03 2.648269e-03 2.719991e-03 2.742123e-03 2.566463e-03 2.501771e-03 2.249081e-03 1.966723e-03 2.029028e-03 2.111543e-03 2.165861e-03 2.197443e-03 2.079340e-03 1.932855e-03 5.430547e-02 2.659948e-02 1.315606e-02 8.081621e-03 6.477751e-03 5.302280e-03 4.434586e-03 4.173463e-03 4.222494e-03 4.104133e-03 3.650478e-03 3.502418e-03 3.384198e-03 3.350115e-03 3.310703e-03 3.260234e-03 3.053743e-03 2.818118e-03 2.735752e-03 2.598497e-03 2.562193e-03 2.468851e-03 2.322636e-03 2.193953e-03 2.051976e-03 1.967226e-03 1.887937e-03 1.807341e-03 1.716252e-03 1.611102e-03 1.557583e-03 1.470456e-03 1.392323e-03 1.311600e-03 1.236965e-03 1.181143e-03 1.136466e-03 1.060311e-03 1.002709e-03 9.338246e-04 9.081144e-04 8.667681e-04 8.481505e-04 8.015609e-04 7.657275e-04 7.337236e-04 6.936934e-04 6.739843e-04 6.585476e-04 6.375970e-04 6.131491e-04 5.835508e-04 5.646786e-04 5.363304e-04 5.165159e-04 5.208969e-04 5.071364e-04 4.992817e-04 4.799345e-04 4.506009e-04 5.183025e-02 2.616571e-02 2.450821e-02 1.689412e-02 1.495255e-02 1.390843e-02 1.319299e-02 1.247225e-02 1.284505e-02 1.251927e-02 1.192628e-02 1.190704e-02 1.158669e-02 1.159359e-02 1.138555e-02 1.094449e-02 1.039539e-02 9.914432e-03 9.487394e-03 9.200651e-03 8.954143e-03 8.628371e-03 8.226723e-03 7.790443e-03 7.315374e-03 7.092738e-03 6.770235e-03 6.499047e-03 6.242029e-03 5.916051e-03 5.676141e-03 5.415811e-03 5.116162e-03 4.838318e-03 4.567731e-03 4.385275e-03 4.157531e-03 4.018290e-03 3.723894e-03 3.485999e-03 3.426629e-03 3.306595e-03 3.212843e-03 3.052074e-03 2.921665e-03 2.786667e-03 2.640678e-03 2.567047e-03 2.505665e-03 2.474026e-03 2.332817e-03 2.237016e-03 2.150466e-03 2.051612e-03 1.988905e-03 2.036151e-03 1.987289e-03 1.949072e-03 1.880945e-03 1.781681e-03
<GCONST> -6.320798e+02
<STREAM> 2
<NUMMIXES> 2
<MIXTURE> 1 4.140400e-01
<MEAN> 1
 5.047718e+00
<VARIANCE> 1
 1.242514e-01
<GCONST> -2.475712e-01
<MIXTURE> 2 5.859631e-01
<MEAN> 0
<VARIANCE> 0
<GCONST> 0.000000e+00
<STREAM> 3
<NUMMIXES> 2
<MIXTURE> 1 3.922641e-01
<MEAN> 1
 -2.625802e-03
<VARIANCE> 1
 1.008074e-03
<GCONST> -5.061836e+00
<MIXTURE> 2 6.077382e-01
<MEAN> 0
<VARIANCE> 0
<GCONST> 0.000000e+00
<STREAM> 4
<NUMMIXES> 2
<MIXTURE> 1 3.917540e-01
<MEAN> 1
 -4.639991e-04
<VARIANCE> 1
 3.707160e-03
<GCONST> -3.759612e+00
<MIXTURE> 2 6.082485e-01
<MEAN> 0
<VARIANCE> 0
<GCONST> 0.000000e+00
<STREAM> 5
<MEAN> 15
 -2.026663e+00 -1.257994e+00 -1.243589e+00 -1.242640e+00 -1.253403e+00 -1.841402e-03 -1.253179e-03 -1.131170e-03 -1.019291e-03 -1.044689e-03 -2.611298e-06 -7.435188e-06 -2.248643e-05 -1.782095e-05 -1.715373e-05
<VARIANCE> 15
 1.015841e+01 3.071473e+00 2.792808e+00 2.787731e+00 2.817745e+00 8.123902e-01 3.418514e-01 3.212441e-01 3.293683e-01 3.195617e-01 4.763239e+00 2.497496e+00 2.561208e+00 2.651452e+00 2.513315e+00
<GCONST> 3.474215e+01
<TRANSP> 7
 0.000000e+00 1.000000e+00 0.000000e+00 0.000000e+00 0.000000e+00 0.000000e+00 0.000000e+00
 0.000000e+00 8.253142e-01 1.746858e-01 0.000000e+00 0.000000e+00 0.000000e+00 0.000000e+00
 0.000000e+00 0.000000e+00 8.253150e-01 1.746850e-01 0.000000e+00 0.000000e+00 0.000000e+00
 0.000000e+00 0.000000e+00 0.000000e+00 8.253149e-01 1.746851e-01 0.000000e+00 0.000000e+00
 0.000000e+00 0.000000e+00 0.000000e+00 0.000000e+00 8.253129e-01 1.746871e-01 0.000000e+00
 0.000000e+00 0.000000e+00 0.000000e+00 0.000000e+00 0.000000e+00 8.253163e-01 1.746837e-01
 0.000000e+00 0.000000e+00 0.000000e+00 0.000000e+00 0.000000e+00 0.000000e+00 0.000000e+00
<ENDHMM>
~h "G"
<BEGINHMM>
<NUMSTATES> 7
<STATE> 2
<SWEIGHTS> 5
 1.000000e+00 0.000000e+00 0.000000e+00 0.000000e+00 0.000000e+00
<STREAM> 1
<MEAN> 180
 3.265682e+00 1.429833e+00 4.161648e-02 3.373266e-01 1.063178e-01 5.632838e-02 1.336616e-02 7.193825e-02 -9.994819e-02 5.340060e-02 -6.408691e-02 3.630239e-02 -1.057359e-01 6.481849e-02 -1.135161e-01 6.889827e-02 5.142639e-03 -3.418552e-02 1.860548e-02 2.658110e-02 -6.778453e-02 2.309245e-02 -2.163953e-03 -1.768352e-02 6.655901e-03 2.120015e-02 -4.079019e-02 5.191920e-02 -2.410796e-02 3.814961e-02 -1.988966e-02 3.997079e-02 -2.403110e-02 2.713428e-02 -2.795312e-02 2.365819e-02 -3.656590e-02 2.963102e-02 -3.618413e-02 2.756761e-02 -3.483441e-02 3.847006e-02 -3.798412e-02 3.158605e-02 -2.850115e-02 2.464734e-02 -2.879478e-02 2.680578e-02 -2.389438e-02 2.520540e-02 -2.692897e-02 2.437261e-02 -1.627275e-02 1.140569e-02 -1.320305e-02 2.350339e-02 -3.177143e-02 3.543252e-02 -3.489698e-02 2.855531e-02 -3.230451e-04 1.011826e-04 -2.452098e-04 -1.883142e-04 1.136513e-04 -9.434480e-06 1.058909e-04 1.093268e-05 4.769274e-06 -1.196444e-04 -1.443509e-04 5.477779e-05 -2.879457e-05 -2.093765e-04 -4.636428e-05 1.190904e-04 -9.727692e-05 -1.324828e-04 6.374472e-05 -8.817796e-05 -2.817975e-05 2.418954e-05 -2.587955e-05 3.099886e-06 4.824614e-05 1.831855e-05 3.425323e-05 -1.789677e-05 2.912272e-05 4.205782e-05 1.223861e-05 -3.025667e-05 7.287535e-06 8.354068e-05 -6.872402e-05 -7.102033e-06 4.664397e-05 -6.808773e-06 -1.610003e-05 3.633429e-05 -1.127122e-05 -1.843958e-05 1.415775e-05 1.896438e-05 -2.680415e-05 -9.148776e-06 2.765611e-05 -3.175368e-05 5.407387e-06 9.936458e-06 -3.081816e-06 9.751598e-07 -1.240642e-05 1.284517e-05 1.688515e-06 -1.200093e-05 1.606100e-05 -1.819588e-05 2.838990e-05 -4.067729e-05 -1.218370e-05 -3.000939e-05 6.880456e-06 1.391780e-05 7.024903e-06 3.978925e-06 2.917342e-06 4.252866e-06 -8.057446e-06 -6.645264e-06 6.429090e-06 3.148185e-06 -3.521205e-06 6.558704e-06 4.698358e-06 1.454507e-06 1.163097e-06 1.346044e-06 -3.415084e-06 9.800253e-07 9.848563e-07 -1.828768e-06 8.748328e-07 -1.339168e-06 -5.788350e-07 2.036851e-06 -4.403188e-06 6.729468e-07 5.712983e-06 -1.969451e-06 -5.450238e-06 -2.601287e-06 -1.888209e-08 8.913444e-07 4.031471e-06 -9.144677e-07 -1.604575e-06 9.502795e-07 -5.103265e-07 7.478235e-07 1.003983e-06 -1.124076e-06 8.323656e-08 -6.034560e-09 -2.231438e-07 1.761125e-06 -2.295156e-06 9.367354e-07 5.859487e-07 -5.578503e-07 9.067846e-07 -1.246546e-06 3.847178e-08 4.502191e-07 -4.384326e-08 -1.426090e-07 -2.452662e-07 4.386967e-07 -3.142122e-07 1.128837e-06
<VARIANCE> 180
 5.216854e+00 1.698927e+00 3.048083e-01 1.854751e-01 1.419086e-01 8.549237e-02 5.435231e-02 7.905913e-02 5.437873e-02 4.819199e-02 3.140970e-02 2.746890e-02 2.919987e-02 3.465496e-02 2.752421e-02 3.857707e-02 2.379780e-02 1.965232e-02 1.807575e-02 1.648098e-02 1.902660e-02 1.499611e-02 1.137190e-02 1.219411e-02 1.056321e-02 1.078213e-02 1.132767e-02 9.274311e-03 8.496920e-03 7.824035e-03 7.887457e-03 7.000977e-03 7.074963e-03 6.592275e-03 5.640943e-03 5.199837e-03 6.075195e-03 5.821332e-03 4.903945e-03 4.045775e-03 4.057093e-03 4.132297e-03 3.766526e-03 3.607245e-03 3.399088e-03 3.113266e-03 3.062631e-03 2.803754e-03 2.929995e-03 3.040947e-03 2.913218e-03 2.769028e-03 2.509646e-03 2.357874e-03 2.369986e-03 2.353943e-03 2.532648e-03 2.535397e-03 2.412453e-03 2.298944e-03 4.610691e-02 2.525089e-02 1.183768e-02 7.818434e-03 6.077828e-03 5.292274e-03 4.277668e-03 3.982861e-03 4.081734e-03 3.810800e-03 3.405449e-03 3.378479e-03 3.175742e-03 3.199580e-03 3.151420e-03 3.101341e-03 2.920900e-03 2.661523e-03 2.610080e-03 2.488678e-03 2.446495e-03 2.323986e-03 2.201207e-03 2.168622e-03 2.064007e-03 1.938325e-03 1.851629e-03 1.785378e-03 1.633718e-03 1.603401e-03 1.542833e-03 1.417145e-03 1.354650e-03 1.309514e-03 1.227431e-03 1.168279e-03 1.115298e-03 1.043640e-03 9.984467e-04 9.216262e-04 9.060131e-04 8.681738e-04 8.290826e-04 8.056329e-04 7.558732e-04 7.040917e-04 6.940901e-04 6.550702e-04 6.556261e-04 6.308971e-04 6.206384e-04 5.877818e-04 5.574393e-04 5.381050e-04 5.234751e-04 5.220569e-04 5.182507e-04 4.988480e-04 4.733178e-04 4.597976e-04 4.136673e-02 2.407696e-02 2.080845e-02 1.513998e-02 1.312086e-02 1.267719e-02 1.179476e-02 1.124547e-02 1.140627e-02 1.116728e-02 1.075880e-02 1.062918e-02 1.013788e-02 1.018225e-02 9.946655e-03 9.675476e-03 9.348730e-03 8.954773e-03 8.591948e-03 8.361018e-03 8.115934e-03 7.803076e-03 7.386629e-03 7.287851e-03 7.010473e-03 6.478720e-03 6.378296e-03 6.112606e-03 5.755918e-03 5.567359e-03 5.275303e-03 4.921157e-03 4.695039e-03 4.485851e-03 4.291966e-03 4.134362e-03 3.995983e-03 3.690107e-03 3.570074e-03 3.316965e-03 3.246666e-03 3.108990e-03 2.941612e-03 2.912091e-03 2.723324e-03 2.559085e-03 2.487291e-03 2.406318e-03 2.365110e-03 2.296794e-03 2.284804e-03 2.147511e-03 2.051372e-03 1.973034e-03 1.923870e-03 1.906790e-03 1.858923e-03 1.793525e-03 1.694569e-03 1.642970e-03
<GCONST> -6.333929e+02
<STREAM> 2
<NUMMIXES> 2
<MIXTURE> 1 4.553108e-01
<MEAN> 1
 4.948798e+00
<VARIANCE> 1
 1.214903e-01
<GCONST> -2.700436e-01
<MIXTURE> 2 5.446939e-01
<MEAN> 0
<VARIANCE> 0
<GCONST> 0.000000e+00
<STREAM> 3
<NUMMIXES> 2
<MIXTURE> 1 4.349103e-01
<MEAN> 1
 -3.295817e-03
<VARIANCE> 1
 8.555325e-04
<GCONST> -5.225909e+00
<MIXTURE> 2 5.650937e-01
<MEAN> 0
<VARIANCE> 0
<GCONST> 0.000000e+00
<STREAM> 4
<NUMMIXES> 2
<MIXTURE> 1 4.344392e-01
<MEAN> 1
 -6.342601e-04
<VARIANCE> 1
 3.268566e-03
<GCONST> -3.885527e+00
<MIXTURE> 2 5.655648e-01
<MEAN> 0
<VARIANCE> 0
<GCONST> 0.000000e+00
<STREAM> 5
<MEAN> 15
 -2.210466e+00 -1.392573e+00 -1.367284e+00 -1.354820e+00 -1.370538e+00 6.107942e-04 5.126519e-04 7.392438e-04 6.614970e-04 9.798686e-04 -2.551975e-05 -3.173305e-05 -2.963829e-05 -2.464845e-05 -2.934871e-05
<VARIANCE> 15
 1.047499e+01 3.223763e+00 2.849684e+00 2.780571e+00 2.817234e+00 7.707385e-01 3.244309e-01 3.047451e-01 3.032736e-01 2.983279e-01 4.249330e+00 2.214459e+00 2.278066e+00 2.323639e+00 2.331576e+00
<GCONST> 3.397104e+01
<STATE> 3
<SWEIGHTS> 5
 1.000000e+00 0.000000e+00 0.000000e+00 0.000000e+00 0.000000e+00
<STREAM> 1
<MEAN> 180
 3.262928e+00 1.429711e+00 3.991722e-02 3.365823e-01 1.070287e-01 5.620511e-02 1.423272e-02 7.217955e-02 -1.000802e-01 5.254664e-02 -6.470723e-02 3.658881e-02 -1.058120e-01 6.389260e-02 -1.137092e-01 6.956918e-02 4.720481e-03 -3.485618e-02 1.887518e-02 2.593811e-02 -6.784594e-02 2.315932e-02 -2.349864e-03 -1.762583e-02 6.994427e-03 2.126632e-02 -4.073717e-02 5.186897e-02 -2.387721e-02 3.831117e-02 -1.997634e-02 3.976649e-02 -2.393185e-02 2.755406e-02 -2.820835e-02 2.360656e-02 -3.631501e-02 2.962702e-02 -3.632827e-02 2.780649e-02 -3.482954e-02 3.825966e-02 -3.787705e-02 3.172365e-02 -2.865535e-02 2.460011e-02 -2.866399e-02 2.663201e-02 -2.383383e-02 2.522730e-02 -2.692603e-02 2.439060e-02 -1.637537e-02 1.148326e-02 -1.317659e-02 2.340347e-02 -3.165482e-02 3.532507e-02 -3.476167e-02 2.839562e-02 -3.368527e-04 -5.823911e-05 -1.999385e-04 -1.064194e-04 1.446224e-04 1.866428e-05 1.125468e-04 2.964342e-05 -3.993933e-05 -1.539192e-04 -1.045946e-04 7.472280e-05 -4.359188e-05 -1.578714e-04 -1.800972e-05 1.203963e-04 -8.796831e-05 -1.144265e-04 4.430343e-05 -8.597711e-05 -2.100308e-05 2.141317e-05 -2.087670e-05 -6.412401e-06 4.502170e-05 2.911187e-05 6.145944e-06 -1.869349e-05 5.842525e-05 3.044837e-05 -1.542364e-05 -3.998080e-05 5.431341e-06 8.174986e-05 -4.474219e-05 -1.168312e-05 3.681005e-05 7.739171e-07 -2.045600e-05 3.551320e-05 -2.303694e-06 -2.405851e-05 1.204620e-05 2.438360e-05 -2.688657e-05 -3.444649e-06 1.331419e-05 -2.380604e-05 9.450497e-06 4.921630e-06 1.200891e-06 -2.768840e-06 -1.346366e-05 1.338485e-05 3.410325e-06 -1.326880e-05 1.398688e-05 -1.515440e-05 2.556301e-05 -3.266126e-05 -1.539971e-05 -3.803764e-05 9.277488e-06 1.440634e-05 3.153468e-06 5.186259e-06 1.884589e-06 2.601379e-06 -7.794988e-06 -6.141725e-06 6.885005e-06 3.182004e-06 -1.973994e-06 9.072448e-06 5.566303e-06 5.813081e-07 1.465504e-06 3.389119e-06 -3.717032e-06 1.074191e-06 1.916054e-06 -7.647575e-07 1.457372e-06 -1.483467e-06 -1.662018e-07 1.847937e-06 -5.374496e-06 -2.245021e-07 4.322053e-06 -1.966374e-06 -5.301153e-06 -2.346477e-06 8.552067e-07 -3.437963e-07 4.692604e-06 -6.951950e-07 -1.932136e-06 5.650811e-07 -5.678721e-07 -6.608578e-08 1.508734e-06 -1.209255e-06 -5.137767e-07 9.405164e-07 1.865321e-07 1.250318e-06 -2.864826e-06 1.764624e-06 7.495282e-07 -1.461725e-06 1.145902e-06 -5.292306e-07 -2.262537e-07 -2.370163e-07 3.493402e-07 2.009937e-07 -5.952867e-07 4.625364e-07 -4.622679e-07 1.464235e-06
<VARIANCE> 180
