~o
<STREAMINFO> 5 180 1 1 1 15
<MSDINFO> 5 0 1 1 1 0
<VECSIZE> 198<NULLD><USER><DIAGC>
~h "C"
<BEGINHMM>
<NUMSTATES> 7
<STATE> 2
<SWEIGHTS> 5
 1.000000e+00 0.000000e+00 0.000000e+00 0.000000e+00 0.000000e+00
<STREAM> 1
<MEAN> 180
 3.396232e+00 8.535967e-01 -2.295090e-01 2.862567e-01 3.872247e-02 1.933719e-01 -3.983930e-02 -3.511826e-02 -3.091490e-02 8.361449e-02 -7.704938e-02 2.838915e-02 -9.428802e-02 7.151812e-02 -1.320534e-01 7.354394e-04 -1.192841e-01 -2.685384e-02 -1.831871e-02 -1.909111e-02 -3.534472e-03 4.266517e-02 -6.423622e-02 5.527809e-04 3.753024e-02 3.428970e-02 -3.435188e-02 2.623139e-02 -1.156078e-02 4.865719e-02 -4.030909e-02 7.491796e-02 -2.471819e-02 4.821271e-04 4.001893e-05 5.329404e-02 -5.568930e-02 4.799008e-02 -4.739956e-02 4.320287e-02 -6.522812e-02 3.860174e-02 -6.986527e-03 2.815833e-02 -4.177472e-02 2.831135e-02 -3.001884e-02 3.607325e-02 -3.297309e-02 2.800538e-02 -2.355940e-02 3.342793e-02 -3.960644e-02 2.542821e-02 -1.351851e-02 1.996325e-02 -3.527475e-02 3.992981e-02 -3.216099e-02 2.409017e-02 -2.296607e-01 -9.239149e-02 3.746437e-02 -6.050096e-02 -8.230276e-03 -1.092300e-02 3.982284e-03 -1.633210e-02 4.060969e-03 1.206953e-02 1.278474e-02 2.759578e-03 -1.694455e-03 -6.359946e-03 -1.004168e-03 -2.647052e-02 -1.698717e-02 -1.117327e-02 -1.865306e-02 8.947860e-03 6.291107e-03 4.283931e-03 -2.447697e-03 6.796714e-03 4.313122e-03 -2.982329e-03 -1.367552e-02 8.901456e-03 1.368414e-02 2.678967e-03 -7.616694e-03 -2.811947e-03 1.224448e-02 4.238228e-05 -3.137661e-03 9.728529e-03 2.502338e-03 -1.855478e-02 2.316858e-03 3.026037e-03 5.628520e-03 -2.859944e-04 -5.393873e-03 -1.608638e-03 6.905794e-04 3.008489e-04 6.915706e-03 2.443122e-04 -5.877120e-03 -1.892773e-05 6.888907e-04 2.427944e-03 -8.566661e-04 1.787168e-03 -1.920072e-03 -2.557099e-03 2.086654e-03 3.032792e-03 -3.632718e-03 9.751006e-04 -2.470262e-02 3.527999e-04 2.127354e-03 3.229949e-02 6.541225e-03 -5.118756e-02 1.298296e-02 5.530238e-02 -7.907234e-03 2.151811e-03 2.604745e-02 -3.157498e-03 -2.279080e-02 -9.741797e-03 2.775089e-02 2.703325e-02 4.381919e-03 -9.747205e-03 7.357424e-03 2.563291e-02 -1.484009e-03 -1.085784e-02 1.057869e-02 5.181127e-04 -2.270053e-02 -7.971322e-03 1.882893e-02 -3.880775e-03 -8.721251e-03 2.619609e-02 1.766375e-02 -2.573631e-02 -1.518045e-02 1.838445e-02 3.647518e-04 -7.042033e-03 5.168741e-03 -7.198861e-03 -2.602248e-02 7.199429e-03 1.799386e-02 3.415866e-03 -1.491202e-02 -6.093878e-03 1.263032e-02 -2.631275e-03 -1.383680e-03 -2.656447e-03 3.891987e-03 3.257107e-03 -7.157600e-03 -3.973676e-03 1.382547e-02 -2.232221e-03 -1.109669e-02 6.148654e-03 4.140842e-03 -3.044223e-03 -3.982522e-03 3.841751e-03
<VARIANCE> 180
 2.864735e+00 9.571307e-01 2.421640e-01 9.954491e-02 1.214083e-01 6.618191e-02 3.878779e-02 2.678437e-02 3.112333e-02 4.073125e-02 2.915969e-02 1.135446e-02 1.663711e-02 1.310268e-02 6.441538e-03 2.535850e-02 3.145223e-02 2.593189e-02 1.452660e-02 1.081794e-02 2.327348e-02 8.240933e-03 1.048775e-02 7.763873e-03 4.342954e-03 6.790223e-03 1.230339e-02 7.267509e-03 7.050275e-03 9.391017e-03 4.206353e-03 5.329638e-03 2.855328e-03 3.311361e-03 6.327633e-03 4.673361e-03 3.159433e-03 4.808674e-03 5.241501e-03 4.427440e-03 2.566377e-03 2.456038e-03 1.615156e-03 1.823110e-03 1.462644e-03 1.550157e-03 1.361065e-03 1.229845e-03 1.640735e-03 2.385944e-03 2.309693e-03 2.151771e-03 1.481236e-03 1.847480e-03 1.588755e-03 1.421292e-03 1.865943e-03 8.127464e-04 1.464533e-03 1.298098e-03 7.909616e-02 1.628989e-02 1.853495e-02 7.791718e-03 4.851939e-03 5.373222e-03 7.554727e-03 4.407005e-03 3.254287e-03 4.445631e-03 4.292071e-03 5.776906e-03 2.205712e-03 5.164556e-03 3.692824e-03 3.747214e-03 3.499055e-03 4.583627e-03 2.576485e-03 2.321453e-03 2.915869e-03 3.230515e-03 1.785923e-03 3.390098e-03 1.443821e-03 1.521320e-03 2.058548e-03 2.336633e-03 1.262372e-03 1.373393e-03 1.611860e-03 2.764710e-03 1.241525e-03 1.157797e-03 2.449439e-03 1.188879e-03 9.207103e-04 1.444293e-03 8.583076e-04 1.455446e-03 8.695820e-04 8.925186e-04 6.648225e-04 1.002896e-03 6.035056e-04 6.180874e-04 7.833017e-04 6.579745e-04 6.576736e-04 6.840338e-04 7.224158e-04 5.351691e-04 5.453930e-04 4.419539e-04 3.145080e-04 3.323252e-04 4.125469e-04 4.399270e-04 5.803257e-04 3.317191e-04 4.111690e-02 2.444236e-02 3.439912e-02 1.441987e-02 1.595777e-02 2.045901e-02 1.335530e-02 1.354735e-02 1.044141e-02 1.164912e-02 6.175072e-03 6.618921e-03 1.079028e-02 7.385500e-03 7.846936e-03 6.039294e-03 1.364889e-02 1.222813e-02 8.433590e-03 9.683218e-03 9.646230e-03 8.731027e-03 4.247518e-03 6.919319e-03 7.355402e-03 6.244328e-03 8.807052e-03 7.308930e-03 3.477417e-03 5.074655e-03 5.475869e-03 4.877888e-03 4.972234e-03 2.585093e-03 6.211472e-03 4.368341e-03 3.077100e-03 4.007666e-03 2.352156e-03 6.546646e-03 2.119308e-03 4.639445e-03 2.659695e-03 2.394891e-03 1.873897e-03 1.710211e-03 1.109289e-03 1.634630e-03 1.778597e-03 2.154725e-03 1.432520e-03 2.227621e-03 1.484674e-03 2.228324e-03 1.003439e-03 2.653850e-03 1.332301e-03 1.795582e-03 1.308636e-03 1.159321e-03
<GCONST> -6.610984e+02
<STREAM> 2
<NUMMIXES> 2
<MIXTURE> 1 2.209914e-01
<MEAN> 1
 4.976721e+00
<VARIANCE> 1
 3.480794e-02
<GCONST> -1.520033e+00
<MIXTURE> 2 7.790086e-01
<MEAN> 0
<VARIANCE> 0
<GCONST> 0.000000e+00
<STREAM> 3
<NUMMIXES> 2
<MIXTURE> 1 1.766617e-01
<MEAN> 1
 1.613089e-02
<VARIANCE> 1
 3.456336e-03
<GCONST> -3.829669e+00
<MIXTURE> 2 8.233383e-01
<MEAN> 0
<VARIANCE> 0
<GCONST> 0.000000e+00
<STREAM> 4
<NUMMIXES> 2
<MIXTURE> 1 1.766617e-01
<MEAN> 1
 6.406613e-02
<VARIANCE> 1
 8.609612e-03
<GCONST> -2.916999e+00
<MIXTURE> 2 8.233383e-01
<MEAN> 0
<VARIANCE> 0
<GCONST> 0.000000e+00
<STREAM> 5
<MEAN> 15
 -7.574037e-01 -9.680808e-01 -5.637631e-01 -7.924339e-01 -5.484330e-01 5.888253e-02 1.647779e-01 8.492833e-02 4.910009e-02 9.469843e-02 2.524732e-02 2.889035e-01 -2.050842e-01 3.283846e-01 -1.110186e-02
<VARIANCE> 15
 3.534354e+00 4.145201e+00 1.412532e+00 3.278275e+00 1.309430e+00 2.221754e-01 2.237346e-01 2.693076e-01 8.335669e-02 1.246066e-01 2.337805e-01 1.388819e+00 4.533615e-01 1.857047e+00 6.864585e-01
<GCONST> 2.150102e+01
<STATE> 3
<SWEIGHTS> 5
 1.000000e+00 0.000000e+00 0.000000e+00 0.000000e+00 0.000000e+00
<STREAM> 1
<MEAN> 180
 2.885247e+00 7.332051e-01 -7.164393e-02 2.484445e-01 3.118768e-02 1.495269e-01 -1.976920e-02 -1.724947e-03 -3.104105e-02 9.445052e-02 -3.429897e-02 3.356265e-02 -8.652765e-02 5.892555e-02 -1.247877e-01 2.077931e-02 -9.828375e-02 -3.716748e-02 -2.947012e-02 1.745952e-03 1.045002e-03 4.879060e-02 -6.128883e-02 5.907805e-03 1.684800e-02 2.755963e-02 -2.722997e-02 3.619513e-02 -7.625494e-03 6.932500e-02 -3.201085e-02 3.826853e-02 -1.316831e-02 1.165290e-02 -1.976709e-02 5.994429e-02 -3.871401e-02 1.264874e-02 -6.665070e-02 5.776981e-02 -3.687378e-02 3.251930e-02 -3.471467e-02 2.912112e-02 -2.172616e-02 1.751537e-02 -3.029624e-02 4.008324e-02 -3.124464e-02 1.655347e-02 -2.147845e-02 3.607059e-02 -3.479353e-02 2.905541e-02 -2.267526e-02 1.625389e-02 -2.470250e-02 3.659202e-02 -3.609596e-02 2.809676e-02 -1.978953e-01 -6.366072e-02 3.593579e-02 -3.155831e-02 2.133899e-03 -3.710569e-02 1.395490e-02 2.054947e-02 -2.878791e-03 2.994821e-04 2.070209e-02 2.364479e-02 -6.839493e-03 -1.425843e-02 2.144126e-02 4.267301e-03 -7.552512e-03 -4.740842e-03 -1.269109e-03 1.417449e-02 8.427439e-03 -8.932199e-03 -2.360189e-03 3.631623e-03 -3.008113e-03 -2.245082e-03 3.320390e-03 3.202384e-03 -2.943628e-03 8.957738e-03 9.575127e-03 -5.638932e-03 -4.351193e-03 8.067385e-04 -4.945926e-03 4.800084e-03 4.442303e-03 -9.464581e-03 -1.204317e-02 -1.069929e-03 1.500288e-02 1.559361e-03 -1.132106e-02 1.373961e-03 4.756573e-03 -1.394744e-03 5.078059e-04 -3.152058e-03 4.820790e-03 -3.422993e-03 -3.938504e-03 8.727065e-04 1.256055e-02 -1.061596e-02 -2.642652e-03 6.387219e-03 -3.526601e-03 2.890810e-03 -2.755122e-03 1.322205e-03 8.337375e-02 5.899283e-02 -6.178254e-02 -2.917936e-02 2.221130e-02 2.384790e-02 -6.911732e-03 2.377568e-02 -7.729353e-03 -2.364550e-02 -1.138982e-03 -1.183874e-03 2.159959e-02 2.610518e-03 -5.331946e-03 1.056616e-02 1.575386e-02 1.832704e-02 2.882433e-02 -1.030349e-02 -8.113810e-03 -5.971527e-03 -2.340339e-03 7.912026e-03 2.216050e-02 -3.918262e-03 -1.391539e-02 8.142130e-04 -2.036133e-02 -3.361446e-02 5.990651e-03 2.492833e-02 -1.545809e-02 -8.507321e-03 1.629732e-02 -6.764897e-03 -1.248378e-02 2.057380e-02 2.034564e-02 -1.225553e-02 -1.100094e-02 4.493638e-03 1.200995e-02 -1.235909e-03 -1.043090e-02 5.138376e-04 2.273128e-03 -1.941829e-03 1.503100e-03 -6.925781e-03 9.031489e-03 4.653323e-04 -3.353022e-03 -8.595015e-03 1.111546e-02 -1.758975e-04 -2.199539e-03 -6.312231e-04 6.081772e-04 6.643885e-04
<VARIANCE> 180
 3.608476e+00 9.296383e-01 2.150646e-01 1.040855e-01 9.101797e-02 3.037399e-02 2.674014e-02 2.080073e-02 3.504467e-02 3.245455e-02 3.047157e-02 1.060802e-02 1.348564e-02 1.886370e-02 1.181401e-02 2.141304e-02 1.421169e-02 2.149123e-02 9.392753e-03 1.127380e-02 1.795350e-02 8.583943e-03 1.692046e-02 2.629965e-03 4.959686e-03 5.240561e-03 1.053112e-02 7.623998e-03 8.545702e-03 9.807846e-03 4.902644e-03 5.473748e-03 3.113331e-03 3.741172e-03 4.060565e-03 4.527506e-03 2.957267e-03 5.228355e-03 3.137064e-03 2.389221e-03 2.263742e-03 1.060367e-03 1.423725e-03 1.747203e-03 1.735053e-03 2.743288e-03 1.309881e-03 1.611208e-03 1.473962e-03 1.339192e-03 2.103928e-03 1.288583e-03 1.200706e-03 1.925888e-03 1.329626e-03 1.342191e-03 1.511133e-03 1.157819e-03 1.697690e-03 7.708451e-04 2.699134e-02 1.650159e-02 1.013064e-02 3.523291e-03 4.147661e-03 4.310648e-03 7.194045e-03 3.575996e-03 2.167156e-03 4.080747e-03 2.700654e-03 2.655363e-03 2.280143e-03 2.339233e-03 2.177528e-03 1.487016e-03 3.929143e-03 3.596327e-03 2.855488e-03 2.014187e-03 1.965718e-03 1.487476e-03 1.629881e-03 2.791706e-03 1.982119e-03 2.531021e-03 3.096257e-03 2.753880e-03 1.068545e-03 1.773717e-03 1.101801e-03 2.020409e-03 1.426533e-03 1.325602e-03 1.353141e-03 1.528853e-03 1.036027e-03 1.018130e-03 7.798106e-04 1.887982e-03 7.076224e-04 1.648372e-03 5.680891e-04 7.662506e-04 8.119569e-04 4.399776e-04 4.828479e-04 6.484954e-04 3.930292e-04 8.327877e-04 4.573258e-04 5.823100e-04 5.774869e-04 4.265941e-04 4.450376e-04 6.947098e-04 3.632267e-04 5.030364e-04 6.283761e-04 4.068387e-04 3.065431e-02 1.874589e-02 3.471701e-02 2.287522e-02 1.915853e-02 1.474277e-02 6.858328e-03 1.154147e-02 1.469892e-02 9.416525e-03 1.269281e-02 1.403489e-02 1.014093e-02 1.741811e-02 1.546537e-02 8.020166e-03 5.658655e-03 8.163826e-03 7.694969e-03 7.646534e-03 7.029329e-03 5.494316e-03 4.667724e-03 1.045696e-02 7.484781e-03 7.394519e-03 9.536632e-03 4.236279e-03 4.010373e-03 5.100407e-03 6.378997e-03 8.980324e-03 5.563750e-03 5.128351e-03 4.039337e-03 6.164054e-03 3.023010e-03 5.994610e-03 4.251474e-03 5.399750e-03 1.829539e-03 2.462377e-03 2.876276e-03 3.254764e-03 2.517963e-03 2.184455e-03 1.850594e-03 1.790232e-03 2.063902e-03 1.727826e-03 2.120212e-03 1.589348e-03 1.151112e-03 2.205687e-03 9.865451e-04 2.613787e-03 1.806125e-03 2.014868e-03 1.050480e-03 9.459999e-04
<GCONST> -6.725718e+02
<STREAM> 2
<NUMMIXES> 2
<MIXTURE> 1 1.676812e-01
<MEAN> 1
 4.945491e+00
<VARIANCE> 1
 1.447364e-02
<GCONST> -2.397549e+00
<MIXTURE> 2 8.323187e-01
<MEAN> 0
<VARIANCE> 0
<GCONST> 0.000000e+00
<STREAM> 3
<NUMMIXES> 2
<MIXTURE> 1 1.676812e-01
<MEAN> 1
 2.443839e-02
<VARIANCE> 1
 2.477643e-03
<GCONST> -4.162571e+00
<MIXTURE> 2 8.323187e-01
<MEAN> 0
<VARIANCE> 0
<GCONST> 0.000000e+00
<STREAM> 4
<NUMMIXES> 2
<MIXTURE> 1 1.676812e-01
<MEAN> 1
 -6.850874e-02
<VARIANCE> 1
 1.362913e-02
<GCONST> -2.457669e+00
<MIXTURE> 2 8.323187e-01
<MEAN> 0
<VARIANCE> 0
<GCONST> 0.000000e+00
<STREAM> 5
<MEAN> 15
 -7.534507e-01 -7.083941e-01 -6.053200e-01 -6.067325e-01 -4.407440e-01 -6.349121e-02 2.534100e-01 -1.172466e-02 1.984941e-01 -9.254517e-02 -2.707544e-01 -9.866223e-02 1.567298e-02 -1.524820e-01 -4.729592e-01
<VARIANCE> 15
 4.848258e+00 2.705096e+00 2.000512e+00 2.211138e+00 1.013103e+00 1.339384e-01 4.802008e-01 6.397427e-02 3.495157e-01 1.243216e-01 2.689302e-01 6.851405e-01 5.458165e-01 3.659786e-01 1.023049e+00
<GCONST> 1.973325e+01
<STATE> 4
<SWEIGHTS> 5
 1.000000e+00 0.000000e+00 0.000000e+00 0.000000e+00 0.000000e+00
<STREAM> 1
<MEAN> 180
 2.579205e+00 7.191658e-01 -2.080694e-02 1.887724e-01 5.080387e-02 1.003143e-01 -1.665862e-02 3.702574e-02 -2.966755e-02 6.998093e-02 -3.099591e-02 5.070451e-02 -7.953714e-02 3.804865e-02 -1.015317e-01 2.741270e-02 -9.689745e-02 -3.693335e-02 -7.449562e-03 1.852535e-02 1.392865e-02 3.359203e-02 -7.278125e-02 9.809753e-03 2.001251e-02 2.315925e-02 -2.728570e-02 4.292111e-02 -1.460227e-02 5.390867e-02 -2.168054e-02 4.335636e-02 -1.838022e-02 1.201935e-02 -2.567268e-02 5.827011e-02 -3.269793e-02 1.596115e-02 -6.969348e-02 4.902013e-02 -2.326848e-02 3.529448e-02 -4.611613e-02 2.901151e-02 -1.540056e-02 1.676195e-02 -3.055906e-02 3.476937e-02 -2.390782e-02 8.239619e-03 -2.333348e-02 3.902526e-02 -1.933084e-02 8.497825e-03 -2.042209e-02 2.678580e-02 -2.791908e-02 2.948120e-02 -2.877504e-02 2.778751e-02 -1.443594e-01 -3.962495e-02 -3.470124e-03 -2.998699e-02 1.267308e-02 -2.070155e-02 1.013271e-02 2.457296e-02 1.116628e-03 -1.143689e-03 4.154824e-04 -1.270278e-03 -2.984885e-03 -1.896026e-02 4.247239e-03 9.083973e-03 -6.994362e-03 -4.754104e-03 1.398056e-02 1.154693e-02 1.715947e-02 -9.730374e-03 -8.999488e-03 -2.437170e-03 6.570213e-03 2.282436e-03 -1.189342e-02 -4.234961e-03 -6.671647e-03 -9.912988e-03 1.565211e-03 -1.287988e-03 -5.580666e-03 -4.386806e-03 7.165354e-03 5.993655e-03 2.916890e-03 -6.860460e-04 -4.217506e-05 -1.758292e-03 4.600436e-03 1.239236e-03 2.083566e-03 -4.468104e-04 -1.012934e-02 6.414432e-03 1.049628e-02 -6.157076e-03 -4.504595e-03 1.290663e-03 2.929836e-03 -4.246155e-03 6.423591e-03 -7.279212e-03 4.240338e-03 -6.516634e-04 -1.754598e-04 2.224257e-03 -4.261015e-03 4.273744e-03 1.295519e-02 -1.932718e-04 -1.567896e-02 9.639760e-03 -1.222517e-02 2.588178e-03 2.554427e-04 -1.263313e-02 1.873975e-02 8.618412e-03 -2.499576e-02 -1.716402e-02 -5.832537e-03 -1.774512e-02 -3.333372e-02 -7.467138e-03 -3.831419e-03 -4.785228e-03 1.822114e-03 1.594488e-03 2.841682e-02 1.622538e-02 -5.450072e-03 -1.955829e-02 -6.914109e-03 3.871336e-03 -8.753353e-03 -9.932104e-03 1.283373e-02 9.408734e-03 -2.111049e-02 -1.165753e-02 1.553004e-02 -8.426649e-03 6.276451e-04 8.947002e-03 7.600240e-03 -6.129501e-03 4.950871e-04 1.286561e-02 -1.170066e-03 -1.427547e-02 4.345942e-03 8.960759e-03 -1.640723e-02 6.607831e-03 1.798197e-02 -4.981886e-03 -1.824690e-02 1.515893e-02 6.033630e-03 -1.070866e-02 -7.346331e-03 1.249877e-02 2.723690e-03 -1.104379e-02 5.735303e-03 9.278639e-04 -5.587312e-03 5.389764e-03
<VARIANCE> 180
 3.513936e+00 8.939681e-01 1.602786e-01 7.519947e-02 7.774214e-02 2.733507e-02 2.487767e-02 2.512166e-02 3.353162e-02 2.416143e-02 1.506196e-02 6.957368e-03 1.314704e-02 1.340485e-02 1.097094e-02 1.933660e-02 9.649296e-03 2.153805e-02 5.603869e-03 7.770880e-03 1.540471e-02 9.367801e-03 1.692718e-02 4.304070e-03 4.496393e-03 1.010522e-02 6.370733e-03 1.081595e-02 7.096698e-03 1.283403e-02 4.530563e-03 6.795882e-03 3.836788e-03 4.055528e-03 3.085473e-03 5.260851e-03 3.744293e-03 3.675733e-03 3.871887e-03 1.583363e-03 2.509783e-03 2.817765e-03 2.626285e-03 1.923309e-03 2.784875e-03 2.781700e-03 1.700070e-03 2.505743e-03 1.605663e-03 1.752206e-03 2.504104e-03 1.619735e-03 1.834031e-03 2.264391e-03 1.305997e-03 1.743319e-03 1.405361e-03 3.141837e-03 2.885067e-03 9.335535e-04 1.048666e-02 1.558854e-02 6.314917e-03 7.026067e-03 3.562778e-03 2.252479e-03 3.374074e-03 4.228625e-03 3.099190e-03 2.429652e-03 3.809793e-03 3.005194e-03 1.121404e-03 4.450819e-03 2.971083e-03 2.802046e-03 2.637940e-03 2.087310e-03 2.120341e-03 2.171413e-03 1.850202e-03 2.052604e-03 1.153308e-03 2.314395e-03 3.078563e-03 1.950020e-03 2.367806e-03 1.921587e-03 1.114192e-03 1.302229e-03 1.754462e-03 1.097570e-03 1.044364e-03 1.090195e-03 1.047995e-03 1.218290e-03 9.485417e-04 1.121779e-03 8.470641e-04 1.203183e-03 3.854460e-04 6.724489e-04 8.591465e-04 6.461382e-04 6.956790e-04 5.002710e-04 5.366545e-04 5.179943e-04 3.838324e-04 6.250117e-04 5.624306e-04 3.423994e-04 3.984590e-04 3.911921e-04 3.350318e-04 6.265175e-04 5.810635e-04 5.197423e-04 3.659660e-04 3.296143e-04 8.644535e-03 9.951294e-03 1.052182e-02 8.998661e-03 9.754384e-03 7.057422e-03 6.033270e-03 8.073458e-03 7.427764e-03 9.060943e-03 9.128085e-03 6.225457e-03 7.853633e-03 7.195854e-03 7.659514e-03 4.674674e-03 5.010542e-03 5.033373e-03 5.996395e-03 6.681819e-03 8.478808e-03 7.257583e-03 6.829659e-03 1.057682e-02 6.410096e-03 1.036919e-02 6.049920e-03 5.650583e-03 6.130054e-03 4.855386e-03 6.516432e-03 5.037820e-03 4.569021e-03 3.300270e-03 3.854111e-03 5.981707e-03 5.522043e-03 4.567714e-03 3.801489e-03 5.471325e-03 1.720304e-03 4.380863e-03 2.692963e-03 2.035571e-03 2.986691e-03 1.342058e-03 1.798436e-03 2.448986e-03 1.356594e-03 1.807079e-03 1.627324e-03 1.493707e-03 1.899977e-03 1.668692e-03 1.483505e-03 1.471280e-03 1.166548e-03 1.578984e-03 1.311313e-03 8.248203e-04
<GCONST> -6.895867e+02
<STREAM> 2
<NUMMIXES> 2
<MIXTURE> 1 1.558031e-01
<MEAN> 1
 4.935673e+00
<VARIANCE> 1
 1.324219e-02
<GCONST> -2.486470e+00
<MIXTURE> 2 8.441968e-01
<MEAN> 0
<VARIANCE> 0
<GCONST> 0.000000e+00
<STREAM> 3
<NUMMIXES> 2
<MIXTURE> 1 1.038746e-01
<MEAN> 1
 -6.608945e-03
<VARIANCE> 1
 5.468241e-05
<GCONST> -7.976091e+00
<MIXTURE> 2 8.961254e-01
<MEAN> 0
<VARIANCE> 0
<GCONST> 0.000000e+00
<STREAM> 4
<NUMMIXES> 2
<MIXTURE> 1 1.038746e-01
<MEAN> 1
 -9.397578e-03
<VARIANCE> 1
 5.125106e-05
<GCONST> -8.040897e+00
<MIXTURE> 2 8.961254e-01
<MEAN> 0
<VARIANCE> 0
<GCONST> 0.000000e+00
<STREAM> 5
<MEAN> 15
 -8.848676e-01 -4.685912e-01 -5.660533e-01 -4.501620e-01 -7.152455e-01 -8.186272e-02 1.155574e-01 -8.396576e-02 1.344142e-01 8.837689e-02 2.058438e-01 -1.481372e-01 -1.607113e-01 4.164089e-02 7.881988e-01
<VARIANCE> 15
 6.587912e+00 1.315262e+00 2.322070e+00 1.181314e+00 2.969572e+00 1.572264e-01 1.561170e-01 5.179147e-01 1.192301e-01 6.285261e-02 3.343094e-01 1.602385e+00 4.313603e-01 3.990355e-01 3.746485e+00
<GCONST> 2.150321e+01
<STATE> 5
<SWEIGHTS> 5
 1.000000e+00 0.000000e+00 0.000000e+00 0.000000e+00 0.000000e+00
<STREAM> 1
<MEAN> 180
 1.767453e+00 6.027341e-01 2.066140e-01 1.625398e-01 1.594580e-01 1.235663e-01 -8.525690e-03 -4.060910e-02 -1.146442e-01 -1.094346e-02 -6.193554e-02 1.530188e-02 -1.142285e-01 -3.394759e-02 -1.106116e-01 3.945433e-02 -6.051582e-02 -5.625196e-02 -2.009806e-02 5.527455e-02 4.140815e-02 -3.899680e-03 -2.481255e-02 4.381096e-02 3.939962e-02 8.280032e-02 -3.727593e-02 -1.394591e-02 -3.420020e-02 8.630878e-02 -4.008450e-03 2.347285e-03 -4.334255e-02 1.426815e-02 2.254967e-03 4.598711e-02 -3.545345e-02 -7.749314e-03 -1.698610e-02 5.512106e-02 -5.661170e-02 4.547666e-02 -3.004774e-02 2.271629e-02 -3.393370e-02 2.399404e-02 -2.008558e-02 2.767238e-02 -2.938290e-02 1.361029e-02 -1.241540e-02 2.559168e-02 -3.317196e-02 3.199213e-02 -2.134960e-02 1.136626e-02 -1.118524e-02 1.871694e-02 -2.711381e-02 2.913801e-02 -5.916366e-02 -1.684195e-02 1.111715e-04 -7.853962e-03 -1.434767e-03 -5.466161e-03 7.010547e-03 6.392598e-06 -9.032440e-03 -9.982182e-03 -1.124618e-02 -6.905290e-03 -3.223283e-03 -7.879210e-03 -5.510311e-03 3.609072e-03 4.422407e-03 1.801933e-03 5.454358e-03 -4.597167e-03 3.450459e-03 6.359446e-03 -1.293059e-04 -8.249220e-03 -2.821626e-03 5.713284e-03 3.567783e-03 -1.939775e-03 -3.249492e-03 -8.032880e-04 -9.792935e-04 -3.184696e-03 3.994851e-03 -1.388672e-03 -3.091683e-03 -7.568247e-04 4.478391e-04 8.488948e-04 4.548167e-03 5.977345e-04 3.944006e-05 -1.719087e-03 1.656535e-03 2.632712e-03 -5.823181e-03 -2.377043e-04 5.693212e-03 -1.453792e-03 -3.264940e-03 3.627903e-03 -1.152103e-03 -1.123707e-03 8.366942e-04 -5.480486e-04 2.375310e-03 -3.918603e-03 2.620123e-03 1.621718e-03 -4.555361e-03 3.361808e-03 2.240336e-03 5.863881e-03 1.331399e-02 7.903938e-03 -8.119273e-03 -5.715618e-03 -5.948527e-03 -9.965090e-03 -1.167465e-02 -2.975344e-03 -5.595981e-04 2.407694e-03 3.786567e-03 5.277292e-03 -3.233186e-03 7.551664e-04 5.084207e-03 -1.656697e-03 -1.141998e-03 -1.157703e-02 -1.527131e-02 5.197897e-03 2.931145e-03 -3.837205e-03 -7.132389e-03 4.713873e-03 1.988053e-02 5.901002e-03 -3.612918e-03 -2.260267e-03 4.597456e-03 -9.488689e-04 5.826277e-03 4.819629e-03 -1.093812e-02 -8.504609e-03 2.104006e-03 7.348252e-03 2.400985e-03 -5.478747e-03 -3.931181e-03 4.910436e-03 -2.772284e-03 -1.644222e-03 8.584395e-03 -4.016289e-03 -8.436058e-03 7.285514e-04 7.771229e-03 1.948417e-03 -1.021007e-02 4.131874e-03 2.764140e-03 -1.272997e-03 -2.278893e-03 1.432420e-03 1.757785e-03 -4.111742e-03 3.736714e-03 5.839705e-04
<VARIANCE> 180
 1.894870e+00 4.263257e-01 1.261144e-01 3.548587e-02 5.349182e-02 1.081513e-02 1.349084e-02 2.295817e-02 2.183351e-02 2.423783e-02 1.544502e-02 8.456471e-03 7.333553e-03 1.199388e-02 1.282230e-02 1.195792e-02 1.165653e-02 2.031401e-02 7.251699e-03 7.749736e-03 8.381166e-03 7.657858e-03 7.472857e-03 1.005775e-02 6.896229e-03 9.011782e-03 5.939106e-03 1.116259e-02 3.994987e-03 8.507536e-03 6.361520e-03 6.072016e-03 4.579899e-03 3.518728e-03 5.934090e-03 3.652366e-03 3.522975e-03 2.859567e-03 5.078354e-03 1.845502e-03 2.149618e-03 1.623603e-03 2.267732e-03 1.860297e-03 1.897697e-03 1.903692e-03 2.258271e-03 2.048210e-03 1.553553e-03 1.897342e-03 2.094170e-03 1.840989e-03 1.292375e-03 2.136262e-03 1.374316e-03 1.146391e-03 1.277921e-03 2.144221e-03 1.746895e-03 1.250334e-03 1.166341e-02 8.251602e-03 3.853964e-03 3.299057e-03 2.449926e-03 2.778417e-03 3.551565e-03 1.683706e-03 2.625903e-03 3.881770e-03 2.026074e-03 2.447670e-03 2.217196e-03 2.863338e-03 3.720890e-03 2.055733e-03 2.490137e-03 3.075390e-03 2.166965e-03 2.961972e-03 3.150440e-03 3.322517e-03 2.333918e-03 2.599412e-03 2.012123e-03 1.627654e-03 1.416224e-03 1.981584e-03 1.093430e-03 1.257936e-03 1.638893e-03 1.526852e-03 1.304228e-03 1.231995e-03 1.634466e-03 1.290119e-03 1.120383e-03 1.218481e-03 9.450873e-04 6.854685e-04 8.028197e-04 6.569888e-04 8.760620e-04 6.560546e-04 5.355719e-04 6.249523e-04 8.712237e-04 7.214299e-04 6.871484e-04 7.414699e-04 1.122767e-03 5.578973e-04 6.678106e-04 6.086111e-04 5.882315e-04 3.966975e-04 4.151176e-04 3.771974e-04 4.042517e-04 3.904422e-04 5.160214e-03 8.068687e-03 9.591821e-03 6.793898e-03 9.483978e-03 7.726258e-03 7.212086e-03 4.791475e-03 7.777005e-03 7.601418e-03 7.875600e-03 7.572283e-03 5.784411e-03 1.103638e-02 1.102098e-02 5.925998e-03 7.518296e-03 8.898658e-03 5.340834e-03 8.985446e-03 1.292256e-02 8.173397e-03 4.231286e-03 6.566375e-03 6.375908e-03 6.288700e-03 6.794454e-03 4.416039e-03 2.932556e-03 4.156493e-03 5.424336e-03 4.327491e-03 2.909811e-03 5.057970e-03 5.038229e-03 4.308261e-03 3.787347e-03 3.510404e-03 4.386651e-03 2.783637e-03 3.256167e-03 3.347115e-03 3.277495e-03 3.316022e-03 2.310620e-03 1.855124e-03 2.252967e-03 2.388048e-03 2.067291e-03 2.567437e-03 3.020092e-03 1.641056e-03 1.323729e-03 1.047508e-03 1.333551e-03 1.719217e-03 1.717140e-03 1.423321e-03 1.488805e-03 1.232746e-03
<GCONST> -6.957219e+02
<STREAM> 2
<NUMMIXES> 2
<MIXTURE> 1 4.598345e-02
<MEAN> 1
 4.856339e+00
<VARIANCE> 1
 6.587221e-03
<GCONST> -3.184747e+00
<MIXTURE> 2 9.540166e-01
<MEAN> 0
<VARIANCE> 0
<GCONST> 0.000000e+00
<STREAM> 3
<NUMMIXES> 2
<MIXTURE> 1 4.598211e-02
<MEAN> 1
 -6.247418e-03
<VARIANCE> 1
 6.122200e-06
<GCONST> -1.016571e+01
<MIXTURE> 2 9.540179e-01
<MEAN> 0
<VARIANCE> 0
<GCONST> 0.000000e+00
<STREAM> 4
<NUMMIXES> 2
<MIXTURE> 1 4.598211e-02
<MEAN> 1
 1.011980e-02
<VARIANCE> 1
 7.541094e-06
<GCONST> -9.957266e+00
<MIXTURE> 2 9.540179e-01
<MEAN> 0
<VARIANCE> 0
<GCONST> 0.000000e+00
<STREAM> 5
<MEAN> 15
 -3.823929e-01 -1.890708e-01 -3.233241e-01 -1.305593e-01 -1.030430e-01 -8.676152e-02 2.711806e-02 1.801813e-02 1.501820e-02 9.017182e-02 -1.921682e-01 1.750339e-02 1.815208e-01 -1.074029e-01 -2.468241e-01
<VARIANCE> 15
 3.491182e+00 7.652685e-01 2.471859e+00 3.562791e-01 2.465248e-01 3.668868e-01 5.369169e-02 3.375796e-02 2.730740e-02 1.293291e-01 7.703013e-01 3.178532e-01 1.381090e+00 1.615457e-01 8.441041e-01
<GCONST> 1.098506e+01
<STATE> 6
<SWEIGHTS> 5
 1.000000e+00 0.000000e+00 0.000000e+00 0.000000e+00 0.000000e+00
<STREAM> 1
<MEAN> 180
 5.970885e-01 2.649847e-01 9.452757e-02 1.343292e-01 8.243865e-02 1.017476e-01 6.072881e-02 7.875294e-02 4.852746e-02 4.430890e-02 -1.234558e-02 2.937169e-02 -4.270147e-03 6.198244e-02 -3.350140e-02 1.711472e-02 -1.932933e-02 1.195870e-02 -1.129158e-02 2.345180e-02 1.805024e-02 -7.100224e-04 -1.749317e-02 -1.897878e-02 -1.064677e-02 2.272664e-02 -1.747485e-02 2.383667e-02 -1.245325e-02 2.172245e-02 -2.618383e-02 1.906026e-02 -1.639311e-02 8.023499e-03 -8.566804e-03 1.266597e-02 -1.034154e-02 4.514194e-03 -2.878501e-02 2.054943e-02 -2.485271e-02 2.247840e-02 -2.462259e-02 2.428412e-02 -2.326087e-02 1.505444e-02 -2.034473e-02 1.857506e-02 -1.041370e-02 1.144883e-02 -1.267154e-02 9.297302e-03 -1.144867e-02 1.723724e-02 -1.790455e-02 1.126766e-02 -4.153035e-03 8.981104e-03 -1.990764e-02 1.931634e-02 -4.847897e-03 -1.026158e-03 5.376746e-04 -4.507196e-04 -4.092535e-04 -5.658632e-04 2.546124e-04 -3.698747e-04 -4.361197e-04 4.675867e-05 3.597868e-04 1.033531e-03 7.645268e-04 3.281126e-04 -3.019661e-05 -1.583123e-04 6.459249e-04 4.536325e-04 -3.764960e-04 -1.454136e-03 -6.688541e-04 8.108272e-04 1.015667e-03 -4.012031e-04 -4.302359e-04 5.264695e-04 2.720956e-04 8.689364e-05 -2.736181e-04 -4.210775e-04 -3.074685e-05 -2.905957e-04 5.383362e-04 8.145062e-04 1.800794e-04 -9.650415e-04 -1.496985e-04 2.589063e-04 3.507540e-04 -2.521595e-04 -7.273041e-04 6.818184e-04 -1.918797e-04 -5.172732e-04 6.318294e-04 1.900634e-04 -5.006784e-04 -2.680609e-04 4.590029e-04 3.263674e-04 -4.378449e-04 -8.742637e-05 2.153168e-04 -6.079454e-05 -7.678637e-05 2.013809e-04 -3.567307e-05 -3.130755e-04 3.302571e-04 -2.327266e-05 2.512609e-03 4.984697e-04 -1.322586e-04 -2.174894e-04 -1.952462e-04 2.782282e-04 -5.141903e-04 -1.066703e-04 2.392084e-04 -1.212727e-04 -1.607288e-04 4.368988e-04 2.973980e-04 1.208848e-03 5.640681e-04 -4.980015e-04 1.931005e-05 -3.237149e-04 -1.325240e-03 -5.013099e-04 -8.955612e-04 -7.705428e-04 7.401037e-04 1.188637e-03 9.225786e-04 2.693601e-04 -1.337114e-03 -6.849033e-04 2.653957e-04 2.370299e-04 7.274077e-04 6.072118e-04 -5.506224e-04 1.810187e-04 7.085112e-04 1.698193e-05 -8.096332e-04 -3.687793e-04 1.095667e-04 -1.706572e-04 4.150613e-04 5.953889e-04 -4.757493e-04 -4.260223e-04 7.884423e-04 2.497496e-05 -4.041298e-04 1.871507e-04 3.315290e-04 -5.003055e-04 -2.315452e-05 2.517333e-04 8.871393e-05 -2.631091e-04 -7.588361e-05 5.615230e-04 -3.874317e-04 -3.018123e-04 4.940369e-04 -8.362911e-05
<VARIANCE> 180
 2.589537e-01 5.965347e-02 1.999017e-02 1.349517e-02 1.390527e-02 1.062735e-02 1.046753e-02 9.495304e-03 1.231445e-02 1.220397e-02 9.372598e-03 8.831681e-03 8.746515e-03 1.042715e-02 9.871445e-03 1.193347e-02 1.049636e-02 1.050799e-02 8.425535e-03 8.337324e-03 7.392699e-03 7.429400e-03 6.909917e-03 6.480178e-03 7.078291e-03 6.374427e-03 5.680620e-03 5.883513e-03 5.523348e-03 5.623910e-03 4.223416e-03 5.097774e-03 4.556593e-03 4.105529e-03 4.079224e-03 3.960512e-03 3.507462e-03 3.340353e-03 3.006994e-03 2.749915e-03 2.617193e-03 2.376020e-03 2.450767e-03 2.509097e-03 2.679947e-03 2.462361e-03 2.366329e-03 2.162515e-03 1.898776e-03 2.033010e-03 1.739641e-03 1.648027e-03 1.669421e-03 1.283291e-03 1.485038e-03 1.409125e-03 1.289916e-03 1.451339e-03 1.343768e-03 1.260343e-03 4.556774e-03 4.035146e-03 3.943961e-03 3.041616e-03 2.836708e-03 2.924754e-03 2.834809e-03 2.766954e-03 3.219981e-03 3.186052e-03 2.858252e-03 2.918137e-03 2.611395e-03 3.574633e-03 3.353375e-03 3.693716e-03 3.413822e-03 3.262801e-03 3.110884e-03 2.763656e-03 2.478652e-03 2.396364e-03 2.356563e-03 2.337846e-03 2.549790e-03 2.192236e-03 2.134623e-03 2.079654e-03 1.869155e-03 1.827311e-03 1.761740e-03 1.583620e-03 1.731604e-03 1.380657e-03 1.381792e-03 1.419726e-03 1.221304e-03 1.338640e-03 1.079125e-03 1.076507e-03 9.493648e-04 8.903457e-04 9.968673e-04 9.088102e-04 8.300279e-04 9.334091e-04 7.298152e-04 8.208526e-04 6.406584e-04 6.861536e-04 6.847311e-04 6.175200e-04 6.162478e-04 5.515462e-04 5.923398e-04 5.162879e-04 4.845466e-04 5.302886e-04 5.474722e-04 5.027169e-04 8.723968e-03 1.035462e-02 1.126330e-02 8.977451e-03 8.497244e-03 8.486283e-03 8.789856e-03 8.524258e-03 9.023600e-03 8.319011e-03 8.534025e-03 9.440836e-03 8.349482e-03 1.056141e-02 9.218281e-03 9.028191e-03 8.850269e-03 8.840894e-03 9.282984e-03 8.084890e-03 7.078091e-03 6.927528e-03 6.604418e-03 6.776889e-03 7.187483e-03 6.481614e-03 6.287977e-03 6.058024e-03 5.295420e-03 5.563662e-03 5.396805e-03 4.872294e-03 4.758449e-03 3.799600e-03 4.260608e-03 4.393122e-03 4.194372e-03 3.968065e-03 3.296345e-03 3.349922e-03 3.192576e-03 2.914401e-03 2.908337e-03 3.071091e-03 2.407422e-03 3.018870e-03 2.038439e-03 2.475396e-03 1.865170e-03 1.829745e-03 1.956997e-03 1.773563e-03 1.767711e-03 1.742788e-03 1.798595e-03 1.590225e-03 1.456558e-03 1.513169e-03 1.513001e-03 1.385015e-03
<GCONST> -6.980259e+02
<STREAM> 2
<NUMMIXES> 2
<MIXTURE> 1 3.496666e-02
<MEAN> 1
 4.632883e+00
<VARIANCE> 1
 3.934927e-02
<GCONST> -1.397401e+00
<MIXTURE> 2 9.650335e-01
<MEAN> 0
<VARIANCE> 0
<GCONST> 0.000000e+00
<STREAM> 3
<NUMMIXES> 2
<MIXTURE> 1 2.719635e-02
<MEAN> 1
 1.211408e-02
<VARIANCE> 1
 1.165087e-03
<GCONST> -4.917082e+00
<MIXTURE> 2 9.728038e-01
<MEAN> 0
<VARIANCE> 0
<GCONST> 0.000000e+00
<STREAM> 4
<NUMMIXES> 2
<MIXTURE> 1 2.719635e-02
<MEAN> 1
 1.225170e-03
<VARIANCE> 1
 8.526262e-03
<GCONST> -2.926727e+00
<MIXTURE> 2 9.728038e-01
<MEAN> 0
<VARIANCE> 0
<GCONST> 0.000000e+00
<STREAM> 5
<MEAN> 15
 -1.357168e-01 -9.233476e-02 -1.004733e-01 -9.784678e-02 -9.285761e-02 -4.438248e-03 1.609365e-03 7.377870e-03 -4.677783e-03 -1.855001e-03 2.202392e-02 -2.843162e-03 -3.627531e-03 -2.818199e-03 1.907496e-03
<VARIANCE> 15
 8.343507e-01 2.440806e-01 3.103407e-01 2.802795e-01 2.535119e-01 5.917283e-02 2.298595e-02 4.934736e-02 4.027881e-02 3.378596e-02 4.036902e-01 1.423265e-01 1.246560e-01 2.395786e-01 1.976560e-01
<GCONST> -2.035314e+00
<TRANSP> 7
 0.000000e+00 1.000000e+00 0.000000e+00 0.000000e+00 0.000000e+00 0.000000e+00 0.000000e+00
 0.000000e+00 2.907597e-01 7.092404e-01 0.000000e+00 0.000000e+00 0.000000e+00 0.000000e+00
 0.000000e+00 0.000000e+00 1.056962e-01 8.943038e-01 0.000000e+00 0.000000e+00 0.000000e+00
 0.000000e+00 0.000000e+00 0.000000e+00 1.690341e-01 8.309659e-01 0.000000e+00 0.000000e+00
 0.000000e+00 0.000000e+00 0.000000e+00 0.000000e+00 6.321454e-01 3.678546e-01 0.000000e+00
 0.000000e+00 0.000000e+00 0.000000e+00 0.000000e+00 0.000000e+00 9.689166e-01 3.108344e-02
 0.000000e+00 0.000000e+00 0.000000e+00 0.000000e+00 0.000000e+00 0.000000e+00 0.000000e+00
<ENDHMM>
~h "D"
<BEGINHMM>
<NUMSTATES> 7
<STATE> 2
<SWEIGHTS> 5
 1.000000e+00 0.000000e+00 0.000000e+00 0.000000e+00 0.000000e+00
<STREAM> 1
<MEAN> 180
 4.993741e+00 2.208092e+00 1.815817e-01 3.975671e-01 1.179822e-01 1.523797e-01 3.130534e-04 5.505299e-02 -1.506647e-01 9.643436e-02 -8.952357e-02 6.148891e-02 -1.218245e-01 5.227893e-02 -1.549117e-01 1.087960e-01 1.346141e-02 -6.180562e-02 3.607268e-02 7.103948e-02 -1.621041e-01 4.831693e-02 2.635626e-02 -6.938698e-02 4.513411e-02 2.339037e-02 -8.089133e-02 8.415137e-02 -3.547990e-02 3.671965e-02 -3.028419e-02 5.815363e-02 -3.870879e-02 3.799718e-02 -3.764464e-02 3.892273e-02 -6.262919e-02 5.545741e-02 -4.756501e-02 3.217498e-02 -3.807720e-02 4.338719e-02 -3.956526e-02 3.107452e-02 -2.181549e-02 1.685923e-02 -2.214002e-02 2.923629e-02 -3.781217e-02 4.712810e-02 -5.007716e-02 4.507409e-02 -2.579748e-02 8.091030e-03 -7.860286e-03 2.865610e-02 -5.057159e-02 6.130603e-02 -5.690475e-02 4.099207e-02 -8.602497e-03 -1.215855e-02 -3.195776e-03 -1.573752e-03 3.159527e-03 7.052829e-04 -1.123673e-03 1.167937e-04 -5.669636e-03 3.303500e-03 5.013140e-03 -2.924533e-04 2.166428e-03 7.949572e-04 -8.479157e-04 -2.043554e-03 2.043528e-03 7.380266e-04 -3.884220e-04 -2.007203e-04 1.536475e-03 5.540126e-04 -1.983093e-03 1.414505e-03 2.076513e-03 -2.204810e-03 -1.936704e-03 1.505872e-03 -1.241917e-04 -1.863569e-03 5.506305e-04 1.301149e-03 -1.246050e-05 2.404629e-04 6.681946e-05 2.287901e-04 -1.618353e-05 -1.751414e-03 5.398617e-04 8.619821e-04 -9.338115e-04 2.813535e-04 2.948877e-04 -4.985856e-04 -2.617492e-04 1.270894e-03 -9.901226e-04 2.202747e-04 4.244181e-04 -9.809032e-04 9.667288e-04 -4.444731e-04 -1.978245e-04 9.206313e-04 -1.224977e-03 6.237507e-04 -4.135457e-04 6.182707e-04 -3.702754e-04 9.119854e-05 5.462654e-03 -7.883594e-03 -6.913983e-03 -3.149096e-04 1.055342e-03 5.477765e-04 -5.226673e-04 1.622581e-03 1.404454e-04 2.270039e-03 -1.251102e-04 -2.088177e-03 -1.618029e-03 9.443025e-04 1.007199e-03 -3.477569e-04 -8.225321e-04 -3.939494e-07 3.330811e-04 -1.479053e-03 7.393410e-04 2.551818e-03 -1.528876e-03 1.444411e-03 6.590311e-04 -7.943933e-05 8.993194e-04 7.611513e-05 -2.396004e-04 -5.398097e-05 7.385486e-04 -3.815040e-04 -1.722751e-04 -3.037534e-04 -7.163648e-04 1.233413e-03 2.988302e-04 -1.233642e-03 6.922465e-04 -6.034894e-04 -1.086120e-04 3.257804e-04 -9.771941e-04 1.487149e-04 1.220053e-05 4.959231e-04 -2.972927e-04 -4.957897e-04 2.672407e-04 -3.407898e-05 1.676208e-04 1.203493e-04 -7.748714e-04 2.177385e-04 8.669554e-04 -1.102824e-03 5.051966e-04 1.211930e-04 -6.334324e-04 6.299422e-04
<VARIANCE> 180
 1.507642e+00 1.449236e+00 3.364517e-01 1.686575e-01 1.650835e-01 1.056988e-01 6.768335e-02 1.203523e-01 5.501297e-02 9.940941e-02 3.848915e-02 3.718969e-02 3.152018e-02 4.009446e-02 2.988423e-02 3.954011e-02 2.686861e-02 2.215726e-02 1.978761e-02 1.949704e-02 1.556126e-02 1.746079e-02 1.424494e-02 1.390323e-02 1.493211e-02 1.442810e-02 1.156908e-02 1.175674e-02 1.239447e-02 1.036257e-02 8.731848e-03 7.024173e-03 8.499965e-03 7.782094e-03 6.078352e-03 5.807301e-03 7.016920e-03 6.535741e-03 5.073914e-03 4.473972e-03 4.609575e-03 4.600311e-03 4.644911e-03 3.825745e-03 3.783022e-03 4.193092e-03 4.131035e-03 3.241978e-03 3.621973e-03 3.893860e-03 3.495913e-03 3.559557e-03 3.078801e-03 2.683266e-03 2.772753e-03 2.843059e-03 2.814821e-03 2.492464e-03 2.257756e-03 2.396738e-03 3.644969e-02 2.369342e-02 1.306638e-02 6.562687e-03 5.972464e-03 5.319621e-03 4.264276e-03 4.027493e-03 4.247462e-03 4.001139e-03 3.661608e-03 3.259498e-03 3.028875e-03 2.737687e-03 2.772327e-03 2.926543e-03 2.524029e-03 2.590861e-03 2.526612e-03 2.086151e-03 2.247072e-03 2.291191e-03 2.011527e-03 1.828770e-03 2.023513e-03 1.715716e-03 1.626996e-03 1.440179e-03 1.448499e-03 1.506076e-03 1.456527e-03 1.240018e-03 1.273440e-03 1.173940e-03 1.115325e-03 1.059908e-03 1.103079e-03 9.721662e-04 9.757014e-04 8.608173e-04 8.282535e-04 7.914457e-04 8.131473e-04 7.617853e-04 6.999355e-04 6.749009e-04 6.612787e-04 5.998968e-04 6.313678e-04 5.817136e-04 6.106356e-04 5.851753e-04 5.293410e-04 5.231856e-04 5.034468e-04 5.357593e-04 5.095657e-04 4.849328e-04 4.674557e-04 4.290213e-04 2.153743e-02 1.599062e-02 1.824891e-02 1.235048e-02 1.124988e-02 1.081055e-02 9.728169e-03 1.017362e-02 1.048454e-02 9.889795e-03 1.035317e-02 9.074991e-03 8.792132e-03 8.682719e-03 8.383960e-03 8.800419e-03 7.935114e-03 8.689326e-03 7.579961e-03 7.326264e-03 7.616821e-03 7.642990e-03 7.432309e-03 6.756767e-03 6.783096e-03 6.550709e-03 6.242177e-03 5.654538e-03 5.766255e-03 5.390446e-03 5.013317e-03 4.953516e-03 4.732044e-03 4.607249e-03 4.593102e-03 4.186890e-03 4.155952e-03 3.630348e-03 3.690778e-03 3.572562e-03 3.353743e-03 3.462089e-03 3.323728e-03 3.211002e-03 2.761645e-03 2.602755e-03 2.590683e-03 2.364589e-03 2.785839e-03 2.535406e-03 2.438952e-03 2.342271e-03 2.168946e-03 2.057906e-03 2.080067e-03 2.189365e-03 2.050398e-03 1.934858e-03 2.002368e-03 1.753083e-03
<GCONST> -6.314663e+02
<STREAM> 2
<NUMMIXES> 2
<MIXTURE> 1 7.851527e-01
<MEAN> 1
 5.008571e+00
<VARIANCE> 1
 8.779721e-02
<GCONST> -5.948486e-01
<MIXTURE> 2 2.148460e-01
<MEAN> 0
<VARIANCE> 0
<GCONST> 0.000000e+00
<STREAM> 3
<NUMMIXES> 2
<MIXTURE> 1 7.638923e-01
<MEAN> 1
 -3.487603e-03
<VARIANCE> 1
 7.043432e-04
<GCONST> -5.420368e+00
<MIXTURE> 2 2.361066e-01
<MEAN> 0
<VARIANCE> 0
<GCONST> 0.000000e+00
<STREAM> 4
<NUMMIXES> 2
<MIXTURE> 1 7.638923e-01
<MEAN> 1
 2.324353e-04
<VARIANCE> 1
 2.036097e-03
<GCONST> -4.358843e+00
<MIXTURE> 2 2.361066e-01
<MEAN> 0
<VARIANCE> 0
<GCONST> 0.000000e+00
<STREAM> 5
<MEAN> 15
 -3.830989e+00 -2.377310e+00 -2.368077e+00 -2.388753e+00 -2.402469e+00 -7.553011e-02 -3.592924e-02 -1.965724e-02 -2.911957e-03 -1.251896e-02 -2.596732e-02 -1.092122e-03 -3.004714e-02 -1.177771e-02 1.103855e-02
<VARIANCE> 15
 1.052655e+01 2.836221e+00 2.652512e+00 2.657735e+00 2.469060e+00 1.324150e+00 5.323387e-01 5.384216e-01 5.416495e-01 4.493600e-01 6.956776e+00 4.239869e+00 4.284614e+00 4.489882e+00 3.803728e+00
<GCONST> 3.911655e+01
<STATE> 3
<SWEIGHTS> 5
 1.000000e+00 0.000000e+00 0.000000e+00 0.000000e+00 0.000000e+00
<STREAM> 1
<MEAN> 180
 4.926371e+00 2.079808e+00 1.308428e-01 4.616813e-01 1.359275e-01 8.789028e-02 -1.156184e-02 1.194286e-01 -1.882719e-01 6.798032e-02 -6.395437e-02 4.765329e-02 -1.272202e-01 6.199791e-02 -1.753533e-01 1.316527e-01 1.602708e-02 -8.075959e-02 5.285658e-02 5.439296e-02 -1.418051e-01 6.932610e-02 9.437526e-03 -4.740267e-02 4.353944e-02 1.218793e-02 -8.596788e-02 8.875035e-02 -3.197129e-02 2.807838e-02 -1.786948e-02 5.563486e-02 -3.248418e-02 3.427499e-02 -3.900195e-02 3.857291e-02 -6.253888e-02 4.943152e-02 -4.779796e-02 3.437500e-02 -4.450178e-02 4.320837e-02 -3.464550e-02 3.045487e-02 -2.948633e-02 2.782236e-02 -3.540079e-02 3.976353e-02 -3.805050e-02 3.790529e-02 -3.738477e-02 3.570371e-02 -2.314772e-02 1.271630e-02 -1.442924e-02 3.099285e-02 -4.578701e-02 5.537532e-02 -5.593011e-02 4.373000e-02 -8.795206e-04 -1.639959e-02 -1.336917e-02 -1.089340e-02 -2.067834e-03 -1.257190e-03 -5.758899e-03 2.394455e-03 -1.333896e-03 1.787294e-03 3.692885e-03 -2.168475e-03 -5.235107e-04 1.100123e-03 -8.634705e-04 -1.002730e-03 1.178458e-03 7.881750e-04 2.485194e-03 -1.602693e-03 -1.564150e-03 2.090155e-03 6.077100e-04 2.043682e-03 -1.640059e-03 -4.453128e-05 5.396539e-04 -5.459068e-04 -3.689458e-04 1.487853e-03 1.898312e-03 -8.937415e-04 -5.478084e-05 1.797494e-03 -1.694203e-03 1.296482e-03 7.016889e-04 -1.660070e-03 3.171917e-04 7.746136e-05 -5.574813e-04 7.222134e-05 -4.122219e-04 -9.606452e-04 1.320888e-04 8.217819e-04 -1.606076e-03 7.357186e-04 -2.683623e-04 -8.040202e-04 1.125502e-03 -4.209682e-04 -1.909447e-04 2.946453e-05 1.688237e-04 -3.973075e-04 6.182027e-04 8.553220e-05 -8.011546e-04 9.739776e-04 -1.150163e-02 -4.537151e-03 3.613357e-03 3.013348e-03 -9.702629e-04 1.284271e-03 1.022721e-03 -1.396674e-03 2.630529e-03 -1.237225e-03 -2.322396e-03 4.665353e-04 2.106298e-03 5.881300e-04 -3.317700e-04 -1.126514e-03 8.604813e-04 1.481383e-03 -2.305804e-04 -1.191856e-03 -3.047764e-03 -3.851518e-03 3.608875e-03 -1.095743e-03 -4.284829e-03 3.474553e-04 -5.999580e-04 -7.497689e-04 9.959501e-04 2.746302e-03 -8.750177e-04 -1.125714e-03 -5.756836e-04 5.250015e-04 1.738924e-03 -1.640828e-03 -1.091489e-03 3.028796e-03 -6.590782e-04 -2.263451e-04 2.569312e-03 -2.365368e-03 4.231147e-04 1.041914e-03 -1.248350e-03 -1.772374e-04 -4.060682e-04 6.087971e-04 -8.496062e-04 1.526850e-03 -1.153452e-03 1.044870e-03 -7.356281e-04 -5.205130e-04 8.558003e-04 9.903644e-05 1.237083e-03 -1.908868e-03 7.114245e-04 6.289046e-04
<VARIANCE> 180
 1.985189e+00 1.470444e+00 3.359181e-01 2.273382e-01 1.861367e-01 9.836712e-02 6.577075e-02 9.805316e-02 6.209788e-02 7.832900e-02 3.924142e-02 3.601349e-02 3.002191e-02 4.240735e-02 2.944196e-02 4.230641e-02 3.260444e-02 2.506327e-02 2.194254e-02 2.567164e-02 1.822303e-02 1.869309e-02 1.434244e-02 1.407541e-02 1.328777e-02 1.291364e-02 1.245519e-02 1.218023e-02 1.158593e-02 9.587275e-03 9.924448e-03 8.167095e-03 8.293740e-03 7.616056e-03 5.558931e-03 6.547313e-03 7.227054e-03 6.122615e-03 5.194568e-03 4.064079e-03 4.693008e-03 4.334978e-03 4.409858e-03 4.204710e-03 3.748090e-03 3.694550e-03 3.542131e-03 3.566604e-03 3.534072e-03 3.619059e-03 3.462306e-03 3.454452e-03 3.339907e-03 3.229076e-03 2.889475e-03 2.756330e-03 2.972590e-03 2.791130e-03 2.345437e-03 2.453221e-03 2.033755e-02 1.547373e-02 7.992608e-03 5.897716e-03 5.060894e-03 3.965653e-03 3.505134e-03 3.053106e-03 2.891362e-03 3.354036e-03 2.881158e-03 2.483268e-03 2.554055e-03 2.466627e-03 2.471696e-03 2.673527e-03 2.435100e-03 2.313394e-03 2.235411e-03 1.949562e-03 1.827852e-03 1.994636e-03 1.850467e-03 1.798715e-03 1.857492e-03 1.591659e-03 1.612210e-03 1.449515e-03 1.434105e-03 1.434176e-03 1.174857e-03 1.175195e-03 1.195380e-03 1.193063e-03 1.110177e-03 1.025798e-03 9.400559e-04 9.048114e-04 8.245951e-04 7.471641e-04 8.166639e-04 7.614440e-04 7.283423e-04 7.014883e-04 6.411672e-04 5.635566e-04 5.603507e-04 5.480548e-04 6.247816e-04 5.678938e-04 5.694190e-04 5.647411e-04 4.999239e-04 4.427979e-04 4.591893e-04 4.515348e-04 4.344135e-04 4.372359e-04 4.372296e-04 4.127720e-04 1.072306e-02 1.009698e-02 1.021648e-02 8.735558e-03 7.417860e-03 7.414773e-03 6.550907e-03 7.710642e-03 6.955646e-03 7.646211e-03 6.855202e-03 5.684970e-03 6.111848e-03 6.830326e-03 6.034327e-03 6.738478e-03 6.007166e-03 6.260146e-03 5.722431e-03 5.779502e-03 5.604936e-03 5.556108e-03 5.830071e-03 5.466153e-03 5.149506e-03 4.635617e-03 4.346535e-03 4.127367e-03 4.305787e-03 4.498370e-03 3.737376e-03 3.938941e-03 3.802075e-03 3.862891e-03 3.403508e-03 3.270311e-03 2.961317e-03 2.797071e-03 2.843773e-03 3.030809e-03 2.589342e-03 2.267150e-03 2.500317e-03 2.421413e-03 2.154734e-03 2.034820e-03 2.165671e-03 1.983420e-03 2.110200e-03 2.160270e-03 2.114367e-03 2.090771e-03 1.858802e-03 1.619856e-03 1.639450e-03 1.805274e-03 1.739229e-03 1.646310e-03 1.546794e-03 1.483468e-03
<GCONST> -6.550176e+02
<STREAM> 2
<NUMMIXES> 2
<MIXTURE> 1 7.727503e-01
<MEAN> 1
 4.917287e+00
<VARIANCE> 1
 9.558862e-02
<GCONST> -5.098245e-01
<MIXTURE> 2 2.272492e-01
<MEAN> 0
<VARIANCE> 0
<GCONST> 0.000000e+00
<STREAM> 3
<NUMMIXES> 2
<MIXTURE> 1 7.628059e-01
<MEAN> 1
 -6.378972e-03
<VARIANCE> 1
 7.128692e-04
<GCONST> -5.408336e+00
<MIXTURE> 2 2.371938e-01
<MEAN> 0
<VARIANCE> 0
<GCONST> 0.000000e+00
<STREAM> 4
<NUMMIXES> 2
<MIXTURE> 1 7.628059e-01
<MEAN> 1
 -1.350376e-03
<VARIANCE> 1
 2.036018e-03
<GCONST> -4.358882e+00
<MIXTURE> 2 2.371938e-01
<MEAN> 0
<VARIANCE> 0
<GCONST> 0.000000e+00
<STREAM> 5
<MEAN> 15
 -4.546573e+00 -2.689111e+00 -2.584595e+00 -2.495050e+00 -2.463776e+00 -1.047494e-01 -3.125170e-02 -2.616909e-02 -1.534239e-02 -6.629123e-03 1.339559e-01 3.957662e-02 1.512799e-01 4.049641e-02 3.783735e-03
<VARIANCE> 15
 1.598021e+01 4.196024e+00 3.155205e+00 3.017514e+00 3.022986e+00 1.357157e+00 7.098576e-01 5.751318e-01 4.901142e-01 4.276951e-01 6.593379e+00 3.887995e+00 4.306742e+00 3.875831e+00 4.171365e+00
<GCONST> 4.046761e+01
<STATE> 4
<SWEIGHTS> 5
 1.000000e+00 0.000000e+00 0.000000e+00 0.000000e+00 0.000000e+00
<STREAM> 1
<MEAN> 180
 5.151544e+00 2.361746e+00 1.437597e-01 4.499160e-01 1.235738e-01 5.528465e-02 -1.234521e-02 2.491404e-01 -2.501523e-01 -1.040622e-02 -5.159096e-02 2.620147e-02 -1.053149e-01 2.716540e-02 -1.714526e-01 1.833503e-01 -2.407123e-02 -8.022610e-02 7.588293e-02 1.246308e-02 -1.481140e-01 8.254448e-02 1.872012e-02 -5.259536e-02 3.052705e-02 4.725062e-02 -1.062739e-01 7.703552e-02 -9.397183e-03 1.144772e-02 2.114349e-03 5.940587e-02 -3.140358e-02 3.987984e-02 -4.056980e-02 3.820704e-02 -6.905952e-02 5.759042e-02 -5.544598e-02 3.766666e-02 -4.973112e-02 4.330321e-02 -2.303207e-02 1.342232e-02 -1.906353e-02 2.795676e-02 -4.374329e-02 4.241019e-02 -3.677075e-02 3.533503e-02 -3.592473e-02 3.731291e-02 -2.327920e-02 7.510044e-03 -7.772248e-03 2.854273e-02 -4.699264e-02 5.800342e-02 -6.131707e-02 5.164194e-02 -9.341654e-03 -2.080378e-02 -6.352485e-03 -5.635537e-03 -2.274982e-03 1.383615e-03 -3.349630e-03 1.787520e-04 -8.848013e-04 -5.055995e-04 2.811194e-03 -1.949572e-03 1.292758e-04 3.987126e-03 2.197455e-04 6.625636e-04 -5.574704e-04 5.002507e-04 2.578588e-03 -1.545514e-03 -2.226555e-03 -1.407812e-03 1.039628e-04 7.864050e-04 -1.790176e-03 8.032740e-04 6.945446e-04 -1.190929e-04 7.409288e-04 9.362240e-04 7.411896e-04 -9.404494e-04 -6.874042e-04 6.790906e-04 -1.566393e-04 6.727215e-04 -6.857892e-04 1.060408e-03 -1.711051e-04 -9.648346e-04 8.460738e-04 -7.336058e-05 -1.504886e-03 3.551053e-04 -3.802032e-04 4.890836e-04 -7.160916e-04 2.381310e-04 2.789739e-05 -4.694197e-04 2.682606e-04 2.751623e-04 -8.271475e-04 4.952487e-04 5.096325e-04 -4.879182e-04 6.629026e-04 -1.032446e-03 9.350324e-04 -1.708260e-04 -1.211879e-02 -2.484312e-03 5.129364e-03 -3.281746e-04 -8.902709e-04 2.361920e-03 1.071641e-03 4.437455e-05 1.035762e-03 -2.102493e-03 2.442159e-03 1.979511e-03 -8.478744e-04 2.573718e-03 2.236603e-03 5.988915e-04 -2.489202e-03 -9.984437e-04 -2.381144e-04 -2.779185e-04 3.845496e-04 -8.617212e-04 -4.078921e-04 -8.846077e-04 4.401850e-04 1.929693e-03 1.484714e-04 6.279288e-04 5.341339e-04 -2.036819e-03 -5.164419e-04 2.082811e-04 -5.141378e-04 -4.727578e-04 1.138639e-03 5.735948e-05 -1.328420e-03 1.041391e-03 -2.320551e-04 -1.227757e-03 7.968345e-05 1.251582e-03 -1.723482e-03 1.265114e-03 -5.913608e-04 -9.681245e-05 2.336212e-03 -1.626256e-03 8.994766e-04 -8.538561e-04 -4.983936e-06 -6.750290e-05 -6.093344e-05 2.601385e-04 3.989019e-04 -1.548488e-04 -8.296880e-04 3.625401e-05 1.129896e-03 -1.153304e-03
<VARIANCE> 180
 1.572901e+00 1.319814e+00 3.723314e-01 1.266988e-01 1.895186e-01 1.266530e-01 6.474809e-02 1.038594e-01 5.845259e-02 7.020044e-02 3.834403e-02 3.596898e-02 2.631592e-02 3.334812e-02 2.539316e-02 4.144765e-02 3.595084e-02 2.462515e-02 2.164659e-02 2.583515e-02 1.868971e-02 1.730997e-02 1.293088e-02 1.394011e-02 1.347167e-02 1.339446e-02 1.327533e-02 1.194681e-02 1.143583e-02 1.057930e-02 1.109828e-02 7.161036e-03 8.157209e-03 7.808367e-03 6.010223e-03 6.133583e-03 6.487949e-03 6.286826e-03 5.372726e-03 4.313874e-03 4.870513e-03 4.257947e-03 5.256431e-03 5.478826e-03 3.662139e-03 3.347284e-03 3.703408e-03 3.574081e-03 3.641682e-03 3.636342e-03 3.403522e-03 3.440928e-03 2.992284e-03 2.937352e-03 2.973696e-03 3.123052e-03 3.121532e-03 2.826232e-03 2.788182e-03 3.017703e-03 1.492320e-02 1.501052e-02 7.235901e-03 4.755267e-03 4.304714e-03 3.770942e-03 3.087560e-03 2.743683e-03 2.956361e-03 2.451151e-03 2.464790e-03 2.226554e-03 2.179362e-03 2.105506e-03 2.175560e-03 2.216056e-03 2.255101e-03 2.063900e-03 1.866313e-03 1.873049e-03 1.763263e-03 1.588074e-03 1.426104e-03 1.424266e-03 1.486213e-03 1.367892e-03 1.365946e-03 1.301097e-03 1.273762e-03 1.237258e-03 1.109626e-03 1.011956e-03 1.088968e-03 1.012757e-03 9.807795e-04 9.100806e-04 8.246094e-04 8.027059e-04 6.562053e-04 7.206896e-04 6.779943e-04 6.478709e-04 6.665926e-04 6.607840e-04 5.963469e-04 5.395759e-04 5.879559e-04 5.631247e-04 5.321009e-04 5.257480e-04 4.813287e-04 5.127008e-04 4.791299e-04 4.454350e-04 4.462515e-04 4.662661e-04 4.435476e-04 4.314570e-04 4.122927e-04 3.988139e-04 1.007374e-02 7.855727e-03 8.225152e-03 6.272911e-03 6.188415e-03 6.199636e-03 5.315918e-03 5.343535e-03 5.182327e-03 5.997867e-03 5.244994e-03 4.731836e-03 5.255941e-03 4.751316e-03 5.082321e-03 5.228736e-03 4.734755e-03 4.839833e-03 4.766656e-03 4.747111e-03 4.236117e-03 4.064097e-03 4.061518e-03 3.802740e-03 4.232571e-03 3.647898e-03 3.655437e-03 3.649634e-03 3.313610e-03 3.350059e-03 2.748689e-03 2.954006e-03 3.092641e-03 2.863079e-03 2.993684e-03 2.662210e-03 2.501585e-03 2.383101e-03 1.973728e-03 2.181176e-03 2.090959e-03 1.935967e-03 1.919084e-03 2.211845e-03 1.789709e-03 1.690559e-03 1.656369e-03 1.586983e-03 1.716122e-03 1.677712e-03 1.629986e-03 1.562698e-03 1.460921e-03 1.316789e-03 1.362499e-03 1.530111e-03 1.393368e-03 1.278823e-03 1.227592e-03 1.201250e-03
<GCONST> -6.761042e+02
<STREAM> 2
<NUMMIXES> 2
<MIXTURE> 1 8.473582e-01
<MEAN> 1
 4.820753e+00
<VARIANCE> 1
 6.975930e-02
<GCONST> -8.248274e-01
<MIXTURE> 2 1.526411e-01
<MEAN> 0
<VARIANCE> 0
<GCONST> 0.000000e+00
<STREAM> 3
<NUMMIXES> 2
<MIXTURE> 1 8.381259e-01
<MEAN> 1
 -5.670511e-03
<VARIANCE> 1
 6.164910e-04
<GCONST> -5.553590e+00
<MIXTURE> 2 1.618732e-01
<MEAN> 0
<VARIANCE> 0
<GCONST> 0.000000e+00
<STREAM> 4
<NUMMIXES> 2
<MIXTURE> 1 8.381259e-01
<MEAN> 1
 2.857115e-04
<VARIANCE> 1
 1.920348e-03
<GCONST> -4.417372e+00
<MIXTURE> 2 1.618732e-01
<MEAN> 0
<VARIANCE> 0
<GCONST> 0.000000e+00
<STREAM> 5
<MEAN> 15
 -5.014400e+00 -3.092455e+00 -2.819280e+00 -2.680352e+00 -2.719901e+00 9.286314e-03 1.930287e-02 4.907127e-02 2.730611e-02 2.661823e-02 2.113629e-02 1.430114e-02 -1.802605e-02 9.027303e-03 7.022519e-02
<VARIANCE> 15
 1.484632e+01 4.316461e+00 2.718288e+00 2.379644e+00 2.395242e+00 1.447291e+00 6.357145e-01 4.749916e-01 4.654833e-01 4.216543e-01 7.766997e+00 4.115969e+00 3.598451e+00 2.825386e+00 3.216681e+00
<GCONST> 3.896502e+01
<STATE> 5
<SWEIGHTS> 5
 1.000000e+00 0.000000e+00 0.000000e+00 0.000000e+00 0.000000e+00
<STREAM> 1
<MEAN> 180
 5.244720e+00 2.629781e+00 4.702586e-02 4.547224e-01 3.571229e-01 1.754073e-01 -4.658934e-03 3.296640e-01 -2.752303e-01 -1.061997e-01 -4.440184e-02 1.919113e-02 -1.291092e-01 -4.292228e-02 -1.731712e-01 2.919395e-01 -4.698083e-02 -1.206870e-01 1.441734e-01 -3.152900e-02 -1.746966e-01 1.088965e-01 -5.265044e-03 -6.840225e-02 2.753353e-02 5.422904e-02 -1.091470e-01 8.553703e-02 7.805000e-03 9.617198e-03 4.575362e-02 4.170847e-02 -2.465016e-02 4.030862e-02 -3.757691e-02 3.498133e-02 -8.554623e-02 8.416215e-02 -7.196267e-02 2.169082e-02 -2.575645e-02 2.217780e-02 -2.149847e-02 2.608843e-02 -4.020248e-02 3.683225e-02 -4.516376e-02 2.844098e-02 -2.028044e-02 2.452617e-02 -3.604433e-02 4.495327e-02 -3.292066e-02 1.469618e-02 -5.315363e-03 2.232642e-02 -3.916880e-02 4.851756e-02 -5.282996e-02 4.448380e-02 -2.227418e-02 -1.051088e-02 4.724842e-03 -2.009548e-03 1.324422e-03 4.459486e-03 -2.882475e-04 -1.242839e-03 3.261366e-03 -2.167194e-03 -3.360179e-04 5.254802e-04 -1.977045e-03 -7.449705e-04 1.807185e-03 1.157176e-03 7.646248e-04 5.054700e-04 2.335923e-04 1.460294e-04 2.682399e-04 -6.744938e-04 -7.490566e-04 -2.855830e-04 -7.284444e-04 4.143881e-04 4.146556e-04 -1.702487e-04 -1.755929e-04 6.977986e-04 -1.285212e-04 -1.790705e-04 2.228975e-04 -3.437801e-04 2.597347e-04 -5.289576e-04 8.982731e-05 4.728664e-05 -4.787791e-04 -4.120758e-04 5.299870e-04 -4.947111e-04 -2.895188e-04 7.095716e-04 -5.331810e-04 1.478474e-04 2.431854e-04 -3.972118e-04 1.546509e-04 2.067388e-04 -2.757962e-04 1.158096e-04 1.696433e-04 -3.495860e-04 3.850884e-04 2.099125e-05 -2.774442e-05 -3.023722e-04 5.488600e-04 -5.866132e-04 -5.185854e-03 -1.485373e-03 1.998854e-03 5.764802e-04 2.628323e-04 3.922645e-04 9.496236e-04 -1.278289e-04 5.645091e-04 -4.644718e-04 -9.804347e-04 6.498252e-04 -1.501731e-04 -7.721033e-04 2.863975e-04 -4.101711e-04 5.577925e-04 3.730369e-04 -1.254852e-03 2.796504e-04 6.861568e-04 -3.339729e-04 -8.647006e-05 1.930753e-04 1.316319e-04 -1.832681e-04 2.163934e-05 -8.856913e-05 -2.909790e-04 -9.514308e-05 -3.619328e-04 4.357269e-04 1.178602e-04 -2.246176e-04 9.476564e-05 -1.298527e-04 3.900225e-04 -1.116488e-04 -2.842578e-06 1.052914e-04 5.706228e-05 -2.876276e-04 2.921721e-04 9.794824e-05 -6.486769e-05 9.869619e-05 -2.025157e-04 -1.423376e-04 3.327017e-04 1.367703e-04 -3.212944e-04 6.759650e-05 1.477148e-04 -1.465184e-04 5.910476e-05 1.760881e-05 -9.053480e-05 1.883258e-04 -1.590475e-04 -4.107336e-06
<VARIANCE> 180
 8.707081e-01 4.154529e-01 2.191960e-01 1.070224e-01 1.983465e-01 9.865428e-02 6.878056e-02 6.084236e-02 5.374999e-02 5.677630e-02 4.298990e-02 3.382903e-02 2.301146e-02 2.635734e-02 2.618749e-02 3.520852e-02 3.406405e-02 2.352944e-02 2.283986e-02 1.977882e-02 1.857086e-02 1.556102e-02 1.400913e-02 1.328879e-02 1.364772e-02 1.137181e-02 1.136155e-02 1.014603e-02 9.408486e-03 8.709207e-03 9.660107e-03 8.889181e-03 7.524457e-03 7.880124e-03 7.458896e-03 6.749732e-03 6.747907e-03 6.072115e-03 5.456024e-03 5.061623e-03 5.216853e-03 4.635596e-03 4.590787e-03 4.584987e-03 4.193647e-03 3.689337e-03 3.648140e-03 3.428099e-03 3.754944e-03 4.073110e-03 4.192403e-03 3.854647e-03 3.486773e-03 2.936314e-03 3.245504e-03 3.145543e-03 3.028949e-03 3.066018e-03 3.130028e-03 3.075714e-03 1.307430e-02 7.413842e-03 5.714855e-03 3.871068e-03 3.308089e-03 2.513789e-03 2.291461e-03 2.019018e-03 2.215508e-03 2.053834e-03 1.893582e-03 1.589555e-03 1.439394e-03 1.485632e-03 1.475233e-03 1.445565e-03 1.394682e-03 1.368148e-03 1.383079e-03 1.316641e-03 1.307151e-03 1.253970e-03 1.155828e-03 1.111158e-03 1.127782e-03 1.053935e-03 1.017825e-03 9.789417e-04 9.481009e-04 9.052225e-04 8.116796e-04 8.231792e-04 8.192480e-04 7.671924e-04 7.641998e-04 7.052385e-04 6.931997e-04 6.553637e-04 6.022975e-04 5.982785e-04 5.880453e-04 5.737681e-04 5.952748e-04 5.665669e-04 5.359563e-04 4.923259e-04 4.948155e-04 4.794934e-04 4.916897e-04 4.587843e-04 4.443531e-04 4.331332e-04 4.001162e-04 3.926582e-04 3.992132e-04 3.743684e-04 3.900067e-04 3.777450e-04 3.587095e-04 3.484177e-04 5.934033e-03 4.678030e-03 4.557945e-03 3.804669e-03 3.206671e-03 2.771706e-03 2.670865e-03 2.849594e-03 2.755658e-03 2.957328e-03 2.703086e-03 2.470168e-03 2.508686e-03 2.501380e-03 2.620138e-03 2.430122e-03 2.391467e-03 2.404456e-03 2.307610e-03 2.264080e-03 2.367149e-03 2.239830e-03 2.174192e-03 2.184254e-03 2.083749e-03 1.993305e-03 2.024767e-03 1.993456e-03 1.980708e-03 1.843572e-03 1.727344e-03 1.687164e-03 1.767601e-03 1.577682e-03 1.598860e-03 1.527722e-03 1.447246e-03 1.439303e-03 1.334552e-03 1.322250e-03 1.288936e-03 1.291756e-03 1.294755e-03 1.230547e-03 1.215214e-03 1.126759e-03 1.100816e-03 1.059052e-03 1.075317e-03 1.014063e-03 9.872897e-04 9.864816e-04 9.394682e-04 8.803221e-04 8.875544e-04 8.902041e-04 8.604364e-04 8.210142e-04 7.886314e-04 7.724120e-04
<GCONST> -7.277473e+02
<STREAM> 2
<NUMMIXES> 2
<MIXTURE> 1 9.646264e-01
<MEAN> 1
 4.645804e+00
<VARIANCE> 1
 4.345709e-02
<GCONST> -1.298104e+00
<MIXTURE> 2 3.537303e-02
<MEAN> 0
<VARIANCE> 0
<GCONST> 0.000000e+00
<STREAM> 3
<NUMMIXES> 2
<MIXTURE> 1 9.604671e-01
<MEAN> 1
 -2.908420e-03
<VARIANCE> 1
 4.165334e-04
<GCONST> -5.945667e+00
<MIXTURE> 2 3.953256e-02
<MEAN> 0
<VARIANCE> 0
<GCONST> 0.000000e+00
<STREAM> 4
<NUMMIXES> 2
<MIXTURE> 1 9.600781e-01
<MEAN> 1
 1.094515e-04
<VARIANCE> 1
 7.959155e-04
<GCONST> -5.298141e+00
<MIXTURE> 2 3.992159e-02
<MEAN> 0
<VARIANCE> 0
<GCONST> 0.000000e+00
<STREAM> 5
<MEAN> 15
 -5.535592e+00 -3.343590e+00 -3.044564e+00 -2.855265e+00 -2.890189e+00 8.575460e-02 3.174173e-02 1.720325e-02 1.374015e-02 1.696587e-02 3.015171e-02 8.757110e-03 -1.530976e-03 4.370613e-03 -1.118512e-02
<VARIANCE> 15
 1.274931e+01 3.002780e+00 1.501487e+00 1.170078e+00 1.154656e+00 1.218580e+00 5.099201e-01 3.674840e-01 3.086777e-01 3.119282e-01 7.922260e+00 2.994079e+00 2.432507e+00 2.192646e+00 1.984976e+00
<GCONST> 3.362912e+01
<STATE> 6
<SWEIGHTS> 5
 1.000000e+00 0.000000e+00 0.000000e+00 0.000000e+00 0.000000e+00
<STREAM> 1
<MEAN> 180
 4.462014e+00 1.487007e+00 -2.749562e-02 3.438692e-01 1.432162e-01 2.688882e-01 -1.011077e-01 1.513789e-01 -2.278244e-01 -8.216414e-02 -4.176036e-02 4.473289e-02 -2.044108e-01 -3.708975e-02 -8.961553e-02 2.212187e-01 2.308325e-02 -6.117057e-03 6.899109e-02 -3.089511e-03 -1.451570e-01 7.923272e-02 8.786254e-03 -5.504142e-02 2.474887e-02 5.594705e-02 -1.176101e-01 6.053879e-02 -2.124274e-03 3.747503e-02 1.413012e-04 4.168540e-02 -2.531104e-02 3.575324e-02 -3.286902e-02 3.050187e-02 -7.383230e-02 6.741370e-02 -7.348622e-02 2.915432e-02 -2.046973e-02 1.109562e-02 -2.730908e-02 4.646435e-02 -5.582862e-02 5.140627e-02 -5.088327e-02 2.381243e-02 -7.310002e-03 1.402369e-02 -3.190424e-02 5.171223e-02 -4.547245e-02 2.505251e-02 -5.231104e-03 1.521884e-02 -2.891400e-02 4.157270e-02 -4.844834e-02 4.525600e-02 -5.508496e-02 -5.208194e-02 -4.630325e-03 -3.325859e-03 -6.467020e-03 7.757716e-04 3.372526e-03 -4.188665e-03 4.291708e-03 1.506399e-03 -2.301171e-03 2.268973e-04 -6.843996e-04 -7.341267e-05 2.578181e-03 -5.719432e-03 6.108432e-04 2.944554e-03 -5.586465e-03 8.364065e-04 1.464682e-03 -2.955066e-03 1.565533e-03 1.891130e-03 -5.914209e-04 1.021258e-03 2.108708e-03 -1.289030e-03 -8.390330e-04 9.627138e-04 -2.217472e-03 -1.866785e-04 8.578802e-05 5.205122e-04 5.662146e-04 8.593432e-04 1.762422e-03 -1.924095e-03 1.588342e-03 -1.029876e-04 -1.300607e-03 4.296766e-04 -2.736237e-04 1.784981e-04 1.841831e-04 -1.791188e-04 -2.450772e-04 -1.125714e-05 5.563505e-04 -2.755494e-04 -4.623727e-04 -2.710405e-05 1.225600e-04 2.941987e-04 1.787972e-05 -2.650051e-04 -3.920608e-05 1.885572e-04 3.721768e-04 -6.331824e-04 -4.503816e-03 6.953442e-04 -3.853477e-04 2.592159e-05 1.919323e-03 -1.999466e-03 -1.103352e-03 -1.928843e-03 -4.350737e-04 1.775475e-03 1.957761e-05 -1.185508e-03 1.164073e-03 1.262325e-04 -2.131030e-04 -1.159515e-03 -6.339056e-04 3.796079e-04 5.109712e-04 6.712070e-04 1.315524e-03 3.884578e-04 4.345826e-05 -3.092911e-04 -1.360493e-03 -1.373620e-04 1.325020e-03 -2.664926e-04 -1.960548e-04 9.522996e-04 4.134160e-04 -1.328601e-03 4.509828e-04 6.307577e-04 -9.890428e-04 -1.930135e-04 7.439166e-04 -1.379150e-03 7.064037e-04 7.268048e-04 -6.918682e-04 4.472573e-04 3.660236e-04 -9.670932e-04 8.761495e-04 -9.671398e-05 -4.002377e-04 7.290657e-04 -8.889987e-04 -2.920189e-04 1.118684e-03 -5.427740e-04 -7.693077e-05 6.051566e-04 -1.078389e-03 6.203112e-05 6.499519e-04 -6.810036e-04 4.061153e-04 -5.338163e-05
<VARIANCE> 180
 1.305061e+00 1.449963e+00 4.244231e-01 2.371351e-01 2.278318e-01 7.881531e-02 9.241680e-02 6.266110e-02 6.749871e-02 5.901308e-02 3.534181e-02 3.041747e-02 2.573454e-02 2.895269e-02 2.230985e-02 3.177968e-02 2.290135e-02 2.537960e-02 2.238461e-02 1.811912e-02 1.546710e-02 1.803016e-02 1.430761e-02 1.527267e-02 1.565707e-02 1.171816e-02 1.338200e-02 1.007604e-02 9.287193e-03 8.674790e-03 7.970393e-03 7.082770e-03 7.547911e-03 7.346889e-03 7.140240e-03 6.665078e-03 6.304081e-03 6.912029e-03 6.040296e-03 5.423059e-03 5.742694e-03 5.768028e-03 4.482101e-03 4.599663e-03 4.347034e-03 4.211179e-03 4.091245e-03 3.808230e-03 3.513981e-03 4.000254e-03 3.881531e-03 3.752237e-03 3.342247e-03 3.077660e-03 2.891067e-03 2.610300e-03 2.649387e-03 2.941898e-03 2.782303e-03 2.381635e-03 1.888407e-02 1.972071e-02 9.191669e-03 6.197961e-03 5.307254e-03 3.682134e-03 4.159194e-03 3.346006e-03 3.639687e-03 3.397192e-03 2.815369e-03 2.651979e-03 2.548271e-03 2.638062e-03 2.754777e-03 2.605457e-03 2.646368e-03 2.373323e-03 2.503454e-03 2.296529e-03 2.176172e-03 2.112954e-03 2.077613e-03 2.016844e-03 1.972461e-03 1.775108e-03 1.785723e-03 1.674887e-03 1.689641e-03 1.573688e-03 1.491722e-03 1.404455e-03 1.334835e-03 1.257532e-03 1.367672e-03 1.222554e-03 1.143475e-03 1.147280e-03 1.038847e-03 9.777658e-04 9.246789e-04 9.352866e-04 8.438919e-04 8.911788e-04 8.030789e-04 7.751740e-04 7.439100e-04 6.733505e-04 7.189803e-04 6.921437e-04 6.601432e-04 6.274793e-04 6.176438e-04 5.745479e-04 5.628002e-04 5.250878e-04 5.383592e-04 4.923936e-04 4.755280e-04 4.685354e-04 9.988986e-03 1.105238e-02 9.347645e-03 7.813202e-03 7.436114e-03 6.497432e-03 6.572157e-03 6.444499e-03 6.726603e-03 6.821414e-03 6.382795e-03 6.107229e-03 5.905384e-03 5.754374e-03 6.311465e-03 5.789628e-03 6.319328e-03 6.042930e-03 5.975292e-03 5.742542e-03 5.742914e-03 5.447910e-03 5.314513e-03 5.028880e-03 4.846101e-03 4.781498e-03 4.580027e-03 4.418935e-03 4.448679e-03 4.216166e-03 3.912271e-03 3.816578e-03 3.414152e-03 3.388571e-03 3.293104e-03 3.355442e-03 3.051340e-03 2.956563e-03 2.840339e-03 2.664776e-03 2.437815e-03 2.442858e-03 2.274129e-03 2.327161e-03 2.302775e-03 2.119565e-03 2.198780e-03 1.995402e-03 2.004864e-03 1.883088e-03 1.833145e-03 1.722953e-03 1.648328e-03 1.609593e-03 1.523722e-03 1.471868e-03 1.503937e-03 1.364825e-03 1.340955e-03 1.256796e-03
<GCONST> -6.511742e+02
<STREAM> 2
<NUMMIXES> 2
<MIXTURE> 1 6.433042e-01
<MEAN> 1
 4.676011e+00
<VARIANCE> 1
 6.923772e-02
<GCONST> -8.323326e-01
<MIXTURE> 2 3.566961e-01
<MEAN> 0
<VARIANCE> 0
<GCONST> 0.000000e+00
<STREAM> 3
<NUMMIXES> 2
<MIXTURE> 1 6.181815e-01
<MEAN> 1
 -3.288218e-03
<VARIANCE> 1
 1.501990e-03
<GCONST> -4.663088e+00
<MIXTURE> 2 3.818187e-01
<MEAN> 0
<VARIANCE> 0
<GCONST> 0.000000e+00
<STREAM> 4
<NUMMIXES> 2
<MIXTURE> 1 6.177406e-01
<MEAN> 1
 -4.825623e-04
<VARIANCE> 1
 4.381815e-03
<GCONST> -3.592416e+00
<MIXTURE> 2 3.822595e-01
<MEAN> 0
<VARIANCE> 0
<GCONST> 0.000000e+00
<STREAM> 5
<MEAN> 15
 -2.342522e+00 -1.870402e+00 -1.870634e+00 -1.828478e+00 -1.824936e+00 1.243060e-01 6.601885e-02 5.847237e-02 5.695014e-02 4.987103e-02 -1.291057e-02 -6.522657e-04 1.503538e-02 4.407967e-03 6.979555e-03
<VARIANCE> 15
 6.095750e+00 2.650112e+00 2.451003e+00 2.430236e+00 2.345221e+00 5.437287e-01 2.806012e-01 2.773168e-01 2.792283e-01 2.735056e-01 2.949181e+00 1.828639e+00 1.961211e+00 1.923724e+00 1.730354e+00
<GCONST> 3.081359e+01
<TRANSP> 7
 0.000000e+00 1.000000e+00 0.000000e+00 0.000000e+00 0.000000e+00 0.000000e+00 0.000000e+00
 0.000000e+00 6.681573e-01 3.318427e-01 0.000000e+00 0.000000e+00 0.000000e+00 0.000000e+00
 0.000000e+00 0.000000e+00 2.881532e-01 7.118468e-01 0.000000e+00 0.000000e+00 0.000000e+00
 0.000000e+00 0.000000e+00 0.000000e+00 5.028836e-01 4.971165e-01 0.000000e+00 0.000000e+00
 0.000000e+00 0.000000e+00 0.000000e+00 0.000000e+00 8.993778e-01 1.006222e-01 0.000000e+00
 0.000000e+00 0.000000e+00 0.000000e+00 0.000000e+00 0.000000e+00 8.035365e-01 1.964635e-01
 0.000000e+00 0.000000e+00 0.000000e+00 0.000000e+00 0.000000e+00 0.000000e+00 0.000000e+00
<ENDHMM>
~h "E"
<BEGINHMM>
<NUMSTATES> 7
<STATE> 2
<SWEIGHTS> 5
 1.000000e+00 0.000000e+00 0.000000e+00 0.000000e+00 0.000000e+00
<STREAM> 1
<MEAN> 180
 4.513872e+00 1.465766e+00 -2.252793e-01 4.094577e-01 2.243769e-02 1.627732e-03 -7.129665e-02 2.182901e-03 -4.600238e-02 1.221943e-01 -7.354900e-02 8.154495e-02 -1.544708e-01 8.897148e-02 -1.745678e-01 6.489971e-02 -6.191114e-03 -7.147186e-02 1.245590e-02 5.220985e-02 -1.128950e-01 2.484658e-02 1.407285e-02 -3.689331e-03 1.786967e-02 2.736735e-03 -4.483540e-02 6.599007e-02 -3.924017e-02 5.505839e-02 -3.822237e-02 7.066049e-02 -5.086599e-02 5.071694e-02 -4.186812e-02 3.953720e-02 -4.406913e-02 3.816084e-02 -3.379033e-02 2.910635e-02 -4.056248e-02 5.273542e-02 -5.734577e-02 4.578177e-02 -2.971947e-02 1.701375e-02 -2.092317e-02 2.542331e-02 -3.083709e-02 3.866033e-02 -3.987225e-02 3.567066e-02 -2.502065e-02 1.551460e-02 -1.496235e-02 2.522932e-02 -3.364282e-02 3.621094e-02 -3.640909e-02 3.460780e-02 1.174382e-02 -2.589854e-02 -2.707813e-02 -1.874815e-02 -9.554340e-03 -5.539656e-04 -6.486326e-03 1.422983e-03 1.275921e-02 8.147549e-03 1.395237e-03 2.327521e-03 2.871835e-03 -3.188365e-03 -1.493694e-03 4.862013e-03 -4.072189e-03 -5.720592e-03 3.138478e-04 -1.309149e-03 1.454823e-03 -3.000410e-03 -1.020550e-03 4.902844e-03 -8.578862e-04 -2.409328e-04 1.963743e-03 -1.407280e-03 1.939179e-04 -5.672259e-04 -3.023570e-03 1.466280e-03 1.040054e-04 -6.170808e-04 -1.393089e-04 2.118454e-03 -1.476536e-03 6.051179e-04 1.912952e-03 -3.987427e-04 -3.451894e-04 8.355918e-04 -1.794706e-03 1.203417e-03 -6.120419e-04 1.777548e-04 3.450012e-04 -2.441248e-04 8.706592e-04 -9.241601e-04 -1.324729e-04 1.545997e-03 -2.447495e-03 1.028121e-03 5.693915e-04 -9.295699e-05 -3.498551e-04 -1.133769e-04 5.225053e-05 1.736312e-04 -3.924492e-03 2.789465e-04 -1.514382e-04 3.864345e-04 2.524231e-03 -9.661490e-04 4.202343e-03 4.300414e-03 -3.854387e-03 2.218666e-03 2.396439e-03 -4.189070e-03 -1.057432e-03 -5.127699e-03 -5.239784e-04 5.904321e-03 2.679781e-03 3.355729e-04 -3.189718e-03 -8.718257e-03 3.711448e-03 1.765652e-03 -9.065890e-04 2.327224e-03 2.156011e-03 -1.545305e-03 1.015888e-03 2.426029e-03 -1.856855e-03 1.206230e-03 -2.010023e-03 -2.121971e-03 2.912614e-03 1.454748e-03 -4.928630e-04 -3.392025e-03 1.205966e-03 1.834556e-04 -2.627670e-03 1.604611e-03 -4.182735e-04 1.368261e-03 -1.220813e-03 1.478498e-03 -2.020671e-03 2.162711e-03 1.485714e-03 -1.612913e-03 1.158337e-04 -1.105008e-03 1.274063e-03 1.082916e-03 -2.619515e-03 1.032615e-03 7.979053e-04 -1.352523e-03 -3.222196e-04 1.538186e-03 -8.415250e-04 -1.496633e-03
<VARIANCE> 180
 3.342680e+00 1.727032e+00 2.825637e-01 1.948332e-01 1.461111e-01 9.119855e-02 5.988523e-02 5.463067e-02 6.223502e-02 5.745166e-02 3.853432e-02 2.574947e-02 3.440481e-02 4.032834e-02 3.332822e-02 3.303263e-02 2.342049e-02 1.755866e-02 1.483604e-02 1.902978e-02 1.428744e-02 1.522232e-02 1.347770e-02 1.105302e-02 1.177736e-02 1.040265e-02 1.053999e-02 9.822123e-03 8.811544e-03 7.719831e-03 8.417287e-03 7.655621e-03 7.543045e-03 6.729732e-03 6.857011e-03 6.663128e-03 5.387059e-03 5.464339e-03 5.574732e-03 4.571792e-03 4.299265e-03 4.065225e-03 3.516755e-03 3.356552e-03 2.896935e-03 3.412022e-03 3.084064e-03 2.713510e-03 3.071916e-03 2.961916e-03 2.723259e-03 2.704315e-03 2.412393e-03 1.853665e-03 2.027931e-03 2.164349e-03 2.179807e-03 2.223039e-03 2.429820e-03 2.054795e-03 5.589292e-02 2.493153e-02 1.541154e-02 9.021662e-03 7.023891e-03 6.178639e-03 5.287478e-03 3.981568e-03 4.768249e-03 3.981483e-03 3.720333e-03 3.579824e-03 3.390751e-03 3.437924e-03 3.944701e-03 3.656469e-03 2.843221e-03 2.987228e-03 2.857487e-03 2.650490e-03 2.355487e-03 2.359512e-03 2.073571e-03 2.102462e-03 1.868614e-03 1.944762e-03 1.741598e-03 1.635219e-03 1.606996e-03 1.618848e-03 1.493796e-03 1.466879e-03 1.468459e-03 1.372464e-03 1.166424e-03 1.165822e-03 1.094932e-03 1.108291e-03 9.749641e-04 8.647313e-04 9.029057e-04 8.791233e-04 7.072983e-04 8.158961e-04 6.536582e-04 7.768617e-04 6.311949e-04 6.134134e-04 6.259658e-04 6.264353e-04 5.929797e-04 6.064953e-04 5.322093e-04 5.410347e-04 4.820165e-04 4.899204e-04 5.139458e-04 5.071170e-04 4.778584e-04 4.955726e-04 4.993672e-02 2.398940e-02 2.567355e-02 1.513871e-02 1.436911e-02 1.605325e-02 1.149675e-02 1.139179e-02 1.279435e-02 1.192580e-02 1.226421e-02 1.268297e-02 1.126077e-02 1.046529e-02 1.114297e-02 1.065570e-02 9.260532e-03 9.693462e-03 8.425382e-03 8.140671e-03 8.407863e-03 7.982617e-03 7.855768e-03 8.108511e-03 7.016959e-03 6.960304e-03 6.778273e-03 6.099068e-03 5.610396e-03 5.466398e-03 5.742934e-03 5.321043e-03 5.486516e-03 4.692045e-03 5.051957e-03 4.552346e-03 4.410287e-03 4.082527e-03 3.697121e-03 3.447190e-03 4.007622e-03 3.982597e-03 3.452814e-03 3.449385e-03 3.175728e-03 2.900044e-03 2.776929e-03 2.419551e-03 2.638522e-03 2.801682e-03 2.457632e-03 2.346981e-03 2.147460e-03 2.078233e-03 2.005958e-03 2.065679e-03 2.174119e-03 1.858448e-03 1.879119e-03 1.858965e-03
<GCONST> -6.275117e+02
<STREAM> 2
<NUMMIXES> 2
<MIXTURE> 1 5.127543e-01
<MEAN> 1
 5.093188e+00
<VARIANCE> 1
 9.512866e-02
<GCONST> -5.146480e-01
<MIXTURE> 2 4.872451e-01
<MEAN> 0
<VARIANCE> 0
<GCONST> 0.000000e+00
<STREAM> 3
<NUMMIXES> 2
<MIXTURE> 1 4.923840e-01
<MEAN> 1
 -9.192870e-03
<VARIANCE> 1
 9.372325e-04
<GCONST> -5.134702e+00
<MIXTURE> 2 5.076155e-01
<MEAN> 0
<VARIANCE> 0
<GCONST> 0.000000e+00
<STREAM> 4
<NUMMIXES> 2
<MIXTURE> 1 4.918833e-01
<MEAN> 1
 9.363196e-03
<VARIANCE> 1
 3.289761e-03
<GCONST> -3.879063e+00
<MIXTURE> 2 5.081162e-01
<MEAN> 0
<VARIANCE> 0
<GCONST> 0.000000e+00
<STREAM> 5
<MEAN> 15
 -2.821053e+00 -1.640182e+00 -1.578265e+00 -1.605957e+00 -1.576096e+00 -1.004572e-01 -8.148226e-03 6.844407e-02 2.564281e-02 2.726408e-02 -1.733441e-02 -3.809534e-02 -4.286847e-02 -6.872983e-03 1.133096e-02
<VARIANCE> 15
 1.528599e+01 3.932792e+00 3.011726e+00 3.227532e+00 3.075668e+00 1.304079e+00 5.010372e-01 4.549644e-01 4.816508e-01 4.310838e-01 6.418226e+00 3.477232e+00 3.715381e+00 3.523419e+00 2.966038e+00
<GCONST> 3.904161e+01
<STATE> 3
<SWEIGHTS> 5
 1.000000e+00 0.000000e+00 0.000000e+00 0.000000e+00 0.000000e+00
<STREAM> 1
<MEAN> 180
 4.551393e+00 1.420605e+00 -4.235737e-01 3.163104e-01 -3.123097e-03 2.476755e-02 -8.001156e-02 -2.775161e-02 2.072887e-02 1.732247e-01 -6.697751e-02 7.267481e-02 -1.364662e-01 7.624431e-02 -1.931824e-01 6.905649e-02 -2.609124e-02 -6.780461e-02 1.429514e-02 3.561298e-02 -7.438126e-02 1.159985e-02 4.660571e-06 1.849431e-02 1.124107e-02 3.696420e-03 -3.500025e-02 5.442600e-02 -4.087015e-02 6.313723e-02 -5.024651e-02 6.645603e-02 -4.195051e-02 5.333796e-02 -4.800621e-02 3.607113e-02 -3.660933e-02 3.380387e-02 -3.483517e-02 3.490198e-02 -4.548426e-02 5.345800e-02 -6.188922e-02 5.253743e-02 -3.602226e-02 1.863516e-02 -1.440995e-02 2.047690e-02 -2.496367e-02 3.077292e-02 -3.503322e-02 3.546947e-02 -2.981034e-02 2.211268e-02 -1.808796e-02 2.280856e-02 -2.858507e-02 3.309776e-02 -3.644615e-02 3.613334e-02 -1.102636e-02 -1.456890e-02 -1.004097e-02 -8.171134e-03 9.646822e-04 4.761823e-03 2.114607e-03 1.742872e-03 5.450553e-03 4.823797e-03 -2.234051e-04 -2.228803e-03 1.666480e-04 -7.358062e-04 -7.708000e-04 2.602332e-03 2.290023e-03 1.377757e-03 -2.032707e-04 -4.543708e-03 3.656811e-03 1.613670e-04 -1.766564e-03 3.525496e-03 -1.827960e-04 -6.503413e-04 1.452426e-03 -6.322983e-04 6.610605e-04 -3.992028e-04 -2.989003e-03 -2.283830e-03 1.064830e-03 5.914127e-04 -9.917270e-04 6.178895e-04 -4.791718e-04 8.816569e-05 -4.186397e-04 8.957901e-04 -8.052319e-04 3.819088e-04 2.538315e-04 2.716964e-04 -1.731494e-03 2.376753e-03 3.921984e-04 -1.963381e-03 1.505669e-03 -1.060400e-03 6.081665e-04 1.457342e-04 -9.146760e-04 1.070636e-03 -2.396159e-04 -5.565165e-04 8.058094e-05 4.320416e-04 2.699030e-04 -1.266759e-03 -1.426601e-02 4.252864e-03 1.468850e-02 1.009618e-02 7.866462e-03 4.842127e-03 6.371276e-03 2.854211e-03 -4.804317e-03 -4.894517e-03 -1.086098e-03 4.951055e-04 -2.230909e-03 2.113928e-03 -1.920635e-03 -6.658709e-03 2.746016e-03 4.809913e-03 -6.908944e-04 1.185837e-04 1.704593e-03 1.424696e-03 7.010519e-04 -1.747567e-03 -2.158419e-03 1.841431e-03 1.904595e-04 1.071045e-04 9.139851e-04 1.364670e-03 1.965167e-03 -3.677529e-03 -6.212612e-04 1.947737e-04 -1.571446e-03 1.579785e-04 8.477522e-04 -5.895279e-04 -1.635323e-03 -2.652337e-04 6.112600e-04 -1.184890e-04 2.102667e-03 -2.226056e-03 3.331306e-05 1.879545e-03 -1.206187e-03 -1.661727e-03 1.565575e-03 -2.444199e-04 1.112749e-03 -2.068127e-03 1.828499e-03 4.494009e-04 -1.552709e-03 2.216172e-04 1.186744e-03 -1.331780e-03 1.463254e-03 -3.150611e-04
<VARIANCE> 180
 3.432481e+00 1.500767e+00 3.821014e-01 1.506684e-01 1.130748e-01 7.361759e-02 5.548859e-02 5.496771e-02 6.250876e-02 5.378779e-02 4.282671e-02 2.628903e-02 3.633070e-02 4.037498e-02 3.736619e-02 2.940825e-02 2.857300e-02 1.616229e-02 1.500734e-02 1.968237e-02 1.675970e-02 1.721520e-02 1.220696e-02 1.045134e-02 1.103094e-02 9.597912e-03 9.772794e-03 9.392452e-03 8.940577e-03 7.581964e-03 7.542629e-03 7.902225e-03 8.741518e-03 7.622935e-03 6.122072e-03 6.654038e-03 6.515035e-03 4.937962e-03 5.277504e-03 3.896681e-03 4.009814e-03 3.994621e-03 3.575966e-03 3.110951e-03 2.778703e-03 3.273013e-03 2.899004e-03 2.672608e-03 2.845704e-03 2.716661e-03 2.652816e-03 2.597003e-03 2.340900e-03 2.027191e-03 1.969990e-03 1.987813e-03 2.122903e-03 2.213685e-03 2.231190e-03 2.174265e-03 3.881999e-02 2.268079e-02 1.163700e-02 7.288550e-03 5.958559e-03 5.080093e-03 4.513193e-03 3.827514e-03 3.849617e-03 3.717233e-03 3.547160e-03 3.442708e-03 3.098060e-03 3.225698e-03 3.198913e-03 3.489565e-03 2.893721e-03 2.730974e-03 2.310352e-03 2.625684e-03 2.434490e-03 2.219306e-03 2.291047e-03 2.159856e-03 2.222662e-03 1.911263e-03 1.810805e-03 1.837886e-03 1.780767e-03 1.371905e-03 1.500042e-03 1.482428e-03 1.263418e-03 1.322856e-03 1.254438e-03 1.146253e-03 1.133471e-03 1.034181e-03 8.585687e-04 8.677624e-04 9.581927e-04 9.142211e-04 7.932437e-04 8.587010e-04 7.484525e-04 7.790031e-04 6.429232e-04 6.550523e-04 7.277596e-04 5.823523e-04 6.085915e-04 6.068766e-04 5.598548e-04 5.524417e-04 4.535526e-04 5.111098e-04 4.959390e-04 4.432372e-04 4.929424e-04 4.631814e-04 2.061285e-02 1.759567e-02 1.590852e-02 1.175259e-02 1.109465e-02 1.254454e-02 1.210012e-02 1.094156e-02 9.570828e-03 1.028275e-02 1.049495e-02 9.535016e-03 9.279834e-03 9.946181e-03 8.961480e-03 1.039810e-02 9.084198e-03 8.830297e-03 8.063588e-03 8.193865e-03 8.565366e-03 7.305852e-03 7.861194e-03 6.921368e-03 6.707584e-03 6.446364e-03 5.233015e-03 5.281134e-03 5.455202e-03 5.319331e-03 4.917006e-03 5.412493e-03 4.571364e-03 4.788381e-03 4.122505e-03 4.045499e-03 4.042270e-03 3.628205e-03 3.218831e-03 3.116996e-03 3.593520e-03 3.073378e-03 2.933413e-03 3.170475e-03 2.865810e-03 3.004097e-03 2.414577e-03 2.426625e-03 2.833773e-03 2.342643e-03 2.103611e-03 2.092654e-03 1.985868e-03 1.860566e-03 1.850273e-03 1.928302e-03 1.857710e-03 1.750496e-03 1.795120e-03 1.788449e-03
<GCONST> -6.384047e+02
<STREAM> 2
<NUMMIXES> 2
<MIXTURE> 1 4.594071e-01
<MEAN> 1
 5.079878e+00
<VARIANCE> 1
 1.004043e-01
<GCONST> -4.606736e-01
<MIXTURE> 2 5.405929e-01
<MEAN> 0
<VARIANCE> 0
<GCONST> 0.000000e+00
<STREAM> 3
<NUMMIXES> 2
<MIXTURE> 1 4.410514e-01
<MEAN> 1
 -2.478484e-03
<VARIANCE> 1
 8.527677e-04
<GCONST> -5.229146e+00
<MIXTURE> 2 5.589488e-01
<MEAN> 0
<VARIANCE> 0
<GCONST> 0.000000e+00
<STREAM> 4
<NUMMIXES> 2
<MIXTURE> 1 4.399961e-01
<MEAN> 1
 2.793847e-03
<VARIANCE> 1
 2.387860e-03
<GCONST> -4.199481e+00
<MIXTURE> 2 5.600040e-01
<MEAN> 0
<VARIANCE> 0
<GCONST> 0.000000e+00
<STREAM> 5
<MEAN> 15
 -2.953850e+00 -1.637505e+00 -1.460805e+00 -1.472609e+00 -1.394930e+00 2.062473e-02 -2.603041e-03 3.089925e-03 2.097083e-03 -6.158402e-03 1.537471e-01 6.198483e-02 -3.084169e-02 -3.161291e-02 -5.058198e-02
<VARIANCE> 15
 1.931150e+01 4.727322e+00 3.416211e+00 3.352440e+00 2.940254e+00 1.383199e+00 5.341495e-01 4.263239e-01 4.338285e-01 3.671167e-01 6.864388e+00 3.217489e+00 3.248629e+00 2.872360e+00 3.119288e+00
<GCONST> 3.907243e+01
<STATE> 4
<SWEIGHTS> 5
 1.000000e+00 0.000000e+00 0.000000e+00 0.000000e+00 0.000000e+00
<STREAM> 1
<MEAN> 180
 4.560115e+00 1.601273e+00 -2.698261e-01 3.081046e-01 3.048898e-02 7.623899e-02 -2.728696e-02 -4.546315e-03 3.827279e-02 1.628787e-01 -7.437871e-02 7.726351e-02 -1.707133e-01 9.526084e-02 -1.506499e-01 4.700965e-02 9.461207e-03 -4.278383e-02 6.154108e-03 3.258104e-02 -8.222695e-02 3.084195e-02 -1.565528e-02 2.093998e-02 3.806308e-03 3.684315e-03 -2.847273e-02 4.389288e-02 -2.357197e-02 4.193745e-02 -5.606386e-02 6.711274e-02 -5.769517e-02 6.864281e-02 -6.053219e-02 4.285157e-02 -3.889263e-02 2.965016e-02 -3.012564e-02 3.055613e-02 -4.291900e-02 5.571187e-02 -6.267268e-02 5.322530e-02 -3.879890e-02 2.263469e-02 -1.297626e-02 1.180756e-02 -1.929783e-02 3.015083e-02 -3.482551e-02 3.408428e-02 -2.763687e-02 2.362818e-02 -2.230862e-02 2.449968e-02 -2.878429e-02 3.393272e-02 -3.737354e-02 3.487452e-02 -4.521514e-02 -8.513233e-03 1.335494e-02 5.081424e-03 1.425733e-02 7.873676e-03 7.099532e-03 7.791365e-03 -8.442427e-04 -2.843628e-03 -2.849478e-03 -5.917414e-04 3.238047e-03 4.146631e-04 -9.252712e-04 -1.675871e-03 1.918277e-03 3.723948e-03 -1.208314e-03 -4.338056e-03 9.476606e-04 7.369964e-04 -2.486749e-03 1.066124e-03 -4.579282e-04 2.061097e-03 -4.600006e-04 4.006057e-04 3.036685e-03 -1.498074e-03 -9.867774e-04 -2.345064e-03 5.209722e-04 -2.096510e-04 -9.351384e-04 1.150728e-03 2.893124e-04 -1.319663e-03 -8.085971e-04 -5.988840e-04 1.282640e-04 9.201503e-04 3.169958e-04 1.456926e-04 -1.757868e-03 1.797771e-03 9.717810e-05 -1.698041e-03 1.419116e-03 -1.631347e-04 2.720334e-04 -4.266699e-04 4.497190e-04 3.422151e-05 -4.777404e-04 -4.261147e-04 7.776073e-04 -2.166870e-04 5.607654e-04 -9.737643e-04 -1.876777e-02 8.265800e-03 5.850178e-03 1.154845e-03 4.275341e-03 -1.891401e-03 1.202273e-03 5.417792e-03 4.619942e-05 -3.615214e-03 -2.093608e-03 -1.899150e-03 4.481250e-03 1.218477e-03 -1.611822e-03 2.804874e-03 -1.655214e-03 -2.499808e-03 2.339156e-04 3.325384e-03 -5.614960e-03 -1.429428e-03 -1.620029e-03 -3.547119e-03 2.850599e-03 3.597051e-03 -4.176255e-03 1.696280e-03 7.502178e-04 -3.375035e-03 8.633974e-04 3.265743e-03 -3.246960e-05 -1.367864e-03 2.407107e-03 9.798195e-04 -4.778208e-04 -1.329698e-03 2.340681e-03 -1.086626e-03 1.163909e-03 -3.348040e-04 -3.288523e-03 2.469365e-03 7.390170e-04 -3.533287e-03 1.188676e-03 2.353227e-03 -1.978240e-03 1.565836e-03 -2.028050e-03 7.501465e-04 2.239838e-03 -3.633394e-03 5.600752e-04 1.948665e-03 -6.416761e-04 -7.549401e-04 2.527012e-04 6.508247e-04
<VARIANCE> 180
 4.088443e+00 1.492291e+00 2.882098e-01 1.575422e-01 9.973936e-02 8.126447e-02 5.435673e-02 5.016428e-02 6.127723e-02 5.538587e-02 4.762695e-02 2.980929e-02 3.761717e-02 3.711029e-02 3.846105e-02 3.364138e-02 2.843969e-02 1.920211e-02 1.422027e-02 2.022397e-02 1.680499e-02 1.478378e-02 1.157826e-02 1.051422e-02 1.054606e-02 9.838045e-03 1.077954e-02 9.296248e-03 8.502070e-03 6.900094e-03 7.692167e-03 8.561182e-03 9.868170e-03 9.122939e-03 7.819156e-03 7.115404e-03 6.275170e-03 5.194067e-03 5.005330e-03 3.563683e-03 4.129871e-03 4.217630e-03 3.633545e-03 3.265489e-03 2.829228e-03 3.075784e-03 2.769470e-03 2.966923e-03 2.583075e-03 2.620134e-03 2.447994e-03 2.535970e-03 2.349126e-03 2.016350e-03 1.970479e-03 1.967455e-03 2.192879e-03 2.381579e-03 2.353552e-03 2.360472e-03 3.762293e-02 2.516705e-02 1.130682e-02 7.471811e-03 6.170447e-03 5.454926e-03 4.300923e-03 3.968436e-03 4.297805e-03 3.557336e-03 3.700305e-03 3.292754e-03 2.894530e-03 2.948432e-03 3.184682e-03 3.408925e-03 2.848757e-03 2.433145e-03 2.225749e-03 2.390664e-03 2.725391e-03 2.100108e-03 2.294838e-03 2.040560e-03 2.054230e-03 1.854062e-03 1.836507e-03 1.489075e-03 1.808928e-03 1.645941e-03 1.514344e-03 1.378077e-03 1.221898e-03 1.304284e-03 1.115380e-03 1.030131e-03 1.063613e-03 1.008755e-03 9.944257e-04 8.908512e-04 9.282394e-04 8.915756e-04 8.047947e-04 8.233072e-04 7.618831e-04 7.083347e-04 6.543017e-04 7.201731e-04 6.744094e-04 5.917224e-04 5.675277e-04 5.827642e-04 5.332447e-04 5.077345e-04 4.681191e-04 4.938741e-04 4.954441e-04 4.768612e-04 4.944337e-04 4.472455e-04 2.912588e-02 1.808325e-02 1.690858e-02 1.324617e-02 1.314911e-02 1.332040e-02 1.211185e-02 1.201202e-02 1.187219e-02 1.204387e-02 1.176409e-02 1.099524e-02 1.025501e-02 1.039463e-02 1.041476e-02 1.102117e-02 1.072607e-02 8.843023e-03 8.499390e-03 8.405497e-03 8.947600e-03 8.615581e-03 8.313606e-03 7.777617e-03 7.483845e-03 6.861061e-03 6.810310e-03 6.441181e-03 6.598433e-03 5.953013e-03 6.019439e-03 6.175328e-03 4.783357e-03 5.107674e-03 4.387829e-03 4.517474e-03 4.353417e-03 3.704611e-03 3.382631e-03 3.449329e-03 3.432436e-03 3.408216e-03 3.134076e-03 3.554011e-03 3.236497e-03 2.910153e-03 2.693426e-03 2.810853e-03 2.914042e-03 2.670576e-03 2.493462e-03 2.268020e-03 2.265425e-03 2.060937e-03 1.772069e-03 1.920111e-03 1.930479e-03 1.733110e-03 1.742345e-03 1.715537e-03
<GCONST> -6.331198e+02
<STREAM> 2
<NUMMIXES> 2
<MIXTURE> 1 5.485721e-01
<MEAN> 1
 5.114723e+00
<VARIANCE> 1
 8.414166e-02
<GCONST> -6.373763e-01
<MIXTURE> 2 4.514270e-01
<MEAN> 0
<VARIANCE> 0
<GCONST> 0.000000e+00
<STREAM> 3
<NUMMIXES> 2
<MIXTURE> 1 5.239447e-01
<MEAN> 1
 -4.218724e-03
<VARIANCE> 1
 8.874664e-04
<GCONST> -5.189262e+00
<MIXTURE> 2 4.760544e-01
<MEAN> 0
<VARIANCE> 0
<GCONST> 0.000000e+00
<STREAM> 4
<NUMMIXES> 2
<MIXTURE> 1 5.237738e-01
<MEAN> 1
 -1.165113e-03
<VARIANCE> 1
 3.278389e-03
<GCONST> -3.882526e+00
<MIXTURE> 2 4.762252e-01
<MEAN> 0
<VARIANCE> 0
<GCONST> 0.000000e+00
<STREAM> 5
<MEAN> 15
 -3.067909e+00 -1.781604e+00 -1.673188e+00 -1.724501e+00 -1.706029e+00 1.888606e-01 5.398057e-02 2.218428e-03 3.491134e-02 -9.462013e-03 -1.730075e-02 -2.921987e-02 8.670557e-03 5.766466e-02 3.521692e-02
<VARIANCE> 15
 1.666672e+01 4.065169e+00 3.343500e+00 3.468023e+00 3.175637e+00 1.428164e+00 5.597814e-01 5.100133e-01 4.724203e-01 4.459628e-01 7.544168e+00 3.651932e+00 4.083467e+00 3.858090e+00 3.909885e+00
<GCONST> 4.037226e+01
<STATE> 5
<SWEIGHTS> 5
 1.000000e+00 0.000000e+00 0.000000e+00 0.000000e+00 0.000000e+00
<STREAM> 1
<MEAN> 180
 4.136174e+00 1.343121e+00 -1.664422e-01 3.620313e-01 6.453601e-02 9.492955e-02 -1.312691e-02 1.648644e-02 -1.129362e-02 1.318356e-01 -8.302822e-02 7.672149e-02 -1.378455e-01 8.147474e-02 -1.529213e-01 5.282253e-02 -8.125715e-04 -4.125666e-02 -2.941773e-03 3.268004e-02 -8.375342e-02 2.540261e-02 -9.218134e-03 1.268404e-02 1.218706e-02 1.218624e-02 -4.203107e-02 5.261695e-02 -1.953439e-02 4.116880e-02 -4.817707e-02 6.042434e-02 -4.801401e-02 5.657556e-02 -4.856831e-02 4.211487e-02 -4.301476e-02 2.842989e-02 -3.060757e-02 2.885120e-02 -4.526314e-02 5.687207e-02 -5.798393e-02 5.014089e-02 -4.046604e-02 2.502437e-02 -1.885458e-02 1.786125e-02 -2.033982e-02 2.912359e-02 -3.484443e-02 3.542108e-02 -2.704312e-02 1.963511e-02 -1.956636e-02 2.615800e-02 -3.201049e-02 3.508638e-02 -3.527870e-02 3.125049e-02 -6.790326e-02 8.912763e-03 2.521567e-02 1.044036e-02 1.546081e-02 4.609497e-03 1.044655e-02 9.430641e-03 -2.575611e-03 -2.418040e-03 1.104790e-03 -3.271875e-03 6.847051e-03 4.263897e-04 -1.977416e-03 1.803593e-04 -1.174055e-03 -1.824923e-03 -5.925360e-04 1.719502e-03 2.656588e-03 2.445043e-04 -2.170079e-03 8.055964e-05 6.204321e-04 1.430233e-03 -3.817403e-03 3.464511e-04 4.177939e-04 -3.531851e-03 1.768505e-03 -1.720634e-03 6.029999e-04 -1.123682e-03 1.596534e-03 8.818228e-05 -2.529768e-04 -4.614384e-04 -2.414360e-04 -4.585145e-04 2.026110e-03 -1.131580e-03 -9.798671e-04 1.322663e-03 -2.509311e-04 -9.966377e-04 1.559606e-03 1.032273e-04 -1.156870e-03 7.074871e-04 3.558254e-04 -1.997056e-03 3.003304e-03 -2.516698e-03 -2.164827e-04 1.505350e-03 -2.992065e-04 -1.677934e-04 5.004433e-04 -9.088663e-04 2.330560e-02 2.385702e-02 5.820340e-03 5.435766e-03 -5.987631e-03 -6.129630e-04 1.697586e-03 -4.853895e-03 -4.833942e-03 2.684255e-03 9.169937e-04 -4.778550e-03 -1.465188e-03 -1.785328e-03 6.843021e-04 1.156058e-03 -2.529082e-03 -3.530883e-03 1.809981e-03 6.842731e-03 7.235762e-03 1.161122e-03 7.717510e-04 8.502586e-04 -1.437925e-03 -6.921022e-03 9.033690e-04 -3.631290e-03 -3.250171e-03 -1.937137e-04 2.861309e-03 1.333522e-03 2.040969e-03 2.841441e-04 -5.784023e-04 -1.313603e-03 -3.090443e-04 2.206033e-03 -1.377339e-03 2.212276e-03 -6.695034e-04 -1.998002e-03 1.975967e-03 -1.201312e-03 1.850995e-03 -1.369545e-03 1.125030e-03 2.024645e-03 -5.118549e-03 1.280264e-03 3.110591e-03 -3.811769e-03 1.089675e-03 -7.278461e-06 3.655104e-04 7.688587e-04 -2.194417e-03 2.136122e-03 -7.676453e-04 -4.926726e-04
<VARIANCE> 180
 3.805521e+00 1.525169e+00 2.629513e-01 1.648854e-01 1.226524e-01 7.333663e-02 4.941496e-02 4.795807e-02 5.970306e-02 5.482836e-02 4.240635e-02 2.899055e-02 3.099952e-02 3.605584e-02 3.501071e-02 3.162589e-02 2.415956e-02 1.773230e-02 1.408745e-02 1.986966e-02 1.634417e-02 1.660722e-02 1.146219e-02 1.021986e-02 1.062373e-02 1.029188e-02 9.776752e-03 7.884391e-03 8.390564e-03 7.217604e-03 7.968468e-03 8.002324e-03 8.785375e-03 7.362716e-03 6.732073e-03 5.741523e-03 5.310175e-03 5.000511e-03 4.920478e-03 3.469040e-03 3.961743e-03 3.964314e-03 3.901691e-03 3.358365e-03 2.983019e-03 3.062570e-03 2.685230e-03 2.889830e-03 2.442289e-03 2.477973e-03 2.328339e-03 2.509358e-03 2.274906e-03 2.057286e-03 1.876322e-03 2.020128e-03 2.281476e-03 2.427848e-03 2.286403e-03 1.995735e-03 7.905298e-02 4.143213e-02 1.744038e-02 1.054400e-02 9.766404e-03 6.818901e-03 5.990450e-03 5.543793e-03 5.753541e-03 5.021556e-03 4.952682e-03 3.962062e-03 3.612189e-03 3.651992e-03 3.911261e-03 3.933512e-03 3.456563e-03 2.906179e-03 3.094389e-03 2.847997e-03 2.887235e-03 2.337079e-03 2.592466e-03 2.242767e-03 2.186043e-03 2.258715e-03 2.351042e-03 2.084074e-03 1.860631e-03 1.687275e-03 1.495897e-03 1.505590e-03 1.382076e-03 1.510759e-03 1.151782e-03 1.263121e-03 1.203508e-03 1.206237e-03 1.183618e-03 1.043570e-03 9.285860e-04 1.022755e-03 8.953715e-04 1.039151e-03 9.230002e-04 8.519428e-04 7.518635e-04 8.022524e-04 7.253406e-04 7.034104e-04 6.750966e-04 5.937063e-04 5.684356e-04 6.060370e-04 5.183878e-04 4.686053e-04 5.746712e-04 5.163439e-04 5.045630e-04 4.473383e-04 4.634717e-02 3.331734e-02 2.291375e-02 1.720013e-02 1.934626e-02 1.629456e-02 1.618901e-02 1.402331e-02 1.627107e-02 1.472585e-02 1.405822e-02 1.396457e-02 1.328932e-02 1.306918e-02 1.203255e-02 1.221878e-02 1.341712e-02 1.053737e-02 1.096406e-02 1.084056e-02 1.068877e-02 9.568202e-03 9.315519e-03 9.354357e-03 8.621754e-03 8.528830e-03 8.130971e-03 7.216305e-03 7.650231e-03 7.341115e-03 6.137281e-03 6.630402e-03 6.059041e-03 5.206373e-03 5.398633e-03 5.194206e-03 5.005788e-03 4.502728e-03 4.417732e-03 3.816473e-03 3.779063e-03 3.708670e-03 3.505436e-03 3.725954e-03 3.615625e-03 3.312288e-03 2.905175e-03 2.956709e-03 2.824097e-03 2.776149e-03 2.717894e-03 2.574035e-03 2.333570e-03 2.325053e-03 2.030040e-03 2.109474e-03 2.302139e-03 2.148483e-03 2.254758e-03 1.886413e-03
<GCONST> -6.145459e+02
<STREAM> 2
<NUMMIXES> 2
<MIXTURE> 1 4.701288e-01
<MEAN> 1
 5.102551e+00
<VARIANCE> 1
 9.389687e-02
<GCONST> -5.276811e-01
<MIXTURE> 2 5.298700e-01
<MEAN> 0
<VARIANCE> 0
<GCONST> 0.000000e+00
<STREAM> 3
<NUMMIXES> 2
<MIXTURE> 1 4.258400e-01
<MEAN> 1
 -1.823044e-03
<VARIANCE> 1
 9.619811e-04
<GCONST> -5.108639e+00
<MIXTURE> 2 5.741589e-01
<MEAN> 0
<VARIANCE> 0
<GCONST> 0.000000e+00
<STREAM> 4
<NUMMIXES> 2
<MIXTURE> 1 4.258386e-01
<MEAN> 1
 1.153565e-03
<VARIANCE> 1
 5.936126e-03
<GCONST> -3.288821e+00
<MIXTURE> 2 5.741603e-01
<MEAN> 0
<VARIANCE> 0
<GCONST> 0.000000e+00
<STREAM> 5
<MEAN> 15
 -2.032673e+00 -1.380195e+00 -1.366347e+00 -1.365665e+00 -1.427968e+00 8.975282e-02 8.354917e-03 -8.083379e-03 -2.509533e-02 -3.545334e-02 -9.172023e-02 -3.902595e-02 -1.784813e-02 -1.556752e-01 -4.543986e-02
<VARIANCE> 15
 8.926666e+00 3.009440e+00 2.765547e+00 2.699986e+00 2.931576e+00 1.251259e+00 6.181347e-01 4.595381e-01 4.576436e-01 4.286569e-01 5.702135e+00 3.570661e+00 3.536619e+00 3.412383e+00 3.545848e+00
<GCONST> 3.805173e+01
<STATE> 6
<SWEIGHTS> 5
 1.000000e+00 0.000000e+00 0.000000e+00 0.000000e+00 0.000000e+00
<STREAM> 1
<MEAN> 180
 5.113350e+00 1.847234e+00 -2.752637e-01 5.055134e-01 4.664471e-02 1.482661e-02 -1.897043e-02 -1.763251e-02 6.675058e-02 2.380808e-01 -1.243341e-01 2.814339e-02 -1.370687e-01 1.188978e-01 -2.573811e-01 4.423006e-02 3.113697e-02 -9.520059e-02 8.032541e-03 9.027247e-02 -8.866861e-02 2.286045e-02 -2.236819e-02 2.752113e-02 1.919517e-02 -1.671787e-02 -2.798894e-02 5.443686e-02 -3.304665e-02 4.133207e-02 -5.230892e-02 7.649386e-02 -7.018161e-02 7.395190e-02 -6.268007e-02 4.492535e-02 -3.191070e-02 2.254774e-02 -2.479126e-02 3.081516e-02 -5.335356e-02 7.587470e-02 -8.463722e-02 7.153753e-02 -4.786453e-02 2.323180e-02 -1.030581e-02 8.950127e-03 -1.613081e-02 2.381027e-02 -2.715369e-02 2.316407e-02 -1.506694e-02 1.423580e-02 -2.184709e-02 3.145402e-02 -3.509602e-02 3.267745e-02 -2.725484e-02 2.298947e-02 -1.975056e-02 4.104373e-03 1.418288e-02 7.738265e-03 3.588276e-03 2.544725e-03 1.933957e-03 -7.891685e-04 -4.771685e-03 -4.197126e-03 3.905076e-03 1.781494e-03 4.039113e-03 -7.522131e-04 3.207276e-03 3.889193e-04 -2.350484e-03 1.153458e-03 -1.041181e-03 -1.308994e-03 1.509713e-03 -7.243254e-04 2.325736e-04 -9.599258e-04 -2.848475e-04 5.600123e-05 -2.012309e-04 1.333134e-03 -2.053015e-03 -3.749622e-04 1.645674e-03 -3.956794e-04 9.030242e-04 -1.801706e-03 1.824143e-03 -2.109624e-03 1.168742e-03 5.155326e-04 -1.551606e-03 8.239180e-04 3.073547e-04 -6.049499e-04 1.031190e-03 -1.110104e-03 5.380167e-04 4.952505e-04 -1.628536e-03 1.869558e-03 -1.078593e-03 -2.080436e-04 8.111271e-04 -6.905195e-04 4.021403e-04 -5.990999e-05 -5.135590e-04 6.602780e-04 -2.889346e-04 -2.344034e-05 4.461405e-05 9.856425e-05 1.206220e-03 -6.030451e-03 -5.524793e-03 4.933223e-04 -1.845503e-03 -5.010254e-04 -4.779692e-04 3.622300e-04 -7.593087e-04 -2.295047e-03 6.587845e-04 -2.438051e-04 2.227786e-04 6.286264e-05 6.836829e-04 -4.884586e-04 9.539371e-05 4.674211e-04 -1.214382e-03 -1.620145e-03 -4.197265e-04 -3.267191e-04 1.455022e-03 -1.083250e-03 -1.023532e-03 1.343095e-03 3.134811e-04 8.266616e-04 -5.807623e-05 1.280710e-03 5.885001e-04 -6.230019e-04 -4.259975e-04 -5.534862e-04 4.645264e-04 -3.808847e-05 -1.439528e-04 6.763897e-04 -1.137782e-04 -1.827942e-05 1.854297e-04 -4.183578e-05 6.634390e-04 -1.152899e-03 2.720864e-04 7.391002e-04 -1.888110e-03 1.007264e-03 8.964872e-04 -1.032050e-03 4.191169e-04 4.073781e-04 -1.032937e-03 9.895031e-04 2.092138e-04 -1.122510e-03 7.111536e-04 -2.089921e-04 -2.891858e-04 4.349969e-04
<VARIANCE> 180
 2.416151e+00 1.049607e+00 3.749913e-01 1.433038e-01 8.529129e-02 6.412851e-02 4.777783e-02 4.653074e-02 5.281924e-02 4.438388e-02 4.303918e-02 2.836598e-02 2.518447e-02 2.479593e-02 2.575857e-02 2.508785e-02 2.313900e-02 2.301493e-02 1.389013e-02 1.654642e-02 1.263900e-02 1.482507e-02 1.200210e-02 1.152962e-02 8.632474e-03 8.220451e-03 8.086625e-03 9.314754e-03 7.803177e-03 6.889438e-03 7.608116e-03 7.194927e-03 8.665166e-03 8.237280e-03 6.584068e-03 5.597405e-03 4.645607e-03 4.413274e-03 3.946202e-03 3.287567e-03 3.342443e-03 3.778499e-03 3.675515e-03 3.491528e-03 3.010017e-03 3.196948e-03 3.095340e-03 3.273318e-03 3.030953e-03 2.900471e-03 2.620443e-03 2.478954e-03 2.142854e-03 1.929298e-03 1.971644e-03 2.164215e-03 2.122941e-03 1.993716e-03 1.870495e-03 1.788743e-03 1.160892e-01 5.393302e-02 2.660939e-02 1.232039e-02 1.040228e-02 8.215697e-03 6.372437e-03 5.730699e-03 5.888203e-03 5.813838e-03 4.727345e-03 4.381885e-03 4.329380e-03 4.209695e-03 4.055556e-03 3.535010e-03 3.820853e-03 3.099804e-03 2.823876e-03 2.808383e-03 2.730150e-03 2.888300e-03 2.340467e-03 2.355749e-03 2.063841e-03 2.015887e-03 1.749816e-03 1.769263e-03 1.575687e-03 1.584409e-03 1.405274e-03 1.353646e-03 1.378419e-03 1.360752e-03 1.239400e-03 1.181336e-03 1.134827e-03 1.036547e-03 9.759364e-04 9.531740e-04 8.157963e-04 9.114479e-04 8.550257e-04 8.487010e-04 7.716285e-04 7.654031e-04 6.984391e-04 7.964145e-04 6.612186e-04 6.368489e-04 6.228214e-04 5.513499e-04 5.291020e-04 5.274596e-04 4.837998e-04 5.473822e-04 5.437320e-04 5.058750e-04 4.822971e-04 4.468229e-04 1.014275e-01 5.572643e-02 5.021843e-02 2.938793e-02 3.007598e-02 2.691240e-02 2.377573e-02 2.143372e-02 2.510380e-02 2.427410e-02 2.145471e-02 2.096072e-02 2.084415e-02 1.830401e-02 1.881392e-02 1.740228e-02 1.870393e-02 1.493672e-02 1.388759e-02 1.347849e-02 1.330100e-02 1.322732e-02 1.201657e-02 1.185126e-02 1.055805e-02 1.106036e-02 9.330273e-03 8.936833e-03 8.757021e-03 8.603294e-03 8.017207e-03 7.836321e-03 6.910931e-03 7.368160e-03 6.890373e-03 6.457226e-03 6.419640e-03 5.619252e-03 5.295138e-03 4.881933e-03 4.610724e-03 4.913734e-03 4.509002e-03 4.625147e-03 4.599622e-03 3.918333e-03 3.857055e-03 4.182176e-03 3.731666e-03 3.653378e-03 3.518475e-03 3.224262e-03 3.116495e-03 3.054726e-03 2.973982e-03 3.115330e-03 3.248370e-03 3.073563e-03 2.925832e-03 2.652535e-03
<GCONST> -6.005384e+02
<STREAM> 2
<NUMMIXES> 2
<MIXTURE> 1 7.249509e-01
<MEAN> 1
 5.273174e+00
<VARIANCE> 1
 3.315878e-02
<GCONST> -1.568571e+00
<MIXTURE> 2 2.750494e-01
<MEAN> 0
<VARIANCE> 0
<GCONST> 0.000000e+00
<STREAM> 3
<NUMMIXES> 2
<MIXTURE> 1 6.734035e-01
<MEAN> 1
 -2.069646e-03
<VARIANCE> 1
 1.285834e-03
<GCONST> -4.818471e+00
<MIXTURE> 2 3.265961e-01
<MEAN> 0
<VARIANCE> 0
<GCONST> 0.000000e+00
<STREAM> 4
<NUMMIXES> 2
<MIXTURE> 1 6.728149e-01
<MEAN> 1
 3.508397e-04
<VARIANCE> 1
 5.592091e-03
<GCONST> -3.348525e+00
<MIXTURE> 2 3.271846e-01
<MEAN> 0
<VARIANCE> 0
<GCONST> 0.000000e+00
<STREAM> 5
<MEAN> 15
 -2.956122e+00 -2.075985e+00 -2.034503e+00 -2.236114e+00 -2.118371e+00 8.484000e-03 1.162291e-02 6.559424e-03 8.931202e-03 2.351561e-02 -1.960820e-02 1.079193e-02 3.516331e-03 5.218972e-02 4.848805e-02
<VARIANCE> 15
 9.675844e+00 2.950389e+00 2.820720e+00 3.339178e+00 2.827204e+00 1.622293e+00 6.485706e-01 7.186583e-01 7.512854e-01 6.317678e-01 8.528035e+00 5.341799e+00 5.877959e+00 6.360626e+00 5.453365e+00
<GCONST> 4.231351e+01
<TRANSP> 7
 0.000000e+00 1.000000e+00 0.000000e+00 0.000000e+00 0.000000e+00 0.000000e+00 0.000000e+00
 0.000000e+00 3.606121e-01 6.393878e-01 0.000000e+00 0.000000e+00 0.000000e+00 0.000000e+00
 0.000000e+00 0.000000e+00 4.636493e-01 5.363506e-01 0.000000e+00 0.000000e+00 0.000000e+00
 0.000000e+00 0.000000e+00 0.000000e+00 3.939768e-01 6.060232e-01 0.000000e+00 0.000000e+00
 0.000000e+00 0.000000e+00 0.000000e+00 0.000000e+00 2.535105e-01 7.464895e-01 0.000000e+00
 0.000000e+00 0.000000e+00 0.000000e+00 0.000000e+00 0.000000e+00 8.063737e-01 1.936263e-01
 0.000000e+00 0.000000e+00 0.000000e+00 0.000000e+00 0.000000e+00 0.000000e+00 0.000000e+00
<ENDHMM>
~h "G"
<BEGINHMM>
<NUMSTATES> 7
<STATE> 2
<SWEIGHTS> 5
 1.000000e+00 0.000000e+00 0.000000e+00 0.000000e+00 0.000000e+00
<STREAM> 1
<MEAN> 180
 5.508588e+00 2.714438e+00 -1.710995e-02 6.373544e-01 3.444105e-01 -8.138917e-02 4.728604e-03 3.704420e-01 -2.875317e-01 -2.673409e-02 -6.333044e-02 -3.381938e-02 -1.219423e-01 4.288558e-02 -2.189788e-01 2.467007e-01 -4.489218e-02 -1.069101e-01 1.171492e-01 -6.473712e-02 -1.664346e-01 1.222454e-01 -3.211357e-02 -6.522636e-02 5.680794e-02 4.689327e-02 -1.010094e-01 1.041973e-01 -1.489179e-02 3.883823e-02 3.099654e-02 3.361192e-02 1.820715e-02 1.037192e-02 -2.103465e-02 4.520025e-02 -9.813547e-02 8.685111e-02 -7.943111e-02 3.151009e-02 -3.229585e-02 2.351953e-02 -2.233929e-02 2.527872e-02 -3.819708e-02 3.904385e-02 -5.751280e-02 4.180915e-02 -2.332458e-02 2.096444e-02 -2.117949e-02 2.419820e-02 -1.372464e-02 -2.220911e-04 2.295253e-03 2.048102e-02 -4.593587e-02 6.573032e-02 -7.482402e-02 6.407130e-02 5.853989e-03 3.320711e-03 -6.144503e-03 -5.208200e-03 2.540606e-03 1.303598e-03 -1.097310e-03 1.201859e-03 4.454231e-04 -1.430205e-04 4.827510e-04 -2.235838e-04 -3.384463e-04 5.073829e-04 -5.066898e-04 1.738641e-03 6.656551e-04 -2.417297e-03 5.905584e-04 1.945081e-04 -5.448296e-04 -8.066943e-05 1.771330e-04 1.705051e-03 -5.417871e-04 -7.255026e-04 1.085711e-03 4.496854e-04 -4.006983e-04 3.292690e-04 8.305111e-04 2.732937e-04 3.557075e-04 -2.958251e-04 -1.428897e-04 3.938833e-04 -1.184009e-03 4.605711e-04 -1.458691e-04 -8.908813e-04 3.672512e-04 -2.389541e-04 -1.337240e-04 1.535858e-04 -1.977028e-04 -4.854641e-04 1.777531e-04 -7.496860e-05 -2.822964e-04 4.052935e-04 5.559274e-05 -7.584499e-05 5.493029e-05 -2.606003e-04 4.322168e-04 2.337276e-05 -4.431904e-04 5.517538e-04 -4.420342e-04 1.554594e-04 -1.048462e-02 -2.190893e-03 5.040434e-03 -1.263351e-03 1.878001e-04 3.047186e-03 2.412172e-04 -6.435575e-04 2.904488e-03 7.503144e-05 -4.494753e-04 8.731241e-04 -1.055964e-03 -7.561225e-04 1.435889e-03 -5.541777e-05 1.931521e-04 1.343653e-04 -1.196676e-03 7.442208e-04 1.644157e-04 -1.495744e-03 1.697090e-04 -9.449462e-05 -7.490683e-04 -7.012911e-05 -8.937484e-05 -5.412278e-04 2.994434e-04 -2.812961e-04 -6.749449e-04 2.369170e-04 -4.273928e-05 9.571654e-05 2.442044e-04 2.250127e-04 8.247115e-05 -2.915439e-04 3.859252e-04 6.272346e-05 -2.362757e-04 3.761491e-04 2.478717e-04 -1.216333e-04 -1.124858e-04 -1.506705e-05 2.208649e-04 1.976402e-05 -5.173512e-05 -6.229943e-05 -1.101298e-04 2.616847e-04 -1.956972e-04 -1.691920e-04 3.209082e-04 -2.296513e-04 2.092227e-04 -2.891298e-04 3.135761e-04 -2.849272e-04
<VARIANCE> 180
 6.474916e-01 4.027253e-01 2.799452e-01 1.937093e-01 2.867350e-01 1.458526e-01 7.529987e-02 6.206273e-02 4.541407e-02 4.328080e-02 5.026360e-02 4.443534e-02 2.583593e-02 2.557001e-02 2.687152e-02 2.489170e-02 4.264865e-02 2.192143e-02 1.966770e-02 2.078398e-02 1.851503e-02 2.230752e-02 1.675813e-02 1.336367e-02 1.555150e-02 1.091552e-02 9.413914e-03 1.046226e-02 8.499083e-03 7.273046e-03 8.314420e-03 8.747287e-03 7.972938e-03 6.738623e-03 7.401456e-03 6.635747e-03 6.439094e-03 6.542405e-03 6.474792e-03 5.144021e-03 5.470354e-03 5.588043e-03 4.172118e-03 4.571436e-03 5.053676e-03 4.141542e-03 3.727606e-03 3.257755e-03 3.292499e-03 3.778412e-03 3.353055e-03 3.022708e-03 2.983611e-03 2.943015e-03 2.917779e-03 2.931008e-03 2.812587e-03 3.029697e-03 3.111491e-03 2.993760e-03 1.201867e-02 6.715375e-03 6.072007e-03 3.947417e-03 3.216555e-03 2.670482e-03 2.249438e-03 2.039655e-03 2.063103e-03 1.901557e-03 1.823008e-03 1.727399e-03 1.472387e-03 1.455840e-03 1.611472e-03 1.495516e-03 1.562458e-03 1.421538e-03 1.232269e-03 1.243909e-03 1.207731e-03 1.275753e-03 1.050968e-03 1.083731e-03 1.078341e-03 9.892861e-04 9.210265e-04 8.900187e-04 8.632618e-04 8.680369e-04 8.038557e-04 7.702782e-04 7.369736e-04 6.956807e-04 6.909476e-04 6.662304e-04 6.492315e-04 6.201650e-04 5.674316e-04 5.416966e-04 5.136193e-04 5.075566e-04 5.065709e-04 4.995322e-04 4.817409e-04 4.489807e-04 4.349052e-04 3.897926e-04 3.996365e-04 3.998436e-04 3.798361e-04 3.719021e-04 3.540269e-04 3.450891e-04 3.268352e-04 3.509946e-04 3.380252e-04 3.474992e-04 3.209613e-04 3.190251e-04 5.440223e-03 4.069279e-03 4.867679e-03 3.717251e-03 3.395087e-03 3.012888e-03 2.611016e-03 2.657694e-03 2.554740e-03 2.519099e-03 2.529543e-03 2.642845e-03 2.407010e-03 2.393551e-03 2.420310e-03 2.452887e-03 2.475250e-03 2.455512e-03 2.202625e-03 2.161527e-03 2.136382e-03 2.153152e-03 2.023553e-03 2.087813e-03 1.962807e-03 1.897215e-03 1.855209e-03 1.696407e-03 1.785399e-03 1.748491e-03 1.726514e-03 1.619319e-03 1.525734e-03 1.451365e-03 1.432840e-03 1.416902e-03 1.339752e-03 1.357126e-03 1.232037e-03 1.176224e-03 1.154111e-03 1.146434e-03 1.073362e-03 1.147291e-03 1.076431e-03 9.623249e-04 9.483158e-04 9.193998e-04 9.066488e-04 9.288639e-04 8.717809e-04 8.388843e-04 7.764553e-04 7.705803e-04 7.524562e-04 7.970090e-04 7.818033e-04 7.747856e-04 7.168679e-04 7.079208e-04
<GCONST> -7.359124e+02
<STREAM> 2
<NUMMIXES> 2
<MIXTURE> 1 9.759021e-01
<MEAN> 1
 4.681461e+00
<VARIANCE> 1
 3.145548e-02
<GCONST> -1.621305e+00
<MIXTURE> 2 2.409768e-02
<MEAN> 0
<VARIANCE> 0
<GCONST> 0.000000e+00
<STREAM> 3
<NUMMIXES> 2
<MIXTURE> 1 9.695469e-01
<MEAN> 1
 -2.890412e-03
<VARIANCE> 1
 3.031406e-04
<GCONST> -6.263436e+00
<MIXTURE> 2 3.045292e-02
<MEAN> 0
<VARIANCE> 0
<GCONST> 0.000000e+00
<STREAM> 4
<NUMMIXES> 2
<MIXTURE> 1 9.690353e-01
<MEAN> 1
 6.079553e-04
<VARIANCE> 1
 6.666591e-04
<GCONST> -5.475355e+00
<MIXTURE> 2 3.096458e-02
<MEAN> 0
<VARIANCE> 0
<GCONST> 0.000000e+00
<STREAM> 5
<MEAN> 15
 -6.949555e+00 -3.545081e+00 -3.249918e+00 -3.004854e+00 -3.059403e+00 -4.619166e-02 -1.346294e-02 -1.308451e-02 -7.383123e-03 -2.067152e-03 7.810542e-02 1.796174e-02 2.454487e-02 1.175340e-02 1.732310e-02
<VARIANCE> 15
 1.423675e+01 3.075013e+00 1.582733e+00 1.157520e+00 1.160911e+00 1.789122e+00 6.230050e-01 4.544954e-01 3.503103e-01 3.506044e-01 1.176873e+01 3.336883e+00 2.909338e+00 2.454462e+00 2.418177e+00
<GCONST> 3.584418e+01
<STATE> 3
<SWEIGHTS> 5
 1.000000e+00 0.000000e+00 0.000000e+00 0.000000e+00 0.000000e+00
<STREAM> 1
<MEAN> 180
 5.064902e+00 2.790238e+00 1.720747e-01 5.015618e-01 4.295140e-01 9.796639e-02 -1.957374e-02 3.487754e-01 -1.651860e-01 -7.655091e-02 -1.225896e-01 -6.480285e-03 -1.520306e-01 -3.205370e-02 -1.447887e-01 2.589569e-01 -1.164638e-02 -1.352025e-01 9.892611e-02 1.039585e-02 -1.774558e-01 6.492943e-02 -1.178817e-03 -5.492387e-02 4.005585e-03 6.922644e-02 -7.015128e-02 7.267864e-02 2.033801e-02 3.737660e-02 1.105593e-02 5.538230e-02 -1.419340e-02 5.411245e-03 -2.046390e-02 3.848095e-02 -9.375291e-02 7.715721e-02 -6.457739e-02 1.266090e-02 -2.016382e-02 1.831051e-02 -2.448792e-02 2.801607e-02 -3.666661e-02 2.794129e-02 -3.764423e-02 3.552006e-02 -3.609372e-02 4.145016e-02 -3.576330e-02 3.169887e-02 -1.457839e-02 9.474200e-04 -1.870983e-03 2.710591e-02 -4.897396e-02 5.766646e-02 -5.570726e-02 4.030325e-02 -2.367983e-02 -5.360343e-03 9.141734e-03 -3.060228e-03 2.983028e-03 7.578994e-03 -7.786055e-04 -2.448040e-04 5.221292e-03 -2.837499e-03 -1.580366e-03 1.642380e-03 -2.946015e-03 -2.806271e-03 2.493996e-03 -9.187454e-04 1.402643e-03 1.140107e-03 -1.003500e-04 2.564398e-03 6.039647e-05 -6.701684e-04 8.982237e-04 -8.735288e-04 -1.470463e-03 -6.320012e-04 3.439440e-04 -5.762728e-04 1.108252e-03 4.832289e-04 -8.884332e-04 4.399422e-04 -5.249674e-04 2.115228e-04 -4.659195e-04 -2.848416e-04 5.744109e-04 -1.089864e-03 5.307711e-04 -2.648588e-05 -3.427755e-04 9.990965e-05 1.694505e-04 -2.415213e-04 9.413365e-05 1.902664e-04 -2.867550e-04 -6.466328e-05 5.892846e-04 -6.314840e-04 1.443365e-04 3.506136e-04 -4.664774e-04 3.591179e-04 -2.755953e-04 1.280383e-04 2.129380e-04 -5.702876e-04 8.988262e-04 -6.682729e-04 -2.207923e-03 -1.976476e-03 5.434471e-04 1.883608e-04 -7.891170e-04 1.066321e-03 1.325255e-03 -7.633816e-04 -2.541280e-04 -2.360366e-05 -3.995310e-04 1.322364e-03 -1.123454e-05 -1.274521e-03 4.962055e-04 -3.180436e-04 3.381615e-04 8.757961e-04 1.853536e-04 3.993358e-04 3.180332e-05 -2.843869e-05 3.813409e-04 -4.556763e-04 3.451223e-04 -6.844192e-04 -4.968538e-04 6.361053e-04 2.673765e-04 -2.652877e-04 -3.297219e-04 2.504990e-04 1.720949e-04 1.480088e-04 -9.817018e-05 -6.390724e-04 6.041046e-04 -1.141875e-04 -2.761837e-06 -4.055473e-06 -3.262316e-04 6.682560e-04 -6.416289e-04 5.228746e-04 -2.829299e-04 1.346503e-04 -1.983528e-04 -1.765012e-04 4.653153e-04 -4.537766e-04 8.479170e-05 1.790255e-05 -2.184107e-04 6.119832e-04 -8.777744e-04 3.921314e-04 2.413401e-04 -2.724073e-04 7.133652e-05 2.079166e-04
<VARIANCE> 180
