~o
<STREAMINFO> 5 180 1 1 1 15
<MSDINFO> 5 0 1 1 1 0
<VECSIZE> 198<NULLD><USER><DIAGC>
~h "C"
<BEGINHMM>
<NUMSTATES> 7
<STATE> 2
<SWEIGHTS> 5
 1.000000e+00 0.000000e+00 0.000000e+00 0.000000e+00 0.000000e+00
<STREAM> 1
<MEAN> 180
 4.294076e+00 1.874039e+00 1.887212e-01 7.948505e-01 4.008538e-02 4.081979e-01 -1.359142e-01 2.903810e-01 -1.481530e-01 1.023749e-01 -6.155505e-02 1.632636e-01 -1.065226e-01 1.180487e-01 -7.368766e-02 5.174460e-02 -1.457320e-01 5.217247e-02 -9.776169e-02 4.493789e-02 -1.648044e-02 8.592891e-03 -2.057678e-02 5.695526e-02 -3.770744e-02 4.772504e-02 -5.734960e-02 5.416679e-02 -3.643065e-02 5.082395e-02 -5.658584e-02 4.133409e-02 -4.217383e-02 2.340390e-02 -2.527049e-02 2.480524e-02 -3.738946e-02 3.551188e-02 -4.703446e-02 3.207667e-02 -3.281275e-02 2.861807e-02 -2.960939e-02 2.820525e-02 -2.689342e-02 1.906789e-02 -1.492960e-02 1.093313e-02 -6.566124e-03 3.518060e-03 -5.548204e-03 7.767919e-03 -7.093181e-03 6.704007e-03 -7.324232e-03 6.848190e-03 -6.800258e-03 7.662146e-03 -8.375150e-03 8.028029e-03 2.600492e-03 9.647982e-04 -4.282881e-04 8.422942e-04 1.106445e-04 -6.713878e-04 -9.445598e-05 1.267552e-04 -5.203732e-04 -4.121680e-04 1.134859e-04 3.837608e-04 -2.135536e-04 8.043821e-05 -1.157708e-04 -1.210679e-04 -1.649271e-04 -8.756251e-06 8.385620e-05 -3.053928e-04 5.056836e-05 -1.938195e-04 6.916963e-05 2.124819e-04 -1.308500e-04 1.088905e-04 1.583430e-05 -7.159020e-05 2.143463e-05 1.411963e-04 4.134430e-05 -2.414938e-05 -8.638547e-06 5.319889e-05 3.010017e-06 4.746086e-05 -8.742005e-05 2.607159e-04 -7.651030e-05 -4.345927e-05 1.913433e-05 -7.979522e-05 1.867847e-05 2.621802e-05 -9.204534e-06 5.000775e-05 -1.131446e-04 1.153611e-04 -8.236508e-05 -2.158025e-05 1.176905e-04 -1.662098e-04 1.585055e-04 -1.066948e-04 2.629329e-05 3.198415e-05 -2.943274e-05 -7.923186e-06 3.120418e-05 1.030804e-05 1.433736e-04 1.042272e-04 6.382754e-06 -8.225932e-06 -1.023990e-05 1.425833e-06 3.337622e-06 1.965999e-05 5.249114e-06 4.368192e-07 -4.152030e-06 1.582764e-05 2.058767e-05 5.579614e-06 -1.349231e-05 -3.077666e-06 2.679625e-05 2.718087e-05 9.734243e-06 2.677770e-05 1.147761e-05 8.327508e-06 -1.303139e-05 -1.047542e-05 -1.946738e-05 -2.050002e-05 1.036982e-06 -1.784567e-05 -4.239553e-06 9.662241e-06 9.626569e-07 -1.725143e-06 -7.345343e-06 1.565613e-07 -1.033410e-05 -7.838400e-06 1.902944e-05 4.366183e-06 -8.609285e-06 2.141746e-06 3.492167e-06 -2.103034e-06 -3.702830e-06 -3.298227e-06 4.905845e-06 9.555241e-06 -8.758546e-06 -1.384925e-06 4.752865e-06 -6.878291e-07 6.486613e-07 5.734409e-07 -6.421758e-06 6.782915e-06 2.124701e-06 -1.028828e-05 8.466408e-06 -5.467105e-06 6.545702e-06 -6.133801e-06
<VARIANCE> 180
 4.610240e+00 9.527729e-01 2.333145e-01 2.138529e-01 1.457235e-01 5.926553e-02 9.962071e-02 3.890268e-02 7.769809e-02 4.297778e-02 4.357902e-02 3.585895e-02 3.273084e-02 2.101486e-02 2.666241e-02 2.219100e-02 2.181741e-02 1.981358e-02 2.001625e-02 1.345823e-02 1.510715e-02 1.540851e-02 1.173418e-02 1.075942e-02 1.043674e-02 9.759380e-03 9.813464e-03 8.991191e-03 7.848151e-03 7.367657e-03 6.639502e-03 6.530138e-03 5.809749e-03 6.045810e-03 5.038091e-03 5.133190e-03 4.678654e-03 5.120287e-03 4.525501e-03 4.679272e-03 4.422822e-03 3.998620e-03 3.667532e-03 3.593112e-03 3.786577e-03 3.872775e-03 3.767085e-03 3.259593e-03 2.799458e-03 2.942026e-03 3.165490e-03 3.008896e-03 2.736821e-03 2.733293e-03 2.771756e-03 2.404191e-03 2.411121e-03 2.376907e-03 2.445525e-03 2.426315e-03 5.706902e-02 2.505074e-02 1.601434e-02 8.905804e-03 8.345408e-03 5.758347e-03 5.941954e-03 4.806534e-03 5.383676e-03 4.940508e-03 4.535560e-03 4.389997e-03 4.006476e-03 3.679849e-03 3.830892e-03 3.544288e-03 3.438828e-03 3.288983e-03 2.965985e-03 2.858225e-03 2.792000e-03 2.649824e-03 2.436772e-03 2.333986e-03 2.236173e-03 2.097250e-03 1.948171e-03 1.831748e-03 1.768311e-03 1.658288e-03 1.549621e-03 1.448953e-03 1.378234e-03 1.351483e-03 1.255229e-03 1.193955e-03 1.160297e-03 1.097511e-03 1.034862e-03 9.938350e-04 9.782759e-04 8.857707e-04 8.768728e-04 8.659972e-04 8.053395e-04 7.783367e-04 7.788957e-04 7.446006e-04 7.166883e-04 6.764538e-04 6.543505e-04 6.394138e-04 5.867199e-04 5.866736e-04 5.904044e-04 5.346502e-04 5.244095e-04 5.213653e-04 5.205775e-04 5.061206e-04 7.453187e-02 3.241362e-02 3.677350e-02 2.224801e-02 2.211772e-02 1.894054e-02 1.841382e-02 1.675252e-02 1.872442e-02 1.715553e-02 1.681303e-02 1.578147e-02 1.474811e-02 1.524548e-02 1.502801e-02 1.441556e-02 1.362779e-02 1.319029e-02 1.190204e-02 1.196641e-02 1.079293e-02 1.109638e-02 9.996385e-03 9.592607e-03 9.762454e-03 8.801371e-03 8.480578e-03 7.780358e-03 7.373249e-03 7.079900e-03 6.381606e-03 6.281380e-03 6.084039e-03 5.795073e-03 5.436551e-03 5.241754e-03 5.161809e-03 4.803061e-03 4.751439e-03 4.444181e-03 4.326388e-03 3.972987e-03 3.897964e-03 3.726277e-03 3.603968e-03 3.451839e-03 3.321168e-03 3.208152e-03 3.071722e-03 2.967681e-03 2.918599e-03 2.837212e-03 2.676505e-03 2.660487e-03 2.699579e-03 2.475240e-03 2.420344e-03 2.360370e-03 2.384266e-03 2.294559e-03
<GCONST> -6.095313e+02
<STREAM> 2
<NUMMIXES> 2
<MIXTURE> 1 5.602739e-01
<MEAN> 1
 5.242888e+00
<VARIANCE> 1
 3.946722e-02
<GCONST> -1.394408e+00
<MIXTURE> 2 4.397251e-01
<MEAN> 0
<VARIANCE> 0
<GCONST> 0.000000e+00
<STREAM> 3
<NUMMIXES> 2
<MIXTURE> 1 5.322548e-01
<MEAN> 1
 -2.498228e-03
<VARIANCE> 1
 9.354753e-04
<GCONST> -5.136579e+00
<MIXTURE> 2 4.677444e-01
<MEAN> 0
<VARIANCE> 0
<GCONST> 0.000000e+00
<STREAM> 4
<NUMMIXES> 2
<MIXTURE> 1 5.285322e-01
<MEAN> 1
 -4.965109e-04
<VARIANCE> 1
 3.463500e-03
<GCONST> -3.827599e+00
<MIXTURE> 2 4.714671e-01
<MEAN> 0
<VARIANCE> 0
<GCONST> 0.000000e+00
<STREAM> 5
<MEAN> 15
 -2.786627e+00 -1.866138e+00 -1.842352e+00 -1.775821e+00 -1.660261e+00 -1.310979e-02 -4.561354e-03 -4.471854e-03 -4.385122e-03 -4.348928e-03 -4.019358e-04 -1.594873e-04 -1.716392e-04 -1.781953e-04 -1.345238e-04
<VARIANCE> 15
 1.325871e+01 4.470737e+00 4.342333e+00 3.829498e+00 3.260989e+00 1.165395e+00 6.628497e-01 6.834399e-01 6.334458e-01 5.386841e-01 7.450945e+00 5.477603e+00 5.719316e+00 5.274734e+00 4.608808e+00
<GCONST> 4.257333e+01
<STATE> 3
<SWEIGHTS> 5
 1.000000e+00 0.000000e+00 0.000000e+00 0.000000e+00 0.000000e+00
<STREAM> 1
<MEAN> 180
 4.302391e+00 1.877995e+00 1.860845e-01 7.965799e-01 4.062087e-02 4.056988e-01 -1.355952e-01 2.910727e-01 -1.494191e-01 1.009729e-01 -6.071460e-02 1.648098e-01 -1.071281e-01 1.184232e-01 -7.448751e-02 5.124069e-02 -1.461149e-01 5.229912e-02 -9.741524e-02 4.399927e-02 -1.627580e-02 7.902285e-03 -2.052546e-02 5.782605e-02 -3.822881e-02 4.793118e-02 -5.715954e-02 5.379528e-02 -3.640427e-02 5.132958e-02 -5.636736e-02 4.115228e-02 -4.228557e-02 2.351818e-02 -2.516570e-02 2.483590e-02 -3.765494e-02 3.656429e-02 -4.748796e-02 3.190809e-02 -3.272545e-02 2.839583e-02 -2.956994e-02 2.827657e-02 -2.693742e-02 1.929572e-02 -1.528368e-02 1.127450e-02 -6.844884e-03 3.498416e-03 -5.200452e-03 7.254661e-03 -6.628644e-03 6.419334e-03 -7.238482e-03 6.841330e-03 -6.742636e-03 7.522184e-03 -8.198790e-03 7.994580e-03 3.024494e-03 1.366844e-03 -4.510545e-04 6.733349e-04 1.441882e-05 -6.373227e-04 -6.097010e-05 1.800711e-04 -4.726929e-04 -3.689864e-04 1.416346e-04 4.358834e-04 -1.586733e-04 9.802297e-05 -1.422992e-04 -1.276772e-04 -7.163454e-05 4.614539e-05 9.708061e-05 -2.193678e-04 7.601302e-05 -1.501044e-04 1.625023e-05 1.868288e-04 -1.762115e-04 7.434467e-05 4.328502e-05 -1.181200e-04 -4.557707e-06 1.433281e-04 4.331515e-05 -2.359190e-05 -3.397681e-05 5.789727e-05 -1.385484e-05 1.214643e-05 -5.174753e-05 2.441439e-04 -8.381666e-05 -3.833761e-05 3.212915e-05 -7.895041e-05 1.564096e-05 8.079155e-06 -1.233767e-05 9.029248e-05 -1.319103e-04 1.192046e-04 -8.482970e-05 -2.243606e-05 1.301408e-04 -1.701813e-04 1.354345e-04 -7.829550e-05 2.155537e-05 8.442677e-06 -1.507725e-06 -2.971670e-05 5.531328e-05 -2.074451e-05 7.111773e-05 6.140654e-05 6.333648e-06 -4.599397e-05 -1.985003e-05 1.011309e-05 1.027139e-05 2.618275e-05 1.803155e-05 1.504783e-05 1.025909e-05 1.232817e-05 1.946633e-05 6.025527e-06 -9.608626e-06 1.202494e-06 2.655326e-05 1.337229e-05 -7.790852e-06 2.468203e-05 1.478183e-06 1.185609e-05 -1.523337e-05 -8.730238e-06 -9.839727e-06 -7.578978e-06 9.529977e-06 -1.113164e-05 -8.155848e-06 -1.169512e-06 -1.031348e-06 -2.528677e-07 -4.655351e-06 1.320158e-06 -5.317422e-06 -9.267565e-06 9.034123e-06 -5.319587e-06 -1.980731e-06 3.112730e-06 1.833832e-06 3.335894e-06 -1.459893e-06 -4.896495e-06 -1.029257e-06 1.033366e-05 -4.143548e-06 1.217631e-07 -9.368621e-07 1.246466e-06 1.202351e-06 1.785038e-07 -5.905662e-06 6.756798e-06 -1.060641e-06 -6.118502e-06 7.801270e-06 -6.404116e-06 6.496270e-06 -8.292176e-06
<VARIANCE> 180
 4.666568e+00 9.488573e-01 2.333647e-01 2.143831e-01 1.471463e-01 5.924092e-02 1.010663e-01 3.868685e-02 7.664967e-02 4.291032e-02 4.330183e-02 3.575619e-02 3.317752e-02 2.101628e-02 2.646565e-02 2.208805e-02 2.179135e-02 1.974856e-02 1.999282e-02 1.343996e-02 1.517317e-02 1.552866e-02 1.171492e-02 1.088900e-02 1.052134e-02 9.837425e-03 9.947978e-03 9.097565e-03 7.815362e-03 7.387306e-03 6.653342e-03 6.523648e-03 5.865217e-03 6.113088e-03 5.103366e-03 5.189030e-03 4.705508e-03 5.154486e-03 4.515027e-03 4.702475e-03 4.467838e-03 4.051056e-03 3.679502e-03 3.591902e-03 3.786581e-03 3.872505e-03 3.770822e-03 3.267583e-03 2.779654e-03 2.915634e-03 3.153671e-03 3.015592e-03 2.721607e-03 2.713273e-03 2.771990e-03 2.418418e-03 2.419044e-03 2.367665e-03 2.453038e-03 2.440760e-03 5.744535e-02 2.486885e-02 1.604154e-02 8.853661e-03 8.353349e-03 5.773348e-03 5.913001e-03 4.799328e-03 5.354052e-03 4.943133e-03 4.533750e-03 4.357458e-03 3.991052e-03 3.657152e-03 3.819962e-03 3.520803e-03 3.433024e-03 3.259529e-03 2.992314e-03 2.861302e-03 2.783950e-03 2.650459e-03 2.423080e-03 2.320305e-03 2.237193e-03 2.096366e-03 1.941718e-03 1.837894e-03 1.761479e-03 1.640680e-03 1.542323e-03 1.442336e-03 1.384158e-03 1.354397e-03 1.257125e-03 1.190240e-03 1.161783e-03 1.098638e-03 1.026563e-03 9.936552e-04 9.853264e-04 8.841406e-04 8.758997e-04 8.643371e-04 8.055128e-04 7.765242e-04 7.709340e-04 7.435110e-04 7.077274e-04 6.769135e-04 6.553763e-04 6.361947e-04 5.861749e-04 5.835905e-04 5.905356e-04 5.345326e-04 5.238521e-04 5.188226e-04 5.201294e-04 5.059644e-04 7.504608e-02 3.240540e-02 3.691176e-02 2.211605e-02 2.204962e-02 1.889453e-02 1.827403e-02 1.669497e-02 1.864138e-02 1.710336e-02 1.668973e-02 1.570966e-02 1.468494e-02 1.510628e-02 1.497784e-02 1.419674e-02 1.356274e-02 1.308941e-02 1.188393e-02 1.189875e-02 1.072146e-02 1.103057e-02 9.961803e-03 9.530305e-03 9.756858e-03 8.766702e-03 8.439160e-03 7.770101e-03 7.366846e-03 7.005255e-03 6.350805e-03 6.247029e-03 6.075918e-03 5.770039e-03 5.445004e-03 5.234613e-03 5.145694e-03 4.812344e-03 4.722668e-03 4.443379e-03 4.349039e-03 3.950051e-03 3.916127e-03 3.707331e-03 3.583886e-03 3.457681e-03 3.308746e-03 3.196831e-03 3.057852e-03 2.962378e-03 2.912727e-03 2.814570e-03 2.670594e-03 2.646722e-03 2.698416e-03 2.460923e-03 2.407240e-03 2.347654e-03 2.382745e-03 2.292076e-03
<GCONST> -6.097225e+02
<STREAM> 2
<NUMMIXES> 2
<MIXTURE> 1 5.619693e-01
<MEAN> 1
 5.241140e+00
<VARIANCE> 1
 3.903186e-02
<GCONST> -1.405500e+00
<MIXTURE> 2 4.380300e-01
<MEAN> 0
<VARIANCE> 0
<GCONST> 0.000000e+00
<STREAM> 3
<NUMMIXES> 2
<MIXTURE> 1 5.340292e-01
<MEAN> 1
 -2.418342e-03
<VARIANCE> 1
 9.349944e-04
<GCONST> -5.137093e+00
<MIXTURE> 2 4.659699e-01
<MEAN> 0
<VARIANCE> 0
<GCONST> 0.000000e+00
<STREAM> 4
<NUMMIXES> 2
<MIXTURE> 1 5.302328e-01
<MEAN> 1
 -5.159437e-04
<VARIANCE> 1
 3.464974e-03
<GCONST> -3.827173e+00
<MIXTURE> 2 4.697663e-01
<MEAN> 0
<VARIANCE> 0
<GCONST> 0.000000e+00
<STREAM> 5
<MEAN> 15
 -2.829097e+00 -1.880977e+00 -1.856093e+00 -1.789551e+00 -1.673461e+00 -1.410838e-02 -5.038350e-03 -4.871408e-03 -4.734081e-03 -4.535985e-03 -6.244223e-05 -3.402489e-05 -1.008204e-05 -1.422980e-05 1.643048e-05
<VARIANCE> 15
 1.365874e+01 4.518115e+00 4.381961e+00 3.881704e+00 3.292727e+00 1.169556e+00 6.668566e-01 6.838237e-01 6.421015e-01 5.416293e-01 7.539460e+00 5.448891e+00 5.718890e+00 5.332934e+00 4.618080e+00
<GCONST> 4.269453e+01
<STATE> 4
<SWEIGHTS> 5
 1.000000e+00 0.000000e+00 0.000000e+00 0.000000e+00 0.000000e+00
<STREAM> 1
<MEAN> 180
 4.311798e+00 1.883664e+00 1.833224e-01 7.972357e-01 4.063965e-02 4.033791e-01 -1.351434e-01 2.918209e-01 -1.504242e-01 9.983876e-02 -5.971374e-02 1.664612e-01 -1.077414e-01 1.186987e-01 -7.531524e-02 5.075034e-02 -1.461698e-01 5.246187e-02 -9.712142e-02 4.329287e-02 -1.598868e-02 7.425272e-03 -2.065978e-02 5.865489e-02 -3.887410e-02 4.813186e-02 -5.677950e-02 5.333548e-02 -3.643192e-02 5.173993e-02 -5.615995e-02 4.100663e-02 -4.248100e-02 2.366297e-02 -2.506005e-02 2.474517e-02 -3.785055e-02 3.744206e-02 -4.788633e-02 3.181985e-02 -3.264366e-02 2.814778e-02 -2.946888e-02 2.826691e-02 -2.703016e-02 1.964724e-02 -1.568769e-02 1.167589e-02 -7.184424e-03 3.485519e-03 -4.805028e-03 6.719342e-03 -6.218514e-03 6.200319e-03 -7.176127e-03 6.798057e-03 -6.623962e-03 7.326909e-03 -7.951421e-03 7.836822e-03 3.150606e-03 1.597777e-03 -4.382741e-04 4.061364e-04 -1.039958e-04 -5.826720e-04 -2.290542e-05 2.396301e-04 -3.895501e-04 -2.870782e-04 1.937626e-04 4.472781e-04 -1.453754e-04 7.311761e-05 -1.635137e-04 -1.120104e-04 1.246592e-05 5.131597e-05 3.867770e-05 -1.529969e-04 7.645301e-05 -9.217931e-05 -3.768280e-05 1.677079e-04 -2.038591e-04 7.816690e-05 9.967961e-05 -1.359522e-04 -1.826864e-05 1.142544e-04 3.460672e-05 -1.676971e-05 -4.492545e-05 6.634413e-05 -1.833845e-05 -1.781943e-05 -3.106571e-05 1.964134e-04 -7.197642e-05 -6.786679e-06 2.199355e-05 -7.633607e-05 3.037795e-05 -1.107288e-05 -2.533353e-05 1.181609e-04 -1.406804e-04 1.313876e-04 -1.016630e-04 -1.383680e-05 1.324645e-04 -1.703058e-04 1.227479e-04 -6.508562e-05 1.679326e-05 -7.097909e-07 1.511871e-05 -4.503053e-05 7.264581e-05 -5.203007e-05 -1.588969e-05 1.664322e-05 1.387543e-05 -7.425914e-05 -2.609434e-05 1.468693e-05 1.297873e-05 2.686368e-05 2.811814e-05 2.383525e-05 1.535631e-05 -1.400298e-06 5.821893e-06 -7.849476e-06 -9.588189e-06 6.682640e-06 2.288825e-05 5.296048e-07 -2.586880e-05 1.975425e-05 -4.546698e-06 1.508722e-05 -1.563705e-05 -6.864514e-06 -4.819371e-06 1.393843e-06 1.694311e-05 -2.810085e-06 -2.943693e-06 -9.385965e-06 -3.203694e-06 1.405216e-06 -9.884780e-07 1.974822e-06 -1.217806e-06 -7.865866e-06 5.590787e-06 -1.276373e-05 2.228069e-06 1.027005e-05 -4.724165e-06 3.559163e-06 2.949314e-06 -4.332857e-06 -2.976659e-06 5.374912e-06 -7.050970e-07 1.999106e-06 -4.420544e-06 4.170630e-06 -2.524887e-06 1.912974e-06 -3.328735e-06 2.815649e-06 -9.340429e-07 -2.662553e-06 5.068454e-06 -4.574186e-06 4.301092e-06 -8.050051e-06
<VARIANCE> 180
 4.714744e+00 9.457489e-01 2.340586e-01 2.144103e-01 1.485033e-01 5.935283e-02 1.024163e-01 3.841058e-02 7.576702e-02 4.290613e-02 4.292503e-02 3.560407e-02 3.376700e-02 2.105948e-02 2.627441e-02 2.195126e-02 2.177161e-02 1.964110e-02 1.995361e-02 1.343408e-02 1.524185e-02 1.562815e-02 1.167656e-02 1.103138e-02 1.059605e-02 9.905001e-03 1.006250e-02 9.175584e-03 7.811829e-03 7.411083e-03 6.670499e-03 6.515384e-03 5.913152e-03 6.169362e-03 5.169439e-03 5.244268e-03 4.740035e-03 5.178076e-03 4.498368e-03 4.714425e-03 4.505394e-03 4.099773e-03 3.689273e-03 3.582644e-03 3.770923e-03 3.857894e-03 3.763631e-03 3.271442e-03 2.767670e-03 2.892716e-03 3.132664e-03 3.009583e-03 2.702413e-03 2.687536e-03 2.761984e-03 2.428883e-03 2.426210e-03 2.359244e-03 2.454715e-03 2.452669e-03 5.759480e-02 2.468070e-02 1.604621e-02 8.796572e-03 8.363470e-03 5.781190e-03 5.873777e-03 4.792713e-03 5.316958e-03 4.940771e-03 4.522212e-03 4.328878e-03 3.972984e-03 3.629962e-03 3.804764e-03 3.494644e-03 3.433970e-03 3.227884e-03 3.015505e-03 2.864130e-03 2.777697e-03 2.648313e-03 2.410569e-03 2.302930e-03 2.234002e-03 2.098086e-03 1.937429e-03 1.841123e-03 1.759397e-03 1.625716e-03 1.536903e-03 1.432278e-03 1.390243e-03 1.356552e-03 1.260269e-03 1.187847e-03 1.162561e-03 1.100083e-03 1.017081e-03 9.919205e-04 9.906602e-04 8.820822e-04 8.736229e-04 8.608688e-04 8.029114e-04 7.732354e-04 7.614747e-04 7.400582e-04 6.996669e-04 6.777166e-04 6.550886e-04 6.321024e-04 5.850939e-04 5.806676e-04 5.899281e-04 5.343889e-04 5.234872e-04 5.164845e-04 5.194452e-04 5.055915e-04 7.549005e-02 3.237772e-02 3.701990e-02 2.199641e-02 2.196611e-02 1.882923e-02 1.814096e-02 1.664769e-02 1.852051e-02 1.705843e-02 1.656491e-02 1.565840e-02 1.463151e-02 1.498429e-02 1.491485e-02 1.400363e-02 1.350900e-02 1.299728e-02 1.186154e-02 1.183313e-02 1.066717e-02 1.095298e-02 9.939851e-03 9.466916e-03 9.732478e-03 8.742017e-03 8.392291e-03 7.769079e-03 7.376718e-03 6.946619e-03 6.336780e-03 6.203861e-03 6.077062e-03 5.761266e-03 5.459452e-03 5.239184e-03 5.130805e-03 4.826501e-03 4.688669e-03 4.443085e-03 4.369698e-03 3.931012e-03 3.932767e-03 3.692925e-03 3.563750e-03 3.465225e-03 3.299881e-03 3.182817e-03 3.047046e-03 2.958614e-03 2.904684e-03 2.789930e-03 2.662794e-03 2.635888e-03 2.693683e-03 2.450742e-03 2.397417e-03 2.338848e-03 2.386077e-03 2.294161e-03
<GCONST> -6.099722e+02
<STREAM> 2
<NUMMIXES> 2
<MIXTURE> 1 5.640099e-01
<MEAN> 1
 5.240060e+00
<VARIANCE> 1
 3.857391e-02
<GCONST> -1.417302e+00
<MIXTURE> 2 4.359880e-01
<MEAN> 0
<VARIANCE> 0
<GCONST> 0.000000e+00
<STREAM> 3
<NUMMIXES> 2
<MIXTURE> 1 5.362310e-01
<MEAN> 1
 -2.326912e-03
<VARIANCE> 1
 9.314350e-04
<GCONST> -5.140907e+00
<MIXTURE> 2 4.637666e-01
<MEAN> 0
<VARIANCE> 0
<GCONST> 0.000000e+00
<STREAM> 4
<NUMMIXES> 2
<MIXTURE> 1 5.323946e-01
<MEAN> 1
 -5.262740e-04
<VARIANCE> 1
 3.461161e-03
<GCONST> -3.828274e+00
<MIXTURE> 2 4.676028e-01
<MEAN> 0
<VARIANCE> 0
<GCONST> 0.000000e+00
<STREAM> 5
<MEAN> 15
 -2.874141e+00 -1.897568e+00 -1.870820e+00 -1.803774e+00 -1.686542e+00 -1.391054e-02 -5.106756e-03 -4.727343e-03 -4.535807e-03 -4.221476e-03 2.952038e-04 8.583772e-05 1.472476e-04 1.450448e-04 1.670798e-04
<VARIANCE> 15
 1.407001e+01 4.571822e+00 4.423114e+00 3.929146e+00 3.317694e+00 1.176523e+00 6.709056e-01 6.848320e-01 6.512778e-01 5.439779e-01 7.642772e+00 5.419055e+00 5.736623e+00 5.392349e+00 4.624201e+00
<GCONST> 4.282067e+01
<STATE> 5
<SWEIGHTS> 5
 1.000000e+00 0.000000e+00 0.000000e+00 0.000000e+00 0.000000e+00
<STREAM> 1
<MEAN> 180
 4.321049e+00 1.890233e+00 1.808342e-01 7.966864e-01 4.011967e-02 4.013128e-01 -1.345759e-01 2.926269e-01 -1.510884e-01 9.907350e-02 -5.855558e-02 1.680530e-01 -1.084711e-01 1.187303e-01 -7.612733e-02 5.037745e-02 -1.459080e-01 5.256534e-02 -9.706604e-02 4.278661e-02 -1.564674e-02 7.238987e-03 -2.096520e-02 5.943538e-02 -3.962737e-02 4.838514e-02 -5.620037e-02 5.285533e-02 -3.645463e-02 5.197448e-02 -5.601316e-02 4.091933e-02 -4.272068e-02 2.385106e-02 -2.493281e-02 2.456324e-02 -3.796028e-02 3.806769e-02 -4.820053e-02 3.191949e-02 -3.266019e-02 2.785707e-02 -2.925994e-02 2.817883e-02 -2.715662e-02 2.005443e-02 -1.612568e-02 1.215320e-02 -7.600368e-03 3.502952e-03 -4.409199e-03 6.186389e-03 -5.832789e-03 5.990922e-03 -7.112952e-03 6.751950e-03 -6.506104e-03 7.133581e-03 -7.671783e-03 7.563804e-03 2.932016e-03 1.630044e-03 -3.358726e-04 9.672515e-05 -2.245714e-04 -5.130507e-04 2.005660e-05 2.943488e-04 -2.854788e-04 -1.851760e-04 2.423431e-04 4.101654e-04 -1.649738e-04 9.042034e-06 -1.780460e-04 -7.272707e-05 9.283379e-05 3.424678e-05 -5.799259e-05 -9.034370e-05 7.371465e-05 -1.445004e-05 -8.614093e-05 1.487544e-04 -2.243548e-04 8.934210e-05 1.524090e-04 -1.365703e-04 -1.283547e-05 6.487971e-05 1.570922e-05 -5.218886e-06 -4.844773e-05 7.793731e-05 -1.470874e-05 -4.108481e-05 -5.898529e-06 1.319992e-04 -5.476597e-05 4.865911e-05 -1.197422e-05 -7.629233e-05 5.373824e-05 -2.720129e-05 -3.148770e-05 1.239661e-04 -1.424559e-04 1.453299e-04 -1.204387e-04 1.145185e-06 1.205644e-04 -1.623752e-04 1.163408e-04 -6.442286e-05 1.814001e-05 -3.056713e-06 1.714609e-05 -4.498407e-05 7.854233e-05 -8.007124e-05 -1.088239e-04 -3.315165e-05 3.316590e-05 -8.661180e-05 -2.735162e-05 1.895965e-05 1.612847e-05 2.335980e-05 3.375754e-05 2.809327e-05 1.363454e-05 -1.532645e-05 -3.914672e-06 -1.867032e-05 -8.517349e-06 1.165869e-05 2.158430e-05 -3.948134e-06 -3.220214e-05 1.995398e-05 -4.308917e-06 1.983432e-05 -1.350768e-05 -6.012017e-06 -2.517854e-06 1.317425e-06 1.430517e-05 1.296645e-06 2.714362e-06 -1.420014e-05 -5.490320e-06 2.664979e-06 1.423608e-07 2.507523e-06 1.649247e-06 -6.137258e-06 6.837771e-06 -1.650007e-05 3.202606e-06 1.529034e-05 -1.055972e-05 2.787219e-06 4.747320e-06 -3.121805e-06 -6.444089e-07 -1.199456e-06 1.680998e-06 1.902898e-06 -4.171895e-06 5.604472e-06 -6.655285e-06 4.723284e-06 -2.373195e-06 9.642890e-08 6.707161e-07 -1.313741e-06 1.510341e-06 -3.439900e-07 7.823166e-07 -6.770897e-06
<VARIANCE> 180
 4.754087e+00 9.438619e-01 2.352084e-01 2.138867e-01 1.497948e-01 5.961013e-02 1.035866e-01 3.808992e-02 7.511106e-02 4.296299e-02 4.245172e-02 3.538302e-02 3.438350e-02 2.111747e-02 2.608322e-02 2.177422e-02 2.174769e-02 1.950211e-02 1.987083e-02 1.344538e-02 1.530073e-02 1.570444e-02 1.162125e-02 1.118149e-02 1.065747e-02 9.955215e-03 1.014871e-02 9.212170e-03 7.834008e-03 7.433719e-03 6.691821e-03 6.508579e-03 5.947894e-03 6.214317e-03 5.231986e-03 5.296872e-03 4.778514e-03 5.191852e-03 4.477628e-03 4.711636e-03 4.529123e-03 4.143025e-03 3.695538e-03 3.565404e-03 3.740730e-03 3.829671e-03 3.744368e-03 3.270551e-03 2.763897e-03 2.873337e-03 3.106023e-03 2.991472e-03 2.680626e-03 2.659101e-03 2.742131e-03 2.435696e-03 2.431988e-03 2.350798e-03 2.450521e-03 2.461072e-03 5.743783e-02 2.447976e-02 1.601454e-02 8.738274e-03 8.371864e-03 5.781540e-03 5.828253e-03 4.791155e-03 5.280902e-03 4.929858e-03 4.499444e-03 4.303178e-03 3.955592e-03 3.601966e-03 3.787146e-03 3.471075e-03 3.437964e-03 3.196966e-03 3.032380e-03 2.861986e-03 2.771254e-03 2.643773e-03 2.398701e-03 2.285404e-03 2.226562e-03 2.102205e-03 1.937292e-03 1.843277e-03 1.760995e-03 1.613057e-03 1.533561e-03 1.420889e-03 1.396843e-03 1.358500e-03 1.262951e-03 1.186638e-03 1.162259e-03 1.101842e-03 1.007372e-03 9.890472e-04 9.937575e-04 8.798097e-04 8.702753e-04 8.562219e-04 7.982822e-04 7.690058e-04 7.516784e-04 7.351238e-04 6.930751e-04 6.781314e-04 6.537300e-04 6.278073e-04 5.838174e-04 5.785206e-04 5.886938e-04 5.340597e-04 5.230157e-04 5.140940e-04 5.180346e-04 5.050062e-04 7.574414e-02 3.229668e-02 3.705822e-02 2.188096e-02 2.186197e-02 1.874938e-02 1.802887e-02 1.661600e-02 1.837507e-02 1.700653e-02 1.644188e-02 1.561284e-02 1.459036e-02 1.489326e-02 1.483503e-02 1.385383e-02 1.346361e-02 1.291100e-02 1.182726e-02 1.175830e-02 1.063218e-02 1.086919e-02 9.927457e-03 9.408576e-03 9.687888e-03 8.725078e-03 8.346274e-03 7.777759e-03 7.395361e-03 6.900304e-03 6.335164e-03 6.163602e-03 6.088394e-03 5.768949e-03 5.473068e-03 5.255369e-03 5.116594e-03 4.844207e-03 4.651042e-03 4.440566e-03 4.384329e-03 3.913322e-03 3.945891e-03 3.683977e-03 3.545632e-03 3.473704e-03 3.297010e-03 3.169594e-03 3.038843e-03 2.956698e-03 2.893741e-03 2.764266e-03 2.653264e-03 2.628307e-03 2.684646e-03 2.443920e-03 2.390346e-03 2.332415e-03 2.390962e-03 2.299979e-03
<GCONST> -6.102923e+02
<STREAM> 2
<NUMMIXES> 2
<MIXTURE> 1 5.660151e-01
<MEAN> 1
 5.239705e+00
<VARIANCE> 1
 3.807823e-02
<GCONST> -1.430236e+00
<MIXTURE> 2 4.339844e-01
<MEAN> 0
<VARIANCE> 0
<GCONST> 0.000000e+00
<STREAM> 3
<NUMMIXES> 2
<MIXTURE> 1 5.384761e-01
<MEAN> 1
 -2.231207e-03
<VARIANCE> 1
 9.242469e-04
<GCONST> -5.148654e+00
<MIXTURE> 2 4.615224e-01
<MEAN> 0
<VARIANCE> 0
<GCONST> 0.000000e+00
<STREAM> 4
<NUMMIXES> 2
<MIXTURE> 1 5.346410e-01
<MEAN> 1
 -5.279746e-04
<VARIANCE> 1
 3.447223e-03
<GCONST> -3.832309e+00
<MIXTURE> 2 4.653574e-01
<MEAN> 0
<VARIANCE> 0
<GCONST> 0.000000e+00
<STREAM> 5
<MEAN> 15
 -2.917562e+00 -1.914500e+00 -1.884645e+00 -1.816684e+00 -1.697942e+00 -1.253777e-02 -4.778615e-03 -4.069777e-03 -3.833415e-03 -3.468494e-03 6.135860e-04 1.907358e-04 2.784798e-04 2.744776e-04 2.847599e-04
<VARIANCE> 15
 1.446284e+01 4.631168e+00 4.462683e+00 3.966936e+00 3.334016e+00 1.185642e+00 6.747856e-01 6.860403e-01 6.598613e-01 5.456732e-01 7.745668e+00 5.388730e+00 5.766287e+00 5.442562e+00 4.625125e+00
<GCONST> 4.293834e+01
<STATE> 6
<SWEIGHTS> 5
 1.000000e+00 0.000000e+00 0.000000e+00 0.000000e+00 0.000000e+00
<STREAM> 1
<MEAN> 180
 4.328773e+00 1.896727e+00 1.791269e-01 7.950035e-01 3.915193e-02 3.995885e-01 -1.338885e-01 2.934881e-01 -1.513923e-01 9.873411e-02 -5.729822e-02 1.694317e-01 -1.093260e-01 1.184745e-01 -7.684883e-02 5.021404e-02 -1.453130e-01 5.262269e-02 -9.727700e-02 4.251570e-02 -1.525736e-02 7.392570e-03 -2.140843e-02 6.014788e-02 -4.048749e-02 4.865652e-02 -5.551054e-02 5.236009e-02 -3.643622e-02 5.199341e-02 -5.596264e-02 4.089981e-02 -4.298071e-02 2.409216e-02 -2.479531e-02 2.430641e-02 -3.794096e-02 3.842923e-02 -4.843331e-02 3.224469e-02 -3.283377e-02 2.753625e-02 -2.895014e-02 2.801856e-02 -2.726730e-02 2.044618e-02 -1.657834e-02 1.269300e-02 -8.073845e-03 3.555729e-03 -4.051229e-03 5.682649e-03 -5.464728e-03 5.766382e-03 -7.026070e-03 6.714566e-03 -6.442078e-03 7.003343e-03 -7.397941e-03 7.189110e-03 2.361253e-03 1.434637e-03 -1.307661e-04 -2.014964e-04 -3.218075e-04 -4.224301e-04 7.221321e-05 3.373735e-04 -1.749670e-04 -7.451649e-05 2.720867e-04 3.316975e-04 -1.907606e-04 -6.539203e-05 -1.756699e-04 -1.638841e-05 1.764324e-04 2.336041e-05 -1.462553e-04 -1.425782e-05 7.065164e-05 7.229612e-05 -1.224828e-04 1.284364e-04 -2.406339e-04 8.632231e-05 1.781636e-04 -1.391038e-04 3.014856e-06 7.404278e-06 -9.142073e-06 7.810902e-06 -4.838276e-05 9.142481e-05 -1.137947e-05 -6.112214e-05 2.798797e-05 6.784927e-05 -3.929585e-05 1.067241e-04 -5.787592e-05 -7.076288e-05 7.132899e-05 -4.002249e-05 -2.376188e-05 1.099481e-04 -1.372899e-04 1.535809e-04 -1.317806e-04 1.643404e-05 9.825892e-05 -1.460847e-04 1.096611e-04 -6.808935e-05 2.499772e-05 -3.683263e-06 7.154414e-06 -2.990891e-05 7.419180e-05 -1.038583e-04 -1.978146e-04 -8.750115e-05 5.347764e-05 -8.387841e-05 -2.256945e-05 2.531401e-05 2.014290e-05 1.711138e-05 3.601007e-05 2.903189e-05 7.648623e-06 -2.623702e-05 -6.299044e-06 -2.064359e-05 -3.701948e-06 1.458854e-05 2.178388e-05 -1.173067e-06 -2.548069e-05 2.456636e-05 -3.588646e-06 2.108664e-05 -9.467140e-06 -5.571708e-06 -5.303780e-07 -3.511990e-06 6.429409e-06 -1.078894e-07 5.332444e-06 -1.554644e-05 -6.434336e-06 2.988574e-06 5.740669e-07 2.559992e-06 2.431702e-06 -5.445907e-06 8.285308e-06 -1.574151e-05 2.312045e-06 1.416741e-05 -1.260588e-05 4.445426e-06 2.345523e-06 -1.913028e-06 2.989807e-06 -6.204423e-06 3.586206e-06 -1.060447e-07 -1.523905e-06 5.338132e-06 -9.261477e-06 7.026325e-06 -2.879039e-06 -5.098944e-07 1.950240e-06 -1.001604e-06 -1.447354e-06 3.476574e-06 -1.869847e-06 -5.518809e-06
<VARIANCE> 180
 4.785068e+00 9.436976e-01 2.366371e-01 2.127188e-01 1.510205e-01 6.000256e-02 1.045156e-01 3.774676e-02 7.471781e-02 4.308925e-02 4.189212e-02 3.508701e-02 3.494288e-02 2.117010e-02 2.588810e-02 2.155855e-02 2.172038e-02 1.933861e-02 1.974940e-02 1.348589e-02 1.534515e-02 1.575574e-02 1.155266e-02 1.133524e-02 1.070346e-02 9.978489e-03 1.019439e-02 9.208873e-03 7.875737e-03 7.450783e-03 6.717353e-03 6.506424e-03 5.965493e-03 6.247338e-03 5.288348e-03 5.346088e-03 4.816852e-03 5.194163e-03 4.456737e-03 4.695422e-03 4.535327e-03 4.177665e-03 3.697842e-03 3.540901e-03 3.699760e-03 3.789139e-03 3.712646e-03 3.265279e-03 2.768188e-03 2.857118e-03 3.076979e-03 2.965090e-03 2.657268e-03 2.629898e-03 2.714127e-03 2.439077e-03 2.436336e-03 2.341738e-03 2.441402e-03 2.465759e-03 5.694348e-02 2.426694e-02 1.594139e-02 8.680618e-03 8.374219e-03 5.773944e-03 5.778591e-03 4.796679e-03 5.252958e-03 4.909469e-03 4.466127e-03 4.279926e-03 3.941064e-03 3.576342e-03 3.768409e-03 3.455564e-03 3.440801e-03 3.169907e-03 3.043818e-03 2.853927e-03 2.765007e-03 2.638849e-03 2.387279e-03 2.270649e-03 2.217407e-03 2.106336e-03 1.940874e-03 1.846098e-03 1.764612e-03 1.603220e-03 1.532530e-03 1.410911e-03 1.404288e-03 1.360592e-03 1.263975e-03 1.186672e-03 1.161217e-03 1.103540e-03 9.985778e-04 9.854845e-04 9.944733e-04 8.774588e-04 8.663731e-04 8.507626e-04 7.928884e-04 7.642146e-04 7.425083e-04 7.298915e-04 6.884074e-04 6.778709e-04 6.518911e-04 6.241444e-04 5.827963e-04 5.775486e-04 5.871048e-04 5.336240e-04 5.223523e-04 5.115690e-04 5.156237e-04 5.042925e-04 7.576284e-02 3.214778e-02 3.700715e-02 2.176370e-02 2.173813e-02 1.866106e-02 1.794383e-02 1.660397e-02 1.822420e-02 1.694499e-02 1.632526e-02 1.556546e-02 1.456493e-02 1.484237e-02 1.474160e-02 1.375831e-02 1.342184e-02 1.283095e-02 1.178449e-02 1.167200e-02 1.061656e-02 1.078809e-02 9.922246e-03 9.360163e-03 9.627689e-03 8.713092e-03 8.304299e-03 7.792900e-03 7.413668e-03 6.865922e-03 6.344597e-03 6.137112e-03 6.109293e-03 5.790213e-03 5.481024e-03 5.282548e-03 5.103331e-03 4.862390e-03 4.612228e-03 4.434278e-03 4.390630e-03 3.895689e-03 3.954957e-03 3.679090e-03 3.530425e-03 3.481643e-03 3.300871e-03 3.159857e-03 3.033347e-03 2.956769e-03 2.880581e-03 2.738407e-03 2.642898e-03 2.623833e-03 2.671444e-03 2.440005e-03 2.384780e-03 2.327472e-03 2.394313e-03 2.308318e-03
<GCONST> -6.106688e+02
<STREAM> 2
<NUMMIXES> 2
<MIXTURE> 1 5.676289e-01
<MEAN> 1
 5.240082e+00
<VARIANCE> 1
 3.753322e-02
<GCONST> -1.444652e+00
<MIXTURE> 2 4.323720e-01
<MEAN> 0
<VARIANCE> 0
<GCONST> 0.000000e+00
<STREAM> 3
<NUMMIXES> 2
<MIXTURE> 1 5.404004e-01
<MEAN> 1
 -2.138053e-03
<VARIANCE> 1
 9.131497e-04
<GCONST> -5.160733e+00
<MIXTURE> 2 4.596011e-01
<MEAN> 0
<VARIANCE> 0
<GCONST> 0.000000e+00
<STREAM> 4
<NUMMIXES> 2
<MIXTURE> 1 5.366073e-01
<MEAN> 1
 -5.240002e-04
<VARIANCE> 1
 3.419864e-03
<GCONST> -3.840277e+00
<MIXTURE> 2 4.633940e-01
<MEAN> 0
<VARIANCE> 0
<GCONST> 0.000000e+00
<STREAM> 5
<MEAN> 15
 -2.955230e+00 -1.930267e+00 -1.895785e+00 -1.826641e+00 -1.706333e+00 -1.011280e-02 -4.074037e-03 -2.973338e-03 -2.724404e-03 -2.375216e-03 8.670624e-04 2.741935e-04 3.758649e-04 3.688473e-04 3.598011e-04
<VARIANCE> 15
 1.480849e+01 4.694276e+00 4.497213e+00 3.991296e+00 3.340869e+00 1.195768e+00 6.782700e-01 6.869271e-01 6.666494e-01 5.467244e-01 7.831206e+00 5.358441e+00 5.798720e+00 5.474520e+00 4.619647e+00
<GCONST> 4.303410e+01
<TRANSP> 7
 0.000000e+00 1.000000e+00 0.000000e+00 0.000000e+00 0.000000e+00 0.000000e+00 0.000000e+00
 0.000000e+00 7.412693e-01 2.587307e-01 0.000000e+00 0.000000e+00 0.000000e+00 0.000000e+00
 0.000000e+00 0.000000e+00 7.412692e-01 2.587308e-01 0.000000e+00 0.000000e+00 0.000000e+00
 0.000000e+00 0.000000e+00 0.000000e+00 7.412680e-01 2.587320e-01 0.000000e+00 0.000000e+00
 0.000000e+00 0.000000e+00 0.000000e+00 0.000000e+00 7.412698e-01 2.587301e-01 0.000000e+00
 0.000000e+00 0.000000e+00 0.000000e+00 0.000000e+00 0.000000e+00 7.412721e-01 2.587279e-01
 0.000000e+00 0.000000e+00 0.000000e+00 0.000000e+00 0.000000e+00 0.000000e+00 0.000000e+00
<ENDHMM>
~h "D"
<BEGINHMM>
<NUMSTATES> 7
<STATE> 2
<SWEIGHTS> 5
 1.000000e+00 0.000000e+00 0.000000e+00 0.000000e+00 0.000000e+00
<STREAM> 1
<MEAN> 180
 4.461279e+00 2.040030e+00 2.270917e-01 7.372262e-01 1.965437e-02 4.543844e-01 -1.739456e-01 2.707772e-01 -1.683644e-01 1.003411e-01 -5.016243e-02 1.571695e-01 -1.304083e-01 1.358210e-01 -5.853894e-02 3.652487e-02 -1.428816e-01 6.742041e-02 -9.501025e-02 3.334644e-02 -4.674811e-04 4.436005e-03 -2.438494e-02 6.088073e-02 -4.528629e-02 5.067260e-02 -6.254606e-02 6.311265e-02 -4.543337e-02 4.422933e-02 -4.303982e-02 3.923142e-02 -4.844932e-02 3.334542e-02 -2.918375e-02 2.196040e-02 -3.558210e-02 3.626258e-02 -4.565139e-02 3.290589e-02 -3.284211e-02 2.566054e-02 -2.620017e-02 2.442462e-02 -2.256348e-02 1.683606e-02 -1.498137e-02 1.355497e-02 -1.072060e-02 6.999294e-03 -7.095240e-03 8.144116e-03 -9.268384e-03 9.370582e-03 -7.766709e-03 3.723217e-03 -1.332684e-03 2.494481e-03 -5.014926e-03 6.185586e-03 -1.053095e-03 -1.220525e-03 3.404709e-04 1.204857e-04 -7.940004e-05 -8.014147e-05 9.834894e-06 6.398676e-05 1.972746e-05 1.015266e-04 -9.647683e-07 1.301638e-05 -2.950164e-07 -6.251011e-05 -1.508094e-05 3.507657e-05 7.653942e-06 7.875147e-05 -3.914240e-05 1.427163e-05 -6.132246e-05 -2.746235e-05 -3.460471e-05 -1.533666e-05 2.146602e-05 -1.973242e-05 4.102348e-06 6.044855e-05 -1.400117e-05 4.496243e-06 1.276444e-05 2.166491e-05 -1.124429e-05 9.112686e-06 -2.187521e-05 -5.910100e-06 2.990580e-05 -1.087731e-05 -1.260908e-05 1.731217e-05 -1.403329e-05 1.426282e-06 1.982698e-09 -9.797308e-06 6.846127e-06 1.122579e-05 -9.823029e-06 -3.871264e-07 -2.427626e-06 9.043655e-06 -8.216837e-06 -2.454402e-06 4.868689e-06 1.863521e-06 -4.684669e-06 -4.158554e-06 1.080969e-05 -7.699442e-06 3.505570e-06 -1.975712e-06 -1.559337e-05 -3.460553e-05 -8.943612e-06 7.946415e-06 -5.766058e-06 -5.133386e-07 -5.167732e-06 1.528724e-06 2.404493e-08 1.053518e-06 3.805657e-06 2.060540e-06 1.066558e-06 1.430977e-06 -1.401145e-06 3.316352e-06 3.178924e-06 1.046024e-07 1.984371e-07 1.514344e-06 -5.129104e-07 6.268879e-07 1.117945e-06 -4.047799e-06 5.381772e-08 5.333685e-08 7.015192e-07 -2.002802e-06 -7.755494e-07 1.704768e-06 2.026025e-06 -1.372467e-06 -1.877156e-06 -1.889204e-07 -2.739220e-07 -1.645111e-06 2.157620e-06 -1.192123e-06 2.393103e-07 -1.250062e-06 5.633963e-07 7.572247e-07 -3.856760e-07 -2.945751e-07 2.016895e-07 -5.722696e-08 8.538261e-07 -7.657142e-07 -5.081943e-07 1.412813e-06 1.024286e-07 -1.999636e-06 2.139835e-06 -3.306779e-07 -1.245124e-06 1.538396e-06 -1.198102e-06 8.448956e-07 -5.002249e-07 -1.332857e-07
<VARIANCE> 180
 4.322003e+00 1.084101e+00 2.448781e-01 1.654880e-01 1.651327e-01 6.996557e-02 1.021859e-01 3.866846e-02 7.847312e-02 4.488866e-02 4.341800e-02 3.350243e-02 3.714553e-02 2.533380e-02 2.655118e-02 2.022202e-02 2.254027e-02 1.809959e-02 1.987759e-02 1.511849e-02 1.595554e-02 1.457414e-02 1.126499e-02 1.066008e-02 1.052316e-02 8.889537e-03 9.089884e-03 9.245913e-03 8.203883e-03 7.823576e-03 7.168605e-03 6.317812e-03 5.635779e-03 5.974262e-03 5.099316e-03 5.010326e-03 4.713701e-03 4.917901e-03 4.494859e-03 4.401960e-03 4.128199e-03 3.966951e-03 3.714890e-03 3.558799e-03 3.493451e-03 3.414745e-03 3.314569e-03 3.155117e-03 2.968981e-03 2.816078e-03 2.736800e-03 2.655425e-03 2.677874e-03 2.689292e-03 2.561989e-03 2.407590e-03 2.414374e-03 2.377558e-03 2.363028e-03 2.291923e-03 5.633909e-02 2.513731e-02 1.560393e-02 8.369935e-03 8.119899e-03 5.354284e-03 5.527411e-03 4.518705e-03 4.945675e-03 4.666157e-03 4.435560e-03 4.280436e-03 3.781287e-03 3.712587e-03 3.627766e-03 3.432822e-03 3.121744e-03 3.053796e-03 2.885477e-03 2.744250e-03 2.635894e-03 2.492807e-03 2.287712e-03 2.189124e-03 2.087692e-03 1.971752e-03 1.902227e-03 1.771677e-03 1.681709e-03 1.596269e-03 1.511298e-03 1.405893e-03 1.347862e-03 1.278364e-03 1.214455e-03 1.153980e-03 1.097012e-03 1.037225e-03 9.940754e-04 9.473072e-04 9.088676e-04 8.714854e-04 8.412019e-04 8.038097e-04 7.690989e-04 7.431214e-04 7.132296e-04 6.961784e-04 6.744256e-04 6.449390e-04 6.271005e-04 6.021297e-04 5.850305e-04 5.733836e-04 5.544447e-04 5.370166e-04 5.316593e-04 5.119378e-04 4.998723e-04 4.883240e-04 7.941876e-02 3.335301e-02 3.738808e-02 2.254763e-02 2.180444e-02 1.781710e-02 1.799574e-02 1.671754e-02 1.696523e-02 1.680528e-02 1.630884e-02 1.564662e-02 1.477251e-02 1.459137e-02 1.423425e-02 1.370093e-02 1.289148e-02 1.262562e-02 1.190265e-02 1.137541e-02 1.090476e-02 1.033307e-02 9.742203e-03 9.367920e-03 8.880871e-03 8.546090e-03 8.076319e-03 7.679089e-03 7.330230e-03 6.962483e-03 6.646744e-03 6.266467e-03 6.010077e-03 5.686416e-03 5.406072e-03 5.203639e-03 4.943969e-03 4.727816e-03 4.505429e-03 4.302869e-03 4.151065e-03 3.977371e-03 3.859836e-03 3.731141e-03 3.543845e-03 3.442304e-03 3.318525e-03 3.202664e-03 3.125637e-03 3.019572e-03 2.926162e-03 2.830375e-03 2.758771e-03 2.694865e-03 2.601494e-03 2.539075e-03 2.487607e-03 2.418143e-03 2.358448e-03 2.302017e-03
<GCONST> -6.137198e+02
<STREAM> 2
<NUMMIXES> 2
<MIXTURE> 1 6.199135e-01
<MEAN> 1
 5.253608e+00
<VARIANCE> 1
 3.334323e-02
<GCONST> -1.563024e+00
<MIXTURE> 2 3.802649e-01
<MEAN> 0
<VARIANCE> 0
<GCONST> 0.000000e+00
<STREAM> 3
<NUMMIXES> 2
<MIXTURE> 1 5.965121e-01
<MEAN> 1
 -1.792681e-03
<VARIANCE> 1
 6.519418e-04
<GCONST> -5.497679e+00
<MIXTURE> 2 4.036700e-01
<MEAN> 0
<VARIANCE> 0
<GCONST> 0.000000e+00
<STREAM> 4
<NUMMIXES> 2
<MIXTURE> 1 5.932749e-01
<MEAN> 1
 -4.608580e-04
<VARIANCE> 1
 2.651204e-03
<GCONST> -4.094865e+00
<MIXTURE> 2 4.069069e-01
<MEAN> 0
<VARIANCE> 0
<GCONST> 0.000000e+00
<STREAM> 5
<MEAN> 15
 -3.435065e+00 -2.152871e+00 -2.156446e+00 -2.001002e+00 -1.878101e+00 2.934296e-03 1.733206e-03 1.288489e-03 1.113024e-03 8.152430e-04 6.525256e-06 -2.108205e-05 1.858475e-05 2.048556e-05 1.051692e-05
<VARIANCE> 15
 1.629448e+01 5.055724e+00 5.126457e+00 4.037309e+00 3.454415e+00 1.436984e+00 7.788408e-01 8.410990e-01 6.870756e-01 5.978555e-01 8.477603e+00 6.127954e+00 6.695205e+00 5.683200e+00 5.113810e+00
<GCONST> 4.452012e+01
<STATE> 3
<SWEIGHTS> 5
 1.000000e+00 0.000000e+00 0.000000e+00 0.000000e+00 0.000000e+00
<STREAM> 1
<MEAN> 180
 4.457142e+00 2.035074e+00 2.282275e-01 7.378277e-01 1.930375e-02 4.540233e-01 -1.738973e-01 2.710724e-01 -1.683166e-01 1.006728e-01 -5.017965e-02 1.572471e-01 -1.304044e-01 1.355682e-01 -5.862687e-02 3.668123e-02 -1.427997e-01 6.770955e-02 -9.515682e-02 3.342431e-02 -7.287599e-04 4.326885e-03 -2.448128e-02 6.077506e-02 -4.519886e-02 5.057244e-02 -6.252266e-02 6.334537e-02 -4.549158e-02 4.427692e-02 -4.298605e-02 3.931500e-02 -4.849244e-02 3.335905e-02 -2.925148e-02 2.191500e-02 -3.543549e-02 3.619602e-02 -4.569823e-02 3.297481e-02 -3.289757e-02 2.568344e-02 -2.621290e-02 2.437882e-02 -2.252921e-02 1.687525e-02 -1.501658e-02 1.355068e-02 -1.072401e-02 7.032769e-03 -7.122699e-03 8.121704e-03 -9.237079e-03 9.381287e-03 -7.801675e-03 3.724155e-03 -1.305943e-03 2.476819e-03 -5.008361e-03 6.175803e-03 -1.068366e-03 -1.326374e-03 2.913510e-04 1.482024e-04 -1.017565e-04 -8.004167e-05 -5.472677e-06 6.828321e-05 2.085319e-05 1.034620e-04 1.148685e-05 2.028300e-05 3.295865e-06 -5.655519e-05 -2.224175e-05 4.646260e-05 1.860545e-05 7.882214e-05 -4.040073e-05 2.114837e-05 -6.547870e-05 -2.596345e-05 -3.031467e-05 -2.794579e-05 2.244408e-05 -1.951197e-05 6.442641e-06 5.370988e-05 -1.633947e-05 8.884699e-06 2.097229e-05 1.716639e-05 -1.673564e-05 7.610537e-06 -2.288901e-05 -1.149748e-05 3.647868e-05 -1.422202e-05 -1.194277e-05 1.324934e-05 -1.184188e-05 4.396278e-06 -2.416730e-06 -1.015684e-05 7.593707e-06 9.777060e-06 -5.964055e-06 -2.510670e-06 -5.065709e-06 1.412945e-05 -6.781032e-06 -1.025215e-05 1.192627e-05 1.722611e-06 -9.905211e-06 2.106031e-06 5.435739e-06 -3.852285e-06 1.388101e-06 -2.537255e-06 1.133747e-06 -2.277097e-05 -1.351430e-05 6.982559e-06 -5.852840e-06 -5.199984e-07 -4.398630e-06 7.045591e-07 -4.371843e-07 -5.868204e-07 3.601613e-06 2.373283e-06 9.129154e-07 1.683541e-06 -1.031522e-06 3.900102e-06 2.957237e-06 -1.781848e-07 -2.905709e-07 1.339068e-06 -1.884328e-06 -1.359743e-07 7.116757e-07 -3.346814e-06 -2.844895e-07 3.565252e-07 5.273598e-07 -1.996802e-06 -8.632761e-07 8.328564e-07 2.451107e-06 -1.273691e-06 -1.097782e-06 -5.215467e-08 -4.606683e-07 -9.859034e-07 1.692011e-06 -9.644800e-07 2.675685e-07 -1.030941e-06 8.953718e-07 7.490484e-07 -9.213546e-07 1.701580e-07 9.277129e-08 -4.267330e-07 1.157229e-06 -7.499083e-07 -8.244457e-07 1.717949e-06 1.406289e-07 -2.077418e-06 2.185765e-06 -5.911231e-07 -9.870517e-07 1.708596e-06 -1.735790e-06 1.393602e-06 -8.462630e-07 -1.329590e-07
<VARIANCE> 180
 4.331813e+00 1.089954e+00 2.452594e-01 1.654159e-01 1.651722e-01 7.017062e-02 1.023869e-01 3.863800e-02 7.831629e-02 4.479386e-02 4.350345e-02 3.338405e-02 3.708942e-02 2.538692e-02 2.649201e-02 2.021923e-02 2.257434e-02 1.807778e-02 1.988803e-02 1.511585e-02 1.596689e-02 1.457472e-02 1.126680e-02 1.065088e-02 1.050498e-02 8.879415e-03 9.079830e-03 9.211665e-03 8.191218e-03 7.830492e-03 7.170301e-03 6.315066e-03 5.638149e-03 5.972957e-03 5.095421e-03 5.007553e-03 4.707608e-03 4.910843e-03 4.484547e-03 4.393569e-03 4.121865e-03 3.961927e-03 3.711968e-03 3.558030e-03 3.493001e-03 3.411620e-03 3.315960e-03 3.154437e-03 2.965620e-03 2.811353e-03 2.736502e-03 2.653739e-03 2.676763e-03 2.686707e-03 2.557552e-03 2.405342e-03 2.411535e-03 2.374755e-03 2.363887e-03 2.293464e-03 5.636607e-02 2.519096e-02 1.562549e-02 8.379531e-03 8.132005e-03 5.358314e-03 5.529538e-03 4.532142e-03 4.947076e-03 4.661467e-03 4.437305e-03 4.273010e-03 3.783531e-03 3.716889e-03 3.625018e-03 3.431237e-03 3.124023e-03 3.055918e-03 2.886586e-03 2.749129e-03 2.639498e-03 2.495630e-03 2.290170e-03 2.191248e-03 2.089097e-03 1.972142e-03 1.903491e-03 1.771344e-03 1.684025e-03 1.598284e-03 1.511391e-03 1.407749e-03 1.350695e-03 1.280937e-03 1.215262e-03 1.155358e-03 1.097232e-03 1.038099e-03 9.944652e-04 9.479516e-04 9.083885e-04 8.718579e-04 8.416610e-04 8.042229e-04 7.696680e-04 7.439523e-04 7.138049e-04 6.957678e-04 6.743273e-04 6.450675e-04 6.268996e-04 6.018089e-04 5.853610e-04 5.730037e-04 5.538734e-04 5.368828e-04 5.318722e-04 5.122218e-04 5.001516e-04 4.884758e-04 7.955579e-02 3.335028e-02 3.740197e-02 2.256551e-02 2.181719e-02 1.781349e-02 1.798331e-02 1.673800e-02 1.695600e-02 1.677020e-02 1.630804e-02 1.562989e-02 1.476323e-02 1.458959e-02 1.421892e-02 1.369841e-02 1.289004e-02 1.263169e-02 1.189848e-02 1.137632e-02 1.090074e-02 1.033902e-02 9.740696e-03 9.377434e-03 8.888545e-03 8.546205e-03 8.082690e-03 7.675442e-03 7.333119e-03 6.968835e-03 6.647943e-03 6.272022e-03 6.018237e-03 5.698743e-03 5.407955e-03 5.207362e-03 4.944213e-03 4.728324e-03 4.507587e-03 4.307349e-03 4.148869e-03 3.980977e-03 3.863212e-03 3.732995e-03 3.548090e-03 3.441888e-03 3.316361e-03 3.199755e-03 3.126870e-03 3.021633e-03 2.924972e-03 2.829178e-03 2.759155e-03 2.694606e-03 2.599683e-03 2.537077e-03 2.486716e-03 2.418876e-03 2.359245e-03 2.302479e-03
<GCONST> -6.137007e+02
<STREAM> 2
<NUMMIXES> 2
<MIXTURE> 1 6.185585e-01
<MEAN> 1
 5.253915e+00
<VARIANCE> 1
 3.321806e-02
<GCONST> -1.566784e+00
<MIXTURE> 2 3.816324e-01
<MEAN> 0
<VARIANCE> 0
<GCONST> 0.000000e+00
<STREAM> 3
<NUMMIXES> 2
<MIXTURE> 1 5.951532e-01
<MEAN> 1
 -1.788508e-03
<VARIANCE> 1
 6.515177e-04
<GCONST> -5.498329e+00
<MIXTURE> 2 4.050419e-01
<MEAN> 0
<VARIANCE> 0
<GCONST> 0.000000e+00
<STREAM> 4
<NUMMIXES> 2
<MIXTURE> 1 5.919265e-01
<MEAN> 1
 -4.609978e-04
<VARIANCE> 1
 2.653453e-03
<GCONST> -4.094016e+00
<MIXTURE> 2 4.082676e-01
<MEAN> 0
<VARIANCE> 0
<GCONST> 0.000000e+00
<STREAM> 5
<MEAN> 15
 -3.423683e+00 -2.146353e+00 -2.151199e+00 -1.996497e+00 -1.874731e+00 2.891180e-03 1.611849e-03 1.335558e-03 1.165232e-03 8.459404e-04 -2.829852e-05 -4.569525e-05 9.752679e-07 2.465672e-06 -1.894576e-06
<VARIANCE> 15
 1.624566e+01 5.044250e+00 5.122383e+00 4.038922e+00 3.460422e+00 1.431630e+00 7.765036e-01 8.387439e-01 6.862660e-01 5.977318e-01 8.452873e+00 6.113926e+00 6.677295e+00 5.680638e+00 5.115476e+00
<GCONST> 4.449725e+01
<STATE> 4
<SWEIGHTS> 5
 1.000000e+00 0.000000e+00 0.000000e+00 0.000000e+00 0.000000e+00
<STREAM> 1
<MEAN> 180
 4.453074e+00 2.029800e+00 2.291297e-01 7.385199e-01 1.886876e-02 4.536707e-01 -1.738893e-01 2.713736e-01 -1.682482e-01 1.010119e-01 -5.015646e-02 1.573512e-01 -1.303850e-01 1.353392e-01 -5.874756e-02 3.687482e-02 -1.426812e-01 6.800112e-02 -9.531340e-02 3.353282e-02 -1.015401e-03 4.223140e-03 -2.456203e-02 6.062976e-02 -4.510397e-02 5.047157e-02 -6.249262e-02 6.355184e-02 -4.555478e-02 4.433447e-02 -4.290314e-02 3.938408e-02 -4.855032e-02 3.336313e-02 -2.932309e-02 2.185101e-02 -3.527103e-02 3.612295e-02 -4.574351e-02 3.303112e-02 -3.294417e-02 2.571620e-02 -2.623584e-02 2.433451e-02 -2.249467e-02 1.690827e-02 -1.503695e-02 1.354082e-02 -1.073939e-02 7.084114e-03 -7.140567e-03 8.069088e-03 -9.183560e-03 9.395344e-03 -7.856493e-03 3.748521e-03 -1.301938e-03 2.476051e-03 -5.010122e-03 6.163098e-03 -1.033062e-03 -1.386231e-03 2.312272e-04 1.714797e-04 -1.212354e-04 -8.050793e-05 -1.734624e-05 6.802647e-05 2.205235e-05 1.001354e-04 2.301200e-05 2.992982e-05 6.797352e-06 -5.029922e-05 -2.756922e-05 5.877305e-05 2.834540e-05 7.802607e-05 -4.328818e-05 2.724188e-05 -7.477788e-05 -2.719291e-05 -2.778952e-05 -3.837212e-05 2.231824e-05 -1.845444e-05 7.855710e-06 4.660651e-05 -1.858018e-05 9.770961e-06 2.962198e-05 1.300608e-05 -1.880284e-05 6.782449e-06 -2.451412e-05 -1.461846e-05 4.136958e-05 -1.605596e-05 -1.130659e-05 1.011667e-05 -8.498901e-06 6.719343e-06 -6.011122e-06 -8.790003e-06 7.430180e-06 7.949350e-06 -1.812438e-06 -4.587744e-06 -8.454352e-06 1.985624e-05 -5.122252e-06 -1.789146e-05 1.864365e-05 4.954891e-07 -1.339542e-05 8.192506e-06 -1.439526e-06 1.825792e-06 -1.909135e-06 -3.073423e-06 1.314579e-05 -9.727783e-06 -1.619101e-05 5.880646e-06 -4.451700e-06 -1.272590e-06 -3.372279e-06 -1.921262e-07 -6.337028e-07 -2.198282e-06 3.067058e-06 3.204965e-06 8.522317e-07 1.807159e-06 -3.030910e-07 3.915786e-06 2.847848e-06 -7.841356e-07 -8.490510e-07 1.218851e-06 -2.888390e-06 -1.001476e-06 2.404658e-07 -2.772270e-06 -3.611982e-07 1.034128e-07 -2.758354e-08 -1.801292e-06 -6.573651e-07 -1.580502e-07 2.202841e-06 -1.344097e-06 3.756094e-08 3.093526e-07 -4.117130e-07 -1.454651e-07 1.282112e-06 -9.038337e-07 4.996156e-07 -5.084157e-07 1.042222e-06 3.279905e-07 -1.123719e-06 6.558947e-07 -1.885623e-07 -5.932645e-07 1.069302e-06 -4.962314e-07 -8.705734e-07 1.486629e-06 2.889653e-07 -1.791649e-06 1.874975e-06 -7.922993e-07 -4.629625e-07 1.453554e-06 -1.960484e-06 1.854590e-06 -1.205115e-06 -8.126630e-08
<VARIANCE> 180
 4.341304e+00 1.096111e+00 2.457442e-01 1.654859e-01 1.651821e-01 7.038575e-02 1.025923e-01 3.862556e-02 7.814296e-02 4.471888e-02 4.358986e-02 3.327152e-02 3.704464e-02 2.545001e-02 2.645399e-02 2.022328e-02 2.259625e-02 1.805881e-02 1.989998e-02 1.511406e-02 1.597339e-02 1.457960e-02 1.127288e-02 1.064269e-02 1.048969e-02 8.870131e-03 9.073739e-03 9.178486e-03 8.178320e-03 7.835740e-03 7.172106e-03 6.312978e-03 5.640402e-03 5.971343e-03 5.089971e-03 5.002490e-03 4.701130e-03 4.905822e-03 4.474581e-03 4.385564e-03 4.116293e-03 3.955433e-03 3.709447e-03 3.558998e-03 3.493987e-03 3.409237e-03 3.317933e-03 3.153977e-03 2.962450e-03 2.807329e-03 2.736312e-03 2.651841e-03 2.674112e-03 2.682239e-03 2.552586e-03 2.403080e-03 2.408157e-03 2.371420e-03 2.363910e-03 2.293952e-03 5.639786e-02 2.524595e-02 1.564531e-02 8.393710e-03 8.144352e-03 5.362589e-03 5.532844e-03 4.545074e-03 4.948176e-03 4.657710e-03 4.438184e-03 4.266077e-03 3.785850e-03 3.720456e-03 3.622897e-03 3.428961e-03 3.127026e-03 3.057819e-03 2.887077e-03 2.753703e-03 2.642141e-03 2.497843e-03 2.293421e-03 2.192652e-03 2.090426e-03 1.972527e-03 1.904869e-03 1.770776e-03 1.686254e-03 1.600073e-03 1.511280e-03 1.409322e-03 1.353360e-03 1.283391e-03 1.215718e-03 1.156566e-03 1.097116e-03 1.039477e-03 9.948852e-04 9.484492e-04 9.080475e-04 8.722067e-04 8.421922e-04 8.045636e-04 7.705563e-04 7.448752e-04 7.143354e-04 6.954556e-04 6.741503e-04 6.450912e-04 6.268456e-04 6.016583e-04 5.856968e-04 5.724901e-04 5.533507e-04 5.367714e-04 5.319475e-04 5.124624e-04 5.003756e-04 4.885285e-04 7.964960e-02 3.333263e-02 3.739914e-02 2.257929e-02 2.182799e-02 1.780928e-02 1.796886e-02 1.675640e-02 1.694315e-02 1.673528e-02 1.630201e-02 1.561341e-02 1.475297e-02 1.458563e-02 1.420416e-02 1.369397e-02 1.288854e-02 1.263666e-02 1.189162e-02 1.137521e-02 1.089284e-02 1.034197e-02 9.738929e-03 9.384742e-03 8.896694e-03 8.544954e-03 8.089928e-03 7.670524e-03 7.335670e-03 6.973802e-03 6.647515e-03 6.276399e-03 6.025990e-03 5.711045e-03 5.409427e-03 5.210191e-03 4.942808e-03 4.728654e-03 4.510010e-03 4.311112e-03 4.147194e-03 3.984737e-03 3.866605e-03 3.734027e-03 3.552746e-03 3.441495e-03 3.313833e-03 3.197247e-03 3.127389e-03 3.023054e-03 2.923036e-03 2.827590e-03 2.759126e-03 2.692982e-03 2.597587e-03 2.534909e-03 2.485502e-03 2.418865e-03 2.359771e-03 2.302299e-03
<GCONST> -6.136876e+02
<STREAM> 2
<NUMMIXES> 2
<MIXTURE> 1 6.171682e-01
<MEAN> 1
 5.254132e+00
<VARIANCE> 1
 3.318141e-02
<GCONST> -1.567888e+00
<MIXTURE> 2 3.830028e-01
<MEAN> 0
<VARIANCE> 0
<GCONST> 0.000000e+00
<STREAM> 3
<NUMMIXES> 2
<MIXTURE> 1 5.937276e-01
<MEAN> 1
 -1.788971e-03
<VARIANCE> 1
 6.513768e-04
<GCONST> -5.498546e+00
<MIXTURE> 2 4.064411e-01
<MEAN> 0
<VARIANCE> 0
<GCONST> 0.000000e+00
<STREAM> 4
<NUMMIXES> 2
<MIXTURE> 1 5.905105e-01
<MEAN> 1
 -4.625630e-04
<VARIANCE> 1
 2.658965e-03
<GCONST> -4.091941e+00
<MIXTURE> 2 4.096577e-01
<MEAN> 0
<VARIANCE> 0
<GCONST> 0.000000e+00
<STREAM> 5
<MEAN> 15
 -3.412682e+00 -2.140430e+00 -2.145865e+00 -1.991871e+00 -1.871248e+00 2.730369e-03 1.406638e-03 1.315378e-03 1.150938e-03 8.350431e-04 -5.796007e-05 -6.523637e-05 -1.390815e-05 -1.483979e-05 -1.029421e-05
<VARIANCE> 15
 1.620803e+01 5.037886e+00 5.118704e+00 4.040388e+00 3.466428e+00 1.426486e+00 7.746047e-01 8.363616e-01 6.855417e-01 5.977800e-01 8.428589e+00 6.100771e+00 6.656837e+00 5.677549e+00 5.118341e+00
<GCONST> 4.447709e+01
<STATE> 5
<SWEIGHTS> 5
 1.000000e+00 0.000000e+00 0.000000e+00 0.000000e+00 0.000000e+00
<STREAM> 1
<MEAN> 180
 4.449230e+00 2.024397e+00 2.297817e-01 7.392819e-01 1.837491e-02 4.533247e-01 -1.739096e-01 2.716586e-01 -1.681554e-01 1.013418e-01 -5.009729e-02 1.574962e-01 -1.303505e-01 1.351310e-01 -5.889039e-02 3.710562e-02 -1.425332e-01 6.829194e-02 -9.548536e-02 3.366543e-02 -1.344862e-03 4.114097e-03 -2.463463e-02 6.045260e-02 -4.500273e-02 5.037342e-02 -6.245985e-02 6.372894e-02 -4.562286e-02 4.438918e-02 -4.279312e-02 3.943986e-02 -4.860990e-02 3.336103e-02 -2.939985e-02 2.177712e-02 -3.509587e-02 3.605234e-02 -4.578766e-02 3.307678e-02 -3.297717e-02 2.575494e-02 -2.627075e-02 2.429735e-02 -2.246436e-02 1.693690e-02 -1.504365e-02 1.352525e-02 -1.076785e-02 7.153711e-03 -7.147996e-03 7.988867e-03 -9.110413e-03 9.407419e-03 -7.921737e-03 3.793056e-03 -1.324401e-03 2.498271e-03 -5.024829e-03 6.148212e-03 -9.689537e-04 -1.398494e-03 1.674302e-04 1.903519e-04 -1.311697e-04 -8.395773e-05 -2.527103e-05 6.373107e-05 2.362885e-05 9.187798e-05 3.196218e-05 4.343609e-05 1.080801e-05 -4.462474e-05 -2.931642e-05 7.010524e-05 3.725276e-05 7.517528e-05 -4.793169e-05 3.173911e-05 -8.733429e-05 -3.093742e-05 -2.716509e-05 -4.672277e-05 2.246348e-05 -1.870415e-05 7.318145e-06 3.991832e-05 -2.012553e-05 7.682048e-06 3.618179e-05 8.319510e-06 -1.646712e-05 7.421255e-06 -2.562529e-05 -1.472761e-05 4.437794e-05 -1.711424e-05 -9.677376e-06 8.295237e-06 -4.767668e-06 7.507027e-06 -9.691628e-06 -6.123481e-06 6.080833e-06 6.369642e-06 1.416987e-06 -5.838678e-06 -1.142057e-05 2.407446e-05 -2.905614e-06 -2.402500e-05 2.395952e-05 -1.665667e-06 -1.442624e-05 1.268005e-05 -8.471779e-06 8.858647e-06 -6.634679e-06 -3.145093e-06 2.080875e-05 4.036465e-06 -1.718551e-05 5.027607e-06 -1.422654e-06 -2.397916e-06 -2.300769e-06 -8.716057e-07 -5.890296e-07 -3.676712e-06 2.119534e-06 4.453049e-06 1.096389e-06 1.763171e-06 3.573780e-07 3.071907e-06 2.671586e-06 -1.552783e-06 -1.442301e-06 8.465118e-07 -3.056143e-06 -1.469643e-06 -7.232317e-08 -2.057022e-06 3.098293e-08 -7.564626e-07 -7.642362e-07 -1.230415e-06 -2.548473e-07 -7.428763e-07 1.353959e-06 -1.592741e-06 1.192102e-06 6.619564e-07 -3.434815e-08 7.111560e-07 6.861835e-07 -9.855546e-07 9.634834e-07 -8.728161e-08 8.188761e-07 -1.110963e-08 -9.905946e-07 7.963314e-07 -4.449653e-07 -5.228317e-07 6.253841e-07 -3.355822e-08 -5.795189e-07 6.690424e-07 5.148211e-07 -1.215620e-06 1.293727e-06 -7.777953e-07 7.664041e-08 8.437253e-07 -1.724409e-06 2.045183e-06 -1.564849e-06 1.220715e-07
<VARIANCE> 180
 4.350938e+00 1.102473e+00 2.462927e-01 1.656999e-01 1.651789e-01 7.060960e-02 1.027988e-01 3.862720e-02 7.796297e-02 4.466187e-02 4.367809e-02 3.317431e-02 3.701283e-02 2.552249e-02 2.644236e-02 2.023447e-02 2.260857e-02 1.804352e-02 1.991308e-02 1.511464e-02 1.597373e-02 1.458737e-02 1.128251e-02 1.063760e-02 1.047857e-02 8.862762e-03 9.072060e-03 9.149081e-03 8.165988e-03 7.840691e-03 7.173454e-03 6.311006e-03 5.642373e-03 5.969224e-03 5.083370e-03 4.994764e-03 4.694283e-03 4.902693e-03 4.465444e-03 4.378274e-03 4.111560e-03 3.947628e-03 3.707286e-03 3.562010e-03 3.496524e-03 3.407524e-03 3.320375e-03 3.153842e-03 2.959709e-03 2.804435e-03 2.736462e-03 2.649923e-03 2.670217e-03 2.676230e-03 2.547663e-03 2.400736e-03 2.404454e-03 2.367647e-03 2.363402e-03 2.293714e-03 5.643563e-02 2.530197e-02 1.566309e-02 8.411836e-03 8.156376e-03 5.366988e-03 5.537030e-03 4.556736e-03 4.948517e-03 4.654552e-03 4.437996e-03 4.260152e-03 3.787715e-03 3.723468e-03 3.621898e-03 3.426195e-03 3.130170e-03 3.059481e-03 2.886882e-03 2.757358e-03 2.643778e-03 2.499374e-03 2.297152e-03 2.193883e-03 2.091632e-03 1.973443e-03 1.906719e-03 1.770276e-03 1.688408e-03 1.601740e-03 1.511162e-03 1.410705e-03 1.355653e-03 1.285549e-03 1.216062e-03 1.157607e-03 1.096746e-03 1.041274e-03 9.953169e-04 9.487389e-04 9.078514e-04 8.725172e-04 8.428095e-04 8.049218e-04 7.717932e-04 7.457688e-04 7.148359e-04 6.952660e-04 6.739864e-04 6.451326e-04 6.269321e-04 6.017678e-04 5.861110e-04 5.718929e-04 5.530223e-04 5.367057e-04 5.318730e-04 5.126687e-04 5.005328e-04 4.883991e-04 7.971306e-02 3.330201e-02 3.738387e-02 2.259097e-02 2.183696e-02 1.780446e-02 1.795463e-02 1.677054e-02 1.692787e-02 1.670326e-02 1.629090e-02 1.559885e-02 1.474154e-02 1.457899e-02 1.419107e-02 1.368897e-02 1.288758e-02 1.264125e-02 1.188223e-02 1.137123e-02 1.088119e-02 1.034347e-02 9.738078e-03 9.390925e-03 8.904204e-03 8.542798e-03 8.098396e-03 7.665561e-03 7.338058e-03 6.977879e-03 6.645506e-03 6.279507e-03 6.032814e-03 5.722221e-03 5.410875e-03 5.212609e-03 4.940343e-03 4.729330e-03 4.512846e-03 4.313781e-03 4.146198e-03 3.988382e-03 3.869943e-03 3.734687e-03 3.557832e-03 3.440978e-03 3.311211e-03 3.195444e-03 3.127026e-03 3.023625e-03 2.920862e-03 2.825892e-03 2.758859e-03 2.690318e-03 2.595531e-03 2.532869e-03 2.484174e-03 2.418075e-03 2.359949e-03 2.301487e-03
<GCONST> -6.136743e+02
<STREAM> 2
<NUMMIXES> 2
<MIXTURE> 1 6.158719e-01
<MEAN> 1
 5.254236e+00
<VARIANCE> 1
 3.323504e-02
<GCONST> -1.566273e+00
<MIXTURE> 2 3.843254e-01
<MEAN> 0
<VARIANCE> 0
<GCONST> 0.000000e+00
<STREAM> 3
<NUMMIXES> 2
<MIXTURE> 1 5.923669e-01
<MEAN> 1
 -1.794703e-03
<VARIANCE> 1
 6.515472e-04
<GCONST> -5.498283e+00
<MIXTURE> 2 4.078324e-01
<MEAN> 0
<VARIANCE> 0
<GCONST> 0.000000e+00
<STREAM> 4
<NUMMIXES> 2
<MIXTURE> 1 5.891570e-01
<MEAN> 1
 -4.661397e-04
<VARIANCE> 1
 2.667749e-03
<GCONST> -4.088643e+00
<MIXTURE> 2 4.110420e-01
<MEAN> 0
<VARIANCE> 0
<GCONST> 0.000000e+00
<STREAM> 5
<MEAN> 15
 -3.402400e+00 -2.135362e+00 -2.140692e+00 -1.987378e+00 -1.867810e+00 2.489451e-03 1.146551e-03 1.245720e-03 1.079193e-03 7.924960e-04 -7.592500e-05 -7.512921e-05 -2.378598e-05 -2.807197e-05 -1.637293e-05
<VARIANCE> 15
 1.618261e+01 5.036779e+00 5.115386e+00 4.041992e+00 3.471714e+00 1.421802e+00 7.732996e-01 8.341093e-01 6.849607e-01 5.979745e-01 8.406482e+00 6.089632e+00 6.635151e+00 5.674503e+00 5.121900e+00
<GCONST> 4.446082e+01
<STATE> 6
<SWEIGHTS> 5
 1.000000e+00 0.000000e+00 0.000000e+00 0.000000e+00 0.000000e+00
<STREAM> 1
<MEAN> 180
 4.445586e+00 2.019007e+00 2.301947e-01 7.400952e-01 1.788378e-02 4.529724e-01 -1.739406e-01 2.719111e-01 -1.680364e-01 1.016483e-01 -5.001176e-02 1.576989e-01 -1.302905e-01 1.349373e-01 -5.903672e-02 3.736683e-02 -1.423577e-01 6.857332e-02 -9.567734e-02 3.381068e-02 -1.727439e-03 3.993683e-03 -2.470620e-02 6.025191e-02 -4.489151e-02 5.027205e-02 -6.243017e-02 6.387797e-02 -4.569491e-02 4.443154e-02 -4.266628e-02 3.947827e-02 -4.865513e-02 3.335938e-02 -2.947811e-02 2.170336e-02 -3.491814e-02 3.598884e-02 -4.582713e-02 3.311316e-02 -3.299481e-02 2.579398e-02 -2.631598e-02 2.427025e-02 -2.244238e-02 1.696418e-02 -1.504198e-02 1.350709e-02 -1.080638e-02 7.234065e-03 -7.143077e-03 7.888503e-03 -9.023388e-03 9.412325e-03 -7.985851e-03 3.849734e-03 -1.371936e-03 2.547428e-03 -5.058491e-03 6.134143e-03 -8.938218e-04 -1.362498e-03 1.051625e-04 2.062829e-04 -1.249495e-04 -9.149656e-05 -2.970912e-05 5.694321e-05 2.684661e-05 7.936789e-05 3.698252e-05 6.126616e-05 1.631376e-05 -3.906942e-05 -2.754185e-05 7.787902e-05 4.539418e-05 6.930543e-05 -5.431340e-05 3.335214e-05 -9.940242e-05 -3.531751e-05 -2.753071e-05 -5.271377e-05 2.436749e-05 -2.207486e-05 4.651171e-06 3.535541e-05 -2.077769e-05 4.049665e-06 3.920541e-05 2.283385e-06 -1.033223e-05 9.686522e-06 -2.484483e-05 -1.209927e-05 4.481269e-05 -1.808202e-05 -6.510302e-06 7.081012e-06 -1.645038e-06 6.967311e-06 -1.225064e-05 -3.356697e-06 3.662542e-06 5.657839e-06 2.578976e-06 -5.333632e-06 -1.308208e-05 2.498911e-05 4.391177e-08 -2.772319e-05 2.707295e-05 -4.104457e-06 -1.301717e-05 1.448284e-05 -1.403391e-05 1.608528e-05 -1.262307e-05 -2.229172e-06 2.524389e-05 1.810730e-05 -1.667074e-05 4.507850e-06 2.670191e-06 -3.933676e-06 -1.821995e-06 -1.577634e-06 -7.181232e-08 -4.846864e-06 8.134871e-07 5.525888e-06 1.321102e-06 1.731358e-06 5.578196e-07 1.571497e-06 2.175796e-06 -2.221898e-06 -1.745681e-06 -1.041550e-07 -2.203168e-06 -1.112386e-06 2.818742e-09 -1.491749e-06 7.276022e-07 -1.658500e-06 -1.241216e-06 -1.293564e-07 1.284026e-07 -8.478639e-07 3.414093e-07 -1.897321e-06 1.990966e-06 9.634449e-07 6.169412e-07 1.163599e-06 -1.825180e-07 -8.177856e-07 1.444454e-06 -2.871938e-07 3.870389e-07 1.762577e-09 -5.356056e-07 4.914880e-07 -6.162379e-07 -1.728191e-07 -1.002771e-07 4.700809e-07 -4.497658e-08 -4.086730e-07 7.677487e-07 -5.858707e-07 5.520654e-07 -5.244010e-07 5.126495e-07 9.789157e-08 -1.141577e-06 1.811441e-06 -1.716286e-06 4.631829e-07
<VARIANCE> 180
 4.360579e+00 1.108558e+00 2.468231e-01 1.660144e-01 1.651474e-01 7.084206e-02 1.030074e-01 3.863280e-02 7.777541e-02 4.461654e-02 4.376265e-02 3.309325e-02 3.699235e-02 2.559880e-02 2.645596e-02 2.025121e-02 2.261405e-02 1.803303e-02 1.992547e-02 1.511579e-02 1.596431e-02 1.459488e-02 1.129599e-02 1.063599e-02 1.047079e-02 8.857870e-03 9.074804e-03 9.124807e-03 8.154053e-03 7.845986e-03 7.174405e-03 6.309106e-03 5.643174e-03 5.966180e-03 5.075608e-03 4.984277e-03 4.687404e-03 4.901147e-03 4.457284e-03 4.371004e-03 4.107533e-03 3.938775e-03 3.705164e-03 3.566504e-03 3.499665e-03 3.406056e-03 3.322982e-03 3.153954e-03 2.957335e-03 2.802681e-03 2.736514e-03 2.648117e-03 2.665043e-03 2.668642e-03 2.542787e-03 2.398285e-03 2.400354e-03 2.363708e-03 2.362267e-03 2.292722e-03 5.646850e-02 2.535540e-02 1.567665e-02 8.431646e-03 8.165939e-03 5.371185e-03 5.541294e-03 4.565911e-03 4.947660e-03 4.651186e-03 4.436783e-03 4.255342e-03 3.788571e-03 3.725993e-03 3.622550e-03 3.423207e-03 3.132997e-03 3.060834e-03 2.886059e-03 2.759513e-03 2.644449e-03 2.499946e-03 2.301158e-03 2.195035e-03 2.092518e-03 1.975224e-03 1.908924e-03 1.770349e-03 1.690372e-03 1.603407e-03 1.510974e-03 1.411903e-03 1.357123e-03 1.287104e-03 1.216259e-03 1.158334e-03 1.096242e-03 1.043159e-03 9.956112e-04 9.486470e-04 9.077403e-04 8.727097e-04 8.433273e-04 8.053699e-04 7.731786e-04 7.464332e-04 7.153030e-04 6.952137e-04 6.738344e-04 6.452604e-04 6.270990e-04 6.020888e-04 5.865843e-04 5.712528e-04 5.529025e-04 5.366306e-04 5.316174e-04 5.128483e-04 5.006367e-04 4.880932e-04 7.974638e-02 3.325974e-02 3.735609e-02 2.259886e-02 2.183814e-02 1.779895e-02 1.793949e-02 1.677903e-02 1.691155e-02 1.667289e-02 1.627526e-02 1.558634e-02 1.472795e-02 1.457050e-02 1.417958e-02 1.368327e-02 1.288582e-02 1.264424e-02 1.187084e-02 1.136367e-02 1.086647e-02 1.034386e-02 9.738598e-03 9.395788e-03 8.910106e-03 8.540158e-03 8.106661e-03 7.661410e-03 7.340924e-03 6.981023e-03 6.642104e-03 6.281283e-03 6.036902e-03 5.730774e-03 5.411956e-03 5.214019e-03 4.937449e-03 4.729484e-03 4.515782e-03 4.315047e-03 4.145778e-03 3.991331e-03 3.872588e-03 3.734887e-03 3.562818e-03 3.439935e-03 3.308347e-03 3.194304e-03 3.125695e-03 3.023443e-03 2.918050e-03 2.824135e-03 2.758290e-03 2.686603e-03 2.593557e-03 2.530678e-03 2.482519e-03 2.416352e-03 2.359513e-03 2.300085e-03
<GCONST> -6.136710e+02
<STREAM> 2
<NUMMIXES> 2
<MIXTURE> 1 6.146692e-01
<MEAN> 1
 5.254217e+00
<VARIANCE> 1
 3.338007e-02
<GCONST> -1.561919e+00
<MIXTURE> 2 3.855342e-01
<MEAN> 0
<VARIANCE> 0
<GCONST> 0.000000e+00
<STREAM> 3
<NUMMIXES> 2
<MIXTURE> 1 5.910642e-01
<MEAN> 1
 -1.806074e-03
<VARIANCE> 1
 6.521287e-04
<GCONST> -5.497392e+00
<MIXTURE> 2 4.091391e-01
<MEAN> 0
<VARIANCE> 0
<GCONST> 0.000000e+00
<STREAM> 4
<NUMMIXES> 2
<MIXTURE> 1 5.878564e-01
<MEAN> 1
 -4.720472e-04
<VARIANCE> 1
 2.679876e-03
<GCONST> -4.084107e+00
<MIXTURE> 2 4.123460e-01
<MEAN> 0
<VARIANCE> 0
<GCONST> 0.000000e+00
<STREAM> 5
<MEAN> 15
 -3.392997e+00 -2.131301e+00 -2.135822e+00 -1.983185e+00 -1.864504e+00 2.209743e-03 8.662707e-04 1.145827e-03 9.645998e-04 7.306915e-04 -8.459935e-05 -7.525663e-05 -2.928039e-05 -3.628871e-05 -1.933928e-05
<VARIANCE> 15
 1.616657e+01 5.040380e+00 5.112266e+00 4.043324e+00 3.475938e+00 1.417535e+00 7.726214e-01 8.320330e-01 6.845393e-01 5.982614e-01 8.387033e+00 6.080912e+00 6.613235e+00 5.671351e+00 5.125473e+00
<GCONST> 4.444805e+01
<TRANSP> 7
 0.000000e+00 1.000000e+00 0.000000e+00 0.000000e+00 0.000000e+00 0.000000e+00 0.000000e+00
 0.000000e+00 7.352106e-01 2.647894e-01 0.000000e+00 0.000000e+00 0.000000e+00 0.000000e+00
 0.000000e+00 0.000000e+00 7.352052e-01 2.647948e-01 0.000000e+00 0.000000e+00 0.000000e+00
 0.000000e+00 0.000000e+00 0.000000e+00 7.352053e-01 2.647946e-01 0.000000e+00 0.000000e+00
 0.000000e+00 0.000000e+00 0.000000e+00 0.000000e+00 7.352086e-01 2.647914e-01 0.000000e+00
 0.000000e+00 0.000000e+00 0.000000e+00 0.000000e+00 0.000000e+00 7.352080e-01 2.647920e-01
 0.000000e+00 0.000000e+00 0.000000e+00 0.000000e+00 0.000000e+00 0.000000e+00 0.000000e+00
<ENDHMM>
~h "E"
<BEGINHMM>
<NUMSTATES> 7
<STATE> 2
<SWEIGHTS> 5
 1.000000e+00 0.000000e+00 0.000000e+00 0.000000e+00 0.000000e+00
<STREAM> 1
<MEAN> 180
 4.223452e+00 1.859719e+00 1.959641e-01 7.392764e-01 5.880566e-02 4.384323e-01 -1.617668e-01 2.640667e-01 -1.087923e-01 1.224765e-01 -5.920867e-02 1.576187e-01 -1.313872e-01 1.382681e-01 -6.029589e-02 3.621523e-02 -1.380663e-01 6.114164e-02 -9.647408e-02 5.111682e-02 -9.244657e-03 1.775338e-02 -2.198080e-02 5.555964e-02 -3.966678e-02 4.607256e-02 -6.127948e-02 5.542302e-02 -4.494936e-02 4.638158e-02 -4.139205e-02 3.453982e-02 -4.950590e-02 3.162869e-02 -2.860784e-02 2.146854e-02 -3.532816e-02 3.208872e-02 -4.499933e-02 3.249943e-02 -3.441199e-02 2.713029e-02 -2.961778e-02 2.856601e-02 -2.531084e-02 1.779571e-02 -1.531980e-02 1.404778e-02 -1.159159e-02 8.026736e-03 -8.091212e-03 8.331913e-03 -8.120340e-03 7.878821e-03 -6.658915e-03 3.611234e-03 -1.323233e-03 2.031155e-03 -4.399633e-03 5.633889e-03 2.728594e-03 6.256221e-05 -2.679956e-04 2.515565e-04 -3.238790e-04 3.461797e-05 -3.110351e-04 2.211068e-04 -7.927831e-05 -3.151128e-05 -2.080954e-04 -1.578467e-05 -1.780561e-04 9.117521e-05 -1.570087e-04 -4.144198e-05 -7.601934e-05 9.542235e-05 -1.495255e-04 -2.891211e-06 -5.660984e-05 -3.303910e-05 -2.033614e-05 9.125374e-05 3.874874e-05 -2.241090e-05 1.531753e-05 5.167716e-05 3.961285e-06 1.278974e-05 -5.051774e-05 6.416506e-05 1.014720e-05 2.274372e-05 -1.164040e-05 -8.307366e-06 7.509023e-06 5.674652e-05 -3.550953e-05 5.045120e-05 -2.351761e-05 3.721215e-06 -9.919770e-06 4.962429e-06 -1.140170e-05 1.285997e-05 -1.178828e-05 2.284917e-05 -4.503783e-05 3.434528e-05 -6.967814e-06 4.699647e-06 -9.227675e-06 -2.990312e-06 2.451085e-05 -2.040211e-05 5.551643e-06 -4.218741e-06 1.218022e-05 -1.238168e-05 -4.702425e-05 -8.136994e-06 1.991208e-06 -5.427175e-06 -5.296791e-06 -6.790875e-06 7.312738e-06 -6.740528e-06 -5.934824e-06 3.762533e-06 1.591756e-06 -4.873438e-06 1.304604e-06 -6.033662e-06 -1.048143e-06 -1.790246e-06 2.026017e-06 2.566375e-06 -5.052618e-06 -6.538924e-06 -1.990974e-06 -1.701311e-06 -2.575026e-06 -2.800663e-06 -7.729606e-07 3.301613e-06 3.030565e-06 4.569462e-06 3.540376e-06 -4.572967e-06 -2.435558e-06 -1.138362e-06 1.116223e-06 1.345878e-06 4.139888e-06 2.415631e-07 4.024235e-07 1.166491e-06 3.508808e-06 -2.134751e-06 -1.492996e-06 1.402284e-06 3.065157e-06 -3.175807e-06 -9.117474e-07 4.518361e-07 5.970522e-07 1.218554e-06 -1.446381e-06 9.764740e-07 -1.001049e-06 1.990278e-06 -1.044763e-06 -1.074846e-06 -2.127790e-08 9.733075e-07 -2.995631e-06 3.735510e-06 -1.355059e-06 -1.992709e-06
<VARIANCE> 180
 4.930609e+00 1.060584e+00 2.355514e-01 1.765241e-01 1.386000e-01 6.890437e-02 1.005546e-01 3.781623e-02 7.764362e-02 4.215643e-02 4.143309e-02 3.440915e-02 3.900727e-02 2.443833e-02 2.677803e-02 2.065304e-02 2.241208e-02 1.900205e-02 1.977737e-02 1.466473e-02 1.473052e-02 1.355695e-02 1.141335e-02 1.043432e-02 9.946017e-03 8.820875e-03 8.686032e-03 9.480801e-03 7.859361e-03 7.379097e-03 6.980557e-03 6.471928e-03 5.366429e-03 5.786784e-03 4.991726e-03 4.861219e-03 4.499992e-03 4.888485e-03 4.397558e-03 4.183138e-03 3.879038e-03 3.750907e-03 3.496284e-03 3.376662e-03 3.407321e-03 3.352528e-03 3.189643e-03 3.007100e-03 2.827782e-03 2.713752e-03 2.638141e-03 2.527403e-03 2.538393e-03 2.547730e-03 2.419573e-03 2.278490e-03 2.302550e-03 2.243523e-03 2.222512e-03 2.187575e-03 6.295212e-02 2.884940e-02 1.659976e-02 9.142823e-03 8.234449e-03 5.683042e-03 5.792528e-03 4.759527e-03 5.246371e-03 4.813510e-03 4.581255e-03 4.489701e-03 3.944016e-03 3.881918e-03 3.836548e-03 3.652858e-03 3.227954e-03 3.205441e-03 3.006804e-03 2.860281e-03 2.724487e-03 2.582788e-03 2.399655e-03 2.283562e-03 2.179004e-03 2.044904e-03 1.974729e-03 1.861797e-03 1.751483e-03 1.649103e-03 1.561470e-03 1.467699e-03 1.390787e-03 1.325757e-03 1.258137e-03 1.178063e-03 1.132571e-03 1.071977e-03 1.021306e-03 9.665276e-04 9.243650e-04 8.891301e-04 8.541127e-04 8.141713e-04 7.901668e-04 7.621954e-04 7.343108e-04 7.118336e-04 6.795949e-04 6.600789e-04 6.444727e-04 6.211809e-04 5.982817e-04 5.807930e-04 5.711260e-04 5.503598e-04 5.373396e-04 5.225785e-04 5.066508e-04 4.972810e-04 8.929257e-02 3.663393e-02 4.028035e-02 2.407127e-02 2.247421e-02 1.876829e-02 1.862104e-02 1.721835e-02 1.782133e-02 1.711203e-02 1.679298e-02 1.629157e-02 1.531911e-02 1.515390e-02 1.481067e-02 1.413721e-02 1.336130e-02 1.308470e-02 1.227708e-02 1.169373e-02 1.115184e-02 1.055423e-02 9.995870e-03 9.619597e-03 9.066776e-03 8.700605e-03 8.204494e-03 7.860080e-03 7.460262e-03 7.057305e-03 6.708025e-03 6.302534e-03 6.042850e-03 5.770421e-03 5.498135e-03 5.201816e-03 4.937067e-03 4.781470e-03 4.524101e-03 4.324890e-03 4.153056e-03 3.995718e-03 3.828745e-03 3.642564e-03 3.551082e-03 3.426338e-03 3.299550e-03 3.198707e-03 3.084463e-03 2.978989e-03 2.899828e-03 2.809720e-03 2.726067e-03 2.661638e-03 2.601650e-03 2.524732e-03 2.450023e-03 2.380984e-03 2.328489e-03 2.273736e-03
<GCONST> -6.121802e+02
<STREAM> 2
<NUMMIXES> 2
<MIXTURE> 1 5.463707e-01
<MEAN> 1
 5.260830e+00
<VARIANCE> 1
 3.826118e-02
<GCONST> -1.425442e+00
<MIXTURE> 2 4.536905e-01
<MEAN> 0
<VARIANCE> 0
<GCONST> 0.000000e+00
<STREAM> 3
<NUMMIXES> 2
<MIXTURE> 1 5.202149e-01
<MEAN> 1
 -2.060642e-03
<VARIANCE> 1
 7.435528e-04
<GCONST> -5.366194e+00
<MIXTURE> 2 4.798511e-01
<MEAN> 0
<VARIANCE> 0
<GCONST> 0.000000e+00
<STREAM> 4
<NUMMIXES> 2
<MIXTURE> 1 5.169955e-01
<MEAN> 1
 -5.819179e-04
<VARIANCE> 1
 3.156085e-03
<GCONST> -3.920546e+00
<MIXTURE> 2 4.830700e-01
<MEAN> 0
<VARIANCE> 0
<GCONST> 0.000000e+00
<STREAM> 5
<MEAN> 15
 -2.894969e+00 -1.850927e+00 -1.832403e+00 -1.755800e+00 -1.637984e+00 -8.221002e-04 -1.176636e-03 -9.099896e-04 -1.310643e-03 -1.090889e-03 8.065168e-05 4.256811e-05 3.460436e-05 3.925485e-05 3.562144e-05
<VARIANCE> 15
 1.475834e+01 4.731171e+00 4.669024e+00 3.996649e+00 3.357143e+00 1.281273e+00 6.960183e-01 7.361851e-01 6.401933e-01 5.441443e-01 7.531169e+00 5.460943e+00 5.814617e+00 5.207422e+00 4.635019e+00
<GCONST> 4.313708e+01
<STATE> 3
<SWEIGHTS> 5
 1.000000e+00 0.000000e+00 0.000000e+00 0.000000e+00 0.000000e+00
<STREAM> 1
<MEAN> 180
 4.233164e+00 1.859344e+00 1.949371e-01 7.402622e-01 5.740893e-02 4.385903e-01 -1.627821e-01 2.649295e-01 -1.091339e-01 1.223864e-01 -6.002696e-02 1.575588e-01 -1.319813e-01 1.385216e-01 -6.089757e-02 3.608381e-02 -1.383187e-01 6.154041e-02 -9.705810e-02 5.106484e-02 -9.511161e-03 1.758679e-02 -2.212155e-02 5.590720e-02 -3.953923e-02 4.601102e-02 -6.119527e-02 5.565488e-02 -4.483431e-02 4.639956e-02 -4.160080e-02 3.477324e-02 -4.946782e-02 3.173757e-02 -2.863396e-02 2.144624e-02 -3.529725e-02 3.227951e-02 -4.509445e-02 3.265308e-02 -3.451420e-02 2.717893e-02 -2.965755e-02 2.856920e-02 -2.536845e-02 1.785838e-02 -1.536733e-02 1.413987e-02 -1.176659e-02 8.184812e-03 -8.145840e-03 8.354527e-03 -8.140383e-03 7.850088e-03 -6.565123e-03 3.531232e-03 -1.324607e-03 2.063371e-03 -4.383279e-03 5.569843e-03 2.587108e-03 6.328491e-05 -2.451680e-04 2.610776e-04 -3.220015e-04 1.801942e-05 -2.848020e-04 1.950296e-04 -1.132967e-04 -3.329033e-05 -2.033299e-04 -3.551270e-05 -1.769656e-04 7.338086e-05 -1.489583e-04 -3.789447e-05 -7.511078e-05 1.027042e-04 -1.559410e-04 -2.070727e-05 -6.708376e-05 -4.337431e-05 -1.967618e-05 8.678854e-05 2.898955e-05 -1.172233e-05 2.191416e-05 5.817203e-05 2.238188e-05 5.297199e-06 -5.380105e-05 5.950488e-05 8.061096e-06 2.747566e-05 2.161382e-06 -6.455059e-06 1.203333e-05 5.607720e-05 -3.097567e-05 4.304973e-05 -2.526588e-05 7.877044e-06 -4.384144e-06 1.086281e-06 -1.481384e-05 1.179292e-05 -8.448129e-06 2.445437e-05 -4.393464e-05 3.766025e-05 -1.413438e-05 8.339652e-06 -7.034942e-06 -6.963107e-06 2.229482e-05 -1.803521e-05 -5.127637e-07 5.379474e-06 7.365567e-06 -1.768579e-05 -4.438606e-05 -3.105645e-06 6.779603e-06 2.103095e-06 2.471699e-06 -3.092820e-06 7.794146e-06 -6.564346e-06 -7.244741e-06 -1.870176e-07 8.139300e-07 -6.432900e-06 -7.146759e-07 -5.896878e-06 2.004880e-06 1.192727e-06 -1.399568e-07 1.611305e-06 -7.604030e-07 -4.632891e-06 -3.539023e-06 -2.176389e-06 6.385723e-07 5.129731e-07 -2.094641e-06 2.776253e-06 1.916957e-06 9.192304e-07 4.500552e-06 -1.708861e-06 -8.983130e-07 -1.587266e-06 -6.485145e-07 1.256028e-06 3.938269e-06 5.160826e-07 1.082817e-06 -7.779659e-07 1.234074e-06 -2.420115e-06 2.114009e-08 1.082439e-06 1.129174e-06 -9.318913e-07 -8.107671e-07 -5.734941e-08 5.484283e-07 2.780154e-07 6.609249e-07 7.920701e-07 -2.059150e-06 1.028652e-06 4.164487e-07 -6.756705e-07 -6.806442e-07 4.567346e-07 -1.475456e-06 2.757855e-06 -1.629977e-06 -1.228532e-06
<VARIANCE> 180
 4.909513e+00 1.063308e+00 2.362885e-01 1.760997e-01 1.389084e-01 6.866717e-02 1.004332e-01 3.791061e-02 7.756020e-02 4.210144e-02 4.134605e-02 3.433978e-02 3.896723e-02 2.445670e-02 2.673757e-02 2.067705e-02 2.239003e-02 1.898290e-02 1.976581e-02 1.469625e-02 1.470994e-02 1.355650e-02 1.141275e-02 1.044363e-02 9.933801e-03 8.823455e-03 8.674427e-03 9.433430e-03 7.857296e-03 7.388273e-03 6.984140e-03 6.474794e-03 5.368655e-03 5.784013e-03 4.976851e-03 4.853338e-03 4.504634e-03 4.898231e-03 4.399996e-03 4.188725e-03 3.883782e-03 3.751193e-03 3.498209e-03 3.377134e-03 3.405571e-03 3.353166e-03 3.194729e-03 3.013145e-03 2.825658e-03 2.711517e-03 2.636956e-03 2.528827e-03 2.543165e-03 2.553244e-03 2.426243e-03 2.284365e-03 2.304769e-03 2.244338e-03 2.224105e-03 2.187950e-03 6.302858e-02 2.902485e-02 1.663759e-02 9.150673e-03 8.247185e-03 5.686319e-03 5.799343e-03 4.766934e-03 5.252626e-03 4.822378e-03 4.581085e-03 4.488915e-03 3.946751e-03 3.885312e-03 3.834639e-03 3.656217e-03 3.228358e-03 3.203456e-03 3.009829e-03 2.859347e-03 2.725060e-03 2.588206e-03 2.398261e-03 2.287349e-03 2.178893e-03 2.043723e-03 1.972415e-03 1.860917e-03 1.747438e-03 1.645574e-03 1.560553e-03 1.467478e-03 1.389808e-03 1.326061e-03 1.257061e-03 1.177780e-03 1.130798e-03 1.071943e-03 1.021123e-03 9.677709e-04 9.240013e-04 8.891462e-04 8.538032e-04 8.129541e-04 7.893918e-04 7.612268e-04 7.348667e-04 7.118491e-04 6.803828e-04 6.603436e-04 6.436847e-04 6.195899e-04 5.973569e-04 5.808192e-04 5.707346e-04 5.511745e-04 5.366772e-04 5.227815e-04 5.062708e-04 4.972546e-04 8.945766e-02 3.678601e-02 4.038714e-02 2.415364e-02 2.251820e-02 1.880735e-02 1.865353e-02 1.726743e-02 1.785698e-02 1.714966e-02 1.680602e-02 1.632285e-02 1.534921e-02 1.519418e-02 1.481630e-02 1.417665e-02 1.338430e-02 1.310865e-02 1.231377e-02 1.169937e-02 1.116647e-02 1.059060e-02 1.001038e-02 9.640896e-03 9.089353e-03 8.701674e-03 8.215788e-03 7.867188e-03 7.470315e-03 7.064660e-03 6.712436e-03 6.310795e-03 6.048352e-03 5.778473e-03 5.505986e-03 5.208322e-03 4.942150e-03 4.785656e-03 4.522644e-03 4.329396e-03 4.149892e-03 3.996933e-03 3.825068e-03 3.645000e-03 3.553265e-03 3.428481e-03 3.305718e-03 3.206879e-03 3.087240e-03 2.983496e-03 2.905026e-03 2.811028e-03 2.726932e-03 2.664889e-03 2.602264e-03 2.529527e-03 2.452250e-03 2.383294e-03 2.327829e-03 2.278465e-03
<GCONST> -6.120886e+02
<STREAM> 2
<NUMMIXES> 2
<MIXTURE> 1 5.478685e-01
<MEAN> 1
 5.260785e+00
<VARIANCE> 1
 3.848391e-02
<GCONST> -1.419638e+00
<MIXTURE> 2 4.522093e-01
<MEAN> 0
<VARIANCE> 0
<GCONST> 0.000000e+00
<STREAM> 3
<NUMMIXES> 2
<MIXTURE> 1 5.216541e-01
<MEAN> 1
 -2.060824e-03
<VARIANCE> 1
 7.487795e-04
<GCONST> -5.359189e+00
<MIXTURE> 2 4.784271e-01
<MEAN> 0
<VARIANCE> 0
<GCONST> 0.000000e+00
<STREAM> 4
<NUMMIXES> 2
<MIXTURE> 1 5.184359e-01
<MEAN> 1
 -5.835830e-04
<VARIANCE> 1
 3.160912e-03
<GCONST> -3.919018e+00
<MIXTURE> 2 4.816451e-01
<MEAN> 0
<VARIANCE> 0
<GCONST> 0.000000e+00
<STREAM> 5
<MEAN> 15
 -2.896044e+00 -1.854207e+00 -1.834830e+00 -1.759783e+00 -1.641265e+00 -6.399943e-04 -1.067494e-03 -8.358915e-04 -1.220574e-03 -1.014190e-03 8.479749e-05 4.109283e-05 2.928423e-05 3.495771e-05 2.788570e-05
<VARIANCE> 15
 1.471284e+01 4.723104e+00 4.660153e+00 3.996152e+00 3.353380e+00 1.282943e+00 6.961066e-01 7.368893e-01 6.417612e-01 5.450476e-01 7.557370e+00 5.474113e+00 5.812611e+00 5.224743e+00 4.644148e+00
<GCONST> 4.314645e+01
<STATE> 4
<SWEIGHTS> 5
 1.000000e+00 0.000000e+00 0.000000e+00 0.000000e+00 0.000000e+00
<STREAM> 1
<MEAN> 180
 4.242467e+00 1.859127e+00 1.940486e-01 7.413487e-01 5.609421e-02 4.386963e-01 -1.637450e-01 2.656856e-01 -1.096272e-01 1.222610e-01 -6.082594e-02 1.574036e-01 -1.325763e-01 1.387409e-01 -6.143804e-02 3.597493e-02 -1.385790e-01 6.197665e-02 -9.764095e-02 5.094185e-02 -9.819423e-03 1.738003e-02 -2.224559e-02 5.621739e-02 -3.946061e-02 4.599955e-02 -6.109747e-02 5.588260e-02 -4.464718e-02 4.641616e-02 -4.180475e-02 3.498085e-02 -4.944136e-02 3.186475e-02 -2.862545e-02 2.143353e-02 -3.524627e-02 3.246222e-02 -4.518668e-02 3.277897e-02 -3.460486e-02 2.723276e-02 -2.969392e-02 2.858025e-02 -2.543399e-02 1.790820e-02 -1.540154e-02 1.423132e-02 -1.192234e-02 8.346507e-03 -8.226969e-03 8.380386e-03 -8.140789e-03 7.810046e-03 -6.484126e-03 3.457197e-03 -1.327636e-03 2.106502e-03 -4.380227e-03 5.500757e-03 2.455217e-03 8.526800e-05 -2.100591e-04 2.841642e-04 -2.965725e-04 8.331976e-06 -2.708382e-04 1.698766e-04 -1.438304e-04 -4.053961e-05 -2.011334e-04 -6.399533e-05 -1.801285e-04 6.159215e-05 -1.325884e-04 -3.164860e-05 -7.814646e-05 1.102382e-04 -1.529877e-04 -3.906621e-05 -8.036643e-05 -5.258656e-05 -1.574631e-05 8.255415e-05 1.877979e-05 8.452389e-07 2.651044e-05 5.564861e-05 3.925462e-05 5.669157e-06 -5.248160e-05 5.260576e-05 5.082094e-06 3.122953e-05 1.137193e-05 -4.468535e-06 1.691323e-05 5.150372e-05 -2.868580e-05 3.395145e-05 -2.013845e-05 9.482169e-06 -4.728265e-06 2.540170e-06 -1.607333e-05 9.792815e-06 -7.031382e-06 2.430649e-05 -3.775119e-05 3.755189e-05 -2.087108e-05 9.815141e-06 -3.391452e-06 -8.079013e-06 1.851116e-05 -1.688640e-05 -6.831968e-07 9.015033e-06 2.415837e-06 -1.772047e-05 -4.239804e-05 -1.361401e-06 9.529514e-06 5.808995e-06 7.441206e-06 -1.251738e-06 4.555815e-06 -5.584989e-06 -5.731476e-06 -1.051691e-06 -4.498904e-08 -8.087613e-06 -7.278538e-07 -3.838645e-06 4.388878e-06 1.935280e-06 -9.346629e-07 1.788395e-06 1.510430e-06 -4.687616e-06 -4.160750e-06 -2.171106e-06 4.722821e-07 -3.070255e-08 -2.107818e-06 3.344922e-06 1.307055e-06 -9.682395e-07 4.220704e-06 5.279194e-07 4.186437e-07 -1.942871e-06 -7.073206e-07 7.486756e-07 2.378160e-06 2.206331e-07 1.037871e-06 -1.786037e-06 9.373173e-07 -2.915704e-06 1.836352e-06 6.281970e-07 -5.788629e-07 2.592965e-07 -1.000486e-07 -2.212627e-07 -7.765900e-08 -6.239332e-08 1.915271e-06 -2.226509e-07 -1.770763e-06 4.623024e-07 7.504299e-07 1.362009e-08 -1.038571e-06 2.125232e-07 -3.840277e-08 1.210856e-06 -1.667382e-06 2.760358e-07
<VARIANCE> 180
 4.889771e+00 1.065826e+00 2.372055e-01 1.755708e-01 1.392320e-01 6.844140e-02 1.003637e-01 3.799988e-02 7.743718e-02 4.202709e-02 4.127281e-02 3.425819e-02 3.891312e-02 2.446436e-02 2.670802e-02 2.069028e-02 2.236141e-02 1.895017e-02 1.974625e-02 1.473160e-02 1.468951e-02 1.355853e-02 1.141470e-02 1.045515e-02 9.925310e-03 8.822710e-03 8.664194e-03 9.383815e-03 7.858776e-03 7.400216e-03 6.987120e-03 6.479783e-03 5.376234e-03 5.780522e-03 4.968064e-03 4.844736e-03 4.509218e-03 4.903971e-03 4.401851e-03 4.195509e-03 3.890880e-03 3.751423e-03 3.500888e-03 3.378625e-03 3.405464e-03 3.353962e-03 3.200107e-03 3.017607e-03 2.824434e-03 2.709005e-03 2.635109e-03 2.530702e-03 2.547446e-03 2.559276e-03 2.432329e-03 2.290852e-03 2.306551e-03 2.245090e-03 2.226644e-03 2.189607e-03 6.314663e-02 2.919285e-02 1.668456e-02 9.160209e-03 8.262287e-03 5.690672e-03 5.805625e-03 4.774696e-03 5.260072e-03 4.830677e-03 4.584694e-03 4.488230e-03 3.948490e-03 3.888404e-03 3.832560e-03 3.656927e-03 3.227010e-03 3.200476e-03 3.012333e-03 2.859069e-03 2.725758e-03 2.593561e-03 2.397161e-03 2.291386e-03 2.180001e-03 2.042302e-03 1.969807e-03 1.858806e-03 1.744234e-03 1.642648e-03 1.560119e-03 1.466648e-03 1.389692e-03 1.325700e-03 1.257255e-03 1.178252e-03 1.129820e-03 1.071456e-03 1.020994e-03 9.682210e-04 9.244703e-04 8.889547e-04 8.533195e-04 8.121542e-04 7.890622e-04 7.601956e-04 7.354657e-04 7.117937e-04 6.810911e-04 6.602319e-04 6.423745e-04 6.180140e-04 5.961678e-04 5.810409e-04 5.698192e-04 5.518509e-04 5.362960e-04 5.229147e-04 5.061966e-04 4.974267e-04 8.963600e-02 3.694463e-02 4.050471e-02 2.424295e-02 2.256817e-02 1.884947e-02 1.868451e-02 1.731540e-02 1.789643e-02 1.719092e-02 1.682667e-02 1.635074e-02 1.537868e-02 1.523536e-02 1.482257e-02 1.421457e-02 1.340098e-02 1.312885e-02 1.234756e-02 1.171200e-02 1.118244e-02 1.062745e-02 1.002793e-02 9.664797e-03 9.115512e-03 8.703499e-03 8.228973e-03 7.872229e-03 7.482473e-03 7.074827e-03 6.719951e-03 6.322004e-03 6.052924e-03 5.785713e-03 5.515894e-03 5.217015e-03 4.950157e-03 4.788222e-03 4.522136e-03 4.332643e-03 4.147551e-03 3.998056e-03 3.821776e-03 3.649360e-03 3.556036e-03 3.430602e-03 3.311765e-03 3.214517e-03 3.089632e-03 2.987616e-03 2.909285e-03 2.812873e-03 2.728093e-03 2.669017e-03 2.601857e-03 2.534195e-03 2.456208e-03 2.385836e-03 2.328179e-03 2.283574e-03
<GCONST> -6.119855e+02
<STREAM> 2
<NUMMIXES> 2
<MIXTURE> 1 5.493444e-01
<MEAN> 1
 5.260868e+00
<VARIANCE> 1
 3.856216e-02
<GCONST> -1.417607e+00
<MIXTURE> 2 4.507327e-01
<MEAN> 0
<VARIANCE> 0
<GCONST> 0.000000e+00
<STREAM> 3
<NUMMIXES> 2
<MIXTURE> 1 5.230781e-01
<MEAN> 1
 -2.058517e-03
<VARIANCE> 1
 7.547947e-04
<GCONST> -5.351188e+00
<MIXTURE> 2 4.770041e-01
<MEAN> 0
<VARIANCE> 0
<GCONST> 0.000000e+00
<STREAM> 4
<NUMMIXES> 2
<MIXTURE> 1 5.198622e-01
<MEAN> 1
 -5.828668e-04
<VARIANCE> 1
 3.167429e-03
<GCONST> -3.916958e+00
<MIXTURE> 2 4.802199e-01
<MEAN> 0
<VARIANCE> 0
<GCONST> 0.000000e+00
<STREAM> 5
<MEAN> 15
 -2.897095e+00 -1.857397e+00 -1.837375e+00 -1.763784e+00 -1.644622e+00 -4.993675e-04 -1.003331e-03 -8.291007e-04 -1.185039e-03 -1.005132e-03 7.651705e-05 3.231770e-05 1.499048e-05 2.332918e-05 1.224843e-05
<VARIANCE> 15
 1.466767e+01 4.713877e+00 4.651001e+00 3.995449e+00 3.350369e+00 1.284885e+00 6.960478e-01 7.373873e-01 6.431879e-01 5.460609e-01 7.587124e+00 5.487388e+00 5.811366e+00 5.241173e+00 4.653089e+00
<GCONST> 4.315576e+01
<STATE> 5
<SWEIGHTS> 5
 1.000000e+00 0.000000e+00 0.000000e+00 0.000000e+00 0.000000e+00
<STREAM> 1
<MEAN> 180
 4.251382e+00 1.859161e+00 1.933415e-01 7.425469e-01 5.495095e-02 4.387787e-01 -1.647145e-01 2.663501e-01 -1.102241e-01 1.221108e-01 -6.160093e-02 1.571339e-01 -1.331856e-01 1.389528e-01 -6.190281e-02 3.588387e-02 -1.388425e-01 6.244742e-02 -9.820998e-02 5.073423e-02 -1.017470e-02 1.713759e-02 -2.235683e-02 5.647708e-02 -3.941469e-02 4.604866e-02 -6.098799e-02 5.608195e-02 -4.441931e-02 4.644683e-02 -4.198524e-02 3.515748e-02 -4.942009e-02 3.200268e-02 -2.860208e-02 2.143548e-02 -3.518115e-02 3.262489e-02 -4.526885e-02 3.287517e-02 -3.466398e-02 2.727886e-02 -2.973431e-02 2.860844e-02 -2.550402e-02 1.794555e-02 -1.542830e-02 1.431866e-02 -1.205078e-02 8.497125e-03 -8.323211e-03 8.405096e-03 -8.126162e-03 7.769927e-03 -6.419680e-03 3.389142e-03 -1.319662e-03 2.145101e-03 -4.391165e-03 5.443793e-03 2.329312e-03 1.132422e-04 -1.626348e-04 3.118744e-04 -2.554687e-04 7.876009e-06 -2.692101e-04 1.521378e-04 -1.624626e-04 -4.379754e-05 -1.977093e-04 -9.308851e-05 -1.825396e-04 5.739843e-05 -1.126886e-04 -2.568846e-05 -7.936967e-05 1.176631e-04 -1.475302e-04 -5.923633e-05 -9.403264e-05 -6.047923e-05 -1.531964e-05 7.306016e-05 1.215781e-05 1.575269e-05 2.949761e-05 4.878396e-05 4.863893e-05 1.069847e-05 -4.649552e-05 4.463490e-05 4.096843e-06 3.193912e-05 1.481491e-05 -1.140575e-06 1.933253e-05 4.381493e-05 -2.370126e-05 2.430747e-05 -1.048899e-05 8.639203e-06 -7.125598e-06 5.727491e-06 -1.633650e-05 7.696168e-06 -6.900429e-06 2.355856e-05 -3.011133e-05 3.404978e-05 -2.468825e-05 1.030668e-05 -8.538236e-07 -6.899631e-06 1.402239e-05 -1.543889e-05 1.910081e-06 9.090555e-06 -2.821615e-06 -1.343457e-05 -4.050984e-05 -2.667404e-06 1.287878e-05 7.080234e-06 1.008158e-05 1.423741e-06 1.885839e-06 -2.918411e-06 -2.809513e-06 2.982046e-08 2.750986e-07 -7.179402e-06 4.133766e-07 -1.688713e-06 5.264268e-06 2.095921e-06 -1.215839e-07 1.900038e-06 1.788741e-06 -4.758638e-06 -3.899138e-06 -1.752227e-06 -9.403479e-07 -2.055856e-06 -1.295557e-06 3.901149e-06 6.468317e-07 -1.662195e-06 2.406071e-06 1.791177e-06 1.649255e-06 -2.160616e-06 -1.558595e-07 -3.435636e-07 7.834354e-07 6.794958e-07 1.268066e-07 -2.585013e-06 1.856456e-06 -3.079557e-06 2.861670e-06 1.869576e-07 -1.089332e-06 6.070044e-07 1.478594e-07 -3.392743e-07 -3.023419e-07 -1.560236e-07 2.106547e-06 -1.042064e-06 -9.570392e-07 2.630296e-07 4.557981e-07 4.354991e-07 -1.137229e-06 3.830510e-07 5.378715e-07 3.454783e-07 -1.694697e-06 1.317396e-06
<VARIANCE> 180
 4.871105e+00 1.067998e+00 2.382988e-01 1.749462e-01 1.395766e-01 6.824382e-02 1.003383e-01 3.808489e-02 7.730272e-02 4.193977e-02 4.121615e-02 3.418234e-02 3.885401e-02 2.446217e-02 2.669348e-02 2.070046e-02 2.233381e-02 1.891116e-02 1.972133e-02 1.476747e-02 1.467128e-02 1.356103e-02 1.141789e-02 1.047097e-02 9.921633e-03 8.819641e-03 8.656751e-03 9.339730e-03 7.863555e-03 7.413743e-03 6.989915e-03 6.486510e-03 5.387676e-03 5.777119e-03 4.965528e-03 4.836460e-03 4.513980e-03 4.907179e-03 4.404108e-03 4.202983e-03 3.899877e-03 3.751883e-03 3.504183e-03 3.381471e-03 3.406963e-03 3.355651e-03 3.205909e-03 3.020336e-03 2.824549e-03 2.706963e-03 2.633464e-03 2.533576e-03 2.551364e-03 2.565064e-03 2.438545e-03 2.298010e-03 2.307847e-03 2.245856e-03 2.230091e-03 2.192579e-03 6.332650e-02 2.935228e-02 1.674229e-02 9.171917e-03 8.280077e-03 5.697920e-03 5.811865e-03 4.782050e-03 5.269414e-03 4.839447e-03 4.592148e-03 4.488214e-03 3.950721e-03 3.891970e-03 3.831085e-03 3.657324e-03 3.225049e-03 3.197532e-03 3.014798e-03 2.859113e-03 2.727287e-03 2.597990e-03 2.395913e-03 2.295329e-03 2.181861e-03 2.041252e-03 1.967110e-03 1.856213e-03 1.741978e-03 1.640900e-03 1.560192e-03 1.465657e-03 1.390532e-03 1.324866e-03 1.258830e-03 1.179329e-03 1.129748e-03 1.070754e-03 1.020982e-03 9.679704e-04 9.254109e-04 8.886510e-04 8.527813e-04 8.120156e-04 7.891500e-04 7.593572e-04 7.360514e-04 7.116360e-04 6.817812e-04 6.599386e-04 6.410725e-04 6.167158e-04 5.950286e-04 5.812065e-04 5.686843e-04 5.521902e-04 5.360863e-04 5.229212e-04 5.064658e-04 4.978136e-04 8.986374e-02 3.711275e-02 4.064037e-02 2.433757e-02 2.262286e-02 1.889808e-02 1.871453e-02 1.736109e-02 1.793948e-02 1.723786e-02 1.685355e-02 1.637842e-02 1.540950e-02 1.527598e-02 1.483138e-02 1.425514e-02 1.341328e-02 1.314791e-02 1.237867e-02 1.172996e-02 1.120092e-02 1.066296e-02 1.004558e-02 9.690143e-03 9.142199e-03 8.706564e-03 8.243995e-03 7.876879e-03 7.495898e-03 7.086888e-03 6.731080e-03 6.334940e-03 6.058358e-03 5.792224e-03 5.527574e-03 5.226837e-03 4.960114e-03 4.789547e-03 4.522580e-03 4.334619e-03 4.146753e-03 3.999978e-03 3.820396e-03 3.655824e-03 3.559718e-03 3.433352e-03 3.317054e-03 3.221174e-03 3.092061e-03 2.991551e-03 2.913312e-03 2.815040e-03 2.729944e-03 2.673301e-03 2.600815e-03 2.538313e-03 2.460956e-03 2.388604e-03 2.329681e-03 2.288980e-03
<GCONST> -6.118569e+02
<STREAM> 2
<NUMMIXES> 2
<MIXTURE> 1 5.508945e-01
<MEAN> 1
 5.260906e+00
<VARIANCE> 1
 3.864664e-02
<GCONST> -1.415418e+00
<MIXTURE> 2 4.492050e-01
<MEAN> 0
<VARIANCE> 0
<GCONST> 0.000000e+00
<STREAM> 3
<NUMMIXES> 2
<MIXTURE> 1 5.245625e-01
<MEAN> 1
 -2.054529e-03
<VARIANCE> 1
 7.612960e-04
<GCONST> -5.342611e+00
<MIXTURE> 2 4.755427e-01
<MEAN> 0
<VARIANCE> 0
<GCONST> 0.000000e+00
<STREAM> 4
<NUMMIXES> 2
<MIXTURE> 1 5.213494e-01
<MEAN> 1
 -5.814320e-04
<VARIANCE> 1
 3.175515e-03
<GCONST> -3.914408e+00
<MIXTURE> 2 4.787560e-01
<MEAN> 0
<VARIANCE> 0
<GCONST> 0.000000e+00
<STREAM> 5
<MEAN> 15
 -2.898312e+00 -1.860682e+00 -1.840282e+00 -1.768002e+00 -1.648292e+00 -3.848399e-04 -9.661134e-04 -8.660819e-04 -1.185708e-03 -1.040024e-03 7.283567e-05 2.847275e-05 7.331043e-06 1.595876e-05 3.567404e-06
<VARIANCE> 15
 1.462284e+01 4.703564e+00 4.641514e+00 3.994832e+00 3.348127e+00 1.287057e+00 6.959824e-01 7.377443e-01 6.445757e-01 5.472575e-01 7.620044e+00 5.500284e+00 5.811626e+00 5.257450e+00 4.662118e+00
<GCONST> 4.316583e+01
<STATE> 6
<SWEIGHTS> 5
 1.000000e+00 0.000000e+00 0.000000e+00 0.000000e+00 0.000000e+00
<STREAM> 1
<MEAN> 180
 4.259919e+00 1.859447e+00 1.928472e-01 7.438549e-01 5.402151e-02 4.388752e-01 -1.657317e-01 2.669514e-01 -1.108731e-01 1.219570e-01 -6.233992e-02 1.567667e-01 -1.338076e-01 1.391741e-01 -6.229629e-02 3.580702e-02 -1.390942e-01 6.294458e-02 -9.876075e-02 5.044125e-02 -1.058213e-02 1.686031e-02 -2.246800e-02 5.667470e-02 -3.937932e-02 4.615675e-02 -6.087150e-02 5.624972e-02 -4.419530e-02 4.649584e-02 -4.212287e-02 3.530621e-02 -4.939523e-02 3.213665e-02 -2.857978e-02 2.145863e-02 -3.511067e-02 3.275783e-02 -4.532836e-02 3.294366e-02 -3.468372e-02 2.730932e-02 -2.977468e-02 2.865309e-02 -2.558034e-02 1.797380e-02 -1.544747e-02 1.439831e-02 -1.215458e-02 8.630482e-03 -8.422146e-03 8.425498e-03 -8.102720e-03 7.736563e-03 -6.375480e-03 3.332346e-03 -1.299869e-03 2.175787e-03 -4.417202e-03 5.406908e-03 2.210575e-03 1.291542e-04 -1.059857e-04 3.401780e-04 -2.089479e-04 1.786727e-05 -2.755607e-04 1.438129e-04 -1.699866e-04 -4.188573e-05 -1.911822e-04 -1.142284e-04 -1.816481e-04 5.713001e-05 -9.480857e-05 -2.003862e-05 -7.598309e-05 1.243126e-04 -1.414947e-04 -7.780948e-05 -1.078340e-04 -6.772192e-05 -1.947635e-05 5.874243e-05 1.044883e-05 2.997265e-05 2.994734e-05 4.265089e-05 4.762975e-05 1.717429e-05 -3.592138e-05 3.725780e-05 5.447023e-06 2.844342e-05 1.430772e-05 4.142371e-06 1.890645e-05 3.407609e-05 -1.548417e-05 1.534361e-05 8.042207e-08 6.478126e-06 -8.430792e-06 8.582099e-06 -1.714808e-05 6.241830e-06 -6.192742e-06 2.185768e-05 -2.376277e-05 2.974279e-05 -2.567332e-05 1.010030e-05 4.581125e-07 -4.748205e-06 8.844851e-06 -1.242143e-05 4.274101e-06 8.403459e-06 -7.881779e-06 -7.800388e-06 -3.848960e-05 -7.079465e-06 1.473071e-05 6.869010e-06 1.043195e-05 3.998911e-06 1.398910e-07 -2.854119e-07 -4.530332e-07 1.259201e-06 1.137605e-06 -4.415486e-06 1.809801e-06 -1.097113e-06 4.476656e-06 2.156736e-06 1.445105e-06 1.901253e-06 1.779605e-06 -4.040714e-06 -3.562553e-06 -1.592164e-06 -2.413108e-06 -3.778462e-06 -2.501036e-07 3.575036e-06 -2.178212e-07 -1.160049e-06 -6.764083e-08 2.124553e-06 2.832487e-06 -1.993841e-06 4.860594e-07 -1.545096e-06 -1.958019e-07 1.277030e-06 -6.396344e-07 -3.060998e-06 2.703602e-06 -2.741115e-06 2.776768e-06 -7.161854e-08 -6.808023e-07 4.976218e-07 -4.185328e-08 -2.152421e-07 -2.076322e-08 -4.221815e-07 1.628519e-06 -1.125510e-06 -2.294410e-07 9.041798e-08 1.904817e-07 5.629526e-07 -1.317218e-06 8.821913e-07 3.885616e-07 1.395475e-07 -1.501877e-06 1.461899e-06
<VARIANCE> 180
 4.853030e+00 1.069791e+00 2.395529e-01 1.742549e-01 1.399339e-01 6.808295e-02 1.003523e-01 3.816033e-02 7.718091e-02 4.184176e-02 4.117532e-02 3.412326e-02 3.880099e-02 2.445427e-02 2.669000e-02 2.071253e-02 2.231256e-02 1.886967e-02 1.969308e-02 1.479963e-02 1.465442e-02 1.356069e-02 1.142011e-02 1.049046e-02 9.922557e-03 8.814749e-03 8.652941e-03 9.305121e-03 7.869989e-03 7.426076e-03 6.992932e-03 6.493808e-03 5.400311e-03 5.775159e-03 4.967814e-03 4.829078e-03 4.519016e-03 4.909392e-03 4.407341e-03 4.210195e-03 3.909223e-03 3.752708e-03 3.507867e-03 3.385141e-03 3.409371e-03 3.358520e-03 3.212089e-03 3.021999e-03 2.825878e-03 2.706351e-03 2.632831e-03 2.537141e-03 2.554953e-03 2.570229e-03 2.445171e-03 2.305962e-03 2.309044e-03 2.246472e-03 2.234018e-03 2.196324e-03 6.357822e-02 2.950163e-02 1.680760e-02 9.184345e-03 8.299699e-03 5.708968e-03 5.818309e-03 4.788146e-03 5.280344e-03 4.848622e-03 4.602324e-03 4.489339e-03 3.954349e-03 3.895730e-03 3.830004e-03 3.658805e-03 3.223556e-03 3.194980e-03 3.017446e-03 2.858849e-03 2.729443e-03 2.600769e-03 2.393977e-03 2.298972e-03 2.183989e-03 2.040528e-03 1.964519e-03 1.853671e-03 1.740634e-03 1.640112e-03 1.560771e-03 1.464723e-03 1.392220e-03 1.323558e-03 1.261345e-03 1.180685e-03 1.130117e-03 1.069868e-03 1.020986e-03 9.674059e-04 9.265317e-04 8.882905e-04 8.523128e-04 8.124918e-04 7.894748e-04 7.589318e-04 7.365574e-04 7.113660e-04 6.823705e-04 6.596943e-04 6.400455e-04 6.158325e-04 5.941631e-04 5.812092e-04 5.675848e-04 5.522186e-04 5.359239e-04 5.227772e-04 5.069480e-04 4.983624e-04 9.016600e-02 3.728612e-02 4.079812e-02 2.443281e-02 2.267937e-02 1.895268e-02 1.874366e-02 1.740467e-02 1.798352e-02 1.728957e-02 1.688661e-02 1.640736e-02 1.544360e-02 1.531092e-02 1.484266e-02 1.429932e-02 1.342418e-02 1.316672e-02 1.240629e-02 1.175034e-02 1.122178e-02 1.069506e-02 1.006096e-02 9.715459e-03 9.166805e-03 8.710290e-03 8.260174e-03 7.882092e-03 7.509575e-03 7.099069e-03 6.744922e-03 6.347777e-03 6.065477e-03 5.797282e-03 5.539949e-03 5.236200e-03 4.970083e-03 4.790002e-03 4.523124e-03 4.335560e-03 4.147505e-03 4.003040e-03 3.821166e-03 3.663937e-03 3.563883e-03 3.437154e-03 3.321130e-03 3.226842e-03 3.094609e-03 2.995606e-03 2.917304e-03 2.817448e-03 2.732583e-03 2.677255e-03 2.599560e-03 2.541671e-03 2.466032e-03 2.391509e-03 2.332271e-03 2.294398e-03
<GCONST> -6.117064e+02
<STREAM> 2
<NUMMIXES> 2
<MIXTURE> 1 5.524951e-01
<MEAN> 1
 5.260832e+00
<VARIANCE> 1
 3.879528e-02
<GCONST> -1.411580e+00
<MIXTURE> 2 4.475969e-01
<MEAN> 0
<VARIANCE> 0
<GCONST> 0.000000e+00
<STREAM> 3
<NUMMIXES> 2
<MIXTURE> 1 5.260672e-01
<MEAN> 1
 -2.050176e-03
<VARIANCE> 1
 7.678654e-04
<GCONST> -5.334019e+00
<MIXTURE> 2 4.740306e-01
<MEAN> 0
<VARIANCE> 0
<GCONST> 0.000000e+00
<STREAM> 4
<NUMMIXES> 2
<MIXTURE> 1 5.228592e-01
<MEAN> 1
 -5.812651e-04
<VARIANCE> 1
 3.184658e-03
<GCONST> -3.911534e+00
<MIXTURE> 2 4.772389e-01
<MEAN> 0
<VARIANCE> 0
<GCONST> 0.000000e+00
<STREAM> 5
<MEAN> 15
 -2.899646e+00 -1.864071e+00 -1.843554e+00 -1.772444e+00 -1.652288e+00 -2.529115e-04 -9.169133e-04 -8.907933e-04 -1.179019e-03 -1.070203e-03 7.686143e-05 3.406940e-05 1.186201e-05 2.029929e-05 7.527596e-06
<VARIANCE> 15
 1.457691e+01 4.692410e+00 4.631200e+00 3.994067e+00 3.346536e+00 1.289390e+00 6.959744e-01 7.379677e-01 6.459980e-01 5.486673e-01 7.654956e+00 5.512126e+00 5.813314e+00 5.273640e+00 4.670983e+00
<GCONST> 4.317629e+01
<TRANSP> 7
 0.000000e+00 1.000000e+00 0.000000e+00 0.000000e+00 0.000000e+00 0.000000e+00 0.000000e+00
 0.000000e+00 7.342016e-01 2.657985e-01 0.000000e+00 0.000000e+00 0.000000e+00 0.000000e+00
 0.000000e+00 0.000000e+00 7.341972e-01 2.658028e-01 0.000000e+00 0.000000e+00 0.000000e+00
 0.000000e+00 0.000000e+00 0.000000e+00 7.342011e-01 2.657989e-01 0.000000e+00 0.000000e+00
 0.000000e+00 0.000000e+00 0.000000e+00 0.000000e+00 7.342011e-01 2.657989e-01 0.000000e+00
 0.000000e+00 0.000000e+00 0.000000e+00 0.000000e+00 0.000000e+00 7.341987e-01 2.658013e-01
 0.000000e+00 0.000000e+00 0.000000e+00 0.000000e+00 0.000000e+00 0.000000e+00 0.000000e+00
<ENDHMM>
~h "G"
<BEGINHMM>
<NUMSTATES> 7
<STATE> 2
<SWEIGHTS> 5
 1.000000e+00 0.000000e+00 0.000000e+00 0.000000e+00 0.000000e+00
<STREAM> 1
<MEAN> 180
 4.391543e+00 2.007987e+00 2.402377e-01 7.282311e-01 2.459008e-03 4.271320e-01 -1.590090e-01 2.865661e-01 -1.618567e-01 9.192642e-02 -6.244240e-02 1.770295e-01 -1.226468e-01 1.279210e-01 -4.350180e-02 3.823973e-02 -1.358657e-01 6.074208e-02 -9.410140e-02 3.142603e-02 -1.222976e-02 9.049230e-03 -2.149390e-02 5.030259e-02 -3.829782e-02 4.917365e-02 -6.707348e-02 6.770089e-02 -4.988156e-02 5.145430e-02 -4.949040e-02 3.961314e-02 -4.429621e-02 2.911959e-02 -2.838157e-02 2.427630e-02 -3.800410e-02 3.715922e-02 -4.366788e-02 2.960167e-02 -3.133604e-02 2.625922e-02 -2.845292e-02 2.803201e-02 -2.651823e-02 1.924294e-02 -1.457641e-02 1.239080e-02 -1.062054e-02 7.737718e-03 -7.629246e-03 8.154292e-03 -8.346551e-03 8.478318e-03 -7.878778e-03 4.795512e-03 -3.432156e-03 5.324834e-03 -8.178208e-03 8.440481e-03 -4.125759e-05 -1.145468e-03 -8.461609e-05 8.272542e-04 3.220198e-04 -3.153575e-04 -1.556459e-04 -2.765636e-05 -2.435092e-04 -3.235664e-05 -4.583231e-05 1.546486e-04 -2.285896e-04 7.051873e-06 3.266943e-05 -3.236996e-05 -4.401473e-05 -3.433751e-05 1.575703e-06 -1.000900e-04 -1.837706e-04 -2.038329e-05 6.757414e-05 5.137480e-06 -5.983331e-05 1.202308e-04 6.798271e-05 -2.947106e-05 4.674375e-05 -1.352310e-05 4.386800e-05 2.636890e-05 -3.692291e-05 7.481794e-05 -1.653786e-05 -2.998236e-06 2.697948e-05 -4.554166e-05 3.724732e-05 1.284492e-05 -3.516300e-05 3.065865e-05 -1.693718e-05 1.295004e-06 -1.089545e-05 3.265344e-05 -4.160965e-05 3.623511e-05 -1.992540e-05 -2.046549e-05 6.060424e-05 -5.903108e-05 1.645751e-05 2.309384e-05 -2.845059e-05 2.302597e-05 -1.712317e-05 2.632691e-06 9.772701e-06 -7.313772e-06 1.178198e-04 2.280214e-06 -4.116869e-06 5.045946e-05 6.021863e-06 1.742687e-05 -2.621167e-05 -1.517262e-05 -1.702460e-05 -1.201323e-05 -2.056987e-05 3.836218e-06 -1.056497e-05 6.634315e-06 2.189261e-06 -4.462822e-06 -4.620344e-06 -3.692661e-06 1.283335e-06 -5.731685e-06 5.489244e-06 8.746638e-07 -4.307320e-06 1.103166e-06 5.807710e-07 -1.979202e-07 -2.970777e-07 2.601386e-07 3.020288e-06 4.209141e-06 -9.475458e-07 2.929939e-06 -1.237344e-06 2.333724e-06 4.048525e-06 -2.732394e-06 -1.048625e-07 -5.404645e-08 1.544786e-06 -2.212469e-06 9.812188e-07 1.640827e-06 -7.399287e-07 3.670932e-07 -7.893957e-07 2.523976e-06 -4.196204e-06 6.786099e-07 4.252441e-06 -5.080295e-06 2.312799e-06 -2.285267e-07 -5.508514e-07 1.003245e-06 -3.556839e-07 -9.469367e-07 1.130501e-06 2.570706e-07 -1.696302e-06 2.084161e-06
<VARIANCE> 180
 3.775921e+00 1.092710e+00 2.597227e-01 1.849665e-01 1.565647e-01 7.895807e-02 9.707008e-02 4.110444e-02 8.307327e-02 4.768278e-02 4.388212e-02 3.495089e-02 3.754896e-02 2.543100e-02 2.900698e-02 2.175229e-02 2.257974e-02 1.798762e-02 1.985785e-02 1.565859e-02 1.535231e-02 1.405889e-02 1.182794e-02 1.114174e-02 1.043940e-02 9.105813e-03 9.777576e-03 9.506457e-03 8.344252e-03 7.709221e-03 7.382981e-03 6.458429e-03 5.637483e-03 5.786271e-03 5.156935e-03 5.042477e-03 4.839655e-03 5.022707e-03 4.522736e-03 4.349825e-03 4.179257e-03 3.931873e-03 3.584781e-03 3.448400e-03 3.493275e-03 3.422136e-03 3.226597e-03 3.012769e-03 2.917516e-03 2.870646e-03 2.809195e-03 2.703705e-03 2.649380e-03 2.618515e-03 2.548597e-03 2.419289e-03 2.381204e-03 2.325290e-03 2.307835e-03 2.272215e-03 5.438321e-02 2.511268e-02 1.547444e-02 8.683902e-03 7.986306e-03 5.457913e-03 5.589554e-03 4.606241e-03 5.020253e-03 4.717238e-03 4.369421e-03 4.267554e-03 3.811891e-03 3.719787e-03 3.720254e-03 3.514696e-03 3.169481e-03 3.101446e-03 2.957415e-03 2.799735e-03 2.655114e-03 2.508883e-03 2.342035e-03 2.248769e-03 2.129179e-03 1.999706e-03 1.947513e-03 1.812027e-03 1.710105e-03 1.593688e-03 1.512727e-03 1.437712e-03 1.363959e-03 1.287178e-03 1.230012e-03 1.165300e-03 1.108767e-03 1.058921e-03 1.006689e-03 9.575329e-04 9.243159e-04 8.880108e-04 8.377433e-04 7.981618e-04 7.767818e-04 7.510366e-04 7.230885e-04 6.981260e-04 6.750862e-04 6.480043e-04 6.271895e-04 6.108177e-04 5.975844e-04 5.791030e-04 5.594462e-04 5.461873e-04 5.294918e-04 5.101315e-04 4.990805e-04 4.905352e-04 7.521968e-02 3.135977e-02 3.567527e-02 2.195401e-02 2.103512e-02 1.741013e-02 1.745488e-02 1.618015e-02 1.659583e-02 1.630857e-02 1.545841e-02 1.518666e-02 1.452659e-02 1.413639e-02 1.409379e-02 1.354504e-02 1.271947e-02 1.245111e-02 1.173409e-02 1.120466e-02 1.070134e-02 1.022890e-02 9.701805e-03 9.332733e-03 8.805406e-03 8.378606e-03 7.988041e-03 7.596754e-03 7.274748e-03 6.889833e-03 6.496933e-03 6.227903e-03 5.877371e-03 5.606371e-03 5.332804e-03 5.090193e-03 4.800222e-03 4.650147e-03 4.435192e-03 4.256374e-03 4.096133e-03 3.921323e-03 3.764811e-03 3.598938e-03 3.478848e-03 3.358285e-03 3.230108e-03 3.123839e-03 3.030048e-03 2.927184e-03 2.848425e-03 2.779226e-03 2.693882e-03 2.626519e-03 2.556385e-03 2.479986e-03 2.415109e-03 2.337439e-03 2.292580e-03 2.240305e-03
<GCONST> -6.139755e+02
<STREAM> 2
<NUMMIXES> 2
<MIXTURE> 1 5.890601e-01
<MEAN> 1
 5.232081e+00
<VARIANCE> 1
 3.653686e-02
<GCONST> -1.471557e+00
<MIXTURE> 2 4.109987e-01
<MEAN> 0
<VARIANCE> 0
<GCONST> 0.000000e+00
<STREAM> 3
<NUMMIXES> 2
<MIXTURE> 1 5.631207e-01
<MEAN> 1
 -2.499137e-03
<VARIANCE> 1
 6.930087e-04
<GCONST> -5.436591e+00
<MIXTURE> 2 4.369386e-01
<MEAN> 0
<VARIANCE> 0
<GCONST> 0.000000e+00
<STREAM> 4
<NUMMIXES> 2
<MIXTURE> 1 5.600523e-01
<MEAN> 1
 -3.346418e-04
<VARIANCE> 1
 2.882711e-03
<GCONST> -4.011147e+00
<MIXTURE> 2 4.400063e-01
<MEAN> 0
<VARIANCE> 0
<GCONST> 0.000000e+00
<STREAM> 5
<MEAN> 15
 -3.125520e+00 -2.000838e+00 -2.021448e+00 -1.859185e+00 -1.725600e+00 -1.333835e-03 1.509255e-04 -2.794831e-04 -2.612097e-04 -3.815204e-05 -2.384926e-04 -1.365802e-04 -1.586600e-04 -1.653282e-04 -1.334927e-04
<VARIANCE> 15
 1.471703e+01 4.719279e+00 4.875980e+00 3.793954e+00 3.158903e+00 1.289588e+00 7.111096e-01 7.771751e-01 6.249610e-01 5.326489e-01 7.818048e+00 5.545946e+00 6.135075e+00 5.068756e+00 4.489454e+00
<GCONST> 4.314647e+01
<STATE> 3
<SWEIGHTS> 5
 1.000000e+00 0.000000e+00 0.000000e+00 0.000000e+00 0.000000e+00
<STREAM> 1
<MEAN> 180
 4.391588e+00 2.003471e+00 2.395714e-01 7.313749e-01 3.669720e-03 4.260669e-01 -1.597717e-01 2.863721e-01 -1.626232e-01 9.186052e-02 -6.267275e-02 1.776166e-01 -1.233707e-01 1.280324e-01 -4.340441e-02 3.813063e-02 -1.360180e-01 6.061082e-02 -9.414624e-02 3.105989e-02 -1.279257e-02 8.974622e-03 -2.133664e-02 5.037628e-02 -3.850160e-02 4.955471e-02 -6.683052e-02 6.757110e-02 -4.966263e-02 5.138985e-02 -4.931165e-02 3.967642e-02 -4.444011e-02 2.945099e-02 -2.846739e-02 2.425118e-02 -3.789380e-02 3.698613e-02 -4.354482e-02 2.964939e-02 -3.144993e-02 2.636737e-02 -2.850595e-02 2.801887e-02 -2.653243e-02 1.934231e-02 -1.474358e-02 1.253427e-02 -1.068076e-02 7.647031e-03 -7.411440e-03 7.945815e-03 -8.287618e-03 8.560524e-03 -7.970253e-03 4.847996e-03 -3.460022e-03 5.319925e-03 -8.151193e-03 8.433737e-03 3.595835e-04 -1.128297e-03 -9.185925e-05 9.692984e-04 3.335339e-04 -2.460891e-04 -2.486595e-04 -7.713806e-05 -2.752038e-04 -6.558299e-05 -1.163502e-04 1.686061e-04 -2.582608e-04 3.482365e-05 4.157760e-05 -4.447361e-05 -5.885690e-05 -3.974741e-05 9.487730e-06 -1.094390e-04 -1.617937e-04 -1.892186e-05 4.368073e-05 1.502096e-05 -5.277553e-05 1.146011e-04 6.618896e-05 -2.897891e-05 5.443575e-05 -4.176063e-06 3.743756e-05 3.656245e-05 -4.352732e-05 8.216270e-05 -4.768786e-06 -1.408492e-05 2.483173e-05 -4.257244e-05 3.970560e-05 5.938538e-06 -2.905416e-05 3.573301e-05 -2.016330e-05 1.885173e-06 -1.250841e-05 4.134905e-05 -5.650437e-05 3.872647e-05 -5.905266e-06 -3.562575e-05 6.553248e-05 -5.732050e-05 1.334763e-05 2.566279e-05 -2.767867e-05 1.765788e-05 -1.159357e-05 3.255963e-06 3.667420e-06 -3.956602e-07 1.184728e-04 9.577854e-06 -3.375550e-06 4.291443e-05 2.168317e-06 1.942658e-05 -2.659937e-05 -1.466138e-05 -1.205410e-05 -1.216467e-05 -1.976813e-05 3.423637e-06 -9.022086e-06 7.821407e-06 2.601129e-06 -4.301891e-06 -3.853104e-06 -2.287434e-06 2.779968e-06 -3.394438e-06 6.076337e-06 -4.415316e-07 -5.866929e-06 2.406306e-06 1.935827e-06 -1.821524e-06 -9.894003e-07 6.448799e-07 3.100211e-06 3.170315e-06 -1.916878e-06 3.169900e-06 -1.245423e-06 1.006808e-06 2.588336e-06 -2.493449e-06 -1.717439e-07 4.604654e-07 9.132916e-07 -2.169204e-06 2.403331e-06 1.203081e-06 -1.114076e-06 3.450405e-07 -2.097794e-07 2.547209e-06 -4.678379e-06 1.212749e-06 3.843041e-06 -4.590408e-06 1.633556e-06 5.216285e-07 -9.804602e-07 7.850491e-07 1.370656e-07 -1.485889e-06 1.490798e-06 4.154053e-07 -1.938426e-06 1.901686e-06
