~o
<STREAMINFO> 5 180 1 1 1 15
<MSDINFO> 5 0 1 1 1 0
<VECSIZE> 198<NULLD><USER><DIAGC>
~h "C"
<BEGINHMM>
<NUMSTATES> 7
<STATE> 2
<SWEIGHTS> 5
 1.000000e+00 0.000000e+00 0.000000e+00 0.000000e+00 0.000000e+00
<STREAM> 1
<MEAN> 180
 2.547158e+00 1.085732e+00 -4.819943e-02 4.875955e-02 4.213267e-02 8.977398e-02 -9.685874e-03 -5.150251e-02 -1.052182e-01 -1.506386e-02 -6.960398e-02 5.811472e-02 -7.790050e-02 6.014346e-02 -4.999848e-02 4.000920e-02 -5.050907e-02 -2.203461e-03 3.713220e-03 -1.365986e-02 -1.477377e-02 6.978278e-02 -5.283332e-03 -3.789398e-02 -2.556730e-02 5.780082e-02 -2.953394e-02 4.973930e-02 -2.064611e-02 -1.248538e-03 -1.080076e-02 5.043133e-02 -3.476685e-02 2.011672e-02 -1.545060e-02 3.223618e-02 -2.485412e-02 1.988309e-03 -2.628430e-02 5.012439e-02 -5.873372e-02 4.304442e-02 -2.597532e-02 2.756663e-02 -3.306046e-02 2.712195e-02 -1.857053e-02 2.062154e-02 -4.181951e-02 4.961567e-02 -2.306288e-02 9.856429e-04 -1.614103e-02 3.289991e-02 -2.158142e-02 1.593248e-02 -2.581843e-02 3.119310e-02 -2.318460e-02 1.027126e-02 -7.091558e-02 -5.038698e-02 -7.968965e-04 1.834263e-03 -8.403094e-03 -1.566380e-02 -8.766236e-03 -8.024514e-03 -2.243263e-03 -4.470464e-03 1.078228e-02 9.121808e-03 1.055358e-02 7.177318e-03 9.852531e-03 1.682611e-02 3.331247e-03 -7.864700e-03 -3.453836e-03 2.229747e-04 5.137931e-03 1.082074e-03 -1.144573e-03 5.273381e-03 1.603307e-03 -9.532349e-03 -6.439559e-03 1.875871e-03 7.421715e-03 2.203626e-03 -3.980181e-03 -4.045693e-04 6.919384e-03 -1.435842e-03 -7.889819e-03 3.953068e-03 1.896463e-03 -4.951842e-03 -6.111554e-03 1.633148e-03 3.493364e-03 -1.050273e-03 -1.703785e-03 -1.553776e-03 -9.005805e-04 2.779143e-04 2.146625e-03 9.932857e-05 8.473702e-04 -5.175526e-03 2.979179e-03 2.488186e-03 -1.927997e-03 -3.431909e-03 6.824998e-03 -2.116419e-03 -3.282153e-03 3.532788e-03 -1.597842e-03 4.815847e-04 -8.085020e-03 -9.114108e-03 2.803861e-03 1.743991e-02 2.686479e-03 -1.822399e-03 4.115196e-03 -3.444157e-04 -9.844333e-03 2.754919e-03 4.187330e-03 1.769730e-03 -1.621467e-03 -9.244430e-03 1.731812e-03 1.738238e-03 -1.880754e-03 1.092241e-02 3.471880e-03 2.514582e-03 3.797545e-03 -5.842264e-03 -5.715894e-03 -1.167766e-03 -4.477368e-04 7.496997e-04 -4.364351e-04 -2.240912e-03 4.472826e-03 4.787924e-03 -1.020670e-03 1.759502e-03 -2.297372e-04 2.313032e-03 -2.010069e-03 -1.775865e-03 9.591342e-04 1.379428e-03 -1.656349e-03 2.285591e-03 1.760955e-03 -4.918274e-03 -4.176194e-03 5.877742e-04 8.389193e-04 1.720629e-03 3.896097e-04 -3.240860e-03 1.077228e-03 -5.223637e-04 6.259225e-04 8.506280e-04 3.425533e-04 -3.618983e-04 -2.774145e-03 2.323316e-03 1.208867e-03 -1.849662e-03 -5.276424e-04 2.428231e-03
<VARIANCE> 180
 3.529030e+00 1.069700e+00 2.307421e-01 1.106225e-01 7.812516e-02 5.838275e-02 3.157149e-02 3.396046e-02 3.418363e-02 2.765120e-02 1.573747e-02 1.186777e-02 2.069229e-02 1.638940e-02 1.121960e-02 2.820514e-02 2.041177e-02 9.796059e-03 1.232732e-02 9.730820e-03 1.665746e-02 9.157498e-03 1.097637e-02 9.131409e-03 9.461711e-03 6.849472e-03 6.748652e-03 5.887412e-03 6.448688e-03 4.048800e-03 4.652007e-03 6.088170e-03 5.990882e-03 5.932831e-03 6.393805e-03 3.594044e-03 4.580245e-03 4.704795e-03 3.050120e-03 3.161606e-03 4.622460e-03 2.835452e-03 3.814447e-03 2.941378e-03 3.362536e-03 2.129845e-03 2.524468e-03 2.244955e-03 3.023304e-03 3.037219e-03 2.435874e-03 3.928616e-03 2.014965e-03 1.572611e-03 1.748184e-03 1.617340e-03 1.463709e-03 1.165287e-03 9.958629e-04 1.455543e-03 1.933357e-02 6.974166e-03 6.102068e-03 5.005103e-03 3.776059e-03 4.043119e-03 3.619000e-03 5.082470e-03 4.177026e-03 3.273421e-03 3.132036e-03 3.050692e-03 2.543729e-03 3.777180e-03 3.728427e-03 2.538112e-03 3.451120e-03 3.649556e-03 2.655827e-03 1.885745e-03 2.753145e-03 2.999617e-03 1.981107e-03 2.163624e-03 1.809272e-03 1.642462e-03 1.892703e-03 1.778816e-03 2.292710e-03 1.582955e-03 1.715949e-03 1.230789e-03 2.099717e-03 1.480127e-03 2.219722e-03 1.458102e-03 1.740603e-03 1.273257e-03 7.859577e-04 1.128546e-03 1.379195e-03 9.996610e-04 1.287618e-03 7.591888e-04 8.074561e-04 5.037481e-04 7.276143e-04 6.597777e-04 8.090977e-04 7.454706e-04 5.971522e-04 4.746198e-04 5.178640e-04 4.284972e-04 3.021274e-04 3.691737e-04 3.294548e-04 3.479962e-04 3.157347e-04 4.465712e-04 1.133341e-02 1.332552e-02 9.680724e-03 8.393971e-03 7.900553e-03 6.846754e-03 7.199776e-03 9.135454e-03 1.037560e-02 5.725765e-03 6.425697e-03 8.447980e-03 7.428647e-03 6.812613e-03 9.589283e-03 7.516572e-03 1.013901e-02 1.127388e-02 7.668515e-03 5.394441e-03 7.463071e-03 7.781581e-03 6.257163e-03 5.635439e-03 5.647423e-03 6.247095e-03 5.469266e-03 6.151534e-03 5.600958e-03 5.001746e-03 5.279577e-03 4.202222e-03 6.388892e-03 4.693851e-03 6.788140e-03 4.446669e-03 3.707070e-03 4.320499e-03 2.225953e-03 3.880331e-03 2.287216e-03 2.823459e-03 3.480356e-03 2.203623e-03 2.745529e-03 1.946722e-03 1.766088e-03 1.942367e-03 2.256201e-03 1.894917e-03 1.570087e-03 1.770661e-03 1.579788e-03 1.278113e-03 1.578040e-03 1.457020e-03 1.329677e-03 1.222459e-03 1.007685e-03 1.234187e-03
<GCONST> -6.715427e+02
<STREAM> 2
<NUMMIXES> 2
<MIXTURE> 1 2.081563e-01
<MEAN> 1
 4.945062e+00
<VARIANCE> 1
 8.739670e-02
<GCONST> -5.994208e-01
<MIXTURE> 2 7.918439e-01
<MEAN> 0
<VARIANCE> 0
<GCONST> 0.000000e+00
<STREAM> 3
<NUMMIXES> 2
<MIXTURE> 1 1.823717e-01
<MEAN> 1
 -2.531478e-02
<VARIANCE> 1
 1.321915e-03
<GCONST> -4.790796e+00
<MIXTURE> 2 8.176286e-01
<MEAN> 0
<VARIANCE> 0
<GCONST> 0.000000e+00
<STREAM> 4
<NUMMIXES> 2
<MIXTURE> 1 1.823717e-01
<MEAN> 1
 2.741460e-02
<VARIANCE> 1
 3.897351e-03
<GCONST> -3.709581e+00
<MIXTURE> 2 8.176286e-01
<MEAN> 0
<VARIANCE> 0
<GCONST> 0.000000e+00
<STREAM> 5
<MEAN> 15
 -1.068741e+00 -7.148355e-01 -7.182356e-01 -6.024366e-01 -6.261976e-01 -3.595753e-02 6.028796e-04 6.855409e-02 1.605765e-02 4.004962e-02 -2.374273e-03 2.439633e-02 7.156793e-03 -2.580201e-02 8.148880e-02
<VARIANCE> 15
 6.121650e+00 2.217045e+00 2.237816e+00 1.551764e+00 1.591515e+00 2.325893e-01 1.971057e-01 1.517418e-01 2.842677e-01 1.339110e-01 5.364807e-01 1.439424e+00 1.929799e+00 1.202075e+00 1.015453e+00
<GCONST> 2.424757e+01
<STATE> 3
<SWEIGHTS> 5
 1.000000e+00 0.000000e+00 0.000000e+00 0.000000e+00 0.000000e+00
<STREAM> 1
<MEAN> 180
 2.183293e+00 8.048315e-01 -2.154084e-02 1.455652e-01 5.070220e-02 3.204881e-02 -2.417356e-02 -3.041626e-02 -7.858504e-02 2.568404e-02 -2.369247e-02 8.311009e-02 -4.402849e-02 8.463855e-02 -1.648937e-02 9.357661e-02 -1.129387e-02 -3.745370e-04 9.402409e-03 6.638965e-03 -1.608461e-02 3.322717e-02 -1.785767e-02 -5.502039e-03 -8.698455e-03 3.152671e-02 -4.062832e-02 4.667027e-02 -8.139257e-03 1.955061e-02 -3.120806e-02 4.169325e-02 -1.298951e-02 1.097850e-02 -3.902951e-02 2.770314e-02 -2.217450e-02 -6.656945e-04 -4.198485e-02 4.386566e-02 -3.753254e-02 3.094305e-02 -3.823315e-02 2.846397e-02 -2.179723e-02 2.342679e-02 -2.756281e-02 2.368933e-02 -2.681399e-02 2.538576e-02 -1.930282e-02 2.126031e-02 -2.657815e-02 1.912114e-02 -7.843583e-03 1.784826e-02 -3.007054e-02 3.099134e-02 -2.621117e-02 1.747114e-02 -4.637861e-02 -2.426300e-02 6.551937e-03 3.543596e-03 -7.166440e-03 -1.115489e-02 1.232363e-03 3.627525e-04 -1.367916e-03 6.589612e-03 9.256241e-03 3.179201e-03 3.732423e-03 2.455094e-03 1.011870e-02 6.103470e-03 3.417343e-04 2.892344e-03 5.712129e-04 -3.054348e-03 2.194331e-03 -2.390258e-03 -4.588500e-03 -9.484313e-04 -4.383958e-04 -4.043389e-03 -3.752980e-03 -4.777326e-04 8.940230e-03 5.560759e-03 -4.153744e-03 -1.376415e-03 3.262717e-03 2.123575e-03 -5.490905e-03 2.573750e-03 2.755236e-03 3.972327e-05 -5.842341e-03 2.376148e-03 1.769410e-03 -3.772833e-03 -2.938282e-03 -1.487486e-03 2.263088e-03 7.222058e-04 5.269207e-04 -6.710113e-04 1.981167e-04 -3.261639e-03 1.974925e-03 1.656735e-03 3.054676e-05 -3.010191e-03 1.773646e-03 2.202980e-03 -3.142115e-03 8.772406e-04 -7.860690e-05 1.104339e-03 9.340429e-03 1.901356e-02 1.133446e-02 -1.377912e-03 6.291053e-03 -2.861511e-03 5.360552e-03 9.279572e-03 -3.071317e-03 9.030807e-04 -5.166563e-03 1.091758e-03 7.773511e-04 -6.985700e-04 -4.974884e-03 -5.995821e-03 7.919653e-03 -5.953867e-04 1.534022e-03 -3.321520e-04 -6.650017e-03 -4.138765e-04 2.514382e-03 -2.768564e-03 1.143784e-03 3.488729e-03 6.253563e-04 -4.271100e-03 -2.182795e-03 -9.281227e-04 1.621968e-03 3.405127e-04 -8.188736e-03 -8.682415e-04 3.307167e-03 2.986487e-03 -1.712178e-03 1.901037e-04 3.344529e-03 2.961628e-03 -3.864016e-03 1.598492e-05 2.138679e-03 -2.835195e-04 3.053578e-03 -1.369792e-03 -1.059350e-03 1.548480e-03 -3.332044e-03 3.597270e-03 -1.230166e-03 -3.195547e-03 3.465724e-03 -3.530251e-04 -2.124313e-03 1.562440e-03 -4.229569e-04 -7.312373e-04 2.332773e-03 -2.408504e-03
<VARIANCE> 180
 3.945008e+00 1.039642e+00 2.460304e-01 6.739611e-02 7.097241e-02 4.659382e-02 2.738266e-02 3.283736e-02 3.795931e-02 2.348783e-02 1.549558e-02 9.969318e-03 2.093255e-02 1.190206e-02 1.243391e-02 1.811421e-02 1.366790e-02 8.255435e-03 1.307565e-02 1.051475e-02 1.449363e-02 1.011322e-02 1.301480e-02 7.865593e-03 6.161179e-03 5.628513e-03 6.054373e-03 7.153705e-03 5.737219e-03 4.457961e-03 5.618037e-03 6.414654e-03 4.472429e-03 5.585005e-03 5.170455e-03 4.154948e-03 5.381992e-03 4.796047e-03 2.666261e-03 2.702134e-03 3.187843e-03 2.548474e-03 3.164225e-03 2.913118e-03 3.562777e-03 1.772137e-03 3.062557e-03 1.798779e-03 2.956264e-03 2.594823e-03 2.344474e-03 3.168985e-03 1.737999e-03 1.450869e-03 1.521777e-03 1.517015e-03 1.444646e-03 1.364500e-03 1.261533e-03 1.353615e-03 1.080290e-02 5.885147e-03 5.176825e-03 4.228300e-03 3.527320e-03 3.131772e-03 3.203246e-03 3.219354e-03 3.524295e-03 2.682487e-03 2.962434e-03 4.193046e-03 3.144530e-03 3.145107e-03 3.472240e-03 2.379616e-03 3.426976e-03 2.774245e-03 3.002842e-03 2.640159e-03 3.023347e-03 1.973647e-03 2.269946e-03 2.472889e-03 2.135384e-03 2.059511e-03 2.037492e-03 2.351598e-03 2.083518e-03 1.664885e-03 1.427360e-03 1.250533e-03 1.411646e-03 1.466517e-03 1.516594e-03 1.455099e-03 1.522663e-03 1.443258e-03 9.151195e-04 1.216783e-03 8.213737e-04 1.097897e-03 7.956799e-04 6.898830e-04 7.855798e-04 6.010685e-04 7.090166e-04 6.162826e-04 9.474335e-04 8.124633e-04 6.486550e-04 5.552227e-04 5.797236e-04 4.555224e-04 3.454892e-04 5.542725e-04 4.827202e-04 4.445878e-04 4.406907e-04 3.856210e-04 1.101715e-02 1.192998e-02 9.202315e-03 7.958944e-03 9.129507e-03 7.051335e-03 8.339460e-03 9.999549e-03 1.104939e-02 6.893953e-03 8.449583e-03 1.099099e-02 9.623628e-03 8.673488e-03 8.242217e-03 7.087534e-03 1.055521e-02 7.647158e-03 6.912657e-03 6.413452e-03 6.766120e-03 7.319562e-03 7.393411e-03 6.217164e-03 6.524537e-03 5.941237e-03 5.523738e-03 7.401790e-03 4.804667e-03 7.331206e-03 4.643067e-03 4.733883e-03 5.665615e-03 4.201286e-03 4.627366e-03 5.900810e-03 4.853969e-03 4.389768e-03 2.723709e-03 3.599015e-03 2.043854e-03 2.992515e-03 2.797988e-03 2.013101e-03 2.635566e-03 2.062601e-03 2.425384e-03 2.062317e-03 2.261362e-03 2.080765e-03 1.675179e-03 1.894171e-03 1.561409e-03 1.185708e-03 1.518780e-03 1.373215e-03 1.405654e-03 1.410218e-03 1.304589e-03 1.043134e-03
<GCONST> -6.750018e+02
<STREAM> 2
<NUMMIXES> 2
<MIXTURE> 1 1.887112e-01
<MEAN> 1
 4.912009e+00
<VARIANCE> 1
 9.916780e-02
<GCONST> -4.730649e-01
<MIXTURE> 2 8.112885e-01
<MEAN> 0
<VARIANCE> 0
<GCONST> 0.000000e+00
<STREAM> 3
<NUMMIXES> 2
<MIXTURE> 1 1.856789e-01
<MEAN> 1
 -8.936102e-03
<VARIANCE> 1
 5.891763e-04
<GCONST> -5.598908e+00
<MIXTURE> 2 8.143208e-01
<MEAN> 0
<VARIANCE> 0
<GCONST> 0.000000e+00
<STREAM> 4
<NUMMIXES> 2
<MIXTURE> 1 1.856789e-01
<MEAN> 1
 -1.710150e-03
<VARIANCE> 1
 8.984174e-04
<GCONST> -5.176999e+00
<MIXTURE> 2 8.143208e-01
<MEAN> 0
<VARIANCE> 0
<GCONST> 0.000000e+00
<STREAM> 5
<MEAN> 15
 -1.075065e+00 -6.682199e-01 -6.183012e-01 -5.702534e-01 -5.222729e-01 -3.192154e-02 -1.564107e-02 1.176514e-02 5.345982e-03 -2.514216e-02 6.756496e-02 3.757180e-02 -6.526691e-02 6.537107e-02 -1.295319e-01
<VARIANCE> 15
 6.428581e+00 2.063729e+00 1.888300e+00 1.532517e+00 1.260435e+00 1.415319e-01 7.484064e-02 8.735341e-02 7.407174e-02 7.494449e-02 7.570125e-01 4.056441e-01 1.212609e+00 8.248749e-01 1.010034e+00
<GCONST> 1.809790e+01
<STATE> 4
<SWEIGHTS> 5
 1.000000e+00 0.000000e+00 0.000000e+00 0.000000e+00 0.000000e+00
<STREAM> 1
<MEAN> 180
 1.770671e+00 6.300853e-01 4.219059e-02 1.611759e-01 6.595345e-02 4.721951e-02 1.247589e-03 5.796090e-03 -3.222447e-02 5.990698e-02 -1.511714e-02 6.445600e-02 -3.937224e-02 8.847074e-02 -1.684919e-03 8.767942e-02 -1.151831e-02 1.230929e-02 2.341334e-02 1.253998e-02 -1.364049e-02 1.163679e-02 -3.060946e-02 -7.265268e-03 -5.524400e-03 2.284682e-02 -4.529237e-02 4.328182e-02 -6.044848e-03 2.493976e-02 -3.984754e-02 2.742518e-02 -1.096837e-02 1.648243e-02 -3.356792e-02 2.665140e-02 -1.834938e-02 7.600669e-03 -4.497952e-02 3.780394e-02 -3.868224e-02 2.500563e-02 -3.086560e-02 2.613157e-02 -1.735814e-02 1.909376e-02 -3.040334e-02 3.117462e-02 -2.592043e-02 1.444948e-02 -1.490616e-02 2.329527e-02 -2.364076e-02 1.502385e-02 -1.201292e-02 2.288634e-02 -2.775163e-02 2.420054e-02 -2.275137e-02 2.081843e-02 -2.133753e-02 1.772582e-03 1.190091e-02 -1.491653e-04 2.141262e-03 -2.881741e-03 6.332594e-03 5.542210e-03 -1.210127e-03 2.919768e-03 2.097211e-03 -9.509567e-04 2.330350e-03 1.011709e-03 1.173001e-03 -2.892092e-04 -1.357335e-03 -3.996734e-03 3.117359e-04 -3.431011e-03 -8.844910e-04 9.992258e-04 -2.429351e-03 -1.033172e-03 3.261686e-03 -1.270595e-03 -1.585904e-03 -3.055564e-03 1.721179e-03 2.570618e-03 -1.975951e-03 -1.333887e-04 -9.342210e-04 -2.845345e-04 5.250318e-05 2.235134e-03 -3.361831e-05 1.389280e-03 -3.487778e-04 1.205456e-03 -8.279857e-04 -1.933387e-03 1.876410e-04 1.429154e-03 3.969137e-04 -8.939382e-04 1.454374e-03 6.454262e-04 -1.759008e-03 -7.747886e-04 6.217994e-04 1.211413e-04 4.082539e-04 -2.015748e-03 1.652353e-03 2.688604e-04 -1.384725e-03 6.168279e-04 8.846027e-04 -7.358317e-04 5.173150e-03 5.038753e-03 4.145375e-03 2.249763e-03 8.219270e-03 5.609466e-03 4.442238e-03 2.664828e-03 1.565931e-03 -3.700680e-03 -3.266928e-03 -3.148139e-03 8.755209e-04 3.859954e-03 -3.291059e-03 1.203100e-03 -2.706959e-03 -9.064949e-03 -1.863960e-03 1.517518e-03 -4.349492e-04 9.366175e-04 5.021151e-04 5.715404e-03 7.051411e-03 -1.082177e-03 -4.455947e-05 -2.976984e-03 -6.238350e-03 -1.053091e-03 -1.265280e-03 1.151344e-03 1.690965e-03 -4.187461e-03 2.892251e-03 -2.682067e-03 -2.480133e-03 9.434930e-04 3.962565e-03 -3.037832e-03 7.156635e-04 1.572285e-03 9.985670e-04 4.256993e-03 -3.464797e-03 -1.516945e-04 5.253798e-04 9.113234e-04 8.246182e-04 -1.443358e-03 -9.039616e-04 2.400213e-03 -2.978957e-03 -2.704557e-04 3.294276e-03 -3.165327e-03 9.764603e-04 1.053626e-03 -5.204978e-04 -8.489550e-04
<VARIANCE> 180
 3.478224e+00 8.630317e-01 2.097425e-01 4.551596e-02 5.071549e-02 3.638776e-02 2.442007e-02 2.890609e-02 3.540894e-02 1.978678e-02 1.609701e-02 1.001837e-02 1.887496e-02 1.074118e-02 1.171673e-02 1.717327e-02 1.145252e-02 9.287396e-03 1.065086e-02 9.458774e-03 1.202840e-02 8.397516e-03 8.067909e-03 7.570935e-03 4.341421e-03 6.520490e-03 5.495064e-03 6.500611e-03 5.721969e-03 4.553196e-03 5.734574e-03 4.714255e-03 3.588447e-03 5.078247e-03 3.538648e-03 4.305622e-03 4.043299e-03 3.872297e-03 2.573459e-03 2.532665e-03 3.064553e-03 2.620915e-03 2.273917e-03 2.753316e-03 2.962329e-03 2.048489e-03 2.954954e-03 1.574564e-03 2.499734e-03 2.119562e-03 1.979018e-03 2.571568e-03 1.659596e-03 1.579545e-03 1.466690e-03 1.430942e-03 1.466943e-03 1.515315e-03 1.521066e-03 1.226606e-03 6.235390e-03 5.265402e-03 3.823199e-03 3.706481e-03 3.040560e-03 2.612135e-03 3.153343e-03 3.164562e-03 3.085230e-03 2.998763e-03 3.038381e-03 3.528594e-03 3.365597e-03 2.878391e-03 2.806672e-03 2.075082e-03 2.666113e-03 2.709879e-03 2.622780e-03 2.923985e-03 2.934707e-03 2.575888e-03 2.437194e-03 2.477825e-03 2.202310e-03 2.343998e-03 1.914149e-03 2.334873e-03 1.703749e-03 1.733981e-03 1.459760e-03 1.288014e-03 1.204040e-03 1.318589e-03 1.078622e-03 1.567101e-03 1.236004e-03 1.387838e-03 8.686058e-04 1.045341e-03 7.921236e-04 9.711853e-04 6.615083e-04 7.571933e-04 7.441679e-04 7.329883e-04 8.172055e-04 5.167572e-04 8.398137e-04 7.932868e-04 6.503832e-04 6.357639e-04 5.751746e-04 4.467300e-04 3.679520e-04 5.674693e-04 5.419314e-04 4.674683e-04 5.294257e-04 3.604433e-04 7.144167e-03 9.710315e-03 7.180714e-03 8.368472e-03 8.547940e-03 6.377774e-03 1.039733e-02 9.693570e-03 9.904208e-03 8.810184e-03 1.047718e-02 1.008043e-02 8.880494e-03 8.541600e-03 8.039722e-03 8.978055e-03 9.471276e-03 8.285916e-03 8.995454e-03 9.033138e-03 8.187981e-03 7.128409e-03 6.833664e-03 6.385403e-03 6.363360e-03 5.835589e-03 5.325533e-03 6.386233e-03 4.985366e-03 7.455122e-03 4.650529e-03 5.080204e-03 4.736461e-03 4.785270e-03 3.998541e-03 5.661596e-03 4.330916e-03 3.656199e-03 3.540660e-03 3.356428e-03 2.663083e-03 3.209275e-03 2.576395e-03 2.357041e-03 2.660275e-03 2.554593e-03 2.479918e-03 2.222752e-03 2.099238e-03 2.359509e-03 1.680854e-03 1.832852e-03 1.697143e-03 1.339593e-03 1.188196e-03 1.427003e-03 1.556152e-03 1.564527e-03 1.464772e-03 1.088968e-03
<GCONST> -6.834672e+02
<STREAM> 2
<NUMMIXES> 2
<MIXTURE> 1 1.517644e-01
<MEAN> 1
 4.891101e+00
<VARIANCE> 1
 1.063717e-01
<GCONST> -4.029384e-01
<MIXTURE> 2 8.482350e-01
<MEAN> 0
<VARIANCE> 0
<GCONST> 0.000000e+00
<STREAM> 3
<NUMMIXES> 2
<MIXTURE> 1 1.512141e-01
<MEAN> 1
 -1.058153e-02
<VARIANCE> 1
 6.624747e-04
<GCONST> -5.481651e+00
<MIXTURE> 2 8.487853e-01
<MEAN> 0
<VARIANCE> 0
<GCONST> 0.000000e+00
<STREAM> 4
<NUMMIXES> 2
<MIXTURE> 1 1.512141e-01
<MEAN> 1
 -2.137101e-03
<VARIANCE> 1
 9.600460e-04
<GCONST> -5.110652e+00
<MIXTURE> 2 8.487853e-01
<MEAN> 0
<VARIANCE> 0
<GCONST> 0.000000e+00
<STREAM> 5
<MEAN> 15
 -8.528036e-01 -5.329753e-01 -5.088627e-01 -4.256154e-01 -4.851598e-01 2.941725e-02 1.215190e-02 -5.718183e-02 1.986464e-02 -1.092260e-02 3.916719e-02 2.384242e-02 -7.621618e-02 -1.232963e-02 1.136988e-01
<VARIANCE> 15
 5.594684e+00 1.707044e+00 1.815147e+00 1.079944e+00 1.564557e+00 1.497512e-01 4.607030e-02 1.568831e-01 6.605291e-02 3.311272e-02 7.679489e-01 3.191967e-01 6.927950e-01 4.645552e-01 1.349138e+00
<GCONST> 1.575144e+01
<STATE> 5
<SWEIGHTS> 5
 1.000000e+00 0.000000e+00 0.000000e+00 0.000000e+00 0.000000e+00
<STREAM> 1
<MEAN> 180
 1.263976e+00 4.736660e-01 8.309117e-02 1.588569e-01 7.925765e-02 6.211435e-02 1.660168e-02 2.659190e-02 -7.454444e-03 5.443813e-02 -1.609983e-02 5.037007e-02 -2.630073e-02 7.194590e-02 -1.596275e-02 6.553447e-02 -2.018823e-02 5.132206e-03 1.390110e-02 1.324404e-02 -2.701104e-03 6.688295e-03 -2.190947e-02 -3.141115e-03 -2.163555e-03 1.409637e-02 -3.830486e-02 3.480721e-02 -9.290247e-03 2.719523e-02 -3.585514e-02 1.832041e-02 -1.413575e-02 1.540471e-02 -1.750293e-02 1.779571e-02 -2.119400e-02 1.319180e-02 -3.310656e-02 2.222593e-02 -3.542870e-02 2.547550e-02 -2.161124e-02 3.024591e-02 -2.410704e-02 1.445877e-02 -2.335596e-02 2.912031e-02 -2.362948e-02 1.096839e-02 -1.067225e-02 1.834106e-02 -2.175160e-02 1.811265e-02 -1.403274e-02 1.456485e-02 -1.648813e-02 1.965378e-02 -2.146348e-02 1.941782e-02 -1.300210e-02 2.294933e-03 4.821337e-03 -4.148606e-04 5.104810e-03 -5.272003e-04 4.882643e-03 5.667922e-03 -9.953306e-04 -1.247521e-03 9.950446e-04 -4.480875e-04 1.313513e-03 1.070751e-03 -4.398806e-04 1.453885e-03 -1.703149e-03 -4.360192e-03 -1.701795e-04 -9.880605e-04 2.400670e-04 1.395210e-03 -1.454859e-03 3.070127e-03 4.572967e-03 -1.572510e-03 7.104391e-04 -2.850512e-03 -2.327690e-03 1.365645e-03 -1.420306e-03 -8.028140e-04 6.134196e-04 -1.929763e-03 1.638647e-03 -7.229066e-04 -1.708066e-03 8.499901e-04 1.523225e-03 -1.622105e-03 6.192985e-04 1.109939e-03 1.617650e-04 1.234440e-03 -1.151163e-03 1.507405e-04 8.032581e-04 -4.677388e-04 2.114495e-04 -6.007281e-04 1.584345e-04 -9.033494e-06 -4.391226e-04 -1.228871e-04 1.339651e-03 -1.885170e-03 1.024111e-03 7.082696e-04 -8.079814e-04 -1.617758e-04 -1.100309e-03 -1.161598e-03 -2.926304e-03 -1.742611e-03 2.731480e-03 2.527899e-06 -8.060798e-04 1.888361e-03 -5.673639e-04 -2.157041e-03 1.097071e-03 9.875619e-04 -2.728341e-03 -1.160240e-03 1.772676e-03 3.015428e-03 -3.187075e-06 3.376670e-03 2.200381e-03 8.676557e-04 4.682426e-04 2.496328e-04 -1.960304e-03 1.210844e-03 -6.775732e-04 -3.735715e-04 3.289158e-03 7.518094e-04 -2.736179e-03 -1.041308e-03 1.487970e-05 -6.269591e-04 2.175067e-03 -5.614229e-04 6.226403e-04 -2.229278e-03 -1.248223e-04 5.352165e-05 -1.875157e-04 -2.103087e-03 6.676070e-04 2.356614e-03 -3.648556e-04 -1.170963e-03 1.306870e-04 8.976313e-04 -6.033156e-04 -1.240047e-03 1.711691e-03 5.526443e-05 5.496862e-04 -1.022982e-03 -9.469165e-05 1.403429e-03 -1.312134e-03 -9.132329e-04 2.613692e-03 -7.353993e-04 -2.292830e-03 1.888929e-03
<VARIANCE> 180
 2.380098e+00 5.544707e-01 1.242569e-01 2.758957e-02 2.997192e-02 2.332410e-02 1.759609e-02 1.996123e-02 2.682390e-02 1.710375e-02 1.224495e-02 9.962957e-03 1.633729e-02 9.342896e-03 9.505979e-03 1.176198e-02 9.155080e-03 9.500356e-03 7.738642e-03 7.564951e-03 8.743967e-03 7.563852e-03 5.507710e-03 6.761502e-03 4.843071e-03 7.938735e-03 5.542429e-03 6.036059e-03 4.905481e-03 5.147019e-03 5.403131e-03 4.541599e-03 3.979992e-03 4.523344e-03 3.390140e-03 4.293262e-03 3.354203e-03 3.117350e-03 2.672887e-03 2.635574e-03 3.078951e-03 2.314069e-03 1.872020e-03 2.242426e-03 2.429282e-03 1.804461e-03 2.267717e-03 1.555776e-03 1.941297e-03 1.744046e-03 1.951860e-03 2.298722e-03 1.481326e-03 1.515356e-03 1.462407e-03 1.421683e-03 1.485640e-03 1.700715e-03 1.708174e-03 1.069927e-03 4.187053e-03 4.563407e-03 2.917061e-03 3.322484e-03 3.135302e-03 2.668845e-03 3.503693e-03 3.357944e-03 2.742422e-03 3.105199e-03 3.098493e-03 3.271001e-03 3.405938e-03 2.942819e-03 2.606443e-03 2.313647e-03 2.161564e-03 2.621988e-03 2.860114e-03 2.827889e-03 2.761536e-03 2.562228e-03 2.081686e-03 2.197651e-03 1.975668e-03 2.434406e-03 1.821232e-03 2.267789e-03 1.846001e-03 1.859091e-03 1.729794e-03 1.586566e-03 1.228607e-03 1.470873e-03 1.186834e-03 1.501943e-03 1.126640e-03 1.195135e-03 8.676224e-04 9.488931e-04 9.799321e-04 8.799435e-04 6.982993e-04 7.905560e-04 7.680341e-04 6.828256e-04 8.508093e-04 4.630215e-04 6.869110e-04 6.905164e-04 6.402147e-04 7.183270e-04 6.384005e-04 5.225004e-04 4.348519e-04 5.287757e-04 4.636699e-04 4.794375e-04 5.277749e-04 3.851824e-04 7.802847e-03 1.100356e-02 7.075891e-03 1.049826e-02 8.319349e-03 7.214325e-03 1.092814e-02 9.873871e-03 7.713933e-03 8.742890e-03 8.165847e-03 8.843543e-03 7.981556e-03 8.744411e-03 8.008888e-03 8.417181e-03 8.274124e-03 7.923367e-03 9.043986e-03 9.868392e-03 8.986908e-03 7.924769e-03 6.363857e-03 6.241199e-03 6.363803e-03 6.139529e-03 5.290724e-03 6.232095e-03 4.872319e-03 6.268178e-03 4.802486e-03 4.924485e-03 4.474285e-03 5.452608e-03 4.722513e-03 5.104283e-03 4.129084e-03 3.539477e-03 3.235659e-03 2.710155e-03 2.995628e-03 2.502372e-03 2.174865e-03 2.306827e-03 2.262203e-03 2.407631e-03 2.396248e-03 2.120174e-03 2.132863e-03 2.111119e-03 2.005806e-03 1.889479e-03 1.611853e-03 1.678725e-03 1.214373e-03 1.538890e-03 1.842627e-03 1.482263e-03 1.709009e-03 1.424965e-03
<GCONST> -6.934777e+02
<STREAM> 2
<NUMMIXES> 2
<MIXTURE> 1 9.278456e-02
<MEAN> 1
 4.870162e+00
<VARIANCE> 1
 1.116841e-01
<GCONST> -3.542037e-01
<MIXTURE> 2 9.072154e-01
<MEAN> 0
<VARIANCE> 0
<GCONST> 0.000000e+00
<STREAM> 3
<NUMMIXES> 2
<MIXTURE> 1 9.170173e-02
<MEAN> 1
 -3.491521e-03
<VARIANCE> 1
 3.838260e-04
<GCONST> -6.027444e+00
<MIXTURE> 2 9.082982e-01
<MEAN> 0
<VARIANCE> 0
<GCONST> 0.000000e+00
<STREAM> 4
<NUMMIXES> 2
<MIXTURE> 1 9.170173e-02
<MEAN> 1
 1.180180e-02
<VARIANCE> 1
 1.615256e-03
<GCONST> -4.590385e+00
<MIXTURE> 2 9.082982e-01
<MEAN> 0
<VARIANCE> 0
<GCONST> 0.000000e+00
<STREAM> 5
<MEAN> 15
 -4.756618e-01 -3.095098e-01 -3.629547e-01 -2.526774e-01 -2.635879e-01 2.237776e-02 1.380117e-02 -1.393748e-02 -1.235385e-03 -3.183393e-03 -2.273591e-02 -2.193853e-03 8.579075e-02 -1.726528e-02 -5.845725e-02
<VARIANCE> 15
 3.253589e+00 1.066352e+00 1.837826e+00 6.674384e-01 7.548461e-01 8.293735e-02 2.668918e-02 4.462098e-02 3.245163e-02 5.618020e-02 4.150158e-01 2.876191e-01 8.479053e-01 2.789700e-01 4.991539e-01
<GCONST> 8.943244e+00
<STATE> 6
<SWEIGHTS> 5
 1.000000e+00 0.000000e+00 0.000000e+00 0.000000e+00 0.000000e+00
<STREAM> 1
<MEAN> 180
 3.221660e-01 2.498281e-01 8.415590e-02 1.317014e-01 7.460014e-02 8.111485e-02 5.700817e-02 6.372456e-02 3.388972e-02 3.979789e-02 -9.946771e-03 3.752152e-02 -3.761768e-03 5.420934e-02 -1.698614e-02 2.296407e-02 -1.326296e-02 7.031191e-03 -7.074405e-03 1.304396e-02 1.548858e-02 -1.387130e-04 -1.227527e-02 -1.379208e-02 -1.024008e-02 8.140031e-03 -1.550502e-02 1.466703e-02 -3.645576e-03 2.136257e-02 -2.275885e-02 9.297064e-03 -1.031096e-02 5.376629e-03 -9.164294e-03 9.549728e-03 -1.008044e-02 3.769296e-03 -1.968464e-02 1.628159e-02 -1.763857e-02 1.561738e-02 -1.909688e-02 1.851888e-02 -1.791498e-02 1.104094e-02 -1.452936e-02 1.685515e-02 -1.111831e-02 7.871786e-03 -1.064957e-02 1.150789e-02 -1.117635e-02 1.233163e-02 -1.285090e-02 8.934965e-03 -4.391706e-03 8.175174e-03 -1.508968e-02 1.361417e-02 -8.006713e-04 5.500927e-05 -1.090371e-04 -2.400422e-04 1.492892e-04 -8.619715e-05 2.419422e-04 3.369253e-04 -3.657650e-05 -2.920344e-05 9.069254e-05 1.027929e-04 1.105481e-05 2.476481e-05 -1.059139e-04 6.776927e-05 8.087108e-05 6.188190e-05 7.008252e-05 -1.356435e-04 -1.094014e-04 1.005891e-04 -1.465414e-04 1.575131e-05 -8.205971e-07 -1.071918e-04 2.217222e-04 -8.239115e-05 -1.794589e-04 -5.100325e-05 3.661861e-05 3.549218e-05 5.165205e-05 -6.130073e-05 8.720520e-05 -5.323377e-05 -3.520632e-05 -7.844776e-05 1.280965e-04 2.789840e-05 -1.107775e-04 8.950474e-05 5.749513e-05 -6.832781e-05 -1.570089e-05 2.875924e-05 5.994676e-05 -7.580851e-05 5.390701e-05 -2.220295e-05 7.596744e-05 -9.739867e-05 -2.457280e-05 8.261744e-05 -1.457596e-06 -8.921588e-05 7.007799e-05 2.068601e-05 -3.940826e-05 3.523806e-06 3.764697e-04 1.007883e-04 -2.462163e-04 -2.827773e-04 -3.627832e-04 -1.025487e-04 -1.952631e-04 -4.505018e-05 -5.794370e-05 2.900373e-05 -5.055681e-05 -2.333232e-05 -1.822742e-04 -2.304582e-04 -3.325999e-04 -1.876425e-04 1.412938e-04 1.892662e-04 9.173976e-05 -3.559772e-05 -1.430427e-04 -1.049518e-05 6.956681e-05 -1.879006e-04 -3.371639e-04 1.233057e-04 1.991038e-04 3.529068e-05 2.019877e-05 -1.014749e-04 1.105880e-04 6.570905e-05 -1.274261e-04 5.742449e-05 1.093586e-04 7.808472e-05 -9.056034e-05 -2.566030e-05 1.209172e-04 9.672833e-05 -6.336826e-05 -3.407413e-05 -7.036312e-05 -9.439736e-05 1.375111e-04 -1.581197e-05 -1.155131e-06 -3.440191e-05 -2.287234e-07 6.536426e-05 6.648984e-05 -1.200106e-04 2.309430e-05 6.611134e-05 -6.802726e-05 5.070407e-05 -5.507755e-05 -1.116818e-06 7.618138e-05 2.912068e-06
<VARIANCE> 180
 2.330747e-01 5.816609e-02 1.821223e-02 1.180764e-02 9.663337e-03 1.081814e-02 9.795553e-03 9.213705e-03 1.038744e-02 1.031695e-02 8.522667e-03 8.680291e-03 8.969760e-03 8.279787e-03 8.523555e-03 9.478132e-03 8.980120e-03 8.210571e-03 7.724938e-03 7.691259e-03 7.332178e-03 6.912102e-03 6.585067e-03 5.791623e-03 6.214947e-03 5.750943e-03 5.352948e-03 5.580767e-03 4.940643e-03 4.852786e-03 4.698136e-03 4.011346e-03 4.236702e-03 3.820724e-03 3.724560e-03 3.555520e-03 3.316703e-03 3.082962e-03 2.980896e-03 2.538920e-03 2.725373e-03 2.391344e-03 2.401702e-03 2.246353e-03 2.179797e-03 2.025595e-03 1.931352e-03 1.739361e-03 1.756310e-03 1.701599e-03 1.647785e-03 1.543730e-03 1.477702e-03 1.280601e-03 1.464313e-03 1.315493e-03 1.383833e-03 1.333973e-03 1.220991e-03 1.207924e-03 6.830574e-03 4.571026e-03 3.841121e-03 3.370062e-03 2.849513e-03 3.206585e-03 3.164245e-03 3.003133e-03 3.096724e-03 3.267387e-03 3.031251e-03 3.236254e-03 3.135967e-03 3.016973e-03 3.002154e-03 3.241069e-03 3.043838e-03 3.032742e-03 2.995689e-03 2.854021e-03 2.656735e-03 2.457758e-03 2.520094e-03 2.243356e-03 2.269041e-03 2.183439e-03 2.105523e-03 2.136641e-03 1.909589e-03 1.822480e-03 1.879637e-03 1.490698e-03 1.654119e-03 1.456406e-03 1.408316e-03 1.400184e-03 1.218541e-03 1.286731e-03 1.128424e-03 1.052268e-03 1.039339e-03 9.539945e-04 8.872874e-04 8.879459e-04 7.913075e-04 8.128335e-04 7.135372e-04 6.839699e-04 7.115224e-04 6.690510e-04 6.797889e-04 6.096148e-04 6.003739e-04 5.616916e-04 5.779503e-04 5.263349e-04 5.340584e-04 5.203526e-04 4.983004e-04 4.824034e-04 1.360541e-02 1.125480e-02 1.004441e-02 1.031120e-02 9.009030e-03 9.996151e-03 9.637005e-03 9.294185e-03 8.718867e-03 9.391073e-03 9.071745e-03 9.660794e-03 9.105095e-03 9.745280e-03 9.061543e-03 8.793217e-03 8.808686e-03 9.081397e-03 9.018810e-03 8.548705e-03 8.082042e-03 7.372886e-03 7.520881e-03 6.924501e-03 6.794876e-03 6.665225e-03 6.472570e-03 6.378630e-03 5.665300e-03 5.671218e-03 5.785993e-03 4.771024e-03 4.895185e-03 4.462803e-03 4.367892e-03 4.400949e-03 3.836730e-03 3.981359e-03 3.357236e-03 3.348141e-03 3.054391e-03 2.916093e-03 2.621603e-03 2.738180e-03 2.386634e-03 2.549607e-03 2.202727e-03 2.157597e-03 2.117058e-03 1.947727e-03 2.130547e-03 1.720088e-03 1.929283e-03 1.828198e-03 1.818524e-03 1.661126e-03 1.658134e-03 1.619134e-03 1.588626e-03 1.462265e-03
<GCONST> -7.012974e+02
<STREAM> 2
<NUMMIXES> 2
<MIXTURE> 1 1.674125e-02
<MEAN> 1
 4.697619e+00
<VARIANCE> 1
 6.809194e-02
<GCONST> -8.490193e-01
<MIXTURE> 2 9.832593e-01
<MEAN> 0
<VARIANCE> 0
<GCONST> 0.000000e+00
<STREAM> 3
<NUMMIXES> 2
<MIXTURE> 1 1.175682e-02
<MEAN> 1
 9.408954e-03
<VARIANCE> 1
 9.660259e-04
<GCONST> -5.104443e+00
<MIXTURE> 2 9.882436e-01
<MEAN> 0
<VARIANCE> 0
<GCONST> 0.000000e+00
<STREAM> 4
<NUMMIXES> 2
<MIXTURE> 1 1.175682e-02
<MEAN> 1
 8.289065e-05
<VARIANCE> 1
 6.645350e-03
<GCONST> -3.175961e+00
<MIXTURE> 2 9.882436e-01
<MEAN> 0
<VARIANCE> 0
<GCONST> 0.000000e+00
<STREAM> 5
<MEAN> 15
 -5.548489e-02 -4.460967e-02 -4.793441e-02 -4.459250e-02 -4.562581e-02 -7.559692e-04 4.561133e-04 1.690947e-03 -4.104632e-04 -2.010687e-03 -1.951470e-03 -7.266669e-04 6.134008e-04 -2.494156e-04 -9.106732e-04
<VARIANCE> 15
 2.614343e-01 1.246421e-01 1.540560e-01 1.230623e-01 1.351703e-01 2.758832e-02 1.515946e-02 2.410355e-02 2.005095e-02 2.272432e-02 1.572844e-01 9.900405e-02 1.290661e-01 1.546702e-01 1.572168e-01
<GCONST> -1.094745e+01
<TRANSP> 7
 0.000000e+00 1.000000e+00 0.000000e+00 0.000000e+00 0.000000e+00 0.000000e+00 0.000000e+00
 0.000000e+00 5.174796e-01 4.825204e-01 0.000000e+00 0.000000e+00 0.000000e+00 0.000000e+00
 0.000000e+00 0.000000e+00 5.386152e-01 4.613848e-01 0.000000e+00 0.000000e+00 0.000000e+00
 0.000000e+00 0.000000e+00 0.000000e+00 6.370887e-01 3.629113e-01 0.000000e+00 0.000000e+00
 0.000000e+00 0.000000e+00 0.000000e+00 0.000000e+00 7.841644e-01 2.158356e-01 0.000000e+00
 0.000000e+00 0.000000e+00 0.000000e+00 0.000000e+00 0.000000e+00 9.901155e-01 9.884481e-03
 0.000000e+00 0.000000e+00 0.000000e+00 0.000000e+00 0.000000e+00 0.000000e+00 0.000000e+00
<ENDHMM>
~h "D"
<BEGINHMM>
<NUMSTATES> 7
<STATE> 2
<SWEIGHTS> 5
 1.000000e+00 0.000000e+00 0.000000e+00 0.000000e+00 0.000000e+00
<STREAM> 1
<MEAN> 180
 4.919822e+00 2.255439e+00 1.343604e-01 4.354891e-01 1.519038e-01 9.981831e-02 2.599113e-03 1.355647e-01 -2.122428e-01 2.629632e-02 -7.322356e-02 3.558235e-02 -1.282212e-01 2.581608e-02 -1.624787e-01 1.556914e-01 -1.255957e-02 -7.317468e-02 7.666831e-02 2.300996e-02 -1.551922e-01 7.187667e-02 1.082131e-02 -5.472127e-02 3.383833e-02 3.412684e-02 -8.575792e-02 8.197741e-02 -1.878427e-02 2.631164e-02 -3.985848e-03 6.013445e-02 -3.934718e-02 4.705767e-02 -3.644584e-02 2.771697e-02 -5.690409e-02 5.131354e-02 -5.107559e-02 3.249575e-02 -4.300793e-02 4.229859e-02 -3.399575e-02 2.871545e-02 -2.719410e-02 2.347760e-02 -3.019098e-02 2.705226e-02 -2.881956e-02 3.677125e-02 -4.114556e-02 4.132239e-02 -2.649383e-02 1.091421e-02 -8.569130e-03 2.638314e-02 -4.348872e-02 5.358372e-02 -5.522546e-02 4.537287e-02 -1.113056e-04 -6.906829e-03 3.271100e-03 -6.277386e-04 2.526248e-03 6.054529e-04 -3.048291e-03 2.364134e-03 -4.646517e-03 -2.647214e-03 3.109256e-03 -1.179086e-04 -3.674862e-04 -2.590052e-04 -1.228060e-03 2.562256e-03 1.854237e-03 -8.718665e-04 2.079768e-03 -1.003794e-04 -8.189779e-04 4.916399e-04 -6.441267e-04 9.045124e-04 6.966922e-04 -1.018194e-03 -9.140471e-04 1.128754e-03 -3.477819e-04 -1.922782e-04 1.423427e-04 3.854419e-04 1.187508e-04 6.649275e-04 -3.411638e-04 2.784253e-04 3.905503e-05 -9.734840e-04 2.445119e-04 -5.487059e-04 -2.093789e-04 6.783333e-04 -2.536295e-04 -4.136420e-04 3.411856e-04 -7.608166e-06 -4.575017e-04 1.057550e-04 -2.353890e-04 4.225959e-04 -1.958501e-04 4.696500e-05 -6.860283e-05 1.660074e-04 -7.614497e-04 9.970819e-04 -3.424328e-04 1.463492e-04 -4.961932e-04 6.347423e-04 -7.166808e-03 -4.378061e-03 -4.644372e-05 -3.878097e-04 -5.246126e-05 2.759276e-03 2.173086e-03 -6.686158e-04 9.484165e-04 2.887405e-04 5.334475e-04 2.140759e-03 2.109204e-04 6.054280e-04 1.760215e-03 -2.364504e-04 6.287687e-04 2.038704e-03 -4.767906e-04 -6.781765e-04 7.987656e-04 -8.644463e-05 -8.640124e-04 8.031334e-04 5.325803e-04 -7.475752e-05 4.322210e-04 -5.208193e-04 3.381889e-04 3.223606e-04 -9.104526e-04 -1.386366e-03 4.385540e-05 -5.592005e-04 -3.937561e-04 7.734660e-04 -1.626832e-04 7.447063e-05 1.295957e-04 -1.989315e-04 9.619886e-05 -2.753027e-04 1.351254e-04 4.356799e-05 -3.258536e-04 1.037507e-04 -5.219394e-04 3.848773e-04 4.822600e-04 -3.805571e-04 1.016039e-06 -9.296538e-05 -6.102554e-05 3.444979e-04 2.454580e-05 -4.853964e-04 4.434233e-04 -1.129869e-04 4.802522e-05 -1.046087e-04
<VARIANCE> 180
 1.943747e+00 1.324122e+00 3.570140e-01 1.831783e-01 1.854117e-01 1.101922e-01 6.711040e-02 1.181610e-01 5.982666e-02 9.352174e-02 3.540456e-02 3.600270e-02 3.100768e-02 3.999440e-02 2.773657e-02 4.894485e-02 3.264835e-02 2.379440e-02 2.370131e-02 2.501502e-02 1.812024e-02 1.728451e-02 1.449085e-02 1.289236e-02 1.424507e-02 1.314434e-02 1.228913e-02 1.076430e-02 1.093994e-02 8.749926e-03 9.806573e-03 7.485245e-03 8.391662e-03 7.053866e-03 6.072450e-03 6.014908e-03 7.016459e-03 6.567729e-03 5.771559e-03 4.556902e-03 4.533001e-03 4.839935e-03 5.302805e-03 4.226111e-03 3.914195e-03 4.267721e-03 4.165791e-03 3.534465e-03 3.903429e-03 4.086076e-03 3.706564e-03 3.584831e-03 3.341230e-03 2.806537e-03 2.867576e-03 2.979660e-03 2.850086e-03 2.737645e-03 2.636205e-03 2.636340e-03 3.247503e-02 1.932153e-02 1.036201e-02 6.052804e-03 5.277874e-03 4.507018e-03 3.623216e-03 3.210983e-03 3.438063e-03 3.122912e-03 2.738612e-03 2.734644e-03 2.572653e-03 2.432745e-03 2.446335e-03 2.524694e-03 2.320470e-03 2.237835e-03 2.242677e-03 2.008758e-03 1.881948e-03 1.825307e-03 1.793114e-03 1.616636e-03 1.688070e-03 1.558130e-03 1.461445e-03 1.325883e-03 1.327416e-03 1.198176e-03 1.213242e-03 1.174568e-03 1.073351e-03 1.074151e-03 1.019789e-03 9.509270e-04 9.230507e-04 8.366922e-04 7.947460e-04 7.350535e-04 7.347531e-04 7.513019e-04 7.433388e-04 6.997525e-04 6.411081e-04 6.103512e-04 5.932816e-04 5.851637e-04 6.100254e-04 5.439634e-04 5.433097e-04 5.116901e-04 4.631614e-04 4.642699e-04 4.656717e-04 4.759006e-04 4.553702e-04 4.509008e-04 4.336812e-04 4.046754e-04 2.321806e-02 1.489518e-02 1.497587e-02 1.111134e-02 9.399569e-03 9.492927e-03 8.185203e-03 8.987716e-03 8.620863e-03 8.505444e-03 7.791762e-03 7.743645e-03 7.348108e-03 7.172481e-03 6.740795e-03 7.422236e-03 6.950722e-03 6.813538e-03 6.559795e-03 6.414232e-03 6.172960e-03 6.028973e-03 6.049457e-03 5.439011e-03 5.361113e-03 5.180113e-03 4.663859e-03 4.548118e-03 4.293276e-03 4.045513e-03 4.004337e-03 3.919940e-03 3.768524e-03 3.782117e-03 3.525896e-03 3.478218e-03 3.198321e-03 2.852183e-03 2.990477e-03 2.756666e-03 2.704688e-03 2.775966e-03 2.750845e-03 2.549057e-03 2.375973e-03 2.237878e-03 2.203114e-03 1.972265e-03 2.056634e-03 2.112787e-03 1.893833e-03 1.772112e-03 1.701829e-03 1.658086e-03 1.707716e-03 1.777756e-03 1.680663e-03 1.636964e-03 1.604310e-03 1.510430e-03
<GCONST> -6.490098e+02
<STREAM> 2
<NUMMIXES> 2
<MIXTURE> 1 7.845470e-01
<MEAN> 1
 4.893748e+00
<VARIANCE> 1
 9.937497e-02
<GCONST> -4.709780e-01
<MIXTURE> 2 2.154534e-01
<MEAN> 0
<VARIANCE> 0
<GCONST> 0.000000e+00
<STREAM> 3
<NUMMIXES> 2
<MIXTURE> 1 7.700480e-01
<MEAN> 1
 -5.117801e-03
<VARIANCE> 1
 6.792532e-04
<GCONST> -5.456639e+00
<MIXTURE> 2 2.299526e-01
<MEAN> 0
<VARIANCE> 0
<GCONST> 0.000000e+00
<STREAM> 4
<NUMMIXES> 2
<MIXTURE> 1 7.693879e-01
<MEAN> 1
 4.056774e-04
<VARIANCE> 1
 2.222932e-03
<GCONST> -4.271051e+00
<MIXTURE> 2 2.306128e-01
<MEAN> 0
<VARIANCE> 0
<GCONST> 0.000000e+00
<STREAM> 5
<MEAN> 15
 -4.531201e+00 -2.703307e+00 -2.494362e+00 -2.409063e+00 -2.424032e+00 -3.397555e-02 -3.533813e-03 -3.832996e-03 -4.269762e-05 5.494009e-04 3.551515e-02 1.546578e-02 2.025329e-03 -4.648126e-03 -4.403894e-03
<VARIANCE> 15
 1.508592e+01 4.104396e+00 2.874629e+00 2.571111e+00 2.525719e+00 1.323505e+00 5.826751e-01 5.017913e-01 4.561795e-01 4.176750e-01 8.081109e+00 3.948024e+00 3.639787e+00 3.214289e+00 3.415786e+00
<GCONST> 3.916411e+01
<STATE> 3
<SWEIGHTS> 5
 1.000000e+00 0.000000e+00 0.000000e+00 0.000000e+00 0.000000e+00
<STREAM> 1
<MEAN> 180
 4.929545e+00 2.217254e+00 1.021045e-01 4.364444e-01 1.949803e-01 1.143825e-01 -2.164966e-02 1.705617e-01 -2.295177e-01 -4.580248e-03 -6.061009e-02 3.470961e-02 -1.318011e-01 1.916636e-02 -1.546576e-01 1.836218e-01 -1.185635e-02 -7.251608e-02 8.816587e-02 1.045534e-02 -1.559877e-01 7.502779e-02 5.092191e-03 -5.489923e-02 3.309882e-02 3.664167e-02 -9.104609e-02 8.325469e-02 -1.791468e-02 2.441259e-02 2.970571e-03 5.461722e-02 -3.469658e-02 4.613450e-02 -3.816405e-02 3.008883e-02 -6.241584e-02 5.551281e-02 -5.305507e-02 2.854626e-02 -3.964661e-02 4.040740e-02 -3.366828e-02 2.864905e-02 -2.940788e-02 2.685616e-02 -3.580333e-02 3.015252e-02 -2.800884e-02 3.376804e-02 -3.939460e-02 4.190230e-02 -2.826708e-02 1.353443e-02 -1.088578e-02 2.725912e-02 -4.170677e-02 5.089346e-02 -5.384576e-02 4.600492e-02 -1.182010e-02 -1.002588e-02 1.686365e-03 -2.379015e-03 2.853680e-03 3.375421e-03 -2.035421e-03 -7.514136e-05 -1.623878e-03 -1.677163e-03 1.568354e-03 5.628372e-04 -8.800040e-04 8.607519e-04 1.384332e-03 1.260919e-03 2.406358e-03 4.537579e-04 -1.411715e-04 -5.294904e-04 4.474683e-04 5.443733e-04 -6.704151e-04 6.785136e-04 2.170471e-04 -2.263824e-04 -3.015058e-05 -1.047206e-05 -2.171361e-04 -1.493352e-04 -8.368275e-06 -1.033774e-03 -2.335511e-04 -2.937512e-04 -1.975684e-04 5.508214e-04 -2.021905e-04 1.212142e-04 -1.063371e-04 -6.316690e-04 3.980934e-04 2.176931e-05 -8.780936e-05 5.082685e-05 5.403235e-05 -6.079405e-05 -4.940237e-04 5.948924e-04 -1.718887e-04 -7.943428e-05 -2.675141e-06 1.338279e-04 -2.335699e-04 2.690735e-04 -1.027444e-04 -1.182954e-04 4.795678e-04 -4.475956e-04 -2.804647e-05 4.330129e-04 -3.326059e-03 -1.271763e-03 -4.101167e-04 2.580130e-04 5.222717e-04 8.282686e-04 -8.278458e-04 -1.754494e-03 2.075650e-04 1.659968e-04 -3.891773e-04 -8.116798e-04 -1.978043e-05 5.351954e-04 6.185425e-04 2.963823e-04 7.125334e-04 8.792888e-04 -2.900892e-04 -4.335616e-04 -3.597695e-04 3.351556e-04 3.769857e-04 -8.194549e-04 6.737210e-06 8.005971e-04 3.663824e-04 -6.420868e-04 -1.906745e-04 -3.890716e-04 1.380230e-05 -2.731715e-04 -2.997169e-04 -5.820271e-04 9.437284e-05 -4.895624e-04 3.842534e-04 3.073454e-04 -3.899951e-04 4.919386e-04 1.568872e-04 -4.356153e-04 1.479120e-04 1.265074e-04 2.464647e-04 -8.238397e-05 7.437734e-06 3.093551e-04 -2.267214e-04 -4.195573e-04 5.562356e-04 -3.219252e-06 -4.247702e-04 3.433745e-04 4.592168e-04 -8.776312e-04 4.624995e-04 -9.514995e-05 1.569656e-04 -2.152912e-04
<VARIANCE> 180
 1.857573e+00 1.334761e+00 3.320477e-01 1.732168e-01 1.954725e-01 1.111921e-01 6.832204e-02 1.126464e-01 5.730842e-02 8.283088e-02 3.521663e-02 3.797340e-02 2.997779e-02 3.917335e-02 2.710958e-02 4.840492e-02 3.157122e-02 2.413902e-02 2.563142e-02 2.400047e-02 1.822213e-02 1.672874e-02 1.405874e-02 1.362156e-02 1.360511e-02 1.242613e-02 1.206417e-02 1.100401e-02 1.109001e-02 9.206841e-03 1.030903e-02 7.384302e-03 8.136284e-03 7.190374e-03 6.364871e-03 6.439466e-03 7.249627e-03 6.711760e-03 5.827760e-03 4.668060e-03 4.623053e-03 4.678846e-03 4.897677e-03 4.119058e-03 3.846692e-03 4.030723e-03 3.868250e-03 3.537826e-03 3.897084e-03 3.999491e-03 3.845842e-03 3.593069e-03 3.403446e-03 2.968283e-03 2.961433e-03 2.990570e-03 2.996092e-03 2.938224e-03 2.883524e-03 2.823377e-03 2.294199e-02 1.701795e-02 8.386988e-03 5.612520e-03 4.984426e-03 4.105393e-03 3.483731e-03 3.060661e-03 3.302702e-03 3.058738e-03 2.586612e-03 2.465044e-03 2.269844e-03 2.359370e-03 2.223415e-03 2.359036e-03 2.179051e-03 2.153715e-03 2.063364e-03 1.904485e-03 1.858063e-03 1.726919e-03 1.721528e-03 1.589758e-03 1.595390e-03 1.554472e-03 1.437742e-03 1.337498e-03 1.276437e-03 1.207294e-03 1.153369e-03 1.158775e-03 1.045772e-03 1.071346e-03 9.815776e-04 9.525109e-04 8.958242e-04 8.331349e-04 7.811585e-04 7.408275e-04 6.941883e-04 7.191216e-04 7.216904e-04 6.749363e-04 6.357617e-04 5.935198e-04 5.956892e-04 5.730452e-04 6.054770e-04 5.567877e-04 5.345807e-04 5.251650e-04 4.756501e-04 4.608728e-04 4.752698e-04 4.673805e-04 4.627223e-04 4.452902e-04 4.236622e-04 3.993871e-04 1.595290e-02 1.208113e-02 1.122867e-02 9.319729e-03 7.910603e-03 7.872187e-03 7.178850e-03 6.944430e-03 7.320591e-03 7.313507e-03 6.810511e-03 6.687645e-03 6.208618e-03 6.520826e-03 6.034820e-03 6.494539e-03 6.023119e-03 5.797332e-03 5.816750e-03 5.582145e-03 5.472027e-03 5.377919e-03 5.395394e-03 5.038147e-03 4.805000e-03 4.613263e-03 4.392203e-03 4.235291e-03 4.017480e-03 3.704173e-03 3.697409e-03 3.593069e-03 3.472678e-03 3.428886e-03 3.190514e-03 3.122978e-03 2.905239e-03 2.645954e-03 2.629757e-03 2.507619e-03 2.360934e-03 2.364692e-03 2.417844e-03 2.361867e-03 2.217751e-03 1.989921e-03 1.960040e-03 1.868927e-03 1.975353e-03 1.907502e-03 1.820455e-03 1.680419e-03 1.611097e-03 1.564060e-03 1.562739e-03 1.606283e-03 1.556195e-03 1.504746e-03 1.453510e-03 1.386640e-03
<GCONST> -6.584738e+02
<STREAM> 2
<NUMMIXES> 2
<MIXTURE> 1 7.873909e-01
<MEAN> 1
 4.834325e+00
<VARIANCE> 1
 9.483491e-02
<GCONST> -5.177407e-01
<MIXTURE> 2 2.126082e-01
<MEAN> 0
<VARIANCE> 0
<GCONST> 0.000000e+00
<STREAM> 3
<NUMMIXES> 2
<MIXTURE> 1 7.751973e-01
<MEAN> 1
 -4.017788e-03
<VARIANCE> 1
 5.564711e-04
<GCONST> -5.656018e+00
<MIXTURE> 2 2.248017e-01
<MEAN> 0
<VARIANCE> 0
<GCONST> 0.000000e+00
<STREAM> 4
<NUMMIXES> 2
<MIXTURE> 1 7.747309e-01
<MEAN> 1
 -1.640465e-04
<VARIANCE> 1
 1.779560e-03
<GCONST> -4.493512e+00
<MIXTURE> 2 2.252680e-01
<MEAN> 0
<VARIANCE> 0
<GCONST> 0.000000e+00
<STREAM> 5
<MEAN> 15
 -4.528490e+00 -2.678681e+00 -2.506218e+00 -2.387104e+00 -2.430456e+00 2.310429e-02 1.255104e-02 -6.542815e-05 1.250650e-03 -3.354318e-03 6.808573e-03 3.413025e-03 -4.535831e-03 3.437440e-03 -3.673800e-03
<VARIANCE> 15
 1.536819e+01 3.933558e+00 2.850747e+00 2.424608e+00 2.461857e+00 1.131301e+00 5.100335e-01 4.726268e-01 3.936591e-01 3.769880e-01 6.765483e+00 3.535225e+00 3.444870e+00 2.938979e+00 2.868951e+00
<GCONST> 3.784050e+01
<STATE> 4
<SWEIGHTS> 5
 1.000000e+00 0.000000e+00 0.000000e+00 0.000000e+00 0.000000e+00
<STREAM> 1
<MEAN> 180
 4.899607e+00 2.197273e+00 7.719602e-02 4.329189e-01 2.388700e-01 1.372804e-01 -3.908577e-02 1.881387e-01 -2.327574e-01 -2.339526e-02 -5.761692e-02 3.333259e-02 -1.374571e-01 1.012432e-02 -1.483070e-01 2.026742e-01 -1.304353e-02 -7.490056e-02 9.290998e-02 2.357215e-04 -1.553295e-01 7.962318e-02 3.863652e-04 -5.672134e-02 3.224336e-02 4.071013e-02 -9.356128e-02 8.224748e-02 -1.446791e-02 2.376061e-02 1.131743e-02 4.714835e-02 -3.224273e-02 4.533614e-02 -3.941080e-02 3.206320e-02 -6.780560e-02 6.177224e-02 -5.589724e-02 2.475538e-02 -3.465834e-02 3.648488e-02 -3.398422e-02 3.110241e-02 -3.354495e-02 3.069180e-02 -3.931643e-02 3.113763e-02 -2.644452e-02 3.109411e-02 -3.824772e-02 4.258807e-02 -2.934758e-02 1.443649e-02 -9.068223e-03 2.438131e-02 -3.814813e-02 4.737126e-02 -5.190209e-02 4.600406e-02 -1.910985e-02 -1.249650e-02 8.663007e-04 -6.804009e-04 2.035830e-03 3.448152e-03 -1.346144e-03 -1.522844e-03 1.475931e-03 -6.945794e-04 4.123482e-04 3.135972e-04 -6.586536e-04 3.399146e-04 8.617455e-04 1.430097e-04 1.526102e-03 6.194796e-04 -1.035971e-03 -5.159222e-04 5.829334e-04 1.548404e-04 -1.573848e-04 -3.667753e-05 -2.838710e-04 3.033492e-04 4.114872e-04 -7.029469e-04 2.397300e-04 2.167905e-04 -2.005587e-04 -7.834911e-04 -1.473061e-04 -5.699484e-04 -1.618224e-04 1.041962e-04 -7.121635e-05 3.131704e-04 8.395204e-05 -3.174160e-04 4.111306e-04 -2.796761e-04 -2.080946e-04 5.042561e-04 -3.290705e-04 2.489011e-04 -1.331490e-04 2.035477e-04 -3.742499e-05 -2.666044e-04 1.531142e-04 1.632586e-04 -1.933888e-04 3.549497e-05 3.584400e-04 -5.048111e-04 4.686027e-04 -3.138195e-04 2.578108e-04 -1.580978e-04 -4.373680e-03 -2.350711e-03 -6.236979e-04 6.718715e-04 -2.559010e-04 -1.150918e-04 1.612789e-04 4.293052e-04 2.399761e-03 5.497577e-04 -2.851157e-04 2.353672e-04 8.839011e-04 -5.201770e-04 -8.282558e-04 -4.446903e-04 -1.008015e-03 1.381362e-04 -1.489496e-04 -5.258652e-04 9.958922e-05 -3.256160e-04 -4.992725e-05 -2.661224e-04 -9.583026e-04 -1.959304e-04 2.391289e-04 -2.957214e-04 -4.579186e-05 5.886059e-04 1.606642e-04 1.285209e-04 6.323546e-04 3.197505e-04 -2.372299e-04 -1.114737e-04 -1.355101e-04 3.144195e-05 6.179648e-04 -2.457951e-05 -2.029761e-04 1.565255e-05 -2.421654e-04 2.326798e-04 -3.521476e-04 2.032421e-04 3.780681e-04 -3.193043e-04 1.353571e-04 -8.411990e-05 -1.237753e-04 1.393082e-04 1.710379e-04 -2.980355e-04 -8.589597e-05 3.669508e-04 -3.809425e-04 8.457778e-05 4.359050e-04 -4.959234e-04
<VARIANCE> 180
 1.795819e+00 1.272402e+00 3.065907e-01 1.652377e-01 2.025020e-01 1.073493e-01 7.016710e-02 1.034364e-01 5.508105e-02 7.382834e-02 3.635170e-02 3.834432e-02 2.800394e-02 3.800821e-02 2.674711e-02 4.759397e-02 2.954948e-02 2.531307e-02 2.639494e-02 2.226787e-02 1.821953e-02 1.636992e-02 1.422531e-02 1.347138e-02 1.300659e-02 1.190949e-02 1.219111e-02 1.107804e-02 1.044838e-02 9.369503e-03 1.088767e-02 7.768359e-03 8.265867e-03 7.431965e-03 6.445335e-03 6.845549e-03 7.394399e-03 6.996238e-03 6.076652e-03 4.834197e-03 4.958464e-03 4.933138e-03 4.658396e-03 4.212436e-03 3.896934e-03 3.930927e-03 3.669483e-03 3.469622e-03 3.815938e-03 3.904897e-03 3.832658e-03 3.600009e-03 3.444837e-03 3.066220e-03 3.106328e-03 3.017593e-03 3.032670e-03 2.965729e-03 3.075675e-03 2.928850e-03 2.045417e-02 1.655525e-02 7.789211e-03 5.319461e-03 4.755717e-03 3.798912e-03 3.329827e-03 2.957847e-03 3.218352e-03 2.925729e-03 2.561304e-03 2.424922e-03 2.214820e-03 2.309081e-03 2.169401e-03 2.281466e-03 2.101290e-03 2.076449e-03 1.981969e-03 1.893954e-03 1.808866e-03 1.771715e-03 1.666283e-03 1.567099e-03 1.561774e-03 1.473081e-03 1.420183e-03 1.359384e-03 1.263047e-03 1.234075e-03 1.150710e-03 1.143819e-03 1.076009e-03 1.049373e-03 9.759099e-04 9.757291e-04 9.034111e-04 8.630521e-04 7.827920e-04 7.358637e-04 7.093371e-04 6.965905e-04 7.253985e-04 6.741497e-04 6.256677e-04 5.822605e-04 6.005064e-04 5.794175e-04 5.895371e-04 5.674835e-04 5.425784e-04 5.216292e-04 4.905890e-04 4.700234e-04 4.703227e-04 4.692966e-04 4.532078e-04 4.317947e-04 4.228510e-04 4.062293e-04 1.403473e-02 1.144686e-02 9.677071e-03 8.502470e-03 7.091998e-03 7.015744e-03 6.471714e-03 5.999875e-03 6.603369e-03 6.653802e-03 6.139839e-03 5.948657e-03 5.778340e-03 5.863818e-03 5.666104e-03 5.803943e-03 5.538245e-03 5.419476e-03 5.225251e-03 5.039561e-03 5.256339e-03 4.912552e-03 4.900690e-03 4.634716e-03 4.374673e-03 4.387542e-03 4.083036e-03 3.974482e-03 3.707787e-03 3.591724e-03 3.392228e-03 3.345450e-03 3.268198e-03 3.229929e-03 3.005027e-03 2.921661e-03 2.715226e-03 2.526690e-03 2.443720e-03 2.400656e-03 2.228638e-03 2.209175e-03 2.273305e-03 2.179862e-03 2.075768e-03 1.860837e-03 1.841286e-03 1.761279e-03 1.832533e-03 1.828275e-03 1.704077e-03 1.660296e-03 1.536993e-03 1.489194e-03 1.470392e-03 1.496923e-03 1.448761e-03 1.362636e-03 1.348283e-03 1.258355e-03
<GCONST> -6.641472e+02
<STREAM> 2
<NUMMIXES> 2
<MIXTURE> 1 7.958872e-01
<MEAN> 1
 4.788821e+00
<VARIANCE> 1
 8.995384e-02
<GCONST> -5.705817e-01
<MIXTURE> 2 2.041123e-01
<MEAN> 0
<VARIANCE> 0
<GCONST> 0.000000e+00
<STREAM> 3
<NUMMIXES> 2
<MIXTURE> 1 7.844652e-01
<MEAN> 1
 -3.055441e-03
<VARIANCE> 1
 5.598664e-04
<GCONST> -5.649936e+00
<MIXTURE> 2 2.155343e-01
<MEAN> 0
<VARIANCE> 0
<GCONST> 0.000000e+00
<STREAM> 4
<NUMMIXES> 2
<MIXTURE> 1 7.840611e-01
<MEAN> 1
 -2.444723e-04
<VARIANCE> 1
 1.630226e-03
<GCONST> -4.581160e+00
<MIXTURE> 2 2.159384e-01
<MEAN> 0
<VARIANCE> 0
<GCONST> 0.000000e+00
<STREAM> 5
<MEAN> 15
 -4.416101e+00 -2.656991e+00 -2.519902e+00 -2.382408e+00 -2.436804e+00 4.419497e-02 1.239127e-02 4.595534e-03 4.534834e-03 4.587047e-03 1.687394e-02 -5.607847e-04 6.424332e-03 5.298653e-03 1.430301e-02
<VARIANCE> 15
 1.442446e+01 3.592417e+00 2.691198e+00 2.314637e+00 2.366094e+00 1.083051e+00 4.578673e-01 4.288976e-01 3.774094e-01 3.489253e-01 6.318425e+00 3.089844e+00 3.143810e+00 2.753719e+00 2.553060e+00
<GCONST> 3.669840e+01
<STATE> 5
<SWEIGHTS> 5
 1.000000e+00 0.000000e+00 0.000000e+00 0.000000e+00 0.000000e+00
<STREAM> 1
<MEAN> 180
 4.849475e+00 2.158490e+00 5.191750e-02 4.274505e-01 2.595933e-01 1.534714e-01 -5.155528e-02 1.972794e-01 -2.270415e-01 -3.734209e-02 -5.416957e-02 3.476975e-02 -1.479467e-01 1.128040e-03 -1.459984e-01 2.128356e-01 -1.721743e-02 -7.709203e-02 9.464560e-02 -7.661164e-03 -1.563300e-01 8.297191e-02 -3.837056e-03 -5.926096e-02 3.445119e-02 4.266933e-02 -9.368122e-02 8.155692e-02 -1.100419e-02 2.647695e-02 1.535861e-02 4.217306e-02 -2.863708e-02 4.205182e-02 -3.833855e-02 3.326638e-02 -7.230830e-02 6.706552e-02 -5.699525e-02 2.316197e-02 -3.060322e-02 3.159399e-02 -3.454653e-02 3.506419e-02 -4.028531e-02 3.617828e-02 -4.127848e-02 2.978437e-02 -2.326853e-02 2.767557e-02 -3.569369e-02 4.211856e-02 -3.008211e-02 1.511831e-02 -7.141527e-03 2.133867e-02 -3.525068e-02 4.527986e-02 -5.066497e-02 4.570372e-02 -2.795228e-02 -1.726096e-02 5.102607e-04 -3.495181e-04 -3.325158e-04 2.070776e-03 1.006754e-03 -1.250625e-03 4.175005e-03 3.419271e-04 -5.212176e-04 4.974219e-04 -6.423174e-04 -4.694928e-04 7.433044e-04 -1.193862e-03 6.229079e-04 5.561242e-04 -1.922140e-03 -1.828453e-05 9.985772e-04 -9.993663e-04 4.736512e-05 2.399707e-04 -7.564020e-04 2.259770e-04 9.313047e-04 -9.183453e-04 -1.694188e-04 9.644300e-04 -3.988213e-04 -2.211545e-04 5.231806e-04 -6.320011e-04 4.836810e-06 -2.339915e-04 3.429158e-05 -1.734825e-06 3.690457e-04 2.174493e-05 3.126483e-05 -3.172036e-04 -2.018188e-04 4.990358e-04 -6.538541e-04 2.944901e-04 2.847401e-04 -1.450625e-04 5.724053e-05 -3.256327e-04 2.744845e-04 -1.732774e-04 1.451910e-04 -1.538248e-04 2.927023e-04 -1.767023e-04 -9.137853e-06 1.069709e-04 1.957703e-04 -3.972971e-04 -4.555978e-03 -1.274547e-03 -5.258010e-05 6.165305e-05 -2.100715e-04 -3.195870e-04 8.000729e-04 5.479896e-04 8.274344e-04 1.135727e-04 -9.408094e-04 -7.893405e-05 2.231827e-04 -9.435245e-05 -1.695162e-04 -4.564335e-04 2.206205e-05 -6.523280e-04 -7.383632e-04 5.766699e-04 6.149490e-04 -8.842045e-04 1.383305e-05 4.423810e-04 9.092664e-06 -4.452716e-05 -5.017557e-06 -1.965508e-05 -5.962957e-04 6.412050e-05 3.027658e-04 5.300220e-05 6.659792e-04 9.982371e-05 1.094706e-04 4.959167e-05 -8.938031e-05 -5.461363e-05 -9.132078e-05 2.722905e-05 -3.226613e-06 -1.866921e-04 1.741944e-04 -1.321646e-05 -3.936119e-04 5.179926e-06 3.342089e-04 -2.214411e-04 -4.727183e-06 1.577977e-04 -7.306805e-05 -3.346062e-04 3.663228e-04 -1.681998e-04 4.108193e-05 1.440172e-04 -2.963799e-04 2.401938e-04 -1.261595e-04 -1.001978e-04
<VARIANCE> 180
 1.770309e+00 1.225377e+00 2.909687e-01 1.699881e-01 2.094713e-01 1.028570e-01 7.403360e-02 9.263216e-02 5.540689e-02 6.806217e-02 3.766308e-02 3.741547e-02 2.722959e-02 3.682718e-02 2.655630e-02 4.630864e-02 2.799606e-02 2.692421e-02 2.660375e-02 2.174819e-02 1.861297e-02 1.710886e-02 1.506683e-02 1.333949e-02 1.293178e-02 1.169125e-02 1.245980e-02 1.057702e-02 9.901447e-03 9.215732e-03 1.047896e-02 8.150231e-03 8.560796e-03 7.584954e-03 6.665217e-03 7.141287e-03 7.533339e-03 7.198588e-03 6.210652e-03 5.047463e-03 5.282418e-03 5.371205e-03 4.649153e-03 4.325966e-03 4.178704e-03 3.991641e-03 3.621238e-03 3.506884e-03 3.863560e-03 3.986178e-03 3.790240e-03 3.618980e-03 3.459375e-03 3.076999e-03 3.127518e-03 3.002153e-03 2.950064e-03 3.000311e-03 3.120552e-03 2.914394e-03 1.934680e-02 1.620138e-02 7.632663e-03 5.220673e-03 4.517301e-03 3.698652e-03 3.258306e-03 2.901593e-03 3.098220e-03 2.948720e-03 2.575349e-03 2.334208e-03 2.205043e-03 2.246671e-03 2.199118e-03 2.265968e-03 2.056422e-03 2.039078e-03 2.016677e-03 1.863091e-03 1.844147e-03 1.809761e-03 1.708909e-03 1.573317e-03 1.551144e-03 1.508431e-03 1.379914e-03 1.338953e-03 1.271134e-03 1.276763e-03 1.148178e-03 1.153581e-03 1.088583e-03 1.077055e-03 9.928212e-04 9.916117e-04 9.049568e-04 8.831553e-04 7.814873e-04 7.632134e-04 7.388300e-04 7.211043e-04 7.460794e-04 6.999002e-04 6.322032e-04 6.035797e-04 5.927475e-04 5.764461e-04 5.808427e-04 5.678806e-04 5.512016e-04 5.140688e-04 5.101681e-04 4.853220e-04 4.620747e-04 4.738136e-04 4.456157e-04 4.238428e-04 4.117381e-04 3.994618e-04 1.238792e-02 1.098854e-02 8.698258e-03 7.696201e-03 6.652764e-03 6.401075e-03 5.957269e-03 5.823605e-03 6.008118e-03 6.321174e-03 5.798726e-03 5.673435e-03 5.777221e-03 5.580545e-03 5.580423e-03 5.515925e-03 5.314015e-03 5.147820e-03 4.977043e-03 4.874674e-03 4.987759e-03 4.780036e-03 4.720303e-03 4.480430e-03 4.222233e-03 4.096281e-03 4.062098e-03 3.779908e-03 3.594750e-03 3.562334e-03 3.271008e-03 3.221352e-03 3.177556e-03 3.108327e-03 2.865949e-03 2.870018e-03 2.659266e-03 2.558410e-03 2.429634e-03 2.320785e-03 2.223602e-03 2.155592e-03 2.181753e-03 2.078505e-03 1.967797e-03 1.790975e-03 1.796754e-03 1.733681e-03 1.723870e-03 1.738045e-03 1.619546e-03 1.552352e-03 1.487148e-03 1.435234e-03 1.373132e-03 1.407251e-03 1.371036e-03 1.298206e-03 1.282927e-03 1.228610e-03
<GCONST> -6.665635e+02
<STREAM> 2
<NUMMIXES> 2
<MIXTURE> 1 7.918802e-01
<MEAN> 1
 4.759851e+00
<VARIANCE> 1
 8.288224e-02
<GCONST> -6.524575e-01
<MIXTURE> 2 2.081202e-01
<MEAN> 0
<VARIANCE> 0
<GCONST> 0.000000e+00
<STREAM> 3
<NUMMIXES> 2
<MIXTURE> 1 7.799954e-01
<MEAN> 1
 -2.434561e-03
<VARIANCE> 1
 6.891688e-04
<GCONST> -5.442147e+00
<MIXTURE> 2 2.200057e-01
<MEAN> 0
<VARIANCE> 0
<GCONST> 0.000000e+00
<STREAM> 4
<NUMMIXES> 2
<MIXTURE> 1 7.796312e-01
<MEAN> 1
 -2.397965e-04
<VARIANCE> 1
 1.795991e-03
<GCONST> -4.484322e+00
<MIXTURE> 2 2.203699e-01
<MEAN> 0
<VARIANCE> 0
<GCONST> 0.000000e+00
<STREAM> 5
<MEAN> 15
 -4.222942e+00 -2.607762e+00 -2.488606e+00 -2.364762e+00 -2.407023e+00 7.849811e-02 1.954217e-02 1.765467e-02 1.220205e-02 1.976089e-02 9.471947e-03 4.859225e-03 5.198454e-03 -1.080494e-03 4.085389e-03
<VARIANCE> 15
 1.339641e+01 3.365488e+00 2.607522e+00 2.306087e+00 2.362031e+00 1.072940e+00 4.291066e-01 3.880423e-01 3.621005e-01 3.444475e-01 6.234486e+00 2.754114e+00 2.864862e+00 2.666348e+00 2.422182e+00
<GCONST> 3.598735e+01
<STATE> 6
<SWEIGHTS> 5
 1.000000e+00 0.000000e+00 0.000000e+00 0.000000e+00 0.000000e+00
<STREAM> 1
<MEAN> 180
 4.690898e+00 2.030372e+00 3.107608e-02 4.177699e-01 2.494243e-01 1.701584e-01 -4.865304e-02 1.909361e-01 -2.115042e-01 -5.402954e-02 -5.378746e-02 3.888579e-02 -1.685824e-01 -1.399270e-02 -1.348581e-01 2.076179e-01 -9.120275e-03 -6.586820e-02 8.670056e-02 -1.072348e-02 -1.577930e-01 8.482391e-02 -1.988378e-03 -6.095993e-02 3.532469e-02 4.505482e-02 -9.407126e-02 7.735448e-02 -1.045779e-02 3.404741e-02 1.367877e-02 4.264278e-02 -2.561356e-02 3.474524e-02 -3.119140e-02 2.671583e-02 -7.329220e-02 7.153779e-02 -6.226238e-02 2.402975e-02 -2.634915e-02 2.553907e-02 -3.345122e-02 3.984963e-02 -4.760089e-02 4.109392e-02 -4.158672e-02 2.751804e-02 -1.910139e-02 2.327875e-02 -3.281820e-02 4.218352e-02 -3.197787e-02 1.698489e-02 -6.000232e-03 1.755928e-02 -3.134954e-02 4.344781e-02 -5.020361e-02 4.646523e-02 -4.944589e-02 -2.543942e-02 1.290460e-03 -5.380128e-04 -8.357653e-04 1.138014e-03 5.448844e-03 -8.342303e-04 7.586528e-03 4.215324e-04 -2.927623e-03 5.087258e-04 -7.818994e-04 -1.502002e-03 2.134103e-03 -2.812006e-03 1.360930e-03 7.576306e-04 -4.735900e-03 1.123022e-03 2.559169e-03 -2.716041e-03 4.659450e-04 7.650260e-04 -9.279544e-04 1.556738e-03 1.698195e-03 -1.667704e-03 -8.033205e-04 1.072722e-03 -1.182111e-03 4.206786e-04 8.591097e-04 -8.042431e-04 5.728239e-04 -4.120582e-04 8.586207e-04 -8.336994e-04 -3.222420e-05 1.220193e-04 -1.012860e-04 -2.314145e-04 -2.105177e-04 3.591486e-04 -2.926757e-04 -3.303183e-04 5.623105e-04 -3.757389e-05 5.099931e-05 -2.717017e-04 2.219048e-04 -6.362030e-04 5.850332e-04 5.412937e-05 -1.740370e-04 1.660290e-04 -2.531008e-04 4.503506e-05 4.905304e-04 -7.105150e-04 -4.597784e-03 -5.494510e-04 3.303888e-04 4.213590e-04 1.064587e-03 1.823325e-04 7.111250e-04 1.714450e-04 4.311320e-04 -3.351563e-04 -2.425433e-04 1.329882e-05 -2.921317e-04 -6.144116e-06 5.669979e-04 -5.071346e-04 -5.140619e-04 -3.954230e-04 -7.992553e-04 3.648433e-04 1.148978e-03 1.741994e-04 1.965028e-04 -1.555321e-04 1.157103e-04 1.033816e-03 1.096726e-03 -3.869793e-04 -1.519628e-04 -5.328315e-05 -8.461102e-04 -8.353453e-05 9.934923e-05 -1.032575e-04 -8.477260e-06 1.420426e-04 3.312140e-04 -4.286311e-04 -1.442301e-04 8.849183e-05 3.184224e-04 -2.010863e-05 -2.840634e-04 2.440889e-04 3.124477e-04 -5.500765e-04 8.710698e-06 2.122642e-04 -7.944414e-05 6.771499e-05 1.021506e-04 -3.688037e-04 3.555638e-04 3.100224e-04 -7.727121e-04 3.820400e-04 2.807192e-04 -6.750125e-04 4.565897e-04 -1.125259e-04
<VARIANCE> 180
 1.866077e+00 1.214786e+00 2.821130e-01 1.964400e-01 2.126643e-01 9.724686e-02 7.831341e-02 8.249672e-02 6.093198e-02 6.421034e-02 3.734700e-02 3.595079e-02 2.731965e-02 3.664121e-02 2.664180e-02 4.390114e-02 2.631476e-02 2.752608e-02 2.663939e-02 2.138889e-02 1.912966e-02 1.948190e-02 1.643640e-02 1.486964e-02 1.340330e-02 1.206708e-02 1.278644e-02 9.758265e-03 1.015961e-02 8.801675e-03 9.186180e-03 7.815273e-03 8.432106e-03 7.374435e-03 6.961298e-03 7.043912e-03 7.609716e-03 7.312393e-03 6.406183e-03 5.383485e-03 5.245084e-03 5.290140e-03 4.781587e-03 4.514382e-03 4.383879e-03 4.202178e-03 3.821785e-03 3.740507e-03 3.765873e-03 3.977805e-03 3.883052e-03 3.739047e-03 3.515980e-03 3.122988e-03 2.946851e-03 2.843332e-03 2.859713e-03 3.027403e-03 2.879291e-03 2.748428e-03 2.031212e-02 1.682908e-02 7.964079e-03 5.602675e-03 4.756955e-03 3.796131e-03 3.576410e-03 2.943012e-03 3.031234e-03 2.987345e-03 2.674384e-03 2.444874e-03 2.368987e-03 2.456906e-03 2.356110e-03 2.449129e-03 2.219388e-03 2.117256e-03 2.223743e-03 2.003375e-03 1.981748e-03 1.920918e-03 1.823208e-03 1.685191e-03 1.650987e-03 1.603428e-03 1.532058e-03 1.360062e-03 1.405919e-03 1.392239e-03 1.253283e-03 1.218826e-03 1.131029e-03 1.120179e-03 1.066277e-03 1.060803e-03 9.974100e-04 9.372043e-04 8.628728e-04 8.409494e-04 7.952094e-04 7.698922e-04 7.704891e-04 7.503021e-04 6.680168e-04 6.814231e-04 6.137668e-04 6.064466e-04 6.216542e-04 5.863854e-04 5.761352e-04 5.481940e-04 5.514103e-04 5.051239e-04 4.911956e-04 4.999360e-04 4.814855e-04 4.621557e-04 4.188837e-04 4.040920e-04 1.251355e-02 1.134907e-02 9.092038e-03 7.622545e-03 7.005266e-03 6.859610e-03 6.225740e-03 6.075109e-03 6.084559e-03 6.499785e-03 6.157564e-03 5.829602e-03 5.907474e-03 5.714605e-03 5.961073e-03 5.782106e-03 5.506821e-03 5.353821e-03 5.391845e-03 5.276972e-03 5.147831e-03 4.960737e-03 4.941104e-03 4.669897e-03 4.435853e-03 4.572527e-03 4.199442e-03 3.810118e-03 3.949779e-03 3.952102e-03 3.511147e-03 3.382791e-03 3.255971e-03 3.255067e-03 3.001224e-03 3.098191e-03 2.750379e-03 2.692077e-03 2.546140e-03 2.444934e-03 2.255373e-03 2.288128e-03 2.200403e-03 2.202817e-03 2.022686e-03 1.922493e-03 1.876769e-03 1.809360e-03 1.734572e-03 1.691473e-03 1.649824e-03 1.572383e-03 1.541577e-03 1.494371e-03 1.377387e-03 1.413541e-03 1.381136e-03 1.379460e-03 1.308812e-03 1.221437e-03
<GCONST> -6.603405e+02
<STREAM> 2
<NUMMIXES> 2
<MIXTURE> 1 7.517006e-01
<MEAN> 1
 4.740957e+00
<VARIANCE> 1
 7.749941e-02
<GCONST> -7.196078e-01
<MIXTURE> 2 2.482990e-01
<MEAN> 0
<VARIANCE> 0
<GCONST> 0.000000e+00
<STREAM> 3
<NUMMIXES> 2
<MIXTURE> 1 7.365670e-01
<MEAN> 1
 -3.950305e-03
<VARIANCE> 1
 8.938885e-04
<GCONST> -5.182053e+00
<MIXTURE> 2 2.634329e-01
<MEAN> 0
<VARIANCE> 0
<GCONST> 0.000000e+00
<STREAM> 4
<NUMMIXES> 2
<MIXTURE> 1 7.361194e-01
<MEAN> 1
 -9.423860e-04
<VARIANCE> 1
 2.323147e-03
<GCONST> -4.226955e+00
<MIXTURE> 2 2.638804e-01
<MEAN> 0
<VARIANCE> 0
<GCONST> 0.000000e+00
<STREAM> 5
<MEAN> 15
 -3.688658e+00 -2.404869e+00 -2.316202e+00 -2.256194e+00 -2.276832e+00 1.255961e-01 4.986962e-02 4.178660e-02 3.415503e-02 3.292234e-02 1.008395e-02 9.100694e-03 1.216997e-02 1.775718e-02 6.399771e-04
<VARIANCE> 15
 1.172835e+01 3.184412e+00 2.618157e+00 2.482210e+00 2.504830e+00 9.402329e-01 3.811870e-01 3.375452e-01 3.276359e-01 3.340762e-01 5.314497e+00 2.401900e+00 2.569324e+00 2.480638e+00 2.260725e+00
<GCONST> 3.486843e+01
<TRANSP> 7
 0.000000e+00 1.000000e+00 0.000000e+00 0.000000e+00 0.000000e+00 0.000000e+00 0.000000e+00
 0.000000e+00 6.715899e-01 3.284101e-01 0.000000e+00 0.000000e+00 0.000000e+00 0.000000e+00
 0.000000e+00 0.000000e+00 6.885982e-01 3.114018e-01 0.000000e+00 0.000000e+00 0.000000e+00
 0.000000e+00 0.000000e+00 0.000000e+00 7.164145e-01 2.835856e-01 0.000000e+00 0.000000e+00
 0.000000e+00 0.000000e+00 0.000000e+00 0.000000e+00 7.470765e-01 2.529235e-01 0.000000e+00
 0.000000e+00 0.000000e+00 0.000000e+00 0.000000e+00 0.000000e+00 7.818157e-01 2.181843e-01
 0.000000e+00 0.000000e+00 0.000000e+00 0.000000e+00 0.000000e+00 0.000000e+00 0.000000e+00
<ENDHMM>
~h "E"
<BEGINHMM>
<NUMSTATES> 7
<STATE> 2
<SWEIGHTS> 5
 1.000000e+00 0.000000e+00 0.000000e+00 0.000000e+00 0.000000e+00
<STREAM> 1
<MEAN> 180
 3.776306e+00 1.373552e+00 -2.301744e-01 3.134173e-01 7.913545e-02 2.247627e-02 -3.821349e-02 -2.302383e-02 -3.320329e-02 1.342961e-01 -9.082519e-02 5.660122e-02 -1.035049e-01 3.191311e-02 -1.741800e-01 6.129711e-02 -1.871861e-02 -5.403743e-02 1.562181e-02 4.156557e-02 -6.953606e-02 1.546960e-02 -2.537494e-03 6.086795e-03 1.219572e-02 4.143206e-03 -2.526486e-02 6.867794e-02 -4.259110e-02 4.758428e-02 -2.517519e-02 5.433328e-02 -4.032502e-02 3.918762e-02 -4.041839e-02 3.609238e-02 -4.067143e-02 2.915309e-02 -2.644983e-02 2.574652e-02 -3.487689e-02 4.464045e-02 -5.262505e-02 4.945259e-02 -3.565051e-02 2.000812e-02 -2.047101e-02 2.470187e-02 -2.346923e-02 2.235288e-02 -2.495745e-02 2.785905e-02 -2.405069e-02 1.724906e-02 -1.666841e-02 2.496056e-02 -3.167755e-02 3.244533e-02 -3.012150e-02 2.647873e-02 2.422125e-03 -1.651908e-02 -1.149745e-02 -6.176902e-03 -4.815392e-03 -1.403260e-03 -2.845447e-04 3.921761e-04 4.723778e-03 5.161422e-03 3.198750e-03 1.973890e-03 2.369537e-03 -1.969398e-03 -1.338195e-03 3.594843e-03 -1.362890e-03 -1.137731e-03 8.333094e-04 -2.229041e-03 6.094560e-04 1.241643e-03 -4.267971e-05 3.001368e-03 6.231425e-04 -3.809287e-04 -9.212176e-04 -4.940123e-04 -2.247241e-03 -1.241451e-03 3.576844e-04 -6.917543e-04 5.725149e-04 2.784175e-04 -1.493576e-03 1.803604e-03 -1.619408e-03 1.100546e-03 -4.578078e-04 -9.882669e-04 1.455377e-03 3.586765e-04 -1.871567e-03 2.849404e-03 -1.981900e-03 -2.315127e-04 1.295331e-03 -9.784559e-04 3.322819e-04 3.223724e-04 -1.405477e-04 -2.423376e-04 -3.560346e-04 9.518127e-04 -5.180220e-04 -4.105013e-04 1.353004e-03 -1.191883e-03 2.281521e-04 4.466885e-04 1.546979e-02 5.864045e-03 -5.465922e-03 5.681355e-04 -2.371433e-03 -7.251735e-04 -1.234920e-03 -2.238710e-03 -1.130270e-03 -1.687360e-03 -3.131492e-03 -3.798887e-03 -4.166329e-04 1.218623e-03 6.867899e-04 2.162673e-03 1.548885e-04 4.539326e-04 1.435788e-03 -8.347647e-04 1.535404e-03 2.727506e-03 6.040053e-05 3.534726e-06 2.011452e-03 1.882206e-03 3.432558e-04 -2.582557e-04 -5.687212e-04 -1.361797e-03 -1.103400e-03 -9.884930e-05 4.372015e-04 -1.251146e-03 -3.419367e-04 -1.029261e-03 1.009399e-03 -1.311639e-04 -2.076747e-03 1.389539e-03 8.894670e-05 8.516213e-04 1.288475e-03 -1.521874e-03 -1.429049e-03 1.689621e-03 -1.647006e-04 -1.658915e-04 1.054591e-04 -7.121619e-04 3.868115e-05 1.275674e-03 -2.526475e-04 -1.385458e-03 1.048310e-03 2.278686e-04 -8.176521e-04 6.915925e-04 -1.130894e-03 4.974526e-04
<VARIANCE> 180
 4.087777e+00 1.313949e+00 2.990783e-01 1.629286e-01 1.015119e-01 7.438298e-02 5.152910e-02 5.412598e-02 5.642553e-02 4.630010e-02 3.880012e-02 2.406160e-02 4.565807e-02 3.810164e-02 3.610424e-02 2.649835e-02 2.103293e-02 1.825305e-02 1.650275e-02 1.701187e-02 1.547118e-02 1.463003e-02 1.192232e-02 1.057036e-02 1.162455e-02 9.344438e-03 1.035692e-02 8.390698e-03 8.326183e-03 7.347702e-03 8.559489e-03 8.066726e-03 8.072704e-03 7.557932e-03 6.506555e-03 6.012853e-03 5.482288e-03 5.195149e-03 4.735377e-03 4.028968e-03 3.883448e-03 4.090967e-03 3.492909e-03 3.191420e-03 2.802573e-03 2.737731e-03 2.848025e-03 2.953964e-03 2.719419e-03 2.937485e-03 2.680096e-03 2.482302e-03 2.419944e-03 1.953934e-03 1.850820e-03 2.051754e-03 2.083186e-03 2.078490e-03 2.088897e-03 1.845771e-03 6.587914e-02 3.098713e-02 1.694200e-02 8.827187e-03 6.840125e-03 5.706168e-03 5.164649e-03 4.345882e-03 4.760884e-03 4.078923e-03 4.054814e-03 3.547502e-03 3.530830e-03 3.693794e-03 3.692216e-03 3.530552e-03 3.102896e-03 2.905408e-03 2.813549e-03 2.735166e-03 2.536872e-03 2.581602e-03 2.364321e-03 2.248915e-03 2.184644e-03 1.996007e-03 2.004673e-03 1.844216e-03 1.752163e-03 1.683351e-03 1.546793e-03 1.460806e-03 1.415273e-03 1.321528e-03 1.338166e-03 1.207095e-03 1.150864e-03 1.249189e-03 1.007903e-03 1.064716e-03 9.669366e-04 8.605107e-04 7.994927e-04 8.926333e-04 6.807721e-04 7.515598e-04 7.515642e-04 6.574523e-04 6.708169e-04 6.659183e-04 6.307489e-04 6.059504e-04 5.709134e-04 5.454845e-04 4.853106e-04 4.957136e-04 5.276614e-04 5.106519e-04 4.767259e-04 4.718869e-04 5.899919e-02 3.196407e-02 2.648691e-02 1.597665e-02 1.613340e-02 1.523654e-02 1.340535e-02 1.268870e-02 1.260645e-02 1.283003e-02 1.283208e-02 1.250666e-02 1.131938e-02 1.328364e-02 1.213937e-02 1.219860e-02 1.108334e-02 9.562036e-03 9.137169e-03 8.784766e-03 8.814844e-03 8.871861e-03 8.619301e-03 8.359090e-03 8.182493e-03 7.362447e-03 7.053032e-03 5.938113e-03 6.058259e-03 5.937565e-03 5.802180e-03 5.469537e-03 5.661611e-03 4.909434e-03 4.843594e-03 4.415415e-03 4.569500e-03 4.384449e-03 3.667622e-03 3.758387e-03 3.979746e-03 3.524299e-03 3.250603e-03 3.416164e-03 2.933981e-03 2.790818e-03 2.783443e-03 2.552295e-03 2.651092e-03 2.788442e-03 2.374605e-03 2.381305e-03 2.360072e-03 2.170512e-03 2.084147e-03 2.037811e-03 2.201528e-03 1.937854e-03 1.832325e-03 1.780474e-03
<GCONST> -6.252982e+02
<STREAM> 2
<NUMMIXES> 2
<MIXTURE> 1 4.084361e-01
<MEAN> 1
 5.081900e+00
<VARIANCE> 1
 9.747471e-02
<GCONST> -4.902854e-01
<MIXTURE> 2 5.915641e-01
<MEAN> 0
<VARIANCE> 0
<GCONST> 0.000000e+00
<STREAM> 3
<NUMMIXES> 2
<MIXTURE> 1 3.843591e-01
<MEAN> 1
 -4.309304e-03
<VARIANCE> 1
 9.506351e-04
<GCONST> -5.120503e+00
<MIXTURE> 2 6.156411e-01
<MEAN> 0
<VARIANCE> 0
<GCONST> 0.000000e+00
<STREAM> 4
<NUMMIXES> 2
<MIXTURE> 1 3.834559e-01
<MEAN> 1
 1.922269e-03
<VARIANCE> 1
 3.411738e-03
<GCONST> -3.842656e+00
<MIXTURE> 2 6.165441e-01
<MEAN> 0
<VARIANCE> 0
<GCONST> 0.000000e+00
<STREAM> 5
<MEAN> 15
 -1.990629e+00 -1.274578e+00 -1.229146e+00 -1.239179e+00 -1.235096e+00 -2.059146e-03 8.338046e-03 2.106083e-02 1.399228e-02 2.051009e-02 7.583852e-03 -2.372442e-02 2.771550e-03 8.090422e-03 -1.357131e-02
<VARIANCE> 15
 1.036578e+01 3.198910e+00 2.827376e+00 2.777147e+00 2.800250e+00 9.416535e-01 3.924171e-01 3.607310e-01 3.508961e-01 3.412126e-01 5.230949e+00 2.366158e+00 2.866383e+00 2.492676e+00 2.541863e+00
<GCONST> 3.543744e+01
<STATE> 3
<SWEIGHTS> 5
 1.000000e+00 0.000000e+00 0.000000e+00 0.000000e+00 0.000000e+00
<STREAM> 1
<MEAN> 180
 3.851253e+00 1.358910e+00 -2.652629e-01 3.074399e-01 6.561910e-02 2.442373e-02 -3.408858e-02 -2.774930e-02 -1.831174e-02 1.512155e-01 -9.115930e-02 5.269895e-02 -1.077878e-01 3.074811e-02 -1.781358e-01 6.719363e-02 -2.284874e-02 -5.485476e-02 1.654205e-02 3.781329e-02 -6.727115e-02 1.843631e-02 -2.515774e-03 1.220621e-02 1.182162e-02 7.405810e-03 -2.437182e-02 6.394202e-02 -4.438336e-02 4.789110e-02 -3.031934e-02 5.338233e-02 -3.706730e-02 4.091494e-02 -4.585553e-02 3.961506e-02 -4.064562e-02 2.870106e-02 -2.961881e-02 2.744129e-02 -3.429969e-02 4.591177e-02 -5.482329e-02 5.428442e-02 -4.106210e-02 2.170021e-02 -1.771513e-02 2.138726e-02 -2.233699e-02 2.338055e-02 -2.595400e-02 2.776327e-02 -2.420017e-02 1.851061e-02 -1.774355e-02 2.418450e-02 -2.926773e-02 3.060954e-02 -3.045652e-02 2.791395e-02 2.409320e-03 -1.107717e-02 -6.949611e-03 -4.156108e-03 -1.018091e-03 1.992079e-03 -7.607167e-04 -4.211121e-04 2.441681e-03 2.280397e-03 5.464676e-04 -9.998927e-04 7.159791e-04 -4.739409e-04 -7.340735e-04 3.491069e-03 -7.021365e-04 -3.564278e-05 4.538816e-04 -2.623509e-03 6.759973e-04 1.989539e-03 -6.664211e-04 2.496165e-03 1.431107e-03 4.897195e-04 -8.818451e-04 1.187521e-04 -7.393971e-04 -1.031253e-03 -2.375733e-04 -1.676994e-03 3.950964e-04 -1.132808e-04 -1.569421e-03 6.280379e-04 -1.128691e-04 3.465869e-04 -1.227324e-03 4.313547e-04 3.567458e-04 1.052167e-03 -1.961268e-04 7.686457e-04 -1.817485e-03 1.140748e-03 3.851143e-04 -1.028507e-03 4.494357e-04 1.780662e-04 1.128161e-04 -1.002127e-04 -8.461691e-05 3.347893e-04 -4.112383e-04 -2.517854e-04 1.090306e-03 -8.659037e-04 -3.697478e-04 9.727438e-04 -2.898964e-03 3.929371e-03 4.532634e-03 2.958204e-03 6.846053e-03 3.895924e-03 -3.918739e-05 1.234067e-03 -1.233392e-03 -2.284334e-03 -1.635713e-03 -1.389331e-03 -1.193043e-03 1.845135e-03 -1.993094e-04 -1.567302e-03 1.436163e-03 5.868914e-04 -1.646167e-03 -6.980515e-04 -4.812285e-04 1.727711e-05 -1.102011e-03 -1.071062e-03 -6.179184e-04 -6.454614e-04 2.907843e-04 1.451908e-03 2.704182e-03 1.438665e-03 -1.077882e-03 -1.033828e-03 -3.985944e-04 6.315725e-05 -2.157009e-04 -1.199900e-03 1.132221e-03 -6.402422e-04 8.746050e-05 1.339429e-03 -8.698245e-04 4.237712e-04 1.056977e-03 -2.048093e-03 1.260190e-03 9.914705e-04 -1.071483e-03 -4.572760e-04 2.339978e-04 4.067245e-04 5.258810e-04 -6.757459e-04 4.484004e-05 7.572743e-04 -9.619137e-04 -1.958057e-04 6.599365e-04 -2.803471e-04 1.538888e-04 3.561238e-04
<VARIANCE> 180
 4.027539e+00 1.296496e+00 3.299235e-01 1.580164e-01 9.279575e-02 7.272433e-02 4.926096e-02 5.242505e-02 5.852774e-02 4.676545e-02 4.161667e-02 2.374136e-02 4.181363e-02 3.800426e-02 3.584132e-02 2.714594e-02 2.193316e-02 1.879730e-02 1.671613e-02 1.728538e-02 1.546672e-02 1.504754e-02 1.122264e-02 9.995026e-03 1.092823e-02 9.372878e-03 1.002065e-02 8.415846e-03 8.344208e-03 7.377082e-03 7.971512e-03 7.807196e-03 8.456575e-03 8.109959e-03 6.424413e-03 5.918517e-03 5.491659e-03 4.979955e-03 4.788417e-03 4.090914e-03 3.965606e-03 4.034664e-03 3.830997e-03 3.219218e-03 2.741550e-03 2.638533e-03 2.861840e-03 2.938798e-03 2.593443e-03 2.631451e-03 2.539558e-03 2.464752e-03 2.295667e-03 1.924098e-03 1.838852e-03 1.918831e-03 2.012320e-03 2.067164e-03 2.025886e-03 1.831602e-03 7.202964e-02 3.310801e-02 1.596874e-02 8.666848e-03 6.707306e-03 5.551944e-03 4.955115e-03 4.281217e-03 4.851707e-03 4.468989e-03 3.917142e-03 3.698770e-03 3.510451e-03 3.719681e-03 3.626434e-03 3.636660e-03 3.200983e-03 2.909834e-03 2.587412e-03 2.824283e-03 2.648333e-03 2.465039e-03 2.334455e-03 2.280113e-03 2.207906e-03 2.027524e-03 1.987594e-03 1.868835e-03 1.660574e-03 1.588571e-03 1.588753e-03 1.510499e-03 1.465201e-03 1.347655e-03 1.298468e-03 1.206507e-03 1.128125e-03 1.145826e-03 1.010876e-03 9.868401e-04 9.749863e-04 9.019703e-04 8.040888e-04 8.643606e-04 7.266402e-04 7.696468e-04 7.550492e-04 6.960767e-04 7.049405e-04 6.624790e-04 6.324577e-04 5.956664e-04 5.702850e-04 5.446991e-04 4.859192e-04 4.764712e-04 5.202538e-04 4.822955e-04 4.639248e-04 4.686450e-04 4.278533e-02 2.770097e-02 2.606229e-02 1.707233e-02 1.564227e-02 1.586087e-02 1.419379e-02 1.374058e-02 1.338163e-02 1.357108e-02 1.284995e-02 1.230830e-02 1.156154e-02 1.269096e-02 1.191741e-02 1.192082e-02 1.190434e-02 1.003925e-02 9.719136e-03 9.444350e-03 9.498368e-03 9.088514e-03 8.295204e-03 8.268983e-03 7.749168e-03 7.313396e-03 7.123314e-03 6.234849e-03 6.303450e-03 6.112567e-03 5.502129e-03 5.538728e-03 5.453180e-03 4.982927e-03 4.660481e-03 4.515650e-03 4.505106e-03 4.215697e-03 3.777705e-03 3.768241e-03 3.742736e-03 3.494581e-03 3.220064e-03 3.414436e-03 2.846259e-03 2.913825e-03 2.875842e-03 2.736771e-03 2.877753e-03 2.720063e-03 2.518459e-03 2.486208e-03 2.256109e-03 2.162503e-03 2.107151e-03 2.033674e-03 2.079594e-03 2.034793e-03 1.909057e-03 1.833007e-03
<GCONST> -6.256848e+02
<STREAM> 2
<NUMMIXES> 2
<MIXTURE> 1 4.179060e-01
<MEAN> 1
 5.099965e+00
<VARIANCE> 1
 9.567853e-02
<GCONST> -5.088844e-01
<MIXTURE> 2 5.820947e-01
<MEAN> 0
<VARIANCE> 0
<GCONST> 0.000000e+00
<STREAM> 3
<NUMMIXES> 2
<MIXTURE> 1 3.871471e-01
<MEAN> 1
 -3.494076e-03
<VARIANCE> 1
 9.394652e-04
<GCONST> -5.132322e+00
<MIXTURE> 2 6.128536e-01
<MEAN> 0
<VARIANCE> 0
<GCONST> 0.000000e+00
<STREAM> 4
<NUMMIXES> 2
<MIXTURE> 1 3.867106e-01
<MEAN> 1
 9.703522e-04
<VARIANCE> 1
 3.689238e-03
<GCONST> -3.764458e+00
<MIXTURE> 2 6.132901e-01
<MEAN> 0
<VARIANCE> 0
<GCONST> 0.000000e+00
<STREAM> 5
<MEAN> 15
 -1.972632e+00 -1.291628e+00 -1.221491e+00 -1.251370e+00 -1.240899e+00 4.323421e-02 4.668720e-03 1.610042e-02 9.240363e-03 1.386624e-02 6.735894e-03 -1.539072e-03 -1.809416e-02 -1.751796e-02 -6.909936e-03
<VARIANCE> 15
 1.024467e+01 3.180493e+00 2.700937e+00 2.745770e+00 2.710091e+00 9.319961e-01 4.228536e-01 3.842552e-01 3.534123e-01 3.476713e-01 5.364982e+00 2.561471e+00 3.016483e+00 2.690763e+00 2.456812e+00
<GCONST> 3.568163e+01
<STATE> 4
<SWEIGHTS> 5
 1.000000e+00 0.000000e+00 0.000000e+00 0.000000e+00 0.000000e+00
<STREAM> 1
<MEAN> 180
 3.901793e+00 1.362223e+00 -2.539485e-01 3.087710e-01 7.120974e-02 4.384088e-02 -2.728719e-02 -2.004321e-02 -1.086064e-02 1.612394e-01 -8.916937e-02 4.707048e-02 -1.160645e-01 3.535075e-02 -1.774780e-01 6.777992e-02 -2.307201e-02 -5.227748e-02 1.149647e-02 3.434905e-02 -6.891221e-02 2.099274e-02 -3.831784e-03 1.589570e-02 1.564114e-02 9.476466e-03 -3.034030e-02 6.484458e-02 -3.872884e-02 4.498511e-02 -3.140384e-02 5.164644e-02 -4.015891e-02 4.432015e-02 -4.999642e-02 4.188633e-02 -3.946788e-02 2.615968e-02 -2.980343e-02 2.862996e-02 -3.639392e-02 4.932856e-02 -5.673509e-02 5.532178e-02 -4.328383e-02 2.487331e-02 -1.801504e-02 1.807133e-02 -2.091479e-02 2.539397e-02 -2.678399e-02 2.619293e-02 -2.262835e-02 1.939739e-02 -1.994708e-02 2.410741e-02 -2.658234e-02 2.845667e-02 -3.065985e-02 2.939191e-02 -3.903874e-03 -4.995415e-03 -2.535773e-03 -1.684139e-03 4.399216e-03 4.769323e-03 -2.194892e-05 1.964295e-03 1.718380e-03 2.921838e-04 -3.437490e-04 -2.998315e-04 3.715081e-04 6.461957e-04 -1.474180e-05 1.588426e-03 -7.261992e-04 7.722328e-04 1.889570e-04 -2.280501e-03 -3.315072e-05 4.687809e-04 -1.309600e-03 7.684257e-04 1.294023e-03 -1.554048e-04 -1.692231e-03 1.630164e-03 1.292427e-03 -1.144010e-03 -4.449242e-04 -1.307784e-03 -6.336583e-05 -1.140813e-04 -4.521304e-04 -3.698479e-04 2.263142e-04 1.326693e-04 2.519338e-04 7.361784e-04 -1.066531e-03 1.141760e-03 4.703683e-04 -1.064966e-03 4.604954e-05 1.026804e-03 -3.758962e-04 -6.576317e-04 2.617873e-05 8.323284e-04 -1.193445e-04 -6.048435e-04 3.278881e-04 6.145434e-04 -8.893015e-04 -3.951337e-04 1.193795e-03 -4.819862e-04 -5.727859e-04 8.970388e-04 -3.592387e-03 2.514922e-03 1.351681e-03 -4.290730e-04 -1.128994e-04 -9.859467e-04 5.816371e-04 2.217455e-03 6.725457e-04 -6.528607e-04 -7.627473e-04 8.216507e-04 -8.086966e-04 5.796721e-04 4.189076e-04 -1.340018e-03 -1.935469e-03 -6.995801e-04 7.894594e-04 1.502153e-03 -4.158710e-04 -2.908194e-03 -4.422928e-04 -1.236421e-03 3.641523e-04 -4.304506e-04 -8.829620e-04 3.243282e-04 6.536466e-04 -3.655705e-04 3.759601e-04 1.523496e-03 2.457296e-04 5.086935e-04 1.600833e-03 -7.300057e-05 -8.450562e-04 2.816034e-04 1.968148e-03 -6.758217e-04 -1.141806e-03 -3.296622e-04 -5.758494e-04 -1.996094e-04 1.599671e-03 -6.363291e-04 -2.604855e-04 5.068062e-04 -3.113364e-04 3.384232e-04 -9.762051e-04 1.422342e-04 5.106023e-04 -3.594818e-04 2.447072e-04 -7.671199e-05 -6.251251e-04 8.780978e-04 -1.516217e-04 -8.048721e-04
<VARIANCE> 180
 4.158209e+00 1.284472e+00 3.223292e-01 1.642195e-01 8.928323e-02 6.785797e-02 4.810372e-02 5.015604e-02 5.903613e-02 4.917780e-02 4.445060e-02 2.541460e-02 3.876716e-02 3.876880e-02 3.573404e-02 2.878421e-02 2.250807e-02 2.009048e-02 1.661881e-02 1.818192e-02 1.502001e-02 1.556190e-02 1.144249e-02 1.007875e-02 9.921469e-03 9.485560e-03 9.592692e-03 8.535250e-03 8.068570e-03 6.950676e-03 7.671566e-03 7.696551e-03 8.628154e-03 8.415132e-03 6.459564e-03 5.761042e-03 5.440251e-03 4.808083e-03 4.815288e-03 4.016116e-03 4.123213e-03 4.139083e-03 3.960561e-03 3.340707e-03 2.804407e-03 2.802773e-03 2.790584e-03 2.869588e-03 2.559796e-03 2.545573e-03 2.437967e-03 2.454381e-03 2.214871e-03 1.934271e-03 1.816116e-03 1.819869e-03 2.039456e-03 2.076826e-03 1.975898e-03 1.824101e-03 6.625985e-02 3.206916e-02 1.582872e-02 8.714454e-03 6.523310e-03 5.870334e-03 5.078544e-03 4.473211e-03 5.003431e-03 4.372620e-03 3.924682e-03 3.674296e-03 3.588497e-03 3.477883e-03 3.573616e-03 3.461893e-03 3.332133e-03 2.922253e-03 2.727063e-03 2.882973e-03 2.758955e-03 2.428555e-03 2.325329e-03 2.290902e-03 2.181055e-03 1.991049e-03 1.969485e-03 1.862379e-03 1.661798e-03 1.595890e-03 1.518273e-03 1.484905e-03 1.416416e-03 1.338421e-03 1.258603e-03 1.147567e-03 1.163114e-03 1.131279e-03 1.031489e-03 1.027682e-03 9.253868e-04 9.289469e-04 8.205330e-04 8.417337e-04 7.695407e-04 7.675337e-04 7.193724e-04 7.421515e-04 6.898122e-04 6.238614e-04 6.363104e-04 5.769876e-04 5.202966e-04 5.390217e-04 4.694410e-04 4.731905e-04 4.920541e-04 4.748118e-04 4.685765e-04 4.713453e-04 4.968908e-02 2.860841e-02 2.400017e-02 1.760753e-02 1.657496e-02 1.622990e-02 1.479797e-02 1.421901e-02 1.462732e-02 1.426375e-02 1.317523e-02 1.237615e-02 1.292744e-02 1.259779e-02 1.284350e-02 1.200811e-02 1.238384e-02 1.063770e-02 1.031178e-02 9.898828e-03 9.924742e-03 9.286373e-03 8.716523e-03 8.427928e-03 7.754583e-03 7.663353e-03 7.819529e-03 6.678461e-03 6.698802e-03 6.013223e-03 5.614561e-03 5.850284e-03 5.620748e-03 5.216181e-03 4.876873e-03 4.584305e-03 4.476311e-03 4.138818e-03 3.913071e-03 3.875929e-03 3.566485e-03 3.651251e-03 3.255964e-03 3.531373e-03 3.014146e-03 3.085776e-03 2.978199e-03 2.872068e-03 2.995627e-03 2.730204e-03 2.571174e-03 2.510567e-03 2.333944e-03 2.154073e-03 2.217031e-03 2.132410e-03 2.121155e-03 2.121278e-03 1.953277e-03 1.815894e-03
<GCONST> -6.241638e+02
<STREAM> 2
<NUMMIXES> 2
<MIXTURE> 1 4.311018e-01
<MEAN> 1
 5.111860e+00
<VARIANCE> 1
 8.831963e-02
<GCONST> -5.889158e-01
<MIXTURE> 2 5.688972e-01
<MEAN> 0
<VARIANCE> 0
<GCONST> 0.000000e+00
<STREAM> 3
<NUMMIXES> 2
<MIXTURE> 1 4.000098e-01
<MEAN> 1
 -3.427708e-03
<VARIANCE> 1
 1.066369e-03
<GCONST> -5.005619e+00
<MIXTURE> 2 5.999895e-01
<MEAN> 0
<VARIANCE> 0
<GCONST> 0.000000e+00
<STREAM> 4
<NUMMIXES> 2
<MIXTURE> 1 3.994112e-01
<MEAN> 1
 -1.504411e-03
<VARIANCE> 1
 4.266032e-03
<GCONST> -3.619194e+00
<MIXTURE> 2 6.005882e-01
<MEAN> 0
<VARIANCE> 0
<GCONST> 0.000000e+00
<STREAM> 5
<MEAN> 15
 -1.893156e+00 -1.305634e+00 -1.251883e+00 -1.294299e+00 -1.270909e+00 3.986478e-02 1.289444e-02 2.157617e-04 -4.181011e-03 8.546201e-03 -3.188523e-02 7.023531e-03 -1.125250e-02 -1.396311e-02 -7.765942e-04
<VARIANCE> 15
 8.963126e+00 3.099725e+00 2.698531e+00 2.819458e+00 2.689575e+00 9.241710e-01 4.215376e-01 3.680595e-01 3.819995e-01 3.514222e-01 5.224724e+00 2.830647e+00 3.198072e+00 2.868889e+00 2.657103e+00
<GCONST> 3.584853e+01
<STATE> 5
<SWEIGHTS> 5
 1.000000e+00 0.000000e+00 0.000000e+00 0.000000e+00 0.000000e+00
<STREAM> 1
<MEAN> 180
 4.019604e+00 1.395432e+00 -2.577904e-01 3.255948e-01 7.689454e-02 6.091006e-02 -1.983829e-02 -5.905805e-03 -2.548434e-03 1.681132e-01 -8.793218e-02 4.887878e-02 -1.219138e-01 4.567353e-02 -1.785138e-01 6.833143e-02 -2.121665e-02 -5.486825e-02 1.095165e-02 3.707296e-02 -7.227622e-02 2.082351e-02 -5.399112e-03 1.607312e-02 1.962795e-02 7.690499e-03 -4.000531e-02 6.764933e-02 -3.439765e-02 3.981878e-02 -3.214589e-02 5.204197e-02 -4.547720e-02 4.954922e-02 -5.097680e-02 4.293969e-02 -3.973146e-02 2.490391e-02 -2.588335e-02 2.877323e-02 -4.066321e-02 5.376095e-02 -5.940017e-02 5.474406e-02 -4.315997e-02 2.665120e-02 -1.906599e-02 1.735468e-02 -2.136273e-02 2.741736e-02 -2.795474e-02 2.474334e-02 -2.051971e-02 1.908226e-02 -2.128263e-02 2.486163e-02 -2.612581e-02 2.805105e-02 -3.057132e-02 2.892861e-02 4.725912e-03 4.371892e-03 -2.669134e-03 8.308940e-06 2.594232e-03 2.234109e-03 3.006727e-04 3.450132e-03 6.181512e-04 -1.500361e-03 7.238528e-05 9.189391e-04 -5.832876e-04 1.000616e-03 8.892739e-04 3.466135e-04 -8.790138e-04 -4.185964e-04 9.214234e-04 1.038403e-05 -1.328278e-04 -1.030698e-04 -8.658437e-04 -2.199977e-03 1.269369e-03 -5.347580e-04 -2.133248e-03 8.802913e-04 1.721453e-04 -8.015532e-04 -9.145365e-04 1.395214e-04 5.990128e-04 -2.037332e-05 1.554854e-03 -9.775552e-04 1.195693e-04 1.859033e-04 5.315769e-04 6.716729e-04 -1.427645e-03 2.710271e-04 5.775295e-04 -9.271906e-04 7.853205e-04 7.888686e-05 -5.378578e-05 5.918697e-04 -1.224120e-03 9.917356e-04 -4.693534e-04 -1.254478e-04 3.586355e-04 -7.024358e-05 -2.312289e-04 1.755241e-04 -1.436457e-04 4.976329e-04 -3.394941e-04 -1.938844e-04 9.539935e-03 7.585837e-03 5.388584e-04 1.484264e-03 -3.444725e-03 -2.814492e-03 1.063640e-03 4.715999e-04 -2.449770e-03 -1.725059e-03 6.265294e-04 -1.109065e-03 -1.987703e-03 -4.670880e-04 1.158019e-03 -6.181427e-04 7.385197e-04 -3.298582e-04 -7.612508e-04 2.109002e-03 6.247523e-04 1.825901e-03 9.990889e-04 -2.849319e-03 -1.003132e-03 3.342618e-04 3.391518e-05 -1.600670e-03 -1.458666e-03 5.873873e-04 2.831119e-04 1.920828e-05 6.316074e-04 2.647242e-04 9.884301e-04 9.767341e-05 2.353103e-04 -8.183728e-04 -7.647789e-04 6.788319e-04 -1.516590e-04 -1.166831e-03 8.825733e-04 2.549743e-04 -3.560365e-04 -3.917124e-04 4.607844e-04 9.805817e-04 -1.120394e-03 -3.910218e-06 7.111114e-05 5.712195e-04 -8.405119e-05 -8.243413e-04 9.175582e-04 4.484724e-04 -1.028730e-03 7.432044e-04 2.909180e-04 -1.019084e-03
<VARIANCE> 180
 4.208395e+00 1.260450e+00 3.343360e-01 1.723093e-01 9.009484e-02 6.218152e-02 4.824131e-02 5.106484e-02 5.781696e-02 4.809475e-02 4.640619e-02 2.707730e-02 3.497433e-02 3.768427e-02 3.508919e-02 2.989554e-02 2.293066e-02 2.073346e-02 1.618752e-02 1.915310e-02 1.468189e-02 1.615171e-02 1.179868e-02 1.045632e-02 9.163197e-03 9.375622e-03 9.341693e-03 8.350087e-03 7.559285e-03 6.745678e-03 7.586298e-03 7.635918e-03 8.242935e-03 7.883176e-03 6.206104e-03 5.519739e-03 5.160828e-03 4.675170e-03 4.664721e-03 3.727766e-03 3.962901e-03 4.065166e-03 3.957964e-03 3.607072e-03 3.034400e-03 2.960174e-03 2.741876e-03 2.916162e-03 2.644344e-03 2.678593e-03 2.445610e-03 2.341678e-03 2.110735e-03 1.857563e-03 1.729285e-03 1.828645e-03 2.047885e-03 2.093954e-03 2.012005e-03 1.896726e-03 8.311224e-02 3.692013e-02 1.927163e-02 9.812947e-03 7.023859e-03 6.363169e-03 5.469248e-03 4.786716e-03 5.243279e-03 4.573445e-03 4.294361e-03 3.721291e-03 3.946799e-03 3.645176e-03 3.768465e-03 3.461149e-03 3.426573e-03 2.993313e-03 2.950119e-03 2.922839e-03 2.776264e-03 2.563197e-03 2.428489e-03 2.283202e-03 2.121134e-03 2.181807e-03 2.092378e-03 1.861333e-03 1.666628e-03 1.571652e-03 1.503527e-03 1.470439e-03 1.459156e-03 1.347154e-03 1.260147e-03 1.124818e-03 1.195009e-03 1.108694e-03 1.052618e-03 1.016084e-03 9.207557e-04 9.202294e-04 8.216274e-04 8.406084e-04 8.109048e-04 7.688052e-04 7.187453e-04 7.580635e-04 6.764179e-04 6.224426e-04 6.290785e-04 5.683267e-04 5.447363e-04 5.448223e-04 4.888361e-04 5.006077e-04 5.126272e-04 4.923191e-04 4.851782e-04 4.637567e-04 6.603707e-02 3.351656e-02 2.997089e-02 1.857719e-02 1.806766e-02 1.814658e-02 1.597231e-02 1.555513e-02 1.674523e-02 1.541085e-02 1.468325e-02 1.359001e-02 1.427359e-02 1.331457e-02 1.332573e-02 1.283305e-02 1.349666e-02 1.220758e-02 1.164522e-02 1.108832e-02 1.110936e-02 1.029275e-02 9.422493e-03 8.919543e-03 8.155966e-03 8.341521e-03 8.062944e-03 7.277862e-03 6.857974e-03 6.581827e-03 6.215632e-03 6.361113e-03 5.853978e-03 5.401567e-03 5.388108e-03 4.792012e-03 4.901128e-03 4.425616e-03 4.214277e-03 3.987857e-03 3.683445e-03 3.982143e-03 3.475518e-03 3.910123e-03 3.520028e-03 3.334387e-03 3.083694e-03 3.198801e-03 3.018150e-03 2.747831e-03 2.491077e-03 2.525790e-03 2.335075e-03 2.194907e-03 2.266870e-03 2.387848e-03 2.280101e-03 2.278864e-03 2.140028e-03 1.934689e-03
<GCONST> -6.178456e+02
<STREAM> 2
<NUMMIXES> 2
<MIXTURE> 1 4.630482e-01
<MEAN> 1
 5.129662e+00
<VARIANCE> 1
 8.068897e-02
<GCONST> -6.792765e-01
<MIXTURE> 2 5.369491e-01
<MEAN> 0
<VARIANCE> 0
<GCONST> 0.000000e+00
<STREAM> 3
<NUMMIXES> 2
<MIXTURE> 1 4.293913e-01
<MEAN> 1
 -2.163326e-03
<VARIANCE> 1
 1.266620e-03
<GCONST> -4.833527e+00
<MIXTURE> 2 5.706064e-01
<MEAN> 0
<VARIANCE> 0
<GCONST> 0.000000e+00
<STREAM> 4
<NUMMIXES> 2
<MIXTURE> 1 4.285790e-01
<MEAN> 1
 2.630780e-04
<VARIANCE> 1
 4.980655e-03
<GCONST> -3.464317e+00
<MIXTURE> 2 5.714187e-01
<MEAN> 0
<VARIANCE> 0
<GCONST> 0.000000e+00
<STREAM> 5
<MEAN> 15
 -1.945202e+00 -1.360498e+00 -1.343989e+00 -1.391173e+00 -1.351486e+00 -2.630914e-03 8.583245e-03 -7.369317e-03 -1.573796e-02 -5.334991e-03 -5.393856e-03 4.213488e-03 6.091835e-03 -1.542612e-04 -1.396619e-02
<VARIANCE> 15
 8.289985e+00 2.950484e+00 2.762000e+00 2.969236e+00 2.749296e+00 9.056478e-01 4.125068e-01 3.883764e-01 4.375538e-01 3.782519e-01 5.148813e+00 3.105602e+00 3.332605e+00 3.402608e+00 3.186980e+00
<GCONST> 3.651098e+01
<STATE> 6
<SWEIGHTS> 5
 1.000000e+00 0.000000e+00 0.000000e+00 0.000000e+00 0.000000e+00
<STREAM> 1
<MEAN> 180
 4.342766e+00 1.516320e+00 -2.801704e-01 3.795379e-01 6.526484e-02 5.886130e-02 -2.546261e-02 -5.059175e-03 2.265353e-02 1.847310e-01 -8.729634e-02 5.292322e-02 -1.212363e-01 7.464924e-02 -1.999782e-01 6.640226e-02 -2.559493e-03 -7.545314e-02 1.684123e-02 5.268767e-02 -7.632230e-02 1.935271e-02 -1.122862e-02 1.945276e-02 1.755957e-02 1.259131e-03 -4.027380e-02 6.568720e-02 -3.969106e-02 3.981135e-02 -3.849716e-02 5.687651e-02 -5.286044e-02 5.734430e-02 -5.239396e-02 4.046337e-02 -3.513930e-02 2.136678e-02 -2.450750e-02 3.182589e-02 -4.644821e-02 6.078518e-02 -6.629837e-02 5.847172e-02 -4.467003e-02 2.575935e-02 -1.718920e-02 1.855943e-02 -2.404290e-02 2.822489e-02 -2.721429e-02 2.210756e-02 -1.622369e-02 1.677270e-02 -2.244396e-02 2.857550e-02 -2.998914e-02 2.999873e-02 -2.924510e-02 2.583610e-02 4.913558e-03 1.151939e-02 8.538730e-03 4.123319e-03 5.190745e-04 -6.260057e-04 -1.065682e-04 1.384049e-03 -3.837860e-03 -5.377013e-03 2.157882e-03 2.275930e-05 -4.766922e-04 1.493981e-03 2.247402e-03 -4.760017e-04 6.749350e-04 3.658921e-04 -2.117291e-04 1.136358e-03 1.175006e-03 1.537432e-03 2.159740e-04 -4.355944e-03 -1.732859e-04 1.872643e-04 -1.296744e-03 2.050782e-05 -1.102907e-03 1.110817e-03 -3.179682e-04 3.099793e-04 8.472709e-04 -1.347021e-03 2.104868e-03 -1.919120e-03 7.401279e-04 2.663963e-04 -5.586232e-04 9.901606e-04 -9.084266e-04 -3.445483e-04 1.423232e-03 -1.729234e-03 9.969034e-04 5.872655e-04 -1.047623e-03 1.319993e-03 -1.040688e-03 2.462939e-04 -4.150319e-04 3.144353e-04 2.984685e-04 -2.666689e-04 5.717120e-05 5.306467e-04 -1.345421e-03 1.385759e-03 -2.111904e-04 -7.568182e-04 7.672098e-03 7.683195e-04 -3.802846e-03 1.176691e-03 -1.534276e-03 -5.808140e-04 -1.404908e-03 -1.780886e-03 -2.962100e-03 -3.359403e-03 9.469571e-04 -2.217689e-03 -1.347681e-03 -1.318163e-03 -1.246836e-03 -6.344116e-04 -3.129577e-06 6.226424e-04 -5.171269e-04 6.721531e-04 1.152235e-03 1.448332e-03 1.617594e-03 4.554827e-04 -1.080364e-03 6.930322e-04 1.222529e-04 -1.785454e-04 5.150610e-04 1.891428e-03 1.269049e-03 -5.205391e-05 -2.375322e-04 -1.784405e-03 -1.970297e-04 -6.695284e-04 6.290544e-04 9.548576e-04 -8.637905e-04 2.578388e-04 8.421328e-05 -1.519406e-05 7.897646e-04 -1.148351e-03 1.989824e-04 1.184362e-03 -1.814907e-03 4.432773e-04 6.242233e-04 -6.499781e-04 1.205465e-04 2.492586e-05 -1.243819e-04 1.942416e-04 6.009345e-05 -3.580867e-04 -5.113646e-05 -9.623976e-05 2.805478e-04 -9.862172e-06
<VARIANCE> 180
 3.953576e+00 1.230535e+00 3.631529e-01 1.633039e-01 8.904845e-02 5.790385e-02 4.832573e-02 5.389704e-02 5.485374e-02 4.343461e-02 4.314944e-02 2.828402e-02 3.142741e-02 3.438101e-02 3.359395e-02 2.950869e-02 2.510485e-02 2.186735e-02 1.554369e-02 1.803515e-02 1.343830e-02 1.561215e-02 1.165667e-02 1.146701e-02 8.840010e-03 9.115173e-03 9.067254e-03 8.359249e-03 7.188548e-03 6.445461e-03 7.244561e-03 7.590537e-03 8.221189e-03 7.492659e-03 6.021033e-03 5.291929e-03 5.020984e-03 4.317014e-03 4.295719e-03 3.435352e-03 3.667301e-03 4.239060e-03 4.243633e-03 3.847385e-03 3.302141e-03 3.105908e-03 2.700164e-03 2.795538e-03 2.792317e-03 2.818273e-03 2.594803e-03 2.256703e-03 2.194886e-03 1.840285e-03 1.738541e-03 1.997273e-03 2.096752e-03 2.091952e-03 2.017779e-03 1.880355e-03 1.102868e-01 3.990779e-02 2.351267e-02 1.132884e-02 8.660896e-03 7.118376e-03 5.840132e-03 5.414458e-03 5.649476e-03 5.124591e-03 4.529363e-03 4.166360e-03 4.225968e-03 3.813133e-03 3.878732e-03 3.524496e-03 3.561919e-03 3.340314e-03 2.941789e-03 2.879912e-03 2.708075e-03 2.633784e-03 2.439278e-03 2.204298e-03 2.030846e-03 2.160368e-03 1.905274e-03 1.856765e-03 1.591553e-03 1.616701e-03 1.504578e-03 1.491625e-03 1.452455e-03 1.314741e-03 1.282119e-03 1.162095e-03 1.185753e-03 1.046841e-03 1.034253e-03 9.899214e-04 8.935246e-04 8.913024e-04 8.579056e-04 8.976505e-04 8.459204e-04 7.931513e-04 6.916095e-04 7.337739e-04 6.740347e-04 6.281279e-04 6.099356e-04 5.612578e-04 5.834703e-04 5.448922e-04 4.904973e-04 5.464011e-04 5.340141e-04 5.093295e-04 5.058533e-04 4.596133e-04 9.708918e-02 4.704814e-02 3.837869e-02 2.196724e-02 2.182978e-02 2.069486e-02 1.886678e-02 1.731195e-02 2.080760e-02 1.717732e-02 1.577167e-02 1.602696e-02 1.596752e-02 1.423057e-02 1.479758e-02 1.315037e-02 1.457495e-02 1.350993e-02 1.247854e-02 1.118031e-02 1.184528e-02 1.094891e-02 1.002637e-02 9.769583e-03 8.808404e-03 9.109188e-03 7.956144e-03 8.293743e-03 7.128404e-03 6.987629e-03 6.780494e-03 6.580683e-03 6.057114e-03 5.708240e-03 5.862728e-03 5.311240e-03 5.239898e-03 4.709688e-03 4.641369e-03 4.044301e-03 4.027027e-03 4.270377e-03 3.699486e-03 4.212756e-03 4.150978e-03 3.530156e-03 3.368460e-03 3.320867e-03 3.045359e-03 2.777661e-03 2.722495e-03 2.544520e-03 2.659268e-03 2.353656e-03 2.404772e-03 2.664685e-03 2.594830e-03 2.514817e-03 2.441975e-03 2.144645e-03
<GCONST> -6.109478e+02
<STREAM> 2
<NUMMIXES> 2
<MIXTURE> 1 5.389832e-01
<MEAN> 1
 5.177052e+00
<VARIANCE> 1
 7.356382e-02
<GCONST> -7.717249e-01
<MIXTURE> 2 4.610187e-01
<MEAN> 0
<VARIANCE> 0
<GCONST> 0.000000e+00
<STREAM> 3
<NUMMIXES> 2
<MIXTURE> 1 4.906115e-01
<MEAN> 1
 -1.412977e-03
<VARIANCE> 1
 1.836412e-03
<GCONST> -4.462065e+00
<MIXTURE> 2 5.093906e-01
<MEAN> 0
<VARIANCE> 0
<GCONST> 0.000000e+00
<STREAM> 4
<NUMMIXES> 2
<MIXTURE> 1 4.888637e-01
<MEAN> 1
 -9.703954e-04
<VARIANCE> 1
 5.364567e-03
<GCONST> -3.390063e+00
<MIXTURE> 2 5.111384e-01
<MEAN> 0
<VARIANCE> 0
<GCONST> 0.000000e+00
<STREAM> 5
<MEAN> 15
 -2.318044e+00 -1.541801e+00 -1.557088e+00 -1.603693e+00 -1.547184e+00 -2.097757e-02 5.555348e-03 -5.780096e-03 1.810952e-03 -4.766193e-03 -6.245214e-03 3.578997e-04 1.622910e-03 3.480052e-02 2.144387e-02
<VARIANCE> 15
 9.497201e+00 2.889626e+00 3.005704e+00 3.120848e+00 2.828770e+00 1.225662e+00 4.735672e-01 5.374242e-01 5.345526e-01 4.620575e-01 6.257397e+00 3.626504e+00 4.391090e+00 4.503146e+00 3.887241e+00
<GCONST> 3.905948e+01
<TRANSP> 7
 0.000000e+00 1.000000e+00 0.000000e+00 0.000000e+00 0.000000e+00 0.000000e+00 0.000000e+00
 0.000000e+00 4.131796e-01 5.868204e-01 0.000000e+00 0.000000e+00 0.000000e+00 0.000000e+00
 0.000000e+00 0.000000e+00 4.264971e-01 5.735029e-01 0.000000e+00 0.000000e+00 0.000000e+00
 0.000000e+00 0.000000e+00 0.000000e+00 4.350901e-01 5.649099e-01 0.000000e+00 0.000000e+00
 0.000000e+00 0.000000e+00 0.000000e+00 0.000000e+00 4.565598e-01 5.434402e-01 0.000000e+00
 0.000000e+00 0.000000e+00 0.000000e+00 0.000000e+00 0.000000e+00 5.539173e-01 4.460826e-01
 0.000000e+00 0.000000e+00 0.000000e+00 0.000000e+00 0.000000e+00 0.000000e+00 0.000000e+00
<ENDHMM>
~h "G"
<BEGINHMM>
<NUMSTATES> 7
<STATE> 2
<SWEIGHTS> 5
 1.000000e+00 0.000000e+00 0.000000e+00 0.000000e+00 0.000000e+00
<STREAM> 1
<MEAN> 180
 5.196024e+00 2.341473e+00 -8.471802e-02 5.001459e-01 2.683570e-01 4.945955e-02 -1.692170e-02 2.667438e-01 -2.234460e-01 -2.586384e-02 -9.425756e-02 -2.087828e-03 -1.263236e-01 2.746981e-02 -1.936796e-01 2.093038e-01 -2.615252e-02 -7.704598e-02 8.325920e-02 -1.908694e-02 -1.446433e-01 9.007160e-02 -7.525462e-03 -4.933252e-02 3.066297e-02 4.079749e-02 -8.708862e-02 8.371983e-02 -1.577906e-02 3.466855e-02 1.083241e-02 4.158627e-02 -1.252240e-03 1.365021e-02 -2.148640e-02 4.222843e-02 -8.749242e-02 7.781699e-02 -6.883826e-02 3.158421e-02 -3.186262e-02 2.835846e-02 -2.794471e-02 3.380882e-02 -3.803952e-02 3.377905e-02 -4.436653e-02 3.663079e-02 -3.207368e-02 3.329210e-02 -3.054401e-02 2.742957e-02 -1.527106e-02 4.670874e-03 -5.429522e-03 2.285478e-02 -3.947199e-02 5.397901e-02 -6.117109e-02 5.326134e-02 1.103236e-03 -4.541419e-03 -6.976965e-03 -1.934117e-03 3.953574e-03 -7.779391e-04 -3.919423e-03 -3.176963e-04 -8.273080e-04 -9.353826e-04 5.040874e-04 -7.454762e-04 6.333498e-04 -6.296844e-04 -7.456195e-04 2.114234e-03 -4.735869e-04 -8.548309e-04 1.699022e-03 2.508772e-04 -2.741889e-05 5.466274e-05 -3.829537e-04 2.030876e-03 -8.624439e-04 -2.025399e-04 8.951721e-04 7.108642e-04 -3.997724e-05 -5.387436e-04 8.729093e-04 4.305698e-04 3.132298e-04 -2.971555e-04 5.957197e-05 -2.455513e-04 -8.295454e-04 7.810084e-04 -5.840253e-04 -7.728718e-04 1.000690e-03 -7.553548e-04 -1.968746e-05 3.159617e-04 -3.089833e-04 -8.722466e-05 -3.915088e-04 1.172514e-04 2.697406e-04 -1.581546e-04 -1.861845e-04 2.096972e-04 -1.962195e-04 2.570373e-04 -1.805308e-04 -2.203295e-04 4.345829e-04 -1.581236e-04 -2.083757e-05 -1.955224e-06 -1.278083e-02 -4.308231e-03 3.948405e-03 -3.909504e-04 6.309011e-04 2.341229e-03 1.473414e-03 -1.660747e-04 1.517735e-03 2.398470e-04 6.115924e-04 1.859482e-03 1.576146e-04 -1.797916e-04 7.020227e-04 -1.425704e-03 5.852464e-04 2.783420e-04 -4.374656e-04 7.275249e-04 -9.576478e-05 -1.472445e-03 -8.282415e-05 7.911983e-05 -3.119643e-04 -1.079169e-05 8.440904e-04 -1.540806e-04 1.420821e-04 -7.467880e-04 -1.309159e-03 6.009531e-04 -1.268625e-04 -6.863413e-05 -1.004064e-04 -7.858286e-05 -1.533948e-05 2.540707e-04 -7.348586e-06 1.431652e-04 1.599057e-04 6.977832e-05 -2.388502e-04 1.515232e-04 -8.654247e-05 -4.928292e-05 3.923572e-04 -1.552880e-04 -1.691856e-04 2.736374e-04 -4.028525e-04 1.327320e-04 2.969556e-04 -6.090158e-04 4.622127e-04 -6.621749e-05 -1.511555e-04 2.706743e-04 4.391305e-05 -3.495433e-04
<VARIANCE> 180
 1.564679e+00 1.096513e+00 3.189611e-01 2.150661e-01 2.745706e-01 1.162648e-01 8.371942e-02 7.818557e-02 6.447782e-02 4.656311e-02 4.436694e-02 4.252011e-02 2.934944e-02 2.965858e-02 4.020602e-02 3.436681e-02 3.990929e-02 2.258407e-02 1.916729e-02 2.183910e-02 2.229614e-02 2.200451e-02 1.548082e-02 1.360922e-02 1.523503e-02 1.026043e-02 1.174017e-02 1.098589e-02 8.214376e-03 8.429334e-03 8.597654e-03 8.311594e-03 7.628282e-03 6.517216e-03 6.771594e-03 5.625081e-03 6.870579e-03 7.196386e-03 6.503671e-03 5.140381e-03 5.332893e-03 5.047980e-03 4.118471e-03 4.493969e-03 4.773944e-03 3.822468e-03 3.507457e-03 3.299573e-03 3.422786e-03 3.992534e-03 3.422176e-03 3.103243e-03 2.916465e-03 2.897729e-03 3.424342e-03 3.243779e-03 2.873514e-03 3.076271e-03 3.232034e-03 3.214400e-03 1.905286e-02 1.673367e-02 7.981375e-03 5.247844e-03 4.540840e-03 3.502589e-03 3.284552e-03 2.798559e-03 3.013900e-03 2.654580e-03 2.357505e-03 2.419243e-03 2.041175e-03 2.144798e-03 2.283055e-03 2.158656e-03 2.133249e-03 1.972683e-03 1.752522e-03 1.745599e-03 1.798432e-03 1.801344e-03 1.582904e-03 1.454346e-03 1.414429e-03 1.413514e-03 1.237639e-03 1.277995e-03 1.158534e-03 1.131457e-03 1.043230e-03 9.869639e-04 9.708394e-04 9.483529e-04 8.915747e-04 9.082257e-04 8.695084e-04 8.009624e-04 7.558235e-04 7.050719e-04 7.130203e-04 6.503446e-04 6.597302e-04 6.359243e-04 5.839735e-04 5.485970e-04 5.479374e-04 4.921452e-04 5.073902e-04 5.069928e-04 4.636467e-04 4.647651e-04 4.631997e-04 4.090049e-04 4.244920e-04 4.230841e-04 4.289265e-04 4.197060e-04 3.976891e-04 3.857175e-04 1.066586e-02 8.383260e-03 7.754721e-03 6.076279e-03 5.679711e-03 5.193102e-03 4.814099e-03 4.693583e-03 4.956695e-03 4.604538e-03 4.592647e-03 4.488991e-03 4.426701e-03 4.325099e-03 4.459790e-03 4.367084e-03 4.315497e-03 4.424496e-03 3.879571e-03 3.892495e-03 4.048525e-03 3.943065e-03 3.814898e-03 3.799977e-03 3.332167e-03 3.538582e-03 3.193865e-03 3.165185e-03 3.046408e-03 2.898577e-03 2.672827e-03 2.627148e-03 2.477438e-03 2.410503e-03 2.312170e-03 2.333839e-03 2.167763e-03 2.121156e-03 2.100566e-03 1.837770e-03 1.823262e-03 1.795398e-03 1.663292e-03 1.721794e-03 1.580293e-03 1.438478e-03 1.437444e-03 1.358933e-03 1.362012e-03 1.384325e-03 1.280091e-03 1.186904e-03 1.189132e-03 1.119251e-03 1.147310e-03 1.064914e-03 1.167486e-03 1.105912e-03 1.046115e-03 1.006138e-03
<GCONST> -6.839927e+02
<STREAM> 2
<NUMMIXES> 2
<MIXTURE> 1 8.352236e-01
<MEAN> 1
 4.729099e+00
<VARIANCE> 1
 4.292404e-02
<GCONST> -1.310446e+00
<MIXTURE> 2 1.647773e-01
<MEAN> 0
<VARIANCE> 0
<GCONST> 0.000000e+00
<STREAM> 3
<NUMMIXES> 2
<MIXTURE> 1 8.205945e-01
<MEAN> 1
 -4.676805e-03
<VARIANCE> 1
 5.888421e-04
<GCONST> -5.599476e+00
<MIXTURE> 2 1.794071e-01
<MEAN> 0
<VARIANCE> 0
<GCONST> 0.000000e+00
<STREAM> 4
<NUMMIXES> 2
<MIXTURE> 1 8.201876e-01
<MEAN> 1
 3.931496e-04
<VARIANCE> 1
 1.843306e-03
<GCONST> -4.458318e+00
<MIXTURE> 2 1.798140e-01
<MEAN> 0
<VARIANCE> 0
<GCONST> 0.000000e+00
<STREAM> 5
<MEAN> 15
 -5.243951e+00 -2.927394e+00 -2.729769e+00 -2.578824e+00 -2.665138e+00 -5.161098e-02 -1.499081e-02 1.016317e-03 -1.299273e-03 -2.223427e-03 4.204356e-02 2.707124e-02 7.887349e-03 8.024300e-03 1.142508e-02
<VARIANCE> 15
 1.603786e+01 3.903039e+00 2.544134e+00 2.114273e+00 2.299335e+00 1.550044e+00 5.510507e-01 4.426693e-01 3.423756e-01 3.748772e-01 8.607577e+00 3.122285e+00 2.584968e+00 2.325599e+00 2.486399e+00
<GCONST> 3.719014e+01
<STATE> 3
<SWEIGHTS> 5
 1.000000e+00 0.000000e+00 0.000000e+00 0.000000e+00 0.000000e+00
<STREAM> 1
<MEAN> 180
 5.013018e+00 2.336341e+00 -6.057072e-02 4.743510e-01 2.988105e-01 7.553798e-02 -1.778112e-02 2.564760e-01 -2.053806e-01 -3.309537e-02 -9.743257e-02 6.345646e-03 -1.268723e-01 2.282083e-03 -1.762708e-01 2.218883e-01 -2.116942e-02 -9.452875e-02 8.225052e-02 -1.020171e-02 -1.473427e-01 7.462368e-02 -4.082332e-03 -4.451185e-02 2.416476e-02 5.030281e-02 -8.176939e-02 8.032438e-02 -8.382677e-03 3.361322e-02 9.738589e-03 4.701696e-02 -4.767431e-03 1.233991e-02 -2.323681e-02 4.198677e-02 -8.934526e-02 7.338544e-02 -6.300001e-02 2.321742e-02 -2.617984e-02 2.585659e-02 -2.921723e-02 3.309784e-02 -3.614517e-02 3.074129e-02 -4.201481e-02 3.613746e-02 -3.198030e-02 3.356493e-02 -3.175449e-02 3.158070e-02 -1.870164e-02 5.317527e-03 -4.459854e-03 2.283204e-02 -4.035098e-02 5.340943e-02 -5.792082e-02 4.821816e-02 -1.878107e-02 -1.258179e-02 1.029614e-03 -2.011535e-03 1.998370e-03 2.988153e-03 -9.090000e-04 -1.622624e-03 1.223917e-03 5.573122e-05 4.634926e-04 1.366602e-03 -5.170163e-04 -1.283673e-03 2.326497e-03 5.953549e-04 4.092498e-04 -3.610872e-04 -4.875289e-04 1.221986e-03 3.803963e-06 -1.006747e-03 6.722420e-04 3.076478e-04 -1.081448e-03 4.264780e-04 9.951746e-04 -3.739640e-04 3.192035e-04 -4.246745e-04 -5.342999e-04 3.872691e-04 -2.519311e-04 2.849633e-04 -4.326407e-04 -3.748705e-04 7.058343e-06 -9.849377e-05 -1.122976e-04 -4.083026e-04 5.737706e-04 -2.256166e-04 -3.242115e-04 2.632136e-05 1.420814e-04 -6.975772e-05 5.892698e-07 -1.023909e-04 2.068330e-04 3.685023e-05 -4.022840e-04 5.124083e-04 -3.695300e-04 2.998660e-05 3.249580e-04 -2.816144e-04 9.081853e-05 -4.146299e-05 3.082957e-04 -4.481907e-04 -2.185658e-03 -4.333578e-04 9.750224e-04 -1.826637e-04 -2.760513e-04 1.090189e-03 6.115754e-04 1.537980e-04 -5.059670e-06 -1.059716e-04 -2.237537e-05 2.603224e-05 -4.821838e-04 6.602166e-04 1.305023e-03 -4.932283e-04 -3.198636e-04 -1.524780e-04 -5.704020e-04 -3.608937e-04 8.255264e-05 4.072522e-04 6.059995e-04 -9.596678e-04 -4.790346e-04 6.505752e-04 -5.473947e-04 -1.420445e-04 3.765842e-04 1.828470e-04 5.675868e-05 -2.550033e-04 -2.189700e-04 1.747247e-04 -1.498987e-05 3.101200e-04 -3.552556e-04 -2.511262e-04 5.829393e-04 -2.774147e-04 -8.885180e-05 4.271331e-04 9.836207e-05 -2.765835e-04 -1.219438e-04 -2.605295e-05 1.188711e-04 1.902740e-04 -9.623752e-05 -2.215844e-04 1.330447e-04 3.612510e-04 -3.582045e-04 -2.425858e-05 1.234666e-04 7.744226e-05 -4.447410e-05 -2.879190e-04 3.373719e-04 -3.257929e-05
<VARIANCE> 180
