~o
<STREAMINFO> 5 180 1 1 1 15
<MSDINFO> 5 0 1 1 1 0
<VECSIZE> 198<NULLD><USER><DIAGC>
~h "C"
<BEGINHMM>
<NUMSTATES> 7
<STATE> 2
<SWEIGHTS> 5
 1.000000e+00 0.000000e+00 0.000000e+00 0.000000e+00 0.000000e+00
<STREAM> 1
<MEAN> 180
 5.417584e+00 1.688128e+00 2.928363e-01 1.397221e+00 2.113389e-01 4.807796e-01 -2.138531e-01 4.314134e-01 -1.786465e-01 5.378228e-02 -2.579541e-01 1.688704e-01 -2.503736e-01 6.165699e-02 -1.166499e-01 5.701450e-02 -1.908512e-01 5.329210e-02 -1.487955e-01 8.672516e-02 -5.505286e-02 2.594023e-02 -6.305744e-02 8.731377e-02 -1.380025e-02 5.073376e-02 -6.082276e-02 6.469841e-02 -3.058480e-02 5.453867e-02 -6.673899e-02 7.678567e-02 -5.336837e-02 3.736083e-02 -2.758742e-02 3.707759e-02 -5.150133e-02 5.491111e-02 -5.426607e-02 4.499910e-02 -4.508720e-02 4.445746e-02 -4.430820e-02 3.706698e-02 -2.727362e-02 1.711327e-02 -1.348009e-02 1.161993e-02 -9.768608e-03 1.007086e-02 -1.317665e-02 1.099648e-02 -4.532392e-03 -2.090340e-03 3.806929e-03 1.550281e-03 -1.304051e-02 2.188371e-02 -2.228937e-02 1.723233e-02 -1.585396e-02 -1.823699e-01 -3.777056e-02 2.579072e-02 -2.964244e-02 -9.267406e-03 1.847948e-02 1.577338e-02 -8.263363e-03 1.160748e-02 5.458458e-03 1.377122e-02 -4.460259e-03 -5.546701e-04 -2.039664e-02 -1.133312e-03 3.293364e-03 -1.490551e-02 -8.966677e-04 1.115373e-02 -9.417756e-03 3.666541e-03 -7.715830e-03 1.021527e-02 -7.829561e-03 -5.554131e-04 6.171688e-03 2.089122e-03 -1.088382e-03 9.085748e-04 2.282850e-03 4.025691e-05 1.035204e-03 -1.591354e-03 -4.568891e-04 2.032334e-03 -1.860566e-03 -2.089093e-04 8.787430e-04 -2.081855e-04 -1.477995e-03 1.152246e-03 4.427262e-04 -1.866183e-04 -1.122881e-03 1.346646e-03 -9.242103e-04 2.303604e-04 -6.513048e-04 3.444322e-03 -6.039772e-03 5.215014e-03 -1.998964e-03 -6.629541e-04 2.133375e-03 -1.698709e-03 8.665965e-05 8.135968e-04 -4.425590e-04 -9.391303e-05 1.078636e-02 -4.857272e-03 -1.221374e-02 -1.818819e-02 -1.411755e-02 -3.751342e-03 2.117461e-03 -2.930738e-03 -8.674191e-03 1.192874e-03 3.838481e-03 -1.159334e-03 1.742367e-03 6.657019e-03 -1.641539e-03 -1.456407e-03 -3.997016e-03 -4.371542e-03 4.005089e-03 -2.373551e-03 -1.581119e-03 1.150070e-04 -1.378641e-03 -1.270240e-03 -2.954732e-03 2.789028e-03 3.327585e-03 8.280133e-04 -1.522172e-03 2.773282e-03 -1.396564e-03 -6.306296e-04 1.596989e-03 4.174972e-04 -4.655013e-04 1.023825e-03 1.955440e-04 -3.428317e-04 -9.207422e-04 2.556975e-03 -6.378050e-04 -3.317445e-03 2.560664e-03 -1.728081e-04 -2.046105e-03 1.124185e-03 1.498354e-03 -2.440316e-03 9.687187e-04 4.121090e-04 -3.794790e-04 4.422378e-04 -2.151530e-04 2.742902e-04 -1.430823e-03 2.166929e-03 -8.265774e-04 -8.531217e-04 8.086502e-04 5.878661e-04
<VARIANCE> 180
 2.697447e-01 5.544465e-01 1.344050e-01 1.134315e-01 6.981652e-02 5.133068e-02 6.374664e-02 4.626171e-02 5.297190e-02 2.625361e-02 3.044041e-02 3.047723e-02 2.566694e-02 2.490323e-02 2.280345e-02 2.507301e-02 2.102018e-02 2.252929e-02 2.462517e-02 1.395142e-02 1.418331e-02 1.410155e-02 1.211093e-02 1.022450e-02 9.400399e-03 9.812922e-03 6.518896e-03 5.758409e-03 5.451103e-03 6.173512e-03 5.935237e-03 5.282550e-03 5.430176e-03 4.478593e-03 3.820550e-03 4.572563e-03 3.702499e-03 4.020949e-03 3.705306e-03 3.054429e-03 3.247450e-03 3.465726e-03 3.138905e-03 2.889771e-03 3.106466e-03 3.096688e-03 3.108317e-03 3.097828e-03 2.964365e-03 3.142662e-03 3.073377e-03 2.540630e-03 2.287238e-03 2.266453e-03 2.422608e-03 2.456188e-03 2.247437e-03 2.193850e-03 2.207849e-03 2.108719e-03 2.565694e-02 2.311473e-02 1.579269e-02 1.402537e-02 1.132791e-02 9.552455e-03 8.589237e-03 8.529123e-03 6.928401e-03 6.476223e-03 6.682757e-03 6.074533e-03 5.844424e-03 5.620410e-03 7.077983e-03 5.121644e-03 4.558333e-03 4.294046e-03 3.985636e-03 3.690812e-03 3.667302e-03 3.697835e-03 3.065353e-03 2.625847e-03 2.482313e-03 2.314541e-03 2.059058e-03 1.972822e-03 1.911005e-03 2.019581e-03 1.860166e-03 1.521695e-03 1.453524e-03 1.308746e-03 1.167106e-03 1.232384e-03 1.222479e-03 1.011457e-03 1.093831e-03 9.307029e-04 9.491995e-04 8.607224e-04 8.854416e-04 9.727814e-04 9.150313e-04 8.221010e-04 8.608120e-04 8.776676e-04 7.266891e-04 7.480389e-04 7.865434e-04 6.813342e-04 6.411072e-04 6.481570e-04 6.123606e-04 5.663401e-04 5.818551e-04 5.652775e-04 5.095729e-04 5.252327e-04 6.379886e-02 5.427894e-02 4.783493e-02 4.464950e-02 3.649876e-02 3.964133e-02 3.253704e-02 3.362788e-02 3.556982e-02 3.168597e-02 3.176603e-02 3.178244e-02 2.835750e-02 3.025980e-02 3.302860e-02 2.505626e-02 2.649321e-02 2.416939e-02 2.122055e-02 2.111575e-02 1.958412e-02 1.975250e-02 1.504082e-02 1.526284e-02 1.406995e-02 1.398379e-02 1.388568e-02 1.254686e-02 1.043111e-02 1.010949e-02 1.030332e-02 9.620103e-03 8.909054e-03 8.636546e-03 8.389081e-03 7.829988e-03 8.575773e-03 6.153722e-03 6.071416e-03 5.791115e-03 5.543278e-03 5.003226e-03 4.958526e-03 5.349673e-03 5.113706e-03 4.304065e-03 5.261802e-03 5.388453e-03 4.267477e-03 4.437671e-03 4.384398e-03 3.796950e-03 3.778793e-03 3.761991e-03 3.677029e-03 3.437043e-03 3.264022e-03 3.071649e-03 3.057281e-03 3.111098e-03
<GCONST> -5.878370e+02
<STREAM> 2
<NUMMIXES> 2
<MIXTURE> 1 9.104173e-01
<MEAN> 1
 5.254102e+00
<VARIANCE> 1
 2.210590e-02
<GCONST> -1.974034e+00
<MIXTURE> 2 8.958297e-02
<MEAN> 0
<VARIANCE> 0
<GCONST> 0.000000e+00
<STREAM> 3
<NUMMIXES> 2
<MIXTURE> 1 8.555425e-01
<MEAN> 1
 -5.175727e-03
<VARIANCE> 1
 8.415628e-04
<GCONST> -5.242373e+00
<MIXTURE> 2 1.444576e-01
<MEAN> 0
<VARIANCE> 0
<GCONST> 0.000000e+00
<STREAM> 4
<NUMMIXES> 2
<MIXTURE> 1 8.510305e-01
<MEAN> 1
 1.206148e-03
<VARIANCE> 1
 3.836678e-03
<GCONST> -3.725271e+00
<MIXTURE> 2 1.489696e-01
<MEAN> 0
<VARIANCE> 0
<GCONST> 0.000000e+00
<STREAM> 5
<MEAN> 15
 -2.455359e+00 -2.499329e+00 -2.479936e+00 -2.586000e+00 -2.511457e+00 1.111878e-01 1.274605e-01 9.760541e-02 1.176634e-01 9.097444e-02 3.555369e-02 -4.508063e-03 4.631234e-02 5.771313e-02 3.349477e-02
<VARIANCE> 15
 1.785019e+00 1.870719e+00 1.723031e+00 1.945951e+00 1.858345e+00 7.011733e-01 6.968196e-01 7.133085e-01 7.204329e-01 6.801366e-01 6.364370e+00 5.262261e+00 6.307372e+00 6.317787e+00 6.474934e+00
<GCONST> 3.790030e+01
<STATE> 3
<SWEIGHTS> 5
 1.000000e+00 0.000000e+00 0.000000e+00 0.000000e+00 0.000000e+00
<STREAM> 1
<MEAN> 180
 5.294715e+00 3.715431e-01 -9.174897e-02 1.295328e+00 -2.707151e-01 4.067515e-01 -1.291421e-01 4.014128e-01 -2.814237e-01 1.563503e-01 -1.589940e-01 2.540673e-01 -1.905821e-01 1.847218e-01 -2.002605e-01 1.206280e-01 -1.473006e-01 -5.457010e-02 -1.321824e-01 1.187114e-01 -1.530498e-01 5.305514e-02 -8.732305e-02 9.166806e-02 -1.093543e-01 8.994214e-02 -4.948751e-02 5.949143e-02 -3.075752e-02 1.038777e-01 -7.624267e-02 8.336168e-02 -4.427335e-02 3.199627e-02 -3.040009e-02 4.781155e-02 -5.446477e-02 5.319225e-02 -5.883965e-02 5.219990e-02 -5.389986e-02 3.978808e-02 -3.349739e-02 3.029339e-02 -3.825059e-02 3.618369e-02 -3.050919e-02 1.765585e-02 -1.652769e-02 2.069753e-02 -2.903206e-02 2.531527e-02 -1.348223e-02 7.439815e-03 -6.136551e-03 6.826206e-03 -6.672796e-03 8.725295e-03 -1.327361e-02 1.877820e-02 -1.185670e-03 -1.274428e-02 -2.878341e-02 -1.965410e-02 -2.940761e-02 -1.922042e-02 -3.958664e-03 -4.732440e-04 -3.682386e-03 -1.284474e-03 5.759859e-03 -2.781488e-04 4.357940e-03 9.320124e-03 4.510677e-03 4.561048e-03 8.359266e-04 -1.129720e-03 -4.029649e-04 1.176647e-04 -2.846593e-03 4.001834e-04 4.883288e-03 -1.193270e-03 -2.033390e-03 -1.735123e-03 2.284471e-03 -3.089856e-03 -3.099516e-04 3.150418e-03 -5.726448e-04 -1.309266e-03 1.011095e-03 -7.572009e-04 2.284814e-03 -2.552573e-03 -8.390063e-04 1.337026e-03 -3.132093e-04 -4.685826e-04 1.297186e-03 -7.302858e-04 3.918784e-05 -7.940162e-04 7.030187e-05 1.420099e-03 -1.310824e-03 -2.384678e-04 7.264961e-04 -7.856544e-04 1.468574e-03 -1.977087e-03 1.174976e-03 2.009777e-05 -7.213455e-04 -9.730163e-05 1.672626e-03 -1.494294e-03 -1.425464e-04 1.070987e-03 -8.804056e-03 3.950393e-02 1.108606e-02 7.815178e-03 1.440157e-02 -4.713136e-03 -1.095552e-02 -2.546444e-03 3.131361e-03 -6.834957e-03 -3.169578e-03 -5.117410e-03 -3.273288e-04 -2.571359e-03 6.851656e-03 1.400843e-03 2.440587e-03 6.279429e-03 -4.022790e-03 -2.395192e-03 4.753925e-03 -2.291742e-03 2.220619e-03 1.600656e-03 5.387140e-03 -3.979230e-03 -3.456150e-03 -7.223006e-04 7.206432e-04 -2.305031e-03 6.642528e-04 5.766085e-04 -1.321111e-03 5.534950e-04 6.232290e-04 -2.799739e-03 1.035444e-03 3.469211e-04 -2.930139e-04 -1.899903e-04 1.605801e-03 3.540461e-04 -4.604664e-04 -4.790821e-04 1.351326e-03 -1.137190e-03 3.063060e-04 1.583233e-04 8.521927e-04 -2.003182e-03 2.534993e-03 -1.939228e-03 5.719879e-04 1.966665e-04 4.782634e-05 -6.792723e-04 2.488695e-04 7.158116e-04 -9.810891e-04 3.647939e-04
<VARIANCE> 180
 1.982021e-01 2.434414e-01 1.285754e-01 8.882460e-02 6.360366e-02 5.304092e-02 4.615701e-02 2.855996e-02 2.536249e-02 1.931263e-02 2.100707e-02 1.844179e-02 2.049839e-02 2.064796e-02 2.109650e-02 2.165327e-02 1.595367e-02 1.428952e-02 1.958872e-02 1.223254e-02 1.084990e-02 1.309593e-02 1.124619e-02 1.108499e-02 8.929046e-03 8.726693e-03 7.467792e-03 8.549062e-03 7.309110e-03 5.641074e-03 6.231425e-03 4.956302e-03 4.659044e-03 4.978250e-03 4.157105e-03 5.123258e-03 4.108513e-03 4.814521e-03 4.806967e-03 3.246987e-03 2.975296e-03 3.239001e-03 3.140480e-03 2.957995e-03 2.985507e-03 2.851340e-03 3.134362e-03 2.944410e-03 2.532291e-03 3.025022e-03 2.902904e-03 2.579853e-03 3.099583e-03 2.919919e-03 2.678213e-03 2.507968e-03 2.254222e-03 2.175580e-03 2.401481e-03 2.459931e-03 7.392415e-03 1.698596e-02 8.248121e-03 6.884255e-03 6.482841e-03 6.740941e-03 6.446063e-03 5.008438e-03 5.013954e-03 4.507386e-03 3.905491e-03 3.884028e-03 4.352632e-03 4.101198e-03 4.358009e-03 4.059668e-03 3.621632e-03 3.262277e-03 3.627899e-03 3.337324e-03 3.176732e-03 2.853566e-03 2.965459e-03 2.672705e-03 2.524416e-03 2.393581e-03 2.080687e-03 1.867564e-03 1.851783e-03 1.582064e-03 1.724932e-03 1.575894e-03 1.483063e-03 1.421593e-03 1.396567e-03 1.574355e-03 1.276586e-03 1.258438e-03 1.048583e-03 1.023767e-03 8.923321e-04 8.412493e-04 8.711699e-04 7.407384e-04 7.353446e-04 7.295004e-04 6.847351e-04 7.589743e-04 6.845423e-04 6.776265e-04 6.827289e-04 6.712389e-04 6.401524e-04 6.107586e-04 5.838785e-04 5.149507e-04 4.824570e-04 5.201686e-04 4.813044e-04 4.514639e-04 1.313673e-02 1.902983e-02 2.034097e-02 2.003858e-02 2.128096e-02 2.158787e-02 2.188084e-02 2.026723e-02 2.170672e-02 1.947245e-02 1.750553e-02 1.665923e-02 1.987470e-02 2.146921e-02 1.947592e-02 1.878484e-02 1.793191e-02 1.551975e-02 1.729234e-02 1.498314e-02 1.453329e-02 1.386112e-02 1.373100e-02 1.262407e-02 1.108300e-02 1.005160e-02 1.025233e-02 8.286534e-03 9.091623e-03 7.422226e-03 7.651815e-03 6.616244e-03 7.004178e-03 5.992353e-03 6.088655e-03 6.014989e-03 5.290164e-03 5.503071e-03 4.616409e-03 4.496985e-03 4.053960e-03 3.399744e-03 3.443068e-03 3.202760e-03 3.299141e-03 3.318901e-03 3.425061e-03 3.143233e-03 3.239604e-03 3.046958e-03 3.156482e-03 2.950699e-03 2.925428e-03 2.764427e-03 2.767468e-03 2.433132e-03 2.306079e-03 2.446936e-03 2.173340e-03 2.212089e-03
<GCONST> -6.267559e+02
<STREAM> 2
<NUMMIXES> 2
<MIXTURE> 1 5.424918e-01
<MEAN> 1
 5.160292e+00
<VARIANCE> 1
 3.490907e-02
<GCONST> -1.517132e+00
<MIXTURE> 2 4.575078e-01
<MEAN> 0
<VARIANCE> 0
<GCONST> 0.000000e+00
<STREAM> 3
<NUMMIXES> 2
<MIXTURE> 1 4.918623e-01
<MEAN> 1
 4.720844e-04
<VARIANCE> 1
 1.831432e-03
<GCONST> -4.464780e+00
<MIXTURE> 2 5.081375e-01
<MEAN> 0
<VARIANCE> 0
<GCONST> 0.000000e+00
<STREAM> 4
<NUMMIXES> 2
<MIXTURE> 1 4.768104e-01
<MEAN> 1
 -1.582195e-03
<VARIANCE> 1
 7.963676e-03
<GCONST> -2.994988e+00
<MIXTURE> 2 5.231894e-01
<MEAN> 0
<VARIANCE> 0
<GCONST> 0.000000e+00
<STREAM> 5
<MEAN> 15
 -1.343331e+00 -1.367374e+00 -1.323747e+00 -1.364610e+00 -1.367071e+00 4.085367e-02 4.312145e-02 6.006030e-02 4.326674e-02 4.814648e-02 -2.172665e-02 -2.099888e-02 -3.097297e-02 -2.951480e-02 -2.822204e-02
<VARIANCE> 15
 1.893645e+00 1.984637e+00 1.883815e+00 2.006558e+00 2.041965e+00 3.322030e-01 3.825383e-01 3.651159e-01 3.911871e-01 4.169708e-01 2.992747e+00 3.294645e+00 3.081258e+00 3.722116e+00 3.564657e+00
<GCONST> 3.205113e+01
<STATE> 4
<SWEIGHTS> 5
 1.000000e+00 0.000000e+00 0.000000e+00 0.000000e+00 0.000000e+00
<STREAM> 1
<MEAN> 180
 5.214851e+00 1.063082e+00 -1.420314e-01 1.252508e+00 -1.291270e-01 2.254043e-01 -3.437397e-01 4.300556e-01 -2.429170e-01 1.793011e-02 -1.860661e-01 2.015899e-01 -1.954597e-01 1.327389e-01 -8.400216e-02 1.222976e-01 -1.444730e-01 -5.440039e-03 -1.997954e-01 1.130873e-01 -9.498897e-02 -3.408966e-03 -3.160984e-02 9.507068e-02 -3.585098e-02 1.790169e-02 -2.620087e-02 5.725154e-02 -2.880442e-02 8.046870e-02 -7.495585e-02 7.666577e-02 -4.871347e-02 2.417075e-02 -3.769889e-03 1.854356e-02 -5.165167e-02 6.160563e-02 -6.066286e-02 4.636865e-02 -3.034876e-02 2.658771e-02 -2.986581e-02 3.506870e-02 -3.925452e-02 3.747931e-02 -2.391992e-02 3.087907e-03 6.272448e-03 -5.389269e-03 5.196581e-03 -3.955466e-03 -2.893047e-03 8.926824e-03 -4.670017e-03 -7.194135e-03 6.967607e-03 6.742691e-03 -2.130270e-02 2.833759e-02 1.223780e-01 2.915940e-01 1.094717e-01 4.710508e-02 1.159632e-01 5.197925e-03 -4.265626e-02 1.043555e-02 -2.186982e-03 -3.235010e-02 -1.959187e-02 -1.920162e-02 -5.966164e-03 -2.628794e-02 1.288423e-02 -5.878247e-03 -1.753566e-02 3.035975e-02 -2.517504e-02 5.702508e-03 2.410793e-02 -1.138679e-02 1.142031e-02 -1.581151e-03 1.979182e-02 -4.779567e-03 -5.685968e-03 3.478563e-03 -3.844925e-03 -6.314209e-03 -4.485589e-03 4.014037e-03 -4.222310e-03 -9.204029e-04 1.442817e-03 -9.950611e-04 2.424134e-03 3.479666e-03 -6.788423e-03 6.625932e-03 -1.098966e-03 -1.088866e-03 -5.115339e-04 4.378524e-03 -2.126047e-03 -2.004219e-03 4.936038e-03 -4.511626e-03 6.783791e-03 -9.584447e-03 1.052005e-02 -7.588306e-03 4.087002e-03 -1.576407e-03 4.207027e-04 1.140638e-03 -3.276690e-03 3.349066e-03 -1.536849e-03 2.826732e-04 1.235336e-01 5.600036e-02 2.233778e-02 3.621068e-03 1.358997e-02 1.601512e-02 -5.403968e-03 -3.279324e-03 8.320264e-04 1.600921e-02 9.610668e-03 2.427380e-02 1.302083e-02 2.610043e-03 -9.126748e-03 -8.427481e-04 -8.892143e-03 1.029708e-02 3.034100e-03 6.028378e-03 5.815862e-03 5.346986e-04 -3.185382e-03 -3.143831e-03 -7.604957e-03 6.896432e-03 -2.246947e-03 2.406005e-03 -3.118132e-03 2.432052e-04 -1.359796e-03 -9.434586e-04 1.518166e-03 -8.161761e-04 -3.398545e-03 6.915764e-03 -3.201570e-03 -1.396882e-03 -6.162981e-05 4.059846e-04 -5.839973e-03 2.861558e-03 -3.909439e-03 4.425793e-03 -4.323980e-03 3.355247e-03 -1.860635e-03 5.511360e-04 2.261135e-06 1.077733e-03 -3.787267e-03 3.085671e-03 1.117007e-03 -3.485182e-03 2.141405e-03 1.300642e-03 -1.969278e-03 -4.841874e-04 3.125207e-03 -4.246670e-03
<VARIANCE> 180
 1.806388e-01 3.319608e-01 1.745217e-01 9.156141e-02 7.153102e-02 2.636627e-02 3.831809e-02 3.224854e-02 3.605195e-02 2.022027e-02 1.774192e-02 2.172597e-02 2.240655e-02 1.585998e-02 1.936128e-02 1.542512e-02 1.515035e-02 1.539700e-02 2.053784e-02 1.235694e-02 1.390176e-02 1.371018e-02 1.209753e-02 1.297364e-02 1.202365e-02 1.057491e-02 1.000094e-02 7.073011e-03 8.901644e-03 6.704203e-03 7.268810e-03 5.375146e-03 5.443492e-03 5.853772e-03 4.269472e-03 4.957592e-03 3.988157e-03 5.157097e-03 4.569399e-03 4.137311e-03 4.755348e-03 3.621109e-03 3.309691e-03 3.622303e-03 3.325944e-03 3.392242e-03 3.379568e-03 3.119093e-03 2.147343e-03 2.533108e-03 2.535939e-03 2.620019e-03 2.204522e-03 2.203664e-03 1.989967e-03 2.462842e-03 3.002316e-03 2.327103e-03 2.092954e-03 2.027872e-03 3.854885e-02 3.626902e-02 2.065348e-02 1.222825e-02 1.008404e-02 6.728369e-03 8.062682e-03 7.056037e-03 5.992724e-03 6.027793e-03 5.071821e-03 6.557051e-03 5.518832e-03 4.921518e-03 5.079699e-03 4.191109e-03 4.164947e-03 4.807828e-03 4.132969e-03 3.844919e-03 3.503636e-03 3.376142e-03 3.295655e-03 3.213392e-03 2.757536e-03 2.470886e-03 2.245575e-03 2.391254e-03 2.388044e-03 1.864729e-03 1.882404e-03 1.744888e-03 1.493288e-03 1.667769e-03 1.615335e-03 1.261114e-03 1.420213e-03 1.190664e-03 1.063725e-03 1.109974e-03 1.248063e-03 1.076379e-03 1.004983e-03 8.541813e-04 7.604574e-04 6.772236e-04 6.982064e-04 8.839420e-04 7.582086e-04 6.801440e-04 7.371217e-04 7.526496e-04 5.705087e-04 5.831090e-04 5.939765e-04 5.699500e-04 5.263532e-04 5.449773e-04 4.879642e-04 3.977277e-04 3.811042e-02 4.330637e-02 4.675326e-02 2.868134e-02 3.346327e-02 3.001882e-02 2.642572e-02 3.097680e-02 3.142085e-02 2.578158e-02 2.612190e-02 3.093944e-02 2.651034e-02 2.417809e-02 2.511096e-02 2.257882e-02 2.459942e-02 2.033748e-02 2.114675e-02 1.939064e-02 1.541975e-02 1.360955e-02 1.544601e-02 1.363177e-02 1.452646e-02 1.245484e-02 1.060818e-02 1.078486e-02 9.978493e-03 9.160124e-03 8.178927e-03 6.830917e-03 7.376396e-03 8.143755e-03 7.383280e-03 5.290139e-03 7.168357e-03 4.897065e-03 5.567345e-03 5.145020e-03 5.293759e-03 4.806233e-03 5.039461e-03 4.184142e-03 4.382654e-03 3.314516e-03 3.585266e-03 3.811868e-03 3.621892e-03 3.098588e-03 3.474989e-03 3.314099e-03 2.793619e-03 3.329612e-03 3.117909e-03 2.588628e-03 2.590977e-03 2.870565e-03 2.099235e-03 2.138086e-03
<GCONST> -6.011165e+02
<STREAM> 2
<NUMMIXES> 2
<MIXTURE> 1 5.989847e-01
<MEAN> 1
 5.163375e+00
<VARIANCE> 1
 5.575352e-02
<GCONST> -1.048938e+00
<MIXTURE> 2 4.010154e-01
<MEAN> 0
<VARIANCE> 0
<GCONST> 0.000000e+00
<STREAM> 3
<NUMMIXES> 2
<MIXTURE> 1 4.730601e-01
<MEAN> 1
 3.666236e-02
<VARIANCE> 1
 3.669159e-03
<GCONST> -3.769916e+00
<MIXTURE> 2 5.269400e-01
<MEAN> 0
<VARIANCE> 0
<GCONST> 0.000000e+00
<STREAM> 4
<NUMMIXES> 2
<MIXTURE> 1 4.403460e-01
<MEAN> 1
 1.486539e-02
<VARIANCE> 1
 1.754045e-02
<GCONST> -2.205369e+00
<MIXTURE> 2 5.596542e-01
<MEAN> 0
<VARIANCE> 0
<GCONST> 0.000000e+00
<STREAM> 5
<MEAN> 15
 -1.517137e+00 -1.521083e+00 -1.533620e+00 -1.520296e+00 -1.535768e+00 -3.263754e-01 -2.900744e-01 -3.206117e-01 -2.985504e-01 -2.740863e-01 -2.436583e-01 -2.083380e-01 -2.310565e-01 -2.613931e-01 -1.899946e-01
<VARIANCE> 15
 2.160049e+00 1.990006e+00 2.116428e+00 2.096904e+00 2.062114e+00 8.504992e-01 7.750784e-01 7.320822e-01 6.946756e-01 8.097792e-01 5.250445e+00 5.147113e+00 5.533660e+00 5.936634e+00 4.799871e+00
<GCONST> 3.829379e+01
<STATE> 5
<SWEIGHTS> 5
 1.000000e+00 0.000000e+00 0.000000e+00 0.000000e+00 0.000000e+00
<STREAM> 1
<MEAN> 180
 6.072732e+00 2.123192e+00 2.278284e-01 1.343027e+00 1.692965e-01 3.209752e-01 -4.758552e-01 4.302036e-01 -1.850882e-01 4.167980e-02 -1.981243e-01 1.758066e-01 -1.700876e-01 1.001819e-01 -1.097821e-01 1.022826e-01 -2.162481e-01 1.424099e-01 -2.552435e-01 1.087424e-01 8.559249e-03 -1.675517e-02 -2.964286e-02 7.277215e-02 4.890235e-03 1.041695e-02 -5.082807e-02 5.755072e-02 -5.341651e-02 8.040754e-02 -9.778430e-02 9.712571e-02 -6.008868e-02 2.149827e-02 -8.887028e-03 3.180316e-02 -6.107200e-02 7.513347e-02 -7.640257e-02 6.092374e-02 -4.726293e-02 3.906151e-02 -4.977921e-02 5.870689e-02 -5.894290e-02 4.483852e-02 -2.396061e-02 1.136167e-03 1.774971e-02 -2.548130e-02 2.419371e-02 -1.633785e-02 1.025515e-02 -5.103324e-03 3.822036e-03 -1.866003e-03 -3.640574e-03 1.082694e-02 -1.453597e-02 1.241678e-02 2.038722e-01 1.786377e-01 -2.257234e-02 -6.211511e-02 -2.076968e-02 2.005133e-02 -4.972770e-02 -4.249901e-02 1.841541e-02 2.739129e-02 2.293049e-02 1.017007e-02 1.440151e-02 1.104734e-02 -8.921802e-03 -3.016344e-03 -7.386586e-03 2.218309e-02 1.663651e-02 -1.451801e-02 1.596675e-02 -2.781433e-03 -3.106456e-03 -7.671586e-03 -3.865846e-03 7.331541e-04 -6.078586e-03 3.552593e-03 -5.995227e-03 6.399009e-03 -3.169810e-03 -5.683053e-04 1.542894e-03 -3.978679e-04 -1.234009e-03 3.736184e-03 -5.081158e-03 2.775589e-03 1.040497e-03 -3.283502e-03 4.379221e-04 1.182328e-03 -4.413736e-03 5.211844e-03 -4.745159e-03 3.144882e-03 -4.057389e-03 4.689150e-03 -3.062121e-03 -4.920444e-04 1.330358e-03 -4.783693e-04 1.583026e-04 1.741864e-05 1.317272e-04 -1.931959e-05 1.293970e-03 -3.713038e-03 6.580127e-03 -8.656489e-03 -7.495012e-02 -7.372256e-02 -6.598696e-02 -5.125149e-02 -4.946633e-02 1.352440e-02 2.820077e-02 -1.068070e-02 -4.182413e-04 -2.211141e-04 1.137603e-02 -6.238402e-03 -1.972847e-02 -1.420178e-04 -2.231815e-04 -5.259213e-03 1.943994e-03 -1.439756e-02 1.245882e-02 -5.077236e-03 -1.526168e-02 6.012651e-04 2.111821e-03 3.618084e-03 -3.228692e-03 -8.796314e-04 2.680848e-03 -7.208125e-04 9.815635e-04 4.797559e-03 -2.003203e-04 -2.924481e-03 3.615663e-03 -1.461657e-03 2.352863e-04 1.430869e-03 2.011870e-03 -3.209166e-03 4.503818e-03 -1.331438e-03 2.628971e-03 -1.977035e-03 5.526787e-03 -6.786407e-03 6.058456e-03 -3.954076e-03 1.391780e-03 1.658753e-03 -5.179917e-03 4.982918e-03 -2.093827e-03 6.988849e-04 -2.298251e-03 3.756154e-03 -4.227322e-03 2.619652e-03 -9.857056e-04 -4.193605e-04 1.303953e-03 -3.645990e-04
<VARIANCE> 180
 2.299058e-01 1.146598e-01 5.944007e-02 7.977221e-02 2.802245e-02 3.244422e-02 2.797411e-02 2.401843e-02 3.484685e-02 2.480564e-02 1.773342e-02 2.390442e-02 1.514354e-02 1.756478e-02 2.055518e-02 1.913730e-02 1.040588e-02 1.878851e-02 1.488924e-02 1.410947e-02 1.195621e-02 1.402256e-02 1.570471e-02 9.992968e-03 1.201917e-02 1.185683e-02 7.510560e-03 5.803459e-03 7.049049e-03 6.082115e-03 6.064231e-03 5.808115e-03 4.830400e-03 4.522393e-03 3.810608e-03 5.240863e-03 5.043182e-03 4.146162e-03 3.992094e-03 4.793374e-03 4.719958e-03 3.759611e-03 3.807667e-03 3.801962e-03 3.783605e-03 4.130843e-03 4.082441e-03 3.808916e-03 3.369219e-03 2.669945e-03 2.415200e-03 2.856996e-03 2.741976e-03 2.255431e-03 2.296283e-03 2.922805e-03 2.983560e-03 2.445382e-03 2.205197e-03 2.379727e-03 1.965270e-02 1.522315e-02 1.308064e-02 9.695956e-03 9.989656e-03 6.191211e-03 7.379666e-03 5.857624e-03 6.333154e-03 5.651467e-03 5.550974e-03 7.193632e-03 5.276970e-03 5.034721e-03 5.003233e-03 3.893928e-03 3.485629e-03 3.905210e-03 3.948649e-03 3.178370e-03 3.425492e-03 2.947459e-03 2.772365e-03 2.760342e-03 2.057384e-03 2.154734e-03 2.051306e-03 1.869643e-03 1.717819e-03 1.603305e-03 1.441534e-03 1.495965e-03 1.208819e-03 1.267311e-03 1.255981e-03 1.165277e-03 1.111058e-03 1.100757e-03 7.621798e-04 9.267314e-04 1.139490e-03 9.137024e-04 9.567154e-04 8.596951e-04 7.850667e-04 8.622332e-04 7.434575e-04 7.083486e-04 7.287100e-04 6.945694e-04 6.563796e-04 6.744602e-04 6.263074e-04 6.846397e-04 6.571130e-04 4.797557e-04 4.328426e-04 4.879870e-04 4.593427e-04 4.225034e-04 3.639166e-02 3.087229e-02 4.143311e-02 4.031088e-02 3.680012e-02 3.684159e-02 3.353692e-02 3.203902e-02 3.277513e-02 3.133681e-02 3.465558e-02 3.296503e-02 3.181677e-02 3.180948e-02 2.911716e-02 2.526213e-02 2.437770e-02 2.042185e-02 1.753587e-02 1.893132e-02 1.851636e-02 1.652774e-02 1.918255e-02 1.572680e-02 1.460120e-02 1.474557e-02 1.148446e-02 1.147238e-02 1.247633e-02 9.498555e-03 9.464592e-03 1.057215e-02 9.196431e-03 8.337731e-03 9.129374e-03 7.438618e-03 7.113062e-03 7.000456e-03 6.002388e-03 7.445903e-03 6.985722e-03 6.949616e-03 6.244248e-03 5.172324e-03 5.298082e-03 5.144354e-03 4.289542e-03 4.521244e-03 4.902401e-03 4.568005e-03 4.625048e-03 4.594411e-03 4.326697e-03 4.301902e-03 3.780732e-03 3.523204e-03 3.758036e-03 3.696719e-03 2.697782e-03 2.264345e-03
<GCONST> -6.007135e+02
<STREAM> 2
<NUMMIXES> 2
<MIXTURE> 1 9.866691e-01
<MEAN> 1
 5.317177e+00
<VARIANCE> 1
 2.474740e-02
<GCONST> -1.861158e+00
<MIXTURE> 2 1.333104e-02
<MEAN> 0
<VARIANCE> 0
<GCONST> 0.000000e+00
<STREAM> 3
<NUMMIXES> 2
<MIXTURE> 1 9.377928e-01
<MEAN> 1
 1.321681e-02
<VARIANCE> 1
 1.092206e-03
<GCONST> -4.981679e+00
<MIXTURE> 2 6.220723e-02
<MEAN> 0
<VARIANCE> 0
<GCONST> 0.000000e+00
<STREAM> 4
<NUMMIXES> 2
<MIXTURE> 1 9.374775e-01
<MEAN> 1
 -2.104642e-02
<VARIANCE> 1
 2.104292e-03
<GCONST> -4.325899e+00
<MIXTURE> 2 6.252243e-02
<MEAN> 0
<VARIANCE> 0
<GCONST> 0.000000e+00
<STREAM> 5
<MEAN> 15
 -3.410957e+00 -3.266837e+00 -3.183970e+00 -3.419759e+00 -2.962622e+00 -4.411867e-01 -3.502895e-01 -2.686193e-01 -3.002070e-01 -1.628590e-01 1.390089e-01 2.502204e-01 2.690318e-01 3.185019e-01 1.687213e-01
<VARIANCE> 15
 3.374270e+00 1.974985e+00 1.746009e+00 1.938349e+00 1.627470e+00 1.215636e+00 7.985706e-01 7.340954e-01 9.971082e-01 7.987431e-01 1.034897e+01 8.861596e+00 7.469457e+00 7.474759e+00 6.497495e+00
<GCONST> 4.101709e+01
<STATE> 6
<SWEIGHTS> 5
 1.000000e+00 0.000000e+00 0.000000e+00 0.000000e+00 0.000000e+00
<STREAM> 1
<MEAN> 180
 6.379712e+00 2.483432e+00 -6.189960e-02 8.923743e-01 -3.403556e-02 4.364026e-01 -5.137823e-01 2.745552e-01 -1.304155e-01 1.282407e-01 -8.345415e-02 1.953228e-01 -1.869567e-01 9.741654e-02 -1.005945e-01 7.169599e-02 -2.552669e-01 1.432837e-01 -1.733890e-01 8.095842e-02 -1.190558e-02 -2.105116e-02 -2.724007e-02 7.075228e-02 -3.751718e-02 4.626375e-02 -4.413372e-02 6.697010e-02 -4.763383e-02 1.075028e-01 -1.049010e-01 8.103682e-02 -4.597064e-02 1.042999e-03 -9.421693e-03 4.187107e-02 -5.775357e-02 7.207500e-02 -7.392740e-02 5.235745e-02 -3.787398e-02 1.963782e-02 -2.617321e-02 4.600614e-02 -6.576753e-02 6.139810e-02 -4.463157e-02 2.349195e-02 1.802165e-03 -2.337850e-02 2.477680e-02 -1.621716e-02 4.570866e-03 5.013999e-03 -1.429950e-02 1.581378e-02 -1.385536e-02 7.776272e-03 2.266897e-03 -1.148798e-02 4.929670e-02 9.263100e-02 -6.881942e-02 -1.145214e-01 -5.293344e-02 3.459273e-02 2.153780e-02 -2.959725e-02 -9.575171e-03 5.669037e-03 3.359823e-02 1.640983e-02 -1.395243e-02 -8.807926e-03 1.065472e-02 4.254622e-03 -6.829324e-03 -8.790094e-03 1.710113e-02 -2.197463e-03 4.693165e-04 -1.884826e-03 -4.216213e-04 2.254321e-03 -1.357784e-02 5.115021e-03 1.353524e-04 4.645121e-04 -3.051926e-03 9.614998e-04 4.097171e-03 -6.759691e-03 6.759554e-03 -4.174332e-03 6.624930e-05 -2.173937e-03 5.090269e-03 -3.838925e-03 3.250877e-03 -2.284003e-03 2.246847e-03 -1.948309e-03 3.849208e-03 -3.232107e-03 1.008511e-03 1.014852e-04 8.040671e-04 -8.927623e-04 -1.389353e-03 4.355764e-03 -4.433493e-03 2.889934e-03 -2.750358e-03 3.630232e-03 -5.175407e-03 5.131229e-03 -2.949814e-03 9.347143e-05 1.337278e-03 -7.420640e-04 -3.843847e-02 -1.210080e-02 1.388714e-02 1.577282e-02 2.385837e-03 -1.215644e-02 1.298071e-02 1.650858e-02 -3.845762e-03 -6.421229e-03 -1.227704e-02 9.222012e-04 3.228098e-03 -6.570238e-03 1.561152e-03 3.532999e-03 1.044750e-02 -8.293423e-03 -9.215565e-03 2.654943e-03 6.922190e-03 4.205890e-04 -5.952277e-03 -3.255078e-04 3.989370e-03 1.515150e-03 2.658679e-03 -5.259287e-03 3.534598e-03 -7.818828e-03 5.724427e-03 -1.278693e-03 -3.367871e-03 4.179056e-03 5.124990e-05 -3.192838e-03 5.444679e-04 2.799092e-03 -2.337151e-03 -2.435298e-03 5.774091e-03 -1.509187e-03 -3.479888e-03 4.575809e-03 -1.897431e-03 -1.717793e-03 4.751944e-03 -4.346984e-03 1.179531e-03 1.165318e-03 -1.630207e-03 2.022592e-03 -1.542840e-03 -4.246878e-04 2.654941e-03 -3.268062e-03 1.925935e-03 6.068514e-04 -3.732268e-03 4.908514e-03
<VARIANCE> 180
 3.068134e-01 1.475468e-01 6.480430e-02 1.353584e-01 3.563603e-02 5.256120e-02 3.656107e-02 2.121451e-02 4.957587e-02 3.387122e-02 1.792830e-02 2.513819e-02 1.797475e-02 1.451236e-02 1.887324e-02 1.805261e-02 1.255072e-02 2.358921e-02 1.542958e-02 1.548700e-02 1.171964e-02 1.529675e-02 1.561553e-02 1.228055e-02 1.395844e-02 1.450736e-02 1.136850e-02 1.251870e-02 1.278070e-02 7.757982e-03 1.074914e-02 5.928877e-03 9.292556e-03 8.159628e-03 5.877889e-03 5.431322e-03 6.140170e-03 5.433708e-03 5.696575e-03 6.908876e-03 7.019324e-03 4.678471e-03 5.814661e-03 6.531234e-03 4.947867e-03 4.494803e-03 4.379869e-03 4.006831e-03 3.236659e-03 3.020534e-03 3.604463e-03 3.615370e-03 3.037758e-03 3.150879e-03 3.157492e-03 3.317977e-03 3.610525e-03 3.691516e-03 3.193677e-03 3.017549e-03 7.549212e-03 6.080880e-03 6.417810e-03 6.680585e-03 4.845968e-03 3.990098e-03 5.273713e-03 3.952108e-03 4.095220e-03 3.747133e-03 4.055979e-03 3.813921e-03 3.689900e-03 3.210003e-03 3.600165e-03 3.422230e-03 3.192423e-03 3.463735e-03 3.082251e-03 2.544953e-03 2.787183e-03 2.757515e-03 2.577761e-03 2.120386e-03 2.270711e-03 1.924206e-03 2.042074e-03 1.859380e-03 1.899442e-03 2.104442e-03 1.822707e-03 1.341431e-03 1.624532e-03 1.661830e-03 1.432939e-03 1.015927e-03 1.286158e-03 1.200774e-03 1.034709e-03 1.221961e-03 1.221789e-03 8.226836e-04 1.000455e-03 1.040898e-03 1.071223e-03 9.704878e-04 9.548427e-04 1.037537e-03 8.605455e-04 7.579789e-04 6.528237e-04 6.256427e-04 6.497378e-04 6.170901e-04 6.318829e-04 6.937052e-04 5.950254e-04 5.186725e-04 4.825430e-04 4.867597e-04 1.027479e-02 1.439607e-02 1.700444e-02 1.904570e-02 1.420773e-02 1.246943e-02 1.347516e-02 1.657861e-02 1.433048e-02 1.493176e-02 1.555355e-02 1.572934e-02 1.343216e-02 1.269291e-02 1.400904e-02 1.293640e-02 1.236003e-02 1.304827e-02 1.141185e-02 1.184404e-02 1.373134e-02 1.270923e-02 1.235190e-02 1.249492e-02 1.433521e-02 1.215076e-02 1.215226e-02 1.089453e-02 1.013791e-02 1.054425e-02 8.459722e-03 7.418763e-03 7.436081e-03 8.933445e-03 7.035404e-03 5.708601e-03 6.447991e-03 6.136760e-03 5.853134e-03 6.113159e-03 6.065507e-03 4.746483e-03 4.674359e-03 5.410756e-03 4.734541e-03 4.822188e-03 4.337255e-03 4.561930e-03 4.071737e-03 3.537408e-03 3.697699e-03 3.574887e-03 3.512576e-03 2.731799e-03 3.381982e-03 4.232912e-03 3.215776e-03 2.734808e-03 3.003777e-03 2.803476e-03
<GCONST> -6.129540e+02
<STREAM> 2
<NUMMIXES> 2
<MIXTURE> 1 9.892308e-01
<MEAN> 1
 5.251593e+00
<VARIANCE> 1
 6.038113e-02
<GCONST> -9.692016e-01
<MIXTURE> 2 1.076903e-02
<MEAN> 0
<VARIANCE> 0
<GCONST> 0.000000e+00
<STREAM> 3
<NUMMIXES> 2
<MIXTURE> 1 9.892308e-01
<MEAN> 1
 -9.965610e-03
<VARIANCE> 1
 1.578626e-03
<GCONST> -4.613323e+00
<MIXTURE> 2 1.076903e-02
<MEAN> 0
<VARIANCE> 0
<GCONST> 0.000000e+00
<STREAM> 4
<NUMMIXES> 2
<MIXTURE> 1 9.856413e-01
<MEAN> 1
 -1.892939e-03
<VARIANCE> 1
 1.036855e-03
<GCONST> -5.033686e+00
<MIXTURE> 2 1.435843e-02
<MEAN> 0
<VARIANCE> 0
<GCONST> 0.000000e+00
<STREAM> 5
<MEAN> 15
 -4.221129e+00 -3.480442e+00 -3.242085e+00 -3.265064e+00 -3.003872e+00 -3.062315e-01 4.785330e-02 1.819008e-02 5.450361e-02 -7.890889e-03 -6.892561e-02 -2.310617e-02 1.437066e-02 -3.039248e-02 5.673065e-02
<VARIANCE> 15
 5.144697e+00 1.977908e+00 2.030215e+00 2.272328e+00 2.022201e+00 1.573137e+00 9.775553e-01 8.760107e-01 9.418658e-01 9.074016e-01 1.047886e+01 7.723232e+00 9.623487e+00 7.694062e+00 8.188991e+00
<GCONST> 4.306326e+01
<TRANSP> 7
 0.000000e+00 1.000000e+00 0.000000e+00 0.000000e+00 0.000000e+00 0.000000e+00 0.000000e+00
 0.000000e+00 8.025880e-01 1.974120e-01 0.000000e+00 0.000000e+00 0.000000e+00 0.000000e+00
 0.000000e+00 0.000000e+00 8.721934e-01 1.278066e-01 0.000000e+00 0.000000e+00 0.000000e+00
 0.000000e+00 0.000000e+00 0.000000e+00 6.982114e-01 3.017885e-01 0.000000e+00 0.000000e+00
 0.000000e+00 0.000000e+00 0.000000e+00 0.000000e+00 6.751629e-01 3.248371e-01 0.000000e+00
 0.000000e+00 0.000000e+00 0.000000e+00 0.000000e+00 0.000000e+00 6.553963e-01 3.446036e-01
 0.000000e+00 0.000000e+00 0.000000e+00 0.000000e+00 0.000000e+00 0.000000e+00 0.000000e+00
<ENDHMM>
~h "D"
<BEGINHMM>
<NUMSTATES> 7
<STATE> 2
<SWEIGHTS> 5
 1.000000e+00 0.000000e+00 0.000000e+00 0.000000e+00 0.000000e+00
<STREAM> 1
<MEAN> 180
 6.191362e+00 2.795473e+00 1.195246e-01 7.059712e-01 -1.381133e-01 5.905299e-01 -4.999873e-01 2.219746e-01 -3.701639e-01 5.357140e-02 4.123276e-02 1.782840e-01 -2.176748e-01 2.331390e-01 -4.136553e-02 -2.567334e-03 -1.870601e-01 1.126884e-01 -1.392734e-01 1.158942e-02 9.330007e-02 -8.334905e-02 -1.297649e-02 9.926496e-02 -9.898317e-02 9.667505e-02 -1.050422e-01 9.008772e-02 -3.738742e-02 1.254981e-02 -1.897741e-02 5.509658e-02 -8.204638e-02 7.225320e-02 -3.568492e-02 1.633021e-02 -2.408886e-02 4.853271e-02 -6.357647e-02 5.740404e-02 -4.066954e-02 2.161971e-02 -8.262930e-03 2.256360e-03 -2.743233e-03 8.884437e-03 -1.959320e-02 2.527929e-02 -2.108636e-02 1.142698e-02 -6.802955e-03 9.291964e-03 -1.353814e-02 1.058162e-02 -2.003624e-05 -1.477943e-02 2.317899e-02 -2.218984e-02 1.257359e-02 -8.758367e-05 -4.070763e-02 -3.983509e-03 2.265360e-02 1.286941e-03 1.386562e-02 1.029080e-02 -4.018850e-03 -3.856273e-03 -5.601494e-03 -6.839649e-03 2.545097e-03 -3.567084e-03 1.245576e-03 5.053683e-03 5.609741e-03 -1.555036e-03 -6.296218e-05 3.389343e-04 -3.549917e-03 -1.765877e-03 3.434989e-04 -1.545141e-03 1.774598e-03 -3.210208e-05 1.466766e-04 8.796420e-04 -1.854096e-03 7.776712e-04 1.120152e-03 -2.552434e-03 2.985823e-03 -3.208119e-04 -2.259872e-03 2.803596e-03 -1.218311e-03 -4.082732e-04 1.362641e-03 -1.298114e-03 5.498482e-04 2.343217e-04 -1.039386e-03 1.048990e-03 -3.645707e-04 -1.020830e-03 2.006607e-03 -1.768337e-03 4.876453e-04 1.053644e-03 -1.611915e-03 1.310057e-03 -7.109598e-04 5.215766e-04 -6.475562e-04 6.008554e-04 -1.837175e-05 -9.852799e-04 1.765868e-03 -2.183127e-03 1.874197e-03 -8.524102e-04 -1.393013e-02 -2.808500e-03 5.477278e-03 2.391295e-03 3.447333e-03 1.071667e-04 5.041358e-03 2.895932e-04 1.050322e-03 2.498650e-04 -2.812857e-03 -4.961286e-04 6.208114e-04 -9.865786e-04 1.326384e-04 1.269876e-03 1.150651e-03 -1.626837e-04 -1.069455e-04 -9.029265e-05 -2.227733e-03 1.491541e-03 3.014329e-04 -1.453906e-03 1.342680e-03 -6.679790e-04 6.396188e-04 -5.659808e-04 -5.706633e-04 1.065737e-03 1.125981e-05 -1.218327e-03 7.545493e-04 2.189119e-04 -1.872118e-04 -1.657424e-04 -1.221708e-04 -2.857865e-04 1.160076e-03 -1.105436e-03 8.303942e-05 6.947105e-04 -8.927374e-04 7.877328e-04 -6.743859e-04 2.790884e-04 1.816326e-04 -4.179662e-04 2.156002e-04 2.983927e-04 -5.141855e-04 1.343920e-04 3.612238e-04 -4.606667e-04 3.471778e-05 5.960435e-04 -8.182498e-04 4.979413e-04 -2.424960e-05 -1.474451e-04
<VARIANCE> 180
 4.864442e-01 1.655735e-01 1.486950e-01 8.983449e-02 1.472781e-01 3.774381e-02 6.394327e-02 3.520779e-02 3.406749e-02 4.096358e-02 4.160324e-02 2.369615e-02 2.352942e-02 2.385115e-02 2.526191e-02 1.841920e-02 1.874558e-02 1.593630e-02 1.691940e-02 1.438514e-02 1.304241e-02 1.270931e-02 1.025387e-02 1.123290e-02 1.070678e-02 7.605774e-03 8.415004e-03 8.280441e-03 8.414820e-03 8.527205e-03 8.562205e-03 6.570022e-03 6.112912e-03 6.489719e-03 5.720910e-03 5.282730e-03 5.257444e-03 5.267053e-03 5.164517e-03 4.784004e-03 4.655658e-03 5.100659e-03 5.302679e-03 4.724830e-03 4.133845e-03 4.146248e-03 4.394776e-03 4.307709e-03 4.039457e-03 3.830715e-03 3.580792e-03 3.538967e-03 3.807665e-03 3.980146e-03 3.778090e-03 3.595437e-03 3.557863e-03 3.468944e-03 3.507216e-03 3.512760e-03 9.122244e-03 3.083989e-03 4.352950e-03 2.833073e-03 3.504159e-03 2.587379e-03 2.644600e-03 2.189139e-03 2.323828e-03 2.327519e-03 2.183225e-03 2.076178e-03 1.975871e-03 1.906519e-03 1.832688e-03 1.733519e-03 1.568951e-03 1.551846e-03 1.466284e-03 1.385695e-03 1.351386e-03 1.300319e-03 1.194030e-03 1.206909e-03 1.116685e-03 1.080124e-03 1.042038e-03 9.930833e-04 9.959639e-04 9.483356e-04 8.849456e-04 8.303080e-04 8.097764e-04 7.913398e-04 7.452334e-04 7.264028e-04 7.031519e-04 6.687567e-04 6.615559e-04 6.236649e-04 6.282544e-04 6.118804e-04 5.932987e-04 5.690191e-04 5.486961e-04 5.288842e-04 5.115378e-04 5.134742e-04 5.058671e-04 4.866676e-04 4.685080e-04 4.612294e-04 4.481067e-04 4.305422e-04 4.172489e-04 4.155911e-04 4.306449e-04 4.128331e-04 4.035843e-04 3.991066e-04 8.280389e-03 7.975642e-03 1.107868e-02 9.525613e-03 9.988233e-03 8.852273e-03 8.730412e-03 8.508834e-03 8.223915e-03 8.168119e-03 7.783310e-03 7.553460e-03 7.435541e-03 7.238081e-03 7.008576e-03 6.757043e-03 6.670229e-03 6.630153e-03 6.340624e-03 6.119296e-03 6.037221e-03 5.970948e-03 5.503639e-03 5.501314e-03 5.256653e-03 5.056916e-03 5.057818e-03 4.761803e-03 4.781640e-03 4.477295e-03 4.260024e-03 4.278983e-03 4.124100e-03 4.130994e-03 3.807448e-03 3.786506e-03 3.735400e-03 3.480921e-03 3.401455e-03 3.358966e-03 3.434404e-03 3.234158e-03 3.148609e-03 3.071322e-03 3.060604e-03 2.978866e-03 2.820321e-03 2.755665e-03 2.715461e-03 2.685402e-03 2.628150e-03 2.603100e-03 2.534277e-03 2.422018e-03 2.328973e-03 2.231245e-03 2.321082e-03 2.280066e-03 2.161889e-03 2.217006e-03
<GCONST> -6.780557e+02
<STREAM> 2
<NUMMIXES> 2
<MIXTURE> 1 9.723889e-01
<MEAN> 1
 5.257536e+00
<VARIANCE> 1
 2.895138e-02
<GCONST> -1.704260e+00
<MIXTURE> 2 2.761081e-02
<MEAN> 0
<VARIANCE> 0
<GCONST> 0.000000e+00
<STREAM> 3
<NUMMIXES> 2
<MIXTURE> 1 9.697055e-01
<MEAN> 1
 -3.827628e-03
<VARIANCE> 1
 1.434982e-04
<GCONST> -7.011312e+00
<MIXTURE> 2 3.029430e-02
<MEAN> 0
<VARIANCE> 0
<GCONST> 0.000000e+00
<STREAM> 4
<NUMMIXES> 2
<MIXTURE> 1 9.695444e-01
<MEAN> 1
 -5.484684e-04
<VARIANCE> 1
 4.157370e-04
<GCONST> -5.947580e+00
<MIXTURE> 2 3.045527e-02
<MEAN> 0
<VARIANCE> 0
<GCONST> 0.000000e+00
<STREAM> 5
<MEAN> 15
 -8.062119e+00 -4.322108e+00 -4.153552e+00 -3.590843e+00 -3.279367e+00 1.623961e-01 2.872343e-02 4.187048e-02 1.763060e-02 2.103177e-02 1.466513e-01 3.500561e-02 4.118770e-02 6.873497e-03 1.874717e-02
<VARIANCE> 15
 1.770702e+01 5.646821e+00 5.396440e+00 3.506088e+00 2.726914e+00 2.633970e+00 1.628797e+00 1.618555e+00 1.201078e+00 9.733878e-01 1.618476e+01 1.253506e+01 1.298137e+01 1.010277e+01 8.840547e+00
<GCONST> 5.057900e+01
<STATE> 3
<SWEIGHTS> 5
 1.000000e+00 0.000000e+00 0.000000e+00 0.000000e+00 0.000000e+00
<STREAM> 1
<MEAN> 180
 5.744009e+00 2.725939e+00 2.894297e-01 7.015992e-01 -5.286200e-02 6.559101e-01 -4.542048e-01 2.151931e-01 -3.905196e-01 2.138350e-02 5.578303e-02 1.459289e-01 -2.071086e-01 2.240060e-01 -4.707072e-03 1.190558e-02 -1.980864e-01 1.127235e-01 -1.610436e-01 5.344890e-03 8.060624e-02 -8.980278e-02 5.327910e-03 7.978335e-02 -7.996864e-02 9.033203e-02 -1.120954e-01 9.666499e-02 -3.404505e-02 1.682681e-03 -7.251613e-03 5.412372e-02 -8.763310e-02 7.938584e-02 -3.500948e-02 8.256579e-03 -1.031797e-02 3.573633e-02 -5.608113e-02 5.737296e-02 -5.081766e-02 3.518858e-02 -1.622107e-02 2.049046e-04 6.661336e-03 -1.761152e-04 -1.592869e-02 2.804207e-02 -2.717195e-02 1.889095e-02 -1.479863e-02 1.814043e-02 -2.322425e-02 1.916634e-02 -4.394290e-03 -1.843482e-02 3.521552e-02 -3.933201e-02 2.849430e-02 -9.077664e-03 -8.713376e-02 -1.872216e-02 3.441101e-02 9.618142e-03 2.283902e-02 1.076204e-02 1.080589e-02 3.793515e-04 1.863231e-03 -3.958118e-03 -3.337306e-03 -8.851548e-03 1.172034e-04 -8.766709e-04 5.027014e-03 2.129031e-03 2.018777e-03 -1.348250e-03 -3.308642e-03 -1.162962e-03 -5.128173e-03 1.631412e-03 6.492882e-04 -2.251463e-03 3.152149e-03 -1.296464e-03 1.072314e-03 -6.140000e-04 1.507571e-03 -2.668493e-03 3.076879e-03 -8.924945e-04 -9.976496e-04 1.896623e-03 -1.383345e-03 3.284461e-04 1.125068e-03 -2.463618e-03 2.955607e-03 -1.326965e-03 -1.284492e-03 2.392677e-03 -1.722569e-03 2.328835e-04 4.851480e-04 -6.206043e-04 4.345189e-04 -1.691865e-04 -4.284164e-04 1.109852e-03 -1.199250e-03 5.218834e-04 1.313544e-04 -1.435319e-04 -4.561189e-04 6.380903e-04 -4.930707e-05 -8.112632e-04 1.075267e-03 -6.041483e-04 -5.844739e-03 -9.201262e-03 7.467275e-04 3.219702e-03 -1.409817e-03 -2.670399e-03 5.770835e-03 3.009356e-03 5.630099e-03 5.351003e-03 -5.058947e-03 -1.100544e-03 4.934832e-04 -4.234987e-03 -3.993711e-03 1.740484e-03 -7.340867e-04 -1.022520e-03 1.993974e-03 1.273555e-03 -1.587818e-03 2.603193e-03 -2.884996e-03 -3.084176e-04 9.842885e-04 -1.049969e-03 2.118443e-03 1.848753e-04 -5.771315e-04 1.170326e-04 -1.386336e-03 8.042199e-04 1.666610e-03 -2.493354e-03 6.678594e-04 7.948114e-04 -6.552615e-04 1.307584e-04 8.909093e-05 -1.724291e-04 5.046403e-04 -3.170871e-04 -5.997674e-04 1.509271e-03 -1.740568e-03 9.453549e-04 6.564327e-04 -1.728040e-03 1.412338e-03 -6.190089e-04 1.081940e-04 -5.032281e-04 1.252707e-03 -1.349114e-03 2.561911e-05 1.764978e-03 -2.914712e-03 3.130707e-03 -2.315070e-03 5.462567e-04
<VARIANCE> 180
 6.037823e-01 2.239778e-01 1.202338e-01 7.052250e-02 1.015447e-01 3.989272e-02 6.036163e-02 3.162971e-02 3.860345e-02 3.783448e-02 3.415433e-02 2.412377e-02 2.419797e-02 2.575559e-02 2.456647e-02 1.816697e-02 1.606111e-02 1.548062e-02 1.732095e-02 1.394201e-02 1.345813e-02 1.349679e-02 1.078349e-02 1.068801e-02 1.082976e-02 7.793835e-03 8.497788e-03 8.450362e-03 8.901449e-03 8.703489e-03 8.899389e-03 6.943907e-03 6.364889e-03 6.402642e-03 5.638469e-03 5.402529e-03 5.172103e-03 5.042780e-03 4.874822e-03 4.494889e-03 4.274672e-03 4.651377e-03 5.021842e-03 4.484465e-03 3.859192e-03 3.778040e-03 3.935295e-03 3.801100e-03 3.580282e-03 3.455564e-03 3.380832e-03 3.509174e-03 3.647683e-03 3.680147e-03 3.414889e-03 3.262155e-03 3.527975e-03 3.818632e-03 3.852879e-03 3.658385e-03 1.779317e-02 4.765355e-03 6.189866e-03 3.853785e-03 4.727091e-03 3.528739e-03 3.759053e-03 3.005915e-03 3.174449e-03 3.371920e-03 3.135910e-03 2.939068e-03 2.862903e-03 2.803233e-03 2.829846e-03 2.486290e-03 2.291104e-03 2.254632e-03 2.090578e-03 2.057445e-03 1.969928e-03 1.895567e-03 1.676943e-03 1.638633e-03 1.550489e-03 1.501837e-03 1.379350e-03 1.389492e-03 1.336530e-03 1.254899e-03 1.188538e-03 1.124665e-03 1.096719e-03 1.036012e-03 9.508649e-04 9.446109e-04 9.307806e-04 8.761741e-04 8.474941e-04 8.133727e-04 8.063870e-04 7.844995e-04 7.434677e-04 7.187356e-04 6.880663e-04 6.591335e-04 6.525577e-04 6.324253e-04 6.205368e-04 6.048299e-04 5.742072e-04 5.620602e-04 5.486338e-04 5.429988e-04 5.298565e-04 5.101885e-04 5.030035e-04 4.870764e-04 4.702454e-04 4.696313e-04 1.243443e-02 1.046439e-02 1.411945e-02 1.216179e-02 1.282589e-02 1.172701e-02 1.193782e-02 1.095621e-02 1.101457e-02 1.159110e-02 1.091328e-02 1.073843e-02 1.071077e-02 1.042258e-02 1.024861e-02 9.609038e-03 9.160844e-03 8.962238e-03 8.815570e-03 8.853864e-03 8.407457e-03 8.558773e-03 7.593973e-03 7.659107e-03 7.110834e-03 7.027010e-03 6.825067e-03 6.490723e-03 6.543704e-03 6.028233e-03 5.766946e-03 5.437614e-03 5.322178e-03 5.186037e-03 4.761956e-03 4.853614e-03 4.653031e-03 4.400722e-03 4.296082e-03 4.129631e-03 4.233331e-03 3.862662e-03 3.832598e-03 3.746847e-03 3.469441e-03 3.486805e-03 3.254370e-03 3.174458e-03 3.112076e-03 2.995241e-03 2.876553e-03 2.773176e-03 2.737629e-03 2.756150e-03 2.666753e-03 2.633631e-03 2.698566e-03 2.594493e-03 2.446498e-03 2.447352e-03
<GCONST> -6.472321e+02
<STREAM> 2
<NUMMIXES> 2
<MIXTURE> 1 9.464208e-01
<MEAN> 1
 5.219978e+00
<VARIANCE> 1
 3.429586e-02
<GCONST> -1.534854e+00
<MIXTURE> 2 5.358097e-02
<MEAN> 0
<VARIANCE> 0
<GCONST> 0.000000e+00
<STREAM> 3
<NUMMIXES> 2
<MIXTURE> 1 9.414378e-01
<MEAN> 1
 -5.846935e-03
<VARIANCE> 1
 2.508408e-04
<GCONST> -6.452815e+00
<MIXTURE> 2 5.856395e-02
<MEAN> 0
<VARIANCE> 0
<GCONST> 0.000000e+00
<STREAM> 4
<NUMMIXES> 2
<MIXTURE> 1 9.409198e-01
<MEAN> 1
 2.628072e-04
<VARIANCE> 1
 9.261922e-04
<GCONST> -5.146552e+00
<MIXTURE> 2 5.908211e-02
<MEAN> 0
<VARIANCE> 0
<GCONST> 0.000000e+00
<STREAM> 5
<MEAN> 15
 -5.325550e+00 -3.493660e+00 -3.420718e+00 -3.131309e+00 -2.935858e+00 3.227813e-01 1.221085e-01 8.960208e-02 6.099841e-02 3.042699e-02 -7.156020e-02 3.367861e-02 -6.235769e-03 1.891565e-02 -3.751847e-02
<VARIANCE> 15
 1.131004e+01 3.801185e+00 3.705706e+00 2.709642e+00 2.226444e+00 2.083035e+00 1.164762e+00 1.175193e+00 9.330212e-01 7.935475e-01 1.199890e+01 8.928228e+00 9.521050e+00 7.462068e+00 6.799171e+00
<GCONST> 4.603763e+01
<STATE> 4
<SWEIGHTS> 5
 1.000000e+00 0.000000e+00 0.000000e+00 0.000000e+00 0.000000e+00
<STREAM> 1
<MEAN> 180
 5.479990e+00 2.679599e+00 4.379041e-01 7.723895e-01 2.952788e-02 7.153358e-01 -4.112912e-01 2.345693e-01 -3.744323e-01 9.827080e-03 2.738284e-02 9.760340e-02 -2.167321e-01 1.947421e-01 -9.874268e-03 2.748994e-02 -1.952326e-01 1.101737e-01 -1.511407e-01 9.853479e-03 5.764970e-02 -6.361397e-02 -3.892777e-03 7.019567e-02 -6.311218e-02 7.848282e-02 -1.042722e-01 9.204817e-02 -2.442040e-02 -1.101301e-02 2.350369e-03 5.300517e-02 -8.796119e-02 8.039448e-02 -3.807907e-02 1.226322e-02 -1.117981e-02 2.568465e-02 -3.984320e-02 4.505077e-02 -4.901296e-02 4.021121e-02 -2.239284e-02 2.094345e-03 8.150648e-03 -3.236510e-03 -1.324507e-02 2.594694e-02 -2.684400e-02 1.985190e-02 -1.496924e-02 1.419930e-02 -1.525761e-02 1.193626e-02 -4.210205e-03 -9.586475e-03 2.143405e-02 -2.646216e-02 2.080782e-02 -6.296579e-03 -2.910119e-02 -2.278135e-02 6.459429e-03 6.563774e-03 1.471808e-02 2.786122e-04 8.830278e-04 4.960494e-04 5.979243e-03 4.405124e-03 -6.994381e-03 -5.053575e-03 -4.172629e-04 2.644106e-03 4.668080e-04 4.584042e-04 9.213240e-04 -2.722521e-04 -1.252321e-03 2.486404e-04 -4.427401e-03 2.283059e-03 -1.680787e-03 -5.920486e-04 1.636178e-03 -1.497489e-03 1.153076e-03 1.586714e-04 4.179412e-05 1.244311e-05 9.871022e-05 -2.911488e-04 3.382405e-04 -2.709124e-04 6.585157e-04 -3.557978e-04 2.490168e-04 -1.741614e-04 1.806591e-04 3.705244e-04 -7.902177e-04 1.104187e-03 -1.240852e-03 7.904862e-04 -6.575242e-05 -3.590086e-04 3.936205e-04 -1.484319e-04 -2.226913e-04 2.103689e-04 2.431857e-04 -1.031651e-03 1.629096e-03 -1.392083e-03 1.028373e-04 1.340184e-03 -2.131099e-03 2.182296e-03 -1.780673e-03 1.033819e-03 2.674349e-02 3.325885e-04 -1.629543e-02 -1.219855e-03 -1.953564e-03 -6.696317e-03 -6.645355e-03 -1.075549e-03 1.347900e-03 9.592523e-04 -1.031710e-03 3.438162e-03 1.020772e-03 2.500076e-03 -2.126704e-03 -1.678645e-03 1.081767e-03 5.493801e-04 -7.165645e-04 -6.803900e-04 1.035938e-03 2.663326e-04 8.020087e-05 1.291226e-04 -1.895263e-03 9.273789e-04 -4.628790e-06 -8.025166e-04 -4.289093e-04 2.381724e-03 -1.327210e-03 -1.398811e-04 -2.740024e-06 -5.420309e-04 1.507912e-03 -1.089231e-03 -3.179807e-04 1.904585e-03 -2.529819e-03 1.925252e-03 -3.188560e-05 -1.053749e-03 1.069739e-03 -6.414278e-04 5.145907e-04 -3.188950e-05 -7.490232e-04 1.085067e-03 -1.322732e-04 -1.280568e-03 1.924129e-03 -1.566145e-03 7.749272e-04 -5.672604e-05 6.841187e-05 -2.510040e-04 -4.580547e-05 7.752344e-04 -1.160953e-03 9.919232e-04
<VARIANCE> 180
 5.576530e-01 2.038619e-01 1.157687e-01 6.057718e-02 8.187064e-02 4.292747e-02 5.487785e-02 2.869345e-02 3.460933e-02 3.498936e-02 2.957452e-02 2.541623e-02 2.324293e-02 2.566861e-02 2.175414e-02 1.921319e-02 1.521444e-02 1.518138e-02 1.726820e-02 1.373095e-02 1.357957e-02 1.311274e-02 1.055521e-02 9.597301e-03 9.723322e-03 7.102927e-03 7.607330e-03 7.724260e-03 8.231585e-03 8.180474e-03 8.003097e-03 6.137662e-03 5.563139e-03 5.743099e-03 4.855403e-03 4.903550e-03 4.820479e-03 4.682169e-03 4.531623e-03 4.157144e-03 3.925309e-03 4.327426e-03 4.335160e-03 3.932041e-03 3.574370e-03 3.478950e-03 3.350772e-03 3.191568e-03 3.184702e-03 3.110611e-03 2.891159e-03 2.838335e-03 2.952171e-03 2.973998e-03 2.791448e-03 2.732031e-03 2.768251e-03 2.839017e-03 2.968148e-03 2.910492e-03 2.526995e-02 7.493863e-03 8.037712e-03 4.817722e-03 5.933324e-03 4.135194e-03 5.214802e-03 3.757478e-03 3.957001e-03 4.160083e-03 4.103845e-03 3.779738e-03 3.638136e-03 3.494369e-03 3.547654e-03 3.073108e-03 2.832063e-03 2.772456e-03 2.587377e-03 2.468671e-03 2.414248e-03 2.146396e-03 2.010153e-03 1.868323e-03 1.861267e-03 1.726383e-03 1.614358e-03 1.518018e-03 1.447379e-03 1.342764e-03 1.294640e-03 1.223799e-03 1.176224e-03 1.089865e-03 1.032294e-03 1.007036e-03 9.351925e-04 9.133367e-04 8.762063e-04 8.473176e-04 8.371766e-04 8.264038e-04 7.958311e-04 7.541533e-04 7.053372e-04 6.814674e-04 6.426718e-04 6.349625e-04 6.414994e-04 6.222423e-04 5.932184e-04 5.599822e-04 5.541088e-04 5.470664e-04 5.254928e-04 5.269843e-04 5.167572e-04 4.888023e-04 4.797753e-04 4.803647e-04 1.626913e-02 1.551687e-02 1.829319e-02 1.751495e-02 1.664436e-02 1.626413e-02 1.650633e-02 1.563848e-02 1.515729e-02 1.640258e-02 1.542563e-02 1.494132e-02 1.490988e-02 1.407757e-02 1.486569e-02 1.401073e-02 1.340669e-02 1.310282e-02 1.227792e-02 1.217067e-02 1.166385e-02 1.093829e-02 1.071725e-02 1.001447e-02 9.530118e-03 9.085723e-03 8.511111e-03 8.046990e-03 7.646644e-03 7.476152e-03 7.449606e-03 6.856248e-03 6.653103e-03 6.378503e-03 5.870542e-03 5.857008e-03 5.569567e-03 5.259655e-03 5.053764e-03 5.005113e-03 4.843607e-03 4.841925e-03 4.708844e-03 4.368681e-03 4.126986e-03 3.956075e-03 3.816149e-03 3.768852e-03 3.783707e-03 3.655356e-03 3.541282e-03 3.317951e-03 3.210485e-03 3.204010e-03 3.055170e-03 2.987146e-03 2.976329e-03 2.880822e-03 2.787313e-03 2.798656e-03
<GCONST> -6.317831e+02
<STREAM> 2
<NUMMIXES> 2
<MIXTURE> 1 9.518492e-01
<MEAN> 1
 5.253388e+00
<VARIANCE> 1
 2.763620e-02
<GCONST> -1.750752e+00
<MIXTURE> 2 4.815088e-02
<MEAN> 0
<VARIANCE> 0
<GCONST> 0.000000e+00
<STREAM> 3
<NUMMIXES> 2
<MIXTURE> 1 9.467725e-01
<MEAN> 1
 -3.343608e-03
<VARIANCE> 1
 3.237024e-04
<GCONST> -6.197808e+00
<MIXTURE> 2 5.322754e-02
<MEAN> 0
<VARIANCE> 0
<GCONST> 0.000000e+00
<STREAM> 4
<NUMMIXES> 2
<MIXTURE> 1 9.460036e-01
<MEAN> 1
 5.945521e-04
<VARIANCE> 1
 1.040923e-03
<GCONST> -5.029770e+00
<MIXTURE> 2 5.399638e-02
<MEAN> 0
<VARIANCE> 0
<GCONST> 0.000000e+00
<STREAM> 5
<MEAN> 15
 -4.539688e+00 -3.181553e+00 -3.199539e+00 -3.076898e+00 -3.089489e+00 7.249686e-02 3.170890e-02 2.897827e-02 1.506230e-02 5.801503e-03 -7.906587e-02 -4.530872e-02 -2.406445e-02 -3.476625e-02 1.870454e-02
<VARIANCE> 15
 8.720841e+00 3.135286e+00 2.975303e+00 2.554126e+00 2.565423e+00 1.768602e+00 1.020655e+00 1.008795e+00 8.896633e-01 8.724966e-01 1.073199e+01 8.429076e+00 8.716377e+00 7.529969e+00 7.554205e+00
<GCONST> 4.490396e+01
<STATE> 5
<SWEIGHTS> 5
 1.000000e+00 0.000000e+00 0.000000e+00 0.000000e+00 0.000000e+00
<STREAM> 1
<MEAN> 180
 5.550819e+00 2.533682e+00 2.999913e-01 7.718127e-01 6.672485e-02 6.183963e-01 -4.736905e-01 2.266121e-01 -3.227923e-01 2.924910e-02 -1.748084e-02 1.284696e-01 -1.968185e-01 2.524531e-01 -2.147706e-02 5.332573e-03 -1.824378e-01 1.297389e-01 -1.707750e-01 -6.893008e-03 4.732539e-02 -4.780086e-02 -1.511472e-02 5.873784e-02 -5.332822e-02 7.560029e-02 -1.033929e-01 9.455075e-02 -3.686874e-02 1.176408e-02 -1.242005e-02 5.432675e-02 -8.490700e-02 7.416414e-02 -2.675325e-02 6.269741e-03 -1.419651e-02 3.680540e-02 -5.211796e-02 5.668938e-02 -5.846380e-02 4.779561e-02 -2.995774e-02 1.065276e-02 3.900059e-03 -3.702198e-03 -1.075082e-02 2.446619e-02 -2.462776e-02 1.499031e-02 -6.587554e-03 2.902715e-03 -2.613789e-03 1.543480e-03 -1.736516e-04 -4.820025e-03 7.762812e-03 -7.090720e-03 1.175776e-03 6.355328e-03 -1.293224e-02 -2.191824e-02 -3.216963e-03 5.153320e-03 8.452802e-03 -1.334088e-02 1.021964e-03 -1.585312e-04 1.018735e-02 6.365926e-03 -1.056546e-02 2.898815e-03 1.820231e-03 6.398831e-04 -6.087123e-03 -9.693084e-04 2.357557e-03 6.875739e-05 -8.301302e-04 -7.444574e-04 -3.546599e-03 5.425743e-03 -2.520004e-03 -1.067104e-04 7.508678e-05 -1.936713e-03 3.334889e-03 -1.234197e-03 -1.163562e-03 4.386057e-03 -3.442106e-03 5.392922e-04 1.342850e-03 -2.446910e-03 2.757086e-03 -1.472675e-03 -7.112439e-04 2.401854e-03 -2.716175e-03 2.061303e-03 -5.139838e-04 -7.932252e-04 6.434553e-04 4.255215e-04 -9.567534e-04 8.019268e-04 -4.843806e-04 -1.796117e-04 1.502391e-03 -2.726242e-03 2.901714e-03 -2.309312e-03 1.421285e-03 -2.417257e-04 -6.822218e-04 1.563946e-03 -2.473752e-03 3.273996e-03 -3.208433e-03 1.875449e-03 -1.423953e-02 -5.618041e-03 6.323590e-03 1.698974e-04 -2.795362e-03 -1.747647e-03 8.693859e-03 2.088282e-03 9.623832e-04 5.920231e-03 -5.049086e-04 5.513715e-04 -8.191668e-04 -6.756698e-03 -2.957461e-03 1.377349e-03 -1.437654e-03 -1.105848e-03 4.022972e-03 7.427252e-04 -2.375053e-03 3.314751e-03 -1.550608e-03 1.690279e-03 1.003726e-03 -2.947676e-03 2.963986e-03 -6.603954e-04 -8.878181e-04 1.256320e-03 -1.636452e-03 -1.557507e-04 2.465339e-03 -1.685073e-03 -7.995261e-04 1.451113e-03 -1.252100e-03 5.241507e-04 8.765752e-04 -2.517400e-03 1.851521e-03 -1.098049e-03 2.291428e-04 1.722967e-03 -2.791487e-03 1.684381e-03 2.922246e-04 -2.135663e-03 2.335509e-03 -9.623659e-04 -8.792306e-04 2.087352e-03 -2.285837e-03 1.698838e-03 -5.098007e-04 -4.488650e-04 7.257204e-04 -6.196480e-04 4.672079e-04 -1.409529e-04
<VARIANCE> 180
 8.758667e-01 2.915371e-01 1.251515e-01 7.697028e-02 9.466380e-02 4.355032e-02 7.129312e-02 3.004241e-02 3.632225e-02 3.373281e-02 3.270699e-02 2.559675e-02 2.304744e-02 2.817770e-02 2.334601e-02 1.890995e-02 1.636107e-02 1.685713e-02 1.721781e-02 1.406980e-02 1.431355e-02 1.310298e-02 1.082583e-02 1.078845e-02 1.082879e-02 7.818107e-03 8.210448e-03 7.877169e-03 8.648372e-03 7.928994e-03 8.194570e-03 6.850072e-03 5.985154e-03 6.460270e-03 5.760047e-03 5.670709e-03 5.526728e-03 5.354180e-03 5.299279e-03 4.683154e-03 4.358831e-03 4.691052e-03 4.787794e-03 4.390020e-03 3.950452e-03 4.048994e-03 4.025845e-03 3.622164e-03 3.366399e-03 3.192114e-03 3.160657e-03 3.297533e-03 3.448414e-03 3.446865e-03 3.158059e-03 2.919396e-03 3.082428e-03 3.314306e-03 3.288348e-03 3.096747e-03 2.791687e-02 9.279459e-03 7.734764e-03 4.929502e-03 5.159798e-03 4.106066e-03 4.726250e-03 3.457333e-03 3.514009e-03 3.637712e-03 3.507248e-03 3.353090e-03 3.082896e-03 3.120193e-03 3.078500e-03 2.761566e-03 2.625460e-03 2.418916e-03 2.255955e-03 2.285030e-03 2.223977e-03 2.009158e-03 1.944360e-03 1.736846e-03 1.750131e-03 1.695739e-03 1.628793e-03 1.477170e-03 1.430171e-03 1.333481e-03 1.271403e-03 1.177398e-03 1.155212e-03 1.117518e-03 1.022854e-03 1.031200e-03 9.801883e-04 9.403961e-04 9.032124e-04 8.610972e-04 8.487229e-04 7.904737e-04 8.207133e-04 7.351676e-04 6.983558e-04 7.088467e-04 6.861609e-04 6.481282e-04 6.203416e-04 5.966074e-04 6.113165e-04 5.798852e-04 5.585126e-04 5.473641e-04 5.143381e-04 4.912518e-04 4.937145e-04 5.122153e-04 4.810279e-04 4.757741e-04 1.608205e-02 1.420882e-02 1.608093e-02 1.358697e-02 1.347159e-02 1.267217e-02 1.280790e-02 1.168188e-02 1.156220e-02 1.238489e-02 1.163401e-02 1.132107e-02 1.072320e-02 1.069320e-02 1.078814e-02 1.029332e-02 1.063989e-02 9.752582e-03 9.537333e-03 9.042078e-03 9.077490e-03 8.604192e-03 8.268503e-03 7.937899e-03 7.640674e-03 7.492898e-03 7.170098e-03 6.500520e-03 6.329881e-03 6.217161e-03 5.949672e-03 5.818904e-03 5.623854e-03 5.392238e-03 4.898186e-03 4.806299e-03 4.739421e-03 4.430804e-03 4.236014e-03 4.045710e-03 3.886791e-03 3.879383e-03 3.819067e-03 3.579360e-03 3.504608e-03 3.427382e-03 3.238168e-03 3.239471e-03 3.100487e-03 2.974426e-03 2.968804e-03 2.833643e-03 2.702044e-03 2.638889e-03 2.597742e-03 2.535655e-03 2.490133e-03 2.523567e-03 2.418601e-03 2.432735e-03
<GCONST> -6.400314e+02
<STREAM> 2
<NUMMIXES> 2
<MIXTURE> 1 8.902708e-01
<MEAN> 1
 5.208705e+00
<VARIANCE> 1
 3.397892e-02
<GCONST> -1.544138e+00
<MIXTURE> 2 1.097279e-01
<MEAN> 0
<VARIANCE> 0
<GCONST> 0.000000e+00
<STREAM> 3
<NUMMIXES> 2
<MIXTURE> 1 8.807294e-01
<MEAN> 1
 -3.997474e-03
<VARIANCE> 1
 3.592908e-04
<GCONST> -6.093501e+00
<MIXTURE> 2 1.192690e-01
<MEAN> 0
<VARIANCE> 0
<GCONST> 0.000000e+00
<STREAM> 4
<NUMMIXES> 2
<MIXTURE> 1 8.787878e-01
<MEAN> 1
 -1.347905e-03
<VARIANCE> 1
 1.429323e-03
<GCONST> -4.712678e+00
<MIXTURE> 2 1.212107e-01
<MEAN> 0
<VARIANCE> 0
<GCONST> 0.000000e+00
<STREAM> 5
<MEAN> 15
 -4.895113e+00 -3.189533e+00 -3.155940e+00 -2.979757e+00 -2.813442e+00 9.483475e-02 5.566363e-02 2.315619e-02 1.348272e-02 1.961171e-02 1.245901e-02 7.830752e-03 3.918716e-03 4.764456e-02 -3.641503e-02
<VARIANCE> 15
 1.316318e+01 4.161856e+00 4.048658e+00 3.324783e+00 2.651099e+00 1.975461e+00 1.075577e+00 1.108325e+00 8.907595e-01 7.716811e-01 1.084379e+01 8.066113e+00 8.524278e+00 7.154379e+00 6.606188e+00
<GCONST> 4.609787e+01
<STATE> 6
<SWEIGHTS> 5
 1.000000e+00 0.000000e+00 0.000000e+00 0.000000e+00 0.000000e+00
<STREAM> 1
<MEAN> 180
 4.758440e+00 1.931417e+00 1.736836e-01 6.649754e-01 1.153440e-02 5.405406e-01 -3.831890e-01 2.780967e-01 -2.121692e-01 9.845640e-02 -2.780932e-02 1.386970e-01 -1.179747e-01 2.107368e-01 -4.976630e-02 3.476271e-02 -1.537502e-01 8.783443e-02 -1.579042e-01 1.934236e-02 5.722445e-03 -1.545099e-02 -2.442412e-02 5.294415e-02 -6.249276e-02 6.675426e-02 -7.604869e-02 6.436775e-02 -2.203942e-02 2.147053e-02 -1.139063e-02 4.566484e-02 -7.394330e-02 5.924698e-02 -2.886320e-02 1.340806e-02 -1.448985e-02 2.097669e-02 -4.419896e-02 4.947054e-02 -5.552300e-02 4.053159e-02 -2.995861e-02 1.591494e-02 -3.626925e-03 3.220560e-03 -1.608839e-02 2.406971e-02 -2.138418e-02 1.436875e-02 -1.010836e-02 8.256309e-03 -1.011198e-02 1.237891e-02 -1.021767e-02 8.549739e-04 7.566896e-03 -1.031892e-02 6.217422e-03 1.214653e-03 -6.157583e-02 -3.030978e-02 7.795647e-03 9.522566e-03 9.596155e-03 -7.219250e-03 1.578656e-02 -3.683670e-04 1.019158e-02 7.410066e-03 -8.953925e-03 -2.040167e-03 2.364327e-03 -7.602027e-03 -5.891194e-03 7.392097e-04 1.720342e-03 -4.503451e-03 4.162089e-03 1.872823e-03 -4.626691e-03 7.015395e-03 -3.424557e-03 7.503399e-04 1.562145e-03 -1.953117e-03 4.679414e-03 -2.800989e-03 -6.372959e-04 3.163954e-03 -3.138970e-03 -3.849914e-04 3.029515e-03 -3.261258e-03 2.427433e-04 1.728299e-03 -1.558981e-03 9.762956e-04 -4.507626e-04 -1.566781e-03 2.299657e-03 -1.493048e-03 -2.498349e-04 1.769007e-03 -2.339033e-03 1.341971e-03 2.736994e-04 -1.637651e-03 1.617569e-03 -5.562174e-04 -3.748851e-04 3.921775e-04 -1.059319e-04 -2.278897e-04 2.752396e-04 6.377465e-04 -1.973863e-03 2.660035e-03 -2.021053e-03 8.553890e-04 4.173784e-03 -7.992941e-03 -3.025895e-03 6.898208e-03 -2.860934e-03 1.267417e-03 4.402229e-03 1.998849e-04 -1.574373e-03 -3.072354e-04 -2.046320e-03 2.856847e-03 -4.766172e-04 -3.255391e-03 -1.069442e-03 1.409451e-03 5.327506e-04 -2.523174e-03 2.965093e-03 2.939508e-03 1.374068e-03 -5.540511e-04 -2.074409e-03 -1.826256e-04 6.963174e-04 1.045786e-03 -3.649238e-04 -1.155956e-03 2.382869e-04 5.464609e-04 -1.813351e-03 8.457276e-04 7.176579e-04 -1.230392e-03 1.344720e-04 1.700481e-03 -1.694749e-03 4.274460e-04 2.945359e-04 -1.675845e-03 1.995158e-03 -7.307471e-04 -4.849177e-04 6.189198e-04 -8.103477e-04 8.839014e-04 -3.318633e-04 -5.074259e-05 -2.385810e-04 8.939936e-04 -9.765673e-04 7.005852e-04 -7.127211e-05 -1.107062e-03 1.308716e-03 -1.222147e-04 -9.810883e-04 9.019683e-04 -3.791602e-05 -5.476200e-04
<VARIANCE> 180
 1.431280e+00 9.371644e-01 2.433142e-01 9.882762e-02 9.610262e-02 5.126906e-02 6.564529e-02 4.028367e-02 4.857196e-02 3.630253e-02 2.984993e-02 2.833520e-02 3.981560e-02 2.886562e-02 2.381942e-02 2.139333e-02 1.947361e-02 1.868154e-02 1.728735e-02 1.504245e-02 1.506612e-02 1.407491e-02 1.083292e-02 1.071013e-02 1.091371e-02 8.066233e-03 8.486458e-03 9.262571e-03 8.784606e-03 7.440017e-03 7.712920e-03 6.732198e-03 5.790210e-03 6.417408e-03 6.382226e-03 5.608344e-03 4.956008e-03 5.941875e-03 5.220701e-03 4.823169e-03 4.281338e-03 4.067937e-03 4.277820e-03 4.043684e-03 3.685937e-03 3.530515e-03 3.656870e-03 3.363860e-03 3.048893e-03 2.995997e-03 3.015153e-03 2.950557e-03 2.840939e-03 2.812106e-03 2.735895e-03 2.575460e-03 2.640118e-03 2.789429e-03 2.801923e-03 2.733126e-03 2.978827e-02 1.745279e-02 8.889886e-03 6.081027e-03 5.870928e-03 4.918656e-03 5.516618e-03 4.263014e-03 4.434890e-03 4.281611e-03 4.309806e-03 3.900648e-03 3.541245e-03 3.921757e-03 3.700481e-03 3.383629e-03 3.172264e-03 3.126532e-03 2.928663e-03 2.793075e-03 2.799743e-03 2.613061e-03 2.389916e-03 2.258944e-03 2.180834e-03 2.106818e-03 2.020081e-03 1.812120e-03 1.805990e-03 1.715763e-03 1.561517e-03 1.487097e-03 1.459150e-03 1.414650e-03 1.344212e-03 1.233171e-03 1.190125e-03 1.128256e-03 1.084986e-03 1.001027e-03 9.746405e-04 9.325456e-04 9.229033e-04 8.787390e-04 8.304183e-04 8.037126e-04 7.481521e-04 7.461122e-04 7.190196e-04 6.731480e-04 6.627749e-04 6.191017e-04 6.017759e-04 5.837223e-04 5.622646e-04 5.567822e-04 5.344529e-04 5.412896e-04 5.232969e-04 5.173407e-04 1.942941e-02 1.974860e-02 1.742110e-02 1.558551e-02 1.426066e-02 1.376813e-02 1.426902e-02 1.347084e-02 1.340432e-02 1.396951e-02 1.313001e-02 1.314830e-02 1.294187e-02 1.246322e-02 1.278936e-02 1.202839e-02 1.171313e-02 1.052941e-02 1.094683e-02 1.043703e-02 1.031692e-02 9.559253e-03 9.350431e-03 8.620577e-03 8.627662e-03 8.114726e-03 7.727001e-03 7.307305e-03 7.374362e-03 6.815289e-03 6.354777e-03 6.179614e-03 6.071368e-03 5.848267e-03 5.538014e-03 5.156464e-03 5.011126e-03 4.838385e-03 4.504913e-03 4.269935e-03 4.161832e-03 3.814173e-03 3.866808e-03 3.621105e-03 3.496222e-03 3.423569e-03 3.203577e-03 3.099159e-03 3.057985e-03 2.887929e-03 2.901619e-03 2.711320e-03 2.634457e-03 2.537454e-03 2.389993e-03 2.341283e-03 2.310574e-03 2.256865e-03 2.196213e-03 2.210421e-03
<GCONST> -6.230740e+02
<STREAM> 2
<NUMMIXES> 2
<MIXTURE> 1 5.944110e-01
<MEAN> 1
 5.179011e+00
<VARIANCE> 1
 3.907444e-02
<GCONST> -1.404410e+00
<MIXTURE> 2 4.055820e-01
<MEAN> 0
<VARIANCE> 0
<GCONST> 0.000000e+00
<STREAM> 3
<NUMMIXES> 2
<MIXTURE> 1 5.776942e-01
<MEAN> 1
 -4.171226e-03
<VARIANCE> 1
 7.120380e-04
<GCONST> -5.409502e+00
<MIXTURE> 2 4.222994e-01
<MEAN> 0
<VARIANCE> 0
<GCONST> 0.000000e+00
<STREAM> 4
<NUMMIXES> 2
<MIXTURE> 1 5.750014e-01
<MEAN> 1
 1.537667e-03
<VARIANCE> 1
 2.877523e-03
<GCONST> -4.012948e+00
<MIXTURE> 2 4.249921e-01
<MEAN> 0
<VARIANCE> 0
<GCONST> 0.000000e+00
<STREAM> 5
<MEAN> 15
 -2.736101e+00 -1.936914e+00 -1.971703e+00 -1.902334e+00 -1.867170e+00 1.155001e-01 6.903471e-02 4.515520e-02 5.004134e-02 2.435825e-02 -8.617883e-02 -5.557161e-03 -1.643964e-02 -2.825645e-02 1.890882e-02
<VARIANCE> 15
 1.116051e+01 4.179105e+00 4.324084e+00 3.734470e+00 3.550210e+00 1.043876e+00 5.765488e-01 6.400773e-01 5.734488e-01 5.148761e-01 6.004338e+00 4.617048e+00 5.216072e+00 4.532285e+00 4.387677e+00
<GCONST> 4.124962e+01
<TRANSP> 7
 0.000000e+00 1.000000e+00 0.000000e+00 0.000000e+00 0.000000e+00 0.000000e+00 0.000000e+00
 0.000000e+00 7.101601e-01 2.898399e-01 0.000000e+00 0.000000e+00 0.000000e+00 0.000000e+00
 0.000000e+00 0.000000e+00 4.560685e-01 5.439315e-01 0.000000e+00 0.000000e+00 0.000000e+00
 0.000000e+00 0.000000e+00 0.000000e+00 5.756314e-01 4.243686e-01 0.000000e+00 0.000000e+00
 0.000000e+00 0.000000e+00 0.000000e+00 0.000000e+00 3.369529e-01 6.630471e-01 0.000000e+00
 0.000000e+00 0.000000e+00 0.000000e+00 0.000000e+00 0.000000e+00 5.009905e-01 4.990095e-01
 0.000000e+00 0.000000e+00 0.000000e+00 0.000000e+00 0.000000e+00 0.000000e+00 0.000000e+00
<ENDHMM>
~h "E"
<BEGINHMM>
<NUMSTATES> 7
<STATE> 2
<SWEIGHTS> 5
 1.000000e+00 0.000000e+00 0.000000e+00 0.000000e+00 0.000000e+00
<STREAM> 1
<MEAN> 180
 5.842085e+00 2.286097e+00 -1.539035e-01 7.363737e-01 -9.873617e-03 4.174887e-01 -4.453348e-01 2.544152e-01 -1.530146e-01 1.506524e-01 -8.367508e-02 1.500491e-01 -2.642480e-01 1.766714e-01 -1.193488e-01 -1.261910e-02 -1.939932e-01 1.162554e-01 -1.584615e-01 7.041682e-02 9.041028e-03 -7.369570e-04 -1.885108e-02 6.040830e-02 -4.463335e-02 6.513260e-02 -7.497303e-02 7.380131e-02 -4.033036e-02 4.019125e-02 -3.002254e-02 5.391027e-02 -6.417979e-02 5.128603e-02 -2.800076e-02 2.410681e-02 -2.857557e-02 3.908429e-02 -5.056936e-02 4.952666e-02 -4.576244e-02 3.874915e-02 -3.535118e-02 3.427665e-02 -3.124261e-02 2.642711e-02 -2.645203e-02 2.738517e-02 -2.316720e-02 1.340204e-02 -5.020066e-03 2.039645e-03 -1.851545e-03 4.826198e-04 4.370397e-03 -9.974720e-03 1.255935e-02 -1.079904e-02 6.921304e-03 -3.102019e-03 2.410449e-01 1.530925e-01 -2.795834e-02 -2.280690e-03 -1.115730e-02 -6.673513e-03 -3.194990e-02 1.538761e-03 1.871586e-02 1.009724e-02 1.378681e-02 9.929042e-03 -1.667213e-02 7.776552e-03 -2.842591e-03 -1.230079e-02 -8.849559e-03 1.662278e-02 -6.566190e-03 -3.364587e-04 9.609766e-03 -9.414161e-03 6.927532e-03 -4.279579e-03 1.114279e-04 3.646222e-03 -7.370743e-03 5.186434e-03 -4.213407e-03 -1.826650e-03 1.193937e-03 6.039997e-04 -3.482703e-04 -2.751428e-04 1.252450e-03 4.593580e-05 -1.624563e-03 3.267006e-03 -2.873232e-03 2.853409e-03 -2.252029e-03 1.866501e-03 -1.764884e-03 1.465308e-03 -1.488949e-03 1.955084e-03 -2.070347e-03 1.285449e-03 -7.572916e-05 -1.036782e-03 1.754968e-03 -2.034922e-03 2.290886e-03 -2.374486e-03 2.693060e-03 -2.911328e-03 3.196029e-03 -3.556360e-03 3.699322e-03 -3.094095e-03 -5.521471e-02 -6.079086e-02 -1.416572e-02 4.990589e-03 -6.220239e-03 3.013555e-04 7.920004e-03 1.952954e-03 6.644024e-03 4.254445e-04 4.891878e-04 -2.936980e-04 7.385275e-03 1.740594e-03 -5.884584e-03 2.356057e-04 3.857171e-03 -3.156887e-03 1.871274e-03 -2.626856e-03 -6.303858e-04 1.413153e-03 -3.056439e-03 2.440721e-03 -3.462906e-04 -1.966556e-03 2.028239e-03 3.751824e-04 6.898405e-04 -4.393933e-04 -2.236071e-04 -1.222440e-03 4.235252e-04 1.239762e-03 -9.458534e-04 -3.213498e-04 -2.192210e-04 5.672265e-04 -4.373581e-04 2.654314e-05 7.644651e-04 -1.315994e-03 1.182533e-03 -8.971976e-04 9.848521e-04 -6.598688e-04 -3.538773e-04 9.464266e-04 -1.239290e-03 2.511520e-04 2.770640e-04 -2.552331e-04 -5.369982e-04 1.070160e-03 -1.818112e-03 1.811244e-03 -1.077486e-03 9.363637e-04 -1.349755e-03 1.570483e-03
<VARIANCE> 180
 1.042853e+00 4.811950e-01 1.514357e-01 9.949972e-02 5.416759e-02 5.488907e-02 4.644139e-02 4.517312e-02 4.054334e-02 3.041404e-02 2.848074e-02 3.878275e-02 2.373827e-02 2.340667e-02 2.339846e-02 2.296215e-02 1.740191e-02 2.009946e-02 1.912568e-02 1.424192e-02 1.340948e-02 1.221715e-02 9.994823e-03 1.041226e-02 9.731981e-03 8.102440e-03 8.245760e-03 7.475064e-03 7.667112e-03 6.933130e-03 8.679150e-03 6.574587e-03 5.479458e-03 5.743552e-03 5.664348e-03 5.755101e-03 5.001295e-03 4.653405e-03 4.667180e-03 4.237961e-03 3.906002e-03 3.885754e-03 3.994105e-03 3.623660e-03 3.687884e-03 4.189936e-03 3.962232e-03 3.453543e-03 3.255436e-03 3.156541e-03 2.908537e-03 2.755769e-03 3.042511e-03 3.355429e-03 3.373136e-03 2.985283e-03 2.877219e-03 2.859665e-03 2.959786e-03 2.854102e-03 1.195865e-01 6.300429e-02 2.916875e-02 1.309293e-02 1.174557e-02 7.278888e-03 7.659759e-03 6.038537e-03 6.627975e-03 6.092918e-03 6.368116e-03 6.181455e-03 5.048683e-03 4.503042e-03 4.497625e-03 4.476225e-03 3.718374e-03 4.069359e-03 3.415345e-03 3.090273e-03 3.163604e-03 2.781422e-03 2.331122e-03 2.299439e-03 2.179929e-03 2.030004e-03 1.949633e-03 1.827929e-03 1.792019e-03 1.593575e-03 1.566043e-03 1.412601e-03 1.368488e-03 1.289762e-03 1.287089e-03 1.250226e-03 1.153910e-03 1.067040e-03 1.025904e-03 9.790575e-04 9.129758e-04 8.659827e-04 8.833813e-04 8.700510e-04 8.136839e-04 8.346619e-04 7.958654e-04 7.561144e-04 7.084532e-04 7.022711e-04 6.824618e-04 6.593015e-04 6.547254e-04 6.578712e-04 6.436384e-04 5.942888e-04 5.998381e-04 5.656108e-04 5.650323e-04 5.713272e-04 1.714519e-01 8.812259e-02 8.338465e-02 4.249712e-02 3.810868e-02 3.161246e-02 3.153448e-02 2.786659e-02 2.865570e-02 2.556280e-02 2.741547e-02 2.763194e-02 2.322861e-02 2.354132e-02 2.245167e-02 2.269417e-02 2.038979e-02 1.968945e-02 1.682215e-02 1.535114e-02 1.523771e-02 1.437703e-02 1.235301e-02 1.186560e-02 1.129692e-02 1.073852e-02 1.041783e-02 9.264378e-03 9.147841e-03 8.370373e-03 7.949048e-03 7.670949e-03 7.359243e-03 7.003178e-03 6.685491e-03 6.471920e-03 6.074246e-03 5.841023e-03 5.582152e-03 5.469372e-03 5.041947e-03 5.066183e-03 4.891941e-03 4.527486e-03 4.388706e-03 4.431091e-03 4.150762e-03 4.085789e-03 3.980395e-03 3.689973e-03 3.614979e-03 3.558429e-03 3.509056e-03 3.562201e-03 3.497590e-03 3.206412e-03 3.184787e-03 3.104431e-03 3.110145e-03 2.968747e-03
<GCONST> -5.894026e+02
<STREAM> 2
<NUMMIXES> 2
<MIXTURE> 1 7.678198e-01
<MEAN> 1
 5.312484e+00
<VARIANCE> 1
 2.820875e-02
<GCONST> -1.730246e+00
<MIXTURE> 2 2.321791e-01
<MEAN> 0
<VARIANCE> 0
<GCONST> 0.000000e+00
<STREAM> 3
<NUMMIXES> 2
<MIXTURE> 1 6.781856e-01
<MEAN> 1
 4.835001e-03
<VARIANCE> 1
 1.564339e-03
<GCONST> -4.622415e+00
<MIXTURE> 2 3.218125e-01
<MEAN> 0
<VARIANCE> 0
<GCONST> 0.000000e+00
<STREAM> 4
<NUMMIXES> 2
<MIXTURE> 1 6.735263e-01
<MEAN> 1
 -1.191399e-02
<VARIANCE> 1
 6.762961e-03
<GCONST> -3.158417e+00
<MIXTURE> 2 3.264715e-01
<MEAN> 0
<VARIANCE> 0
<GCONST> 0.000000e+00
<STREAM> 5
<MEAN> 15
 -3.297939e+00 -2.402519e+00 -2.415932e+00 -2.463553e+00 -2.270538e+00 -6.629735e-01 -3.306031e-01 -3.138311e-01 -3.147476e-01 -2.464349e-01 -2.439822e-01 -3.494472e-02 -7.242177e-03 3.466782e-02 6.036769e-02
<VARIANCE> 15
 9.410360e+00 3.785831e+00 3.849970e+00 3.727065e+00 3.087837e+00 2.483016e+00 1.143284e+00 1.154049e+00 1.142257e+00 9.312057e-01 1.351903e+01 8.475744e+00 8.930054e+00 8.420188e+00 7.544739e+00
<GCONST> 4.726299e+01
<STATE> 3
<SWEIGHTS> 5
 1.000000e+00 0.000000e+00 0.000000e+00 0.000000e+00 0.000000e+00
<STREAM> 1
<MEAN> 180
 6.456955e+00 2.636606e+00 -2.976753e-01 7.849668e-01 -4.602534e-02 3.461968e-01 -5.324448e-01 2.288498e-01 -1.255750e-01 1.592908e-01 -5.467599e-02 2.379966e-01 -2.775655e-01 2.013546e-01 -1.094252e-01 -3.001658e-02 -2.170424e-01 1.362656e-01 -1.543275e-01 6.775055e-02 2.506886e-02 -2.059211e-02 -3.019967e-03 4.860755e-02 -4.523962e-02 5.955940e-02 -8.905143e-02 8.926363e-02 -4.952532e-02 3.081062e-02 -2.564778e-02 5.408578e-02 -6.393094e-02 4.877032e-02 -2.586754e-02 3.041864e-02 -3.881009e-02 4.809961e-02 -5.508075e-02 5.372202e-02 -4.831744e-02 4.248260e-02 -4.077329e-02 3.944937e-02 -3.257773e-02 2.585004e-02 -2.559349e-02 2.359268e-02 -1.639063e-02 6.226765e-03 -2.088684e-04 -1.953149e-03 3.035407e-03 -6.747277e-03 1.198212e-02 -1.541411e-02 1.492805e-02 -1.174247e-02 8.347227e-03 -5.293268e-03 8.282593e-02 1.454442e-02 -4.678197e-02 -1.115209e-02 -1.407153e-02 -5.753671e-03 -1.361721e-02 1.152276e-02 2.675528e-02 1.183830e-02 7.589832e-03 5.485606e-04 -1.308962e-03 5.997727e-03 -1.004367e-02 -1.076078e-02 -3.620598e-04 1.104827e-02 -4.518118e-03 8.818737e-04 4.800532e-03 -1.182136e-03 6.986847e-04 -2.597141e-03 1.687044e-04 1.738706e-03 -3.090317e-03 1.978862e-03 -5.979181e-04 -1.565771e-03 1.863468e-03 -1.921100e-03 -6.295771e-04 6.860275e-04 -1.067376e-04 -5.879577e-04 -1.361140e-04 1.087655e-03 -1.529866e-03 1.779570e-03 -1.691483e-03 1.317502e-03 -1.264294e-03 1.235100e-03 -1.087967e-03 1.042692e-03 -1.279064e-03 1.306946e-03 -1.003604e-03 -2.017438e-04 4.058471e-04 -3.329742e-04 -1.832496e-04 3.641473e-04 -5.570112e-05 -9.793813e-04 2.323643e-03 -2.834917e-03 2.673750e-03 -2.275608e-03 -5.678019e-02 -2.313890e-02 2.081725e-02 2.433997e-03 6.776417e-03 5.959125e-03 1.219628e-02 3.633900e-03 -6.413606e-03 -3.437826e-03 -7.304803e-03 -1.017836e-02 3.208865e-03 -3.332670e-03 -1.069839e-03 3.728488e-03 4.142344e-03 -3.241561e-03 1.374274e-03 1.907993e-03 -6.979384e-03 3.695162e-03 -1.431063e-03 -8.365905e-04 3.256903e-04 6.063335e-04 3.162290e-03 -3.300468e-03 1.914136e-03 1.572236e-03 -5.832945e-04 -9.970838e-04 2.603688e-04 4.492343e-04 -7.173454e-05 -9.186353e-04 1.964592e-03 -3.249364e-03 2.353589e-03 -7.763660e-04 -4.308095e-04 5.441995e-04 1.216452e-04 -1.465132e-04 -1.797118e-04 7.039704e-05 8.765102e-04 -8.173918e-04 2.590128e-04 1.178444e-03 -2.171400e-03 2.115603e-03 -1.781027e-03 1.768333e-03 -1.498766e-03 1.089259e-03 -8.752383e-04 5.262579e-04 -1.264190e-04 -3.332858e-04
<VARIANCE> 180
 3.870656e-01 1.674206e-01 1.552185e-01 9.240473e-02 4.487252e-02 4.318504e-02 4.060172e-02 3.551710e-02 3.829317e-02 3.471854e-02 2.541080e-02 3.083714e-02 2.173640e-02 1.959991e-02 2.359986e-02 2.458472e-02 1.775830e-02 1.925685e-02 1.847890e-02 1.423226e-02 1.168659e-02 1.205582e-02 9.604496e-03 1.074660e-02 9.872446e-03 7.487996e-03 7.883633e-03 8.368077e-03 8.414676e-03 7.362411e-03 8.598619e-03 6.752055e-03 5.381945e-03 6.075321e-03 6.279398e-03 6.337158e-03 5.337282e-03 4.810948e-03 4.918350e-03 4.613420e-03 4.144942e-03 4.116912e-03 4.173084e-03 4.035622e-03 4.013240e-03 4.485685e-03 4.452501e-03 3.957001e-03 3.624070e-03 3.464438e-03 3.287669e-03 3.368890e-03 3.639001e-03 3.689938e-03 3.601367e-03 3.346221e-03 3.319652e-03 3.172573e-03 3.051481e-03 3.157825e-03 2.102933e-02 9.060930e-03 1.041836e-02 6.116398e-03 4.655685e-03 3.819332e-03 3.990610e-03 3.743842e-03 3.348857e-03 3.324285e-03 2.888157e-03 3.438529e-03 3.037567e-03 2.914997e-03 2.665439e-03 2.589084e-03 2.272756e-03 2.264236e-03 2.216980e-03 2.043784e-03 2.031086e-03 1.918421e-03 1.708149e-03 1.685660e-03 1.537208e-03 1.491022e-03 1.386421e-03 1.257747e-03 1.261875e-03 1.249810e-03 1.188178e-03 1.071157e-03 1.035151e-03 9.618071e-04 9.248271e-04 8.646970e-04 8.732961e-04 8.325035e-04 7.730395e-04 7.593273e-04 7.430231e-04 6.713080e-04 7.100932e-04 6.884052e-04 6.485821e-04 6.252290e-04 6.284305e-04 5.959267e-04 5.734440e-04 5.413293e-04 5.315501e-04 5.181806e-04 4.905862e-04 5.029566e-04 4.934715e-04 4.636557e-04 4.663180e-04 4.711818e-04 4.406916e-04 4.419877e-04 3.794089e-02 1.995325e-02 3.110566e-02 1.842653e-02 1.694773e-02 1.411988e-02 1.392359e-02 1.357276e-02 1.310366e-02 1.320014e-02 1.261884e-02 1.185081e-02 1.165548e-02 1.141662e-02 1.054880e-02 1.169178e-02 9.960409e-03 1.089595e-02 9.829947e-03 9.124264e-03 9.241980e-03 8.703050e-03 8.183556e-03 8.194963e-03 7.724781e-03 7.206991e-03 6.844831e-03 6.558191e-03 6.205567e-03 5.967207e-03 5.836620e-03 5.386061e-03 5.370984e-03 5.019180e-03 5.151925e-03 4.736989e-03 4.693570e-03 4.337558e-03 4.147241e-03 4.156642e-03 3.964191e-03 3.806308e-03 3.674291e-03 3.616362e-03 3.433560e-03 3.327163e-03 3.308676e-03 3.226833e-03 3.105390e-03 2.958275e-03 2.951425e-03 2.915692e-03 2.677937e-03 2.721614e-03 2.754645e-03 2.541594e-03 2.515807e-03 2.538987e-03 2.443913e-03 2.453426e-03
<GCONST> -6.443167e+02
<STREAM> 2
<NUMMIXES> 2
<MIXTURE> 1 8.878368e-01
<MEAN> 1
 5.287905e+00
<VARIANCE> 1
 2.833838e-02
<GCONST> -1.725661e+00
<MIXTURE> 2 1.121635e-01
<MEAN> 0
<VARIANCE> 0
<GCONST> 0.000000e+00
<STREAM> 3
<NUMMIXES> 2
<MIXTURE> 1 8.575982e-01
<MEAN> 1
 -6.341621e-03
<VARIANCE> 1
 5.870793e-04
<GCONST> -5.602473e+00
<MIXTURE> 2 1.424017e-01
<MEAN> 0
<VARIANCE> 0
<GCONST> 0.000000e+00
<STREAM> 4
<NUMMIXES> 2
<MIXTURE> 1 8.570636e-01
<MEAN> 1
 2.644474e-03
<VARIANCE> 1
 2.757060e-03
<GCONST> -4.055714e+00
<MIXTURE> 2 1.429362e-01
<MEAN> 0
<VARIANCE> 0
<GCONST> 0.000000e+00
<STREAM> 5
<MEAN> 15
 -5.744205e+00 -3.331772e+00 -3.296438e+00 -3.288074e+00 -2.915620e+00 -6.574065e-01 -1.982053e-01 -1.504053e-01 -1.437164e-01 -1.373105e-01 2.763321e-01 1.110331e-01 9.872026e-02 1.138676e-01 3.314363e-02
<VARIANCE> 15
 1.506215e+01 4.706099e+00 4.684124e+00 4.192364e+00 3.178745e+00 3.447300e+00 1.375097e+00 1.487570e+00 1.346143e+00 1.073651e+00 1.965632e+01 1.121546e+01 1.162326e+01 1.006207e+01 8.976571e+00
<GCONST> 5.063679e+01
<STATE> 4
<SWEIGHTS> 5
 1.000000e+00 0.000000e+00 0.000000e+00 0.000000e+00 0.000000e+00
<STREAM> 1
<MEAN> 180
 6.832088e+00 2.778024e+00 -4.397923e-01 7.195955e-01 -9.995686e-02 3.829036e-01 -5.429533e-01 2.603952e-01 -5.473655e-02 2.063658e-01 -2.775793e-02 1.861774e-01 -2.818982e-01 2.377200e-01 -1.644100e-01 -6.924992e-02 -2.097204e-01 1.791604e-01 -1.576321e-01 7.665130e-02 3.048763e-02 -2.774038e-02 3.187726e-03 4.592428e-02 -5.843308e-02 8.146379e-02 -9.200289e-02 8.682835e-02 -5.638999e-02 3.037347e-02 -1.501186e-02 3.375272e-02 -5.924224e-02 5.458134e-02 -2.961549e-02 2.435903e-02 -3.494254e-02 5.032172e-02 -6.148152e-02 6.516598e-02 -6.138586e-02 5.182301e-02 -4.647968e-02 4.353652e-02 -3.998169e-02 3.349318e-02 -3.116101e-02 2.704717e-02 -2.060908e-02 9.100119e-03 -3.157404e-03 1.804007e-03 -2.713657e-03 -1.226688e-04 9.096811e-03 -1.980121e-02 2.795256e-02 -2.920614e-02 2.513496e-02 -1.820708e-02 -2.149214e-02 2.153119e-03 1.757462e-02 -7.212022e-05 8.665031e-03 5.136956e-03 9.446767e-04 5.538870e-03 2.225132e-03 -5.331031e-04 -7.214300e-04 -7.934358e-03 3.182025e-03 8.314086e-04 -2.935959e-03 -2.441429e-03 -2.839257e-04 2.721559e-03 -4.053304e-03 1.848490e-03 1.768072e-06 -1.932116e-03 2.719071e-03 -1.839382e-03 9.429404e-04 1.914067e-03 -1.375727e-03 1.274400e-03 -1.542147e-03 9.205199e-04 9.793142e-04 -2.151417e-03 1.182718e-03 4.994536e-04 -7.740802e-04 -7.693404e-05 8.593594e-04 -1.505513e-03 1.294138e-03 -7.200824e-04 -2.862891e-04 6.361806e-04 -1.042812e-03 1.040221e-03 -4.350735e-04 -5.828744e-04 1.367916e-03 -1.435269e-03 1.187676e-03 -5.809298e-04 8.007775e-05 2.989548e-04 -6.892704e-04 1.193258e-03 -1.583021e-03 1.675726e-03 -1.478455e-03 9.631178e-04 -3.580978e-04 -1.947645e-04 -3.061263e-02 -1.605507e-03 2.015108e-02 4.289413e-03 7.358233e-03 2.597563e-03 5.483184e-03 -2.413320e-03 -4.844473e-03 -2.658192e-03 -1.712867e-03 -1.757209e-03 -1.914469e-03 -1.179524e-03 4.333881e-03 3.058841e-03 1.075893e-04 -2.702496e-03 -2.976740e-04 -5.082223e-04 -6.567822e-04 5.105383e-04 3.153257e-04 5.893249e-04 5.309582e-04 -1.336425e-03 4.973455e-04 1.549768e-04 -8.629660e-04 9.080038e-04 -3.617847e-04 5.184135e-04 2.731332e-04 -2.995324e-04 -8.696775e-05 3.068878e-04 -2.952683e-04 1.110538e-04 2.252145e-04 -8.803541e-04 9.583560e-04 -3.680710e-04 -3.318865e-04 4.203561e-04 -2.317905e-05 -3.592425e-04 5.176635e-04 -6.446790e-04 6.098447e-04 -4.703523e-04 4.956332e-04 -5.155267e-04 6.206884e-04 -5.423739e-04 -7.780430e-05 1.060742e-03 -1.840803e-03 1.939357e-03 -1.445469e-03 8.146607e-04
<VARIANCE> 180
 3.137755e-01 8.981018e-02 1.200009e-01 4.703535e-02 3.754177e-02 3.052672e-02 3.221657e-02 2.564880e-02 2.481458e-02 1.959980e-02 1.938744e-02 2.380860e-02 1.858586e-02 1.729405e-02 2.031955e-02 1.655253e-02 1.678235e-02 1.827186e-02 1.667563e-02 1.240316e-02 1.088517e-02 9.751466e-03 9.365804e-03 1.014599e-02 9.636122e-03 7.059491e-03 7.023671e-03 7.432692e-03 6.958626e-03 6.690407e-03 8.027041e-03 7.441359e-03 5.358164e-03 5.290652e-03 5.553930e-03 6.395354e-03 5.661116e-03 4.693459e-03 5.004762e-03 4.763940e-03 4.139149e-03 4.055941e-03 3.995927e-03 3.846906e-03 4.042964e-03 4.287651e-03 4.053883e-03 3.736463e-03 3.635736e-03 3.507670e-03 3.361895e-03 3.354341e-03 3.628831e-03 3.699721e-03 3.550697e-03 3.348810e-03 3.345792e-03 3.228795e-03 3.016257e-03 2.983212e-03 7.964898e-03 3.701941e-03 6.124626e-03 3.305787e-03 3.374389e-03 2.530415e-03 2.646002e-03 2.783519e-03 2.595531e-03 2.271850e-03 2.078063e-03 2.315511e-03 2.104872e-03 1.999520e-03 2.000455e-03 1.887981e-03 1.821082e-03 1.794728e-03 1.733940e-03 1.541307e-03 1.454556e-03 1.430984e-03 1.361365e-03 1.283897e-03 1.243903e-03 1.173817e-03 1.120446e-03 1.082339e-03 1.000050e-03 9.627765e-04 9.284652e-04 9.060522e-04 8.494103e-04 8.253456e-04 8.113119e-04 8.008270e-04 7.519532e-04 7.082397e-04 7.080865e-04 6.968477e-04 6.601134e-04 6.454396e-04 6.437782e-04 6.188119e-04 5.993531e-04 5.842540e-04 5.781034e-04 5.628408e-04 5.355330e-04 5.098184e-04 4.992954e-04 4.948382e-04 4.804245e-04 4.587251e-04 4.559378e-04 4.505086e-04 4.508805e-04 4.381616e-04 4.239733e-04 4.210686e-04 9.879956e-03 9.499077e-03 1.310298e-02 1.096566e-02 1.081261e-02 9.506802e-03 9.174657e-03 9.323647e-03 8.548733e-03 8.843640e-03 8.367156e-03 8.064150e-03 8.217850e-03 8.006880e-03 7.539118e-03 7.666138e-03 7.366044e-03 7.238858e-03 6.905718e-03 6.511394e-03 6.426771e-03 6.227207e-03 6.078429e-03 5.985105e-03 5.839386e-03 5.583820e-03 5.268198e-03 5.137975e-03 4.896767e-03 4.804440e-03 4.648278e-03 4.504932e-03 4.290283e-03 4.313074e-03 4.080017e-03 4.068963e-03 3.958304e-03 3.768897e-03 3.561360e-03 3.587124e-03 3.450613e-03 3.320178e-03 3.404686e-03 3.335543e-03 3.128668e-03 3.038116e-03 2.962460e-03 2.917569e-03 2.840203e-03 2.755020e-03 2.704845e-03 2.682563e-03 2.665595e-03 2.531782e-03 2.469461e-03 2.476562e-03 2.527079e-03 2.475490e-03 2.365038e-03 2.322404e-03
<GCONST> -6.802994e+02
<STREAM> 2
<NUMMIXES> 2
<MIXTURE> 1 9.826329e-01
<MEAN> 1
 5.293717e+00
<VARIANCE> 1
 2.289934e-02
<GCONST> -1.938770e+00
<MIXTURE> 2 1.736739e-02
<MEAN> 0
<VARIANCE> 0
<GCONST> 0.000000e+00
<STREAM> 3
<NUMMIXES> 2
<MIXTURE> 1 9.787664e-01
<MEAN> 1
 -6.017375e-04
<VARIANCE> 1
 1.730971e-04
<GCONST> -6.823780e+00
<MIXTURE> 2 2.123373e-02
<MEAN> 0
<VARIANCE> 0
<GCONST> 0.000000e+00
<STREAM> 4
<NUMMIXES> 2
<MIXTURE> 1 9.784811e-01
<MEAN> 1
 4.509751e-04
<VARIANCE> 1
 5.621951e-04
<GCONST> -5.645784e+00
<MIXTURE> 2 2.151918e-02
<MEAN> 0
<VARIANCE> 0
<GCONST> 0.000000e+00
<STREAM> 5
<MEAN> 15
 -8.534066e+00 -4.206161e+00 -4.021887e+00 -3.876719e+00 -3.445783e+00 1.898111e-01 3.458573e-02 2.569672e-02 3.275315e-02 8.194431e-03 2.854263e-01 6.261254e-02 5.761676e-02 1.316291e-02 2.459797e-02
<VARIANCE> 15
 1.909203e+01 4.978685e+00 4.835312e+00 3.984114e+00 2.977483e+00 3.621282e+00 1.684682e+00 1.679908e+00 1.510629e+00 1.150081e+00 2.205641e+01 1.326244e+01 1.382782e+01 1.206402e+01 1.006773e+01
<GCONST> 5.215622e+01
<STATE> 5
<SWEIGHTS> 5
 1.000000e+00 0.000000e+00 0.000000e+00 0.000000e+00 0.000000e+00
<STREAM> 1
<MEAN> 180
 6.452351e+00 2.631309e+00 -1.488283e-01 8.096306e-01 -1.375464e-02 4.463459e-01 -4.819783e-01 3.284226e-01 -3.672780e-02 1.576785e-01 -7.331430e-02 8.937802e-02 -2.895461e-01 2.033893e-01 -1.384592e-01 -3.712493e-02 -2.072625e-01 2.093748e-01 -2.152429e-01 9.417559e-02 2.110977e-02 -1.410560e-02 8.280727e-04 3.840706e-02 -3.467081e-02 6.709153e-02 -9.376045e-02 8.851300e-02 -5.670279e-02 4.129338e-02 -3.158462e-02 5.021090e-02 -6.490706e-02 5.289419e-02 -2.436068e-02 1.570066e-02 -2.739335e-02 4.215245e-02 -5.564222e-02 5.573776e-02 -5.225678e-02 4.460411e-02 -4.751999e-02 5.214110e-02 -5.048551e-02 4.316970e-02 -3.636956e-02 2.933247e-02 -1.871840e-02 5.879185e-03 2.682489e-03 -3.977217e-03 -2.791197e-05 3.438975e-03 -2.622819e-03 -1.735137e-03 5.817113e-03 -7.809293e-03 8.675525e-03 -9.944500e-03 -1.110584e-01 -2.780309e-02 4.608320e-02 2.596306e-02 3.691296e-02 1.555736e-02 2.112901e-02 3.189425e-03 -4.248815e-03 -5.621832e-03 -1.305456e-02 -1.975327e-02 -1.484595e-03 -1.112050e-03 1.276140e-02 1.734944e-03 1.224562e-03 -3.668698e-03 -4.922084e-03 -2.456798e-03 -2.093864e-03 4.238252e-03 -1.584899e-03 6.570336e-04 3.032949e-03 -2.880491e-03 8.731352e-04 1.139112e-03 -1.010208e-03 8.939364e-04 1.808605e-03 -2.705534e-03 1.596680e-03 -3.415335e-05 -3.475839e-04 7.132749e-04 -7.674418e-04 -8.903073e-04 2.108023e-03 -3.162372e-03 2.718901e-03 -1.315226e-03 1.149439e-04 4.322792e-04 3.964123e-04 -1.516324e-03 2.371468e-03 -2.207791e-03 1.414907e-03 -5.794422e-04 2.276043e-04 -1.072818e-04 -2.946415e-04 1.081798e-03 -2.234934e-03 3.060771e-03 -3.470978e-03 3.331338e-03 -2.723773e-03 1.996729e-03 -2.950091e-02 -7.471841e-03 -1.403977e-03 9.623636e-03 7.012879e-03 3.179921e-03 9.060382e-03 -5.513121e-03 -3.090031e-03 5.702855e-05 -3.621915e-03 2.224359e-05 4.277913e-03 -2.990652e-03 3.209300e-03 -3.517625e-04 -1.814305e-03 -3.270534e-03 5.434241e-03 -2.569735e-03 -1.063587e-03 3.659616e-03 -4.472546e-03 4.973809e-04 2.062853e-03 -2.020369e-03 1.551270e-03 -1.003827e-03 6.990634e-04 -5.852957e-04 1.571710e-04 -8.115734e-04 5.144227e-04 3.966535e-04 -6.132941e-04 1.005420e-03 -4.554086e-04 -4.994415e-04 1.376851e-03 -1.427659e-03 1.075412e-03 -4.156507e-04 5.863548e-04 -1.287912e-03 1.308206e-03 -1.190653e-03 7.306710e-04 1.089197e-04 -6.315341e-04 7.777651e-04 -6.464419e-04 5.998029e-04 -9.454021e-04 1.278923e-03 -9.462284e-04 -1.258061e-04 8.556211e-04 -4.467947e-04 -4.401707e-04 9.255817e-04
<VARIANCE> 180
 3.215623e-01 1.277401e-01 7.788568e-02 4.738091e-02 4.372951e-02 3.765110e-02 3.744279e-02 3.838476e-02 3.343437e-02 2.531153e-02 2.553973e-02 3.291206e-02 2.041914e-02 2.099188e-02 2.407706e-02 2.002663e-02 1.799397e-02 1.898259e-02 1.678509e-02 1.553475e-02 1.226941e-02 1.148733e-02 1.089064e-02 1.004460e-02 9.856900e-03 7.855874e-03 8.080621e-03 8.133306e-03 7.572375e-03 6.650920e-03 7.095442e-03 6.593646e-03 5.683719e-03 5.807581e-03 5.719511e-03 5.577084e-03 5.374399e-03 5.302022e-03 5.099672e-03 4.664194e-03 4.486667e-03 4.585006e-03 4.435782e-03 4.194984e-03 4.407346e-03 4.539953e-03 4.480330e-03 4.232641e-03 3.966334e-03 3.616002e-03 3.385204e-03 3.414080e-03 3.671329e-03 3.706114e-03 3.397033e-03 3.086774e-03 2.949942e-03 2.826625e-03 2.827028e-03 2.910716e-03 1.339815e-02 6.456952e-03 8.215349e-03 6.031069e-03 5.710925e-03 4.829153e-03 4.834930e-03 4.867343e-03 4.335239e-03 4.608141e-03 4.397088e-03 4.383247e-03 3.935345e-03 3.830766e-03 3.803186e-03 3.673680e-03 3.113915e-03 3.124811e-03 3.058906e-03 2.542998e-03 2.555417e-03 2.312735e-03 2.250630e-03 2.095630e-03 2.031643e-03 1.882163e-03 1.811781e-03 1.712111e-03 1.512946e-03 1.461739e-03 1.455966e-03 1.362749e-03 1.306924e-03 1.234745e-03 1.176938e-03 1.109512e-03 1.107308e-03 1.046438e-03 9.608433e-04 9.447370e-04 8.836496e-04 8.575517e-04 8.452215e-04 8.180823e-04 8.097283e-04 7.992487e-04 7.545846e-04 7.311783e-04 7.279968e-04 6.669043e-04 6.612483e-04 6.391573e-04 5.955240e-04 5.775483e-04 5.857252e-04 5.646814e-04 5.612355e-04 5.527986e-04 5.440755e-04 5.294159e-04 1.594346e-02 1.573521e-02 2.370952e-02 2.286162e-02 2.146952e-02 2.061113e-02 2.118661e-02 2.069998e-02 1.999342e-02 2.190612e-02 1.935149e-02 1.984669e-02 1.870876e-02 1.814637e-02 1.830115e-02 1.693175e-02 1.601562e-02 1.581400e-02 1.540789e-02 1.362322e-02 1.385934e-02 1.304766e-02 1.307494e-02 1.176823e-02 1.154246e-02 1.106368e-02 1.046074e-02 9.718027e-03 9.454806e-03 8.836057e-03 8.378613e-03 8.383944e-03 7.866260e-03 7.364282e-03 6.806415e-03 6.597173e-03 6.649222e-03 6.225978e-03 5.959090e-03 5.902752e-03 5.429289e-03 5.217514e-03 5.172734e-03 4.798587e-03 4.722230e-03 4.752380e-03 4.515923e-03 4.325317e-03 4.388093e-03 4.242798e-03 4.111893e-03 3.933902e-03 3.772850e-03 3.683836e-03 3.574797e-03 3.412832e-03 3.411922e-03 3.363196e-03 3.259265e-03 3.129028e-03
<GCONST> -6.154052e+02
<STREAM> 2
<NUMMIXES> 2
<MIXTURE> 1 9.832885e-01
<MEAN> 1
 5.323334e+00
<VARIANCE> 1
 2.920840e-02
<GCONST> -1.695422e+00
<MIXTURE> 2 1.671138e-02
<MEAN> 0
<VARIANCE> 0
<GCONST> 0.000000e+00
<STREAM> 3
<NUMMIXES> 2
<MIXTURE> 1 9.783598e-01
<MEAN> 1
 -3.218249e-03
<VARIANCE> 1
 2.624198e-04
<GCONST> -6.407688e+00
<MIXTURE> 2 2.164032e-02
<MEAN> 0
<VARIANCE> 0
<GCONST> 0.000000e+00
<STREAM> 4
<NUMMIXES> 2
<MIXTURE> 1 9.780343e-01
<MEAN> 1
 -2.174488e-03
<VARIANCE> 1
 5.587573e-04
<GCONST> -5.651918e+00
<MIXTURE> 2 2.196592e-02
<MEAN> 0
<VARIANCE> 0
<GCONST> 0.000000e+00
<STREAM> 5
<MEAN> 15
 -4.527249e+00 -3.427808e+00 -3.214915e+00 -3.439534e+00 -3.200387e+00 4.562517e-01 1.006773e-01 1.107048e-01 7.298476e-02 4.664766e-02 -4.572984e-02 2.851101e-02 4.878288e-02 4.798605e-02 3.660844e-02
<VARIANCE> 15
 6.856356e+00 2.722931e+00 2.551595e+00 2.615400e+00 2.216792e+00 1.876270e+00 1.099046e+00 1.066989e+00 1.084993e+00 9.444931e-01 1.262337e+01 9.727495e+00 9.514386e+00 1.011553e+01 8.841500e+00
<GCONST> 4.555911e+01
<STATE> 6
<SWEIGHTS> 5
 1.000000e+00 0.000000e+00 0.000000e+00 0.000000e+00 0.000000e+00
<STREAM> 1
<MEAN> 180
 5.743607e+00 2.234658e+00 -7.023574e-02 8.673409e-01 1.095874e-01 4.847522e-01 -3.782664e-01 3.507664e-01 -5.497366e-02 1.386865e-01 -1.437465e-01 5.397981e-02 -2.724257e-01 1.735966e-01 -1.113795e-01 -5.005339e-02 -1.938433e-01 1.444660e-01 -1.989570e-01 7.852742e-02 7.774314e-03 1.936424e-02 -2.445928e-02 4.966321e-02 -3.072653e-02 7.109171e-02 -9.135569e-02 9.257395e-02 -5.312572e-02 4.833610e-02 -2.505488e-02 3.635387e-02 -4.858891e-02 4.529336e-02 -2.421637e-02 1.900459e-02 -2.727726e-02 3.274060e-02 -4.370013e-02 4.174228e-02 -4.117201e-02 3.760987e-02 -4.316516e-02 4.989971e-02 -4.371390e-02 3.172291e-02 -2.467497e-02 2.369024e-02 -2.093795e-02 1.431194e-02 -8.474286e-03 4.850381e-03 -5.662789e-03 7.560243e-03 -6.834183e-03 2.734964e-03 1.584178e-04 1.406898e-03 -3.473220e-03 2.872086e-03 -1.672862e-01 -7.332402e-02 3.923386e-02 1.828058e-02 1.116205e-02 4.153734e-03 2.807377e-02 -7.712833e-03 -4.928179e-03 4.127699e-03 -8.326646e-03 -8.314456e-03 8.597318e-03 -7.941984e-03 4.688175e-04 6.277736e-04 1.137299e-03 -1.515782e-02 1.298138e-02 -7.644963e-03 -9.901777e-03 8.976974e-03 -6.895588e-03 3.359907e-03 2.051268e-03 -2.607899e-03 6.339687e-03 -3.286748e-03 1.635194e-03 3.120657e-03 -8.414494e-04 1.756841e-04 8.503222e-04 4.444063e-04 -3.834557e-04 9.369942e-04 -4.015760e-04 -1.884608e-03 2.425671e-03 -2.717710e-03 1.985156e-03 -1.980543e-03 1.940998e-03 -2.254420e-03 2.791710e-03 -2.396059e-03 1.611322e-03 -5.408699e-04 -9.516272e-05 1.032995e-03 -1.947463e-03 1.933073e-03 -1.570315e-03 1.408637e-03 -1.341590e-03 1.014367e-03 -8.400485e-04 1.379963e-03 -1.970183e-03 2.119006e-03 7.437208e-03 -1.698649e-02 -3.287744e-03 1.088983e-02 -1.730425e-02 -3.385498e-03 2.775543e-03 -2.599012e-03 -1.583303e-04 3.796288e-03 2.305626e-03 1.496196e-03 4.918762e-03 -1.132152e-03 -6.415579e-03 3.242708e-03 -3.379601e-04 -4.654701e-03 6.512946e-03 -7.939280e-04 -3.238107e-03 4.789896e-04 -1.375053e-04 2.042492e-03 -1.497306e-03 4.774032e-04 2.005907e-03 -2.264347e-03 2.677305e-03 8.113473e-05 -2.199827e-03 2.538083e-03 -1.219525e-03 -5.252328e-04 7.471045e-04 -1.088633e-03 5.866222e-04 3.832780e-04 -1.834455e-03 1.945271e-03 -8.664642e-04 -8.719497e-04 1.671668e-03 -2.101178e-03 1.664206e-03 -6.859705e-05 -8.729540e-04 8.943057e-04 -5.675924e-04 5.152881e-04 -8.604057e-04 8.649424e-04 1.255961e-05 -1.208459e-03 1.720243e-03 -1.368620e-03 9.943824e-04 -7.304607e-04 3.630298e-04 1.266666e-04
<VARIANCE> 180
 6.675554e-01 4.612395e-01 2.228782e-01 7.564577e-02 5.777542e-02 4.557832e-02 4.189303e-02 6.259903e-02 3.830711e-02 2.914690e-02 3.066132e-02 3.823116e-02 2.358203e-02 2.318353e-02 2.423720e-02 2.326485e-02 1.869804e-02 2.078634e-02 1.835792e-02 1.751943e-02 1.408750e-02 1.261644e-02 1.125724e-02 1.128229e-02 1.015572e-02 8.896373e-03 8.898387e-03 8.016220e-03 7.642109e-03 6.750999e-03 7.261577e-03 6.103871e-03 5.411074e-03 5.927780e-03 6.204032e-03 5.741527e-03 4.769881e-03 4.715128e-03 4.634748e-03 4.098658e-03 3.889468e-03 3.797823e-03 3.525472e-03 3.571376e-03 3.669732e-03 3.588025e-03 3.427696e-03 3.200602e-03 3.151649e-03 3.173609e-03 3.212899e-03 2.897321e-03 2.763037e-03 2.895494e-03 2.924469e-03 2.768048e-03 2.594444e-03 2.436983e-03 2.382463e-03 2.457240e-03 3.282559e-02 2.281734e-02 1.459101e-02 1.072681e-02 8.718049e-03 7.246732e-03 7.381186e-03 7.211877e-03 6.281020e-03 6.697674e-03 6.405560e-03 6.473430e-03 5.190873e-03 4.844305e-03 5.047397e-03 4.606771e-03 3.945595e-03 3.920546e-03 3.663416e-03 3.349183e-03 3.256749e-03 2.961473e-03 2.702774e-03 2.510532e-03 2.424056e-03 2.209832e-03 2.134020e-03 1.929621e-03 1.836976e-03 1.692175e-03 1.621049e-03 1.509472e-03 1.412342e-03 1.421884e-03 1.353637e-03 1.306820e-03 1.188416e-03 1.139487e-03 1.096064e-03 1.041976e-03 1.025812e-03 9.688838e-04 8.795697e-04 8.675578e-04 8.819546e-04 8.187672e-04 7.880470e-04 7.844471e-04 7.459092e-04 6.990692e-04 7.009296e-04 6.805048e-04 6.569864e-04 6.391448e-04 6.421463e-04 6.143773e-04 5.926897e-04 5.943911e-04 5.756917e-04 5.497738e-04 4.005190e-02 4.859740e-02 3.640592e-02 3.600780e-02 3.496209e-02 3.221911e-02 3.465254e-02 3.290578e-02 3.055887e-02 3.140677e-02 3.211946e-02 3.083971e-02 2.901628e-02 2.661296e-02 2.758338e-02 2.588988e-02 2.303361e-02 2.294336e-02 2.048559e-02 1.960124e-02 1.821887e-02 1.668488e-02 1.530688e-02 1.473538e-02 1.303784e-02 1.321415e-02 1.245576e-02 1.141006e-02 1.085600e-02 9.747072e-03 9.762254e-03 8.868284e-03 8.866980e-03 8.230926e-03 8.003708e-03 7.791898e-03 6.964015e-03 6.823433e-03 6.423917e-03 6.119751e-03 5.979794e-03 5.685988e-03 5.302032e-03 5.237977e-03 5.180925e-03 4.812835e-03 4.652354e-03 4.786982e-03 4.610827e-03 4.219556e-03 4.222656e-03 4.104079e-03 3.885109e-03 3.778025e-03 3.811238e-03 3.760324e-03 3.531716e-03 3.387747e-03 3.351285e-03 3.248348e-03
<GCONST> -5.868448e+02
<STREAM> 2
<NUMMIXES> 2
<MIXTURE> 1 8.920096e-01
<MEAN> 1
 5.310402e+00
<VARIANCE> 1
 2.893076e-02
<GCONST> -1.704973e+00
<MIXTURE> 2 1.079891e-01
<MEAN> 0
<VARIANCE> 0
<GCONST> 0.000000e+00
<STREAM> 3
<NUMMIXES> 2
<MIXTURE> 1 8.472795e-01
<MEAN> 1
 -4.914205e-03
<VARIANCE> 1
 9.130489e-04
<GCONST> -5.160844e+00
<MIXTURE> 2 1.527170e-01
<MEAN> 0
<VARIANCE> 0
<GCONST> 0.000000e+00
<STREAM> 4
<NUMMIXES> 2
<MIXTURE> 1 8.388673e-01
<MEAN> 1
 8.144700e-04
<VARIANCE> 1
 3.422002e-03
<GCONST> -3.839652e+00
<MIXTURE> 2 1.611294e-01
<MEAN> 0
<VARIANCE> 0
<GCONST> 0.000000e+00
<STREAM> 5
<MEAN> 15
 -3.015586e+00 -2.623046e+00 -2.534841e+00 -2.598333e+00 -2.530013e+00 2.744156e-01 1.834302e-01 1.717889e-01 1.933718e-01 1.588172e-01 -1.724087e-01 -2.013200e-02 -6.607404e-02 2.787325e-02 1.652809e-02
<VARIANCE> 15
 5.133104e+00 2.544983e+00 2.340065e+00 2.452007e+00 2.323576e+00 1.213707e+00 8.381466e-01 8.319497e-01 8.034050e-01 7.944618e-01 8.423807e+00 7.348393e+00 7.480990e+00 7.636767e+00 7.344910e+00
<GCONST> 4.227722e+01
<TRANSP> 7
 0.000000e+00 1.000000e+00 0.000000e+00 0.000000e+00 0.000000e+00 0.000000e+00 0.000000e+00
 0.000000e+00 5.044183e-01 4.955817e-01 0.000000e+00 0.000000e+00 0.000000e+00 0.000000e+00
 0.000000e+00 0.000000e+00 4.739570e-01 5.260430e-01 0.000000e+00 0.000000e+00 0.000000e+00
 0.000000e+00 0.000000e+00 0.000000e+00 7.796705e-01 2.203295e-01 0.000000e+00 0.000000e+00
 0.000000e+00 0.000000e+00 0.000000e+00 0.000000e+00 6.384239e-01 3.615760e-01 0.000000e+00
 0.000000e+00 0.000000e+00 0.000000e+00 0.000000e+00 0.000000e+00 6.504087e-01 3.495914e-01
 0.000000e+00 0.000000e+00 0.000000e+00 0.000000e+00 0.000000e+00 0.000000e+00 0.000000e+00
<ENDHMM>
~h "G"
<BEGINHMM>
<NUMSTATES> 7
<STATE> 2
<SWEIGHTS> 5
 1.000000e+00 0.000000e+00 0.000000e+00 0.000000e+00 0.000000e+00
<STREAM> 1
<MEAN> 180
 5.920209e+00 2.868901e+00 2.508463e-01 6.555595e-01 -2.230438e-01 4.318784e-01 -4.229151e-01 2.866883e-01 -2.781834e-01 -5.819918e-03 -7.282321e-02 2.710123e-01 -2.162116e-01 1.715498e-01 5.242189e-02 -8.766259e-03 -1.866613e-01 9.197437e-02 -1.165245e-01 -1.280299e-02 3.229049e-02 -2.411178e-02 3.543488e-03 8.120913e-03 -1.293968e-02 7.500269e-02 -1.373929e-01 1.434398e-01 -9.931852e-02 8.564705e-02 -7.520659e-02 5.744384e-02 -2.732447e-02 5.160530e-03 -4.760254e-04 2.953370e-02 -5.866254e-02 6.941275e-02 -5.592284e-02 3.415398e-02 -1.999112e-02 1.544637e-02 -2.000981e-02 3.148691e-02 -3.773422e-02 3.199816e-02 -2.103313e-02 1.036870e-02 -8.944851e-04 -2.611917e-03 -8.739852e-04 5.698727e-03 -6.586026e-03 2.861539e-03 -6.511400e-05 -4.077929e-03 4.289011e-03 -8.806041e-04 -5.620497e-03 9.969819e-03 -2.707902e-02 1.228536e-03 1.461608e-02 -8.642872e-03 5.679427e-04 1.108401e-02 5.571595e-03 5.654586e-04 -4.309063e-03 -4.741672e-03 6.454299e-03 1.500994e-03 -4.470142e-03 -1.196139e-03 7.127387e-03 1.730450e-04 -5.415477e-04 -3.594863e-03 -1.969981e-03 1.014659e-03 -3.837058e-03 -9.012500e-04 3.602047e-03 -3.902160e-03 2.771463e-03 -4.007738e-04 -1.653046e-03 2.240708e-03 -6.297539e-04 1.078037e-03 -8.986165e-04 1.444073e-04 2.341868e-04 1.570218e-04 -4.982649e-04 9.977391e-04 2.345681e-05 -1.517482e-03 1.511681e-03 -5.539879e-04 5.368089e-05 -2.747456e-04 6.732704e-04 -4.421292e-04 -5.493326e-06 4.557788e-04 -6.753032e-04 5.747893e-04 -5.776423e-04 6.376702e-04 -5.715112e-04 5.645180e-04 -4.774824e-04 1.938549e-04 2.007255e-04 -7.873901e-04 9.264781e-04 -7.563432e-04 5.148561e-04 -2.316593e-04 -1.319479e-02 1.261981e-03 5.201789e-03 -1.803578e-03 3.115670e-03 4.312017e-04 3.388197e-03 2.026423e-03 7.651664e-04 -1.127354e-03 3.340770e-06 1.224814e-03 9.064969e-04 1.511795e-04 -2.131445e-03 8.790325e-04 1.043473e-03 -1.231327e-03 -4.333861e-04 7.933059e-04 3.757959e-04 -3.787156e-04 -9.270835e-04 1.418454e-03 5.716132e-05 -1.777501e-03 1.503820e-03 -3.019631e-04 1.019423e-03 -9.191943e-04 1.574107e-03 -9.461845e-04 -2.034979e-03 2.298736e-03 -8.078616e-04 -3.271520e-04 3.500792e-04 -2.722879e-04 3.824294e-04 -9.005397e-04 4.495532e-05 1.010178e-03 -7.115491e-04 -8.756504e-05 4.943644e-05 2.174475e-04 3.156916e-04 -6.643031e-04 -6.392839e-04 1.666697e-03 -1.271138e-03 5.240649e-04 -8.276471e-06 -3.233505e-04 7.810286e-04 -7.144304e-04 -4.444272e-05 6.175911e-04 -4.094088e-04 -1.241124e-04
<VARIANCE> 180
 5.740512e-01 2.044792e-01 2.592299e-01 1.036771e-01 1.740112e-01 7.949892e-02 8.102268e-02 4.505394e-02 4.549765e-02 3.308078e-02 4.294101e-02 2.917975e-02 3.276669e-02 2.986725e-02 2.369026e-02 1.783164e-02 1.753232e-02 1.942962e-02 1.684739e-02 1.531013e-02 1.343111e-02 1.214093e-02 1.330553e-02 1.175516e-02 9.683229e-03 8.361655e-03 8.200238e-03 8.670741e-03 8.569748e-03 7.242985e-03 8.104393e-03 6.382654e-03 5.710903e-03 5.837072e-03 5.208156e-03 4.905087e-03 5.000897e-03 5.822421e-03 5.236152e-03 4.931446e-03 4.865462e-03 4.553895e-03 4.279242e-03 3.990924e-03 3.958317e-03 4.225673e-03 4.139093e-03 3.817101e-03 3.584289e-03 3.518419e-03 3.384372e-03 3.227639e-03 3.239266e-03 3.291514e-03 3.146069e-03 3.139884e-03 3.208112e-03 3.482576e-03 3.683628e-03 3.564613e-03 9.213240e-03 3.786795e-03 6.005942e-03 3.556588e-03 3.775866e-03 3.057508e-03 3.055335e-03 2.520406e-03 2.488902e-03 2.526138e-03 2.378937e-03 2.355526e-03 2.336147e-03 2.170665e-03 2.100965e-03 1.985590e-03 1.839157e-03 1.909271e-03 1.784780e-03 1.707445e-03 1.518492e-03 1.494933e-03 1.397688e-03 1.427149e-03 1.321156e-03 1.198282e-03 1.187018e-03 1.143378e-03 1.102985e-03 1.024412e-03 9.222839e-04 9.134631e-04 8.896738e-04 8.396122e-04 8.524852e-04 7.914704e-04 7.554330e-04 7.372628e-04 7.010767e-04 6.963217e-04 6.774284e-04 6.395421e-04 6.139136e-04 5.909869e-04 5.695406e-04 5.820549e-04 5.691674e-04 5.416882e-04 5.397168e-04 5.157033e-04 4.973738e-04 4.969400e-04 4.825655e-04 4.588634e-04 4.432435e-04 4.267694e-04 4.360194e-04 4.295064e-04 4.098502e-04 3.934285e-04 9.587424e-03 8.259756e-03 1.219841e-02 1.072397e-02 1.020470e-02 9.012094e-03 9.566271e-03 8.809999e-03 7.869606e-03 8.499223e-03 8.157054e-03 7.350357e-03 7.704201e-03 7.367074e-03 7.735279e-03 7.566565e-03 6.845200e-03 6.919663e-03 6.453390e-03 6.892387e-03 6.148018e-03 6.105733e-03 6.269805e-03 5.958672e-03 5.643077e-03 5.263910e-03 5.160816e-03 4.913883e-03 4.944147e-03 4.800944e-03 4.417990e-03 4.396107e-03 4.192196e-03 4.193765e-03 4.083063e-03 3.742049e-03 3.679145e-03 3.690608e-03 3.457296e-03 3.271965e-03 3.336360e-03 3.246920e-03 3.117662e-03 3.065026e-03 2.982422e-03 2.908531e-03 2.816880e-03 2.773193e-03 2.748783e-03 2.653430e-03 2.549595e-03 2.528694e-03 2.479475e-03 2.459651e-03 2.387388e-03 2.289821e-03 2.320438e-03 2.358148e-03 2.323188e-03 2.212690e-03
<GCONST> -6.685865e+02
<STREAM> 2
<NUMMIXES> 2
<MIXTURE> 1 9.543480e-01
<MEAN> 1
 5.197474e+00
<VARIANCE> 1
 2.752361e-02
<GCONST> -1.754834e+00
<MIXTURE> 2 4.565189e-02
<MEAN> 0
<VARIANCE> 0
<GCONST> 0.000000e+00
<STREAM> 3
<NUMMIXES> 2
<MIXTURE> 1 9.484843e-01
<MEAN> 1
 -3.745787e-03
<VARIANCE> 1
 1.927778e-04
<GCONST> -6.716095e+00
<MIXTURE> 2 5.151583e-02
<MEAN> 0
<VARIANCE> 0
<GCONST> 0.000000e+00
<STREAM> 4
<NUMMIXES> 2
<MIXTURE> 1 9.477274e-01
<MEAN> 1
 -3.702279e-04
<VARIANCE> 1
 8.128386e-04
<GCONST> -5.277101e+00
<MIXTURE> 2 5.227279e-02
<MEAN> 0
<VARIANCE> 0
<GCONST> 0.000000e+00
<STREAM> 5
<MEAN> 15
 -6.939187e+00 -3.884019e+00 -3.869935e+00 -3.372590e+00 -2.937034e+00 7.501601e-03 -1.697903e-02 -2.153216e-03 -6.659422e-05 1.691394e-02 1.335625e-01 4.540070e-02 -2.106127e-02 -3.692154e-03 -1.235030e-02
<VARIANCE> 15
 1.623256e+01 4.735511e+00 4.635066e+00 3.329967e+00 2.092460e+00 2.365380e+00 1.254806e+00 1.456503e+00 1.009280e+00 7.258342e-01 1.482575e+01 1.031890e+01 1.103026e+01 8.707456e+00 6.458357e+00
<GCONST> 4.799852e+01
<STATE> 3
<SWEIGHTS> 5
 1.000000e+00 0.000000e+00 0.000000e+00 0.000000e+00 0.000000e+00
<STREAM> 1
<MEAN> 180
 5.665373e+00 2.941621e+00 3.974141e-01 5.886409e-01 -2.515679e-01 4.563347e-01 -3.599190e-01 3.233203e-01 -3.308010e-01 -5.763462e-02 -9.398686e-02 2.860416e-01 -2.140603e-01 1.476650e-01 1.064725e-01 3.339618e-03 -1.638326e-01 5.894741e-02 -1.169085e-01 -9.161990e-03 3.447902e-03 -8.202259e-03 1.751959e-02 -1.108383e-02 1.254739e-03 6.611124e-02 -1.346352e-01 1.357816e-01 -8.434677e-02 7.377171e-02 -7.321382e-02 6.360149e-02 -4.195437e-02 2.299354e-02 -1.439428e-02 3.459305e-02 -4.672837e-02 4.185712e-02 -2.440376e-02 1.123103e-02 -1.174362e-02 1.672801e-02 -2.166415e-02 3.050727e-02 -3.781957e-02 3.627981e-02 -2.863011e-02 1.871721e-02 -8.836181e-03 4.124050e-03 -3.859848e-03 5.334172e-03 -2.765755e-03 -3.296297e-03 7.221240e-03 -1.040337e-02 7.192075e-03 -2.807236e-04 -8.415406e-03 1.293487e-02 -4.197297e-02 -1.252815e-03 1.826212e-02 -8.498805e-03 1.559421e-03 7.950706e-03 1.317484e-02 6.682264e-03 8.235908e-04 -4.490847e-03 1.697480e-04 -1.515478e-03 2.804201e-03 -6.869068e-04 -1.688379e-03 -1.744488e-05 6.414247e-04 -1.545769e-03 -8.297944e-04 -2.236452e-04 -3.391223e-03 3.254852e-04 -2.846000e-04 -1.383408e-03 3.039722e-03 -3.477179e-03 2.203755e-03 2.009559e-04 6.483042e-04 -7.113253e-04 5.266697e-04 1.590431e-04 -1.361047e-03 2.191628e-03 -1.494161e-03 3.915368e-04 9.404311e-04 -1.129459e-03 1.447081e-03 -1.831543e-03 5.229394e-04 1.171333e-03 -1.273354e-03 9.993371e-05 5.993780e-04 -4.046187e-04 3.460131e-04 1.472381e-04 -1.438372e-03 1.886257e-03 -1.262895e-03 3.986843e-04 2.140052e-04 -5.971425e-04 6.351323e-04 -4.866570e-04 3.143083e-05 2.046036e-04 -5.838228e-06 -4.909778e-04 -7.442527e-03 -3.598624e-03 1.097177e-03 1.344688e-03 2.101706e-03 -4.399747e-04 3.597194e-03 -4.063736e-04 8.326328e-04 3.023081e-03 -2.434703e-03 -2.142711e-03 4.197659e-03 -2.929940e-04 -4.679234e-03 -1.078890e-03 -5.457159e-04 2.139263e-03 8.943176e-04 -3.640020e-04 -1.302955e-04 -2.831127e-04 -2.331292e-03 1.198333e-03 2.781100e-04 -9.795077e-05 1.796877e-03 -2.148455e-03 9.924363e-04 -6.926407e-04 -6.246316e-04 1.076399e-03 7.275327e-04 -1.277188e-03 -6.362518e-04 3.708484e-04 4.669596e-04 6.512246e-04 -4.947082e-04 1.063837e-04 8.046519e-05 2.740396e-04 -3.767066e-04 2.990686e-04 -1.082920e-04 -5.299794e-04 7.171105e-04 1.198162e-04 -3.808366e-04 -5.278753e-04 8.818092e-04 -7.991570e-04 5.507644e-04 -2.000387e-04 -6.544983e-04 1.526535e-03 -1.272156e-03 2.625014e-04 4.820596e-04 -5.401514e-04
<VARIANCE> 180
