~o
<STREAMINFO> 5 180 1 1 1 15
<MSDINFO> 5 0 1 1 1 0
<VECSIZE> 198<NULLD><USER><DIAGC>
~h "C"
<BEGINHMM>
<NUMSTATES> 7
<STATE> 2
<SWEIGHTS> 5
 1.000000e+00 0.000000e+00 0.000000e+00 0.000000e+00 0.000000e+00
<STREAM> 1
<MEAN> 180
 3.407827e+00 8.541512e-01 -2.693877e-01 3.056616e-01 4.230973e-02 1.751785e-01 -3.093971e-02 -2.525019e-02 -1.266781e-02 1.082313e-01 -5.557390e-02 2.596840e-02 -1.001833e-01 9.160029e-02 -1.350917e-01 1.169078e-02 -1.153510e-01 -3.341963e-02 -2.465378e-02 -2.062251e-02 6.585506e-03 3.546099e-02 -7.063996e-02 -3.491453e-04 3.569193e-02 2.595081e-02 -1.925815e-02 3.987062e-02 -2.264289e-02 5.875662e-02 -4.416704e-02 6.583995e-02 -2.197790e-02 -1.421054e-03 -1.832233e-03 4.537182e-02 -5.629310e-02 5.020882e-02 -4.226568e-02 4.232997e-02 -6.785469e-02 4.093786e-02 -1.043513e-02 2.853628e-02 -4.260173e-02 2.817973e-02 -2.755962e-02 3.699580e-02 -3.705240e-02 2.778293e-02 -1.837356e-02 3.386909e-02 -4.582160e-02 2.606015e-02 -8.200357e-03 1.768742e-02 -3.725823e-02 4.238176e-02 -3.303467e-02 2.322972e-02 -2.624723e-01 -8.707023e-02 5.615950e-02 -5.736905e-02 -7.225739e-03 -8.621559e-03 9.396508e-03 -5.303917e-03 5.788738e-03 2.853244e-03 5.599097e-03 6.268710e-03 -5.303777e-05 -1.236978e-02 -1.659894e-03 -2.914016e-02 -1.413389e-02 -5.921456e-03 -1.906497e-02 1.112226e-02 5.959827e-03 2.550978e-03 -1.125812e-03 5.937117e-03 2.136244e-03 3.619120e-03 -1.126294e-02 1.790062e-03 1.294560e-02 6.728442e-03 -7.923923e-03 -9.582140e-03 1.052120e-02 1.111689e-03 -2.678353e-03 9.280487e-03 4.969387e-03 -1.912261e-02 3.527443e-03 5.921007e-03 5.627214e-03 -2.458734e-03 -5.435336e-03 -2.941629e-03 4.103019e-03 1.021420e-03 4.498231e-03 -9.454422e-04 -2.745955e-03 -3.554531e-03 1.932146e-03 3.531157e-03 -1.748287e-03 9.294993e-04 -4.674434e-04 -2.738330e-03 1.974009e-03 2.027075e-03 -3.151775e-03 2.690211e-03 -4.538531e-02 -1.431100e-02 3.180496e-02 3.974357e-02 2.150921e-02 -3.985037e-02 7.526783e-03 4.316072e-02 -8.289353e-03 1.403815e-02 2.087626e-02 -3.691261e-03 -5.510241e-03 -1.267083e-02 2.137172e-02 2.512622e-02 -3.558025e-04 -5.297183e-03 1.260953e-02 2.367298e-02 -2.083997e-03 -8.508055e-03 9.538808e-03 -8.802724e-04 -2.409085e-02 -7.863557e-03 1.282698e-02 -1.495077e-02 -8.939724e-03 2.805094e-02 2.218272e-02 -2.697121e-02 -1.181109e-02 1.883806e-02 3.664101e-03 -4.228177e-03 4.420845e-03 -9.567087e-03 -2.362888e-02 4.383560e-03 1.509713e-02 9.010791e-03 -1.775178e-02 -9.989535e-03 1.736260e-02 -3.084559e-04 -7.884448e-03 6.195004e-04 2.160504e-03 5.844612e-03 -6.066911e-03 -1.194518e-02 1.623822e-02 6.776094e-03 -1.534012e-02 -3.274363e-04 6.706381e-03 3.013657e-03 -5.977821e-03 -3.304573e-03
<VARIANCE> 180
 2.644854e+00 8.962305e-01 2.228260e-01 9.870192e-02 1.139035e-01 6.450281e-02 4.069994e-02 2.928675e-02 2.841168e-02 4.838686e-02 2.772522e-02 1.045936e-02 1.944114e-02 1.060006e-02 6.412343e-03 2.615577e-02 3.111343e-02 2.422813e-02 1.696297e-02 9.847287e-03 2.284303e-02 9.187124e-03 9.567101e-03 7.392994e-03 4.291945e-03 5.697981e-03 1.559725e-02 7.419275e-03 9.319659e-03 9.801203e-03 3.446266e-03 6.107290e-03 2.564753e-03 3.135539e-03 6.563481e-03 4.847039e-03 3.281609e-03 4.650300e-03 4.556937e-03 4.413733e-03 3.100052e-03 2.800507e-03 1.394136e-03 1.642558e-03 1.409243e-03 1.383865e-03 1.131199e-03 1.243023e-03 1.625653e-03 2.484878e-03 2.067410e-03 1.899390e-03 1.822094e-03 1.559048e-03 1.668941e-03 1.189692e-03 1.764737e-03 1.459947e-03 1.430807e-03 1.296385e-03 9.112103e-02 1.792739e-02 2.321487e-02 7.863341e-03 5.668824e-03 4.844741e-03 6.568447e-03 4.608916e-03 3.386332e-03 4.609057e-03 4.933029e-03 5.327874e-03 2.389447e-03 4.779739e-03 3.665155e-03 3.878655e-03 3.074924e-03 4.673908e-03 2.740879e-03 2.552320e-03 2.798398e-03 2.439127e-03 1.731609e-03 2.783964e-03 1.752440e-03 1.581383e-03 2.307161e-03 2.578642e-03 1.201775e-03 1.405353e-03 1.505902e-03 3.027144e-03 1.324449e-03 1.055422e-03 2.565614e-03 1.049740e-03 1.049845e-03 1.304718e-03 8.628502e-04 1.416538e-03 7.982539e-04 8.595211e-04 6.662893e-04 9.328787e-04 5.734646e-04 6.188930e-04 7.894704e-04 6.956815e-04 6.134858e-04 6.788525e-04 6.513885e-04 6.189532e-04 4.207629e-04 3.983347e-04 3.782325e-04 3.906867e-04 4.048719e-04 5.348778e-04 6.519466e-04 2.814646e-04 2.387667e-02 2.531876e-02 2.858281e-02 1.489426e-02 1.520274e-02 2.317596e-02 1.427918e-02 1.529842e-02 1.194581e-02 1.186933e-02 6.758736e-03 7.967049e-03 1.072773e-02 6.447649e-03 6.109127e-03 5.648460e-03 1.433551e-02 1.463971e-02 9.925632e-03 9.357103e-03 1.111205e-02 9.889875e-03 3.768907e-03 7.382403e-03 5.372291e-03 6.380667e-03 1.009774e-02 7.240694e-03 4.323285e-03 4.265923e-03 5.569178e-03 4.803385e-03 3.701723e-03 2.524133e-03 5.783310e-03 4.676398e-03 2.968536e-03 3.908982e-03 2.313322e-03 5.818646e-03 2.761544e-03 4.316170e-03 2.382586e-03 1.608376e-03 1.587093e-03 1.586416e-03 1.635004e-03 1.974911e-03 1.826938e-03 2.259021e-03 1.385123e-03 1.888995e-03 1.387796e-03 1.397912e-03 1.112556e-03 2.202519e-03 1.423242e-03 1.738167e-03 1.113247e-03 1.193639e-03
<GCONST> -6.623673e+02
<STREAM> 2
<NUMMIXES> 2
<MIXTURE> 1 2.039052e-01
<MEAN> 1
 4.976022e+00
<VARIANCE> 1
 3.480612e-02
<GCONST> -1.520085e+00
<MIXTURE> 2 7.960948e-01
<MEAN> 0
<VARIANCE> 0
<GCONST> 0.000000e+00
<STREAM> 3
<NUMMIXES> 2
<MIXTURE> 1 1.628971e-01
<MEAN> 1
 1.614689e-02
<VARIANCE> 1
 3.444011e-03
<GCONST> -3.833241e+00
<MIXTURE> 2 8.371029e-01
<MEAN> 0
<VARIANCE> 0
<GCONST> 0.000000e+00
<STREAM> 4
<NUMMIXES> 2
<MIXTURE> 1 1.628971e-01
<MEAN> 1
 6.381045e-02
<VARIANCE> 1
 8.596571e-03
<GCONST> -2.918515e+00
<MIXTURE> 2 8.371029e-01
<MEAN> 0
<VARIANCE> 0
<GCONST> 0.000000e+00
<STREAM> 5
<MEAN> 15
 -6.979805e-01 -8.923577e-01 -5.199507e-01 -7.300887e-01 -5.054654e-01 9.893006e-02 1.958704e-01 1.260402e-01 1.116609e-01 1.418191e-01 -6.452771e-02 1.798478e-01 -2.831903e-01 1.700487e-01 -1.196405e-01
<VARIANCE> 15
 3.292045e+00 3.883364e+00 1.323968e+00 3.060688e+00 1.226625e+00 2.508902e-01 2.386087e-01 2.902943e-01 1.653199e-01 1.728689e-01 4.178914e-01 1.508663e+00 5.843045e-01 2.166415e+00 9.011467e-01
<GCONST> 2.378262e+01
<STATE> 3
<SWEIGHTS> 5
 1.000000e+00 0.000000e+00 0.000000e+00 0.000000e+00 0.000000e+00
<STREAM> 1
<MEAN> 180
 2.924945e+00 7.193314e-01 -7.130971e-02 2.658612e-01 2.796481e-02 1.479231e-01 -2.473062e-02 -3.043495e-03 -3.597721e-02 8.985825e-02 -4.408192e-02 3.389768e-02 -8.676121e-02 5.634275e-02 -1.307624e-01 2.630116e-02 -9.401027e-02 -3.584187e-02 -3.221935e-02 -2.595285e-04 -6.999504e-03 4.731452e-02 -5.411595e-02 5.225356e-03 1.250544e-02 3.073263e-02 -2.546781e-02 2.986978e-02 -7.881899e-03 7.312623e-02 -2.812625e-02 3.846466e-02 -1.143492e-02 1.388467e-02 -2.219279e-02 5.798908e-02 -3.516949e-02 1.641714e-02 -6.959610e-02 5.447519e-02 -3.705142e-02 3.521052e-02 -3.528490e-02 2.564546e-02 -2.055291e-02 1.865337e-02 -3.105009e-02 4.312442e-02 -3.334146e-02 1.568714e-02 -1.807535e-02 3.356345e-02 -3.917836e-02 3.719912e-02 -2.389460e-02 1.006896e-02 -2.110936e-02 3.941971e-02 -4.012146e-02 2.911533e-02 -2.138055e-01 -6.348615e-02 5.270040e-02 -3.091528e-02 2.825950e-03 -3.065826e-02 2.011649e-02 1.619314e-02 -7.036250e-03 2.985472e-04 1.995245e-02 2.214550e-02 -2.099745e-03 -1.729993e-02 2.028495e-02 4.497096e-03 -9.405377e-03 -3.574335e-03 -6.429217e-04 1.405027e-02 1.044606e-02 -6.292407e-03 -1.459030e-03 6.349972e-03 -5.915018e-03 -3.650111e-03 2.419502e-03 5.257747e-04 -5.252810e-03 1.111597e-02 1.242489e-02 -6.533685e-03 -2.465425e-03 1.575304e-04 -6.573855e-03 8.248115e-03 2.895998e-03 -1.469347e-02 -8.377180e-03 -2.093995e-03 1.254015e-02 4.577795e-03 -1.200910e-02 1.331733e-05 6.865514e-03 -9.841878e-04 -3.347830e-04 -3.638118e-03 4.917910e-03 -1.583633e-03 -4.785713e-03 -3.512567e-04 1.298100e-02 -9.116616e-03 -3.054902e-03 4.565884e-03 -3.418726e-03 6.057907e-03 -5.140672e-03 -1.310122e-04 1.102325e-01 6.827820e-02 -7.949099e-02 -3.669965e-02 1.259232e-02 3.486228e-02 8.773888e-04 1.713029e-02 -1.887329e-02 -3.039972e-02 2.725785e-03 -1.345567e-02 9.367468e-03 1.890693e-02 1.220420e-02 1.323196e-02 1.834256e-02 2.481460e-02 3.624641e-02 -1.141476e-02 -3.783559e-03 -4.196500e-03 -9.009823e-03 1.564812e-02 3.617056e-02 -1.041244e-02 -2.549631e-02 7.675023e-03 -1.924841e-02 -4.491615e-02 2.472899e-03 3.154227e-02 -2.291434e-02 -1.551039e-02 2.295306e-02 -1.079744e-03 -2.180452e-02 1.435330e-02 2.209792e-02 -4.265572e-03 -9.521754e-03 -1.501061e-03 1.390987e-02 7.205488e-03 -1.201979e-02 -3.867342e-03 3.112223e-03 -5.609517e-03 5.350616e-03 -7.932221e-03 3.438293e-03 9.057919e-03 6.570080e-04 -2.181371e-02 1.165323e-02 1.117415e-02 -5.417868e-03 -8.201266e-03 5.717364e-03 3.360509e-03
<VARIANCE> 180
 3.738935e+00 9.594309e-01 2.184178e-01 1.045670e-01 9.487661e-02 3.096175e-02 2.533239e-02 2.074636e-02 3.501614e-02 3.582083e-02 3.032337e-02 1.073166e-02 1.292138e-02 1.931513e-02 1.185540e-02 2.145723e-02 1.379843e-02 2.195428e-02 9.946271e-03 1.165239e-02 1.767739e-02 9.200515e-03 1.751490e-02 2.485213e-03 4.827200e-03 5.191381e-03 1.127413e-02 7.923800e-03 8.141753e-03 1.077924e-02 4.714999e-03 5.584374e-03 3.347961e-03 3.541510e-03 4.407560e-03 4.085677e-03 3.032694e-03 5.121146e-03 2.955897e-03 2.582775e-03 2.094573e-03 1.009113e-03 1.366949e-03 1.327409e-03 1.744011e-03 2.761936e-03 1.396276e-03 1.561926e-03 1.389272e-03 1.330227e-03 2.192916e-03 1.358774e-03 1.251235e-03 1.848744e-03 1.381127e-03 1.316471e-03 1.602694e-03 1.080216e-03 1.607166e-03 7.381774e-04 3.875126e-02 1.703143e-02 1.550623e-02 3.781667e-03 4.263518e-03 5.475972e-03 7.695213e-03 3.835376e-03 2.215470e-03 4.019347e-03 1.986189e-03 2.764765e-03 2.528952e-03 2.581573e-03 2.097753e-03 1.521028e-03 4.400809e-03 4.001362e-03 2.883858e-03 1.928022e-03 1.983734e-03 1.557825e-03 1.574798e-03 3.319978e-03 1.648575e-03 2.266386e-03 3.236432e-03 2.808212e-03 1.244968e-03 1.711414e-03 1.124352e-03 1.878469e-03 1.327168e-03 1.263657e-03 1.154634e-03 1.711672e-03 1.061711e-03 1.294816e-03 9.918056e-04 1.977017e-03 8.911057e-04 1.625279e-03 3.895975e-04 7.339300e-04 6.019073e-04 3.909579e-04 4.692990e-04 6.137725e-04 4.597262e-04 9.456230e-04 4.866011e-04 6.053209e-04 6.737160e-04 3.571553e-04 4.472704e-04 6.629805e-04 3.525899e-04 4.712920e-04 5.531758e-04 4.687674e-04 4.826768e-02 1.863190e-02 3.883889e-02 2.325198e-02 1.973402e-02 1.283725e-02 5.657044e-03 1.007668e-02 1.270237e-02 9.099229e-03 1.354202e-02 1.358804e-02 1.260852e-02 1.877794e-02 1.819201e-02 8.290443e-03 5.948912e-03 8.957785e-03 7.478370e-03 8.705569e-03 6.994057e-03 5.153718e-03 5.070811e-03 7.792678e-03 9.033801e-03 6.174179e-03 8.963506e-03 4.641132e-03 3.651147e-03 4.948459e-03 6.309009e-03 9.330748e-03 6.931982e-03 4.666962e-03 4.707668e-03 3.945302e-03 2.749693e-03 4.225546e-03 4.387425e-03 5.395206e-03 1.986494e-03 2.466557e-03 2.846280e-03 3.250732e-03 2.813003e-03 2.246603e-03 1.921712e-03 1.770529e-03 2.204040e-03 1.793475e-03 2.005584e-03 2.107435e-03 9.292365e-04 2.332600e-03 1.023179e-03 2.900177e-03 1.770159e-03 2.213191e-03 1.229955e-03 1.093437e-03
<GCONST> -6.705338e+02
<STREAM> 2
<NUMMIXES> 2
<MIXTURE> 1 1.757165e-01
<MEAN> 1
 4.945498e+00
<VARIANCE> 1
 1.447475e-02
<GCONST> -2.397472e+00
<MIXTURE> 2 8.242835e-01
<MEAN> 0
<VARIANCE> 0
<GCONST> 0.000000e+00
<STREAM> 3
<NUMMIXES> 2
<MIXTURE> 1 1.757165e-01
<MEAN> 1
 2.443740e-02
<VARIANCE> 1
 2.477685e-03
<GCONST> -4.162554e+00
<MIXTURE> 2 8.242835e-01
<MEAN> 0
<VARIANCE> 0
<GCONST> 0.000000e+00
<STREAM> 4
<NUMMIXES> 2
<MIXTURE> 1 1.757165e-01
<MEAN> 1
 -6.852257e-02
<VARIANCE> 1
 1.362869e-02
<GCONST> -2.457701e+00
<MIXTURE> 2 8.242835e-01
<MEAN> 0
<VARIANCE> 0
<GCONST> 0.000000e+00
<STREAM> 5
<MEAN> 15
 -7.895229e-01 -7.423467e-01 -6.343269e-01 -6.358042e-01 -4.618589e-01 -6.653398e-02 2.655454e-01 -1.227709e-02 2.080092e-01 -9.697912e-02 -2.837291e-01 -1.033481e-01 1.646045e-02 -1.597927e-01 -4.956238e-01
<VARIANCE> 15
 5.051770e+00 2.809572e+00 2.077962e+00 2.298611e+00 1.051877e+00 1.401500e-01 4.999954e-01 6.702469e-02 3.642902e-01 1.298428e-01 2.781462e-01 7.174824e-01 5.719973e-01 3.823391e-01 1.060824e+00
<GCONST> 2.035043e+01
<STATE> 4
<SWEIGHTS> 5
 1.000000e+00 0.000000e+00 0.000000e+00 0.000000e+00 0.000000e+00
<STREAM> 1
<MEAN> 180
 2.688460e+00 6.615003e-01 -7.133319e-02 1.938735e-01 3.975257e-02 9.372193e-02 -1.722569e-02 3.066573e-02 -3.568154e-02 8.198935e-02 -2.895648e-02 5.002121e-02 -8.585355e-02 4.706831e-02 -1.130511e-01 2.449833e-02 -9.113353e-02 -2.294460e-02 -1.163278e-02 1.588869e-02 2.127377e-02 4.343386e-02 -7.338525e-02 1.287450e-02 1.967282e-02 6.984910e-03 -3.593766e-02 5.008692e-02 -1.355124e-02 6.380970e-02 -2.498320e-02 3.252869e-02 -1.717401e-02 1.394599e-02 -2.898616e-02 5.847291e-02 -3.065740e-02 1.841264e-02 -7.468545e-02 5.155316e-02 -2.440832e-02 3.997736e-02 -4.913728e-02 3.075689e-02 -1.375902e-02 1.384294e-02 -2.936235e-02 3.485564e-02 -2.722487e-02 1.386615e-02 -2.542583e-02 3.955128e-02 -2.114609e-02 9.849020e-03 -1.931532e-02 2.583148e-02 -3.048555e-02 3.446357e-02 -3.306479e-02 2.774869e-02 -1.403636e-01 -3.967020e-02 -6.152001e-03 -3.684589e-02 6.267143e-03 -1.326890e-02 1.529204e-02 2.256149e-02 3.528589e-03 3.450072e-03 2.800181e-03 -6.248499e-03 -2.586295e-03 -1.543060e-02 1.155328e-02 1.517447e-02 -7.932971e-03 -3.801624e-03 1.383467e-02 9.803407e-03 1.461781e-02 -1.678359e-02 -1.633519e-02 -4.147869e-03 1.130308e-02 4.876161e-03 -1.262291e-02 2.842294e-04 -5.343188e-03 -9.981742e-03 -1.793648e-03 -4.991175e-03 -7.349064e-03 -7.704841e-03 7.230052e-03 1.085738e-02 1.387535e-03 -2.688151e-03 2.839896e-03 2.517519e-03 4.198877e-03 -4.444343e-03 3.006043e-03 3.637354e-03 -1.055095e-02 5.259909e-03 1.112502e-02 -7.427404e-03 -5.093500e-03 4.072164e-03 1.645887e-03 -5.193272e-03 8.812010e-03 -9.314766e-03 3.065545e-03 2.613801e-03 -7.682219e-04 -9.748060e-04 -9.022579e-04 3.283264e-03 1.811467e-02 -3.827861e-05 -2.628813e-02 9.983999e-03 -1.002153e-02 -5.286780e-03 -4.974639e-03 2.473155e-04 2.843002e-02 1.893211e-02 -2.028941e-02 -1.599788e-02 -1.370558e-02 -2.110698e-02 -2.790154e-02 -6.775633e-03 -1.542402e-02 -1.730267e-02 -5.144806e-03 5.449979e-03 2.778659e-02 9.737393e-03 -1.123729e-03 -2.394760e-02 -1.013369e-03 1.811262e-02 1.467114e-03 -1.160015e-02 1.754098e-02 1.461821e-02 -2.533319e-02 -1.246207e-02 1.342317e-02 -7.140210e-03 7.661161e-03 7.054145e-04 1.877089e-03 2.215677e-04 2.838183e-03 9.936038e-03 -1.744463e-03 -1.706872e-02 7.714820e-03 8.377233e-03 -2.188136e-02 6.171657e-03 1.955282e-02 8.947682e-05 -1.981277e-02 1.004216e-02 8.757903e-03 -1.133883e-02 -9.630963e-03 1.608961e-02 3.297117e-03 -1.571803e-02 1.014596e-02 -1.770619e-03 -3.415764e-03 6.179917e-03
<VARIANCE> 180
 3.411319e+00 9.541538e-01 2.094021e-01 7.780490e-02 7.504605e-02 2.767019e-02 2.484555e-02 2.187913e-02 3.199379e-02 3.051540e-02 1.398185e-02 6.952809e-03 1.334461e-02 1.431425e-02 1.123938e-02 1.867038e-02 9.215142e-03 2.468995e-02 5.066616e-03 7.050864e-03 1.527843e-02 8.931672e-03 1.650567e-02 4.105384e-03 4.833786e-03 1.168710e-02 7.006109e-03 1.036606e-02 7.405712e-03 1.587377e-02 4.913968e-03 8.804352e-03 3.746440e-03 3.283873e-03 2.849551e-03 5.483924e-03 3.730252e-03 3.844604e-03 4.090910e-03 1.686304e-03 2.353596e-03 2.757814e-03 2.263398e-03 1.985771e-03 2.477957e-03 2.539882e-03 1.794927e-03 1.996941e-03 1.410378e-03 1.866994e-03 2.297018e-03 1.662845e-03 1.700073e-03 2.454202e-03 1.218489e-03 1.973214e-03 1.470936e-03 3.450546e-03 3.268030e-03 8.187639e-04 1.202585e-02 1.435714e-02 6.250828e-03 6.368583e-03 3.134656e-03 2.398335e-03 2.595529e-03 4.418117e-03 3.011966e-03 2.809250e-03 4.146371e-03 2.934418e-03 1.151088e-03 4.312558e-03 2.532786e-03 2.604631e-03 2.604344e-03 1.978299e-03 2.136274e-03 2.185028e-03 1.862798e-03 2.238392e-03 1.032614e-03 1.974231e-03 3.024633e-03 2.065381e-03 2.240050e-03 2.007564e-03 9.799199e-04 1.237404e-03 1.761567e-03 1.246706e-03 1.025603e-03 1.064314e-03 1.353066e-03 1.067205e-03 1.109523e-03 9.737180e-04 8.222301e-04 1.422520e-03 3.482387e-04 8.087446e-04 9.333091e-04 6.623043e-04 7.958696e-04 4.584499e-04 5.275273e-04 4.968228e-04 3.845042e-04 4.806607e-04 4.851319e-04 3.101858e-04 4.510287e-04 5.064029e-04 3.324633e-04 6.592195e-04 5.592115e-04 5.330527e-04 4.501794e-04 3.236145e-04 8.761524e-03 9.997961e-03 1.396490e-02 8.098831e-03 1.091510e-02 8.617351e-03 6.656529e-03 7.920510e-03 7.557297e-03 8.282558e-03 8.195866e-03 8.552331e-03 8.024905e-03 7.215591e-03 7.576941e-03 4.305724e-03 5.234080e-03 4.947968e-03 5.524677e-03 6.716880e-03 9.211138e-03 7.076797e-03 6.683595e-03 1.189412e-02 6.205657e-03 1.007301e-02 6.527829e-03 5.330436e-03 5.852109e-03 4.831075e-03 5.857274e-03 5.194763e-03 4.300201e-03 3.386947e-03 3.334148e-03 6.428273e-03 6.491919e-03 5.069660e-03 4.077645e-03 6.059263e-03 1.497292e-03 4.275600e-03 2.386725e-03 2.395207e-03 2.248255e-03 1.191993e-03 1.582159e-03 2.377848e-03 1.256397e-03 1.965893e-03 2.001823e-03 1.776694e-03 1.978798e-03 2.123022e-03 1.330197e-03 1.703279e-03 1.375599e-03 1.548460e-03 1.273693e-03 7.844575e-04
<GCONST> -6.883632e+02
<STREAM> 2
<NUMMIXES> 2
<MIXTURE> 1 1.457029e-01
<MEAN> 1
 4.935675e+00
<VARIANCE> 1
 1.324251e-02
<GCONST> -2.486446e+00
<MIXTURE> 2 8.542971e-01
<MEAN> 0
<VARIANCE> 0
<GCONST> 0.000000e+00
<STREAM> 3
<NUMMIXES> 2
<MIXTURE> 1 9.713481e-02
<MEAN> 1
 -6.611747e-03
<VARIANCE> 1
 5.442077e-05
<GCONST> -7.980887e+00
<MIXTURE> 2 9.028651e-01
<MEAN> 0
<VARIANCE> 0
<GCONST> 0.000000e+00
<STREAM> 4
<NUMMIXES> 2
<MIXTURE> 1 9.713481e-02
<MEAN> 1
 -9.390605e-03
<VARIANCE> 1
 4.981609e-05
<GCONST> -8.069295e+00
<MIXTURE> 2 9.028651e-01
<MEAN> 0
<VARIANCE> 0
<GCONST> 0.000000e+00
<STREAM> 5
<MEAN> 15
 -8.274695e-01 -4.382081e-01 -5.293350e-01 -4.209741e-01 -6.688684e-01 -7.654908e-02 1.080795e-01 -7.850017e-02 1.257035e-01 8.265194e-02 1.925070e-01 -1.385223e-01 -1.502891e-01 3.894640e-02 7.371005e-01
<VARIANCE> 15
 6.207860e+00 1.243276e+00 2.190789e+00 1.116994e+00 2.807972e+00 1.474420e-01 1.468162e-01 4.847584e-01 1.126008e-01 5.925901e-02 3.152260e-01 1.499897e+00 4.049352e-01 3.732875e-01 3.541274e+00
<GCONST> 2.059833e+01
<STATE> 5
<SWEIGHTS> 5
 1.000000e+00 0.000000e+00 0.000000e+00 0.000000e+00 0.000000e+00
<STREAM> 1
<MEAN> 180
 1.785868e+00 6.015581e-01 2.054933e-01 1.621067e-01 1.594885e-01 1.321319e-01 -5.977707e-03 -4.442884e-02 -1.193065e-01 -1.224060e-02 -6.362592e-02 9.298714e-03 -1.195117e-01 -3.620153e-02 -1.072501e-01 4.514857e-02 -6.174932e-02 -5.761469e-02 -2.186027e-02 5.402176e-02 3.975786e-02 -6.372928e-03 -2.489160e-02 4.374369e-02 4.400856e-02 8.958902e-02 -3.618690e-02 -1.601942e-02 -3.505834e-02 9.058863e-02 -2.699181e-03 4.221830e-04 -4.774407e-02 1.156281e-02 4.786211e-03 4.935832e-02 -3.745405e-02 -1.195447e-02 -1.421393e-02 5.842860e-02 -5.805791e-02 4.299393e-02 -2.956243e-02 2.581121e-02 -3.545834e-02 2.299032e-02 -1.920170e-02 2.734900e-02 -3.035768e-02 1.487448e-02 -1.206735e-02 2.489755e-02 -3.356301e-02 3.265551e-02 -2.193259e-02 1.161474e-02 -1.038841e-02 1.738668e-02 -2.668680e-02 3.023053e-02 -5.651364e-02 -1.334337e-02 -2.781794e-03 -6.253852e-03 -1.778687e-03 -1.032654e-02 4.569604e-03 1.501788e-03 -1.007895e-02 -1.106300e-02 -1.144504e-02 -6.077791e-03 -4.556017e-03 -6.365154e-03 -2.483348e-04 3.986398e-03 1.232081e-03 1.797909e-03 3.972066e-03 -8.588350e-03 3.152139e-03 8.768607e-03 1.978481e-03 -1.202506e-02 -3.888024e-03 7.333788e-03 6.380632e-03 -1.774835e-03 -2.942869e-03 1.519389e-04 1.564152e-04 -1.655085e-03 4.048957e-03 -2.006607e-03 -2.097734e-03 -2.154571e-03 -8.245104e-04 1.109918e-03 5.083088e-03 -2.313466e-04 2.873071e-04 -1.364046e-03 8.072264e-04 2.219422e-03 -5.721919e-03 1.261915e-03 4.836760e-03 -1.663343e-03 -2.318289e-03 2.466114e-03 -2.734279e-03 1.028085e-03 9.948340e-04 -2.141416e-03 3.705203e-03 -4.164077e-03 2.232444e-03 1.310662e-03 -3.471490e-03 3.356508e-03 3.811604e-03 8.888258e-03 1.372248e-02 1.244744e-02 -4.576693e-03 -1.123731e-02 -1.044148e-02 -1.292466e-02 -1.647226e-02 -8.126502e-03 1.587262e-03 1.072288e-02 8.115452e-03 5.816103e-03 -4.798086e-03 -1.956287e-03 6.892540e-03 1.899530e-03 -7.296455e-04 -1.655465e-02 -1.689074e-02 1.025334e-02 6.120952e-03 -4.879812e-03 -1.402618e-02 -3.573099e-03 1.520846e-02 4.929574e-03 -6.603255e-03 -3.811378e-03 8.610805e-03 -4.040824e-04 9.223603e-03 1.043630e-02 -1.302884e-02 -9.830722e-03 6.615423e-03 9.730097e-03 -1.757731e-03 -9.123198e-03 -2.181598e-03 1.028529e-02 -5.456855e-03 -5.990258e-03 1.241401e-02 -9.558988e-04 -1.101049e-02 -2.619452e-04 8.053325e-03 2.351996e-03 -1.056773e-02 4.934439e-03 2.617900e-03 -1.619976e-03 -2.297650e-03 2.276289e-03 2.398870e-04 -2.383480e-03 2.808067e-03 -2.321003e-04
<VARIANCE> 180
 1.938606e+00 4.392418e-01 1.346946e-01 3.248966e-02 5.440222e-02 8.554881e-03 1.442042e-02 2.316800e-02 2.162164e-02 2.453494e-02 1.552828e-02 8.723210e-03 6.953157e-03 1.230480e-02 1.272451e-02 1.128855e-02 1.186023e-02 2.070693e-02 7.223909e-03 7.507854e-03 8.551321e-03 7.648259e-03 7.486566e-03 1.009744e-02 7.203314e-03 7.671228e-03 5.832398e-03 1.105997e-02 3.608220e-03 7.569828e-03 6.483558e-03 6.120561e-03 4.383886e-03 3.763261e-03 5.829201e-03 3.746546e-03 3.392398e-03 2.538313e-03 4.758159e-03 2.004032e-03 2.261870e-03 1.673881e-03 2.321274e-03 2.035720e-03 2.017662e-03 1.914778e-03 2.325640e-03 2.243574e-03 1.586020e-03 1.730492e-03 2.154392e-03 1.820871e-03 1.300152e-03 2.095680e-03 1.399293e-03 1.139840e-03 1.285663e-03 2.027301e-03 1.610034e-03 1.226084e-03 1.139664e-02 8.554114e-03 4.002770e-03 2.962634e-03 2.500305e-03 2.711785e-03 3.819352e-03 1.877822e-03 2.936522e-03 3.826780e-03 2.012789e-03 2.507785e-03 2.112032e-03 3.059971e-03 3.949447e-03 1.921120e-03 2.791619e-03 3.419525e-03 2.222077e-03 2.860461e-03 3.193725e-03 3.238926e-03 2.336493e-03 2.817396e-03 2.084517e-03 1.823762e-03 1.453595e-03 1.953369e-03 1.093769e-03 1.263413e-03 1.623028e-03 1.441473e-03 1.270255e-03 1.304321e-03 1.464857e-03 1.319117e-03 1.048870e-03 1.197575e-03 1.016516e-03 5.774565e-04 8.136594e-04 5.688611e-04 8.208240e-04 6.707135e-04 5.519211e-04 6.492001e-04 8.752632e-04 7.396605e-04 6.735510e-04 7.723133e-04 1.140884e-03 5.439104e-04 6.516752e-04 5.875042e-04 5.535700e-04 3.976295e-04 4.235119e-04 4.067249e-04 4.334959e-04 4.023803e-04 5.103554e-03 7.720360e-03 9.219198e-03 6.045837e-03 8.931354e-03 8.403499e-03 7.425350e-03 5.492178e-03 7.969330e-03 7.313514e-03 8.184195e-03 7.547633e-03 5.453419e-03 1.077030e-02 1.161055e-02 5.984908e-03 7.514104e-03 9.083512e-03 5.757703e-03 9.047500e-03 1.272870e-02 8.386556e-03 4.297441e-03 5.983351e-03 5.990760e-03 6.368107e-03 6.745960e-03 4.357994e-03 2.972497e-03 3.909118e-03 5.824916e-03 4.201823e-03 3.116661e-03 5.336122e-03 5.362537e-03 4.726048e-03 3.361009e-03 3.825947e-03 4.174111e-03 3.184380e-03 3.294260e-03 3.488804e-03 3.356125e-03 3.373540e-03 2.513661e-03 1.653684e-03 2.310192e-03 2.226299e-03 1.907377e-03 2.523577e-03 2.874065e-03 1.522659e-03 1.364592e-03 9.948966e-04 1.388607e-03 1.680758e-03 1.607349e-03 1.452795e-03 1.530795e-03 1.250542e-03
<GCONST> -6.956772e+02
<STREAM> 2
<NUMMIXES> 2
<MIXTURE> 1 4.714367e-02
<MEAN> 1
 4.856329e+00
<VARIANCE> 1
 6.586100e-03
<GCONST> -3.184917e+00
<MIXTURE> 2 9.528562e-01
<MEAN> 0
<VARIANCE> 0
<GCONST> 0.000000e+00
<STREAM> 3
<NUMMIXES> 2
<MIXTURE> 1 4.714367e-02
<MEAN> 1
 -6.247405e-03
<VARIANCE> 1
 6.123345e-06
<GCONST> -1.016552e+01
<MIXTURE> 2 9.528562e-01
<MEAN> 0
<VARIANCE> 0
<GCONST> 0.000000e+00
<STREAM> 4
<NUMMIXES> 2
<MIXTURE> 1 4.714367e-02
<MEAN> 1
 1.011929e-02
<VARIANCE> 1
 7.559654e-06
<GCONST> -9.954808e+00
<MIXTURE> 2 9.528562e-01
<MEAN> 0
<VARIANCE> 0
<GCONST> 0.000000e+00
<STREAM> 5
<MEAN> 15
 -3.920429e-01 -1.938409e-01 -3.314792e-01 -1.338563e-01 -1.056427e-01 -8.895394e-02 2.780432e-02 1.847123e-02 1.539894e-02 9.245365e-02 -1.970348e-01 1.792826e-02 1.860832e-01 -1.101231e-01 -2.530681e-01
<VARIANCE> 15
 3.575468e+00 7.836468e-01 2.531456e+00 3.648422e-01 2.524852e-01 3.759768e-01 5.503307e-02 3.460962e-02 2.799345e-02 1.323953e-01 7.888355e-01 3.258862e-01 1.415067e+00 1.653350e-01 8.638713e-01
<GCONST> 1.134580e+01
<STATE> 6
<SWEIGHTS> 5
 1.000000e+00 0.000000e+00 0.000000e+00 0.000000e+00 0.000000e+00
<STREAM> 1
<MEAN> 180
 5.986094e-01 2.672028e-01 9.483153e-02 1.347095e-01 8.220587e-02 1.011519e-01 6.053103e-02 7.878490e-02 4.820219e-02 4.405033e-02 -1.226103e-02 2.964973e-02 -3.997269e-03 6.229495e-02 -3.331173e-02 1.675202e-02 -1.990858e-02 1.186417e-02 -1.118995e-02 2.339555e-02 1.815099e-02 -6.381383e-04 -1.784193e-02 -1.910255e-02 -1.051894e-02 2.285622e-02 -1.739983e-02 2.362525e-02 -1.268539e-02 2.155487e-02 -2.594629e-02 1.928759e-02 -1.606383e-02 7.867762e-03 -8.766109e-03 1.271517e-02 -1.043731e-02 4.745170e-03 -2.860724e-02 2.026213e-02 -2.465273e-02 2.258451e-02 -2.477766e-02 2.410252e-02 -2.311021e-02 1.513505e-02 -2.048414e-02 1.874039e-02 -1.035255e-02 1.124808e-02 -1.282616e-02 9.484599e-03 -1.137310e-02 1.714387e-02 -1.788384e-02 1.116822e-02 -3.964920e-03 8.845577e-03 -1.986168e-02 1.933514e-02 -5.282038e-03 -1.291843e-03 8.047348e-04 -6.424572e-05 -1.230110e-04 -6.394549e-04 -5.547859e-05 -6.460812e-04 -5.573452e-04 1.647760e-04 5.107980e-04 1.206318e-03 7.114863e-04 3.998098e-05 -5.996849e-04 -5.752674e-04 7.710881e-04 3.197390e-04 -4.899800e-04 -1.354885e-03 -6.226260e-04 8.838511e-04 9.157023e-04 -4.151270e-04 -4.216539e-04 6.406367e-04 3.972248e-04 -1.698075e-05 -3.635084e-04 -6.144964e-04 1.231494e-04 -1.249766e-04 5.863881e-04 1.021232e-03 1.744732e-04 -1.041303e-03 -5.381287e-05 4.205382e-04 1.425159e-04 -4.114975e-04 -7.070206e-04 8.458095e-04 -7.556370e-05 -6.576062e-04 5.972163e-04 1.759030e-04 -5.210966e-04 -2.093571e-04 4.050461e-04 3.700900e-04 -3.417401e-04 -2.011295e-04 2.081708e-04 -1.737920e-05 -8.041444e-05 1.655135e-04 -1.982735e-07 -2.707553e-04 2.376964e-04 -2.625945e-05 2.252441e-03 4.669869e-04 1.858067e-04 -5.111090e-04 -4.434289e-04 6.482535e-04 -3.275778e-04 -1.087181e-04 7.375555e-04 2.059985e-04 -4.355669e-04 -1.546505e-04 1.532139e-04 1.016063e-03 -7.134257e-05 -6.028691e-04 5.364152e-04 -5.459425e-05 -1.008607e-03 3.716338e-05 -8.392998e-04 -1.206788e-03 3.908863e-04 1.440878e-03 1.174551e-03 5.085164e-04 -9.439386e-04 -4.299477e-04 3.717715e-04 3.243802e-04 3.989864e-04 4.329417e-04 -7.520409e-04 -7.286336e-05 4.960959e-04 2.408122e-04 -5.658484e-04 -7.456585e-04 4.242156e-05 2.240932e-04 2.912033e-04 2.040893e-04 -4.372201e-04 -1.666697e-04 7.174443e-04 -4.966134e-05 -3.890033e-04 4.338962e-05 4.607941e-04 -4.078009e-04 1.790611e-04 -6.399211e-05 1.436849e-04 -1.802549e-04 -1.298322e-04 6.074928e-04 -4.629127e-04 -2.429042e-04 4.364859e-04 -4.773966e-05
<VARIANCE> 180
 2.599505e-01 6.005805e-02 2.061192e-02 1.374085e-02 1.405232e-02 1.073390e-02 1.046456e-02 9.551111e-03 1.243384e-02 1.216229e-02 9.404111e-03 8.831398e-03 8.729686e-03 1.064758e-02 9.796520e-03 1.191856e-02 1.059552e-02 1.037483e-02 8.492467e-03 8.386533e-03 7.375481e-03 7.430898e-03 6.902934e-03 6.509344e-03 7.100855e-03 6.333570e-03 5.649571e-03 5.921176e-03 5.548695e-03 5.561821e-03 4.204076e-03 5.035230e-03 4.552548e-03 4.117855e-03 4.094142e-03 3.950434e-03 3.511282e-03 3.347429e-03 2.997810e-03 2.712039e-03 2.588269e-03 2.375353e-03 2.447052e-03 2.497114e-03 2.669621e-03 2.470906e-03 2.356146e-03 2.182884e-03 1.916860e-03 2.036349e-03 1.746619e-03 1.645191e-03 1.666878e-03 1.280601e-03 1.483176e-03 1.408935e-03 1.285303e-03 1.436279e-03 1.337445e-03 1.264634e-03 4.583209e-03 4.074430e-03 3.918272e-03 3.037509e-03 2.843525e-03 2.938923e-03 2.868907e-03 2.755583e-03 3.202563e-03 3.190953e-03 2.856337e-03 2.904463e-03 2.612105e-03 3.548070e-03 3.357287e-03 3.701288e-03 3.387914e-03 3.240858e-03 3.107734e-03 2.770523e-03 2.483391e-03 2.384887e-03 2.357812e-03 2.316096e-03 2.544104e-03 2.197693e-03 2.139877e-03 2.077507e-03 1.870132e-03 1.833941e-03 1.759481e-03 1.591887e-03 1.735250e-03 1.375844e-03 1.380677e-03 1.417566e-03 1.218111e-03 1.340402e-03 1.071529e-03 1.079110e-03 9.503796e-04 8.929439e-04 9.963292e-04 9.074024e-04 8.311567e-04 9.286810e-04 7.339220e-04 8.227334e-04 6.419913e-04 6.872233e-04 6.866104e-04 6.188648e-04 6.155748e-04 5.522376e-04 5.948591e-04 5.167598e-04 4.853702e-04 5.286818e-04 5.456510e-04 5.016549e-04 8.709359e-03 1.039167e-02 1.132521e-02 9.057173e-03 8.534180e-03 8.395272e-03 8.753058e-03 8.510658e-03 9.072063e-03 8.361119e-03 8.532155e-03 9.365450e-03 8.376180e-03 1.061474e-02 9.225183e-03 8.998498e-03 8.897454e-03 8.858100e-03 9.266042e-03 8.075096e-03 7.063874e-03 6.945028e-03 6.590834e-03 6.819184e-03 7.217156e-03 6.473360e-03 6.306654e-03 6.060282e-03 5.291034e-03 5.573209e-03 5.381003e-03 4.865041e-03 4.737540e-03 3.781661e-03 4.249403e-03 4.404479e-03 4.222203e-03 3.988290e-03 3.329862e-03 3.319822e-03 3.194505e-03 2.901266e-03 2.914250e-03 3.067221e-03 2.399247e-03 3.037364e-03 2.028635e-03 2.486947e-03 1.875967e-03 1.831630e-03 1.956946e-03 1.777529e-03 1.763761e-03 1.739996e-03 1.794855e-03 1.588304e-03 1.461348e-03 1.513014e-03 1.509113e-03 1.383677e-03
<GCONST> -6.979391e+02
<STREAM> 2
<NUMMIXES> 2
<MIXTURE> 1 3.488210e-02
<MEAN> 1
 4.632881e+00
<VARIANCE> 1
 3.934895e-02
<GCONST> -1.397409e+00
<MIXTURE> 2 9.651176e-01
<MEAN> 0
<VARIANCE> 0
<GCONST> 0.000000e+00
<STREAM> 3
<NUMMIXES> 2
<MIXTURE> 1 2.713051e-02
<MEAN> 1
 1.211421e-02
<VARIANCE> 1
 1.165100e-03
<GCONST> -4.917071e+00
<MIXTURE> 2 9.728693e-01
<MEAN> 0
<VARIANCE> 0
<GCONST> 0.000000e+00
<STREAM> 4
<NUMMIXES> 2
<MIXTURE> 1 2.713051e-02
<MEAN> 1
 1.225184e-03
<VARIANCE> 1
 8.526364e-03
<GCONST> -2.926715e+00
<MIXTURE> 2 9.728693e-01
<MEAN> 0
<VARIANCE> 0
<GCONST> 0.000000e+00
<STREAM> 5
<MEAN> 15
 -1.353869e-01 -9.211267e-02 -1.002310e-01 -9.761086e-02 -9.263304e-02 -4.427464e-03 1.605163e-03 7.358950e-03 -4.666196e-03 -1.850493e-03 2.196971e-02 -2.835256e-03 -3.617363e-03 -2.810944e-03 1.902619e-03
<VARIANCE> 15
 8.323326e-01 2.435065e-01 3.096131e-01 2.796222e-01 2.529159e-01 5.902996e-02 2.293037e-02 4.922606e-02 4.018135e-02 3.370476e-02 4.027115e-01 1.419824e-01 1.243581e-01 2.390007e-01 1.971769e-01
<GCONST> -2.071350e+00
<TRANSP> 7
 0.000000e+00 1.000000e+00 0.000000e+00 0.000000e+00 0.000000e+00 0.000000e+00 0.000000e+00
 0.000000e+00 3.484054e-01 6.515946e-01 0.000000e+00 0.000000e+00 0.000000e+00 0.000000e+00
 0.000000e+00 0.000000e+00 6.283149e-02 9.371685e-01 0.000000e+00 0.000000e+00 0.000000e+00
 0.000000e+00 0.000000e+00 0.000000e+00 2.229089e-01 7.770911e-01 0.000000e+00 0.000000e+00
 0.000000e+00 0.000000e+00 0.000000e+00 0.000000e+00 6.228402e-01 3.771597e-01 0.000000e+00
 0.000000e+00 0.000000e+00 0.000000e+00 0.000000e+00 0.000000e+00 9.689933e-01 3.100668e-02
 0.000000e+00 0.000000e+00 0.000000e+00 0.000000e+00 0.000000e+00 0.000000e+00 0.000000e+00
<ENDHMM>
~h "D"
<BEGINHMM>
<NUMSTATES> 7
<STATE> 2
<SWEIGHTS> 5
 1.000000e+00 0.000000e+00 0.000000e+00 0.000000e+00 0.000000e+00
<STREAM> 1
<MEAN> 180
 5.013943e+00 2.229511e+00 1.804315e-01 3.952515e-01 1.208620e-01 1.675696e-01 1.044420e-03 5.661970e-02 -1.404856e-01 1.011743e-01 -8.743239e-02 5.665514e-02 -1.324708e-01 4.824540e-02 -1.433177e-01 1.065943e-01 1.783960e-03 -6.218323e-02 3.128465e-02 6.637654e-02 -1.599579e-01 5.441398e-02 2.062343e-02 -7.332229e-02 4.666686e-02 2.591836e-02 -8.127166e-02 8.329788e-02 -3.405975e-02 3.844227e-02 -2.876929e-02 5.578629e-02 -3.730509e-02 3.929539e-02 -4.165341e-02 4.198588e-02 -6.407174e-02 5.883909e-02 -4.814069e-02 2.958143e-02 -3.586263e-02 4.238853e-02 -3.996184e-02 3.137312e-02 -2.079264e-02 1.638631e-02 -2.109174e-02 2.678316e-02 -3.680369e-02 4.852437e-02 -5.160639e-02 4.592040e-02 -2.619422e-02 8.770335e-03 -8.410477e-03 2.940354e-02 -5.055790e-02 6.083505e-02 -5.690015e-02 4.102131e-02 -1.772437e-02 -1.197209e-02 1.584893e-03 -1.018999e-03 8.115664e-03 2.638411e-03 -1.414094e-03 8.184560e-05 -4.066905e-03 3.538015e-03 4.321100e-03 2.580025e-04 2.631220e-03 2.757542e-03 -9.444839e-05 -4.334221e-03 2.110531e-03 1.236049e-03 -9.044111e-04 -5.095407e-04 1.775603e-03 2.757578e-04 -7.029158e-04 1.814505e-03 1.461706e-03 -2.061999e-03 -2.092579e-03 8.160059e-04 9.344945e-05 -1.592776e-03 6.245679e-04 1.072750e-03 -1.141936e-03 3.056355e-04 5.719512e-04 -2.474454e-04 1.375259e-04 -2.065689e-03 8.842141e-04 1.035057e-03 -9.829735e-04 5.451372e-05 9.117268e-04 -9.030590e-04 -4.601018e-04 1.434404e-03 -1.170488e-03 6.089782e-04 3.830803e-04 -1.252244e-03 1.252849e-03 -4.865825e-04 -5.728602e-04 7.186765e-04 -8.005450e-04 1.030366e-03 -1.195413e-03 8.371376e-04 4.259031e-05 -3.649698e-04 8.971180e-03 -5.136008e-03 -9.088918e-03 -1.220785e-04 1.965036e-03 -6.137700e-04 -1.533724e-03 5.191588e-04 -1.014493e-03 -2.505635e-04 -8.304321e-04 -1.449192e-03 -2.596501e-04 1.565309e-03 -3.485230e-05 7.197033e-04 6.194951e-04 1.688157e-03 2.374671e-03 -2.383266e-03 -1.227746e-03 2.295608e-03 6.667114e-04 2.113452e-03 1.738155e-03 -7.235417e-04 2.273418e-03 4.922273e-04 -1.159482e-03 4.253850e-04 6.698479e-06 -7.746034e-05 3.919050e-04 -2.764985e-04 -1.292132e-03 1.028189e-03 -1.901926e-04 -1.626129e-03 6.995840e-04 -1.275738e-04 -6.844400e-04 1.296471e-04 -7.655523e-04 9.021825e-04 -9.302809e-04 1.305485e-04 3.687068e-04 -5.794209e-04 2.555689e-05 -3.012396e-04 9.450583e-04 -4.898645e-04 -2.045825e-06 3.155178e-04 -3.126716e-04 -5.683953e-04 8.527292e-04 -3.189094e-04 -7.536405e-04 1.382621e-03
<VARIANCE> 180
 1.494608e+00 1.341220e+00 3.041408e-01 1.584837e-01 1.682382e-01 1.043182e-01 6.790524e-02 1.230718e-01 5.143462e-02 9.852205e-02 3.675618e-02 3.604237e-02 2.947861e-02 3.904979e-02 3.005956e-02 4.002036e-02 2.628897e-02 2.179766e-02 1.934100e-02 1.958907e-02 1.536662e-02 1.695496e-02 1.423222e-02 1.413008e-02 1.453350e-02 1.416759e-02 1.093768e-02 1.203165e-02 1.215300e-02 1.018790e-02 8.795180e-03 6.846720e-03 8.330408e-03 7.593231e-03 6.026151e-03 5.869934e-03 7.100569e-03 6.376487e-03 5.179626e-03 4.570979e-03 4.479627e-03 4.678947e-03 4.565808e-03 3.827271e-03 3.710018e-03 4.214073e-03 3.872297e-03 3.086445e-03 3.480784e-03 3.766503e-03 3.520972e-03 3.646395e-03 3.075958e-03 2.687217e-03 2.781932e-03 2.916950e-03 2.814057e-03 2.439357e-03 2.304361e-03 2.455918e-03 4.013925e-02 2.705753e-02 1.358378e-02 7.053758e-03 6.389911e-03 5.640121e-03 4.477314e-03 4.021371e-03 4.306324e-03 4.276247e-03 3.575002e-03 3.220507e-03 3.040355e-03 2.787804e-03 2.824425e-03 2.974453e-03 2.609051e-03 2.654247e-03 2.555776e-03 2.117476e-03 2.308778e-03 2.373516e-03 2.082822e-03 1.871335e-03 2.044835e-03 1.814798e-03 1.664778e-03 1.471072e-03 1.494435e-03 1.538406e-03 1.465767e-03 1.244602e-03 1.290968e-03 1.200776e-03 1.107150e-03 1.105070e-03 1.151843e-03 9.616268e-04 9.860562e-04 8.707372e-04 8.434597e-04 8.418217e-04 8.371497e-04 8.042670e-04 7.147578e-04 6.884803e-04 6.544121e-04 6.041156e-04 6.564737e-04 5.933036e-04 6.424614e-04 6.070867e-04 5.477506e-04 5.384555e-04 5.325929e-04 5.365210e-04 5.234880e-04 5.099954e-04 4.829675e-04 4.389786e-04 2.360049e-02 1.685987e-02 1.998542e-02 1.288716e-02 1.167097e-02 1.125837e-02 1.029052e-02 1.020741e-02 1.063122e-02 9.705856e-03 1.060812e-02 9.447129e-03 8.896455e-03 9.337110e-03 8.402810e-03 9.128634e-03 8.242194e-03 9.122632e-03 8.060011e-03 7.655321e-03 7.953729e-03 8.148815e-03 7.622383e-03 7.075984e-03 6.923721e-03 6.806006e-03 6.328649e-03 5.978025e-03 5.998104e-03 5.586356e-03 5.107642e-03 4.956899e-03 4.562635e-03 4.673621e-03 4.616869e-03 4.375256e-03 4.325091e-03 3.645056e-03 3.804841e-03 3.638408e-03 3.372638e-03 3.589802e-03 3.367347e-03 3.295650e-03 2.843402e-03 2.647877e-03 2.553965e-03 2.423611e-03 2.806287e-03 2.539882e-03 2.530812e-03 2.398409e-03 2.256889e-03 2.131305e-03 2.126493e-03 2.343367e-03 2.152736e-03 1.968474e-03 2.033048e-03 1.889161e-03
<GCONST> -6.287329e+02
<STREAM> 2
<NUMMIXES> 2
<MIXTURE> 1 8.020215e-01
<MEAN> 1
 4.996153e+00
<VARIANCE> 1
 9.025210e-02
<GCONST> -5.672715e-01
<MIXTURE> 2 1.979755e-01
<MEAN> 0
<VARIANCE> 0
<GCONST> 0.000000e+00
<STREAM> 3
<NUMMIXES> 2
<MIXTURE> 1 7.821680e-01
<MEAN> 1
 -4.023951e-03
<VARIANCE> 1
 7.797038e-04
<GCONST> -5.318720e+00
<MIXTURE> 2 2.178287e-01
<MEAN> 0
<VARIANCE> 0
<GCONST> 0.000000e+00
<STREAM> 4
<NUMMIXES> 2
<MIXTURE> 1 7.821680e-01
<MEAN> 1
 -3.246427e-04
<VARIANCE> 1
 2.627807e-03
<GCONST> -4.103729e+00
<MIXTURE> 2 2.178287e-01
<MEAN> 0
<VARIANCE> 0
<GCONST> 0.000000e+00
<STREAM> 5
<MEAN> 15
 -3.702661e+00 -2.372382e+00 -2.418861e+00 -2.441048e+00 -2.448692e+00 -1.980964e-02 -3.202444e-02 -1.721303e-02 5.545232e-03 -4.140393e-03 -5.576020e-02 -3.655232e-02 3.040828e-02 -3.516248e-03 3.950758e-02
<VARIANCE> 15
 9.564676e+00 2.526665e+00 2.596704e+00 2.624572e+00 2.437167e+00 1.191516e+00 5.178715e-01 5.251427e-01 5.215117e-01 4.485957e-01 6.937599e+00 4.119713e+00 4.397911e+00 4.698376e+00 3.869915e+00
<GCONST> 3.871791e+01
<STATE> 3
<SWEIGHTS> 5
 1.000000e+00 0.000000e+00 0.000000e+00 0.000000e+00 0.000000e+00
<STREAM> 1
<MEAN> 180
 4.834337e+00 1.911432e+00 1.174641e-01 4.715004e-01 1.399201e-01 6.777313e-02 -1.700292e-02 8.504987e-02 -1.842352e-01 9.703569e-02 -5.795284e-02 6.299747e-02 -1.171471e-01 8.598079e-02 -1.697694e-01 1.191861e-01 2.149133e-02 -7.254077e-02 4.099394e-02 5.460243e-02 -1.373604e-01 6.540412e-02 6.604914e-03 -3.543757e-02 5.230564e-02 1.968842e-03 -8.610810e-02 9.460834e-02 -3.979183e-02 2.773591e-02 -1.733758e-02 5.134180e-02 -3.453182e-02 2.831255e-02 -3.953679e-02 3.962129e-02 -6.422538e-02 4.946565e-02 -4.483443e-02 3.570230e-02 -4.413487e-02 4.472230e-02 -3.677168e-02 3.346180e-02 -3.764106e-02 3.231030e-02 -3.862941e-02 4.499716e-02 -3.968552e-02 3.486934e-02 -3.379918e-02 3.521859e-02 -2.533803e-02 1.403534e-02 -1.454944e-02 2.928823e-02 -4.315137e-02 5.254488e-02 -5.329198e-02 4.303415e-02 4.948899e-03 -5.305352e-03 -1.454462e-02 -1.424259e-02 -4.357178e-03 -6.785102e-03 -7.735797e-03 3.889019e-03 -2.472874e-04 -7.115357e-04 4.314263e-04 -1.897757e-03 1.165132e-03 2.146259e-03 -2.199439e-03 -1.951865e-03 -6.282319e-04 3.017299e-05 4.422413e-03 -5.213341e-04 -2.757742e-03 1.697329e-03 2.851409e-03 2.307447e-03 -2.335013e-03 3.395929e-04 2.218062e-03 -4.075923e-04 -6.132434e-04 1.417883e-03 6.680585e-04 -8.096969e-04 1.050825e-03 3.449478e-03 -1.779382e-03 -5.057942e-04 1.044016e-03 -2.158762e-03 -8.874398e-04 6.153809e-04 -4.213302e-04 2.553979e-04 -8.806674e-06 -2.996807e-04 -1.166841e-03 1.604907e-04 -6.192829e-05 1.064875e-03 -1.141607e-03 -6.059759e-04 1.647634e-03 -1.191132e-03 6.820782e-04 -6.114920e-04 -6.742790e-06 1.750851e-04 2.971003e-04 -7.392245e-05 -1.057499e-03 2.161518e-03 -7.931832e-03 -8.583448e-03 4.304733e-03 7.626768e-03 -4.858647e-03 1.251084e-03 3.746552e-03 4.123581e-03 4.532109e-03 2.395347e-03 -3.014551e-05 -3.718589e-03 1.261943e-03 -1.805304e-03 -1.742351e-03 -1.478865e-03 -1.847262e-03 -2.876946e-03 -1.542043e-03 1.500600e-03 -3.876114e-03 -7.490117e-03 1.740325e-03 4.260273e-04 -8.021458e-03 -9.607264e-04 -1.101992e-03 -7.499080e-04 8.438864e-04 2.413022e-03 4.840993e-04 -2.158473e-03 3.718187e-04 4.812862e-03 2.681172e-03 -4.481763e-03 1.943957e-03 2.813338e-03 -3.783513e-03 -1.002645e-03 2.798788e-03 -2.363972e-03 -4.035660e-04 1.753683e-03 -9.018155e-04 1.000079e-03 -6.557844e-04 4.420568e-04 -1.994691e-04 2.457898e-03 -3.499034e-03 2.011862e-03 -8.807698e-05 -1.172116e-03 2.429781e-03 -1.404617e-03 9.070542e-04 1.485430e-04 -7.029872e-04 2.955539e-04
<VARIANCE> 180
 2.064195e+00 1.687539e+00 3.169206e-01 2.735168e-01 1.858189e-01 9.070010e-02 6.314022e-02 9.142463e-02 6.154611e-02 6.978729e-02 3.966539e-02 3.725182e-02 3.288129e-02 4.360473e-02 2.765224e-02 4.057582e-02 3.000605e-02 2.519887e-02 2.112999e-02 2.142776e-02 1.822218e-02 1.941236e-02 1.493267e-02 1.260993e-02 1.237904e-02 1.262559e-02 1.206856e-02 1.136956e-02 1.155752e-02 8.770982e-03 9.352082e-03 8.080244e-03 8.163046e-03 7.896189e-03 5.760711e-03 6.524635e-03 7.233540e-03 6.491978e-03 5.409614e-03 4.123122e-03 4.630465e-03 4.273274e-03 4.400404e-03 4.022161e-03 3.651135e-03 3.709969e-03 3.743982e-03 3.783339e-03 3.432326e-03 3.388676e-03 3.465247e-03 3.456794e-03 3.375642e-03 3.075731e-03 2.641407e-03 2.597069e-03 2.937338e-03 2.742791e-03 2.336137e-03 2.190194e-03 2.269161e-02 1.685113e-02 8.731689e-03 6.156411e-03 5.437623e-03 4.303111e-03 3.647199e-03 3.231138e-03 3.042864e-03 3.526429e-03 3.002088e-03 2.927141e-03 2.744994e-03 2.534739e-03 2.782179e-03 2.745979e-03 2.527859e-03 2.343889e-03 2.344001e-03 2.008578e-03 2.099195e-03 2.135457e-03 2.039052e-03 1.879636e-03 1.996268e-03 1.681514e-03 1.747606e-03 1.564533e-03 1.539540e-03 1.473797e-03 1.265266e-03 1.219249e-03 1.228909e-03 1.257841e-03 1.172137e-03 1.009001e-03 9.986868e-04 1.013443e-03 9.145964e-04 7.941968e-04 9.075341e-04 7.534783e-04 7.956198e-04 7.187914e-04 6.413849e-04 5.694246e-04 5.550451e-04 5.811049e-04 5.996175e-04 5.670234e-04 5.805957e-04 6.036498e-04 5.306042e-04 4.963795e-04 4.351734e-04 4.925252e-04 4.717909e-04 4.445047e-04 4.637351e-04 4.133201e-04 1.137636e-02 1.239107e-02 1.056729e-02 9.634063e-03 8.135448e-03 7.834949e-03 6.977317e-03 9.060444e-03 7.285366e-03 8.256136e-03 7.208365e-03 6.038165e-03 6.654074e-03 6.727547e-03 6.461946e-03 7.063528e-03 7.015008e-03 7.143432e-03 6.822339e-03 5.698883e-03 5.959757e-03 6.094824e-03 6.843075e-03 5.697200e-03 5.282310e-03 5.204716e-03 4.861967e-03 4.320032e-03 4.562110e-03 4.644854e-03 3.976275e-03 4.407627e-03 4.039878e-03 4.094817e-03 3.638052e-03 3.245523e-03 3.388651e-03 3.288409e-03 3.095302e-03 3.288626e-03 2.971967e-03 2.452530e-03 2.836401e-03 2.819675e-03 2.258658e-03 2.121807e-03 2.388475e-03 2.117656e-03 2.263054e-03 2.285638e-03 2.331021e-03 2.284611e-03 1.968947e-03 1.774842e-03 1.807620e-03 1.837870e-03 1.804164e-03 1.682846e-03 1.554070e-03 1.422372e-03
<GCONST> -6.481292e+02
<STREAM> 2
<NUMMIXES> 2
<MIXTURE> 1 7.408288e-01
<MEAN> 1
 4.931810e+00
<VARIANCE> 1
 1.068377e-01
<GCONST> -3.985674e-01
<MIXTURE> 2 2.591698e-01
<MEAN> 0
<VARIANCE> 0
<GCONST> 0.000000e+00
<STREAM> 3
<NUMMIXES> 2
<MIXTURE> 1 7.274096e-01
<MEAN> 1
 -6.198135e-03
<VARIANCE> 1
 1.026772e-03
<GCONST> -5.043458e+00
<MIXTURE> 2 2.725891e-01
<MEAN> 0
<VARIANCE> 0
<GCONST> 0.000000e+00
<STREAM> 4
<NUMMIXES> 2
<MIXTURE> 1 7.274096e-01
<MEAN> 1
 -1.909506e-03
<VARIANCE> 1
 2.465139e-03
<GCONST> -4.167630e+00
<MIXTURE> 2 2.725891e-01
<MEAN> 0
<VARIANCE> 0
<GCONST> 0.000000e+00
<STREAM> 5
<MEAN> 15
 -4.136738e+00 -2.536535e+00 -2.391018e+00 -2.341800e+00 -2.329579e+00 -1.428794e-01 -6.340472e-02 2.666721e-03 -2.938060e-02 3.592772e-03 2.022699e-03 8.535102e-02 4.837190e-02 -2.485298e-02 -1.199211e-02
<VARIANCE> 15
 1.450925e+01 4.154993e+00 3.036210e+00 2.987079e+00 2.928416e+00 1.408815e+00 6.573396e-01 5.449744e-01 5.083377e-01 4.725990e-01 5.954451e+00 4.240313e+00 4.252599e+00 3.665898e+00 3.828448e+00
<GCONST> 4.015452e+01
<STATE> 4
<SWEIGHTS> 5
 1.000000e+00 0.000000e+00 0.000000e+00 0.000000e+00 0.000000e+00
<STREAM> 1
<MEAN> 180
 5.032775e+00 2.443864e+00 2.484655e-01 4.778054e-01 1.787777e-01 8.390866e-02 -7.635271e-03 2.499374e-01 -2.198551e-01 -2.943102e-02 -6.996011e-02 2.601076e-02 -1.180034e-01 2.804600e-02 -1.627050e-01 1.650799e-01 -1.095547e-02 -9.043283e-02 7.724243e-02 2.518705e-02 -1.636531e-01 8.459454e-02 2.976221e-02 -6.399363e-02 2.689183e-02 6.004266e-02 -1.004363e-01 7.959784e-02 -7.906698e-03 1.883681e-02 -4.492271e-03 5.792187e-02 -2.439740e-02 2.780226e-02 -3.723720e-02 3.398766e-02 -6.903298e-02 6.052004e-02 -6.319970e-02 3.303981e-02 -3.648886e-02 3.183332e-02 -2.508496e-02 1.859064e-02 -2.203687e-02 2.854852e-02 -4.134323e-02 4.223004e-02 -3.911610e-02 3.844257e-02 -3.797273e-02 3.859754e-02 -2.569072e-02 9.938599e-03 -3.336601e-03 2.078979e-02 -3.929330e-02 5.552357e-02 -6.395562e-02 5.368131e-02 -2.884498e-03 -1.308846e-02 -6.363092e-03 -2.557085e-03 -2.333575e-03 -8.461527e-04 -1.055588e-03 2.438026e-03 -3.266623e-03 -2.275311e-04 2.907530e-03 -1.879741e-03 -5.178320e-04 1.495941e-03 -4.356480e-04 2.173086e-03 -2.099778e-04 -1.687692e-03 1.873853e-03 -3.643413e-04 -2.621701e-03 -1.958273e-03 -3.932272e-04 1.036654e-03 -1.857403e-03 -4.758541e-04 1.334582e-03 2.735971e-04 -3.118052e-04 8.726075e-04 6.842214e-04 -6.233018e-04 5.883836e-04 1.323091e-03 3.498538e-04 3.268238e-05 -3.280417e-04 -7.424573e-05 -7.931549e-04 -1.285206e-03 8.504775e-04 6.718300e-04 -2.001394e-03 6.445090e-04 -2.766331e-04 1.148810e-03 -4.494685e-04 -7.501878e-04 9.689691e-04 -6.026216e-04 1.652873e-04 2.542877e-05 -6.172912e-04 7.751405e-04 3.724640e-04 -6.847931e-04 7.330707e-04 -6.873748e-04 2.310364e-04 1.589764e-04 -9.308849e-03 -3.786254e-03 1.008769e-03 -5.257090e-04 2.422157e-03 3.817078e-03 8.666220e-04 -1.587408e-03 -9.322511e-04 -9.200140e-05 3.244578e-03 3.055329e-03 -3.813917e-03 -5.768375e-04 3.463846e-03 2.202222e-03 -1.218412e-03 2.069637e-04 -1.358923e-03 -1.909092e-03 2.214331e-03 -4.674314e-04 -2.559347e-03 -1.119791e-03 2.557046e-03 1.261408e-03 -1.523618e-03 1.286865e-03 1.172683e-03 -1.769143e-03 -4.913066e-04 1.430161e-03 -1.970991e-03 -3.050049e-03 1.250069e-03 1.948376e-03 -1.678196e-03 1.117295e-03 1.333737e-03 -1.122625e-03 5.302978e-04 1.360998e-03 -1.413121e-03 7.058277e-04 2.175648e-04 -4.652379e-04 5.490897e-04 -1.252752e-03 1.412352e-03 -2.171822e-03 1.267598e-03 -8.823576e-05 -7.188860e-04 6.970376e-04 -3.113793e-04 3.355012e-04 -1.519209e-04 -8.139807e-04 1.857775e-03 -2.089479e-03
<VARIANCE> 180
 1.580584e+00 1.058454e+00 3.426817e-01 1.312142e-01 1.783207e-01 1.057549e-01 6.580078e-02 9.566094e-02 6.484016e-02 7.491864e-02 4.266980e-02 3.443842e-02 2.868265e-02 3.531842e-02 2.726860e-02 3.825435e-02 3.007905e-02 2.513180e-02 2.415781e-02 2.581516e-02 1.925819e-02 1.825647e-02 1.379064e-02 1.578781e-02 1.272320e-02 1.593750e-02 1.510393e-02 9.202506e-03 1.052681e-02 1.065432e-02 1.162057e-02 7.136878e-03 8.503417e-03 7.760643e-03 6.367093e-03 5.939721e-03 7.099845e-03 6.552817e-03 4.892858e-03 4.027146e-03 5.269648e-03 4.357141e-03 5.267833e-03 5.149045e-03 3.835362e-03 3.446744e-03 3.865113e-03 3.702119e-03 3.756010e-03 4.120993e-03 3.327523e-03 2.997730e-03 3.018933e-03 2.804186e-03 2.973246e-03 3.072625e-03 3.074128e-03 2.957681e-03 2.859355e-03 2.990652e-03 1.624977e-02 1.303130e-02 7.727162e-03 5.571112e-03 4.670645e-03 4.234072e-03 3.189037e-03 2.980940e-03 3.307230e-03 2.728536e-03 2.903233e-03 2.336443e-03 2.446532e-03 2.186949e-03 2.234695e-03 2.401104e-03 2.399963e-03 2.202058e-03 1.964438e-03 1.934240e-03 1.858271e-03 1.706910e-03 1.526327e-03 1.617940e-03 1.525488e-03 1.409959e-03 1.440886e-03 1.278473e-03 1.345620e-03 1.247642e-03 1.190818e-03 1.135024e-03 1.186729e-03 1.134241e-03 1.068644e-03 9.393150e-04 8.761675e-04 9.021907e-04 6.522515e-04 7.643322e-04 7.462392e-04 7.199562e-04 6.737089e-04 7.189863e-04 6.309797e-04 5.436738e-04 6.433674e-04 5.860070e-04 5.760037e-04 5.442657e-04 5.173098e-04 5.083354e-04 4.767488e-04 4.421164e-04 4.592296e-04 4.478336e-04 4.594038e-04 4.756547e-04 4.416271e-04 4.002016e-04 1.014987e-02 8.247875e-03 8.349933e-03 6.938245e-03 6.505565e-03 6.856126e-03 5.437653e-03 5.695110e-03 5.792451e-03 6.475062e-03 6.108373e-03 5.344767e-03 6.132756e-03 5.410647e-03 5.773657e-03 5.624644e-03 5.079059e-03 5.149133e-03 4.517302e-03 4.979529e-03 4.740688e-03 4.308167e-03 4.260543e-03 4.168267e-03 4.854828e-03 3.892712e-03 4.118744e-03 3.906311e-03 3.736001e-03 3.465459e-03 3.024678e-03 3.225106e-03 3.401924e-03 3.286710e-03 3.086034e-03 2.859043e-03 2.710480e-03 2.584195e-03 2.228182e-03 2.403145e-03 2.275962e-03 2.073401e-03 2.159147e-03 2.344750e-03 2.048930e-03 1.783722e-03 1.805287e-03 1.731670e-03 1.743254e-03 1.824015e-03 1.728430e-03 1.664880e-03 1.571923e-03 1.419530e-03 1.426553e-03 1.471646e-03 1.424118e-03 1.405606e-03 1.300753e-03 1.280251e-03
<GCONST> -6.679411e+02
<STREAM> 2
<NUMMIXES> 2
<MIXTURE> 1 8.641204e-01
<MEAN> 1
 4.831448e+00
<VARIANCE> 1
 6.905071e-02
<GCONST> -8.350372e-01
<MIXTURE> 2 1.358789e-01
<MEAN> 0
<VARIANCE> 0
<GCONST> 0.000000e+00
<STREAM> 3
<NUMMIXES> 2
<MIXTURE> 1 8.575425e-01
<MEAN> 1
 -5.768326e-03
<VARIANCE> 1
 6.081694e-04
<GCONST> -5.567180e+00
<MIXTURE> 2 1.424568e-01
<MEAN> 0
<VARIANCE> 0
<GCONST> 0.000000e+00
<STREAM> 4
<NUMMIXES> 2
<MIXTURE> 1 8.575425e-01
<MEAN> 1
 -1.392740e-03
<VARIANCE> 1
 1.417487e-03
<GCONST> -4.720993e+00
<MIXTURE> 2 1.424568e-01
<MEAN> 0
<VARIANCE> 0
<GCONST> 0.000000e+00
<STREAM> 5
<MEAN> 15
 -4.586311e+00 -3.056004e+00 -2.846352e+00 -2.771145e+00 -2.742535e+00 -9.542033e-02 1.490909e-02 8.241050e-03 -7.991619e-03 6.513944e-03 -3.427722e-02 9.489619e-03 -2.504031e-02 2.640864e-02 -2.520150e-02
<VARIANCE> 15
 1.173186e+01 3.552576e+00 2.553923e+00 2.374210e+00 2.252219e+00 1.332678e+00 5.337799e-01 4.645423e-01 4.729472e-01 4.094338e-01 6.941325e+00 3.346725e+00 3.402820e+00 2.927769e+00 3.150271e+00
<GCONST> 3.775512e+01
<STATE> 5
<SWEIGHTS> 5
 1.000000e+00 0.000000e+00 0.000000e+00 0.000000e+00 0.000000e+00
<STREAM> 1
<MEAN> 180
 5.279146e+00 2.674762e+00 4.643545e-02 4.696046e-01 3.588381e-01 1.650150e-01 1.377965e-03 3.376505e-01 -2.809909e-01 -1.119952e-01 -4.651402e-02 1.402386e-02 -1.302586e-01 -4.222833e-02 -1.783462e-01 2.934590e-01 -4.737823e-02 -1.232358e-01 1.447758e-01 -3.392853e-02 -1.731691e-01 1.127977e-01 -6.199602e-03 -6.886204e-02 2.896185e-02 5.038960e-02 -1.111430e-01 8.710159e-02 8.999713e-03 8.341203e-03 4.871611e-02 4.137680e-02 -2.234424e-02 4.113806e-02 -3.491233e-02 3.334527e-02 -8.689649e-02 8.678845e-02 -7.443617e-02 2.321550e-02 -2.503822e-02 1.946946e-02 -1.922089e-02 2.628303e-02 -4.239217e-02 4.027444e-02 -4.769120e-02 2.838253e-02 -1.770839e-02 2.110928e-02 -3.387297e-02 4.400020e-02 -3.293778e-02 1.451914e-02 -5.851210e-03 2.332600e-02 -4.021890e-02 4.810642e-02 -5.141428e-02 4.422669e-02 -2.377117e-02 -7.999544e-03 5.464390e-03 -8.204723e-04 2.681697e-03 5.415422e-03 4.686875e-04 -1.493487e-03 4.136037e-03 -2.969274e-03 -3.860281e-04 2.915631e-04 -2.497975e-03 -1.149581e-03 1.954664e-03 1.943911e-03 1.273679e-03 4.387457e-04 5.997937e-04 1.365622e-04 1.750129e-04 -7.444926e-04 -1.016567e-03 -7.425384e-04 -1.060644e-03 2.739225e-04 5.418429e-04 2.134279e-04 -2.134221e-04 4.752167e-04 2.850487e-06 -8.296108e-05 3.141310e-05 -4.531736e-04 2.324808e-04 -5.112230e-04 1.627806e-04 9.954210e-05 -4.180425e-04 -4.543383e-04 6.831829e-04 -4.842989e-04 -4.602956e-04 7.154120e-04 -1.431111e-04 -1.897121e-04 3.835939e-05 -7.668836e-05 1.095027e-05 1.108304e-04 -2.403225e-04 1.730421e-04 1.786920e-04 -3.428427e-04 4.339420e-04 -6.092630e-05 1.231384e-04 -4.528897e-04 6.894462e-04 -7.321138e-04 -8.888897e-03 -2.670621e-03 3.721151e-03 8.286071e-04 4.519344e-04 1.051740e-03 1.124873e-03 -5.895062e-04 1.124177e-03 -8.614505e-04 -6.842677e-04 7.716960e-04 1.687130e-04 1.500425e-04 9.676792e-04 -2.208814e-04 1.044329e-03 9.800231e-04 -8.050061e-04 4.209522e-04 2.828853e-04 -1.957372e-04 2.363927e-04 -9.574395e-05 2.018157e-04 2.317379e-04 4.102566e-05 -2.160461e-04 -2.393947e-04 -6.884265e-05 -3.382694e-04 8.815198e-05 6.543791e-05 -8.081501e-05 -2.106083e-04 -1.717131e-04 4.330840e-04 -1.814491e-04 -8.737892e-05 6.993121e-05 1.047417e-04 -4.056139e-04 9.632811e-05 2.729160e-04 8.993171e-06 -1.265333e-04 -6.162854e-05 -6.974824e-05 4.545547e-05 1.931146e-04 -2.499932e-04 -2.270198e-05 9.470971e-05 3.264606e-05 -5.678166e-05 4.950131e-05 -1.814589e-04 2.786965e-04 -8.511088e-05 -8.989614e-05
<VARIANCE> 180
 8.274623e-01 3.062824e-01 2.172816e-01 1.135329e-01 2.035606e-01 1.038060e-01 6.941736e-02 5.979817e-02 5.214079e-02 5.755738e-02 4.271476e-02 3.324391e-02 2.360665e-02 2.623852e-02 2.592944e-02 3.489777e-02 3.592718e-02 2.282640e-02 2.205136e-02 2.047825e-02 1.893046e-02 1.580121e-02 1.441567e-02 1.321635e-02 1.394085e-02 1.098862e-02 1.108226e-02 1.057046e-02 9.510777e-03 8.758010e-03 9.288789e-03 8.947019e-03 7.593320e-03 7.760060e-03 7.413728e-03 6.682709e-03 6.574088e-03 6.123513e-03 5.583741e-03 5.109459e-03 5.438740e-03 5.004303e-03 4.529974e-03 4.671538e-03 4.400397e-03 3.817452e-03 3.696909e-03 3.447705e-03 3.712857e-03 4.055892e-03 4.399434e-03 3.966822e-03 3.511235e-03 2.949858e-03 3.244149e-03 3.121850e-03 3.036486e-03 3.043239e-03 3.081142e-03 3.034488e-03 1.233226e-02 5.716699e-03 5.359202e-03 3.499786e-03 3.056320e-03 2.330771e-03 2.228331e-03 1.884059e-03 2.055011e-03 1.915311e-03 1.808393e-03 1.518279e-03 1.318591e-03 1.446328e-03 1.400198e-03 1.344721e-03 1.295675e-03 1.308273e-03 1.356096e-03 1.256273e-03 1.253381e-03 1.195504e-03 1.116939e-03 1.043800e-03 1.057553e-03 9.995404e-04 9.687001e-04 9.448552e-04 8.995179e-04 8.696751e-04 7.554544e-04 7.822255e-04 7.634885e-04 7.141453e-04 7.383901e-04 6.747180e-04 6.560257e-04 6.265839e-04 5.744175e-04 5.721903e-04 5.579622e-04 5.529620e-04 5.671439e-04 5.364452e-04 5.185909e-04 4.772933e-04 4.616473e-04 4.615043e-04 4.749430e-04 4.506709e-04 4.294891e-04 4.227961e-04 3.946279e-04 3.784552e-04 3.804672e-04 3.624614e-04 3.730417e-04 3.642369e-04 3.442778e-04 3.346162e-04 5.375023e-03 3.874057e-03 4.016643e-03 3.249148e-03 2.826977e-03 2.406207e-03 2.331819e-03 2.459915e-03 2.451089e-03 2.572617e-03 2.383705e-03 2.198561e-03 2.213940e-03 2.229172e-03 2.285785e-03 2.192465e-03 2.060505e-03 2.142992e-03 2.095701e-03 2.040748e-03 2.151874e-03 1.965370e-03 1.933575e-03 1.925171e-03 1.812723e-03 1.765410e-03 1.825146e-03 1.767970e-03 1.777558e-03 1.666046e-03 1.568496e-03 1.529329e-03 1.561162e-03 1.406612e-03 1.485943e-03 1.382225e-03 1.316036e-03 1.313962e-03 1.197435e-03 1.219483e-03 1.161995e-03 1.169390e-03 1.159984e-03 1.118343e-03 1.119503e-03 1.035842e-03 1.012685e-03 9.940653e-04 1.020421e-03 9.441544e-04 9.053894e-04 9.208772e-04 8.770633e-04 8.021407e-04 8.073914e-04 8.441371e-04 8.241460e-04 7.740840e-04 7.514430e-04 7.040068e-04
<GCONST> -7.371531e+02
<STREAM> 2
<NUMMIXES> 2
<MIXTURE> 1 9.705998e-01
<MEAN> 1
 4.649682e+00
<VARIANCE> 1
 4.214051e-02
<GCONST> -1.328869e+00
<MIXTURE> 2 2.940024e-02
<MEAN> 0
<VARIANCE> 0
<GCONST> 0.000000e+00
<STREAM> 3
<NUMMIXES> 2
<MIXTURE> 1 9.676438e-01
<MEAN> 1
 -3.038833e-03
<VARIANCE> 1
 3.359804e-04
<GCONST> -6.160581e+00
<MIXTURE> 2 3.235637e-02
<MEAN> 0
<VARIANCE> 0
<GCONST> 0.000000e+00
<STREAM> 4
<NUMMIXES> 2
<MIXTURE> 1 9.674411e-01
<MEAN> 1
 2.393255e-04
<VARIANCE> 1
 5.784156e-04
<GCONST> -5.617341e+00
<MIXTURE> 2 3.255911e-02
<MEAN> 0
<VARIANCE> 0
<GCONST> 0.000000e+00
<STREAM> 5
<MEAN> 15
 -5.787495e+00 -3.403411e+00 -3.100839e+00 -2.890153e+00 -2.926456e+00 8.904731e-02 3.119715e-02 1.536707e-02 1.628292e-02 9.398304e-03 7.695252e-02 1.049505e-02 7.820816e-03 1.366432e-02 1.019712e-02
<VARIANCE> 15
 1.290680e+01 3.052010e+00 1.484397e+00 1.145303e+00 1.125377e+00 1.282156e+00 5.282362e-01 3.763849e-01 3.053812e-01 3.095552e-01 8.254086e+00 3.120060e+00 2.475909e+00 2.216660e+00 2.011718e+00
<GCONST> 3.381504e+01
<STATE> 6
<SWEIGHTS> 5
 1.000000e+00 0.000000e+00 0.000000e+00 0.000000e+00 0.000000e+00
<STREAM> 1
<MEAN> 180
 4.433325e+00 1.378660e+00 -5.398186e-02 2.997829e-01 1.010311e-01 2.735873e-01 -1.074827e-01 1.392804e-01 -2.329643e-01 -7.004306e-02 -3.499926e-02 5.615719e-02 -1.902532e-01 -3.811109e-02 -8.831055e-02 2.230695e-01 1.880786e-02 4.445698e-03 6.996143e-02 -6.406179e-04 -1.407981e-01 6.492722e-02 1.005931e-02 -4.982397e-02 2.027177e-02 5.862139e-02 -1.161244e-01 5.513683e-02 -4.653997e-03 3.595592e-02 -4.323285e-03 4.471965e-02 -3.273352e-02 4.005076e-02 -3.654846e-02 3.307626e-02 -6.945393e-02 5.886610e-02 -6.577224e-02 3.007867e-02 -2.924867e-02 2.220313e-02 -3.043702e-02 4.317605e-02 -4.848528e-02 4.364531e-02 -4.601089e-02 2.393832e-02 -1.145768e-02 1.943336e-02 -3.558512e-02 5.298435e-02 -4.432156e-02 2.403854e-02 -5.738053e-03 1.650438e-02 -3.082751e-02 4.438384e-02 -5.072964e-02 4.481383e-02 -5.141761e-02 -5.971705e-02 -6.589752e-03 -6.293095e-03 -9.098940e-03 -3.228108e-04 -2.506266e-04 -5.116658e-03 2.249162e-03 2.731871e-03 -9.140064e-04 -1.251755e-04 1.527834e-04 1.131670e-03 2.319418e-03 -6.111496e-03 5.809056e-04 3.046746e-03 -5.462282e-03 1.172821e-03 1.401264e-03 -2.206912e-03 1.458422e-03 2.547245e-03 1.261564e-04 1.227548e-03 1.185782e-03 -1.868348e-03 -7.395722e-04 1.552612e-03 -1.782721e-03 -6.017599e-04 1.560650e-04 6.688654e-04 -3.159187e-04 1.380061e-03 1.667236e-03 -1.682183e-03 1.572666e-03 -1.956985e-04 -1.335068e-03 3.492716e-04 8.660936e-05 6.737287e-05 -6.990478e-05 1.582027e-04 -3.262599e-04 -1.729011e-04 6.182885e-04 -2.872165e-04 -5.297755e-04 2.072881e-04 -2.452107e-04 5.603913e-04 -1.892296e-04 -3.440909e-04 -1.623711e-04 4.471262e-04 6.705534e-05 -3.769706e-04 4.076264e-04 2.159839e-03 -2.960144e-03 -1.239849e-03 1.427734e-04 -2.783425e-03 -1.792728e-03 -1.600509e-03 -1.134113e-03 2.097028e-03 -6.592534e-04 -2.038985e-03 1.363977e-03 -1.944636e-04 -2.235819e-03 -1.905656e-03 -3.578295e-04 -8.525220e-04 -4.106050e-04 5.536352e-04 1.449729e-03 9.059923e-04 -8.022483e-05 -2.151443e-04 -1.526106e-03 -1.289581e-05 1.356581e-03 -5.776272e-04 -8.410735e-05 4.419830e-04 2.602598e-04 -5.720133e-04 5.809618e-04 1.065853e-04 1.768710e-05 8.459833e-05 -4.444460e-04 -7.886184e-04 7.327497e-04 5.485565e-04 -2.954016e-04 1.397972e-04 6.937934e-04 -1.042291e-03 3.163327e-04 4.275099e-04 -4.165439e-04 2.995895e-04 -5.839379e-04 2.611574e-04 5.735680e-04 -5.204920e-04 1.088754e-04 5.185387e-04 -6.471489e-04 -2.083874e-04 7.701652e-04 -8.342083e-04 4.367443e-05 7.695212e-04
<VARIANCE> 180
 1.327752e+00 1.524564e+00 4.588705e-01 2.051302e-01 2.137555e-01 8.019724e-02 8.966532e-02 6.298385e-02 6.736241e-02 5.660718e-02 3.399001e-02 3.210925e-02 2.572084e-02 2.856803e-02 2.220459e-02 3.271125e-02 2.264219e-02 2.515267e-02 2.268693e-02 1.781610e-02 1.472079e-02 1.661132e-02 1.282634e-02 1.475238e-02 1.530747e-02 1.140023e-02 1.338912e-02 9.882502e-03 9.446615e-03 8.748934e-03 8.193064e-03 7.158604e-03 7.292221e-03 7.465722e-03 7.166403e-03 6.826578e-03 6.188683e-03 6.472867e-03 5.864613e-03 5.419042e-03 5.385989e-03 5.249970e-03 4.410866e-03 4.623903e-03 4.080726e-03 4.052228e-03 4.013493e-03 3.630078e-03 3.568835e-03 3.873384e-03 3.423842e-03 3.604167e-03 3.248986e-03 3.128800e-03 2.931503e-03 2.685595e-03 2.708078e-03 2.993261e-03 2.807256e-03 2.482562e-03 2.089898e-02 2.304656e-02 9.776403e-03 6.543895e-03 5.623316e-03 3.869439e-03 4.234051e-03 3.610260e-03 3.932442e-03 3.507740e-03 2.882554e-03 2.743122e-03 2.671165e-03 2.702219e-03 2.901305e-03 2.800049e-03 2.832808e-03 2.453577e-03 2.545944e-03 2.414097e-03 2.245380e-03 2.194648e-03 2.118123e-03 2.045029e-03 2.080806e-03 1.821449e-03 1.861198e-03 1.735822e-03 1.724574e-03 1.619656e-03 1.580776e-03 1.437266e-03 1.423632e-03 1.325537e-03 1.394675e-03 1.275073e-03 1.186993e-03 1.179254e-03 1.083663e-03 1.005399e-03 9.468087e-04 9.451716e-04 8.578380e-04 9.033338e-04 8.290179e-04 8.097381e-04 8.038456e-04 6.880583e-04 7.272864e-04 6.913064e-04 6.533146e-04 6.347683e-04 6.258903e-04 5.982544e-04 5.987254e-04 5.568077e-04 5.498244e-04 4.854360e-04 4.806785e-04 4.911253e-04 1.149029e-02 1.339988e-02 1.037880e-02 8.871419e-03 7.991254e-03 7.151937e-03 7.154342e-03 7.278623e-03 7.363424e-03 7.635843e-03 6.750386e-03 6.561416e-03 6.303514e-03 6.100845e-03 6.900068e-03 6.321645e-03 6.763349e-03 6.381813e-03 6.443867e-03 6.234468e-03 6.067554e-03 5.904503e-03 5.763943e-03 5.453852e-03 5.274322e-03 5.122297e-03 4.915636e-03 4.786981e-03 4.767680e-03 4.480652e-03 4.206944e-03 4.076623e-03 3.848434e-03 3.661414e-03 3.596657e-03 3.633460e-03 3.254360e-03 3.139136e-03 3.028518e-03 2.833062e-03 2.596517e-03 2.652966e-03 2.455693e-03 2.475917e-03 2.427309e-03 2.294418e-03 2.325122e-03 2.038359e-03 2.093922e-03 1.990085e-03 1.912171e-03 1.808894e-03 1.755649e-03 1.722867e-03 1.650181e-03 1.597876e-03 1.546080e-03 1.389908e-03 1.382486e-03 1.357193e-03
<GCONST> -6.453118e+02
<STREAM> 2
<NUMMIXES> 2
<MIXTURE> 1 6.152467e-01
<MEAN> 1
 4.669738e+00
<VARIANCE> 1
 7.586817e-02
<GCONST> -7.408810e-01
<MIXTURE> 2 3.847514e-01
<MEAN> 0
<VARIANCE> 0
<GCONST> 0.000000e+00
<STREAM> 3
<NUMMIXES> 2
<MIXTURE> 1 5.855117e-01
<MEAN> 1
 -2.830430e-03
<VARIANCE> 1
 1.717227e-03
<GCONST> -4.529167e+00
<MIXTURE> 2 4.144856e-01
<MEAN> 0
<VARIANCE> 0
<GCONST> 0.000000e+00
<STREAM> 4
<NUMMIXES> 2
<MIXTURE> 1 5.847166e-01
<MEAN> 1
 7.459152e-04
<VARIANCE> 1
 5.311284e-03
<GCONST> -3.400045e+00
<MIXTURE> 2 4.152805e-01
<MEAN> 0
<VARIANCE> 0
<GCONST> 0.000000e+00
<STREAM> 5
<MEAN> 15
 -2.067232e+00 -1.759200e+00 -1.740520e+00 -1.703071e+00 -1.719250e+00 1.208819e-01 7.153030e-02 6.478301e-02 6.306267e-02 6.493534e-02 -5.746834e-02 1.848497e-03 1.307373e-02 -7.901354e-03 -6.204835e-03
<VARIANCE> 15
 5.098711e+00 2.594897e+00 2.357728e+00 2.292006e+00 2.298381e+00 4.928400e-01 3.086949e-01 2.875358e-01 2.852750e-01 2.812327e-01 2.749189e+00 1.872868e+00 1.924680e+00 1.870832e+00 1.819270e+00
<GCONST> 3.053612e+01
<TRANSP> 7
 0.000000e+00 1.000000e+00 0.000000e+00 0.000000e+00 0.000000e+00 0.000000e+00 0.000000e+00
 0.000000e+00 6.700148e-01 3.299852e-01 0.000000e+00 0.000000e+00 0.000000e+00 0.000000e+00
 0.000000e+00 0.000000e+00 2.724230e-01 7.275770e-01 0.000000e+00 0.000000e+00 0.000000e+00
 0.000000e+00 0.000000e+00 0.000000e+00 5.111400e-01 4.888600e-01 0.000000e+00 0.000000e+00
 0.000000e+00 0.000000e+00 0.000000e+00 0.000000e+00 9.004589e-01 9.954108e-02 0.000000e+00
 0.000000e+00 0.000000e+00 0.000000e+00 0.000000e+00 0.000000e+00 8.048208e-01 1.951792e-01
 0.000000e+00 0.000000e+00 0.000000e+00 0.000000e+00 0.000000e+00 0.000000e+00 0.000000e+00
<ENDHMM>
~h "E"
<BEGINHMM>
<NUMSTATES> 7
<STATE> 2
<SWEIGHTS> 5
 1.000000e+00 0.000000e+00 0.000000e+00 0.000000e+00 0.000000e+00
<STREAM> 1
<MEAN> 180
 4.485112e+00 1.441553e+00 -1.811729e-01 4.544940e-01 3.553565e-02 1.113186e-02 -6.489030e-02 1.643386e-02 -6.005636e-02 1.147834e-01 -7.139127e-02 8.315275e-02 -1.547786e-01 7.882827e-02 -1.794585e-01 6.289324e-02 -1.230179e-02 -6.947367e-02 1.093689e-02 5.731832e-02 -1.139008e-01 2.332570e-02 1.899386e-02 -7.965535e-03 2.349654e-02 1.555889e-03 -4.346531e-02 6.560012e-02 -4.429157e-02 5.557222e-02 -3.574020e-02 6.412835e-02 -4.924302e-02 4.838835e-02 -3.817229e-02 3.700010e-02 -4.450196e-02 4.309600e-02 -3.551984e-02 2.817668e-02 -4.101915e-02 5.533630e-02 -5.774381e-02 4.651080e-02 -3.145938e-02 1.945801e-02 -2.282079e-02 2.853931e-02 -3.354647e-02 4.029916e-02 -3.990974e-02 3.217040e-02 -1.974685e-02 1.307400e-02 -1.600732e-02 2.779418e-02 -3.636998e-02 3.817508e-02 -3.684738e-02 3.303495e-02 2.804844e-02 -2.986040e-02 -3.582172e-02 -1.920482e-02 -1.388051e-02 -2.085790e-03 -1.226943e-02 -1.592511e-03 1.111484e-02 7.279092e-03 1.851254e-03 2.056043e-03 3.418843e-03 -4.248930e-03 -4.150057e-03 3.512903e-03 -6.704351e-03 -8.188888e-03 -9.541963e-04 3.454513e-04 8.434518e-04 -5.365851e-03 -3.739404e-04 6.748656e-03 -1.760322e-03 -2.147919e-03 4.793532e-04 -6.355211e-04 2.306580e-03 1.118414e-05 -2.316647e-03 3.738078e-03 5.715333e-05 -1.671473e-03 9.371002e-04 3.328742e-03 -2.478540e-03 2.562091e-04 1.721234e-03 3.029298e-04 -9.790179e-04 6.434725e-04 -1.420990e-03 1.568497e-03 3.432545e-04 -1.755576e-03 1.062652e-03 4.576636e-04 2.812227e-04 9.611151e-04 -1.860982e-03 1.553909e-03 -1.390935e-03 4.200094e-04 4.156576e-04 -1.211684e-04 -1.149432e-04 2.714260e-05 -6.397599e-04 4.659512e-04 -1.373080e-02 4.430989e-03 9.707185e-03 3.881564e-03 7.591100e-03 1.194639e-03 7.664187e-03 1.512135e-03 -3.819221e-03 5.481919e-03 6.052449e-03 -1.010408e-03 -2.913266e-03 -5.693699e-03 2.769955e-03 5.857517e-03 6.303336e-03 1.577306e-03 -2.859645e-03 -6.392319e-03 2.103024e-03 7.066751e-04 -4.062094e-03 4.529557e-03 5.435818e-03 -5.232078e-03 -2.193205e-03 4.220985e-03 3.261144e-04 8.744928e-04 -2.226974e-03 -1.929719e-03 6.309649e-03 -9.824568e-05 -7.366488e-04 -4.492488e-04 -2.036866e-03 -1.802810e-03 -1.424761e-03 2.325843e-03 -7.140713e-04 -4.712972e-04 7.646927e-05 1.151070e-03 -2.288027e-03 1.832580e-03 2.760932e-03 -2.981790e-03 -6.257451e-04 -6.399478e-05 1.731277e-03 1.829315e-03 -5.717152e-03 3.306555e-03 3.570470e-04 -2.362541e-03 1.265545e-03 9.950018e-07 -2.760538e-04 -9.768922e-05
<VARIANCE> 180
 3.186810e+00 1.629053e+00 2.802097e-01 2.336444e-01 1.304609e-01 1.012061e-01 5.749987e-02 5.674025e-02 6.106092e-02 5.308143e-02 3.984468e-02 2.657935e-02 3.252093e-02 3.923731e-02 3.502654e-02 3.359806e-02 2.294618e-02 1.777181e-02 1.496790e-02 1.810699e-02 1.502463e-02 1.508561e-02 1.350681e-02 1.073380e-02 1.073361e-02 1.097858e-02 1.058478e-02 1.036731e-02 8.602752e-03 6.865173e-03 7.773295e-03 7.696314e-03 7.142282e-03 6.405874e-03 6.352008e-03 6.094128e-03 5.028220e-03 5.295944e-03 5.201689e-03 4.594685e-03 4.612672e-03 3.983814e-03 3.678481e-03 3.663988e-03 3.075160e-03 3.350385e-03 3.122993e-03 2.767772e-03 2.917703e-03 2.675308e-03 2.637348e-03 2.831171e-03 2.397170e-03 1.853637e-03 2.088160e-03 2.123591e-03 2.305025e-03 2.322374e-03 2.325314e-03 1.950644e-03 6.353168e-02 3.380178e-02 1.635734e-02 1.052664e-02 8.187274e-03 7.355226e-03 6.184252e-03 4.482742e-03 5.120494e-03 4.587044e-03 4.430819e-03 4.247241e-03 3.610405e-03 3.577543e-03 4.244560e-03 3.640037e-03 3.115480e-03 3.107257e-03 2.808919e-03 2.844815e-03 2.455922e-03 2.405978e-03 1.999249e-03 2.107964e-03 1.914608e-03 1.910359e-03 1.690390e-03 1.645537e-03 1.683437e-03 1.548132e-03 1.495002e-03 1.394918e-03 1.475629e-03 1.453533e-03 1.148974e-03 1.162718e-03 1.152658e-03 1.149684e-03 9.778278e-04 8.628321e-04 9.300872e-04 9.368666e-04 7.452054e-04 8.659040e-04 6.726037e-04 8.608648e-04 5.953246e-04 6.565400e-04 6.374720e-04 6.150802e-04 5.933126e-04 6.114876e-04 5.668954e-04 5.671600e-04 4.918476e-04 4.992269e-04 5.444901e-04 5.262343e-04 4.609853e-04 4.796570e-04 5.353318e-02 2.822224e-02 2.842242e-02 1.532170e-02 1.641121e-02 1.994557e-02 1.463295e-02 1.338009e-02 1.442291e-02 1.361868e-02 1.557263e-02 1.507617e-02 1.256819e-02 1.184142e-02 1.198433e-02 1.134575e-02 9.990494e-03 1.061184e-02 9.375099e-03 9.133216e-03 9.057864e-03 8.158251e-03 8.624070e-03 9.065815e-03 7.533051e-03 7.236568e-03 6.936219e-03 6.516692e-03 5.818000e-03 5.794578e-03 5.868789e-03 5.286637e-03 5.925450e-03 4.944745e-03 5.382933e-03 4.714498e-03 4.442066e-03 4.248817e-03 4.009531e-03 3.601549e-03 4.068245e-03 4.329970e-03 3.467166e-03 3.822133e-03 3.387667e-03 3.125297e-03 2.915506e-03 2.532623e-03 2.776059e-03 2.966067e-03 2.632503e-03 2.291380e-03 2.230673e-03 2.263493e-03 1.980251e-03 2.058506e-03 2.274462e-03 1.875775e-03 1.868874e-03 1.931596e-03
<GCONST> -6.209432e+02
<STREAM> 2
<NUMMIXES> 2
<MIXTURE> 1 5.169638e-01
<MEAN> 1
 5.112935e+00
<VARIANCE> 1
 8.383887e-02
<GCONST> -6.409817e-01
<MIXTURE> 2 4.830359e-01
<MEAN> 0
<VARIANCE> 0
<GCONST> 0.000000e+00
<STREAM> 3
<NUMMIXES> 2
<MIXTURE> 1 4.866475e-01
<MEAN> 1
 -9.116700e-03
<VARIANCE> 1
 8.895430e-04
<GCONST> -5.186926e+00
<MIXTURE> 2 5.133522e-01
<MEAN> 0
<VARIANCE> 0
<GCONST> 0.000000e+00
<STREAM> 4
<NUMMIXES> 2
<MIXTURE> 1 4.866475e-01
<MEAN> 1
 6.800706e-03
<VARIANCE> 1
 3.817023e-03
<GCONST> -3.730407e+00
<MIXTURE> 2 5.133522e-01
<MEAN> 0
<VARIANCE> 0
<GCONST> 0.000000e+00
<STREAM> 5
<MEAN> 15
 -2.514835e+00 -1.639394e+00 -1.559029e+00 -1.555166e+00 -1.586609e+00 -5.860774e-02 1.876548e-02 3.639660e-02 5.012018e-02 3.254174e-02 -6.664404e-02 1.461309e-02 -8.686350e-02 -9.175786e-02 -5.290452e-03
<VARIANCE> 15
 1.179972e+01 3.777600e+00 2.879768e+00 2.964545e+00 3.003414e+00 1.101860e+00 5.472409e-01 4.674217e-01 5.117197e-01 4.642966e-01 5.940732e+00 3.972710e+00 3.991610e+00 3.484791e+00 3.393204e+00
<GCONST> 3.892156e+01
<STATE> 3
<SWEIGHTS> 5
 1.000000e+00 0.000000e+00 0.000000e+00 0.000000e+00 0.000000e+00
<STREAM> 1
<MEAN> 180
 4.606464e+00 1.290721e+00 -4.980909e-01 3.078422e-01 -4.890064e-02 2.502405e-02 -1.076903e-01 -3.069221e-02 1.500080e-02 1.874039e-01 -4.988766e-02 8.036326e-02 -1.193510e-01 8.137125e-02 -2.012867e-01 7.806624e-02 -3.330275e-02 -6.514979e-02 7.501994e-03 3.237562e-02 -6.704956e-02 6.368186e-03 2.352827e-03 2.112868e-02 9.784197e-03 1.432950e-03 -4.036460e-02 6.058310e-02 -4.229359e-02 6.368455e-02 -5.079721e-02 6.540913e-02 -3.461684e-02 4.679647e-02 -4.261202e-02 3.241677e-02 -3.663768e-02 3.522361e-02 -3.970924e-02 4.018082e-02 -5.027743e-02 5.503128e-02 -6.080476e-02 5.065635e-02 -3.463050e-02 1.814221e-02 -1.359454e-02 2.053379e-02 -2.746802e-02 3.573195e-02 -3.923762e-02 3.645711e-02 -2.806401e-02 2.050438e-02 -1.829777e-02 2.286712e-02 -2.792725e-02 3.307037e-02 -3.787963e-02 3.885329e-02 -1.371658e-02 -1.114718e-02 -4.930207e-03 -1.435469e-02 -9.956883e-04 4.144991e-03 3.429937e-03 2.451143e-03 4.080449e-03 6.188442e-03 7.433946e-04 -1.062055e-03 -4.370455e-04 2.217155e-03 2.389929e-03 1.865840e-03 3.952675e-03 2.909673e-03 -3.075009e-04 -2.990798e-03 2.190412e-03 -3.783775e-04 -2.715408e-03 4.038208e-03 8.511959e-04 -1.481971e-03 1.277603e-04 -8.128106e-04 1.211236e-03 -5.048129e-05 -3.066794e-03 -2.822341e-03 1.173061e-03 2.067867e-03 -1.502799e-03 3.996050e-04 -3.736991e-04 -7.853817e-04 4.010897e-04 1.093712e-03 -1.453378e-03 4.854939e-04 -6.288046e-04 7.305197e-04 -1.718967e-03 1.816719e-03 7.587626e-04 -2.307357e-03 1.496058e-03 -1.327088e-03 1.414936e-03 1.123006e-04 -2.115661e-03 1.760707e-03 6.815295e-05 -8.902453e-04 3.620753e-04 5.250188e-05 2.659613e-04 -7.837573e-04 -2.028983e-02 -7.489556e-04 1.290974e-02 7.525888e-03 1.007914e-02 4.635262e-03 8.571710e-03 5.613855e-03 -3.381246e-03 -4.095003e-03 -3.246157e-03 -2.308907e-03 -3.379658e-03 2.797456e-03 1.674524e-04 -1.899908e-03 3.787513e-03 7.656518e-03 3.405068e-04 -3.778358e-03 8.577240e-04 1.776585e-03 -1.406022e-04 -3.830867e-03 -2.585058e-03 4.185207e-03 1.655958e-03 -1.731472e-03 -5.207717e-04 7.257349e-04 1.825705e-03 -5.401758e-03 -1.139166e-03 2.701171e-03 -1.138125e-03 -8.524307e-04 1.008890e-03 -9.662186e-05 -2.089115e-03 -6.926521e-04 9.045159e-04 2.674977e-04 1.425319e-03 -1.615169e-03 -1.455173e-03 3.304028e-03 -1.371798e-03 -2.124730e-03 2.604097e-03 -1.947893e-03 8.208428e-04 -1.163432e-03 1.503027e-03 -3.147359e-04 4.843436e-05 1.364721e-04 5.092054e-04 -4.834510e-04 8.122888e-04 -1.082465e-03
<VARIANCE> 180
 3.235637e+00 1.724703e+00 3.568930e-01 1.485409e-01 1.398423e-01 6.820357e-02 6.196904e-02 5.515752e-02 6.649836e-02 5.435245e-02 4.223915e-02 2.858666e-02 3.751472e-02 3.893825e-02 3.490243e-02 2.745242e-02 2.623419e-02 1.475285e-02 1.577756e-02 2.084400e-02 1.651318e-02 1.800217e-02 1.117906e-02 1.038098e-02 1.148397e-02 9.125805e-03 9.300862e-03 9.157613e-03 9.068663e-03 7.419598e-03 7.469655e-03 7.795513e-03 8.016659e-03 6.895571e-03 5.603325e-03 6.102584e-03 6.288761e-03 4.943638e-03 5.482407e-03 3.768700e-03 4.175483e-03 4.277324e-03 3.681877e-03 3.097711e-03 2.900792e-03 3.536136e-03 3.157876e-03 2.964576e-03 3.051941e-03 2.837724e-03 2.464661e-03 2.564426e-03 2.391629e-03 2.002467e-03 1.990291e-03 1.982619e-03 2.203262e-03 2.184266e-03 2.244263e-03 2.274631e-03 2.576668e-02 1.718215e-02 8.405775e-03 6.137398e-03 5.148851e-03 4.150840e-03 3.926185e-03 3.743707e-03 3.634039e-03 3.251591e-03 3.229606e-03 3.211527e-03 3.009251e-03 3.075646e-03 2.964686e-03 3.487515e-03 2.650447e-03 2.554214e-03 2.212470e-03 2.492537e-03 2.369787e-03 2.003279e-03 2.256347e-03 2.128448e-03 2.136224e-03 1.908428e-03 1.750339e-03 1.758186e-03 1.753599e-03 1.503342e-03 1.474729e-03 1.387865e-03 1.229316e-03 1.285372e-03 1.206330e-03 1.141137e-03 1.101634e-03 1.024226e-03 8.499380e-04 8.981860e-04 9.454417e-04 9.987865e-04 7.831109e-04 8.829524e-04 7.784555e-04 7.528793e-04 6.709038e-04 6.465638e-04 7.019216e-04 5.889154e-04 6.214037e-04 6.172584e-04 5.391375e-04 5.508689e-04 4.731100e-04 5.126985e-04 4.701627e-04 4.398760e-04 5.212728e-04 4.717124e-04 1.564203e-02 1.355896e-02 1.219910e-02 1.072800e-02 9.157238e-03 1.001894e-02 1.016145e-02 9.599458e-03 8.945682e-03 8.596661e-03 9.056891e-03 8.281937e-03 7.950789e-03 8.801275e-03 7.788142e-03 9.029692e-03 8.089237e-03 7.512506e-03 7.373483e-03 7.580871e-03 7.603842e-03 6.714500e-03 7.134273e-03 6.080112e-03 6.198848e-03 6.045857e-03 4.623908e-03 4.827642e-03 4.929197e-03 5.141099e-03 4.937137e-03 4.824455e-03 3.850636e-03 4.350655e-03 3.640049e-03 3.712096e-03 3.751080e-03 3.415621e-03 2.913177e-03 2.878583e-03 3.252899e-03 2.839343e-03 2.645622e-03 2.818123e-03 2.723026e-03 2.802701e-03 2.341083e-03 2.223779e-03 2.535924e-03 2.017509e-03 1.975975e-03 1.912010e-03 1.822242e-03 1.657966e-03 1.806336e-03 1.839103e-03 1.714963e-03 1.583259e-03 1.653077e-03 1.678331e-03
<GCONST> -6.475607e+02
<STREAM> 2
<NUMMIXES> 2
<MIXTURE> 1 4.252356e-01
<MEAN> 1
 5.039033e+00
<VARIANCE> 1
 1.023234e-01
<GCONST> -4.417403e-01
<MIXTURE> 2 5.747651e-01
<MEAN> 0
<VARIANCE> 0
<GCONST> 0.000000e+00
<STREAM> 3
<NUMMIXES> 2
<MIXTURE> 1 4.117771e-01
<MEAN> 1
 -3.828512e-03
<VARIANCE> 1
 6.196686e-04
<GCONST> -5.548449e+00
<MIXTURE> 2 5.882234e-01
<MEAN> 0
<VARIANCE> 0
<GCONST> 0.000000e+00
<STREAM> 4
<NUMMIXES> 2
<MIXTURE> 1 4.117771e-01
<MEAN> 1
 3.924994e-03
<VARIANCE> 1
 2.076123e-03
<GCONST> -4.339375e+00
<MIXTURE> 2 5.882234e-01
<MEAN> 0
<VARIANCE> 0
<GCONST> 0.000000e+00
<STREAM> 5
<MEAN> 15
 -2.830596e+00 -1.529357e+00 -1.395353e+00 -1.385222e+00 -1.278269e+00 -1.844328e-02 9.791265e-03 -4.038895e-03 -2.854634e-02 -1.698139e-03 1.096896e-01 5.370554e-03 4.481408e-02 -2.888850e-02 -4.231434e-02
<VARIANCE> 15
 1.916902e+01 4.674381e+00 3.369966e+00 3.323989e+00 2.756283e+00 1.321682e+00 4.787336e-01 3.575059e-01 4.028763e-01 3.042339e-01 6.168105e+00 2.877759e+00 2.781110e+00 2.525724e+00 2.398367e+00
<GCONST> 3.760867e+01
<STATE> 4
<SWEIGHTS> 5
 1.000000e+00 0.000000e+00 0.000000e+00 0.000000e+00 0.000000e+00
<STREAM> 1
<MEAN> 180
 4.841609e+00 1.795841e+00 -2.383007e-01 3.194862e-01 2.407346e-02 5.144325e-02 -1.818409e-02 -2.400154e-02 4.813578e-02 1.860978e-01 -9.156340e-02 7.953300e-02 -1.883620e-01 1.233707e-01 -1.504295e-01 2.024905e-02 3.960744e-02 -4.584846e-02 8.973017e-03 4.570739e-02 -9.647903e-02 4.225641e-02 -3.011249e-02 2.846255e-02 1.684439e-03 -3.371757e-03 -2.032271e-02 3.308597e-02 -1.761672e-02 4.178707e-02 -6.052022e-02 7.848864e-02 -7.752772e-02 8.729368e-02 -7.486371e-02 5.084604e-02 -3.809480e-02 2.333253e-02 -2.211094e-02 2.614266e-02 -4.344122e-02 5.867894e-02 -6.695388e-02 5.563879e-02 -3.756605e-02 1.925876e-02 -1.213305e-02 1.071286e-02 -1.646837e-02 2.758012e-02 -3.316338e-02 3.426508e-02 -2.974799e-02 2.483493e-02 -2.182029e-02 2.411555e-02 -2.946501e-02 3.584894e-02 -3.902394e-02 3.448586e-02 -4.338439e-02 -1.204447e-02 1.260856e-02 4.853591e-03 1.726405e-02 8.260610e-03 6.928406e-03 7.621497e-03 -4.354347e-04 -3.078488e-03 -6.681965e-03 -2.708256e-03 4.128630e-03 -4.106134e-04 -6.993579e-04 5.237418e-04 1.471003e-03 3.787540e-03 3.595822e-04 -4.479998e-03 -3.277411e-04 1.484655e-03 -2.151194e-03 4.151109e-04 -1.186405e-04 2.854374e-03 -8.286827e-04 -1.550106e-04 2.510645e-03 -6.438937e-04 -7.955714e-04 -3.487562e-03 1.207322e-03 9.974203e-06 -4.819720e-04 1.551963e-03 2.339731e-04 -1.802896e-03 -1.445151e-03 -6.459070e-04 8.493183e-04 7.538724e-04 -6.010698e-04 9.518999e-04 -2.442102e-03 2.427817e-03 -4.222266e-04 -1.616051e-03 1.959257e-03 -1.163135e-03 -3.602020e-04 9.277941e-04 -3.224045e-04 -4.781907e-04 8.655400e-04 -6.311408e-04 1.587164e-04 3.495879e-04 5.856525e-04 -1.326673e-03 -2.219123e-02 7.185818e-03 1.099203e-02 7.332512e-03 3.781026e-03 -7.452964e-04 -2.368721e-03 2.366449e-03 3.588396e-03 -5.216428e-03 -2.402139e-03 -3.648875e-05 7.855415e-03 7.084070e-04 -6.178115e-03 -7.099614e-04 -4.637454e-03 -5.248626e-03 2.908080e-04 3.451864e-03 -2.711792e-03 1.331761e-03 1.971503e-03 -4.238033e-03 3.126827e-03 4.881906e-03 -2.563200e-03 3.185190e-03 -2.380677e-03 -3.753689e-03 1.074443e-03 4.173820e-03 -1.955190e-05 -6.282130e-03 2.292378e-03 4.004090e-04 -5.471308e-04 1.089083e-03 2.296385e-03 -2.151458e-03 2.707068e-03 1.961380e-04 -3.503263e-03 2.004426e-03 2.855327e-03 -3.909281e-03 -5.819420e-04 3.897578e-03 -2.768922e-03 1.694300e-03 -1.740749e-03 4.668721e-04 3.949930e-03 -4.907970e-03 -1.087772e-04 3.125018e-03 -2.917472e-03 9.429987e-04 6.745466e-04 3.746413e-04
<VARIANCE> 180
 4.131905e+00 1.557969e+00 2.408350e-01 1.413015e-01 1.003560e-01 8.452710e-02 4.829126e-02 4.928924e-02 6.072215e-02 5.459291e-02 4.602434e-02 2.674066e-02 3.308640e-02 3.591073e-02 3.924415e-02 3.635805e-02 3.017923e-02 1.954866e-02 1.405836e-02 2.008966e-02 1.656144e-02 1.538593e-02 1.187066e-02 1.154696e-02 1.137035e-02 9.841757e-03 1.187545e-02 9.214744e-03 8.030697e-03 7.214589e-03 8.068133e-03 8.916775e-03 1.085984e-02 1.033393e-02 9.082761e-03 8.358294e-03 6.599050e-03 5.044292e-03 5.028093e-03 3.750711e-03 4.035615e-03 4.014025e-03 3.325861e-03 3.132072e-03 2.818773e-03 3.057536e-03 2.733233e-03 2.822121e-03 2.636307e-03 2.623177e-03 2.476155e-03 2.463965e-03 2.403073e-03 2.072979e-03 1.989506e-03 1.981084e-03 2.098906e-03 2.279637e-03 2.287062e-03 2.340152e-03 2.816660e-02 2.077377e-02 1.014214e-02 6.466534e-03 5.506459e-03 4.758577e-03 3.890512e-03 3.754173e-03 3.834778e-03 3.317937e-03 3.384385e-03 3.075467e-03 2.637108e-03 2.812713e-03 2.775384e-03 3.024647e-03 2.511420e-03 2.163856e-03 2.225415e-03 2.129935e-03 2.564005e-03 1.941943e-03 2.194148e-03 1.969635e-03 1.871252e-03 1.751803e-03 1.850595e-03 1.386163e-03 1.664547e-03 1.628642e-03 1.409532e-03 1.299618e-03 1.118601e-03 1.258236e-03 1.112799e-03 9.725756e-04 9.862024e-04 9.666342e-04 9.171615e-04 8.308486e-04 8.530758e-04 7.970377e-04 7.829635e-04 7.746936e-04 7.160960e-04 7.048545e-04 6.189179e-04 6.847215e-04 6.883157e-04 5.970720e-04 4.972881e-04 5.514541e-04 5.332862e-04 4.992211e-04 4.540726e-04 4.707818e-04 4.873734e-04 4.549388e-04 4.637954e-04 4.436958e-04 2.264600e-02 1.458698e-02 1.561865e-02 1.239715e-02 1.322114e-02 1.233291e-02 1.129338e-02 1.168998e-02 1.040013e-02 1.116878e-02 1.062742e-02 1.045470e-02 9.525597e-03 9.319796e-03 1.005337e-02 1.099621e-02 9.548459e-03 8.035867e-03 7.700931e-03 7.934120e-03 8.647274e-03 8.214168e-03 8.291840e-03 7.182612e-03 7.238270e-03 6.310821e-03 7.402758e-03 6.484849e-03 6.441491e-03 5.932481e-03 5.776478e-03 6.126165e-03 4.940971e-03 5.077928e-03 4.404351e-03 4.491534e-03 4.468804e-03 3.955088e-03 3.357681e-03 3.649563e-03 3.758039e-03 3.589453e-03 3.319386e-03 3.544868e-03 3.406244e-03 3.053780e-03 2.836628e-03 3.005355e-03 3.307764e-03 2.928826e-03 2.638205e-03 2.434066e-03 2.434905e-03 2.181672e-03 1.927719e-03 2.023959e-03 2.141532e-03 1.884740e-03 1.857814e-03 1.906224e-03
<GCONST> -6.375961e+02
<STREAM> 2
<NUMMIXES> 2
<MIXTURE> 1 6.224734e-01
<MEAN> 1
 5.158284e+00
<VARIANCE> 1
 7.860235e-02
<GCONST> -7.054765e-01
<MIXTURE> 2 3.775264e-01
<MEAN> 0
<VARIANCE> 0
<GCONST> 0.000000e+00
<STREAM> 3
<NUMMIXES> 2
<MIXTURE> 1 5.981612e-01
<MEAN> 1
 -5.231951e-03
<VARIANCE> 1
 6.033521e-04
<GCONST> -5.575132e+00
<MIXTURE> 2 4.018385e-01
<MEAN> 0
<VARIANCE> 0
<GCONST> 0.000000e+00
<STREAM> 4
<NUMMIXES> 2
<MIXTURE> 1 5.979767e-01
<MEAN> 1
 9.069089e-04
<VARIANCE> 1
 2.259844e-03
<GCONST> -4.254582e+00
<MIXTURE> 2 4.020230e-01
<MEAN> 0
<VARIANCE> 0
<GCONST> 0.000000e+00
<STREAM> 5
<MEAN> 15
 -3.748664e+00 -2.024020e+00 -1.888110e+00 -2.046624e+00 -1.961584e+00 2.114209e-01 6.395547e-02 5.471158e-02 4.478105e-02 -2.297074e-03 4.024863e-02 4.148987e-02 -3.047573e-03 1.418125e-01 3.942363e-02
<VARIANCE> 15
 1.929961e+01 4.180997e+00 3.464605e+00 3.805322e+00 3.302198e+00 1.639680e+00 6.197671e-01 5.965343e-01 5.216275e-01 5.275408e-01 9.211493e+00 4.374223e+00 4.923863e+00 4.747992e+00 4.659248e+00
<GCONST> 4.232836e+01
<STATE> 5
<SWEIGHTS> 5
 1.000000e+00 0.000000e+00 0.000000e+00 0.000000e+00 0.000000e+00
<STREAM> 1
<MEAN> 180
 3.930381e+00 1.230736e+00 -1.210933e-01 3.396813e-01 6.512166e-02 1.178869e-01 -1.311846e-02 2.391476e-02 -3.615849e-02 1.102278e-01 -7.922221e-02 7.550230e-02 -1.339680e-01 7.330576e-02 -1.435810e-01 6.477248e-02 -4.491014e-03 -3.850107e-02 1.331815e-03 2.357797e-02 -8.338972e-02 2.685273e-02 -4.441264e-03 8.243870e-03 1.447639e-02 1.372902e-02 -5.094005e-02 5.178021e-02 -2.045493e-02 4.360026e-02 -4.634276e-02 5.507433e-02 -3.958337e-02 5.285383e-02 -4.167367e-02 4.073272e-02 -4.463670e-02 3.009856e-02 -3.512767e-02 2.637995e-02 -4.228820e-02 5.700430e-02 -5.937627e-02 5.049089e-02 -3.945981e-02 2.584521e-02 -2.158546e-02 1.909936e-02 -1.923099e-02 2.816970e-02 -3.622153e-02 3.779548e-02 -2.784074e-02 1.843390e-02 -1.801958e-02 2.683191e-02 -3.341630e-02 3.602836e-02 -3.572672e-02 3.125088e-02 -1.019004e-01 1.437965e-02 4.150563e-02 2.086671e-02 2.644452e-02 5.852205e-03 1.073500e-02 1.177924e-02 8.555711e-05 -7.282966e-03 1.367711e-03 -5.289463e-03 4.967474e-03 -1.191207e-03 -6.670568e-04 7.745925e-04 -2.805079e-03 -3.889760e-03 -3.944661e-04 2.223338e-03 4.762546e-03 1.419602e-03 5.492475e-05 -1.988228e-03 3.486438e-04 1.958885e-03 -9.353610e-04 1.764956e-03 6.562261e-04 -4.521681e-03 1.458212e-03 -2.644932e-03 3.343707e-04 -3.115974e-03 9.897079e-04 1.146050e-04 -1.003675e-03 6.241200e-04 1.606163e-04 -1.796986e-03 4.106862e-03 -1.646858e-03 5.311433e-04 2.513115e-04 -1.092168e-04 -9.387702e-04 9.778864e-04 4.530602e-04 -1.182634e-03 2.357999e-04 7.567090e-04 -2.411470e-03 4.195755e-03 -2.894911e-03 -1.201413e-03 1.965318e-03 -3.610932e-04 -2.924744e-04 1.193902e-03 -1.771301e-03 1.944617e-02 2.515398e-02 6.774874e-03 6.959261e-03 -7.876942e-03 4.428857e-03 3.816812e-03 -5.300886e-03 -1.004614e-02 -2.020968e-03 3.248399e-03 -7.148889e-03 -6.683865e-03 -4.523709e-03 4.709259e-03 5.837657e-03 -2.442840e-04 -6.807391e-03 -2.925216e-03 6.620341e-03 7.109556e-03 -1.162855e-03 -1.212070e-03 1.066831e-03 -4.011645e-03 -4.689410e-03 2.678292e-03 -1.919418e-03 1.642167e-03 -2.452754e-03 4.310756e-03 1.111608e-03 1.187986e-03 3.045450e-03 -1.761108e-03 -9.468056e-04 -7.704629e-05 2.375397e-03 -1.433248e-03 3.283464e-03 -4.964884e-04 -4.822261e-03 5.241614e-03 -2.101047e-03 -1.019467e-03 -6.784646e-04 3.246776e-03 3.929228e-04 -6.160603e-03 3.539855e-03 3.906261e-03 -5.634695e-03 1.221270e-03 2.617660e-03 -2.622705e-03 7.373135e-05 1.403453e-03 -1.837722e-03 1.165757e-03 -9.531865e-04
<VARIANCE> 180
 3.742627e+00 1.460213e+00 2.513999e-01 1.453167e-01 1.141138e-01 7.234555e-02 5.013504e-02 5.001291e-02 5.874999e-02 5.142826e-02 3.957763e-02 2.867818e-02 3.197095e-02 3.668237e-02 3.487968e-02 3.011818e-02 2.416135e-02 1.709551e-02 1.340384e-02 1.904266e-02 1.483180e-02 1.564604e-02 1.215381e-02 9.091928e-03 1.067744e-02 1.029951e-02 9.319323e-03 7.647436e-03 8.599967e-03 7.132566e-03 7.998765e-03 7.725779e-03 7.765511e-03 6.932105e-03 6.230196e-03 5.672815e-03 5.052046e-03 5.209531e-03 5.372994e-03 3.515970e-03 3.713720e-03 3.945390e-03 4.053165e-03 3.386516e-03 3.023220e-03 2.871574e-03 2.540259e-03 2.846433e-03 2.377310e-03 2.408411e-03 2.389881e-03 2.388241e-03 2.342470e-03 2.023134e-03 1.873688e-03 2.192856e-03 2.340137e-03 2.442367e-03 2.402317e-03 1.974767e-03 8.837910e-02 4.149638e-02 1.863868e-02 1.147887e-02 9.986389e-03 7.106709e-03 6.161333e-03 5.301618e-03 5.629372e-03 5.226277e-03 4.833566e-03 4.141638e-03 3.854329e-03 3.590921e-03 4.083362e-03 4.014168e-03 3.550255e-03 3.045314e-03 3.203267e-03 3.113832e-03 3.045440e-03 2.576276e-03 2.714578e-03 2.221751e-03 2.410267e-03 2.311728e-03 2.410693e-03 2.202446e-03 1.912085e-03 1.561331e-03 1.571508e-03 1.710596e-03 1.560137e-03 1.565756e-03 1.205334e-03 1.304075e-03 1.396815e-03 1.290489e-03 1.286312e-03 1.185308e-03 1.014030e-03 9.650134e-04 9.135983e-04 1.066823e-03 9.617876e-04 8.753447e-04 7.851521e-04 8.570966e-04 7.099919e-04 7.040952e-04 6.899646e-04 5.962598e-04 5.951237e-04 6.319391e-04 5.411438e-04 5.038608e-04 5.977936e-04 5.041953e-04 4.963478e-04 4.672536e-04 5.135383e-02 3.579213e-02 2.273219e-02 1.639408e-02 1.842558e-02 1.627558e-02 1.532419e-02 1.319320e-02 1.607034e-02 1.443996e-02 1.338257e-02 1.402752e-02 1.391881e-02 1.333778e-02 1.172219e-02 1.246564e-02 1.302702e-02 1.099785e-02 1.122034e-02 1.090901e-02 1.046008e-02 9.044433e-03 9.451397e-03 8.841175e-03 8.744274e-03 8.746925e-03 7.705074e-03 6.980840e-03 7.312092e-03 7.470457e-03 6.102030e-03 6.723686e-03 6.031909e-03 5.519790e-03 5.420959e-03 5.555587e-03 5.119201e-03 4.605989e-03 4.393429e-03 3.658769e-03 3.688988e-03 3.366364e-03 3.533035e-03 3.498259e-03 3.475384e-03 3.082902e-03 2.736476e-03 2.878780e-03 2.464791e-03 2.613962e-03 2.674003e-03 2.443449e-03 2.135964e-03 2.246736e-03 1.834486e-03 2.017415e-03 2.170743e-03 2.034095e-03 2.207418e-03 1.707072e-03
<GCONST> -6.145336e+02
<STREAM> 2
<NUMMIXES> 2
<MIXTURE> 1 4.158419e-01
<MEAN> 1
 5.072109e+00
<VARIANCE> 1
 9.941561e-02
<GCONST> -4.705691e-01
<MIXTURE> 2 5.841579e-01
<MEAN> 0
<VARIANCE> 0
<GCONST> 0.000000e+00
<STREAM> 3
<NUMMIXES> 2
<MIXTURE> 1 3.760932e-01
<MEAN> 1
 1.089420e-03
<VARIANCE> 1
 1.508653e-03
<GCONST> -4.658661e+00
<MIXTURE> 2 6.239064e-01
<MEAN> 0
<VARIANCE> 0
<GCONST> 0.000000e+00
<STREAM> 4
<NUMMIXES> 2
<MIXTURE> 1 3.740658e-01
<MEAN> 1
 -1.314130e-03
<VARIANCE> 1
 5.058174e-03
<GCONST> -3.448873e+00
<MIXTURE> 2 6.259339e-01
<MEAN> 0
<VARIANCE> 0
<GCONST> 0.000000e+00
<STREAM> 5
<MEAN> 15
 -1.750464e+00 -1.194445e+00 -1.155203e+00 -1.191689e+00 -1.244491e+00 6.294103e-02 -1.359211e-02 -4.012140e-02 1.361555e-02 -5.254044e-02 -1.191815e-01 -1.719681e-01 -1.292378e-01 -1.796413e-01 -9.615596e-02
<VARIANCE> 15
 7.746663e+00 2.579028e+00 2.302578e+00 2.574890e+00 2.726693e+00 1.218407e+00 6.419484e-01 4.067973e-01 3.941707e-01 4.121785e-01 4.840394e+00 3.073106e+00 2.563079e+00 3.097413e+00 3.272652e+00
<GCONST> 3.634040e+01
<STATE> 6
<SWEIGHTS> 5
 1.000000e+00 0.000000e+00 0.000000e+00 0.000000e+00 0.000000e+00
<STREAM> 1
<MEAN> 180
 5.152831e+00 1.903125e+00 -2.842054e-01 5.113118e-01 5.959097e-02 7.289906e-03 -1.335722e-02 -1.619908e-02 7.631721e-02 2.401010e-01 -1.312660e-01 2.210237e-02 -1.404325e-01 1.182915e-01 -2.619812e-01 4.299395e-02 3.214751e-02 -1.005140e-01 9.201013e-03 9.346328e-02 -8.956511e-02 2.449693e-02 -2.112793e-02 2.614368e-02 1.930585e-02 -1.572943e-02 -2.679388e-02 5.498347e-02 -3.264634e-02 4.179512e-02 -5.264692e-02 7.753924e-02 -7.296393e-02 7.577091e-02 -6.379946e-02 4.497337e-02 -3.210082e-02 2.236622e-02 -2.346662e-02 3.019003e-02 -5.236451e-02 7.550077e-02 -8.497203e-02 7.225323e-02 -4.874770e-02 2.309101e-02 -9.228102e-03 7.146011e-03 -1.480088e-02 2.300769e-02 -2.655449e-02 2.306469e-02 -1.520283e-02 1.408488e-02 -2.143780e-02 3.138485e-02 -3.537366e-02 3.265138e-02 -2.674012e-02 2.234701e-02 -8.712727e-03 5.778730e-03 1.022036e-02 7.927802e-03 2.238538e-03 2.778632e-03 9.745097e-04 -1.654176e-03 -4.546759e-03 -3.638342e-03 4.233332e-03 2.325595e-03 3.576936e-03 -9.207583e-04 2.744405e-03 8.022437e-04 -2.744625e-03 9.866080e-04 -1.480382e-03 -1.704805e-03 8.114761e-04 -1.493718e-03 3.760389e-04 -1.520930e-04 -4.290483e-04 2.839483e-04 -1.172347e-04 1.296656e-03 -2.008872e-03 -5.422552e-04 2.066226e-03 2.805415e-04 5.079363e-04 -1.797267e-03 2.078175e-03 -2.184639e-03 8.889672e-04 8.745488e-04 -1.624900e-03 1.078876e-03 5.839957e-05 -7.954828e-04 1.334620e-03 -1.340554e-03 6.615277e-04 4.299720e-04 -1.498798e-03 1.951807e-03 -1.393200e-03 5.971364e-06 8.262047e-04 -8.295584e-04 4.521042e-04 2.517302e-04 -8.113995e-04 5.441839e-04 6.230830e-05 -3.901949e-04 1.734038e-04 2.503029e-04 2.382308e-03 -4.105403e-03 -6.210754e-03 -2.123313e-04 -2.692216e-03 -2.676049e-03 -1.032888e-03 -2.463911e-04 -9.071897e-04 -1.461703e-03 1.232072e-03 6.540970e-04 1.197187e-03 5.626922e-04 1.180831e-03 -1.040291e-03 6.801969e-04 2.352198e-03 -1.018240e-03 -1.722013e-03 -6.277601e-04 -6.237054e-04 1.272317e-03 -6.349524e-04 -3.964828e-04 7.154365e-04 -8.238412e-04 -4.644383e-04 -9.099409e-04 1.424919e-03 5.418895e-04 -1.320529e-04 -1.656818e-04 -1.355619e-03 1.032392e-03 4.216151e-04 -7.514461e-05 2.070694e-04 6.137491e-05 -2.367482e-05 -5.657626e-04 6.415891e-04 2.066594e-04 -1.304859e-03 1.040177e-03 4.158569e-04 -1.708093e-03 1.222770e-03 6.607433e-04 -9.883790e-04 1.764364e-04 4.560147e-04 -1.021228e-03 8.822910e-04 3.296634e-04 -9.446678e-04 6.794467e-04 -9.333933e-05 -7.429715e-04 1.075887e-03
<VARIANCE> 180
 2.352490e+00 9.046668e-01 3.810260e-01 1.407905e-01 7.900008e-02 6.368084e-02 4.687576e-02 4.649153e-02 4.934336e-02 4.437464e-02 4.276061e-02 2.804621e-02 2.465132e-02 2.484620e-02 2.509907e-02 2.506022e-02 2.321448e-02 2.307091e-02 1.350249e-02 1.666836e-02 1.284410e-02 1.473289e-02 1.216131e-02 1.152395e-02 8.503688e-03 8.067596e-03 7.949508e-03 9.327766e-03 7.949632e-03 7.012904e-03 7.682674e-03 7.230919e-03 8.386021e-03 8.006410e-03 6.601652e-03 5.651334e-03 4.639402e-03 4.357830e-03 3.807757e-03 3.279328e-03 3.325246e-03 3.726742e-03 3.706555e-03 3.567499e-03 2.986814e-03 3.236487e-03 3.091865e-03 3.194004e-03 3.015688e-03 2.925316e-03 2.676985e-03 2.522221e-03 2.127968e-03 1.942782e-03 1.995351e-03 2.192208e-03 2.133408e-03 2.036765e-03 1.871011e-03 1.769230e-03 1.149193e-01 5.450396e-02 2.712345e-02 1.222886e-02 1.043652e-02 8.308563e-03 6.314985e-03 5.706364e-03 5.929160e-03 5.809352e-03 4.778026e-03 4.340637e-03 4.349539e-03 4.204923e-03 4.009826e-03 3.574044e-03 3.839360e-03 3.131896e-03 2.756362e-03 2.821588e-03 2.714748e-03 2.902093e-03 2.345928e-03 2.294186e-03 2.051872e-03 1.962601e-03 1.732023e-03 1.740623e-03 1.538862e-03 1.630616e-03 1.391745e-03 1.350809e-03 1.356650e-03 1.350042e-03 1.251360e-03 1.162188e-03 1.090191e-03 1.025768e-03 9.612305e-04 9.129738e-04 8.057774e-04 8.989596e-04 8.399409e-04 8.291585e-04 7.589060e-04 7.351991e-04 7.023353e-04 7.754941e-04 6.540075e-04 6.226279e-04 6.327530e-04 5.502350e-04 5.212589e-04 5.183856e-04 4.738521e-04 5.428590e-04 5.378539e-04 5.156598e-04 4.880900e-04 4.416147e-04 1.031312e-01 5.794580e-02 5.207879e-02 3.024942e-02 3.089003e-02 2.739764e-02 2.425754e-02 2.184507e-02 2.580063e-02 2.484309e-02 2.181717e-02 2.103953e-02 2.105122e-02 1.879042e-02 1.911050e-02 1.792391e-02 1.932851e-02 1.505033e-02 1.385351e-02 1.374948e-02 1.374803e-02 1.352588e-02 1.217973e-02 1.196786e-02 1.066900e-02 1.116083e-02 9.633094e-03 9.047032e-03 8.912633e-03 8.611039e-03 8.025909e-03 7.980299e-03 7.010733e-03 7.476574e-03 7.104823e-03 6.533379e-03 6.419900e-03 5.684263e-03 5.345159e-03 4.981922e-03 4.686205e-03 4.905301e-03 4.579833e-03 4.770278e-03 4.646916e-03 3.945854e-03 3.898527e-03 4.258203e-03 3.822190e-03 3.744308e-03 3.581461e-03 3.328869e-03 3.197158e-03 3.158707e-03 3.054853e-03 3.155558e-03 3.319885e-03 3.156293e-03 2.987858e-03 2.714704e-03
<GCONST> -6.002957e+02
<STREAM> 2
<NUMMIXES> 2
<MIXTURE> 1 7.506127e-01
<MEAN> 1
 5.272999e+00
<VARIANCE> 1
 3.288205e-02
<GCONST> -1.576951e+00
<MIXTURE> 2 2.493871e-01
<MEAN> 0
<VARIANCE> 0
<GCONST> 0.000000e+00
<STREAM> 3
<NUMMIXES> 2
<MIXTURE> 1 6.991335e-01
<MEAN> 1
 -2.525253e-03
<VARIANCE> 1
 1.326920e-03
<GCONST> -4.787018e+00
<MIXTURE> 2 3.008660e-01
<MEAN> 0
<VARIANCE> 0
<GCONST> 0.000000e+00
<STREAM> 4
<NUMMIXES> 2
<MIXTURE> 1 6.985176e-01
<MEAN> 1
 8.734911e-04
<VARIANCE> 1
 5.867964e-03
<GCONST> -3.300370e+00
<MIXTURE> 2 3.014819e-01
<MEAN> 0
<VARIANCE> 0
<GCONST> 0.000000e+00
<STREAM> 5
<MEAN> 15
 -3.034769e+00 -2.153157e+00 -2.116771e+00 -2.308887e+00 -2.202072e+00 1.183415e-02 5.313307e-03 -2.637396e-03 3.003644e-03 2.037419e-02 -1.126845e-02 3.057312e-02 2.693928e-02 3.412643e-02 5.233487e-02
<VARIANCE> 15
 9.543616e+00 2.910922e+00 2.796229e+00 3.230103e+00 2.784585e+00 1.644275e+00 6.476552e-01 7.330676e-01 7.814956e-01 6.458984e-01 8.799239e+00 5.491347e+00 6.087487e+00 6.509339e+00 5.539273e+00
<GCONST> 4.245528e+01
<TRANSP> 7
 0.000000e+00 1.000000e+00 0.000000e+00 0.000000e+00 0.000000e+00 0.000000e+00 0.000000e+00
 0.000000e+00 3.151161e-01 6.848838e-01 0.000000e+00 0.000000e+00 0.000000e+00 0.000000e+00
 0.000000e+00 0.000000e+00 5.308100e-01 4.691900e-01 0.000000e+00 0.000000e+00 0.000000e+00
 0.000000e+00 0.000000e+00 0.000000e+00 4.045813e-01 5.954187e-01 0.000000e+00 0.000000e+00
 0.000000e+00 0.000000e+00 0.000000e+00 0.000000e+00 2.572696e-01 7.427304e-01 0.000000e+00
 0.000000e+00 0.000000e+00 0.000000e+00 0.000000e+00 0.000000e+00 7.973576e-01 2.026423e-01
 0.000000e+00 0.000000e+00 0.000000e+00 0.000000e+00 0.000000e+00 0.000000e+00 0.000000e+00
<ENDHMM>
~h "G"
<BEGINHMM>
<NUMSTATES> 7
<STATE> 2
<SWEIGHTS> 5
 1.000000e+00 0.000000e+00 0.000000e+00 0.000000e+00 0.000000e+00
<STREAM> 1
<MEAN> 180
 5.505003e+00 2.741021e+00 -3.077873e-02 6.327296e-01 3.635586e-01 -8.154168e-02 3.273596e-03 3.718466e-01 -2.978797e-01 -2.655906e-02 -5.413149e-02 -3.950958e-02 -1.174793e-01 4.264946e-02 -2.272349e-01 2.583435e-01 -4.600683e-02 -1.194083e-01 1.231132e-01 -7.185955e-02 -1.661007e-01 1.270438e-01 -4.093646e-02 -6.492756e-02 6.104087e-02 4.824354e-02 -1.002940e-01 1.059699e-01 -1.144637e-02 3.694106e-02 3.289838e-02 3.445842e-02 1.932194e-02 8.564387e-03 -2.121672e-02 4.481508e-02 -1.006867e-01 9.016955e-02 -8.054321e-02 2.792240e-02 -2.599807e-02 2.009728e-02 -2.282532e-02 2.958459e-02 -4.291415e-02 3.953725e-02 -5.635952e-02 3.946437e-02 -2.140492e-02 1.940234e-02 -2.144282e-02 2.751421e-02 -1.687415e-02 5.458459e-04 4.050678e-03 1.756640e-02 -4.436070e-02 6.599945e-02 -7.687818e-02 6.653100e-02 1.166138e-03 2.128242e-03 -3.568109e-03 -5.868892e-03 3.008379e-03 3.184978e-03 -8.318662e-04 8.602025e-04 1.422574e-03 -1.969615e-04 1.665716e-04 1.688823e-04 -1.009018e-03 -5.358778e-04 2.145459e-05 2.019551e-03 8.564584e-04 -2.132429e-03 2.565909e-04 4.937317e-04 -5.022079e-04 -2.824943e-04 3.552466e-04 1.476599e-03 -7.173315e-04 -7.517486e-04 1.048188e-03 1.672296e-04 -2.708161e-04 6.235850e-04 8.390156e-04 2.572480e-04 2.024065e-04 -3.078954e-04 -5.140791e-04 3.114098e-04 -9.393003e-04 3.300842e-04 -1.663488e-04 -8.954860e-04 4.300440e-04 -2.224210e-04 -1.473468e-04 2.570945e-04 -1.803722e-04 -5.961058e-04 3.527178e-04 -1.497717e-04 -2.866488e-04 4.249761e-04 -6.182439e-05 6.608722e-05 -2.194525e-05 -1.550680e-04 3.640154e-04 -4.924195e-06 -2.591379e-04 2.951800e-04 -1.801026e-04 3.336907e-05 -1.058838e-02 -1.241894e-03 5.308570e-03 -1.500964e-03 -3.083031e-04 3.004995e-03 4.612453e-04 -1.076313e-03 2.844130e-03 -8.771079e-05 -6.407086e-04 1.076385e-03 -9.088254e-04 -1.220574e-03 1.621280e-03 1.008591e-04 3.023657e-04 2.033994e-04 -9.116215e-04 1.092886e-03 3.576689e-04 -1.140106e-03 2.922059e-04 -3.593920e-04 -5.620678e-04 -9.196036e-05 -7.646566e-05 -6.869008e-04 2.593923e-04 -2.021793e-04 -5.466809e-04 -1.262180e-04 -5.073891e-04 1.886813e-04 3.880933e-04 4.783570e-05 2.686331e-04 -1.731860e-04 1.955606e-04 2.902043e-04 -2.632015e-04 2.336524e-04 1.945546e-04 1.937569e-05 -1.537787e-04 1.630623e-05 2.608841e-04 -9.183979e-05 -3.941947e-05 8.743661e-05 -1.882850e-04 1.974981e-04 -2.676492e-04 8.285837e-05 6.296777e-05 -6.895293e-05 1.988650e-04 -4.617611e-04 5.236933e-04 -3.627911e-04
<VARIANCE> 180
 6.538668e-01 2.851596e-01 2.703790e-01 1.890474e-01 2.749816e-01 1.437787e-01 7.331964e-02 6.227090e-02 4.182639e-02 4.231009e-02 5.112791e-02 4.314032e-02 2.693801e-02 2.635836e-02 2.527546e-02 2.490372e-02 4.266842e-02 2.156068e-02 2.038550e-02 1.944644e-02 1.813967e-02 2.178147e-02 1.570923e-02 1.288528e-02 1.479422e-02 1.145585e-02 9.535545e-03 1.023208e-02 9.083563e-03 7.469654e-03 8.366693e-03 9.108781e-03 7.926981e-03 6.937782e-03 7.094797e-03 6.284261e-03 6.468603e-03 6.316770e-03 6.309536e-03 5.071179e-03 5.105912e-03 5.294825e-03 4.034660e-03 4.289505e-03 4.577388e-03 4.163574e-03 3.730837e-03 3.171540e-03 3.176369e-03 3.666352e-03 3.370499e-03 3.092196e-03 2.805382e-03 2.870534e-03 2.805934e-03 2.717882e-03 2.718296e-03 3.063695e-03 2.960533e-03 2.777912e-03 1.082186e-02 4.190741e-03 5.531779e-03 3.638326e-03 2.840801e-03 2.429225e-03 2.156532e-03 1.880748e-03 1.841524e-03 1.728008e-03 1.691774e-03 1.594628e-03 1.411736e-03 1.344005e-03 1.490894e-03 1.344691e-03 1.474861e-03 1.285291e-03 1.189510e-03 1.176505e-03 1.096215e-03 1.168943e-03 9.897364e-04 9.921961e-04 9.658343e-04 9.187246e-04 8.939409e-04 8.421452e-04 8.362121e-04 8.083839e-04 7.637132e-04 7.292788e-04 7.095782e-04 6.281015e-04 6.589285e-04 6.161334e-04 6.012617e-04 5.870950e-04 5.517246e-04 5.058452e-04 4.876604e-04 4.801173e-04 4.732465e-04 4.814651e-04 4.640069e-04 4.411874e-04 4.154130e-04 3.725385e-04 3.754444e-04 3.878392e-04 3.730704e-04 3.649601e-04 3.291405e-04 3.375411e-04 3.166829e-04 3.341806e-04 3.186471e-04 3.347153e-04 3.045274e-04 2.995211e-04 4.729274e-03 3.337121e-03 4.208931e-03 3.112588e-03 2.840444e-03 2.632889e-03 2.309008e-03 2.410755e-03 2.292611e-03 2.117048e-03 2.202180e-03 2.342229e-03 2.203614e-03 2.089785e-03 2.142913e-03 2.093462e-03 2.244132e-03 2.126404e-03 1.944758e-03 1.909391e-03 1.864325e-03 1.881235e-03 1.821719e-03 1.820707e-03 1.674649e-03 1.647026e-03 1.708515e-03 1.522041e-03 1.639638e-03 1.541039e-03 1.577072e-03 1.411761e-03 1.365775e-03 1.300201e-03 1.302580e-03 1.252536e-03 1.200647e-03 1.213631e-03 1.113824e-03 1.062944e-03 1.035175e-03 1.045896e-03 9.813129e-04 1.030548e-03 1.001199e-03 9.098586e-04 8.797990e-04 8.611390e-04 8.387273e-04 8.575078e-04 8.124073e-04 7.526110e-04 7.093932e-04 7.110404e-04 6.977142e-04 7.610177e-04 7.165787e-04 7.270377e-04 6.686653e-04 6.492111e-04
<GCONST> -7.482598e+02
<STREAM> 2
<NUMMIXES> 2
<MIXTURE> 1 9.812959e-01
<MEAN> 1
 4.670729e+00
<VARIANCE> 1
 3.042542e-02
<GCONST> -1.654600e+00
<MIXTURE> 2 1.870377e-02
<MEAN> 0
<VARIANCE> 0
<GCONST> 0.000000e+00
<STREAM> 3
<NUMMIXES> 2
<MIXTURE> 1 9.775367e-01
<MEAN> 1
 -2.421679e-03
<VARIANCE> 1
 2.770206e-04
<GCONST> -6.353541e+00
<MIXTURE> 2 2.246303e-02
<MEAN> 0
<VARIANCE> 0
<GCONST> 0.000000e+00
<STREAM> 4
<NUMMIXES> 2
<MIXTURE> 1 9.770024e-01
<MEAN> 1
 6.398198e-04
<VARIANCE> 1
 5.394300e-04
<GCONST> -5.687120e+00
<MIXTURE> 2 2.299734e-02
<MEAN> 0
<VARIANCE> 0
<GCONST> 0.000000e+00
<STREAM> 5
<MEAN> 15
 -7.122453e+00 -3.600174e+00 -3.283400e+00 -3.015697e+00 -3.052056e+00 -1.694100e-02 -8.313185e-03 -1.051273e-02 -7.415178e-03 1.350797e-03 9.336516e-02 1.633259e-02 2.749792e-02 1.729202e-02 6.871011e-03
<VARIANCE> 15
 1.411030e+01 3.095794e+00 1.529128e+00 1.103416e+00 1.097189e+00 1.770939e+00 6.258916e-01 4.459027e-01 3.424934e-01 3.360312e-01 1.192089e+01 3.367505e+00 2.937319e+00 2.402695e+00 2.288177e+00
<GCONST> 3.556850e+01
<STATE> 3
<SWEIGHTS> 5
 1.000000e+00 0.000000e+00 0.000000e+00 0.000000e+00 0.000000e+00
<STREAM> 1
<MEAN> 180
 5.083374e+00 2.789687e+00 1.892248e-01 5.059093e-01 4.248017e-01 8.671892e-02 -3.051006e-02 3.479713e-01 -1.567820e-01 -8.511164e-02 -1.309105e-01 3.205070e-03 -1.638069e-01 -2.647707e-02 -1.285657e-01 2.389255e-01 -1.674190e-02 -1.165883e-01 9.009162e-02 1.501630e-02 -1.776627e-01 6.101826e-02 9.811417e-03 -5.601073e-02 2.154101e-03 6.635249e-02 -7.250401e-02 7.600584e-02 1.513611e-02 4.236254e-02 9.301333e-03 4.998057e-02 -1.088323e-02 7.579072e-03 -2.144255e-02 3.765881e-02 -8.994340e-02 7.519332e-02 -6.432540e-02 1.540848e-02 -2.614983e-02 2.222385e-02 -2.377326e-02 2.347409e-02 -3.259106e-02 2.932747e-02 -4.131339e-02 3.994213e-02 -3.698984e-02 4.000930e-02 -3.262768e-02 2.571255e-02 -1.163098e-02 2.858570e-03 -7.302211e-03 3.189851e-02 -4.915193e-02 5.373251e-02 -5.063569e-02 3.800648e-02 -2.242894e-02 -4.181699e-03 7.453690e-03 -1.981635e-03 1.917585e-03 5.359262e-03 -9.639326e-04 -7.951015e-04 5.288865e-03 -1.974948e-03 -1.507712e-03 1.117960e-03 -1.968227e-03 -2.011660e-03 3.120308e-03 -9.479559e-04 1.214987e-03 1.227754e-03 1.769898e-04 2.163796e-03 1.457895e-04 -4.442893e-04 9.473893e-04 -8.463761e-04 -1.643831e-03 -4.966204e-04 8.969879e-05 -6.447892e-04 7.596064e-04 3.381495e-04 -1.107592e-03 2.200229e-04 -3.715219e-04 3.416352e-04 7.643044e-05 -5.297879e-04 5.554669e-04 -7.900604e-04 3.902171e-04 -1.086407e-04 5.410789e-05 -7.916054e-05 1.136001e-04 -8.208741e-05 -2.624706e-04 2.835965e-04 -2.882097e-04 -1.323751e-06 5.370717e-04 -7.545680e-04 4.176702e-04 -1.736029e-05 -2.226076e-04 3.693585e-04 -5.002125e-04 3.523612e-04 1.509672e-04 -6.199070e-04 8.332647e-04 -7.083531e-04 -2.908939e-03 -2.659741e-03 4.453973e-04 4.298231e-04 -2.938654e-04 5.446859e-04 1.362952e-03 -5.354827e-04 2.395848e-04 6.841384e-04 -1.449660e-04 1.436409e-04 6.475751e-04 -4.097522e-04 2.278935e-04 -8.704946e-04 -2.550188e-05 7.545436e-04 -1.867056e-04 5.538904e-04 -3.237156e-04 -5.734970e-04 1.792900e-04 -9.813780e-05 9.953143e-05 -5.483570e-04 -4.369237e-04 6.678543e-04 1.771948e-04 -4.795085e-04 -7.490522e-04 9.120918e-04 7.129297e-04 3.826324e-05 -1.369863e-04 -1.220196e-04 3.080044e-04 -4.429458e-04 2.702031e-04 -1.042374e-04 -2.750913e-04 6.724804e-04 -5.535501e-04 -5.543232e-05 4.836229e-04 -5.006835e-05 -3.507594e-04 -4.287052e-06 4.080510e-04 -6.378446e-04 2.951862e-04 7.843102e-05 -2.215830e-04 2.798087e-04 -5.483669e-04 2.059989e-04 2.729830e-04 7.836788e-06 -3.501048e-04 2.808987e-04
<VARIANCE> 180
