~o
<STREAMINFO> 5 180 1 1 1 15
<MSDINFO> 5 0 1 1 1 0
<VECSIZE> 198<NULLD><USER><DIAGC>
~h "proto"
<BEGINHMM>
<NUMSTATES> 7
<STATE> 2
<SWEIGHTS> 5
 1.000000e+00 0.000000e+00 0.000000e+00 0.000000e+00 0.000000e+00
<STREAM> 1
<MEAN> 180
 3.965091e+00 1.853472e+00 2.433529e-01 7.148529e-01 5.728438e-02 4.247469e-01 -1.167850e-01 2.673363e-01 -1.152874e-01 1.157473e-01 -4.275131e-02 1.603348e-01 -1.025846e-01 1.245427e-01 -5.017899e-02 4.387138e-02 -1.238447e-01 5.908621e-02 -8.388337e-02 4.032934e-02 -1.029300e-02 1.605000e-02 -2.432292e-02 5.220682e-02 -3.875429e-02 4.282299e-02 -5.693545e-02 5.371667e-02 -4.551985e-02 4.412680e-02 -4.528520e-02 3.329163e-02 -4.462261e-02 2.672220e-02 -2.840964e-02 2.026077e-02 -3.614174e-02 3.208222e-02 -4.304984e-02 2.893383e-02 -3.178397e-02 2.507160e-02 -2.744328e-02 2.555089e-02 -2.344915e-02 1.667431e-02 -1.382326e-02 1.218193e-02 -9.965840e-03 7.269255e-03 -7.757026e-03 8.475003e-03 -8.666798e-03 8.744320e-03 -7.899711e-03 4.950920e-03 -3.205977e-03 4.273665e-03 -6.281201e-03 6.511800e-03 1.415054e-03 3.601333e-04 -7.251756e-05 7.073507e-05 -3.754707e-05 4.456833e-05 -5.639325e-05 2.551186e-05 -3.094592e-05 7.362681e-06 -2.339649e-05 1.021402e-05 -2.585970e-05 1.228514e-05 -3.441483e-05 1.703828e-05 -2.665839e-05 1.026141e-05 -2.763260e-05 1.483829e-05 -1.631270e-05 2.202756e-05 -1.219657e-05 1.526696e-05 -2.061113e-05 1.982015e-05 -1.064029e-05 1.674297e-05 -9.781921e-06 2.198723e-05 -1.479475e-05 1.506712e-05 -1.277239e-05 1.429340e-05 -1.313048e-05 9.846806e-06 -1.170844e-05 1.679637e-05 -1.126753e-05 9.295753e-06 -1.214146e-05 1.019003e-05 -8.332387e-06 7.124782e-06 -5.725314e-06 9.333668e-06 -1.048921e-05 8.696117e-06 -5.117051e-06 4.304053e-06 -5.925118e-06 6.857520e-06 -6.412194e-06 4.976833e-06 -3.130581e-06 1.692866e-06 -1.398382e-06 2.806530e-06 -4.014440e-06 2.806557e-06 6.056685e-13 1.110392e-12 -3.828353e-12 -6.874358e-13 1.754239e-12 1.296462e-12 -5.722849e-13 5.359324e-12 2.441506e-12 -2.592208e-12 1.972276e-12 -1.202482e-12 1.046137e-12 -2.873564e-12 3.815428e-12 2.707599e-12 3.020491e-13 5.972751e-13 1.920626e-12 1.808869e-12 -8.720369e-13 3.621861e-12 -1.059642e-12 -4.275868e-14 -1.016443e-12 7.639815e-13 1.706688e-12 -8.298597e-13 6.326858e-13 -1.083655e-12 5.815801e-14 -5.109368e-13 -7.235715e-13 -1.512044e-12 3.580233e-13 -2.024367e-12 1.480746e-12 -2.113815e-12 -1.599097e-13 1.147135e-12 5.558046e-13 1.828884e-12 1.551831e-12 1.316747e-12 -8.652445e-13 6.048801e-13 -3.235191e-13 -2.216754e-13 1.564920e-13 1.148811e-12 -1.213329e-12 -1.392771e-12 -6.675161e-13 -6.884175e-13 4.215755e-13 6.723428e-14 5.534481e-13 -5.001646e-13 -1.012096e-12 -1.749304e-12
<VARIANCE> 180
 5.093467e+00 1.087318e+00 2.352621e-01 1.745148e-01 1.498712e-01 6.909852e-02 9.949085e-02 3.764765e-02 8.112165e-02 4.340451e-02 4.387320e-02 3.267406e-02 3.775018e-02 2.405894e-02 2.658463e-02 2.014005e-02 2.251628e-02 1.743888e-02 1.971638e-02 1.442588e-02 1.442809e-02 1.342586e-02 1.107275e-02 1.036838e-02 9.882499e-03 8.815966e-03 8.929914e-03 9.235067e-03 7.884601e-03 7.525612e-03 6.776197e-03 6.330391e-03 5.435696e-03 5.653551e-03 4.907170e-03 4.874783e-03 4.557862e-03 4.850063e-03 4.328063e-03 4.182510e-03 3.905809e-03 3.726010e-03 3.447654e-03 3.341919e-03 3.347775e-03 3.270547e-03 3.102544e-03 2.904335e-03 2.770455e-03 2.669596e-03 2.566566e-03 2.468500e-03 2.469965e-03 2.462069e-03 2.345827e-03 2.226628e-03 2.213024e-03 2.148301e-03 2.139223e-03 2.105865e-03 6.068020e-02 2.638790e-02 1.575623e-02 8.654099e-03 8.012989e-03 5.431769e-03 5.508517e-03 4.589459e-03 5.030713e-03 4.709581e-03 4.453936e-03 4.340602e-03 3.851656e-03 3.780067e-03 3.708089e-03 3.518292e-03 3.207903e-03 3.137205e-03 2.978439e-03 2.831288e-03 2.699941e-03 2.565551e-03 2.389126e-03 2.274536e-03 2.178849e-03 2.053636e-03 1.985629e-03 1.853193e-03 1.757625e-03 1.650610e-03 1.566687e-03 1.474084e-03 1.404920e-03 1.330773e-03 1.264498e-03 1.195406e-03 1.134892e-03 1.074809e-03 1.027922e-03 9.752996e-04 9.381195e-04 8.981185e-04 8.564940e-04 8.207856e-04 7.898442e-04 7.625593e-04 7.328749e-04 7.083956e-04 6.850914e-04 6.590349e-04 6.366490e-04 6.147387e-04 5.958723e-04 5.797113e-04 5.638450e-04 5.459449e-04 5.330672e-04 5.178567e-04 5.045806e-04 4.919058e-04 8.481903e-02 3.609176e-02 3.744270e-02 2.248936e-02 2.134719e-02 1.760533e-02 1.759901e-02 1.641029e-02 1.683355e-02 1.639077e-02 1.595486e-02 1.539465e-02 1.462992e-02 1.434388e-02 1.408726e-02 1.346508e-02 1.272961e-02 1.244206e-02 1.175956e-02 1.124643e-02 1.070980e-02 1.021140e-02 9.705942e-03 9.276850e-03 8.859355e-03 8.435749e-03 8.055086e-03 7.615052e-03 7.285252e-03 6.884594e-03 6.557086e-03 6.206357e-03 5.919439e-03 5.615567e-03 5.342135e-03 5.088934e-03 4.824136e-03 4.620054e-03 4.407166e-03 4.206539e-03 4.051100e-03 3.880903e-03 3.717233e-03 3.586389e-03 3.446467e-03 3.327833e-03 3.205748e-03 3.097799e-03 3.006929e-03 2.897361e-03 2.810383e-03 2.718483e-03 2.640193e-03 2.574284e-03 2.505296e-03 2.430063e-03 2.369288e-03 2.301301e-03 2.248112e-03 2.190558e-03
<GCONST> -6.156619e+02
<STREAM> 2
<NUMMIXES> 2
<MIXTURE> 1 5.000000e-01
<MEAN> 1
 5.250543e+00
<VARIANCE> 1
 3.813370e-02
<GCONST> -1.428780e+00
<MIXTURE> 2 5.000000e-01
<MEAN> 0
<VARIANCE> 0
<GCONST> 0.000000e+00
<STREAM> 3
<NUMMIXES> 2
<MIXTURE> 1 5.000000e-01
<MEAN> 1
 -2.068993e-03
<VARIANCE> 1
 7.392230e-04
<GCONST> -5.372034e+00
<MIXTURE> 2 5.000000e-01
<MEAN> 0
<VARIANCE> 0
<GCONST> 0.000000e+00
<STREAM> 4
<NUMMIXES> 2
<MIXTURE> 1 5.000000e-01
<MEAN> 1
 -5.741943e-04
<VARIANCE> 1
 3.091917e-03
<GCONST> -3.941087e+00
<MIXTURE> 2 5.000000e-01
<MEAN> 0
<VARIANCE> 0
<GCONST> 0.000000e+00
<STREAM> 5
<MEAN> 15
 -2.742963e+00 -1.752385e+00 -1.745957e+00 -1.632279e+00 -1.529138e+00 -3.346823e-06 -2.531322e-06 -2.968321e-06 -2.955013e-06 -3.358657e-06 1.118926e-11 -1.766602e-11 5.447802e-11 -2.327336e-11 -1.768950e-11
<VARIANCE> 15
 1.434062e+01 4.644291e+00 4.650762e+00 3.768462e+00 3.207256e+00 1.186703e+00 6.433740e-01 6.871105e-01 5.703605e-01 4.924515e-01 7.002793e+00 5.027072e+00 5.418627e+00 4.687454e+00 4.204267e+00
<GCONST> 4.211303e+01
<STATE> 3
<SWEIGHTS> 5
 1.000000e+00 0.000000e+00 0.000000e+00 0.000000e+00 0.000000e+00
<STREAM> 1
<MEAN> 180
 3.965091e+00 1.853472e+00 2.433529e-01 7.148529e-01 5.728438e-02 4.247469e-01 -1.167850e-01 2.673363e-01 -1.152874e-01 1.157473e-01 -4.275131e-02 1.603348e-01 -1.025846e-01 1.245427e-01 -5.017899e-02 4.387138e-02 -1.238447e-01 5.908621e-02 -8.388337e-02 4.032934e-02 -1.029300e-02 1.605000e-02 -2.432292e-02 5.220682e-02 -3.875429e-02 4.282299e-02 -5.693545e-02 5.371667e-02 -4.551985e-02 4.412680e-02 -4.528520e-02 3.329163e-02 -4.462261e-02 2.672220e-02 -2.840964e-02 2.026077e-02 -3.614174e-02 3.208222e-02 -4.304984e-02 2.893383e-02 -3.178397e-02 2.507160e-02 -2.744328e-02 2.555089e-02 -2.344915e-02 1.667431e-02 -1.382326e-02 1.218193e-02 -9.965840e-03 7.269255e-03 -7.757026e-03 8.475003e-03 -8.666798e-03 8.744320e-03 -7.899711e-03 4.950920e-03 -3.205977e-03 4.273665e-03 -6.281201e-03 6.511800e-03 1.415054e-03 3.601333e-04 -7.251756e-05 7.073507e-05 -3.754707e-05 4.456833e-05 -5.639325e-05 2.551186e-05 -3.094592e-05 7.362681e-06 -2.339649e-05 1.021402e-05 -2.585970e-05 1.228514e-05 -3.441483e-05 1.703828e-05 -2.665839e-05 1.026141e-05 -2.763260e-05 1.483829e-05 -1.631270e-05 2.202756e-05 -1.219657e-05 1.526696e-05 -2.061113e-05 1.982015e-05 -1.064029e-05 1.674297e-05 -9.781921e-06 2.198723e-05 -1.479475e-05 1.506712e-05 -1.277239e-05 1.429340e-05 -1.313048e-05 9.846806e-06 -1.170844e-05 1.679637e-05 -1.126753e-05 9.295753e-06 -1.214146e-05 1.019003e-05 -8.332387e-06 7.124782e-06 -5.725314e-06 9.333668e-06 -1.048921e-05 8.696117e-06 -5.117051e-06 4.304053e-06 -5.925118e-06 6.857520e-06 -6.412194e-06 4.976833e-06 -3.130581e-06 1.692866e-06 -1.398382e-06 2.806530e-06 -4.014440e-06 2.806557e-06 6.056685e-13 1.110392e-12 -3.828353e-12 -6.874358e-13 1.754239e-12 1.296462e-12 -5.722849e-13 5.359324e-12 2.441506e-12 -2.592208e-12 1.972276e-12 -1.202482e-12 1.046137e-12 -2.873564e-12 3.815428e-12 2.707599e-12 3.020491e-13 5.972751e-13 1.920626e-12 1.808869e-12 -8.720369e-13 3.621861e-12 -1.059642e-12 -4.275868e-14 -1.016443e-12 7.639815e-13 1.706688e-12 -8.298597e-13 6.326858e-13 -1.083655e-12 5.815801e-14 -5.109368e-13 -7.235715e-13 -1.512044e-12 3.580233e-13 -2.024367e-12 1.480746e-12 -2.113815e-12 -1.599097e-13 1.147135e-12 5.558046e-13 1.828884e-12 1.551831e-12 1.316747e-12 -8.652445e-13 6.048801e-13 -3.235191e-13 -2.216754e-13 1.564920e-13 1.148811e-12 -1.213329e-12 -1.392771e-12 -6.675161e-13 -6.884175e-13 4.215755e-13 6.723428e-14 5.534481e-13 -5.001646e-13 -1.012096e-12 -1.749304e-12
<VARIANCE> 180
 5.093467e+00 1.087318e+00 2.352621e-01 1.745148e-01 1.498712e-01 6.909852e-02 9.949085e-02 3.764765e-02 8.112165e-02 4.340451e-02 4.387320e-02 3.267406e-02 3.775018e-02 2.405894e-02 2.658463e-02 2.014005e-02 2.251628e-02 1.743888e-02 1.971638e-02 1.442588e-02 1.442809e-02 1.342586e-02 1.107275e-02 1.036838e-02 9.882499e-03 8.815966e-03 8.929914e-03 9.235067e-03 7.884601e-03 7.525612e-03 6.776197e-03 6.330391e-03 5.435696e-03 5.653551e-03 4.907170e-03 4.874783e-03 4.557862e-03 4.850063e-03 4.328063e-03 4.182510e-03 3.905809e-03 3.726010e-03 3.447654e-03 3.341919e-03 3.347775e-03 3.270547e-03 3.102544e-03 2.904335e-03 2.770455e-03 2.669596e-03 2.566566e-03 2.468500e-03 2.469965e-03 2.462069e-03 2.345827e-03 2.226628e-03 2.213024e-03 2.148301e-03 2.139223e-03 2.105865e-03 6.068020e-02 2.638790e-02 1.575623e-02 8.654099e-03 8.012989e-03 5.431769e-03 5.508517e-03 4.589459e-03 5.030713e-03 4.709581e-03 4.453936e-03 4.340602e-03 3.851656e-03 3.780067e-03 3.708089e-03 3.518292e-03 3.207903e-03 3.137205e-03 2.978439e-03 2.831288e-03 2.699941e-03 2.565551e-03 2.389126e-03 2.274536e-03 2.178849e-03 2.053636e-03 1.985629e-03 1.853193e-03 1.757625e-03 1.650610e-03 1.566687e-03 1.474084e-03 1.404920e-03 1.330773e-03 1.264498e-03 1.195406e-03 1.134892e-03 1.074809e-03 1.027922e-03 9.752996e-04 9.381195e-04 8.981185e-04 8.564940e-04 8.207856e-04 7.898442e-04 7.625593e-04 7.328749e-04 7.083956e-04 6.850914e-04 6.590349e-04 6.366490e-04 6.147387e-04 5.958723e-04 5.797113e-04 5.638450e-04 5.459449e-04 5.330672e-04 5.178567e-04 5.045806e-04 4.919058e-04 8.481903e-02 3.609176e-02 3.744270e-02 2.248936e-02 2.134719e-02 1.760533e-02 1.759901e-02 1.641029e-02 1.683355e-02 1.639077e-02 1.595486e-02 1.539465e-02 1.462992e-02 1.434388e-02 1.408726e-02 1.346508e-02 1.272961e-02 1.244206e-02 1.175956e-02 1.124643e-02 1.070980e-02 1.021140e-02 9.705942e-03 9.276850e-03 8.859355e-03 8.435749e-03 8.055086e-03 7.615052e-03 7.285252e-03 6.884594e-03 6.557086e-03 6.206357e-03 5.919439e-03 5.615567e-03 5.342135e-03 5.088934e-03 4.824136e-03 4.620054e-03 4.407166e-03 4.206539e-03 4.051100e-03 3.880903e-03 3.717233e-03 3.586389e-03 3.446467e-03 3.327833e-03 3.205748e-03 3.097799e-03 3.006929e-03 2.897361e-03 2.810383e-03 2.718483e-03 2.640193e-03 2.574284e-03 2.505296e-03 2.430063e-03 2.369288e-03 2.301301e-03 2.248112e-03 2.190558e-03
<GCONST> -6.156619e+02
<STREAM> 2
<NUMMIXES> 2
<MIXTURE> 1 5.000000e-01
<MEAN> 1
 5.250543e+00
<VARIANCE> 1
 3.813370e-02
<GCONST> -1.428780e+00
<MIXTURE> 2 5.000000e-01
<MEAN> 0
<VARIANCE> 0
<GCONST> 0.000000e+00
<STREAM> 3
<NUMMIXES> 2
<MIXTURE> 1 5.000000e-01
<MEAN> 1
 -2.068993e-03
<VARIANCE> 1
 7.392230e-04
<GCONST> -5.372034e+00
<MIXTURE> 2 5.000000e-01
<MEAN> 0
<VARIANCE> 0
<GCONST> 0.000000e+00
<STREAM> 4
<NUMMIXES> 2
<MIXTURE> 1 5.000000e-01
<MEAN> 1
 -5.741943e-04
<VARIANCE> 1
 3.091917e-03
<GCONST> -3.941087e+00
<MIXTURE> 2 5.000000e-01
<MEAN> 0
<VARIANCE> 0
<GCONST> 0.000000e+00
<STREAM> 5
<MEAN> 15
 -2.742963e+00 -1.752385e+00 -1.745957e+00 -1.632279e+00 -1.529138e+00 -3.346823e-06 -2.531322e-06 -2.968321e-06 -2.955013e-06 -3.358657e-06 1.118926e-11 -1.766602e-11 5.447802e-11 -2.327336e-11 -1.768950e-11
<VARIANCE> 15
 1.434062e+01 4.644291e+00 4.650762e+00 3.768462e+00 3.207256e+00 1.186703e+00 6.433740e-01 6.871105e-01 5.703605e-01 4.924515e-01 7.002793e+00 5.027072e+00 5.418627e+00 4.687454e+00 4.204267e+00
<GCONST> 4.211303e+01
<STATE> 4
<SWEIGHTS> 5
 1.000000e+00 0.000000e+00 0.000000e+00 0.000000e+00 0.000000e+00
<STREAM> 1
<MEAN> 180
 3.965091e+00 1.853472e+00 2.433529e-01 7.148529e-01 5.728438e-02 4.247469e-01 -1.167850e-01 2.673363e-01 -1.152874e-01 1.157473e-01 -4.275131e-02 1.603348e-01 -1.025846e-01 1.245427e-01 -5.017899e-02 4.387138e-02 -1.238447e-01 5.908621e-02 -8.388337e-02 4.032934e-02 -1.029300e-02 1.605000e-02 -2.432292e-02 5.220682e-02 -3.875429e-02 4.282299e-02 -5.693545e-02 5.371667e-02 -4.551985e-02 4.412680e-02 -4.528520e-02 3.329163e-02 -4.462261e-02 2.672220e-02 -2.840964e-02 2.026077e-02 -3.614174e-02 3.208222e-02 -4.304984e-02 2.893383e-02 -3.178397e-02 2.507160e-02 -2.744328e-02 2.555089e-02 -2.344915e-02 1.667431e-02 -1.382326e-02 1.218193e-02 -9.965840e-03 7.269255e-03 -7.757026e-03 8.475003e-03 -8.666798e-03 8.744320e-03 -7.899711e-03 4.950920e-03 -3.205977e-03 4.273665e-03 -6.281201e-03 6.511800e-03 1.415054e-03 3.601333e-04 -7.251756e-05 7.073507e-05 -3.754707e-05 4.456833e-05 -5.639325e-05 2.551186e-05 -3.094592e-05 7.362681e-06 -2.339649e-05 1.021402e-05 -2.585970e-05 1.228514e-05 -3.441483e-05 1.703828e-05 -2.665839e-05 1.026141e-05 -2.763260e-05 1.483829e-05 -1.631270e-05 2.202756e-05 -1.219657e-05 1.526696e-05 -2.061113e-05 1.982015e-05 -1.064029e-05 1.674297e-05 -9.781921e-06 2.198723e-05 -1.479475e-05 1.506712e-05 -1.277239e-05 1.429340e-05 -1.313048e-05 9.846806e-06 -1.170844e-05 1.679637e-05 -1.126753e-05 9.295753e-06 -1.214146e-05 1.019003e-05 -8.332387e-06 7.124782e-06 -5.725314e-06 9.333668e-06 -1.048921e-05 8.696117e-06 -5.117051e-06 4.304053e-06 -5.925118e-06 6.857520e-06 -6.412194e-06 4.976833e-06 -3.130581e-06 1.692866e-06 -1.398382e-06 2.806530e-06 -4.014440e-06 2.806557e-06 6.056685e-13 1.110392e-12 -3.828353e-12 -6.874358e-13 1.754239e-12 1.296462e-12 -5.722849e-13 5.359324e-12 2.441506e-12 -2.592208e-12 1.972276e-12 -1.202482e-12 1.046137e-12 -2.873564e-12 3.815428e-12 2.707599e-12 3.020491e-13 5.972751e-13 1.920626e-12 1.808869e-12 -8.720369e-13 3.621861e-12 -1.059642e-12 -4.275868e-14 -1.016443e-12 7.639815e-13 1.706688e-12 -8.298597e-13 6.326858e-13 -1.083655e-12 5.815801e-14 -5.109368e-13 -7.235715e-13 -1.512044e-12 3.580233e-13 -2.024367e-12 1.480746e-12 -2.113815e-12 -1.599097e-13 1.147135e-12 5.558046e-13 1.828884e-12 1.551831e-12 1.316747e-12 -8.652445e-13 6.048801e-13 -3.235191e-13 -2.216754e-13 1.564920e-13 1.148811e-12 -1.213329e-12 -1.392771e-12 -6.675161e-13 -6.884175e-13 4.215755e-13 6.723428e-14 5.534481e-13 -5.001646e-13 -1.012096e-12 -1.749304e-12
<VARIANCE> 180
 5.093467e+00 1.087318e+00 2.352621e-01 1.745148e-01 1.498712e-01 6.909852e-02 9.949085e-02 3.764765e-02 8.112165e-02 4.340451e-02 4.387320e-02 3.267406e-02 3.775018e-02 2.405894e-02 2.658463e-02 2.014005e-02 2.251628e-02 1.743888e-02 1.971638e-02 1.442588e-02 1.442809e-02 1.342586e-02 1.107275e-02 1.036838e-02 9.882499e-03 8.815966e-03 8.929914e-03 9.235067e-03 7.884601e-03 7.525612e-03 6.776197e-03 6.330391e-03 5.435696e-03 5.653551e-03 4.907170e-03 4.874783e-03 4.557862e-03 4.850063e-03 4.328063e-03 4.182510e-03 3.905809e-03 3.726010e-03 3.447654e-03 3.341919e-03 3.347775e-03 3.270547e-03 3.102544e-03 2.904335e-03 2.770455e-03 2.669596e-03 2.566566e-03 2.468500e-03 2.469965e-03 2.462069e-03 2.345827e-03 2.226628e-03 2.213024e-03 2.148301e-03 2.139223e-03 2.105865e-03 6.068020e-02 2.638790e-02 1.575623e-02 8.654099e-03 8.012989e-03 5.431769e-03 5.508517e-03 4.589459e-03 5.030713e-03 4.709581e-03 4.453936e-03 4.340602e-03 3.851656e-03 3.780067e-03 3.708089e-03 3.518292e-03 3.207903e-03 3.137205e-03 2.978439e-03 2.831288e-03 2.699941e-03 2.565551e-03 2.389126e-03 2.274536e-03 2.178849e-03 2.053636e-03 1.985629e-03 1.853193e-03 1.757625e-03 1.650610e-03 1.566687e-03 1.474084e-03 1.404920e-03 1.330773e-03 1.264498e-03 1.195406e-03 1.134892e-03 1.074809e-03 1.027922e-03 9.752996e-04 9.381195e-04 8.981185e-04 8.564940e-04 8.207856e-04 7.898442e-04 7.625593e-04 7.328749e-04 7.083956e-04 6.850914e-04 6.590349e-04 6.366490e-04 6.147387e-04 5.958723e-04 5.797113e-04 5.638450e-04 5.459449e-04 5.330672e-04 5.178567e-04 5.045806e-04 4.919058e-04 8.481903e-02 3.609176e-02 3.744270e-02 2.248936e-02 2.134719e-02 1.760533e-02 1.759901e-02 1.641029e-02 1.683355e-02 1.639077e-02 1.595486e-02 1.539465e-02 1.462992e-02 1.434388e-02 1.408726e-02 1.346508e-02 1.272961e-02 1.244206e-02 1.175956e-02 1.124643e-02 1.070980e-02 1.021140e-02 9.705942e-03 9.276850e-03 8.859355e-03 8.435749e-03 8.055086e-03 7.615052e-03 7.285252e-03 6.884594e-03 6.557086e-03 6.206357e-03 5.919439e-03 5.615567e-03 5.342135e-03 5.088934e-03 4.824136e-03 4.620054e-03 4.407166e-03 4.206539e-03 4.051100e-03 3.880903e-03 3.717233e-03 3.586389e-03 3.446467e-03 3.327833e-03 3.205748e-03 3.097799e-03 3.006929e-03 2.897361e-03 2.810383e-03 2.718483e-03 2.640193e-03 2.574284e-03 2.505296e-03 2.430063e-03 2.369288e-03 2.301301e-03 2.248112e-03 2.190558e-03
<GCONST> -6.156619e+02
<STREAM> 2
<NUMMIXES> 2
<MIXTURE> 1 5.000000e-01
<MEAN> 1
 5.250543e+00
<VARIANCE> 1
 3.813370e-02
<GCONST> -1.428780e+00
<MIXTURE> 2 5.000000e-01
<MEAN> 0
<VARIANCE> 0
<GCONST> 0.000000e+00
<STREAM> 3
<NUMMIXES> 2
<MIXTURE> 1 5.000000e-01
<MEAN> 1
 -2.068993e-03
<VARIANCE> 1
 7.392230e-04
<GCONST> -5.372034e+00
<MIXTURE> 2 5.000000e-01
<MEAN> 0
<VARIANCE> 0
<GCONST> 0.000000e+00
<STREAM> 4
<NUMMIXES> 2
<MIXTURE> 1 5.000000e-01
<MEAN> 1
 -5.741943e-04
<VARIANCE> 1
 3.091917e-03
<GCONST> -3.941087e+00
<MIXTURE> 2 5.000000e-01
<MEAN> 0
<VARIANCE> 0
<GCONST> 0.000000e+00
<STREAM> 5
<MEAN> 15
 -2.742963e+00 -1.752385e+00 -1.745957e+00 -1.632279e+00 -1.529138e+00 -3.346823e-06 -2.531322e-06 -2.968321e-06 -2.955013e-06 -3.358657e-06 1.118926e-11 -1.766602e-11 5.447802e-11 -2.327336e-11 -1.768950e-11
<VARIANCE> 15
 1.434062e+01 4.644291e+00 4.650762e+00 3.768462e+00 3.207256e+00 1.186703e+00 6.433740e-01 6.871105e-01 5.703605e-01 4.924515e-01 7.002793e+00 5.027072e+00 5.418627e+00 4.687454e+00 4.204267e+00
<GCONST> 4.211303e+01
<STATE> 5
<SWEIGHTS> 5
 1.000000e+00 0.000000e+00 0.000000e+00 0.000000e+00 0.000000e+00
<STREAM> 1
<MEAN> 180
 3.965091e+00 1.853472e+00 2.433529e-01 7.148529e-01 5.728438e-02 4.247469e-01 -1.167850e-01 2.673363e-01 -1.152874e-01 1.157473e-01 -4.275131e-02 1.603348e-01 -1.025846e-01 1.245427e-01 -5.017899e-02 4.387138e-02 -1.238447e-01 5.908621e-02 -8.388337e-02 4.032934e-02 -1.029300e-02 1.605000e-02 -2.432292e-02 5.220682e-02 -3.875429e-02 4.282299e-02 -5.693545e-02 5.371667e-02 -4.551985e-02 4.412680e-02 -4.528520e-02 3.329163e-02 -4.462261e-02 2.672220e-02 -2.840964e-02 2.026077e-02 -3.614174e-02 3.208222e-02 -4.304984e-02 2.893383e-02 -3.178397e-02 2.507160e-02 -2.744328e-02 2.555089e-02 -2.344915e-02 1.667431e-02 -1.382326e-02 1.218193e-02 -9.965840e-03 7.269255e-03 -7.757026e-03 8.475003e-03 -8.666798e-03 8.744320e-03 -7.899711e-03 4.950920e-03 -3.205977e-03 4.273665e-03 -6.281201e-03 6.511800e-03 1.415054e-03 3.601333e-04 -7.251756e-05 7.073507e-05 -3.754707e-05 4.456833e-05 -5.639325e-05 2.551186e-05 -3.094592e-05 7.362681e-06 -2.339649e-05 1.021402e-05 -2.585970e-05 1.228514e-05 -3.441483e-05 1.703828e-05 -2.665839e-05 1.026141e-05 -2.763260e-05 1.483829e-05 -1.631270e-05 2.202756e-05 -1.219657e-05 1.526696e-05 -2.061113e-05 1.982015e-05 -1.064029e-05 1.674297e-05 -9.781921e-06 2.198723e-05 -1.479475e-05 1.506712e-05 -1.277239e-05 1.429340e-05 -1.313048e-05 9.846806e-06 -1.170844e-05 1.679637e-05 -1.126753e-05 9.295753e-06 -1.214146e-05 1.019003e-05 -8.332387e-06 7.124782e-06 -5.725314e-06 9.333668e-06 -1.048921e-05 8.696117e-06 -5.117051e-06 4.304053e-06 -5.925118e-06 6.857520e-06 -6.412194e-06 4.976833e-06 -3.130581e-06 1.692866e-06 -1.398382e-06 2.806530e-06 -4.014440e-06 2.806557e-06 6.056685e-13 1.110392e-12 -3.828353e-12 -6.874358e-13 1.754239e-12 1.296462e-12 -5.722849e-13 5.359324e-12 2.441506e-12 -2.592208e-12 1.972276e-12 -1.202482e-12 1.046137e-12 -2.873564e-12 3.815428e-12 2.707599e-12 3.020491e-13 5.972751e-13 1.920626e-12 1.808869e-12 -8.720369e-13 3.621861e-12 -1.059642e-12 -4.275868e-14 -1.016443e-12 7.639815e-13 1.706688e-12 -8.298597e-13 6.326858e-13 -1.083655e-12 5.815801e-14 -5.109368e-13 -7.235715e-13 -1.512044e-12 3.580233e-13 -2.024367e-12 1.480746e-12 -2.113815e-12 -1.599097e-13 1.147135e-12 5.558046e-13 1.828884e-12 1.551831e-12 1.316747e-12 -8.652445e-13 6.048801e-13 -3.235191e-13 -2.216754e-13 1.564920e-13 1.148811e-12 -1.213329e-12 -1.392771e-12 -6.675161e-13 -6.884175e-13 4.215755e-13 6.723428e-14 5.534481e-13 -5.001646e-13 -1.012096e-12 -1.749304e-12
<VARIANCE> 180
 5.093467e+00 1.087318e+00 2.352621e-01 1.745148e-01 1.498712e-01 6.909852e-02 9.949085e-02 3.764765e-02 8.112165e-02 4.340451e-02 4.387320e-02 3.267406e-02 3.775018e-02 2.405894e-02 2.658463e-02 2.014005e-02 2.251628e-02 1.743888e-02 1.971638e-02 1.442588e-02 1.442809e-02 1.342586e-02 1.107275e-02 1.036838e-02 9.882499e-03 8.815966e-03 8.929914e-03 9.235067e-03 7.884601e-03 7.525612e-03 6.776197e-03 6.330391e-03 5.435696e-03 5.653551e-03 4.907170e-03 4.874783e-03 4.557862e-03 4.850063e-03 4.328063e-03 4.182510e-03 3.905809e-03 3.726010e-03 3.447654e-03 3.341919e-03 3.347775e-03 3.270547e-03 3.102544e-03 2.904335e-03 2.770455e-03 2.669596e-03 2.566566e-03 2.468500e-03 2.469965e-03 2.462069e-03 2.345827e-03 2.226628e-03 2.213024e-03 2.148301e-03 2.139223e-03 2.105865e-03 6.068020e-02 2.638790e-02 1.575623e-02 8.654099e-03 8.012989e-03 5.431769e-03 5.508517e-03 4.589459e-03 5.030713e-03 4.709581e-03 4.453936e-03 4.340602e-03 3.851656e-03 3.780067e-03 3.708089e-03 3.518292e-03 3.207903e-03 3.137205e-03 2.978439e-03 2.831288e-03 2.699941e-03 2.565551e-03 2.389126e-03 2.274536e-03 2.178849e-03 2.053636e-03 1.985629e-03 1.853193e-03 1.757625e-03 1.650610e-03 1.566687e-03 1.474084e-03 1.404920e-03 1.330773e-03 1.264498e-03 1.195406e-03 1.134892e-03 1.074809e-03 1.027922e-03 9.752996e-04 9.381195e-04 8.981185e-04 8.564940e-04 8.207856e-04 7.898442e-04 7.625593e-04 7.328749e-04 7.083956e-04 6.850914e-04 6.590349e-04 6.366490e-04 6.147387e-04 5.958723e-04 5.797113e-04 5.638450e-04 5.459449e-04 5.330672e-04 5.178567e-04 5.045806e-04 4.919058e-04 8.481903e-02 3.609176e-02 3.744270e-02 2.248936e-02 2.134719e-02 1.760533e-02 1.759901e-02 1.641029e-02 1.683355e-02 1.639077e-02 1.595486e-02 1.539465e-02 1.462992e-02 1.434388e-02 1.408726e-02 1.346508e-02 1.272961e-02 1.244206e-02 1.175956e-02 1.124643e-02 1.070980e-02 1.021140e-02 9.705942e-03 9.276850e-03 8.859355e-03 8.435749e-03 8.055086e-03 7.615052e-03 7.285252e-03 6.884594e-03 6.557086e-03 6.206357e-03 5.919439e-03 5.615567e-03 5.342135e-03 5.088934e-03 4.824136e-03 4.620054e-03 4.407166e-03 4.206539e-03 4.051100e-03 3.880903e-03 3.717233e-03 3.586389e-03 3.446467e-03 3.327833e-03 3.205748e-03 3.097799e-03 3.006929e-03 2.897361e-03 2.810383e-03 2.718483e-03 2.640193e-03 2.574284e-03 2.505296e-03 2.430063e-03 2.369288e-03 2.301301e-03 2.248112e-03 2.190558e-03
<GCONST> -6.156619e+02
<STREAM> 2
<NUMMIXES> 2
<MIXTURE> 1 5.000000e-01
<MEAN> 1
 5.250543e+00
<VARIANCE> 1
 3.813370e-02
<GCONST> -1.428780e+00
<MIXTURE> 2 5.000000e-01
<MEAN> 0
<VARIANCE> 0
<GCONST> 0.000000e+00
<STREAM> 3
<NUMMIXES> 2
<MIXTURE> 1 5.000000e-01
<MEAN> 1
 -2.068993e-03
<VARIANCE> 1
 7.392230e-04
<GCONST> -5.372034e+00
<MIXTURE> 2 5.000000e-01
<MEAN> 0
<VARIANCE> 0
<GCONST> 0.000000e+00
<STREAM> 4
<NUMMIXES> 2
<MIXTURE> 1 5.000000e-01
<MEAN> 1
 -5.741943e-04
<VARIANCE> 1
 3.091917e-03
<GCONST> -3.941087e+00
<MIXTURE> 2 5.000000e-01
<MEAN> 0
<VARIANCE> 0
<GCONST> 0.000000e+00
<STREAM> 5
<MEAN> 15
 -2.742963e+00 -1.752385e+00 -1.745957e+00 -1.632279e+00 -1.529138e+00 -3.346823e-06 -2.531322e-06 -2.968321e-06 -2.955013e-06 -3.358657e-06 1.118926e-11 -1.766602e-11 5.447802e-11 -2.327336e-11 -1.768950e-11
<VARIANCE> 15
 1.434062e+01 4.644291e+00 4.650762e+00 3.768462e+00 3.207256e+00 1.186703e+00 6.433740e-01 6.871105e-01 5.703605e-01 4.924515e-01 7.002793e+00 5.027072e+00 5.418627e+00 4.687454e+00 4.204267e+00
<GCONST> 4.211303e+01
<STATE> 6
<SWEIGHTS> 5
 1.000000e+00 0.000000e+00 0.000000e+00 0.000000e+00 0.000000e+00
<STREAM> 1
<MEAN> 180
 3.965091e+00 1.853472e+00 2.433529e-01 7.148529e-01 5.728438e-02 4.247469e-01 -1.167850e-01 2.673363e-01 -1.152874e-01 1.157473e-01 -4.275131e-02 1.603348e-01 -1.025846e-01 1.245427e-01 -5.017899e-02 4.387138e-02 -1.238447e-01 5.908621e-02 -8.388337e-02 4.032934e-02 -1.029300e-02 1.605000e-02 -2.432292e-02 5.220682e-02 -3.875429e-02 4.282299e-02 -5.693545e-02 5.371667e-02 -4.551985e-02 4.412680e-02 -4.528520e-02 3.329163e-02 -4.462261e-02 2.672220e-02 -2.840964e-02 2.026077e-02 -3.614174e-02 3.208222e-02 -4.304984e-02 2.893383e-02 -3.178397e-02 2.507160e-02 -2.744328e-02 2.555089e-02 -2.344915e-02 1.667431e-02 -1.382326e-02 1.218193e-02 -9.965840e-03 7.269255e-03 -7.757026e-03 8.475003e-03 -8.666798e-03 8.744320e-03 -7.899711e-03 4.950920e-03 -3.205977e-03 4.273665e-03 -6.281201e-03 6.511800e-03 1.415054e-03 3.601333e-04 -7.251756e-05 7.073507e-05 -3.754707e-05 4.456833e-05 -5.639325e-05 2.551186e-05 -3.094592e-05 7.362681e-06 -2.339649e-05 1.021402e-05 -2.585970e-05 1.228514e-05 -3.441483e-05 1.703828e-05 -2.665839e-05 1.026141e-05 -2.763260e-05 1.483829e-05 -1.631270e-05 2.202756e-05 -1.219657e-05 1.526696e-05 -2.061113e-05 1.982015e-05 -1.064029e-05 1.674297e-05 -9.781921e-06 2.198723e-05 -1.479475e-05 1.506712e-05 -1.277239e-05 1.429340e-05 -1.313048e-05 9.846806e-06 -1.170844e-05 1.679637e-05 -1.126753e-05 9.295753e-06 -1.214146e-05 1.019003e-05 -8.332387e-06 7.124782e-06 -5.725314e-06 9.333668e-06 -1.048921e-05 8.696117e-06 -5.117051e-06 4.304053e-06 -5.925118e-06 6.857520e-06 -6.412194e-06 4.976833e-06 -3.130581e-06 1.692866e-06 -1.398382e-06 2.806530e-06 -4.014440e-06 2.806557e-06 6.056685e-13 1.110392e-12 -3.828353e-12 -6.874358e-13 1.754239e-12 1.296462e-12 -5.722849e-13 5.359324e-12 2.441506e-12 -2.592208e-12 1.972276e-12 -1.202482e-12 1.046137e-12 -2.873564e-12 3.815428e-12 2.707599e-12 3.020491e-13 5.972751e-13 1.920626e-12 1.808869e-12 -8.720369e-13 3.621861e-12 -1.059642e-12 -4.275868e-14 -1.016443e-12 7.639815e-13 1.706688e-12 -8.298597e-13 6.326858e-13 -1.083655e-12 5.815801e-14 -5.109368e-13 -7.235715e-13 -1.512044e-12 3.580233e-13 -2.024367e-12 1.480746e-12 -2.113815e-12 -1.599097e-13 1.147135e-12 5.558046e-13 1.828884e-12 1.551831e-12 1.316747e-12 -8.652445e-13 6.048801e-13 -3.235191e-13 -2.216754e-13 1.564920e-13 1.148811e-12 -1.213329e-12 -1.392771e-12 -6.675161e-13 -6.884175e-13 4.215755e-13 6.723428e-14 5.534481e-13 -5.001646e-13 -1.012096e-12 -1.749304e-12
<VARIANCE> 180
 5.093467e+00 1.087318e+00 2.352621e-01 1.745148e-01 1.498712e-01 6.909852e-02 9.949085e-02 3.764765e-02 8.112165e-02 4.340451e-02 4.387320e-02 3.267406e-02 3.775018e-02 2.405894e-02 2.658463e-02 2.014005e-02 2.251628e-02 1.743888e-02 1.971638e-02 1.442588e-02 1.442809e-02 1.342586e-02 1.107275e-02 1.036838e-02 9.882499e-03 8.815966e-03 8.929914e-03 9.235067e-03 7.884601e-03 7.525612e-03 6.776197e-03 6.330391e-03 5.435696e-03 5.653551e-03 4.907170e-03 4.874783e-03 4.557862e-03 4.850063e-03 4.328063e-03 4.182510e-03 3.905809e-03 3.726010e-03 3.447654e-03 3.341919e-03 3.347775e-03 3.270547e-03 3.102544e-03 2.904335e-03 2.770455e-03 2.669596e-03 2.566566e-03 2.468500e-03 2.469965e-03 2.462069e-03 2.345827e-03 2.226628e-03 2.213024e-03 2.148301e-03 2.139223e-03 2.105865e-03 6.068020e-02 2.638790e-02 1.575623e-02 8.654099e-03 8.012989e-03 5.431769e-03 5.508517e-03 4.589459e-03 5.030713e-03 4.709581e-03 4.453936e-03 4.340602e-03 3.851656e-03 3.780067e-03 3.708089e-03 3.518292e-03 3.207903e-03 3.137205e-03 2.978439e-03 2.831288e-03 2.699941e-03 2.565551e-03 2.389126e-03 2.274536e-03 2.178849e-03 2.053636e-03 1.985629e-03 1.853193e-03 1.757625e-03 1.650610e-03 1.566687e-03 1.474084e-03 1.404920e-03 1.330773e-03 1.264498e-03 1.195406e-03 1.134892e-03 1.074809e-03 1.027922e-03 9.752996e-04 9.381195e-04 8.981185e-04 8.564940e-04 8.207856e-04 7.898442e-04 7.625593e-04 7.328749e-04 7.083956e-04 6.850914e-04 6.590349e-04 6.366490e-04 6.147387e-04 5.958723e-04 5.797113e-04 5.638450e-04 5.459449e-04 5.330672e-04 5.178567e-04 5.045806e-04 4.919058e-04 8.481903e-02 3.609176e-02 3.744270e-02 2.248936e-02 2.134719e-02 1.760533e-02 1.759901e-02 1.641029e-02 1.683355e-02 1.639077e-02 1.595486e-02 1.539465e-02 1.462992e-02 1.434388e-02 1.408726e-02 1.346508e-02 1.272961e-02 1.244206e-02 1.175956e-02 1.124643e-02 1.070980e-02 1.021140e-02 9.705942e-03 9.276850e-03 8.859355e-03 8.435749e-03 8.055086e-03 7.615052e-03 7.285252e-03 6.884594e-03 6.557086e-03 6.206357e-03 5.919439e-03 5.615567e-03 5.342135e-03 5.088934e-03 4.824136e-03 4.620054e-03 4.407166e-03 4.206539e-03 4.051100e-03 3.880903e-03 3.717233e-03 3.586389e-03 3.446467e-03 3.327833e-03 3.205748e-03 3.097799e-03 3.006929e-03 2.897361e-03 2.810383e-03 2.718483e-03 2.640193e-03 2.574284e-03 2.505296e-03 2.430063e-03 2.369288e-03 2.301301e-03 2.248112e-03 2.190558e-03
<GCONST> -6.156619e+02
<STREAM> 2
<NUMMIXES> 2
<MIXTURE> 1 5.000000e-01
<MEAN> 1
 5.250543e+00
<VARIANCE> 1
 3.813370e-02
<GCONST> -1.428780e+00
<MIXTURE> 2 5.000000e-01
<MEAN> 0
<VARIANCE> 0
<GCONST> 0.000000e+00
<STREAM> 3
<NUMMIXES> 2
<MIXTURE> 1 5.000000e-01
<MEAN> 1
 -2.068993e-03
<VARIANCE> 1
 7.392230e-04
<GCONST> -5.372034e+00
<MIXTURE> 2 5.000000e-01
<MEAN> 0
<VARIANCE> 0
<GCONST> 0.000000e+00
<STREAM> 4
<NUMMIXES> 2
<MIXTURE> 1 5.000000e-01
<MEAN> 1
 -5.741943e-04
<VARIANCE> 1
 3.091917e-03
<GCONST> -3.941087e+00
<MIXTURE> 2 5.000000e-01
<MEAN> 0
<VARIANCE> 0
<GCONST> 0.000000e+00
<STREAM> 5
<MEAN> 15
 -2.742963e+00 -1.752385e+00 -1.745957e+00 -1.632279e+00 -1.529138e+00 -3.346823e-06 -2.531322e-06 -2.968321e-06 -2.955013e-06 -3.358657e-06 1.118926e-11 -1.766602e-11 5.447802e-11 -2.327336e-11 -1.768950e-11
<VARIANCE> 15
 1.434062e+01 4.644291e+00 4.650762e+00 3.768462e+00 3.207256e+00 1.186703e+00 6.433740e-01 6.871105e-01 5.703605e-01 4.924515e-01 7.002793e+00 5.027072e+00 5.418627e+00 4.687454e+00 4.204267e+00
<GCONST> 4.211303e+01
<TRANSP> 7
 0.000000e+00 1.000000e+00 0.000000e+00 0.000000e+00 0.000000e+00 0.000000e+00 0.000000e+00
 0.000000e+00 6.000000e-01 4.000000e-01 0.000000e+00 0.000000e+00 0.000000e+00 0.000000e+00
 0.000000e+00 0.000000e+00 6.000000e-01 4.000000e-01 0.000000e+00 0.000000e+00 0.000000e+00
 0.000000e+00 0.000000e+00 0.000000e+00 6.000000e-01 4.000000e-01 0.000000e+00 0.000000e+00
 0.000000e+00 0.000000e+00 0.000000e+00 0.000000e+00 6.000000e-01 4.000000e-01 0.000000e+00
 0.000000e+00 0.000000e+00 0.000000e+00 0.000000e+00 0.000000e+00 6.000000e-01 4.000000e-01
 0.000000e+00 0.000000e+00 0.000000e+00 0.000000e+00 0.000000e+00 0.000000e+00 0.000000e+00
<ENDHMM>
